layers 7
layer 0 Dense
20 20
[-0.293747   -0.22152694 -0.2793548  -0.01364087  0.3829451  -0.27885923
  0.8690113   0.02712155 -0.67147326 -0.08033266 -0.31069311  0.5012643
 -0.427536    0.01460669 -0.81863564  0.07267586 -0.5445063   0.32605672
  0.07782439  0.14945762]
[ 0.19290411  0.20288318 -0.3816373   0.20927238  0.1513561   0.18577921
  0.30739343 -0.33090252  0.21973997 -0.19278543 -0.2803797   0.01877531
  0.31287622  0.11573166 -0.19180746  0.05053258 -0.03430361  0.05982059
 -0.3845879   0.10508654]
[ 0.32641387  0.2917583   0.34953064 -0.06481919  0.10366434 -0.16987887
 -0.17244183 -0.34345776  0.25013548 -0.24037212 -0.19329654  0.03389168
  0.2886867   0.09276351  0.16211474 -0.11923575  0.232979   -0.11284238
 -0.03592461  0.17486334]
[-0.5303945   0.0590342  -0.38463056  0.13810527  0.01702472  0.18860775
  0.52516633 -0.17966816 -0.554358   -0.5683445  -0.75068724  0.49063268
 -0.44334188 -0.5685489  -0.3705058  -0.21821968 -0.08976127  0.2534856
 -0.41417366 -0.21583688]
[ 0.32093278 -0.5866503  -0.41129923  0.6719459   0.33619824 -0.14632955
  0.19850731  0.19454533 -0.13421291  0.28408545  1.0259088  -0.14425151
 -0.68936634 -0.11426476 -0.7003396  -0.46902758 -0.13998312 -0.41225666
 -0.05945421 -0.2756684 ]
[-0.02547008 -0.22998276 -0.13747513  0.28664106 -0.23238738 -0.1456814
 -0.15641259 -0.25215673  0.06543842  0.29679954 -0.2591276   0.0769136
  0.3061489  -0.35682192 -0.10216263 -0.33041337  0.2527057   0.00498456
  0.35036826 -0.28631988]
[ 0.3144399   0.26841164 -0.28280526  0.35615402  0.3284955   0.05789876
  0.01371467 -0.22452709  0.24608153  0.25712013  0.13905162 -0.00946191
 -0.03149301 -0.180806   -0.02309495 -0.08201662 -0.27968338 -0.13783221
  0.3711363  -0.0641247 ]
[-4.6725217e-01  1.6088097e-01  6.2917555e-03 -2.4042991e-01
 -4.7549695e-02 -1.4554065e-01  6.8066657e-02  1.4532979e-01
  1.6137327e-01  2.4066332e-01 -4.1082042e-01 -2.2070918e-02
 -2.3131625e-01 -1.0704295e-01  3.4592167e-01  3.2782742e-01
  2.4809235e-01  4.5231947e-01 -8.1129568e-03  2.2510643e-04]
[ 0.22422224  0.8166832  -0.51306087 -0.26445124  0.08461287  0.05883203
  0.14562514  0.09145591  0.02099407  0.76485515 -0.4532349   0.54145306
 -0.11001147  0.9792986  -0.3301976  -0.6050761   0.18511954  0.02131882
 -0.6709446   0.42493317]
[ 0.6038203   0.5639857  -1.0608345   0.25433955 -1.4944427   1.1418394
  0.9924625  -0.07982908 -0.92250353 -0.7387626  -0.37970245 -0.351344
  0.72861457 -1.3516577   0.57511395 -1.0624442   0.7131015  -1.9118365
 -0.88900286  0.30547723]
[-0.84745    -0.19704057 -0.80400014  0.04561558 -0.7699101  -1.0204268
  0.21288677  1.3346677  -0.0481317  -0.3613646   0.21678422  0.8530103
  0.9800426   0.27936485  1.2019396   0.08516118  0.0760424   0.21956623
  1.2027837  -1.614476  ]
[ 0.7738481  -0.778234    1.2085856   0.41091913 -0.9135044   1.102322
  0.04381039  0.3388694   0.85978585  2.0921874  -2.0352354  -0.5751103
  0.91601384 -0.29350072 -0.97354543  0.8485091   1.0364476   0.94912356
  1.3418621   0.5107533 ]
[-0.85448337 -0.42601532 -0.4489414  -0.21274614  0.2685188  -0.6545603
  0.5006795   0.6675564  -0.79802316 -0.36605576  0.77899396  0.64657867
 -0.7687776  -0.19083728 -0.21031304 -0.31494182  0.18017358 -0.4776622
 -0.4239386  -0.22944918]
[-0.3558312   0.02722907  0.01117608 -0.3247742   0.5619414  -0.25028718
  0.47445667 -0.9143432   0.09679388  0.21670952  0.38793883 -0.39736128
  0.4499165   0.2744663  -0.18950166  0.52741534 -0.5005073   0.49633193
 -0.22651868 -0.03227713]
[-1.92131847e-04 -2.96454459e-01 -1.99046165e-01  1.08367845e-01
  2.80713081e-01  9.48188126e-01 -5.04553989e-02 -1.59173280e-01
  1.62030384e-01 -1.78541511e-01 -4.71060455e-01 -1.42587870e-01
 -3.95707130e-01  2.23722100e-01 -3.02025467e-01  2.00037867e-01
 -3.46154422e-01 -1.66276097e-01 -6.36197329e-01  7.82468736e-01]
[-1.1289788  -1.1148168   0.5653044   1.7968237  -0.19187427  0.42621866
  0.59092265  1.5937763   0.46783948 -0.12649615  0.09113092 -0.02980863
 -0.49373415 -0.8186472  -0.26934162  0.5207289   1.1846398   0.16930147
 -0.07515466  0.64440435]
[ 0.93456596 -0.7807308   0.01721239  1.5230405   0.35190845 -0.22152646
  0.03638274 -0.11103493  0.1150433   0.81499225  0.32487622  0.355232
 -0.36956745 -0.15016438 -1.4993428  -0.66144097 -0.61257625 -0.5264165
 -0.11098521 -0.41591457]
[-0.3519242   0.3628933   0.04518878  0.9154939   1.2258701  -0.7049071
 -1.232674    0.19837295  0.90508664  0.25211588  0.19080804 -0.20111205
 -1.2352101   1.0506742  -0.24224687  0.25845003 -0.18783627  0.23588274
  0.29393107  0.02617673]
[ 0.99967253  1.244471    1.1697211   0.3119795   0.12091792  0.18356559
 -1.0748496  -0.8780181   0.24805102  0.44284055  0.24231745 -0.30618992
 -0.30033892 -0.80344194 -0.699401   -0.32431063 -0.00272795 -0.50895834
 -1.029878    0.9010686 ]
[ 0.03621559  0.97125405 -0.48955515 -1.1112446   0.9453225  -0.55444115
  0.4586675   0.00976306 -0.73136294 -0.91688395  0.11375996  0.24097916
 -0.21316251  0.35138085  0.6265538  -0.16922083 -0.33749628 -0.4735598
 -0.45040852 -0.4681889 ]
[-0.07696841  0.05043355  0.02002306 -0.09710589 -0.15367766 -0.01644696
  0.0361719  -0.31249988 -0.06327094 -0.10642853 -0.22496241 -0.284716
  0.00399587 -0.3286415   0.1291463   0.12553936  0.02737456  0.00192846
 -0.05526493 -0.01526419]
layer 1 Activation
tanh
layer 2 Dense
20 40
[ 0.63790125 -0.32798022  0.17471847  0.30927145  0.05537231  0.5376353
 -0.8048911  -0.3724823   0.7822888  -0.4439006   1.0191226  -0.40389022
  0.50393724 -0.27453867  0.10250197  0.31635743  0.41291     0.17299937
  0.49851584  0.50178176  0.3873483  -0.03282554 -0.80778867 -0.1283011
 -0.19394068 -0.21615577 -0.24908578  0.35153693 -0.24258724  0.97293395
 -0.59078383 -0.27429828  0.39361447  0.97112453  0.08521753 -0.13388202
 -0.37897292 -0.2755186   0.3949428   0.56973785]
[-0.2670049  -0.27380672 -0.06113234  0.29881653  0.19167471  0.2479546
  0.08518142  0.5628812  -0.22967385  0.36505726 -0.03598889  0.6838385
 -0.5862001  -0.33920008 -0.17889045  0.16998345  0.36744916  0.6085977
  0.2675523   0.13375616  0.5085452  -0.09858555  0.27537537 -0.21942368
 -0.44576254 -0.43074736 -0.2929787   0.31256562  0.62856185 -0.09164268
 -0.34766865 -0.44073412 -0.06854947 -0.616006    0.59695166  0.24420126
  0.3345955   0.1301081  -0.40865913 -0.13183993]
[ 0.47841614  0.08622255 -0.01721394  0.06738564 -0.04678364 -0.00207168
 -0.0717419   0.24893862  0.00228565 -1.3006281   1.0624956  -0.66852903
  0.51005137  0.63534063 -0.12673406 -0.04625945 -0.20248213 -0.44701678
 -0.14635378  0.23843682  0.4866319  -0.15934893  0.8275629   0.73205787
  0.66134363  1.029087    0.3730106  -0.8469919  -0.49422795  0.6096245
 -0.04690878  0.11060592 -0.28548583  0.31517306 -1.3462882   0.68401164
 -0.95740175 -1.783116   -0.86969805  0.08993051]
[ 0.25526613 -0.10814804 -0.14614101 -0.30746067 -0.16752882  0.51083267
  0.10271959 -0.57399994  0.12219754 -0.01501045  0.23293197 -0.619054
  0.25769272  0.24769518  0.4371388   0.18785861 -0.4522165  -0.276024
  0.15044624 -0.3144892  -0.4294781   0.06587901  0.05209164  0.39824033
 -0.04972558 -0.14551818 -0.26683107  0.10893143 -0.44747394  0.34776372
 -0.18870187  0.10967182  0.00453181 -0.13655217  0.00220775 -0.35419142
 -0.22032966 -0.41989177  0.35978243  0.43888134]
[ 0.39306122 -0.26585945  0.37777126 -0.03179825 -0.08731755 -0.78859
 -0.42953524 -0.8619161  -0.6200968  -0.08882163  0.556409    0.03223302
  0.4419351  -0.6312151  -0.6319391  -0.8377505   0.7333533  -0.02894503
 -0.4063382  -0.18212463  0.7860868   0.04674527  1.4471358   0.95543796
  0.22639398  0.470363   -0.16342302  0.3997416  -0.1944509  -0.11856285
  0.6950093  -0.4676698   0.02420453  0.10692465 -0.51596624  1.3323781
 -0.30179694 -0.40059918 -1.0550168  -1.260503  ]
[ 0.41062167 -0.77214575 -0.15902399  0.24631739 -0.10624299  0.67597216
  0.07967296 -0.08617996  0.37618515 -0.7583348   0.5571516  -0.28170648
  0.75994796  0.21123728  0.84331805  0.3604791  -0.14392258 -0.41486046
  0.20729716 -0.21433413  0.40405193 -0.07914573 -0.9804475  -0.09785844
  0.22929576  0.0193041   0.11667005 -0.48222136 -0.27364928  1.9532301
 -0.28657198 -0.48477173  0.07391986  0.28959203  0.76572776  0.1384962
 -0.52732813 -0.6752881  -0.4626384   0.55241245]
[-0.37960774 -0.6764557  -0.22869901  0.01758247  0.07889245  0.02904507
  0.26284757  0.6219492   0.00627223  0.92142487 -0.7326083   0.47517568
 -0.7939493  -0.7956543  -0.2912821   0.18295234  0.33098358  0.14060232
  0.9505051   0.15860954 -0.31213325 -0.11073242 -0.6766344   0.01332452
 -0.27710602 -0.06896771  0.16630457 -0.2303074  -0.02350669 -0.32715547
  0.30897042  0.51926297  0.8056394  -0.5853866   0.54401255 -0.1673323
  0.30413336 -0.08504298  0.23414373  0.36123356]
[-0.5768324   1.4454533  -0.18202822 -0.5743735   0.04237721 -0.31650403
  0.13813959  0.16565989  0.27301157  1.0424126  -1.1382844   0.26337788
 -0.50403243  0.50664324  0.10265965 -0.6660294  -0.65296805 -0.24631381
  0.17962067 -0.11532549 -0.7682565  -0.16408134 -0.50389254 -0.14025746
 -0.14191079 -0.45101494 -0.15604903 -0.18401149 -0.6678268  -0.19691244
 -0.02948776  0.79725075 -0.18341377 -0.2084015  -0.04822675 -0.5556512
  0.8589913   1.1427517   0.13195711  0.38340974]
[ 0.319635    0.830634   -0.03345419  0.5106383   0.29993477  0.10744025
  0.3103916  -1.0010543  -0.29233477 -0.5387848   0.64175373 -0.5787257
  0.7632066   0.8117373  -0.07848969 -0.7835687  -0.64261764 -0.50976014
 -0.89956754  0.22781692  0.19185865 -0.05690542 -0.04020072  0.1852954
  0.2895439   0.7057428  -0.03599278 -0.5216585  -0.7042124   0.34574533
  0.38962945  0.40181762 -1.2506884   0.36950037 -0.38897002 -0.2528418
 -0.98036844 -0.58290625 -0.19498183 -0.4787218 ]
[ 0.14494792 -0.3547813  -0.0818174   0.08071846  0.05935849  0.40268806
 -0.6687189  -0.06897287 -0.23771544 -0.6796858   0.3329633  -0.27493256
  0.21939681 -0.5069643   0.208319   -0.67276657 -0.50454676  0.3104078
 -0.25390828  0.29326224 -0.28337678 -0.23761757  0.23947093 -0.04833263
 -0.28790224  0.5436886   0.01034465  0.007713   -0.3130123   0.20210123
 -0.07773404  0.15762907  0.47110483 -0.31831223 -0.9774332  -0.2650334
 -0.557147   -0.8021521   0.38097933 -0.00169146]
[-0.01962716 -0.23604853 -0.01804012 -0.4348553  -0.04017958 -0.76558566
  0.358667    0.04809774 -0.3497501   0.2713545  -0.26924464  0.08266709
 -0.00973707 -0.19701721 -0.5192246  -0.26597607  0.28585202  0.17198205
  0.1121584  -0.41170394  0.15431769 -0.14141218  0.23715474 -0.0928659
  0.09185198  0.32809347 -0.12089028  0.01222487 -0.16994812 -1.189742
  0.54564995 -0.16452874 -0.39116845  0.07019687 -0.21248215  0.32440603
  0.41871756  0.765001    0.16150078 -0.88469744]
[-0.2872619   0.1914303   0.17605357 -0.2789193   0.24824835 -0.02870225
 -0.24214725  0.15231073 -0.00985757  0.3434853  -0.43852946  0.44802207
 -0.4245251  -0.4060043   0.05194134 -0.16365783  0.14238946  0.29775953
 -0.07977165 -0.00568446 -0.21502753 -0.00714634  0.05920133  0.10283404
 -0.05253649 -0.19059767 -0.08606091  0.46050733  0.05361872 -0.36128363
  0.10447314  0.3608293   0.37963942  0.0719042  -0.3703838  -0.03064983
  0.21860811  0.29269868  0.32729122 -0.02751785]
[-0.12668943 -0.09885491  0.31438386 -0.28833    -0.1478152   0.28599405
  0.43368897  0.35458282  0.5467529  -0.05504013  0.2956999   0.40314984
  0.33123028  0.6520916   0.17762043  0.72626597 -0.80978113 -0.3033204
  0.33745557  0.11090762 -1.0573974   0.10583702 -0.6614317  -0.25633428
 -0.3552782   0.01928546  0.14208801 -0.17788282 -0.11924643  0.00411936
 -0.6604565   0.8062586   0.42141265 -0.03172204  0.6908562  -0.9487054
 -0.15137157 -0.3600731   0.831052    0.48672017]
[ 0.06227228  1.0812342   0.20945676  0.18047729 -0.11320868 -1.0493782
 -0.07724898 -0.08269809 -0.5719017  -0.25758517  0.18807611  0.20493862
 -0.0376668   0.12279707 -0.582818   -1.1701946  -0.4777541   0.20564966
 -0.0907606   0.00478453 -0.25615725  0.15071775  0.2900993  -0.10979292
 -0.0187947   0.5766124   0.38928124 -0.04816096 -0.750152   -0.31574893
  0.8395016  -0.10457511 -0.09986771 -0.23244156  0.21739303  0.5173649
 -0.0415005  -0.0011947  -0.3944863  -0.7670915 ]
[ 0.18449572  0.79626864 -0.1529417   0.21971582 -0.02466722 -0.4151514
 -0.24312621  0.89135903  0.03625165  0.43021837 -0.6514798  -0.00220538
 -0.15264365  0.7648172  -0.40055236  0.1693336   0.03256747  0.14179106
  0.0455702  -0.430435    0.44134247 -0.2466585   0.09681244 -0.35041147
 -0.02689728 -0.51785076 -0.00959557  0.05655379  0.01544795 -0.24781665
  0.12879814 -0.04641202 -0.63356507 -0.06837577  0.73637044  0.29328206
  0.43799666  0.9614346  -0.57233423 -0.14006333]
[ 0.02616728  0.03246051 -0.1839932  -0.30717662 -0.04161895 -0.32427362
  0.6053552  -0.40332058 -0.4330779  -0.26727554  0.14554001  0.64232075
 -0.19256014  0.59388274 -0.4224947   0.31689548 -0.18515246 -0.5069308
 -0.00955168 -0.27433527 -0.45093468 -0.05915988  0.35052153  0.507528
  0.20612226  0.49089694 -0.24265699 -0.10520458  0.05130146  0.2807384
  0.25100243  0.08225838  0.04474121 -0.43558744 -0.21330811  0.16106579
  0.08213551 -0.6246     -0.45827836 -0.28694618]
[-0.07006761  0.6721323   0.06499109  0.11135364  0.04744834 -0.01769935
 -0.5181442   0.43228257  0.02798781  0.16350935 -0.48715642  0.09537108
 -0.2863012   0.6304161   0.3365115  -0.07648966  0.2246885  -0.7455917
  0.17303349 -0.13951492  0.55148077 -0.24151652 -0.01114247 -0.4144966
  0.23015168 -0.5904863  -0.22040884 -0.141893   -0.08803191  0.9333163
 -0.40436208  0.16595717  0.12051032 -0.3702154   0.08617096 -0.44105747
  0.0325828   0.2092784  -0.27519464  0.39808556]
[ 0.07492132  0.00976573 -0.15030734 -0.7736835  -0.02167867 -0.769446
  0.5949319  -0.16428742 -0.62737244 -0.4028403   0.29014188  0.77325076
  0.11279276 -0.02006487 -0.70727456 -0.3971501  -0.50957036 -0.13951065
  0.75820106  0.4449756  -1.209264   -0.21051489  0.6443195   0.05797569
 -0.07663535  0.8708329  -0.40908286  0.37395298 -0.6280272   0.15744562
  0.6374146   1.3942327   0.33928263  0.0477133  -0.91218764 -0.37259525
 -0.4336939  -0.73327047 -0.36995518 -0.42043036]
[-0.4939024   0.23515157 -0.10855109 -0.5897459   0.08291053 -0.21219315
 -0.10714166 -0.2867104  -0.3323237   0.36655918 -0.31222337 -0.03732835
  0.07852679  0.72916806  0.37422246 -0.08764299 -0.6145626   0.05377089
 -0.02004422  0.09361617 -1.573522    0.03450282 -0.40086132 -0.03903291
  0.40414608  0.24340297  0.08542196  0.16418631 -1.2298734  -0.526737
 -0.2868622   1.1670287   0.4012783  -0.08783055 -1.4266851  -1.6216434
  0.08840065  0.41322842  0.21961194  0.10178575]
[ 0.7385541  -0.00160348 -0.0741658   0.6341757   0.10190061  0.19895129
 -0.47912163 -0.4771632   0.53010756 -1.3999981   0.69941807 -0.74604934
  0.97553754  0.33706385  0.31547898  0.04409586  0.3578684  -0.23949467
 -0.45510766  0.13558511  1.0620191   0.03214765 -0.22439398  0.07237495
  0.01012098 -0.33259392  0.25174785 -0.2952033  -0.3714528   0.9352105
 -0.28556693 -0.68906164 -0.48622927  0.17713098  0.68746156  0.29357657
 -0.997051   -0.53483444 -0.88662297  0.18463522]
[-0.17664814 -0.2829425   0.50311005 -0.27442667  0.05757554 -0.12824728
  0.3819763  -0.10746608  0.10197379 -0.02203024 -0.13961825  0.28486937
 -0.10053331 -0.68888944  0.06018361  0.18221284  0.42259115  1.5100367
 -0.3512242  -0.22136854  0.13653715  0.09821191  0.24436928 -0.20467278
 -0.30126888  0.08336817 -0.29004803  1.0852245   0.36466992 -0.1050876
  0.12189988  0.012558   -0.01988501  0.22392166  0.08618758  0.09742998
  0.20399666 -0.05556755  0.2936335  -0.18429221]
layer 3 Activation
tanh
layer 4 Dense
40 20
[ 0.46302846 -0.32934135 -0.2155487  -0.09759811 -0.11140101 -0.513846
 -0.21554619 -0.41559422 -0.04734766  0.5750479   0.30354694  0.02669072
 -0.24786359 -0.07905105 -0.0701179   0.3695502   0.29133496 -0.01860538
  0.2049274  -0.49935302]
[ 0.180238   -0.25418112  0.3654032   0.17613038 -0.05859759 -0.04806245
  0.52467966  0.23524198  0.43266675  0.24022229  0.22228844 -0.01559363
 -0.05125833 -0.58438456  0.43867552  0.35798192  0.05153261  0.35957894
  0.38585517  0.21915089]
[-0.06556929  0.08973836 -0.294676   -0.08999895  0.15760496 -0.11079921
 -0.252945   -0.21191846  0.01521849 -0.11005595 -0.11463337 -0.21465191
  0.01528271  0.13063401 -0.10970998  0.0967304   0.23284447 -0.44772163
 -0.16574271  0.23780805]
[ 0.5795586   0.07247257 -0.05636501  0.39718363 -0.32855883 -0.10937159
  0.02993058 -0.35075006  0.01387834  0.29755962  0.04477338  0.0312831
 -0.22935462 -0.37451163 -0.08021317  0.39474225 -0.05593172 -0.02964905
  0.2662249  -0.42778096]
[ 0.21572709 -0.01697112 -0.09035371  0.01956882  0.02941447 -0.00079782
  0.00482729  0.56724584 -0.02667711  0.0829557   0.02641718 -0.0170772
 -0.02283718  0.10540494  0.05618864 -0.06686956  0.04995568 -0.02912327
 -0.18366894 -0.12291089]
[ 0.20161451  0.5293983  -0.58891726  0.56657505  0.04104545  0.07927468
  0.28773236  0.08288552 -0.43459627  0.50565094 -0.59901893  0.32432017
  0.3885499  -0.48160815 -0.12288763  0.06167891  0.59472674 -0.27207243
 -0.10137151 -0.33055186]
[-0.43384746  0.20374699  0.17256881  0.00790065 -0.08622378  0.01985893
  0.22106676  0.13137266 -0.33124134 -0.36637896  0.17676848 -0.49381536
  0.24896279 -0.0171165  -0.4736201  -0.41375238 -0.23648861 -0.40406644
  0.41426203  0.0008318 ]
[ 0.42299116  0.14248116  0.258945    0.32830146 -0.37835178  0.29435778
  0.41982085  0.18659289  0.49421704  0.37318274  0.43886015 -0.20407943
  0.08449601 -0.5289359   0.7512013   0.26819447  0.08710468  0.2139029
  0.10563844  0.08903232]
[-0.14327276  0.2834603  -0.643231    0.1922512  -0.09658101  0.10657027
  0.12664296  0.19640374 -0.17579156  0.5467687   0.04037683 -0.07483115
  0.15862414 -0.5211018  -0.26320738  0.14071472  0.60550976 -0.47936824
 -0.00521255  0.12729329]
[-0.7254454   0.10014582 -0.11214496  0.42178482  0.13782683  0.6959436
  0.9026437   0.57376575 -0.07506375 -0.15043823  0.09704016  0.17714566
  0.46765226  0.15270884  0.2465836  -0.6647565  -0.08609203  0.1474867
 -0.26597574  0.6562382 ]
[ 0.5410283  -0.311089   -0.09211755 -0.48117486 -0.10477722 -0.8201539
 -0.6525889  -1.080261   -0.44714558 -0.19799435 -0.33640897 -0.03506901
 -0.28471667 -0.11101386 -0.23237555  0.6195384   0.04931551 -0.30408722
  0.04788608 -0.3308097 ]
[-0.07438026 -0.0431348   0.7481844   0.22159654 -0.2811358   0.3250859
  0.39424077  0.6857739   0.18111737  0.43300602 -0.20160584 -0.32160437
 -0.05290624 -0.16342787  0.2063131  -0.08569063 -0.22157611  0.04496875
 -0.19416215  0.21717338]
[ 0.6697423  -0.12260364  0.0187323  -0.39559913 -0.10211232 -0.8452576
 -0.2865196  -0.9612875  -0.29353043 -0.07459559  0.4735734  -0.04713613
 -0.26569813 -0.00567937 -0.07175682  0.44323555 -0.23343822  0.24170622
  0.15358774 -0.46594092]
[-0.05905997 -0.21229723 -0.5151642  -0.31885535  0.34411544 -0.25445244
  0.11472879 -0.04519226 -0.14638847 -0.18113306  0.6152333   0.58681154
  0.25552842  0.2617671  -0.5145799   0.07242285  0.39992228 -0.5081483
  0.32877645 -0.04225908]
[ 0.21212555  0.23554745 -0.49493402  0.13671     0.11737773 -0.00587479
  0.30121642  0.19687489 -0.19825757  0.04124486 -0.57470584  0.28184423
  0.71662617 -0.62699395 -0.42275882 -0.33040673  0.5522613  -0.42386195
 -0.37846255 -0.31697422]
[ 0.02136002  0.45712563 -0.65244335  0.02531594 -0.16681613  0.18158972
 -0.29629818  0.0390311  -0.13044374  0.10507841 -0.17057264 -0.24731629
  0.18074511 -0.30631435 -0.36661315 -0.5462604   0.7938124  -0.5548513
  0.37014383 -0.17098412]
[ 0.43415877 -0.10533468 -0.6140947   0.0128248  -0.3049866   0.0398105
 -0.18232688 -0.38402045 -0.06520179  0.46525747 -0.28947917 -0.1957286
 -0.21040097 -0.34494656  0.46040714  0.2896646   0.10749613 -0.43812603
 -0.45094383 -0.3091159 ]
[-0.10702407  0.21884221  0.01425352  0.2137259   0.01412082 -0.03457362
 -0.07595047 -0.03744922  0.1713309   0.05763137 -0.16047367 -0.87284595
  0.03336868  0.15167783  0.10313677  0.01872866 -0.01807383  0.05467958
 -0.3825695   0.00698758]
[-0.33593997  0.04100703  0.12735873  0.08678382  0.24381399  0.10686891
 -0.33308902 -0.37629882  0.21103045 -0.49914643 -0.31065917  0.31154823
 -0.18468659  0.02822378 -0.26976666 -0.2683476   0.10745606  0.17372508
  0.01108562  0.27639234]
[-0.03039985  0.00640015  0.49448088 -0.00258107 -0.12593412 -0.2557587
 -0.08651281 -0.05956818  0.03966444 -0.604899    0.04660362  0.1810775
 -0.01518667 -0.12388769 -0.08605314  0.11442974  0.11391816  0.17549774
 -0.54456323 -0.17175035]
[ 0.8118664  -0.09081409 -0.52502257  0.19041888 -0.74702686  0.10004167
  0.20687652 -0.5000794  -0.61693895  0.9790297  -0.07507794 -0.09320098
 -0.41384965 -0.5943016   0.42655662  0.42354584  0.53171456 -0.43562332
 -0.20340052 -0.31150517]
[ 0.12673585  0.0370912  -0.12420651 -0.0575175   0.18222252 -0.05890512
 -0.11504959 -0.15388891  0.02665922  0.06626581 -0.14953089 -0.03653286
  0.04040739  0.08785967 -0.13000245  0.20125085  0.02318956  0.09044675
 -0.02550376 -0.00788923]
[ 0.07413889 -0.8766544   0.5717515  -0.60153264  0.13274503 -0.25253928
 -0.5551403  -0.3304441   0.07005994  0.0533614  -0.20546506 -0.333067
 -0.6016948   0.13977744  0.27285492  0.47614935 -0.89584816  0.39939526
 -0.11855134 -0.03262865]
[ 0.09271313 -0.33055758 -0.24967025 -0.33056074  0.347308    0.02955782
 -0.14100364 -0.5781392  -0.39795813 -0.36406922 -0.3050517   0.45905423
  0.1485434   0.4350503  -0.43999878 -0.01532966  0.03027261  0.2013297
 -0.2584081  -0.21254735]
[ 0.03032065 -0.16641605  0.31862968 -0.19546634 -0.4610335  -0.03931268
  0.24754436  0.21051207 -0.18198141  0.0437778   0.16382416 -0.04214371
  0.18629925  0.33610374 -0.08368143 -0.02467272  0.06334287 -0.03968081
  0.29421526  0.01250927]
[-0.04025619 -0.7818179   0.5055202  -0.36559275  0.1972079  -0.4295894
  0.03048171 -0.37944603  0.03209108 -0.22379443 -0.28051573 -0.13967967
 -0.38966322  0.53634334  0.17309548  0.2856786  -0.8129647  -0.16377985
 -0.02829682  0.15380526]
[ 0.29190195  0.0784651   0.30608842  0.00320148 -0.02879646  0.09555997
 -0.2955285  -0.20022222  0.03979206  0.04478176  0.14714551  0.20435755
 -0.09074938  0.07960731  0.14938048  0.15306075  0.3407825   0.28118345
  0.08407034 -0.20671166]
[-0.3071114   0.03681618  0.3233899   0.00160052  0.04416269 -0.07152075
  0.0211675  -0.0607295   0.03402387  0.14999771 -0.62090194 -0.5755646
 -0.08313525  0.16550037 -0.09822174 -0.13948701 -0.28638086  0.19033892
 -0.4104914   0.23100138]
[ 0.29634392 -0.2775779  -0.27460852  0.45266727 -0.18814142  0.3874265
 -0.1510535   0.07264131  0.10369708  0.6120987  -0.09857527 -0.40173697
 -0.5338987  -0.67386615  0.45607746  0.15021649  0.18117698 -0.69271535
 -0.36231995  0.01495646]
[ 0.2713136   0.18402116 -0.2927272  -0.3274865  -1.0691111  -0.4647574
 -0.39160568 -0.41103595 -0.655751    0.7570874  -0.76190305  0.02568292
  0.32326645 -0.36464784 -0.6971298  -0.3491398   0.5487782  -0.45089707
 -0.01397357 -0.5510211 ]
[ 0.5872861  -0.753958    0.27620175 -0.28303558 -0.10988896  0.072183
 -0.6171233  -0.11215864  0.4164178  -0.454693    0.10497286 -0.16686746
 -0.2564411   0.25225788  0.41956037  0.467322   -0.8019311   0.35364705
 -0.14904921  0.01225325]
[-0.7890267  -0.22846475  0.22539641 -0.2675961   0.7993732   0.09792341
  0.27957255  0.44288963  0.5619763  -0.33476698  0.10836363  0.07398709
  0.3206062   0.28595832 -0.19939575 -0.10079779 -0.45197666  0.26457343
  0.38747942  0.49314985]
[-0.26600572  0.07880384  0.08600911 -0.28624898  0.29237506  0.07470833
 -0.31189743 -0.42395815 -0.14296931 -0.47683236 -0.46546724  0.34834644
 -0.25610453  0.1865182  -0.54039973 -0.36504072  0.23523991  0.18878311
 -0.4280267   0.20961055]
[-0.379254   -0.01990582 -0.8230441   0.00338081 -0.07474336 -0.43241414
 -0.16863851 -0.07383148 -0.1504351   0.11199696  0.02917142 -0.17485376
 -0.3183675  -0.11873837  0.0270352   0.2137705   0.06795869 -0.48956797
  0.02485343  0.11209612]
[ 0.23043965  0.1899838  -0.2606653   0.7524171  -0.50221086  0.4257839
  0.27752146 -0.10886016 -0.29671568  0.62940353  0.49871677 -0.47297215
 -0.5818698  -0.91138935  0.71123105  0.16996026  0.25856996 -0.643282
 -0.16627353 -0.08091673]
[ 0.54956764 -0.14460918 -0.13028851 -0.17987995 -0.5979646  -0.27962664
 -0.92214173 -0.34889925  0.03025326  0.41111648 -0.10561489 -0.3565392
 -0.61132246 -0.31828916  0.5954073   0.3398249   0.46114728  0.08170803
 -0.38666493 -0.27481   ]
[-0.55727506  0.462659   -0.34307382  0.35454574  0.06168235  0.53500795
  0.09072691  0.38179895  0.16598366  0.14457953 -0.40509677 -0.09513845
  0.15213946 -0.15223318  0.18098508 -0.4632958   0.081325    0.32687658
 -0.17853232  0.29116228]
[-0.174394    0.3355541   0.04400368  0.68399024 -0.15104412  0.6767354
  0.9206545   0.47683385  0.4221913   0.38423824  0.35446396 -0.2555937
  0.9503219  -1.1092976   0.16694365 -0.5126056   0.16258802  0.30762142
 -0.22925133  0.62925553]
[-0.8629998   0.37754723  0.19011115  0.04901388  0.58939636  0.5561254
 -0.03723161  0.16738445 -0.24736279 -0.54359037 -0.39198834  0.21630761
  0.26140702  0.6059702  -0.45457348 -0.5725225   0.12353297 -0.15003596
 -0.28831494  0.34329587]
[ 0.32639378  0.38311917  0.03267435  0.7822696  -0.16024826  0.26272193
  0.8092048   0.21672569 -0.34873235  0.25964314 -0.20484568  0.2918344
  0.22136055 -0.66641355 -0.36695808 -0.3231414   0.7359809  -0.49160066
  0.14829688  0.11348701]
[-0.1745823  -0.0223853   0.08815178 -0.09814165 -0.01130353  0.0618927
  0.00246498 -0.16748697 -0.08608006 -0.06841434 -0.09516044 -1.1272655
  0.07194587  0.23307513 -0.76610696 -0.00956447  0.15729368 -0.23967788
 -0.3888681   0.16858134]
layer 5 Activation
tanh
layer 6 Dense
20 1
[-0.24283592]
[0.33444926]
[-0.06492708]
[-0.36270857]
[0.35029945]
[-0.3784478]
[-0.27555168]
[-0.04500481]
[-0.36238018]
[-0.15922135]
[-0.14915018]
[0.41006225]
[0.3385636]
[0.21939774]
[0.07130235]
[-0.40636578]
[0.20264664]
[-0.04747591]
[0.14350756]
[-0.25051662]
[0.30945662]
