layers 7
layer 0 Dense
20 20
[-0.11464901  1.0063814  -0.22825687  0.30873024 -0.20174518  0.14740057
  0.21237323  1.0507365  -0.34837165 -0.03135366 -0.35147375  0.01237303
  1.4750165   0.7132596  -0.01228384 -0.23200941 -0.24988502 -0.38698056
  0.05001829  0.5199865 ]
[ 0.38490868  0.11658984 -0.16586249  0.26248348  0.11062938  0.17527491
  0.18515271 -0.23805164  0.2406072  -0.14412364  0.18377048  0.11092135
 -0.00722313 -0.3498975   0.20174623  0.3116148  -0.2649011  -0.24570073
 -0.11875606  0.38262093]
[-0.05668339  0.10642564  0.07937267  0.28339225  0.1505894   0.2724123
  0.05174434 -0.07149255 -0.10947746 -0.36580613 -0.23138475 -0.08459288
 -0.15607749 -0.355893   -0.175939    0.02330658 -0.3443868   0.2227493
  0.2397641  -0.17332183]
[ 0.5210324   0.46361053 -0.40295082  0.7994144  -0.39982036  0.09849214
 -0.47146645  0.8042236  -0.308636   -0.00349846 -0.6675255   0.09935684
  0.87060034  0.64565843  0.03881073  0.43519953  0.07037097  0.31726137
 -0.16453482  0.5564042 ]
[ 3.6831814e-01 -8.7514825e-02 -8.5960287e-01  7.8920323e-01
 -7.8273785e-01  7.6591891e-01 -4.6186459e-01  3.1848007e-01
  1.7534976e-01  2.1512413e-01 -7.8083895e-02 -4.7822118e-01
 -3.3529368e-01  2.6436293e-01  3.0783275e-01  6.9995135e-02
  1.0910578e-04 -2.0150799e-01 -1.1045777e-01  8.9370203e-01]
[-0.2501514  -0.025024    0.19711494  0.10226178  0.17024636  0.08993396
 -0.18752293 -0.02962554  0.0562892  -0.32479447  0.00675359  0.10685879
 -0.20025197 -0.2769963  -0.3399706  -0.34664586 -0.17569725 -0.33819804
  0.26272112 -0.36555728]
[ 0.00923151  0.15943474 -0.1843835  -0.10322407 -0.32426628 -0.07131425
 -0.1971937   0.01787832  0.27421063 -0.19533317 -0.12912619  0.19081849
 -0.08127856  0.31230372 -0.27268925  0.1576072   0.21142632 -0.38109723
 -0.35035327  0.38239318]
[ 0.10568927 -0.6021193   1.1047809  -0.85437346  0.7354829  -0.18122539
  0.95293444 -1.0272989   0.18386021 -0.6305642   0.74398094 -0.24188726
 -0.79486674 -0.1463481  -0.22482014  0.35084412 -0.21211223  0.11191281
 -0.14458884 -0.75402987]
[ 0.44572338  0.2439212   0.7595927  -0.32415226  1.2430594   0.1670116
  0.1715446  -1.0347258  -0.23356849 -0.43958884  0.5318253   0.04766123
 -1.3219249  -1.3203175  -0.1440244  -0.23847492 -0.06633996  0.6599163
  0.42011547  0.7604536 ]
[-0.46124485  0.04505269 -0.05761697  0.21190383 -0.05205543  0.21996376
 -0.06290473 -0.05970451 -0.22493862  0.03013925  0.16660294  0.0126129
 -0.04223955 -0.06071321  0.07183449 -0.37788138 -0.20488444  0.07608721
  0.09961775 -0.24329464]
[-0.06439974 -0.02831049  0.38117164 -0.05120124 -0.03477423  0.22628452
 -0.14472441 -0.07716274  0.3149242   0.17768274  0.4184039   0.4722482
  0.1433921   0.1778815  -0.26698148  0.05664051  0.10672394 -0.26793164
  0.44437295  0.07185155]
[-0.95672625 -0.0935441  -0.45166984  2.525429   -0.8940904  -0.4323387
 -0.23778485 -0.98114544  1.1976346   0.5753417   0.28738952 -0.16747727
 -1.5515064  -0.7380081   0.18525895  0.09246326  0.2853832  -0.5327309
 -0.38434103 -2.273711  ]
[-0.49874356 -0.7432572   0.08122933 -0.40652147  0.67502     0.75016123
 -0.43255964  0.01849507  0.4480869   0.92637897 -0.17285411 -0.88115895
 -0.22126223 -0.2615765   0.6606978   0.15608464  0.1832702  -0.36031988
  0.21690856  0.19638972]
[-0.3579694  -0.0481884   0.23856378  0.20357104 -0.05849375  0.04450905
 -0.92952603 -0.0419332  -0.28926614 -0.37302268  0.45315966  0.04341907
 -0.09263482 -0.09599128  0.00286704  0.9934378  -0.5377272   0.11113186
  0.1054238  -0.24738307]
[ 0.06203648 -0.03223354  0.68111694 -0.02548663 -0.14491175  0.07319406
 -0.30066612 -0.03602313  0.18246152 -0.8995743   0.75791013  0.24407957
  0.00699814  0.09473698  1.2215343  -0.38199618  0.07588405 -0.71074754
  0.48273876  0.03621374]
[-0.1814892   0.26828387  1.0343739  -1.0169971   0.26562414 -1.0869588
  0.6397329   2.0539227   1.3971838  -0.0838884   2.1985307   0.2930039
  1.1657113   0.23817813 -0.2742825  -0.3524899   0.07988241  1.0556767
  0.16741326 -1.3589339 ]
[-0.14389177  0.40860164 -1.42239     0.7924349  -1.6527718  -0.26749933
 -0.7324617   0.6928819  -0.11056254  0.50666684 -0.18032013  0.4110545
  0.9735382   0.81330955 -0.4641162   0.21850286  0.10855054  0.12526217
 -0.44137555 -0.5584303 ]
[ 0.88088006  0.02844912 -0.65187687  0.10517792 -0.01584345 -0.28222364
  1.1539154   0.3049347   0.65138197  0.3449149  -0.6014999  -0.06503631
 -0.0482803  -0.09176684  0.21443194 -0.93450016  1.3820032  -0.06832746
 -0.23439777 -0.06683417]
[ 0.19740783 -0.34498104 -0.34913582  0.00832397  0.5923803   0.45794278
  0.3014446  -0.0632748   0.2228979   1.1597873  -1.2979988  -0.9387971
  0.31393674  0.16879079 -0.9722502   0.35093182 -0.3049524   1.1732175
 -1.2410836  -0.32814777]
[ 0.77850634 -0.6050233   2.3601663  -2.6651268   1.0785894   0.6332301
  1.6787984  -2.8478246  -0.97901165 -1.2548336  -1.3638394  -0.16140606
  1.2850043   1.2526752   0.23336671 -0.06738891  0.03715272 -0.27642667
  0.5636318   1.4259471 ]
[ 0.1467048   0.24191989 -0.40525964  0.39595383 -0.05858746  0.08527056
 -0.11556027  0.3536721  -0.230139    0.08887511 -0.23615785  0.15357223
  0.46699443  0.09576859  0.15740176  0.1374903   0.04147786  0.02369435
 -0.02476457  0.40538985]
layer 1 Activation
tanh
layer 2 Dense
20 40
[-0.6360804  -0.5673922  -0.48207352  0.20152643 -0.6460561   0.04581773
 -0.22617768 -0.83227396 -0.33017907  0.74936515  0.26870245  1.3645684
 -0.15774171  0.2336175   0.42562336 -0.8222749   0.35083926  0.14618929
  0.15194741  0.2759057   0.68425196 -0.77845496  0.5391492  -0.38179284
  0.12201469 -0.4914928   1.3395252  -0.4024079   0.36193037  0.5274777
  0.08834819  0.52518916  0.59313875  0.32713437 -1.0152775   0.17787819
 -0.7531912   1.0386833   0.7339683  -0.5562358 ]
[-0.64812416  0.00666482 -0.7508321  -0.75186557 -0.76775724  0.65478206
 -0.3232994  -0.296732    0.6015417   0.788072    0.21068698  1.0788447
 -0.2711144  -0.66593057 -0.62976164 -0.57285655  0.08374164 -0.07229874
 -0.2586552  -0.11676171  0.40137747 -0.37743258  0.17174724 -0.5628282
 -0.4475614   0.68768907 -0.318393    0.53885186 -0.31262404  0.08513678
  0.15552962 -1.0561414   0.70838237 -0.44300777  0.06033657 -0.05073982
  0.6548194   0.7908964  -0.5495647  -0.42309058]
[ 0.22006653  0.52615774  0.51810104  0.42245227  0.83164614  0.28984147
 -0.01259911 -1.1881042   0.6817358  -0.37696266 -0.25969908 -0.55794716
 -1.0686989  -0.5449683  -0.1706285   0.7334147   0.36839002 -0.05341692
  0.23462413  1.998523    0.15859284  0.05029169  1.048327   -0.07290398
  0.36086786  0.6560753  -0.39075112  0.25627294 -0.02571708 -0.88568777
  0.19489267  0.2246293  -0.02494111  0.20905912 -0.23527563 -1.6669898
 -0.18285117 -1.0813888  -0.39660507 -0.6472685 ]
[-0.11830273 -0.38341254 -0.33775294 -0.13332744  0.4965419   0.28339046
  0.28557995  0.30642644 -0.31765172  0.47958001  0.08607227  0.4242789
  0.72230226  0.35342285  0.35068536  0.03276613 -0.26746503 -0.42791986
  0.4852498  -0.99630916  0.7619637  -0.50976306 -0.01982895  1.2584865
  0.21838982 -0.562911    0.50585604 -0.31388497 -0.76295656  0.55173093
  0.16732793  0.51392    -0.22398324  0.8518184   1.0020748  -0.38365492
  0.22863023 -0.34680516  0.18652344  0.15788151]
[-0.7172383  -0.62327033 -0.17327307 -0.3485716  -0.6774491  -0.26797134
  0.29869002 -0.20865561  0.47813419  0.08022153  0.794119   -0.6572358
 -1.4400419   0.09761102  0.48143885  0.21097784  0.43320552  0.45980743
  0.6749608   0.2500896   0.32505947 -0.09168804  1.8075076   0.43382064
 -0.6020767   1.3809025   0.27884626  0.12952784 -1.8504976   0.56457597
  0.6618761  -0.667607    0.9247938  -0.5670322   0.16413371 -1.1072453
  0.71253365  0.48932084  0.36024356 -0.86111706]
[-0.16877681  0.17480624 -0.2503598  -0.10722638  0.36902633  0.11271773
  0.44054577  0.21798022 -0.768268    0.48136786  0.18974875  0.8416974
 -0.03390072  0.18223229  0.01618562  0.45057455 -0.03649445  0.30208337
  0.15340191 -0.110811    1.2255064   0.26702714 -0.21279679  0.7485508
  0.06764527  0.4795199  -0.64874035 -0.67578286  0.01684283  0.09797545
 -0.5056249  -0.11068616 -0.22486119 -0.36079746  0.26212087 -0.32501093
  0.31532994 -0.01409478 -0.43615535  0.0131514 ]
[-0.64597267 -0.07059021  0.14606793 -0.3115579  -0.3573065   0.39716586
  0.16351847  1.3145748  -0.4645346  -0.5834602   0.36966482 -0.09488719
 -0.8045054   0.7003395  -0.3483572  -0.3613979   0.89220536 -0.2777911
 -0.76599216  2.1096294   0.12779926  0.16986799  1.195903   -0.176033
  0.47623327 -0.27227867 -0.9765532  -0.49742737  0.2858692   1.0376145
 -0.8570085  -0.5410564   0.8971248   0.545365   -0.3087922  -0.34183037
 -0.17930514 -0.54575676  0.53773266 -0.35399565]
[-1.0427481   0.57509744  0.01134123  0.22177728 -0.10517229 -0.01365651
 -0.0581523   0.27087834  1.2555536   0.51086235 -0.4551552   0.7824859
 -0.5730296  -0.31324705  0.70020914 -0.25634873 -0.16919404  0.20566265
 -0.00432916 -0.01484573  1.0432768  -0.20186238  0.5317413  -0.8193414
 -0.32442564  0.35727906  0.39677164  0.61827946 -0.15972798 -0.6161755
 -0.55308616 -0.20171662  0.21638712 -0.42944208 -0.06690588 -0.57385623
  0.3071576   1.1209557  -0.74705344  0.584549  ]
[ 0.3289895   0.3858869  -0.32051277 -0.10087743 -0.01807862  0.6575447
  0.14729156 -0.6979949   0.6288192   0.36355415 -0.05658058 -0.97469836
  0.41500932  0.02476067  0.09868394 -0.6409615   0.10989667 -0.2061482
  0.0340922  -0.27080226 -0.736078   -0.5240767   0.19469653 -0.37323996
  0.48448458 -0.571265    0.52965134 -0.06239365 -0.07290228  0.560076
  0.10572222 -0.13995734  0.24904795  0.22620143  0.48886967  0.6598097
 -0.13249955  0.75603753  0.480587    0.9425861 ]
[-0.14161482 -1.1367998  -1.067934   -0.45006484 -0.5295871  -0.7209544
  0.21973562 -0.00629665  0.30978787  0.09262557  0.19336997  0.36179382
 -0.11335496  0.50736004  0.64921147 -0.02094487  1.0682049   0.33698314
 -0.0811608  -0.5714853   0.05201996 -0.1307965  -0.35688144  0.04974321
 -0.2239531   0.30421057  0.32902735 -0.4504251   0.18256485  0.14893962
  0.39797717 -0.9477453   0.3176871   0.4082024   0.2479311  -0.17512037
  1.1020927  -0.0286506   0.3960252   0.25511146]
[ 0.1788804  -0.12951228  0.12054019 -0.07265957  0.314787   -0.55029577
 -0.08612576 -0.19239867  0.8101924   0.52979714 -0.36710396  0.4593734
  1.190065   -0.6796219  -0.48538908  0.15665685  0.19735289 -0.10085412
  0.56852543  0.09936126 -0.33197117 -0.29705757 -0.4275521  -0.1474014
  0.2420233  -0.3082024  -0.2629188   0.7919505  -0.19631064  0.33009273
  0.06920318  0.19704399 -0.09495687  0.18004297  0.5200967   0.6300141
  0.16597584 -0.62450117  0.05587979  0.7471552 ]
[ 0.27953526  0.60173744  0.17002468  0.5107375   0.4858306  -0.45908654
 -0.18978179 -0.8654595   0.2695427   0.60348487  0.5615261   0.11532745
  0.09555595 -0.59564555 -0.2109297  -0.48337895  0.0306358  -0.48877552
  0.14273334 -0.04584561 -0.48783642  0.5852572   0.22081041  0.6776268
  0.27261564  0.05377569  0.14507245  0.127291   -0.03663391 -0.21688104
 -0.3013742  -0.6090731  -0.18707193 -0.05229513  0.8852183   0.21442968
  0.0609284   0.32204878 -0.60547984 -0.3910639 ]
[-1.4385161  -0.42526808 -0.44110563  0.37486696  0.03619975 -0.6839839
  0.21863881  0.26906368  0.21320154  0.5511074   0.69553024 -0.8552591
  1.607532    0.07937044 -0.5830158   0.11378597 -0.42130944  0.7777466
  0.10817157 -0.47876313  0.3721819   0.4354475  -1.3707169  -0.10906925
  0.22003067 -0.5497643  -0.31470537  0.44944555  0.30681187  0.26550984
  0.49644187 -0.1095761  -0.02682721 -0.03164349 -0.49785548  1.3189626
 -0.32936928 -0.15811603  0.11708407  0.92139953]
[-0.247642   -0.02009985 -0.42000982  0.6379411  -0.03163687 -0.6232182
  0.25442585  0.5717473  -0.33983427 -0.09722586 -0.17294312  1.1418638
  0.9827267   0.04965579  0.44854867  0.05519854 -0.22579014  0.13609512
  0.00641888 -0.40791473  0.3716473   0.6463563  -0.7583227   0.50858825
 -0.23816788 -0.07087833 -0.37050152 -0.43845707  0.7100631  -0.13676178
  0.18752307  0.26975092 -0.32869846 -0.30177763 -0.24374971  0.08928985
  0.21031094  0.16738933 -0.05895374  0.81358993]
[-0.42410195  1.2968347  -0.98301893 -0.09359636  0.83506477  0.74978936
  1.419032   -0.02200864  1.633231   -0.10079328 -0.4363982  -0.13660012
  0.9369488  -0.71603686 -0.14443114  0.01652755 -1.3175337  -0.04343515
  1.4967761   0.3197444  -0.09173546  0.24471752  0.06133852 -1.1373816
  0.39597347 -0.02237656  0.12463413  1.2345101   0.43457028 -0.09531402
  0.09197517  0.7860226   0.07089894 -1.2279134   0.03635209  0.60355115
 -1.2981856   1.6590327   0.01629357  0.0331424 ]
[-0.06345692 -0.66458094  1.6503124   0.43048838  0.5183792   0.2468144
 -1.6242496  -0.88632137 -0.9142431   0.8641782  -0.47551084 -0.3426254
 -0.07942787  0.46248427  0.40767077  0.37152654 -1.442928    0.3156312
  1.4874732   0.62170416 -0.00178527 -0.83988416 -0.14483723  1.0726149
 -0.45907968  0.46910822 -0.5354051   1.1251044   0.189852   -0.6300093
 -0.39373475 -0.5510781   0.12733184  0.68805826 -0.21984589 -0.45419195
 -1.600563   -1.279757    0.05423393  0.21359211]
[ 0.6065933   0.79760075 -1.3153251   0.79572    -0.12709264  0.39942625
  1.0384983  -0.197163   -0.03017438 -1.3823334   0.3029695  -0.38540903
  0.13659294 -0.10179961 -0.32649353 -1.5190951  -0.05087225 -0.2980741
 -0.64585805 -0.3624803  -0.16140656 -0.8422703   0.35642707 -0.03626128
  1.1664841  -1.0187486   0.7051084  -0.3305533  -0.1837078   1.2250788
  0.3771905  -0.7258607   1.3701899   1.2096742   0.02552466  0.20910875
  0.9055206  -0.69554996  1.4636927  -0.10637775]
[-0.17096841 -0.1921986  -0.63192326 -0.32360986 -0.45577657  0.31040528
 -0.56620675  0.6735912   0.6009759   0.3395308   0.37313244 -0.903015
 -0.6548862   0.76515096 -0.26511005  0.26061553  0.84657276  0.16413373
 -0.1058933   0.58218753  0.01360017  0.41393816 -0.5073869  -0.10849246
 -0.47060063 -1.0462939  -0.37466735  0.3006471   0.19942029 -0.34513223
  0.05738105  0.16025053 -0.10830962  0.6209659  -0.04167023 -0.79593456
 -0.23640722 -1.0389317  -0.10425264  0.28274578]
[-1.0000147  -0.00932251 -0.7513373   0.20608632  0.5219601  -0.9118132
  0.06146434 -0.67017627  0.9340507  -0.8138525   0.23098765 -0.4341075
  0.37413126 -1.1809773   0.27489233  0.0363403   0.35613477  0.0855428
  0.19127402  0.63067496 -0.01634363  0.14260417  0.8225988   0.7707984
  0.8214844   0.0580558  -0.7595138   0.2699514   0.18191376  0.00439796
  0.158216   -1.7084336   0.12206877  0.60695237  0.41318628  0.35089833
  0.03272934  1.8232665  -0.43437606 -0.65276   ]
[-1.093008   -0.23151036  0.21723817  0.23994386  0.22353368 -0.9337735
  0.02658319 -0.5344033   0.28884596  0.9118381   1.437349   -0.6222727
 -0.49942997  0.26140523  0.63619655 -0.42744008  0.4688469   0.9077827
  0.42582634  0.17205094  2.5017352   0.25500306  0.9820518   0.01835006
  0.1701268   0.30726737 -0.6450329   0.23008794  0.49671057  0.37307096
  0.5035381  -0.9098589   0.18738078 -0.24334675  0.09431291 -0.43778718
  0.03448934  0.55682516  0.34078813 -0.9552197 ]
[-0.20017907  0.71184593 -0.22810087 -0.02853276 -0.7434317  -0.01873188
 -0.18438783  0.42903292  0.5901537   1.1228725  -0.3335999   1.1720371
 -0.35049587 -0.20762442 -0.5716162  -0.640866    0.34777668 -0.07246729
 -0.6491962  -0.16911876  1.0025542  -0.04062121 -0.10878757 -0.94699925
 -0.5601233   0.15267216 -0.17718656  0.4323218  -0.15275845 -0.3302822
 -0.575505   -0.7059924   0.39059427 -0.3159441  -0.39051732  0.15942982
  0.8412767   1.2125628  -0.81347644 -0.24780835]
layer 3 Activation
tanh
layer 4 Dense
40 20
[-0.6591021  -0.48361027  0.87271017 -0.48175603  0.19343565 -0.31154048
  0.08326995  0.64499676  0.32267046  0.77043426 -0.20791999 -0.20676334
  0.05455827  0.44700915  0.02903129  0.8372728  -0.00437757  0.12116171
 -0.32566273 -0.9110832 ]
[-0.11828511 -0.20023578 -0.24281764 -0.1634738  -0.04586617 -0.49683872
 -0.30190304 -0.03489882 -0.5560671   0.17686749 -0.0579281   0.6462411
 -0.11029619  0.02431365 -0.08735871  0.04734673  0.9442098   0.03631473
 -0.31744495 -0.9154282 ]
[-0.20961137  0.00420476 -0.03968403  0.5515738   0.33905604  0.17199495
 -0.29394463  0.17396663  0.3391158   0.5864066   0.4051549   0.00522177
  0.05718521  0.00371604 -0.05812011  0.00362348  0.57681805  0.0865804
  1.0129303   0.52773833]
[-0.04769278 -0.2812132  -0.11892488 -0.376188   -0.14401649  0.8737874
  0.4787935  -0.4394614  -0.31673175 -0.9448234  -0.42151168  0.20661971
  0.04188373  0.69519657 -0.16071892 -0.7856389  -0.5820586   0.00793715
 -0.54913366  0.04308771]
[ 0.41990697  0.10682479 -0.9433153   0.5575323  -0.7541136  -0.15668468
  0.40259472 -0.2625207   0.02200511 -0.14578824 -0.1406583  -0.5085012
 -0.24767046  0.2553111  -0.42066604  0.10096515  0.67098564 -0.03470897
  0.83127344  0.2706242 ]
[ 0.0665143   0.17887361  0.03875923 -0.18232179  0.02134396 -0.89902025
 -0.05890407 -0.1014676  -0.10134725  0.10685328  0.07072641  0.38400126
  0.3999007   0.03355359  0.13675472  1.1129377   0.18422969  0.02421252
  0.00786639 -0.05973476]
[ 0.17668094  0.09991826 -0.12181266 -0.16661242 -0.41576052  0.39323577
  0.03339028 -0.18377593 -0.4895429  -0.38202432 -0.15242122  0.05413446
  0.11735392  0.32445166 -0.5660458  -0.23949082 -0.86103606 -0.01743057
 -0.00973486  0.49625224]
[-0.01562865 -0.16393143 -0.2473739   0.4304524   0.6983525   0.51705885
 -0.21609792  0.27025095  0.2731955   1.6998032   0.17663166 -0.57693315
  0.3239635  -0.12489225  0.18351203  0.66003996  0.2551035   0.06327608
  0.03908973  0.23657848]
[-0.17391795 -0.23919098  0.00336941  0.01173429 -0.10725983  0.20094587
 -0.51181924 -0.00398318  0.05288678  0.4349937  -0.24613845 -0.03861885
 -0.1068798   0.4788595  -0.23282155  0.49927106  0.44649386 -0.11380146
  0.09615937 -0.5154263 ]
[-0.49286348  0.3700239   0.30980623 -0.5594378  -0.10300611  0.3873333
 -0.19094712  0.35900372 -0.6630259  -0.55435145 -0.21873875  0.53138655
 -0.12941201  0.18486118  0.4602719  -0.48295832  0.06878435  0.12583953
 -0.19648482  0.46151775]
[ 0.27212903  0.5043561   0.18609916  0.01779682  0.10519332  0.09362847
  0.15289196 -0.08770028  0.0324699  -0.43339294  0.19974627  0.69519633
  0.17567645 -0.8906779  -0.09938684 -0.27713484  0.38568142  0.058677
 -0.10552106 -0.04417769]
[-0.49026874  0.31447768  0.14367291 -0.664048   -0.15003973  0.07618987
 -0.35844767  0.33658475 -0.36383367 -0.8064508  -0.50135493  0.28822684
 -0.72554207  0.6529361   0.3455075  -0.86245495  0.3686637  -0.09879922
 -0.25351873  0.03847531]
[ 0.33177075  0.28394136 -0.47716412  0.6687433  -0.3238419  -0.18937388
  0.11880268 -0.44560674 -0.20508279 -0.3050808   0.01443238  0.32348618
 -0.05375671  0.23033585  0.07065313 -0.4550844   0.07254254  0.05324771
  0.27745485  0.18205822]
[ 0.22540817  0.55875033  0.52753514  0.14108466  0.07397331 -0.01633155
 -0.22591381  0.5104526   0.69059217 -0.13791008  0.2329213   0.1319347
  0.26619476 -0.17799187 -0.29231784  1.2229755  -0.06121878  0.08080532
  1.1313167   0.22303222]
[-0.11129925 -0.12264093 -0.0657025  -0.3218773   0.17599848  0.5253331
  0.32551166  0.27334648  0.39409664  0.23106585  0.08779591 -0.37939483
  0.20117272 -0.3344108   0.03652328 -0.06821258 -0.07815749 -0.06077123
 -0.09587654 -0.0741307 ]
[-0.2208993  -0.09866317 -0.3915925   0.57138    -0.32459983 -0.49689993
 -0.34534928 -0.23792958  0.3347345  -0.6417077   0.42733306  0.07002493
 -0.25056455 -0.12878479  0.0431864   0.39011177 -0.75334173 -0.03296681
  0.8653254   0.4845131 ]
[ 0.3965779   0.85427725  0.12979308 -0.4734752  -0.05164288  0.05116124
  0.18525594  0.2148621   0.06258029 -0.04611527  0.10978226  0.5517154
  0.4715274   0.01041151 -0.15740111 -0.45385855 -0.6808484   0.04135572
 -0.440841    0.38683203]
[-0.10280105  0.0495615   0.09850194  0.24430731  0.01128829  0.39958736
 -0.02914537  0.0125762   0.18905577  0.15797737  0.3796278  -0.6928078
  0.22228007 -0.25399703  0.28074962 -0.4220664  -0.09292397  0.02814773
  0.4355285  -0.19409156]
[-0.14128605 -0.45501655 -0.32018474  0.1738296  -0.0948657   0.1690765
  0.01735692 -0.40855584 -0.13569304 -0.21145676 -0.06308156 -0.47323972
  0.08426012  0.10331683  0.1366028  -0.32761556  0.50409144  0.06746087
  0.23286442  0.3520631 ]
[-0.3192039  -0.51022077  0.5146315  -0.60480213  0.00127887  0.31608593
  0.12479316  0.01133318  0.29673693  1.0512393  -0.24561098 -0.06228603
 -0.4333321   0.7573605  -0.45082262  0.47769305  0.6217009  -0.11186173
 -0.9726408  -0.6033748 ]
[ 0.27608803 -0.21358971 -0.28645194  0.58368814 -0.7017089   1.0502213
  0.17407833 -0.66002494 -0.05249633 -1.1051347   0.58870167 -0.19136472
  0.56797373 -0.7574459  -0.1822467  -3.1047997  -0.768316   -0.02332794
  0.68917483  0.5963906 ]
[ 0.01503046 -0.0400886  -0.15588894  0.18918972 -0.2995317   0.08841171
 -0.14527199  0.13024391  0.11149073 -0.6718684  -0.0634053  -0.3246908
 -0.33998206  0.25674903 -0.13060564 -0.50428504  0.13795084 -0.02215065
  0.00465376  0.03535305]
[-0.510494   -0.31876466  0.51199025 -0.82121795 -0.11564723  0.2637913
  0.67402595 -0.17343558 -0.28997177  0.40152013 -0.570202    0.3719171
 -0.5669885   0.4578203  -0.29283252 -0.48398352 -0.47697034  0.09514321
 -0.44463706 -0.37795007]
[-0.27201357 -0.34978008 -0.62432754  0.40399423 -0.14085384 -0.46102607
 -0.04314004 -0.2935914  -0.20711987  0.34141964 -0.0146616  -0.05392068
 -0.0018539   0.31209385 -0.17160897 -0.91056937 -0.4884003  -0.03930382
  0.07802161 -0.08956523]
[-0.00161744 -0.57131094 -0.7971553   0.01705206 -0.62546    -0.12387852
  0.3863667  -0.0886884   0.23538645 -0.8809103   0.06522298  0.06416617
  0.78522116 -0.11653321 -0.00300814  0.83595186  0.00602939  0.00362775
 -0.02588169  0.7392887 ]
[-0.08156884 -0.33839497 -0.08179124  0.61162585  0.40320444 -0.82920396
 -0.32178476  0.03842373  0.08148683  0.62913847 -0.11869384 -0.4367097
 -0.06675737  0.24584265  0.37074563  0.14239174  0.00710824 -0.00527801
  0.6428795  -0.5419983 ]
[ 0.36785468  0.26224706  0.31456733 -0.4966617  -0.25947616 -0.3856653
  0.59454846  0.4245242  -0.18190458  0.31879985  0.14754324  0.38158807
  0.33805004  0.24817367 -0.1985112  -0.05603602  0.08398601  0.01834872
 -0.5352188   0.18873046]
[-0.14065328  0.5082294  -0.4929109   0.5300292   0.4942054  -0.06963097
  0.01568747 -0.05851477 -0.43219164 -0.13749833 -0.33304244 -0.07961157
 -0.43748227  0.41514978 -0.06060354  0.2211842   0.66284484  0.0252934
  0.09880918 -0.29299623]
[ 0.20992643 -0.10555204 -0.06846707  0.08490045 -0.1628612   0.26340234
  0.09050289 -0.37433127 -0.36441016  0.07541765 -0.20061637  0.29517636
  0.02123589  0.0646375  -0.0668485  -1.0043696   0.12155622  0.03404725
 -0.06289361  0.26968503]
[ 0.14419867  0.0758255   0.3956957  -0.32367676 -0.37664416 -0.7490395
  0.06481484 -0.638419    0.1015774   0.02339403  0.10162394  0.24590777
 -0.00683454  0.42981142 -0.26577     0.77310634 -0.5948567   0.05538549
  0.00562469  0.11846094]
[ 0.07514366  0.06525215 -0.07008747  0.0521108   0.31573293 -0.17059413
  0.0314768  -0.03652743  0.14788184  0.4584701   0.22501676  0.17142183
  0.08287738  0.03140119  0.11306883  0.15493564 -1.0685477   0.00662748
  0.02543351 -0.00517184]
[-0.13570133 -0.03899521  0.07178582 -0.12033092 -0.26605293  1.3250693
 -0.11264744 -0.44781938 -0.31721005 -1.2582616  -0.14158244 -0.22971874
 -0.02925325 -0.35535786 -0.24354444 -0.15640265 -0.15146634 -0.0297148
 -0.26939884 -0.23922637]
[ 0.42525426  0.32754883  0.1024981   0.25973466 -0.2458552   0.5215928
 -0.14670369  0.32974616 -0.6058281   0.44461268 -0.7036006   0.4058118
  0.46038622  0.594408   -0.06822602 -0.12290081  0.41783202 -0.03578508
 -0.38277408 -0.10059805]
[ 0.03281773  0.01449272  0.24030341  0.03906924 -0.12367231 -0.46663755
  0.16446534  0.1548531   0.25240335 -0.22071624  0.20106006 -0.6338886
 -0.1723623  -0.22672185  0.19846986  0.28568077  1.0254694  -0.02108591
 -0.04943413 -0.29453337]
[-0.26169634 -0.49508843 -0.1044783   0.27759162  0.04178099 -0.85105973
 -0.2837909  -0.59057117 -0.3183558   0.4652529  -0.30612558 -0.50636894
 -0.11430094  0.39795431  0.04480072 -0.11441587  0.29843307  0.13673158
 -0.2404956  -0.18859288]
[ 0.4427309  -0.01907164 -0.18863681  0.3981535  -0.2404289   0.27343836
  0.15613648 -0.25739133 -0.2715888   1.0881175  -0.3163019   0.47821236
 -0.07721204 -0.19860153 -0.49392045  0.1420435  -0.33753666 -0.03560698
 -0.20715499  0.55034   ]
[ 0.1059566   0.18608     0.36678123 -0.4722632  -0.20031348 -0.16769123
 -0.19192156  0.05131892 -0.40394858 -0.6229886  -0.0758139   0.5901656
 -0.05750002 -0.0978488  -0.17191656 -0.26633546 -0.6817891  -0.0134396
  0.29711908 -0.16645122]
[ 0.20800786 -0.21798292  0.14668353  0.04619627 -0.28824627  0.16687225
  0.06464244 -0.10629068 -0.244788   -0.70894194 -0.51071715  0.37480688
 -0.30588818  0.3954417   0.3923218  -0.11259621  0.06599461  0.09011002
 -0.10032751  0.80057657]
[ 8.3091438e-01 -3.4719750e-01  2.3721519e-01 -4.3896217e-02
  5.1783526e-04 -3.4771708e-01  4.3126920e-01 -2.3010619e-01
  2.9895961e-01 -4.9117035e-01  2.8238323e-01  2.8941000e-01
  3.1351906e-01 -5.4945642e-01 -1.5589102e-02 -4.6752632e-01
 -2.8226885e-01  2.5144857e-03 -4.2515182e-01  2.0763476e-01]
[ 0.34800726  0.35679862 -0.07135327  0.05007197 -0.09606642  0.53377664
  0.1839116  -0.04116262  0.1850026  -1.3387846   0.27543214  0.15767646
  0.32533494 -0.5756507   0.28190756 -0.09611484 -0.20779364 -0.06811999
  0.25453976  0.6259843 ]
[-0.3015024   0.22275853  0.42756358 -0.47174612 -0.07413127  0.21205781
 -0.03111135  0.04756572 -0.3512884  -0.5115911  -0.08954968  0.30841374
 -0.44862795  0.16358985  0.27623227 -0.47558329 -0.0020811   0.01971962
 -0.1125255   0.6226235 ]
layer 5 Activation
tanh
layer 6 Dense
20 1
[-0.60401595]
[0.649196]
[0.31283367]
[-0.32921416]
[0.36267495]
[-0.2914511]
[-0.2661555]
[0.35805425]
[-0.36602092]
[0.5371345]
[-0.5442444]
[0.32124576]
[-0.35573214]
[0.3323865]
[0.6851168]
[0.49735868]
[0.11195755]
[0.00233425]
[-0.30666158]
[-1.1741196]
[1.0860616]
