layers 7
layer 0 Dense
20 20
[ 0.21516559 -0.29976362  0.09651703  0.3308711  -0.35695297  0.06455233
  0.29584473 -0.02563991 -0.18399057 -0.18762931  0.2049937  -0.0324505
 -0.06973126 -0.06347524 -0.13466977 -0.2497481  -0.38650066 -0.41404688
  0.18325219 -0.30481124]
[ 1.4332479e-01  1.9410253e-04 -1.9541119e-01 -3.4677774e-01
 -6.3803643e-02  1.5475428e-01  1.6978544e-01 -1.6638494e-01
 -2.3009524e-01 -1.2014896e-02  1.5604693e-01 -2.3680866e-01
 -3.7075838e-01  2.1605211e-01 -1.4785875e-01 -3.8709602e-01
  3.3102310e-01 -9.7233832e-02 -1.3921142e-02  2.2571176e-02]
[-0.06592163 -0.10739371 -0.13643143  0.006791   -0.19756195  0.30237913
  0.13538098  0.29174727  0.01443815 -0.07000387  0.0775319   0.34284234
  0.09166837  0.12972772  0.34641355  0.14085859 -0.17011544  0.19235623
  0.16618556  0.31129366]
[ 0.03780568  0.31736034 -0.24858998 -0.24321014 -0.25724706  0.06015765
 -0.14562908 -0.14581953  0.25911126  0.13831538  0.08713223  0.27590406
 -0.3286421  -0.2254169   0.2766171  -0.01647132  0.03150298  0.07366672
  0.09765869 -0.33601278]
[ 0.07116792 -0.2757704  -0.29296    -0.04916705 -0.071939   -0.07101814
  0.21468149  0.0740003  -0.02724382 -0.26979083  0.19860578  0.32215044
  0.26736793  0.2367056   0.26914576 -0.18178694  0.37924826 -0.18517339
  0.19423492 -0.2619874 ]
[-0.20034118 -0.3421183   0.27745318  0.08254656  0.12583262 -0.16290662
 -0.08866504  0.31980014 -0.01678771 -0.32983822  0.29175562  0.02036336
 -0.33586583 -0.02964196 -0.1341537  -0.1398054   0.01827225 -0.16765192
 -0.01289201  0.2925861 ]
[ 0.29101992  0.03517586 -0.33988303 -0.31655365  0.00941408 -0.07475942
  0.08476621  0.24182653 -0.06795421 -0.20069335  0.16364264  0.3324672
  0.25150895  0.15275043  0.11903584 -0.12979168  0.27568895 -0.2597214
  0.04052284  0.34989017]
[-0.20708412  0.08220004 -0.1657038   0.39449626  0.11279447  0.30116236
  0.18064824 -0.01723692 -0.23986696 -0.1948389  -0.13536713  0.08823434
  0.3231644   0.00952788 -0.10124619  0.24423614  0.11759505  0.13858682
  0.33440349  0.30844513]
[-0.16823411  0.12824626 -0.10432003 -0.11577211 -0.38361272 -0.3477153
 -0.24328502 -0.24812771  0.4117505   0.10084727  0.1034257  -0.30003765
  0.05947356  0.23920627 -0.20278384  0.23510194 -0.17659661  0.16566445
 -0.12779713 -0.28732365]
[ 0.02362746 -0.0429155  -0.25437656 -0.3368671  -0.22013701 -0.27577558
 -0.06837771 -0.29344594  0.06649492 -0.13910358  0.14862168 -0.20219229
 -0.32762855  0.10458338 -0.24456038  0.19892004  0.23832962 -0.02561503
  0.39701352 -0.04799969]
[ 0.29386622 -0.05607678  0.3619232  -0.29160056 -0.02267073  0.4427917
 -0.19672175  0.1075159   0.02548732  0.33972085  0.29110813  0.22353044
 -0.36301196 -0.00103934 -0.31298035  0.02940792 -0.17742804 -0.30499026
 -0.19627959  0.06377914]
[-0.28379685  0.14976041  0.36000004 -0.26347476 -0.02995012  0.2505075
 -0.08905744 -0.28020912  0.24695307 -0.32740375 -0.00721876  0.3848922
  0.33094174 -0.32665434 -0.22133428 -0.32355893 -0.2893861   0.3181761
 -0.2823179   0.183976  ]
[ 0.13111807  0.11115386  0.4067363   0.02886217 -0.18426602 -0.10814056
  0.12119079  0.2776552   0.40649953 -0.06502039  0.12567905 -0.11753859
 -0.23358303 -0.11089878 -0.3840082   0.20449317  0.41552174  0.27799547
 -0.3250482  -0.20489822]
[-0.36030298  0.386905   -0.14190653  0.08674062 -0.25713396  0.15988268
  0.33994198 -0.17459029  0.33755922 -0.24173175 -0.28736177 -0.34495705
 -0.18545517  0.37067872 -0.05634613 -0.21667328  0.0608342  -0.16764186
 -0.02882802 -0.27827275]
[-0.0356019  -0.02095958 -0.30114245 -0.25110987  0.00904042 -0.2786458
  0.01058869 -0.29399493  0.34539384 -0.02486381  0.03373912  0.36338556
  0.24592128  0.3511829   0.27101243  0.1672109   0.23808299  0.1784254
  0.04280182  0.19303323]
[-0.3310285  -0.040572   -0.34956792 -0.39597067  0.25139922  0.09992837
  0.10395753  0.2779282   0.21660689  0.06571904  0.2613321  -0.09259465
  0.02334535 -0.32535034  0.11392536  0.20443703 -0.17437361  0.19750741
 -0.2456577   0.22355181]
[-0.3196426   0.40546086  0.11973885 -0.25923273  0.11485296  0.20007193
  0.07959589 -0.11921062  0.26113614  0.11589488  0.11576698  0.10539557
 -0.2781334   0.05199137 -0.36089134  0.19196509  0.14304826 -0.20911975
  0.19937196  0.04570539]
[-0.17942558 -0.15852286 -0.06223835  0.02782383 -0.03469343 -0.04713931
  0.28853846 -0.17386407 -0.1193273   0.05319178 -0.27146214  0.21756938
  0.05935913 -0.0450553  -0.28182518 -0.40292573 -0.23467548 -0.31264788
  0.28610152  0.13583614]
[-0.10623546 -0.10563441  0.1023706  -0.38190663 -0.1262096  -0.00593521
 -0.25117195 -0.12913392 -0.1931617  -0.06516475 -0.10547767 -0.4053039
  0.2063644  -0.22694929  0.37008655  0.2327111  -0.02705451 -0.04397099
  0.0637476  -0.08209728]
[ 0.3414452   0.31691736  0.11654507 -0.23371263 -0.26761973 -0.2893505
 -0.2570375   0.26293698  0.22415647  0.11296524 -0.43007052  0.09487801
 -0.15216921 -0.2220878  -0.27938202 -0.03319828 -0.23614879 -0.16609712
 -0.17610109  0.08876349]
[-0.02608165 -0.01048937 -0.06255695  0.05985487  0.01399717  0.04526705
 -0.01502226 -0.05560175  0.00338461  0.06314098 -0.00120141  0.05363987
 -0.02601572  0.01819558  0.04912982  0.07537849 -0.03446347 -0.06105155
  0.03436871 -0.02916505]
layer 1 Activation
tanh
layer 2 Dense
20 40
[ 0.03643917  0.18712601 -0.06996555 -0.13254991  0.036017   -0.06928391
  0.22223046  0.15178786  0.07363421  0.19493932  0.25947112  0.19888115
 -0.34142083 -0.13428526 -0.20591302 -0.15986148 -0.14457476 -0.29912493
 -0.27425697 -0.31245404 -0.1280327   0.35613352  0.05289162 -0.12738675
  0.02264203  0.22106428  0.32834053 -0.15484059 -0.21059264 -0.30979413
 -0.11638426  0.18907894  0.23604316  0.2346588  -0.28395346 -0.04935382
 -0.15178002 -0.2952714  -0.32745254  0.03168733]
[-0.1888387  -0.07263056  0.16470973 -0.33740804  0.28917474  0.097357
 -0.01145643 -0.11366175 -0.13076551  0.15194726 -0.25411642 -0.00972006
  0.24912144  0.15379256 -0.266074   -0.00047549  0.11229344 -0.10814618
 -0.08969131  0.14318122 -0.26272362  0.16099215  0.02436454  0.09828331
  0.17438427  0.19164465  0.28842822  0.13301003  0.06854986 -0.13252074
 -0.11342662 -0.10738079  0.27602822 -0.30007806 -0.22156453 -0.32843867
 -0.16431113  0.04080287 -0.03174641 -0.14009488]
[ 0.224997    0.08621319 -0.01347831 -0.36873576  0.30132654 -0.30057096
 -0.2614157  -0.22652782 -0.2219211  -0.0769145   0.2549428  -0.3188128
 -0.07783371  0.2030331  -0.10073627 -0.3844763   0.0435363   0.10563178
  0.03064214  0.10007826 -0.0782491  -0.18790397  0.08005271 -0.09617079
 -0.16823547 -0.2810344  -0.14650156  0.06327777 -0.14286464  0.0955044
  0.05132261 -0.00367504 -0.24257715  0.08529807 -0.06400024  0.29930878
 -0.15320957 -0.05960716 -0.10810642 -0.16382433]
[ 0.1471721   0.16102014 -0.0311596  -0.22886577 -0.08657176 -0.1454776
 -0.3673034   0.25438222 -0.21738075 -0.02521607 -0.10436472  0.20943528
  0.109213   -0.01081925  0.1260569  -0.15848814 -0.29703954 -0.07723556
  0.04331486 -0.10388589 -0.07330317  0.00348895 -0.16625068  0.25228626
  0.23091555  0.08104175  0.2656287   0.13084477 -0.00571529 -0.12196957
  0.11948239 -0.3057787  -0.01397815 -0.226753    0.02499211  0.17880411
  0.27805632 -0.01404754  0.03945883 -0.3069379 ]
[-0.11823709 -0.20050003 -0.03483412 -0.12057554 -0.20664293 -0.14363351
  0.22993332 -0.22289498  0.20610534  0.02698702 -0.12937057 -0.05719975
 -0.11530714 -0.03376411 -0.03543175 -0.12310167 -0.04712593 -0.08981671
  0.049853    0.13056663 -0.00152597 -0.032704    0.00494603 -0.1119794
 -0.3693051   0.3487155   0.1023185  -0.24801949  0.00506844 -0.23885344
 -0.23174167 -0.19651234  0.2572277  -0.24572782  0.07617393  0.21967505
  0.22886944  0.24695414  0.05176033  0.26898864]
[ 0.26915056  0.22395732 -0.09474147 -0.16218029 -0.1387513   0.22784455
 -0.12027334  0.18011674  0.28174686 -0.3283387  -0.03647949 -0.285319
  0.02772181 -0.22547412 -0.16943489 -0.04516065 -0.09537079  0.32436836
 -0.0680441  -0.23132421  0.33618543 -0.2929336   0.2615786   0.14268541
 -0.38961035 -0.14199534  0.07367437  0.18757196  0.02259751  0.33839616
  0.13533992  0.11699444  0.05219458  0.36357602  0.15761413 -0.31190687
  0.14095217 -0.01402394 -0.06811818  0.04485565]
[-0.05246066 -0.1590863   0.1403802   0.3380381   0.2981538  -0.00140324
 -0.29601273 -0.00929117 -0.1816214   0.26431397  0.2377256  -0.02897638
  0.21415144 -0.09927753 -0.08782786  0.00868925 -0.10280963 -0.24597493
 -0.23714909  0.10978851 -0.34504083  0.1468839   0.08389061  0.07578589
 -0.09881401 -0.10268851 -0.12612645 -0.22597417 -0.19880871  0.13511844
  0.12939554 -0.00402078  0.13471577 -0.27649334 -0.01209281  0.04782547
  0.15739994  0.16763781  0.20157245 -0.02069315]
[ 0.23798199 -0.26243523  0.0906724   0.19827445  0.10229251 -0.33500648
  0.10627694 -0.27392673 -0.15574199  0.11617372  0.05051658  0.13340388
 -0.1921167   0.19829044 -0.14124532  0.19367528 -0.22568539  0.16564052
  0.12563327  0.26221654 -0.17165533  0.02219477 -0.26125413  0.01676903
 -0.19458136 -0.06909157 -0.22410536  0.31804484  0.09275942  0.16795427
  0.31872007 -0.23799646 -0.24468687  0.18498692 -0.06578094 -0.26327297
 -0.28614798 -0.02480296 -0.04088917  0.02832798]
[ 0.04103718  0.05140004  0.16966134 -0.37781078  0.0763386  -0.32421362
  0.17957668 -0.06209978  0.08534052 -0.00873041 -0.34964636 -0.13189809
 -0.20039743  0.03502159 -0.15536311  0.3136801  -0.05018023  0.03254394
  0.12613076  0.10788479 -0.03039588  0.14936168  0.24564733 -0.00381596
  0.01882075  0.14393401  0.10590462  0.03941319 -0.18557188  0.07919524
  0.14444564  0.2916805   0.06889233 -0.17494245 -0.2357668  -0.2979631
 -0.25783744 -0.33650458  0.04366446  0.14458859]
[ 0.18154441  0.14426973  0.01072873  0.10484926  0.11871605 -0.12653744
  0.21521159  0.13522835  0.32492617  0.03079808  0.3590345  -0.13514943
  0.19780731  0.30083978 -0.18415336  0.11841128 -0.3670413   0.34769776
  0.3295779   0.1073399   0.09211463  0.20517565 -0.18324403 -0.13643731
  0.10032628 -0.21717864 -0.27039337  0.10993686  0.34511137 -0.08506439
  0.21623185  0.02447607  0.12986942 -0.22617252 -0.239148    0.19898807
  0.23078854  0.15943845 -0.18905085 -0.19521406]
[ 0.25748524 -0.03722066  0.04916995  0.19866513 -0.2542673   0.2769395
  0.2674278   0.05036459 -0.0787456  -0.22335343  0.37446782 -0.13759947
  0.27229807  0.21615528 -0.17821354  0.10941748  0.02713303  0.01835079
 -0.02248133 -0.01812732  0.23362714 -0.17570433 -0.18524913  0.00081601
 -0.09017972  0.17158611  0.04004333 -0.19553837  0.00627053  0.14195845
 -0.26959264 -0.31290382  0.19476421  0.35464793  0.05094579 -0.16019289
 -0.06604867 -0.16958827  0.09845443  0.03343057]
[-0.1088877  -0.12757514 -0.10266996  0.24232975 -0.24761857  0.267628
  0.0004676   0.30104733  0.13281001  0.2557579   0.37005335  0.07212426
 -0.05906705 -0.33628964  0.19549602 -0.09851521  0.34247598  0.16078933
  0.12843345  0.33940965  0.21860597  0.15461825 -0.06737894  0.07299665
 -0.3307739   0.16383123  0.06034314 -0.09816787  0.0791174  -0.22457524
 -0.02804282 -0.0513802  -0.13300814  0.1157543   0.17427921 -0.20152612
 -0.26335353 -0.23879853  0.1779716  -0.042907  ]
[-0.12934095  0.11695682 -0.05751307  0.0339606  -0.10453021  0.35216627
  0.1898842  -0.17381185 -0.09081305 -0.16644809  0.00859076  0.17868364
  0.06857149  0.27326995  0.1661577  -0.15069339 -0.04972105  0.22571808
 -0.02659159 -0.14989826  0.01683263 -0.20740382 -0.19808799 -0.08810148
  0.12370876 -0.13667692 -0.32125294 -0.09990914 -0.32321686  0.15616885
  0.21191944  0.32433748  0.31882402 -0.27581894  0.05489893  0.02994488
 -0.0431511   0.20667115  0.00261143  0.27664882]
[ 0.12580837  0.28443617 -0.23394969 -0.06740125 -0.19788851  0.15352629
  0.15429068  0.16429546  0.03130119 -0.26041454 -0.2517217   0.04301071
  0.31405705 -0.29456535 -0.03116079  0.23629005  0.17628984 -0.01668227
  0.02079902  0.2168542   0.2411607  -0.3604869  -0.2704729   0.1757865
  0.18292034 -0.23336133  0.00718886  0.13549705  0.15531203 -0.10764188
 -0.04523294  0.12454058 -0.04333297 -0.2945471  -0.15839674  0.07340635
  0.25830197 -0.25288686  0.30391663 -0.24824192]
[-0.05509574 -0.0162963   0.10596574 -0.21422581 -0.03162019  0.32935733
  0.06649172  0.21607019 -0.02784166  0.00873398  0.30536717  0.28674668
  0.27602777 -0.0248408  -0.10690416 -0.209316    0.08331142  0.3607575
  0.07726181  0.11710601  0.33193785 -0.31684735 -0.07788352 -0.10042194
 -0.11214803 -0.14720838  0.15885389  0.01295401 -0.29414564 -0.05548803
 -0.33807555  0.33644965 -0.14136821 -0.028421    0.09720952  0.3416554
 -0.06149012  0.33133075 -0.18795407 -0.0972401 ]
[-0.14223233  0.19539249 -0.00116597  0.14034493  0.20584093  0.27023357
 -0.3547039   0.12114617  0.10349599  0.2095676   0.25352123  0.127677
  0.28463078 -0.08158221  0.03753772 -0.13786004  0.10322873  0.12313042
 -0.08022111  0.07534476 -0.06204769  0.21475898 -0.25951368 -0.29070035
  0.09844692 -0.00978081 -0.04472448  0.1495756  -0.11770854 -0.07837323
  0.2539076  -0.02890537  0.02193858 -0.15034889  0.1788992   0.09194978
  0.01034196  0.02289411 -0.3205596   0.3240304 ]
[-0.27516434  0.19302082 -0.04556578  0.30816534 -0.27255315 -0.19446206
 -0.24075465 -0.21043946  0.01263309 -0.2303639   0.00711701  0.169379
  0.27701724 -0.04619045  0.26930976  0.12779802 -0.281384    0.0043377
 -0.30933374  0.2108991  -0.3283439   0.24601075 -0.28918257 -0.10083522
  0.35714105 -0.07544807 -0.05067192 -0.10406302 -0.28221506 -0.0062002
  0.04743976 -0.03851976 -0.21324967 -0.2505711   0.15605031  0.29403433
  0.10733829 -0.3138315  -0.01701153  0.38277158]
[-0.30347764  0.02992615 -0.16828951  0.08566262  0.22613125 -0.01129644
 -0.26175556 -0.30209932  0.16151507 -0.2509492  -0.25180635  0.16169353
 -0.2207277   0.08823483  0.34925967  0.3373688   0.06513526  0.38474658
 -0.36953044  0.31779626 -0.04054683 -0.2094886  -0.24073508  0.2205633
 -0.02680829  0.24894011  0.02798013 -0.21213917 -0.09017202  0.03071158
 -0.12676422  0.08967883  0.02848364 -0.03939769 -0.09888561 -0.09627581
  0.00448526  0.14562473 -0.02259522  0.27101156]
[-0.20845221  0.25174028  0.06791193  0.14004524 -0.0161279   0.24940099
 -0.20280796  0.17673403  0.17205296  0.10210105  0.2702216   0.22687249
 -0.17854032 -0.33870324  0.02547717 -0.10346718 -0.01664147 -0.23881975
 -0.22086062  0.20745958 -0.14595196  0.2241299   0.1362184   0.29758793
 -0.00484213  0.16391139  0.21732953 -0.14476205 -0.10280908 -0.2294498
 -0.0251306   0.18704261 -0.11480276  0.12549248  0.25036895 -0.28254497
 -0.25462794  0.13494377  0.19337815  0.32693297]
[-0.02386623  0.11442088  0.04672441  0.12464189  0.25094438  0.02259284
 -0.2577272  -0.26284856 -0.05198489  0.01118842  0.01729219  0.1666066
 -0.34757665  0.14704269 -0.1908832  -0.3302022  -0.13992876  0.00348703
 -0.11090078  0.20023707 -0.18118104  0.10601959  0.10048261 -0.14875822
  0.06694262  0.0403739   0.18747418  0.23287979 -0.01003653 -0.1993258
  0.09906498  0.31522977 -0.20396662 -0.11322881 -0.23155501  0.23695745
  0.14982732  0.24402267 -0.06697165 -0.35629275]
[ 0.01081475 -0.03286279 -0.06133167 -0.04453877  0.0587484  -0.015432
  0.06538661  0.06140338  0.06259735  0.03193273 -0.01159815  0.03597761
 -0.00546205  0.06478688 -0.02606347 -0.04715869 -0.02229488 -0.02679831
  0.00411701 -0.02673367  0.06626395  0.06468766 -0.00400181  0.01362941
  0.03084468 -0.06623989  0.03966287  0.02989053  0.05179752 -0.02255464
  0.00829612 -0.04389876 -0.07666969 -0.01495719 -0.0363846  -0.0209497
 -0.04701079  0.00944876  0.01522479 -0.04834273]
layer 3 Activation
tanh
layer 4 Dense
40 20
[-0.11059552  0.0781645   0.02666111  0.04119237 -0.11249076 -0.16109118
 -0.09739313  0.2247812   0.19318739  0.15058614 -0.06159006  0.11482745
 -0.06911337  0.23082958 -0.32577583  0.26755133  0.16385822 -0.1082087
  0.264859    0.02062813]
[ 0.0498105   0.28902102 -0.05658558 -0.05986701  0.21573415 -0.3171081
 -0.03806045 -0.14114593  0.09055441 -0.09562352 -0.04967614  0.2121299
  0.32830274  0.08726159 -0.19669038 -0.10389332  0.19263612 -0.02988987
  0.02581035  0.04651264]
[-0.06238065 -0.09508973  0.12406015  0.22003423  0.00266154  0.34103045
 -0.05373951  0.03791469 -0.26585025  0.01141114 -0.11013192 -0.21142077
 -0.15593316  0.00889339 -0.08037162  0.21014771  0.05452029  0.0678144
  0.05619793 -0.26440638]
[ 0.04140498  0.22119763 -0.07436385  0.28003982  0.32511297  0.13224939
  0.03115319  0.21233308 -0.35889933  0.26355395 -0.3013921  -0.19958009
  0.17908308  0.13013712 -0.12794429 -0.3573773   0.24121614  0.30657226
 -0.35306075 -0.08367689]
[-0.15427478 -0.24341656 -0.12031908 -0.20947228 -0.1948653   0.14693896
  0.13197058  0.2387412  -0.28908736  0.19574894 -0.02649832  0.07621714
 -0.08858709 -0.10201531 -0.34608713  0.18207304 -0.2137328  -0.07415305
  0.03363205  0.19576314]
[ 1.8476522e-01 -1.2594341e-01  5.7089210e-02  2.0027438e-01
 -1.7111591e-01 -1.8767944e-01  2.3107553e-01  2.3283018e-01
  2.1126880e-01 -3.2628903e-01 -1.6429505e-01 -2.3675989e-02
  2.7387655e-01  2.3787300e-01  2.3017466e-01  1.9345082e-01
  2.4619000e-01  3.5997599e-01 -1.6761947e-04  1.2688990e-01]
[ 0.08485317  0.26043084 -0.34904447 -0.15302476  0.011525    0.20393538
  0.25609738  0.20159797 -0.11538476 -0.10252717  0.23697196  0.0926699
  0.04558467 -0.05600455  0.01077039 -0.1742501  -0.00515536  0.29740325
  0.24690248  0.18091024]
[ 0.13390502  0.34410933  0.21562196 -0.09556548 -0.03680162  0.1569777
  0.10620295 -0.23101811  0.09841233 -0.00338422  0.05421351  0.1867443
  0.25950173  0.26429915 -0.08200641  0.02649647  0.1916855  -0.18174592
 -0.25213265 -0.34484038]
[ 3.6254805e-01 -1.7768200e-01 -2.4442804e-01 -3.2565091e-05
  1.4936548e-01 -3.1425625e-01  1.7158794e-01  1.9095826e-01
 -1.0521245e-01  7.0319928e-02  1.6807227e-01  1.5355796e-01
  1.6952857e-01 -1.6835749e-01  7.5769864e-02  2.6261047e-01
  1.4615777e-01 -1.3817848e-01  4.0966492e-02 -2.3868386e-02]
[-0.34883326  0.15108827  0.18753672  0.17799172  0.24748863  0.11460436
  0.34880835  0.24175312 -0.1881668   0.11692917 -0.10835773  0.14859585
  0.1029162  -0.14250304 -0.13011886 -0.29912153  0.16388398  0.04857809
 -0.16395113  0.05826849]
[ 0.1766944   0.01599918 -0.01311933 -0.17565617 -0.00661136 -0.1835676
  0.30729747 -0.34378904  0.2777799   0.21386132 -0.06732129 -0.31724662
 -0.22913611 -0.09892432  0.22133917 -0.10974337  0.05349223  0.28882626
 -0.18263179 -0.2972738 ]
[ 0.1458113   0.15621036 -0.22650853  0.28409147  0.3289432   0.23122899
 -0.02131364  0.32582706 -0.17203584  0.17612672  0.0827048   0.09898391
 -0.00614973 -0.2754968   0.046073   -0.09821927 -0.20530261  0.30082026
 -0.30529097 -0.02824807]
[ 0.28793654  0.06667393 -0.009255    0.22681403 -0.06698797 -0.38966092
 -0.1709794  -0.14514428 -0.04519098 -0.20321903 -0.077538   -0.17969978
  0.06711843  0.24036464  0.05166285  0.35232344  0.160492   -0.20174372
  0.36496475  0.19362614]
[-0.23051676 -0.31069255 -0.0485043   0.30381218  0.3159824  -0.08552655
  0.29856217 -0.01875683  0.09398329  0.11294726  0.11749834 -0.16230477
 -0.29280585  0.34674543 -0.17207049 -0.221599    0.16358644 -0.3264602
  0.22228199  0.10637582]
[ 0.06588624  0.02871498  0.16358413  0.02125206  0.22038414 -0.05922306
 -0.05874326  0.18295719  0.09468427 -0.0664695   0.15731357  0.16663268
  0.09071715 -0.27420804 -0.04007179 -0.14423978  0.10268666 -0.17276108
 -0.18885012  0.20140184]
[ 0.15186931 -0.04712341  0.29827616  0.03771082 -0.28001288 -0.21950415
 -0.11129434  0.3491447  -0.09515484 -0.2245936   0.13053033 -0.23075849
  0.04848496  0.00098777  0.22524515 -0.01560742 -0.23691642 -0.25863105
 -0.23722757 -0.162875  ]
[-0.08202754  0.35758105 -0.04332767  0.07234574 -0.03352471 -0.32875147
  0.17680362  0.01210223 -0.06052315 -0.28663862  0.24154797 -0.17043419
  0.24437411 -0.22929597  0.1081133   0.146727    0.12418858  0.1423068
 -0.2068927  -0.02947107]
[-0.03047294 -0.08027354 -0.1610769   0.19839248  0.14970239 -0.15430969
  0.02868442 -0.1831277  -0.06134015 -0.19788426 -0.23828265 -0.34321013
  0.33898553 -0.13273981 -0.16220424  0.0796168   0.15475805 -0.14292778
  0.23705906 -0.3104757 ]
[-0.02770209 -0.09613743 -0.3009853   0.22118257 -0.36229458  0.04647712
  0.29772052 -0.08952798  0.20391725 -0.13820101 -0.05803587  0.27209726
  0.17277804 -0.13828856  0.05766997 -0.291099    0.01987832  0.10593734
  0.29321468 -0.09269089]
[ 0.26778346 -0.29980427 -0.25263086  0.34229323  0.04073942 -0.22143303
  0.10263465  0.20896326 -0.13405234 -0.26960146 -0.14444305  0.13470407
  0.2552734   0.0173847   0.11569438  0.18027581  0.24172996 -0.18174672
  0.05944669 -0.00908355]
[-0.06089882  0.33698097 -0.2321383  -0.0167541   0.24275392 -0.18336421
  0.1760817  -0.25710344  0.06240966  0.19300902 -0.12544158  0.14689049
 -0.26064697 -0.05222646  0.02307098 -0.08561416 -0.14190002 -0.18569146
  0.14531985  0.15891808]
[-0.3650916  -0.23856542  0.24508221  0.16258302  0.31535608  0.17529051
  0.15438107  0.26293394 -0.18732408 -0.04591127  0.02576141  0.2826997
 -0.06287014  0.0825443  -0.01282382 -0.23574328  0.24490614  0.08317459
 -0.00314262 -0.12086557]
[ 0.06163392 -0.1791089  -0.2070962   0.05734505 -0.06950519  0.35936263
 -0.17073473 -0.14466365 -0.11958598 -0.02684757  0.22277117 -0.08164218
  0.1596382  -0.14568156  0.13385923 -0.16089359  0.11984922 -0.07546941
  0.01895063  0.13191569]
[-0.05295554 -0.27869797  0.0705646  -0.19369549 -0.01037845 -0.23168792
  0.18264902  0.2165473  -0.24373692 -0.09304662 -0.10531448 -0.09035224
 -0.03222519  0.03811017  0.09411251  0.04430619  0.28261784 -0.14396822
  0.25112602 -0.16449991]
[-0.11729884  0.22357875  0.30441922  0.23939031  0.01630794  0.3148218
 -0.06990776  0.14488947 -0.21348357  0.32138717  0.1550968   0.07678252
 -0.37193477  0.38000277  0.01924174 -0.16891022 -0.08640463 -0.09358475
  0.15907846  0.05010497]
[-0.13614143  0.25935805  0.14588253  0.21454103 -0.24123599  0.2171579
 -0.22209498  0.07148802  0.18100184 -0.00910819  0.361311   -0.01679253
  0.2604603   0.18179066 -0.06765246  0.14392707  0.045795    0.10877701
  0.02537177  0.2471153 ]
[-0.08942463 -0.15850332 -0.17823365 -0.00456235 -0.03083355 -0.11402313
  0.22473007  0.14920679 -0.2641557   0.26297778 -0.14672564  0.19215967
 -0.23609248  0.04402433  0.03135112 -0.07321695  0.18860911 -0.24805202
 -0.33941886  0.12883337]
[-0.37035635  0.13789447 -0.2353463   0.20428513  0.21984865  0.29378465
  0.10100579 -0.14770116 -0.14825223 -0.1195372  -0.27326235  0.0895935
  0.13864858  0.25106138 -0.175578    0.07293502 -0.27120507 -0.17244415
 -0.06784651  0.15068068]
[-0.11279579  0.02475673 -0.12318432 -0.21893749  0.093594    0.18793538
  0.17990126  0.15310505  0.14959511  0.08863972 -0.06964871 -0.0237182
  0.33953628 -0.11338049 -0.12756237 -0.13702372  0.1840378  -0.1882349
  0.35313797  0.18343158]
[ 0.27073932 -0.07193708  0.13181975 -0.00867427 -0.27086928 -0.20907958
  0.24664368  0.22235017 -0.19487923 -0.26491374 -0.13229689 -0.03175572
 -0.24488841  0.05478734 -0.17361899  0.00146792 -0.33509946  0.18913645
  0.22486784  0.05819165]
[ 0.08048408  0.16498443  0.18414013 -0.00457215 -0.2933546  -0.22361451
 -0.36849254 -0.10033602  0.20303242  0.25202683  0.22206512  0.20828621
 -0.29905576  0.04723466  0.01689518 -0.28830266 -0.25110614  0.00834819
 -0.30244374  0.16815892]
[-0.06326655 -0.24962844  0.09399346  0.23839381  0.33254012 -0.10854466
  0.06615674  0.3148925  -0.16787241 -0.14379309 -0.18029116 -0.2109549
 -0.24132648 -0.25016305  0.23154145 -0.30360076  0.02310595 -0.09167171
 -0.10112359 -0.19350928]
[-0.24085245  0.1495945   0.17886142  0.02739981 -0.05875475 -0.16609597
  0.20075361  0.17586371  0.27430123 -0.26432565  0.01044242 -0.30223054
  0.38505393  0.13974541  0.11169922  0.08918232 -0.13095677  0.1558999
 -0.0273487   0.08179412]
[-0.05564977 -0.10102178 -0.23023808  0.00773265 -0.2281692   0.03065462
 -0.05109085 -0.21945053  0.03341435 -0.25578496  0.17650935 -0.06298243
 -0.02827889  0.10968399 -0.25496033  0.24937513  0.29601753 -0.3015727
  0.19168192 -0.28960773]
[ 0.29276693  0.2509541  -0.18068708  0.24626888 -0.26825163 -0.18264568
  0.00144602  0.07814754 -0.21050341 -0.00309423 -0.21619335 -0.18011548
  0.10693736  0.18724422 -0.13677919  0.25348768  0.08696865  0.25016782
  0.03943448 -0.14488824]
[-0.04370698  0.2744037  -0.21763304  0.2018107   0.34789374 -0.16671768
 -0.01239616 -0.19076854 -0.09876376 -0.05950184 -0.28036335  0.17059281
 -0.13265689 -0.11339016 -0.02809416  0.1662819  -0.3018602   0.18531594
  0.01202323  0.02996489]
[ 0.11920927 -0.10068393 -0.2969339  -0.2881458   0.1434145  -0.30832547
 -0.06022536 -0.228867   -0.13813071  0.21846785 -0.16410525 -0.27359527
 -0.08493549 -0.06600221 -0.28928798 -0.26268458 -0.1387332   0.21093467
 -0.0899586   0.230606  ]
[ 0.2686817  -0.01642364 -0.26355022  0.35132173 -0.08784708  0.27410305
 -0.13654056  0.15176757  0.2759558  -0.2631777   0.10742645  0.01110508
 -0.10286962 -0.0662334   0.28356606 -0.3323448  -0.16317822  0.08971563
  0.07970924  0.1782845 ]
[ 0.1061687   0.14537714  0.11262369 -0.19243841 -0.29268068 -0.05557374
  0.00867538 -0.12324559 -0.28202334  0.2362075  -0.28354245  0.09349066
 -0.11127014 -0.2746336   0.05519861  0.27207696  0.32543555  0.06328712
 -0.26269525 -0.2044646 ]
[ 0.30552995  0.06150541  0.16761243 -0.21770394  0.1698459   0.13675193
 -0.14419511  0.23719507  0.144227   -0.36463344 -0.23484017  0.01533144
 -0.26652223  0.01083451  0.24921943  0.2902662   0.06244309  0.23838522
 -0.07176416 -0.06285722]
[-0.02330422 -0.05124787  0.00797183  0.04874859  0.03479085  0.03448544
  0.0650148   0.02330576 -0.03502199  0.02894833  0.06524281  0.03369089
 -0.03301742  0.02964822 -0.03581182 -0.0327158  -0.02430516 -0.06086138
 -0.02556088  0.01886455]
layer 5 Activation
tanh
layer 6 Dense
20 1
[0.538543]
[0.23038495]
[-0.27011317]
[-0.17863752]
[-0.3525316]
[-0.3942082]
[-0.2988809]
[-0.46970975]
[0.13149665]
[-0.33979857]
[-0.30210686]
[-0.45001677]
[0.18759312]
[0.01103489]
[0.0159197]
[0.22993541]
[0.54609007]
[0.3373424]
[0.3796099]
[-0.00921666]
[-0.03588362]
