layers 7
layer 0 Dense
20 20
[ 0.14794908  0.45586222 -0.0728459   0.00548198  0.3242054   0.01567565
  0.06816395  0.03628938  0.21162309 -0.30961415  0.03386593 -0.33031756
 -0.174678   -0.18362413  0.5551779  -0.13305524  0.07858972 -0.03616101
 -0.33612052 -0.21149881]
[ 0.35835373 -0.3563147   0.14607298  0.03512129 -0.17414817  0.19775552
  0.12490416 -0.10619766 -0.00084111 -0.04569864  0.10778865  0.03222451
 -0.36113277 -0.1509042  -0.09368312  0.22561622 -0.35334647 -0.23356341
  0.21422309  0.35779858]
[ 0.18522501  0.07790661 -0.09166873  0.28187865 -0.03623646  0.15121084
 -0.20543608 -0.09030092 -0.04695851 -0.15761198 -0.07369095  0.07840809
  0.26097554  0.05938762 -0.23127921 -0.20460226  0.11357349 -0.05807909
 -0.37730947  0.19509077]
[ 0.42455885 -0.18296358 -0.14236912 -0.14678165 -0.12209491 -0.41680616
  0.10755789  0.05740526 -0.33794403  0.01826641  0.43510398  0.07759251
 -0.7593255   0.37226024  0.47284904 -0.39190164 -0.20627552 -0.44152454
  0.0413469   0.24400243]
[ 0.3536617   0.44064236 -0.35108808 -0.39125028 -0.06998313 -0.40875024
 -0.09304939 -0.4660985   0.3042984   0.30268142  0.23472424  0.05100222
 -0.49565193 -0.32982266  0.547073    0.15642413  0.29787862  0.08960467
  0.07761728  0.0327638 ]
[-0.2384281  -0.30623013  0.30329138 -0.04509372 -0.35270867 -0.00833231
  0.2737654   0.17226952  0.22697073  0.32276195  0.27825016  0.19321501
 -0.04989794  0.340666    0.07280579  0.17859524  0.2050063   0.3369621
 -0.16137896  0.32341474]
[ 0.06646994  0.35360205 -0.05082032 -0.09615299 -0.3521117   0.11206886
 -0.30088362 -0.20665902  0.26817495  0.19386393 -0.14018317 -0.03568816
  0.04210931  0.14740765 -0.10715732  0.2912386   0.348634   -0.10461229
  0.2975629   0.2772262 ]
[-0.3630102   0.31108198  0.19640535 -0.20709318  0.20355192  0.24058929
  0.08036043  0.09395073 -0.24440421 -0.02205923  0.07156437  0.22399016
  0.56134534 -0.37814805 -0.04564439  0.07932067 -0.49285784  0.08768696
 -0.1798761   0.21785003]
[-0.15590289 -0.4720569   0.3060917  -0.49100915 -0.0586199   0.48918247
 -0.37765136  0.34211192 -0.20444886  0.35471386 -0.38998932  0.12216201
 -0.18162063 -0.3059001  -0.17951395 -0.3233457   0.23006813 -0.19240597
 -0.27404487  0.03541882]
[-1.4438877  -0.17252031 -0.02814809  0.13768694 -0.54554254 -0.4248592
 -0.11742114  0.72452056  1.0509772  -0.5177143  -0.16097534  0.54250956
  0.08052524  0.3204106   0.04480714  0.09115463 -0.0368059   0.64032024
 -0.16864704  0.34552002]
[-0.45651105 -1.086961    0.58712125  0.53784233  0.0154695   0.9007047
  0.25004852 -0.753145    0.40990517  0.5751037   0.66903824 -0.9908859
 -0.12513837 -0.634089   -1.1182212   0.41184807 -0.18965468 -0.83019793
 -0.04132638 -0.3546653 ]
[ 0.19788562 -0.05624125 -0.22701062  0.86017174 -0.35976294  0.04625835
  0.37972647  0.07913959 -0.28276125 -0.01316989 -0.3963585   0.2690084
  0.08884019  0.64350975  0.18798175  0.33516103  0.5486072   0.00207626
  0.30186966 -0.15688926]
[ 0.20376554 -0.50735515 -0.38383976  0.30448666 -0.29799974  0.01962365
  0.51475906  0.03818225 -0.10934185  0.14588383 -0.05871246  0.5366905
 -0.28593484 -0.28734842 -0.5809828   0.01797787  0.22039323  0.2328434
  0.05522379  0.13339198]
[ 0.5784624   1.5790167   1.1261861  -0.9371722  -0.4725545   0.6536652
  0.5528127  -1.0738047   0.24122013  0.7428499  -0.03487138  0.70191824
 -0.02334331 -1.0399443  -0.82441556  0.17883174  0.6313823  -0.9725348
  1.2636735  -1.3039622 ]
[ 0.08529223 -0.40307808 -0.11658893 -1.2946258  -1.2740973  -0.29467025
 -1.2352798   1.0355356  -1.1700134  -1.4805056  -1.1252767   0.56676495
  0.08528639 -0.14285143 -0.76646715 -1.1275257  -0.93578446 -0.17792875
 -0.01884558 -0.95536095]
[-0.11367604 -0.22322793  0.30222163  0.12427826 -0.5195029   0.28010237
 -0.05583127 -0.17615679  0.6469566   0.1426997   0.35464332 -0.41169697
  0.38300347 -0.36336374 -0.12580216 -0.08816101 -0.5305948  -0.66347533
  0.2466037   0.19830172]
[-0.17366642  0.89991856 -0.0573468   0.6533473  -0.15060692  0.3184395
  0.70333874  0.5269431   0.74424785 -0.6817337  -0.36457497  0.19545166
  1.7244418   0.24495907  0.3334758   1.3186672  -1.0971204  -0.10270474
  1.1021963  -0.5539549 ]
[ 0.677401   -0.6545464  -1.1230096   0.4924668   0.76565814 -0.75002813
 -0.36423683  0.05579764 -1.0057046  -0.31029838  0.57451475 -0.94948924
  0.2145426   0.6728135   0.88690907 -0.11246961 -0.52056044  0.66219956
 -1.0869746   0.50834084]
[ 0.40644586  1.2041831  -0.09835894  0.58419853  0.48787078 -0.8749635
  0.82819015 -0.25089425  0.6446261   0.5854601   0.481113    0.46501353
 -0.21531789  0.42904714  1.1840957   0.95843303  0.8146131   0.7372168
 -0.17052683  0.70384145]
[ 0.1310171  -0.37832698  0.49646515  0.01136253  0.7059125  -0.08939955
 -0.15888353  0.57186157 -0.18805493 -0.11051357 -0.10978658  0.23032856
 -0.40650058  0.08628295  0.17800838 -0.38853592  0.51161164  0.38822794
 -0.09886041  0.513416  ]
[ 0.09273901  0.06874823 -0.21089445 -0.07336802 -0.02665611 -0.07523954
 -0.09662951 -0.14252168 -0.04313782  0.04216317  0.26569462 -0.13855842
 -0.38516423 -0.00391459  0.17267421 -0.22783732  0.15138938 -0.0882074
 -0.14250463  0.07622068]
layer 1 Activation
tanh
layer 2 Dense
20 40
[ 0.4282529   0.05997067  0.06516223 -0.61567855  0.03311332 -0.5470154
  0.0321046   0.0861076   0.03342614  0.3755712  -0.21902703  0.30658567
 -0.12635978 -0.17494144  0.6911557   0.12319672 -0.2974599  -0.3599441
  0.41893345 -0.2556771  -0.67811984  0.39061034  0.5066771  -0.18074577
  0.2267998  -0.13146478 -0.36843252 -0.543214    0.01488669 -0.06814823
 -0.07320626 -0.34969443  0.44491324  0.1326894  -0.3119116  -0.48574528
  0.11298288 -0.15720962 -0.5487345  -0.4052509 ]
[ 1.9962850e-01 -9.7944480e-01  1.7011297e-01 -5.5597496e-01
 -5.8755708e-01 -2.6117399e-01  4.0140784e-01 -3.8091516e-01
 -3.8468733e-01  3.1873211e-01  3.0297729e-01 -3.6040482e-01
  2.2760402e-01  8.4618640e-01  3.6421645e-01  1.2509452e+00
 -5.9139901e-01 -4.9051106e-02  1.6862851e-01 -2.8460324e-01
 -6.7846054e-01  1.3699886e-01  3.0433813e-01  8.5636444e-02
  2.2541098e-01 -6.5247387e-02  5.3475004e-01 -5.0192189e-01
 -4.9010357e-01 -7.4963182e-01 -5.8247757e-01 -1.1314434e-03
 -1.8122783e-01  3.5436594e-01 -4.1507119e-01  1.4254950e-01
  3.0737244e-02 -2.4047601e-01  2.8019926e-01 -4.5993898e-02]
[-0.7062137  -0.29173124 -0.12829179 -0.29391235 -0.5780479  -0.16048777
 -0.28331268  0.11505131  0.21553652 -0.14513756 -0.5364689  -0.15407446
  0.60769933  0.6226104   0.4437275   0.6946989  -0.17709279  0.20987767
  0.48243052 -0.10453805 -0.5433848  -0.2874704   0.79817545  0.04082961
  0.25444344  0.14632256  0.5278544  -0.6712433   0.25906715 -0.44342244
 -0.22986504 -0.17854607 -0.45390996 -0.21229675  0.4231174   0.40837824
 -0.8105285  -0.5562466   0.34517395  0.17763661]
[ 0.07793741 -0.38563153 -0.21611403 -0.22333613  0.34247985 -0.01082777
  0.2614284   0.43743068  0.10847377  0.33172432  0.12239813  0.62237525
 -0.17415467 -0.17888825  0.4049974   0.14426526  0.21155642 -0.39730313
 -0.3709701   0.4248603   0.43786225  0.14204729 -0.36307117 -0.15363693
  0.5941632  -0.7132712   0.31627485  0.71340775  0.03698655  0.5725686
 -0.31474352 -1.1126887  -0.09063779 -0.02500848 -0.04580273  0.4247122
 -0.17346238 -0.61730933 -0.86401623 -0.26952258]
[ 0.22855125  0.2045727   0.05244658 -0.24928592  0.22378854  0.37626815
  0.11546186  0.23234294 -0.10687137 -0.1551308   0.43527597 -0.1441625
 -0.05714332 -0.5757105   0.3442743  -0.3054619  -0.57356995 -0.60802287
 -0.6447525   0.5923218   0.08888023  0.13683039 -0.57909733  0.46127704
  0.38199976  0.06264029 -0.1836587   0.6382686   0.15390283  0.37206233
 -0.09855935 -0.3902663  -0.38478702 -0.1587412   0.12046839  0.4176925
 -0.04005571 -0.5748506  -0.65664816 -0.48550645]
[-0.5241176  -0.21962786 -0.26773092 -0.37866694 -0.2348044  -0.01128348
 -0.37968615  0.49061704  0.17834991 -0.538728   -0.13716526 -0.20974734
  0.7058935   0.44080514  0.5962984   0.46822006 -0.04279062  0.2693626
  0.21102448  0.18700553 -0.0414835   0.13914448  0.4762139   0.40371472
 -0.45426092 -0.11483642 -0.00851335  0.09438552  0.29619232  0.11343729
  0.22763099 -0.13143863 -0.49257883 -0.13751405  0.39993143  0.34514123
 -0.5614059  -0.03549948  0.11519835 -0.1646382 ]
[-0.07846763 -0.49735615 -0.1932026  -0.74714833 -0.3147357  -0.26616395
  0.21214275 -0.2627714   0.2143806   0.3154444  -0.01259528  0.43266
  0.5340136   0.21924698  0.9517462   0.13441512 -0.24528497 -0.36881194
 -0.12660177  0.3648935  -0.06550358  0.02098811  0.2584795  -0.25707072
  0.7107348  -0.20429684 -0.17089836 -0.07741848 -0.04428398  0.3632709
 -0.42066115 -0.5797154  -0.3727836  -0.03418354 -0.24712628  0.09832601
  0.07347562 -0.6837207  -0.33284217 -0.1247528 ]
[ 0.22039668 -0.34501258 -0.3715369   0.42659214  0.35134128  0.26890907
  0.19784686 -0.11981122 -0.28043282  0.06793769  0.31273532 -0.11130713
 -0.43576306  0.09295691 -0.3102528  -0.07910271  0.16527735 -0.21948718
 -0.12843259 -0.28175074  0.25286025  0.06024865 -0.43595198 -0.36427307
 -0.24927753  0.31184655  0.4724852  -0.1879864  -0.1844747   0.23546624
 -0.1554034   0.89447165 -0.05743349  0.10876215 -0.1636732  -0.34214482
  0.50960726  0.46980387  0.60107714  0.29874167]
[-0.30241746 -0.29606467  0.07803843 -0.2198626   0.2207444  -0.57642037
  0.38477463  0.343027   -0.01549617  0.39694667  0.21073559 -0.38362965
 -0.00578704  0.75277233  0.6249606   0.57966936  0.47041968 -0.7942679
  0.50895864  0.49213007 -0.6081667  -0.28951156  0.57630134 -0.62288755
  0.40671837 -0.44454166  0.7586608  -0.05971899 -0.1349462  -0.29076
 -0.51620954  0.33960432 -0.25259283  0.12803462 -0.3638924   0.32421377
  0.06645479 -0.3202108   0.24597333  0.106523  ]
[-0.1401774   0.29912156  0.131622   -1.0815656  -0.3549592   0.29027894
  0.54194653  0.11901659 -0.23186131 -0.11779608  0.0154785  -0.19760768
  0.60798717 -0.4799739   1.0657165  -0.17357646 -0.08692262  0.01611494
 -0.2663551  -0.0886347  -0.0194827   0.15000598  0.42904     0.10845832
  0.62698513 -0.58167547  0.1186868  -0.0233692   0.4462966   0.25465205
  0.14177448 -0.5545847  -0.7935098  -0.38859034 -0.31357458  0.48664406
 -0.4426809  -0.73393065 -0.23683338 -0.07425548]
[ 1.17932096e-01  4.41339552e-01  3.47776189e-02 -3.45625252e-01
 -2.64170058e-02 -2.11125523e-01  4.53190729e-02  1.84800439e-02
  2.44872883e-01  1.14607371e-01 -3.30428511e-01  1.95126504e-01
  9.84427482e-02 -1.87611163e-01  7.80421257e-01 -3.65813226e-01
  3.54439110e-01 -7.20733553e-02  7.40518002e-03  3.04756522e-01
 -5.87364193e-04 -2.46407345e-01  1.02354333e-01 -3.11824083e-02
  3.49464715e-01 -1.70092076e-01 -2.24765033e-01  2.63277084e-01
  6.14801124e-02 -2.64712274e-01  5.28652728e-01 -8.69086742e-01
 -5.46862066e-01  8.40074047e-02 -3.07810530e-02  3.17089081e-01
  1.49272546e-01 -7.96254814e-01 -4.12829608e-01 -1.31371483e-01]
[-0.10269316 -0.40107894 -0.29563946 -0.09693321 -0.5246531   0.3652167
  0.05128847 -0.10551161  0.0527067  -0.5159418   0.5561949  -0.03724945
 -0.04398406 -0.12072007 -0.15985322  0.17368191 -0.5227682   0.47647843
 -0.42410508 -0.3865607  -0.00463728  0.30573413 -0.22277273 -0.418533
 -0.17461589 -0.10515729 -0.20668867  0.08246086 -0.11017935  0.06407692
 -0.36691993  0.8359146  -0.17169127 -0.21424483 -0.2729191   0.64033985
  0.12327388  0.36966038  0.63294464  0.62649703]
[-0.00420934 -1.5989375  -0.2788221  -0.06250202  0.17227912 -0.55634576
 -0.34828103  0.49256998 -0.32543328  0.19337016  0.11694128 -0.06707311
 -0.27746084  0.27231532  0.11857773  1.4481039   0.32743487 -0.76105577
  0.81202155  0.57713395 -0.43890294  0.02947957  0.04138973  0.5670331
 -0.05085909 -0.23287317  1.646971    0.23809248 -0.74055177  0.12649363
 -0.9988359  -0.07871164  0.5611974  -0.28597042 -0.3191066  -0.2043866
 -0.49481702 -0.16826229 -0.2564485  -1.3166964 ]
[ 0.5821031  -0.01959701 -0.06992257  0.03629842  0.26292998  0.27097356
  0.20713288  0.22912171 -0.19519985  0.19949794  0.19787033  0.27937514
 -0.54969704 -0.31483275  0.13821156 -0.29485485 -0.07333594 -0.39426374
 -0.25626746  0.31062666  0.3354874   0.323235   -0.37484166 -0.39429983
  0.25077298  0.24236171 -0.07746863  0.10769659 -0.3637042   0.44761226
 -0.34226242 -0.05033401  0.24948072  0.20757514 -0.01677968 -0.00095178
  0.54996     0.26470578  0.12970738 -0.25874814]
[ 2.7224076e-01  7.8200087e-02  3.9778084e-02 -2.5160241e-01
  2.9951659e-01 -3.3035781e-02  6.8930537e-01 -9.8903388e-02
 -5.8684137e-04  2.3552729e-01  3.9995696e-02 -2.8084315e-02
 -5.1547748e-01 -4.1376126e-01  4.6648663e-01 -5.7647362e-02
  2.2437373e-01 -2.5178158e-01 -6.0007268e-01  3.4660465e-01
  1.3328113e-01  2.5146019e-01 -5.7375783e-01  8.4640861e-02
  4.7844732e-01 -1.6381495e-01  2.3826757e-01  4.8693824e-01
 -2.6862946e-01  5.0302088e-01 -3.0924401e-01 -7.5229925e-01
 -1.7491850e-01  5.9401836e-02 -3.2354379e-01  4.4633567e-01
  1.0659104e-02 -5.0861394e-01 -5.6838191e-01 -3.4352738e-01]
[-0.42484692 -0.65700877 -0.4997276  -0.33676276  0.05998266 -0.47920054
  0.59072274  0.12491271 -0.3731832  -0.05319626  0.04420962  0.01636456
  0.07885551  0.2738179   0.5945766   0.32793567  0.07809202 -0.11431495
 -0.17575936  0.32780415 -0.07381049 -0.0061514   0.3107795   0.32733202
  0.02931065 -0.24936862  0.10893446  0.1390019   0.22462955 -0.16272536
 -0.04686614 -0.48362213 -0.5151067  -0.45124    -0.3053292   0.8304859
 -0.08007409 -0.22733127 -0.36863217 -0.49925295]
[-0.00591597  0.70416176  0.18918192 -0.48866296 -0.44054848  0.3140562
  0.36312315 -0.04052862 -0.22415815 -0.44375625 -0.0065382  -0.5536224
 -0.07776928 -0.5409658   0.6100872  -0.02569432 -0.5565932  -0.00718778
 -0.64188576 -0.11831433 -0.13443363  0.3217663  -0.09583737 -0.16954091
  0.523171   -0.38732222 -0.64273286  0.2318856   0.5100446   0.33412477
  0.54456395 -0.22868592 -0.51050407 -0.10740345 -0.42152202  0.45133877
  0.09053717 -0.4321206   0.46158716  0.8953517 ]
[ 0.46691588 -0.30326334 -0.01062281  0.68180746  0.05356816  0.54460746
 -0.18202086  0.5355592  -0.09122347 -0.24618277  0.5661313   0.30608743
 -0.1396737  -0.11272573 -0.66582435 -0.09860854 -0.02996271  0.02845916
 -0.6650348   0.00307085  0.36625445  0.05781674 -1.1731309  -0.18455978
  0.14199038  0.42005634 -0.39577228  0.09343413 -0.3602413   0.36980826
 -0.35599086 -0.05843076  0.00448996  0.11438785 -0.27749914  0.549605
  0.01613084  0.22315276 -0.06323924  0.06278611]
[-0.4565384  -0.3463343   0.03617366 -0.5098153  -0.6054957   0.04936364
 -0.32672855  0.00163503  0.00532872 -0.2116136  -0.21312486 -0.55023277
  0.34413955  0.49374843  0.00148052  0.9427509  -0.3348791   0.347709
  0.21886735 -0.22722241 -0.56003815 -0.42980325  0.6137027   0.15551138
 -0.01636847 -0.01636242  0.1771308  -0.54055285  0.50286716 -0.17857412
 -0.4432097   0.38080046 -0.37966406  0.19173798 -0.3561975  -0.10080317
 -0.01401943 -0.08814212  0.60412216  0.40492526]
[ 0.0202552   0.35734946  0.22194491  0.83511674  0.11648107  0.22609915
 -0.1597921   0.18295653  0.26873592  0.02274449  0.4286424   0.2566033
 -0.34624144 -0.34283924 -0.19571558 -0.557117    0.13364087 -0.46995595
 -0.2732651   0.18946445 -0.14125648 -0.46161515 -0.5166187   0.09088301
  0.19460341 -0.31888598  0.01659368  0.43782163 -0.17920111  0.42312977
 -0.28512964  0.0713217   0.13587138  0.24579015 -0.3310832   0.44967753
 -0.16076024 -0.09334587 -0.1460844   0.25791398]
[ 0.15720212  0.46278194  0.49510324  0.09085771  0.3401445  -0.10030984
  0.41611928 -0.12933156  0.49539718  0.12401354 -0.14066716  0.00125293
 -0.3614279  -0.07025813  0.08452015 -0.43810123  0.00526973  0.04959808
 -0.08953975  0.03015555  0.06775898 -0.16547722  0.09951563 -0.8337885
  0.31310776 -0.04197415 -0.37616575 -0.02103572  0.25993678  0.02678239
  0.0986767   0.10338189  0.00103126  0.2645127  -0.08044726 -0.21124983
  0.26343396 -0.05282065 -0.03538353  0.21962342]
layer 3 Activation
tanh
layer 4 Dense
40 20
[ 0.33980992 -0.1398596   0.00191124 -0.2194639  -0.3089762   0.3822784
 -0.04936136 -0.04630708 -0.11243681 -0.09170558 -0.14469752  0.04073835
  0.19395609 -0.30722326  0.29112738  0.22399218  0.429208    0.54702383
 -0.2948825   0.2049072 ]
[-0.19015805 -0.39567545  0.18312451  0.2629491  -0.6316818  -0.7829762
 -0.50063515 -0.68103313 -0.05686156 -0.2253412   0.5103799  -0.43626866
  0.6218353  -0.38856104  0.00797455 -0.4108321  -0.38488603  0.26165262
 -0.5973707   0.11267385]
[ 0.60883754  0.09330217 -0.00701711 -0.30449623 -0.6894912  -0.7391945
  0.0692344   0.08871356 -0.2142451  -0.06565208 -0.4320567  -0.65598255
 -0.17862307  0.04250646  0.15624249  0.00400091  0.32926527  0.05942736
  0.12166538  0.28550184]
[-0.34732866  0.13589881 -0.2667103  -0.05973181 -0.29368076 -0.4700151
  0.06830541  0.16061829 -0.40793857  0.4193799  -0.36569148 -0.43469
  0.1849634   0.12153698 -0.27222583  0.436199   -0.577339   -0.14590086
 -0.32232493  0.23249781]
[-3.7100953e-01 -5.3397011e-02 -3.7041315e-01 -3.5115793e-01
 -6.1470244e-02  1.2541753e-01 -3.8944116e-01 -1.1086851e-04
  5.5459995e-02  1.0156940e-01 -7.6068684e-02 -2.1380146e-01
  3.1307137e-01  3.0758855e-01  4.0029427e-01  3.0059734e-01
  3.6018953e-01 -1.3336343e-01 -2.4869016e-01 -1.8522918e-01]
[-0.08707328  0.28314966 -0.6662045  -0.19920059 -0.05588552  0.6709205
  0.05885633  0.42589155 -0.52758175 -0.13402137 -0.05407563 -0.3949112
  0.05805082 -0.03912498 -0.04518621  0.44210935  0.14876968  0.15667799
 -0.40924507 -0.03739478]
[-0.14219518  0.0146992  -0.1599469   0.42174068  0.2328794  -0.22544017
 -0.31614038  0.01078673 -0.01270366 -0.35982794  0.1967703  -0.43871123
  0.15703763  0.30221793  0.31388882  0.23566508  0.30222547 -0.2859774
  0.23692136  0.16552739]
[-0.00067323 -0.00511968  0.11783887  0.13163881 -0.10474578  0.13226768
  0.09797638 -0.2530514   0.16018765  0.08066326  0.30088696 -0.21888588
  0.41129702  0.05142941  0.26473382 -0.29403707  0.0501973  -0.20414963
 -0.09857106 -0.21004677]
[ 0.20696068  0.14760114 -0.06919795  0.03542988 -0.07433479 -0.8086371
 -0.0256685   0.03539346 -0.11266036  0.02528498 -0.15075794 -0.25031447
  0.18018611  0.32116625 -0.02932643  0.04744229  0.37093505  0.05697825
  0.12112639 -0.28821674]
[-0.16128005  0.09545486  0.18172544  0.08134952  0.02165835 -0.5938318
 -0.17049088 -0.39642093  0.01816201 -0.16385959  0.43673134  0.10641199
  0.3536899  -0.13089822  0.09112757 -0.43131948 -0.06554314 -0.24119449
 -0.19564182 -0.23807313]
[-0.16316041  0.2917386  -0.00146291  0.24164137 -0.06699794  0.07676265
  0.29903296 -0.01266138  0.163348    0.19687247 -0.08765707 -0.05263586
  0.28974363 -0.1727411   0.28519523  0.33081073  0.13152644  0.14993584
 -0.48925915 -0.08272874]
[-0.02874359 -0.18164127  0.30507228  0.00280536  0.44881812  0.10044718
 -0.03796649 -0.22013299 -0.4859049  -0.45997354  0.01385058  0.01651117
 -0.07170757 -0.17805487  0.14196281 -0.01612363  0.14895289  0.3466104
 -0.26578566 -0.01113632]
[-0.3522767   0.16704851  0.17634176  0.10629427  0.06178373 -0.15923503
  0.25720608 -0.35207313  0.26680896  0.06718186  0.13908747  0.34628308
 -0.27010715 -0.49333715 -0.10428195 -0.01659288 -0.2857026  -0.01745784
  0.31852305 -0.3163797 ]
[ 0.37467796  0.07386672 -0.10263394 -0.24595451  0.44776985  0.19152074
  0.21800674  0.00853416  0.12707427  0.17950945 -0.35928047 -0.03713588
 -0.07838538  0.2201372  -0.10712042 -0.08433755  0.07788211  0.05714238
  0.12449399 -0.32225755]
[ 0.10126218 -0.39533713  0.417383    0.2897831   0.26989627 -0.1467823
 -0.12883636 -0.10621476  0.41569927 -0.36509362  0.31016898 -0.28512454
  0.24228749  0.15603532  0.51153976 -0.10739444  0.3785733  -0.1928881
  0.6346122  -0.22362897]
[ 0.2966485   0.15948169  0.01354304 -0.18681623  0.33522666  0.71754074
  0.2351873   0.14716391  0.5562323   0.01124802  0.0659264   0.71745026
 -0.5066511   0.49545348  0.07232037 -0.03636532  0.22426294 -0.14496899
  0.40030292 -0.11468303]
[-0.17745633  0.2545784  -0.44786754 -0.23359172  0.4830967   0.19606449
  0.16654661  0.06470048 -0.32987058 -0.15374745 -0.07754515 -0.3799654
  0.12852137  0.3089029   0.00329319  0.37609032 -0.10413394  0.07891178
 -0.18877189 -0.12689771]
[ 0.00864219  0.1692247  -0.12216575 -0.2832267  -0.17222786 -0.58774096
 -0.14552875 -0.01642066  0.3106468  -0.08374004  0.4380389   0.24762362
 -0.11101713 -0.25708044 -0.18463819 -0.16005221 -0.31525236  0.2959295
 -0.11434714  0.2733016 ]
[-0.06694558 -0.3234455  -0.26244032 -0.37357524  0.22512297  0.8815848
  0.06793965  0.2364235  -0.0908696   0.15817831 -0.20171039 -0.04557922
 -0.32913017 -0.24700426 -0.3655281  -0.12122656  0.24899268  0.4337529
  0.37385598 -0.1313295 ]
[-0.09175944 -0.00590304 -0.49948     0.2971631  -0.08907625  0.21999285
 -0.33382827 -0.0411644  -0.02689896 -0.12334983 -0.02663635  0.03873347
  0.10369185  0.25514406  0.14813662  0.1724248   0.21158937 -0.19920608
  0.06581617 -0.16019227]
[-0.05726618  0.28098944 -0.34621605  0.4681952  -0.1358603  -0.08533826
 -0.35343423 -0.17436934 -0.38944486  0.06691013  0.09440366 -0.17906797
  0.2478896   0.05537303  0.26411048 -0.05703674 -0.28791133 -0.30593616
 -0.26999944  0.33115995]
[-0.16483437  0.12893428  0.18450032  0.08000152 -0.3678182   0.5165678
  0.08821543 -0.09416223  0.01878141  0.06946655  0.09513926 -0.0618367
  0.02715928  0.07632264 -0.01197999 -0.00200278 -0.25692    -0.07663427
  0.11267617 -0.08274377]
[ 0.12469035 -0.64075816 -0.20416915 -0.3175986  -0.18007092  0.11687266
 -0.3127049   0.45648164  0.39608902 -0.3088522  -0.0102717   0.25710228
 -0.46245232  0.22007026 -0.20075513 -0.48415914 -0.20729887  0.46536425
  0.19311112 -0.5876853 ]
[-0.07995512  0.14729793 -0.02594052 -0.15075597  0.16798723  0.5373852
  0.00696583 -0.48104665  0.1570503   0.00201021  0.38991573  0.06958555
 -0.19237125  0.16519317 -0.04366159 -0.10481282 -0.33055905 -0.11961727
 -0.19985332 -0.32106268]
[ 0.18383297 -0.0203059   0.17092197  0.13548066  0.1461233   0.38496515
 -0.05425951  0.01780552 -0.22860037 -0.12960178  0.12420029 -0.5377505
 -0.2546371   0.28830743  0.23262228  0.33353177  0.13474536  0.25363705
  0.07651863  0.13465117]
[-0.20088628  0.23932572 -0.27871987 -0.15239719  0.0089777  -0.29471675
  0.02629923 -0.2179398  -0.08275579  0.25917137 -0.37436858  0.27390358
  0.14299041 -0.00246123 -0.27786162 -0.22410506 -0.1134057   0.3178554
 -0.21163647  0.13495554]
[-0.3400838   0.27157542 -0.25182223 -0.22929373  0.85485923  0.5847591
  0.18351135  0.22981243 -0.11708438  0.23035191 -0.6017997   0.02326445
 -0.45641166  0.68366647  0.45319924  0.1848      0.85674393 -0.77437264
  0.16691564 -0.13236201]
[-0.36991498  0.17462838  0.39238444  0.09656923  0.08009277 -0.37676057
  0.02060019 -0.02327901 -0.03394525  0.12004079  0.15031101 -0.22933607
  0.16737303  0.01049448  0.12260298  0.06170332 -0.19071062 -0.3911647
 -0.28174937  0.02312917]
[ 0.08984884 -0.20845471  0.2866446  -0.07662538 -0.34141797 -0.43887994
 -0.15054134 -0.39502698  0.0781429  -0.19277646  0.15207763  0.21957612
  0.3724771  -0.00307317 -0.00526694 -0.12400763 -0.05747045 -0.32244247
 -0.05556643 -0.09581519]
[-0.06405991  0.08070713 -0.1325474   0.13516365  0.13259341 -0.20880632
 -0.05218104 -0.28223777 -0.12772708 -0.22314703 -0.05898098 -0.17683464
  0.1673916   0.28001767  0.05093009  0.11906646 -0.07972421 -0.19559743
 -0.31075242  0.45372024]
[-0.09753576 -0.06337029  0.35937324  0.06211505 -0.04490661 -0.1948298
 -0.31189007 -0.2701002   0.30667713 -0.2143531   0.3306738   0.07431693
  0.40953743 -0.28490302 -0.29030675 -0.44940498 -0.48995054  0.15051301
 -0.14842539 -0.1308333 ]
[-0.06936929  0.16979584 -0.04038113 -0.3173479   0.20429622 -0.4829687
  0.28677735  0.5080387  -0.03118424  0.21932778 -0.4027068   0.284738
 -0.174401   -0.22415045 -0.17476605 -0.00955695 -0.32862166 -0.26104003
 -0.17791928 -0.02887939]
[-0.32418358  0.18608008 -0.370238   -0.2797407   0.17945369  0.33052632
 -0.265685    0.051951   -0.43823624  0.5698689  -0.53815204 -0.45489427
 -0.05684378 -0.52899086 -0.22429082  0.31745142  0.1718814   0.64864016
 -0.27495497 -0.01192554]
[-0.304645   -0.07641908 -0.4719197  -0.20736465 -0.04189673 -0.46344027
  0.02535364  0.08200187 -0.24935208  0.0439074  -0.10795375  0.0645588
 -0.0483716  -0.00498297 -0.0463005   0.27186027  0.12892756 -0.15287796
 -0.32729605  0.2605674 ]
[-0.5421361   0.01089988  0.08418522  0.04151354 -0.02968808 -0.2639901
  0.00582605 -0.08728801  0.22816095  0.01598752  0.16891141  0.01737951
  0.05609962  0.04196853 -0.14486152 -0.29191038 -0.14021227 -0.07393575
  0.2555273   0.08574615]
[ 0.16194238  0.14776865  0.03972103  0.14835742 -0.27021673 -0.5108661
  0.17601731 -0.4706316   0.48725548 -0.0385711   0.3276743   0.2719822
  0.29375714  0.6301658   0.26103398 -0.17334373 -0.5242278  -0.32509404
  0.11547632  0.20717768]
[ 0.02812983 -0.03758328 -0.4505806   0.05816168  0.0197723  -0.24631171
 -0.04414594 -0.05454388 -0.41607535  0.04469799  0.00941615 -0.3867149
  0.19048269 -0.00753022  0.16143371  0.24434033 -0.14245623  0.19431266
 -0.3188584   0.23202942]
[-0.3800111   0.0759786  -0.453669   -0.34802568 -0.28122273  0.05920384
 -0.19634712 -0.15738454 -0.12209996  0.21024759 -0.36357012  0.2986364
  0.15993232 -0.48348612 -0.39611444 -0.13719298  0.28793582  0.19040163
 -0.39173838  0.36197066]
[-0.24255547 -0.0601671   0.09545771  0.2309011  -0.25585267 -0.30562732
  0.50076413  0.46865597  0.44808424  0.6803327  -0.22020224  0.51319987
 -0.1485568  -0.02469571 -0.24674964 -0.39637372  0.25798094  0.2754107
  0.35221508  0.14463805]
[ 0.44458157 -0.07481059  0.5460201   0.07954596 -0.46289232 -0.8142185
  0.4615276   0.2867672   0.22278881  0.27272686  0.18318243  0.31437922
 -0.161043    0.04525914  0.04863355 -0.35666883 -0.6630996  -0.26173708
  0.21382876  0.10040154]
[ 0.1684823  -0.12940268  0.02021596 -0.02019489 -0.0744384  -0.71751064
 -0.26039588  0.16358943 -0.06082769 -0.12647222 -0.09134822 -0.13618423
  0.06680147  0.1605607   0.17582476  0.1334805   0.09787877  0.16264251
  0.09899162  0.03988616]
layer 5 Activation
tanh
layer 6 Dense
20 1
[0.95288944]
[-1.3142426]
[-0.97650594]
[-1.3880625]
[0.2878412]
[1.8123561]
[-1.5218327]
[1.5211877]
[-1.7156355]
[-1.3350135]
[-1.2152994]
[-1.2341981]
[-1.3162241]
[0.96879965]
[1.3939589]
[1.5679431]
[-0.19940881]
[1.109407]
[1.6731781]
[-1.3808858]
[0.952069]
