layers 7
layer 0 Dense
24 20
[0.7036502220812697 0.3612907755595329 -0.0847131964370803 1.443615873442879 -0.3358166949648797 -0.7059455764102422 0.28227535257727965 0.10056789228236933 -0.006281322101223471 -0.24819178908342113 0.03964325273066448 0.4339259825686547 -0.621373736838463 0.4885314554118173 1.116702582097081 -0.25232398333141154 -0.7302351102816305 0.04462811775291907 0.2450715621601598 -0.10427882611698475 ]
[-0.09458762348703091 0.19543229548253294 0.0861205912067441 0.4990248549520196 0.9586312716346965 -0.9934669700252949 -0.6263956705654117 -0.05672682431121683 0.20662117884955006 -0.15965296268726242 0.08643797365990168 -0.15337803054740315 -0.11306239721182926 -0.3734922876078816 0.5602097610438115 -0.5425052098640218 -0.49194509783487594 -0.4727116408604762 -0.280691969192818 -0.5685098622851322 ]
[0.4515911879750736 0.5830527549889223 -0.2669373276083341 0.1760163885053562 1.0198931549022778 -0.46894658861468175 -0.4713874806837848 -0.1098295770905007 0.5564917784302302 0.07439376933369321 0.16063355720687197 0.20452545117471482 -0.34098103744983366 -0.5418517306276952 0.5732635812830231 -0.1599087993256461 -0.2931121168710466 -0.13811898427686592 -0.5029213177603727 -0.26049637775768136 ]
[0.2434962646627021 0.5342961434873589 0.33532122473600534 0.9629671507236963 0.13499790435597792 -0.5860183062338182 0.24115790344601282 0.10300947948153186 0.06041638562746662 -0.43892536951584654 0.17962012890366225 0.8494424037748696 -0.09362108348532562 -0.11477950022975372 0.7493800214224353 0.14933920322798364 -0.10377918071970554 -0.36846478941863947 -0.3044757755465317 0.039862171992462 ]
[-0.096835881923812 -0.30264190446815004 -0.7949866386282344 0.5044387191700145 -0.4151269927362131 -0.953035501088549 0.23548932706309583 -0.8131389137650991 -0.22316310568508443 -1.6039538483774043 -0.7180635583890288 0.9561324090705358 -0.6210506058091523 -0.9540448319330211 0.09850701143470117 0.05237679964752573 0.39872850110231267 -0.7222864727431102 -0.8969810040282689 -0.5721450511837058 ]
[0.03607287566757698 -0.5409743807957086 0.4211530607041115 0.48529185168884165 -0.8242324866291768 -0.2202399210764641 0.744696394491754 0.3304825239507066 -0.25246845778471827 -0.2488438423702887 0.024980092901622276 0.2104191222789951 0.24469750657129477 0.7490443537866115 0.36790077665477344 0.7873428956455842 0.22290637159495336 -0.15839226263189593 0.027478979666111528 0.4595530202111562 ]
[-0.35056457928116763 0.05132589796218755 0.49473826916454955 0.15525012024648008 -0.6642344254555493 -0.39537932445575336 0.4984834411254042 0.4517888433244309 0.039774381435967385 0.07120892144383682 0.3327969530555454 0.04465218329969661 0.24600445224207013 0.19753244875015263 -0.28051593989279927 0.7110405561521702 -0.027731552572094396 -0.5120179463000427 0.5059137070654606 0.3674649483377421 ]
[-0.47858306573739123 -0.017665551151342423 0.2516191636726399 -0.7089473258439024 0.254585500724706 1.9286669749954606 0.2242691401750342 -0.16879560401607022 0.18286558661372707 1.4512029835920681 0.261547236666641 -0.9522954077943954 0.703925135520274 0.5006543543394735 -0.9912662030712194 0.22642904999781108 -0.17993211044180835 1.0420827861316533 0.17539188612751286 0.6118586806737817 ]
[1.1154499876905242 0.25228276733469335 -0.10961575076258105 -0.325718486651239 -0.4369446573166538 0.19738745372227798 0.6539388025968946 0.19922276274009074 -0.1669707409558706 0.4606079630740772 -0.4046924752134108 0.12938484221140323 -0.08642011297800341 0.5789905902266378 -0.44687684412809053 -0.11226120021524838 -0.06445509989512042 0.6357840914688442 0.24942525277779282 -0.69730268556103 ]
[-0.5481326613658066 0.5340798614678874 0.35018857713349205 -0.024367208732890534 1.0865497861173194 0.27151079667284617 -0.43642094638131756 -0.32933672561511973 0.7527863847160756 0.17267247580507594 -0.7137101323504818 0.6385134147972327 -0.00482601037779722 0.7840000447488427 -0.3416919646771764 -0.26155634671429656 0.43191229156899597 -0.20911316784304435 -0.7159637059119746 -1.3013309229347727 ]
[0.7004706033884373 0.1707167000119874 0.38896108164495063 0.1401830499544842 0.5568250684301859 0.7213509219216798 -1.020587149150373 -0.7661611517108311 -0.2817894746593466 -0.044817700364910396 0.010274057812043713 -0.25038279272872443 -0.7057825279186662 -0.3604006016762428 -0.33044310132689486 -1.0580214242276842 0.9181092137440731 -0.05038635433062521 0.29354476209531266 -0.9526920084146617 ]
[-0.9118424256760804 -1.3357811099973191 -0.15664739806843334 -2.6048728922065436 0.3658324776534331 -0.7112022449146361 0.26475242672411375 -0.37423589387844003 0.495221987846257 0.05775901914833539 -0.3218015701404345 -0.023994039887886787 0.41957017318915213 -1.420988511862345 -1.5396470326572063 0.47450688955126796 2.0483817898208647 1.3908608254274306 -0.1583972259280074 0.6999319075411837 ]
[0.15138293042107662 -0.06543723806399608 -0.5488009539471619 -0.40695018508098585 -0.3028209325562803 0.6571527801289442 -0.5472934091613413 0.03961358149849671 -0.3083943521279989 -0.7685735039193387 -0.4657931568199616 -0.15549784848173634 -0.004666031971193628 0.228712308358361 -0.4434554560627246 -0.19107301519774367 0.3837780771001129 0.6348770698103691 -0.8385043124550542 0.595677445239022 ]
[0.22996034930712933 0.2964763531075408 -0.3982151160449286 0.04552462123361932 0.9698929070165695 -0.46550969446414076 0.15740788723673632 -0.5230980853630127 0.849455986120432 0.206807732842164 -0.9705919993475006 -0.16087235446362413 0.11282311251041224 0.29861258654059947 0.13387607600381346 -0.3965412146580619 0.6105880773696162 -0.17749924867475156 -0.8794412310222617 -0.47266699765520953 ]
[0.7839445354588768 0.026532606592228492 0.5504548906773243 0.1299454816238324 0.45841916255105086 -0.6024902398571318 -0.6736550989942687 -0.8756507770024509 -0.33330259193038886 -0.09910077493869877 -0.05497831907200453 -0.18465688232075728 -0.7171449656349969 0.0376848499191361 -0.47661694382205777 -1.0786145026675407 -0.5494795665986779 -0.49362225170570445 0.2336993913116128 -0.10813803771279404 ]
[-1.4669690275913343 -1.5831598371780564 0.8939152294722342 -1.4365045398117589 -0.023780256763740206 0.2427103886747172 -1.6557401160538274 -1.45679157606389 0.11379057087654729 -2.4053981302204464 -0.6659187565354732 0.039505720428510485 0.4969683937659667 -1.1916672208018004 -2.3027874598457427 0.001736385992665113 1.0354652384801404 1.861032996029779 -0.9184137582656385 2.939966769932693 ]
[-0.3734391022566675 -1.4312025886332922 -0.020828989673201254 0.41183751493299464 0.6206213645448727 -1.1915631728226104 -0.22061015811075627 -0.07845162050531021 -0.24981505110337104 -0.5877706991057018 -0.00728889906476338 0.3288892776618253 1.5291792017004062 -0.7408371560181725 0.8773076234046834 -0.0006595669993983712 0.8912316838454296 -0.7188006228410029 -0.9888906474266885 -0.30900384308358614 ]
[-0.172081318558648 0.9656270380914459 -0.22848083722762194 -0.06970703416877233 0.9259139358467329 0.3573894565570633 -0.27371759874464413 3.1180479351284562 -12.862447820108683 0.5737745451057997 -1.7576402499284944 0.10660444732578346 0.2736529495396041 -3.1517756077969024 -0.2816742069683586 0.5802766774146138 -2.081987603223026 -0.18383522496293084 2.147416724688258 5.32802899134305 ]
[0.8282535665211189 0.9308116124844177 1.087459830633411 0.17289657758684415 0.5743315849811613 0.22270402993698382 -0.7450448268403592 2.6567315945006245 0.2690929220186664 -0.2832500243241815 -0.09499628747801438 -0.09681235171766704 -0.9015606178914629 1.788059080853493 0.24925269529902813 11.971665291030554 -1.8441683453924278 0.16439021794036696 -2.5601897157745235 1.834421885282608 ]
[0.586351175934796 1.1696049560099757 -1.5308326408126909 1.531760507453772 -0.21260211147305502 0.2827967397631658 -0.183799234720859 1.051240179769861 0.7232865265850767 1.6822100669920976 -0.1490553568795297 1.8040151282549426 -0.5900085347436351 2.0229572594253407 -1.118997609604594 0.3772141967996137 -1.5300093045503804 -2.0540629949019964 2.2944595899805473 -1.2165177089315693 ]
[0.3444828863189484 0.9965300769744947 -0.08377135432398777 0.24124608162387765 -0.7900406930123104 0.9307634477335361 -0.21433053073170083 -0.6172471397116995 0.4315944750411926 -0.11290386875999665 -0.30420072784152585 0.08400835416991702 -1.5020253154077041 -0.7819233014525873 -0.959856454007585 0.40093339486612045 1.188125827385905e-05 0.1497885916871821 0.37961195042202533 -0.16633217543407341 ]
[1.0186484257552666 -3.0237572692356474 0.6751223863288212 0.11748421395263461 -6.872559036026126 -0.010858063544427698 0.6835148043574353 0.34168959522877124 1.028226443235259 -0.403547900857502 5.176594369725396 0.4652198488173995 -1.1994231028602902 -1.4735343274527615 0.0896406787372637 -0.32272346641852334 -1.851707257898986 0.17478762472819367 0.609832047081679 -0.154940647635453 ]
[-6.628040568045901 -1.2670788144107528 -4.48726533313848 0.3668826052486106 -3.1629626947011795 -0.17346271344341535 8.149194474334527 0.25669170269551533 -0.2290119007831211 0.3248173139668917 -0.49722057052710883 0.062226830230946634 6.664767603102914 0.8995864769076324 -0.06806459951778454 -0.9948797529969775 3.021612280049515 0.313961198384795 0.709674623451827 -0.48077628169431613 ]
[0.4538348088354931 -1.3765178184176887 1.8116343606674756 1.238023993169923 0.2726553722587219 0.9424910312699141 1.4092189486085687 0.36701608455892987 -0.626288726497595 0.918792835433585 1.6469868298632084 -2.2517080854673637 -0.23867155586021552 0.235851984050748 2.1705432881170488 -0.6746534170516987 0.02292770803540612 1.7020307718566214 -0.7279719824410974 0.432790353495303 ]
[ 0.1712327936706163 0.14049594996722942 0.10364921972625438 0.2307196005695498 -0.02737430116470368 -0.536396150359226 -0.07556872324751929 0.15097145861769426 0.08053464364719429 -0.17125024832624633 0.11279769055036841 0.32869829164269465 -0.1331735921996385 0.08428222159767208 0.560548021694104 -0.03552134328864567 -0.30748323979525677 -0.2701759684986086 0.08643870083499672 -0.06659272877992208 ]
layer 1 Activation
tanh
layer 2 Dense
20 40
[0.5739351772337936 -0.591375932096623 -0.213056476182903 1.3652713565932297 -0.0851490797622531 -0.7601240859832736 -0.028162070457257018 0.06856423824517607 0.1592972723204424 -0.09663667591388243 -0.27342451622419933 0.633945238163082 0.7866366971320319 -1.2639127507345884 1.1225038117432926 0.1656061225782021 0.7213703797705502 -0.34731831236074384 0.5109722439139788 -1.5911762694224767 -0.22442294482911163 -0.25879449926092457 -0.07242445372073437 1.180558463473856 -0.8132032517714488 0.17065474601322428 0.38581849495546383 -0.16010868665247524 -1.4481774129998024 1.0625313426697909 0.802792780335733 -0.38897650682984086 1.8497878608990848 -0.3700577518431206 0.2482263727471939 -1.2285281900406255 -0.37237073232236095 0.7544913587624256 -1.0860020615578432 1.2373804758657927 ]
[-0.19530110749590116 0.7019634711789949 -0.6786711291835171 0.16614944771064868 0.545814977126359 -0.22766575862101404 0.6937119244750433 0.9689709997518101 -0.4626669704482665 0.11605767659685082 -0.6350962456419041 0.09537329696735967 1.218977471857097 0.8218243387540131 -0.20187460286666373 -1.3553995834248962 0.2499095045737935 -0.8164947821731553 0.1131100977473011 0.43256592719196346 -0.2676224565009272 -0.3212231904215283 0.939353355581769 -0.4209355286093535 -1.6325494022666667 -0.47770434807315476 0.9035701024924492 -0.8180299109155709 -0.21324908919208943 0.37486518665377166 -0.14598962251902076 0.3735143771157066 -0.2576010861991965 0.2643468590464039 0.38671236033770584 0.061081983905921546 -0.9121978084480206 0.8736777147617318 1.1142041637277602 0.6453142921659257 ]
[0.40944783260099876 -0.19421905622362934 -0.3390031531013174 0.3179645761897847 0.7008064348202049 -0.5834627380077272 -0.23699518118443808 -0.48722341225568505 0.41826448739390415 -0.07208886668600957 -0.14461570080896718 0.004662752144568664 -0.49389631659756034 -0.23684781279584946 -0.508243320800025 0.1616980593934733 -0.2470348156820852 1.1482465421997496 -0.6048377034788358 -1.330990452981805 0.15219712955195971 -0.7227599633745996 0.13926569818745596 0.6167454739796165 0.44258752081427827 -0.21101744629650307 -0.15556764042068819 -0.2969000860734074 0.23259883361033407 -0.052151921336759936 -0.14374450075146813 -0.05067201317363982 1.2938347994841541 0.09766522381600616 -0.6466604877634937 -0.36944095268225857 0.284410488219687 -0.5653588817106368 -1.3903738768722922 -0.5959792962413705 ]
[-3.16060425901403 -0.9130963941740219 -0.986596247549899 0.16389769105788737 -0.18538054318490144 2.493990800752638 0.05540887189864025 1.2179446599756467 -2.158575906705573 0.3286059063176713 -0.9379567263381764 2.8025326127205283 0.3270637429218003 -0.4954633130085092 -0.3541943294128788 1.641167810931388 -1.5517209449234506 0.7859157718765344 -0.6546420819930823 -0.32130988769640184 -0.8492958974378616 1.0351859057794186 0.4232788344680072 -1.747590042124978 -2.2148419225282345 -0.5935358660286437 2.3088051344418323 1.167000607260953 1.2051820940566156 0.9681210287704473 0.6694789788829865 -0.05835407830302102 0.584738025638496 -0.33773213381121414 2.095856695887041 -0.9381379861053205 -0.9261239646773771 0.8381748950977228 1.0262058263135718 -0.23324337637306417 ]
[0.08692192173182646 2.183476737747141 -1.1538074697622533 2.021756189571407 3.87950935147157 -1.8485980501369261 0.1817437645014851 0.5196873465349677 0.279259874278389 0.22447096961695817 -0.6924939242907684 0.08849498965800719 3.3377157581393617 1.9439396903977617 -1.0574012822067143 -0.5190833406119549 0.6399058790266108 0.2518575456635045 -0.38062990628218235 -0.9824924878682832 -0.2535615034538826 -2.3422051003358195 0.19479396169548238 -0.9194790401722702 0.6257528115332771 -0.024422308292492093 -0.1092618883359984 -0.43797708969062277 -0.35026886971429344 0.1565002567473935 -0.005530691893238914 -0.6785661727303653 0.01921598298312932 -0.9644586568040023 -0.7520766241169964 -1.749569863599299 -0.0563778626385229 -0.5033582307992098 -0.07614935509189683 0.31711991332118916 ]
[0.6400984780367114 -0.5760089371891419 -0.055399877941108434 0.3813941313654429 0.703600948213184 -0.5798993499065437 0.09703760935357904 -1.5030338890081414 1.1280374475424897 -1.8254369993274617 1.3960500683102157 -1.0539322052196003 -0.38094231874701096 0.21537850493623684 -0.38848479689564575 0.37271541592988766 0.6922901803728716 -1.6502252348423931 0.9788561540972374 -0.18608170402358518 1.1455521003791518 -0.280596510747674 -0.10437186995699609 -0.1364526987010603 0.9473986202987766 0.4909059629059129 -0.9187862565147917 -0.11620747762107768 0.48129261371931586 -1.6956971337424287 1.578179752783083 -0.8212955771830331 -0.07215809892370076 -2.1739116378205856 -0.236990594004269 -0.53485892270233 1.363190158997148 -1.3098472496457518 -0.8394339427676221 1.1757856406804768 ]
[0.6251492593371579 1.3183456857222122 1.3519669062922608 -0.6179378874804831 0.010099522104599249 1.3478526780787037 0.3529557531330856 0.6018600431968458 0.0565180576871086 0.2541597902895789 0.13102489229286618 0.36972023046552327 -0.7509137883033622 -0.01508366963127046 -0.6863265888546596 0.07551354034307972 0.21021256180358766 -0.7544763326189986 0.05258858058100025 1.9168442439450557 -0.2592880610185129 0.32886141730531154 0.5399078240768128 0.11710875847920885 -0.8497888902620657 -0.5648956427343765 0.46236607697770965 0.928182211426465 0.8376471549410278 -0.7957281701565416 0.40623052683402316 -0.06611929837534987 -1.1327627602725752 0.9825826428366875 -0.1986342709213313 1.188752468895912 -0.6458357788385323 -0.41963168185377786 0.8547470567197655 0.35023738918164277 ]
[0.369993943225417 -0.3376428444458596 0.9397532931056943 0.4462699336972987 -0.3869356796977567 0.5059316456882532 0.3351109429427486 0.5548173204918079 -0.02906129843858949 -0.4007862054727189 -0.05952476027545354 0.8175446867061121 -0.7630430651969397 0.5120197784297303 -0.16141138593298648 -1.1303422570204102 -0.43327355595167527 -0.004047552827242449 0.7200744769780132 0.0075209159266876255 0.9134638980710327 -0.4721170755169351 1.31185805764758 0.139062534950128 -1.1380658104967412 0.1932462951034843 0.7398210885199443 0.15989165727991617 -0.9979662715363798 0.09780269580595312 0.47719349221918383 0.4979132159555063 -0.7963369667787289 0.5192597187079517 -1.0880033134838165 -0.20135333926009355 -0.5028312609724417 0.2513918733205256 0.16579041644847145 0.6734900709454648 ]
[0.15962008644857298 0.3061690289716473 0.20593001481363743 0.05294936644658502 -0.1555866587924475 -0.03497735641066865 -3.8051949293946343 0.22927572008127986 0.8670363041330086 -0.046728626184404556 0.5673838287139505 -0.9451747845594013 -0.2309275517150784 0.2996888694178402 1.0306249975412294 1.1788134393791807 0.8163488269604252 -0.28479769698998814 -0.10106847008646337 -0.5193764698864504 -0.6568347668160046 -0.6427230288326362 0.68491092506643 -0.44513389585936775 -0.5756941226814489 -3.098345724076685 -0.8722728953086514 0.34395393887562037 -0.5414381211450359 0.7756090810885353 -0.12783447839923123 2.4637673026252056 -0.5096749051396761 1.0975330601965483 -0.5762785321634633 -0.3877352162738744 0.7322553939577913 -0.17151649716955103 -0.2514630980424747 -0.07921911453698592 ]
[-0.7787199264193648 -0.1604863087283508 0.5277402576898543 1.1954540791591581 -0.8013975881493443 0.9150838986801597 0.4578470106960542 -1.1107168525238524 -0.1121596287324783 -2.2295094152482418 1.080337778108894 0.07485361600469265 0.47524741475546534 0.7974796439175216 -0.21101690698313194 -0.2510725796869168 -0.7057927569467207 -0.33506328965767956 0.7050261017483647 0.04640403402967525 -0.35860309773020793 -0.6729179059126549 -0.3839669338394262 0.07746381799328762 -0.06414550013709297 0.7761361400875221 -0.6529460398345375 -0.714108497857095 -0.12924299774337553 -0.04512686514381935 1.7632938853340725 -0.25324436896874847 -0.5530040437620659 -1.474756631952342 -0.9424684139471987 0.10683630216842095 0.8074241631261939 -0.21043065947909312 0.6103156588273113 1.2782804368468432 ]
[-0.31400839189896745 -2.444754219437445 2.018155544410743 -0.33560901912272834 -1.6855891540991574 0.6199614493145446 -0.28694826465603784 0.4201823181806548 0.6456616026590709 -1.438893062569929 -0.5389215631136898 0.28075928189979205 -1.781161901675426 -2.2245657451090897 1.7380074186554633 0.17465716494331981 -1.1464863939947263 0.41027082964196476 -1.6044425856126314 -1.7783996515801779 -0.5208275421064119 -1.4324771257897033 0.9355447891264548 1.8712187489091427 0.34387081657607277 -0.5347372493801092 -0.31480465883806197 0.43499326543715827 -1.0474181054687557 -0.2480891629629098 -0.8681515108016987 0.16784744845138116 -0.7873448986642254 -0.34982440488834954 -0.07184258350007691 -0.5655716566627627 -0.5465080785070512 -0.5746514016529316 -0.7521386383492423 1.190565046912599 ]
[1.2170452873988558 -0.29586796222833917 -0.2508954715649834 -0.57926057884175 -0.1403286339812687 -0.7667330969598405 0.5177283283937544 0.9213605193729828 -1.3400899218558557 -0.6043082357516796 -1.1185386062363796 0.8595390433818941 0.156950365723242 -0.4066891805906442 1.0269848708566833 0.6068829673321342 -0.06720936902912365 0.6144293106300578 -0.05820822163132229 1.082138910047512 -0.2791433582178958 0.5865497155611542 -0.22323739764387202 -0.7735119433499206 -0.9238229876095992 0.47961695122696285 1.5420283515415005 -0.043050800346005454 0.4003241079186718 1.0825052605724181 -2.1077799845293916 -0.18242704736787207 0.5891832284937103 0.8538432337806201 -0.39014941186128266 0.009964894519720505 -0.6757281082873464 1.5571648700511966 0.2324443508969055 -0.12632191893946929 ]
[0.327721881308986 0.9363641002435851 1.8970076096040236 -1.5622513564289215 -1.0295125686137456 0.6055884887046186 0.4581001259462027 -0.6657849315601345 0.1176923652214253 -0.013776851744832602 0.35370486623395303 -0.4899917796956936 -0.16584062949446035 2.2642187792476047 -0.12464796280468375 0.07425618433058231 0.010046075320164338 1.0938908082254 -0.555161140126574 2.848253719601446 -0.035773731556247475 -0.18251936880097558 -0.468743183493588 -0.3468989771329777 1.4024097417641548 0.5695120452455974 -0.7432355455609133 0.9669290073025836 1.388684317066982 1.0164267981022903 -0.6017855037538526 -0.3927203553239271 -3.0179963517142663 0.6375932059152516 -0.6365070660736563 1.1618624341594852 0.7269052149239531 0.3583835680997773 1.8653874047702794 0.17162004829012212 ]
[-0.290784473095687 -0.16043949665249713 0.08330381935290354 0.7803244386269158 -0.6178650850505483 0.13245158329941986 -0.3929392553193015 0.16222916177544386 -0.5089928520035614 -1.0821647920277628 -0.5742958240555982 0.9555240743553717 0.4276102198608941 0.8721660443167963 0.3064819950125246 0.3621313088697639 -1.143213730420197 -0.8062642700147835 0.5203712177309044 0.057665944483522455 -0.20552944601975745 0.15243127908717438 0.843286259711294 -0.633654104279744 -1.1831816775486435 -0.5575504236424076 1.0777077865367668 1.1820765317781214 1.7317506276214247 -0.3011167559762399 0.8675692873444116 0.046519771497754096 -0.7060104404073341 -0.6152350049605468 -0.6947075470395682 0.27328034415978075 -0.23751348421498145 0.15457586541697543 0.3343859521787188 0.7372631254885017 ]
[-1.0684596074097685 0.1368347344348752 0.6058977134474057 -0.7808581556696745 0.35191773802325316 1.180823624965692 -0.632887078310577 1.419012028768442 -1.191147096449837 1.003116657154711 -1.638880411726506 1.5066306721322629 -0.6610430141493386 0.8564537532667115 -0.4687282768957796 -0.0391041108646652 -1.4797845252379302 1.6843818675906324 -1.193779881549194 0.15769300684397472 0.5522401627812725 -0.1953207838692917 0.13487085880337257 0.3445326894433042 -0.21187168510145005 -0.10170952364194273 1.6963140011659747 0.85415830533239 -0.10356204597538264 1.092339080393048 -0.5815000999850799 0.3919995188848768 -0.7958602736840039 0.4476986852098077 0.41934247819104903 -0.26155102692559473 -1.343961169816258 0.06831214378704611 -0.4990304499356002 -1.1489470348873274 ]
[0.10002574066886705 0.2145806592729055 -0.6506660096217128 -0.13210055240479854 0.3795211234770428 0.14988709023447033 -1.305002538711167 0.10690320897573909 0.5961562695646548 -0.6256777209193023 0.7469331373641898 -0.6892169672945755 0.11598180745127987 -0.17562949990504562 0.060888955965693825 -1.3144431775938585 0.5526251073324346 -0.2218255626399757 -0.5798063168108287 0.38325990722288117 2.8033339086264664 -0.08789132399737491 3.67963409876396 -0.3699252553483016 0.06921138560448321 1.75827511238309 -0.5913499587611781 -0.8298181018964147 0.23612449390673032 0.001177777436927748 -0.8006205336124329 1.5604735617548322 0.26940727991042346 0.43995909768571656 0.32179066401259815 0.27962078973790677 -0.14759040320356376 0.5439241071736465 0.9001335598113905 -0.3628124738769894 ]
[1.2717222913172124 0.03383050145707343 0.46846065228778727 -0.43967474123077 0.11854819759131237 0.06358300314400511 -1.0367684087516416 -0.07885985911490428 1.259141999972323 0.5016793468538704 0.2101250945750577 -0.19169834135883249 -0.4081576150245553 0.7597210664082538 -0.589442860140429 0.546706512030042 1.5926596737137082 0.29466307335514946 0.3517563745733336 -0.12148942334077982 -0.3026036783622317 1.1847310515259692 -0.4518269093323811 0.0020978161650727512 0.3568340743041054 -0.526158558331948 -0.4713300056858211 0.35181645708760495 -0.2665891878680238 -0.45546175076427414 -0.40544007270239074 -0.5663155766067407 -1.2118585446777457 0.8137954883337029 0.023939995432022784 -0.38595073211428116 -0.16428319002661815 -0.6474321233636848 0.2060404389803446 -0.05428810732907171 ]
[0.3634137034860263 0.03997746843809803 0.6763787337960772 0.03029920016378113 0.19039056913816454 0.24261179791193796 0.22757450873013826 0.14438235986415396 0.5455803928944487 -0.422559988232501 -0.19893294753744648 0.9776844023963119 -0.5677621557588508 0.8941264447125917 0.41842664287783077 -0.1576730394758172 0.11950895294234713 -0.7217417022232985 0.39678861519638137 0.22091062537921016 0.2612990127855654 0.27531309204817167 -0.10705504710399574 -0.20864242031719876 0.006613812725223504 0.10155836617777715 -0.0437433531977319 -0.34406733396791905 -0.25937396103813587 -0.09497937812468576 1.6281762194739386 0.15616892164950028 -0.6131129494677807 -0.09328378545110731 -0.1916042413679476 -0.20814984353233776 0.6170297656435304 -0.35158578669817997 0.43157323346031384 1.0100899630065967 ]
[-0.02761617017209294 0.02362925966956148 0.3147269636250055 0.9484665809864384 -0.13164559531682693 0.37440419736639907 1.8317100374623327 -0.0883938914666858 0.006290815420938981 -0.3893020394610546 -0.8236388856068023 -0.2211877588438946 -0.03652762012689253 -0.11050224927180197 1.8044473852959215 -0.5556488694517355 -0.5704100921012145 -0.6714746768318312 0.16046379833676905 -0.2901947131986999 -1.0959381690337386 -0.06697460693612103 -0.9770982153748125 -0.3629703074656069 -0.6471867750108781 0.5305977104903195 -0.11554359826274264 -0.004250649893633681 -1.4615841882591438 0.6607293763628906 0.33444304490892895 -1.0452054067359746 -0.2791076369846474 0.4114657773915579 -0.8197996376419581 -0.33733120437904224 -0.036581003021628915 0.6544321915794179 0.6866684429674099 0.31026600711756147 ]
[0.8733233401461151 0.11618181839049482 1.0301486751594018 -0.6862648566134248 -0.701330698024885 -0.6860704083537535 1.2175942376685254 0.20994909664629965 0.9649437950414321 1.578742232824735 -0.3166396770487625 -0.6758663998359385 -0.024418764845780847 0.6021289165576114 0.6856908120018657 -0.9677974207429096 1.3231790093174327 -0.1734601624580438 0.43543138580554547 -0.5201209261682908 0.5705504273443277 -1.0842501197493086 -0.030105662958040298 -0.007749737112952447 0.5432172005405981 1.2717776319310339 -1.145985079714332 0.6134684313700225 -0.2565770241972541 0.33170086186037867 0.4704105589877382 -0.3398170382790655 0.023161626411476934 0.7882466470566621 0.05557571294610241 -0.899510673555534 0.09749368654046557 -0.708382803561137 -0.8067250850490149 0.15315313404626438 ]
[ -0.467865674273585 0.1547755953979665 0.14456661890805259 -0.2081358203425487 0.12866163535778966 0.8322319855520935 0.47803680624023964 1.397979346950863 -0.9807791654284556 1.012770212438827 -1.5471732117861925 0.8267001788283399 -0.7030690207799198 0.2167373807352668 -0.060207798778044254 -0.9170258747943095 -0.4870779806524429 0.6554722571613976 -1.3542491359346724 -0.28332710097033087 -1.1235595358885524 0.2077964638438887 0.6888438150460364 0.5027353648077433 -1.051278226203381 -0.8100431247295271 1.0214423294842045 0.28564838989438185 -0.611723311214942 1.3196196178323072 -0.9005766588119697 0.8636378485897621 -0.0807895648792484 0.995917087356152 0.1553870192399839 0.27707205527024814 -1.3507162023446149 0.6062591359817081 0.4205808088627224 -0.9281578101919202 ]
layer 3 Activation
tanh
layer 4 Dense
40 20
[0.15775081689983936 -0.34017729376619377 0.2879211234044424 1.0299009954695948 0.12278185690910479 0.008692571776223436 -0.8155332040143131 0.01620370718095614 0.5087815031603679 -0.2260344633450862 -0.6235476998297103 0.18602814433626796 -0.20794044970358147 0.7437626158396108 -0.4658782026304574 0.604905038317384 0.5210204024733898 0.007168290386758044 0.24071984188324996 -0.36044781228134404 ]
[0.1213160098019779 -0.32296930692552295 0.17870680129975647 0.3435432840084303 -0.8300303986167915 -0.00098765989471221 -0.1726655360129134 0.7164344609210878 -0.49370485709224016 -0.11594364349384724 0.4436011855759029 0.2691765210638038 0.39698945142368625 0.5925996393374202 -0.01889743418193355 0.6592464085289932 0.23150817895934409 -0.32492346166900404 0.877454481616343 -0.1944953193848823 ]
[-0.0467135320036104 0.2483357490514256 -0.01058966759021571 0.795908882990054 0.15621214336719913 0.476412996057178 -1.3530185524907405 0.7169186176246283 -0.4440687539985058 -0.40620400608814833 -0.5127948268659333 -1.3017889273955385 -1.1664731988257175 1.3576435800578432 -1.4951851267016316 0.8194250702913353 -0.7683073376435873 0.16048346257572596 0.10214932684549914 -0.9494947468000283 ]
[0.6853839546156829 -0.8523596867338343 0.5999317101536457 0.07623129709991504 -0.10419252931326016 -0.1344543124921214 -0.4170591463695518 0.7593551691977865 0.269813254186021 0.3452998497361839 -0.8342322293853689 -0.6496136478690901 -0.05667556156729393 0.501070328767539 -0.9993740696863129 -0.4945824766194764 0.5914599222698016 0.4089951756648772 0.00774784906660223 -0.2228377538238529 ]
[0.5980457580516227 -0.8845677811679253 -0.2084433770469836 0.3777363693263696 -0.7613496762949221 0.47621817142373757 -0.7766603548269099 0.6990701849189338 0.005562041546844576 -0.07294421652569912 -0.7974817198823927 0.1397272153064794 -0.8459436536529759 0.29019420631114035 0.19816895478584318 0.5007194437994396 -0.10750202425086118 -0.04979088586141869 0.1997936080818217 -0.3446231036455998 ]
[-0.412770362742467 0.4872074625068488 -0.36137878993103173 -0.9556427128633911 -0.035505376755299974 0.4386950057665008 0.013705051554261286 -0.5659081750181352 -0.16280613130026703 -0.07798570982802805 0.5821639459929604 0.28535243597270094 0.7245457702067184 0.1522515782069454 -0.11459016143251087 -0.18016971303686038 -0.08815122459456605 0.1950011925414235 0.12287696487153466 0.14787151946441576 ]
[-0.04775124675815912 -0.019822581800572982 0.30710831176611814 1.578824324771239 0.2060212441157102 0.24288684571912497 -0.6675110250105454 -0.12613802292587972 -0.139418848163133 -0.18352526708095712 -0.3643073674842027 -1.0774148948241615 -0.5354846550479444 1.5212397114859952 -1.3753772630663246 0.6249096785931152 -0.4511231719122846 0.16178529336699385 -0.0261343972825811 -1.539200591304924 ]
[-0.7102771103887183 -0.6926701318218477 0.7552287710015502 -0.36843955223688485 1.0680920318476606 0.8171652114584157 0.319220729654062 1.0799152569931985 -0.9968476304954628 -1.2466933502209574 -0.2129873900721056 0.3387316050338614 0.0628337587116942 -0.3511371361740594 0.5205183001057839 -0.30235755378130275 -0.9296386389916262 -1.2021701581786255 0.6571010816819415 0.19755843993498248 ]
[-0.17392897705414923 -0.4230630673990797 0.5334571310098805 0.5930485417115463 -0.022824371368623107 -0.08536238634029764 -0.7922021960460288 -0.2633774552741578 0.4806011383572271 0.052635957520108835 -0.4279501531418121 -0.37411459521607565 -0.5500661213386171 0.19420498240261308 -0.4502166429251734 0.6017366992248777 1.4368692248352626 -0.12150113886021857 -0.1758353733856316 -0.449904250649683 ]
[0.25566152031390293 -0.006704458572748482 -0.3181775366045466 -0.460191745340005 -0.044299590008005235 0.5939774498817335 0.5514958621340831 1.000037174680827 -0.4312803777121066 -0.5372802066739202 0.1017410998108669 0.7268446973417576 0.6747511709149141 -0.521178656010166 1.1240889667864067 -0.06004095852302026 -0.49563135871014935 -0.4238947377400671 0.09251715557906603 0.37637410217131806 ]
[0.7499033670160699 0.7699128344463242 -0.23300575855115888 0.10189057844002015 -0.6316112492748263 -0.5646875449055245 -0.545845926991555 -0.7040433264299102 0.8318145543578871 0.7522380404102816 0.5717545288703172 -0.1764882330160322 -0.07952284126285852 0.35408877975235825 -0.47118653486756884 0.28168271531890043 0.5461872837831121 0.7680984832567932 -0.9043484196083367 -0.27101692642939057 ]
[0.2156556057057726 0.17454503293183316 -0.3117918347777643 -0.7806840044899478 -0.344584841047112 0.22810779040909152 1.3168054858933127 0.6226155277322438 -0.4962753646963593 -0.43518769194871193 0.018868138693668525 0.9237285230796107 0.5306685534719985 -1.5518467991904261 0.7037559979592095 -1.0080738525476431 -0.6234717700580744 -0.2641878544430914 0.07327180746413037 1.3742869769008934 ]
[0.8337984753628749 -1.1803958913399082 -0.14956780434009062 -0.8914004939496665 -1.0251896511428737 -0.12922323060364635 0.7530589280719044 -0.05878425989597578 0.1125329994877326 0.6817770519554963 -0.8373260896231591 0.14184131299064712 0.8804530920604482 -0.8145295872032597 0.24361041912895098 0.0965065747679994 0.47775780686752606 1.1483420661970327 0.28921050445627416 0.4157664517534045 ]
[-0.009070212956534462 -0.25129079011640204 0.10203801387459123 0.616705871814408 -0.10187144815475341 0.4415909810852698 -1.1693215083416169 0.5671045514954774 -0.2869930455853605 -0.8434703436369456 -0.14697743175558978 -1.381173130235807 -1.627381529094092 1.0171896608502593 -1.487874298154387 0.5851432721420881 0.04184119421017328 -0.3366193139106948 0.15448338973646714 -1.1860105477857514 ]
[-0.06610275308108166 -0.040024601998802915 0.15237999738336538 0.3970004561343196 0.10823721208614348 -0.7000333640723868 -0.11920509588768051 -0.10507771684098667 -0.07817573008915835 -0.06328320490833325 0.02486425476072475 -0.5102370646597588 0.003595843450705228 0.23024107419166345 -0.8222975104679033 0.2296521146100625 0.034811114495613305 -0.09276756549115281 -0.17570650759473616 -0.7348691892757117 ]
[0.038474044012109125 -0.07625013572071038 -0.20769573916535133 -0.5270927271722635 -0.2325133131800171 -0.3226746394097929 0.28033229123800263 -0.6525572349412009 0.34853550146458195 0.3567783418502843 0.3514433338693505 0.5096859237232165 0.46661078534012485 -0.2215991293747811 0.08078060350984674 -0.5780322034394901 -0.030696736459306657 0.23499671963429197 0.06881561683084528 0.24102331225908727 ]
[-0.026741276087031255 0.08422263010870731 0.012971115920710315 0.23230668368702548 0.0026146405108851186 0.055983327761968765 -1.214997407774441 -0.7137346481898502 0.4036317142350298 -0.10205857919950033 0.085992918217521 -0.5378800332680013 -0.974977714606894 1.0194181547084151 -0.834136140461877 0.04432506646450508 0.17609962244726782 0.16860925026767348 -0.020299410018882285 -0.8385643970819618 ]
[0.3118205168119729 0.37910499705805 -0.13334262717719828 -0.968345390918517 -0.5092254315976152 0.9638785437081001 1.2502945946369537 1.0317510889031185 -0.8507504675653399 -0.9516468203900228 0.09699696547969684 0.6826135559894774 0.45374811864187614 -0.8873642603441227 0.020321268976471164 -1.4052045457520463 -1.0239291458171693 -0.6044105013045823 -0.10618395254772735 1.2626980582552685 ]
[0.21147365027993723 0.5721197806206296 -0.20317264109145466 -0.18717578996102277 0.03144250702771954 -0.8447941563365035 -0.5228316258526626 -1.274093537010356 0.73094444344769 0.6302039454174208 0.3357513125123884 -0.14561254770998383 -0.006077137064096242 0.11175118587592003 0.09184203318911108 0.14952286115445734 0.6761892377274588 0.788941907205841 -0.12342031132965747 -0.16937612963367657 ]
[-0.9004606454721188 -1.0652934050337777 -1.0316240139437691 -0.9479445234161786 -0.07739758214068795 0.09334678424587874 0.7746035637214026 -0.45649893814973325 0.8617265218062233 0.16457569758828514 1.7472705470875494 0.8861108418317433 0.8297942488329868 -0.5555859521992593 0.8727260068830216 -0.5503080327345758 0.09746762210870082 0.33128038081498684 0.9643129629922196 0.7599819186772886 ]
[0.033263758790168074 -0.028059469815661202 -0.4219131381384839 -1.0212226277942913 -0.3569039592053849 -0.25576822122955506 0.19462630487946764 -0.06530968328000462 0.35799115902163947 0.13669780951744412 0.45546575528041655 0.41497015836221113 0.3213047897338995 -0.4874867622431447 0.2304048821013757 -0.5500041627226369 0.1883285128381735 0.16018050174468726 0.056521690080966816 0.43301578273156166 ]
[-0.15076530932923862 0.21525807242795147 -0.1045296972789242 -0.5426709676135721 -0.003932535963272449 0.28575554658449853 0.6382656093826412 -0.0004114057144035204 -0.06889134211626702 0.40131353474257614 0.23567553402280356 0.6278004045803771 0.7082764590256728 -0.8234646045129005 1.2608089476967936 -0.35956293261520705 -0.43228333370792144 0.34731993969116937 -0.0394815015608337 0.6462536196574876 ]
[-0.01316159503772075 0.07744385957572306 0.27081215378563 2.0255799346237944 0.22273426108851335 0.5301461543957202 -1.1130185959720043 0.6876107902357597 -0.4430397081675917 -0.9755416020659785 -0.28641334890753045 -1.099496915180034 -0.7893730094338511 0.8694010180919239 -0.8400117189844969 0.0652374757382947 -0.47438707116393564 -0.7044655700795498 -0.1259758781800235 -1.5467762959940734 ]
[0.21352265391439415 -0.21646489637877164 0.35482394418642627 0.5410058015089206 0.3902666615530926 0.27330772779776175 -0.4761637616844407 0.08025066992379334 -0.41155281350437467 0.01735412725942088 -0.06110793129948622 0.0652132135472063 0.0918450167643703 -0.19340614149583896 0.6918921954839 0.0027772028745604027 -0.4930302390843059 0.36104862509469576 -0.43626372616097775 0.352630427051636 ]
[0.21677949174974842 -0.41768275471666333 0.20773287654380343 1.103205870899498 -0.13449668996686712 0.15998705634536017 -1.2902089701255515 -0.337581541273194 0.7255425001796479 0.04427467958794297 -1.0114228297385486 -1.446666003711602 -1.8830983429258292 1.495366974923553 -1.0565806737474617 0.9723565703193723 0.8689309902411022 0.30199251004953304 0.29504833669157654 -1.4583651777726423 ]
[0.06041123548885797 -0.11002534014500025 -0.3026699848099217 -1.0246563025835462 -0.26148801674992506 -0.845085030571002 1.0838118457439265 -0.8696814778537753 0.24571985983775227 0.563259792275245 0.35933372022989285 1.2389862416603563 1.1720477002007557 -1.3810905619197942 0.39798897836740704 -1.2785921453497817 0.16026044858280994 0.4543360048851786 0.09509251732212354 1.6119908809749335 ]
[0.42523525404647855 0.19816353948676457 -0.21840573387119147 -0.6162171604559121 0.017504616524481865 -0.06399144304158261 1.2764046936881253 0.4286204617722772 0.042746124460383436 -0.25912607607304816 0.13416328566879746 1.452410304835026 1.2431098015361914 -1.430719914435619 1.2214989900903066 -1.6022455011189023 -0.851331461316077 -0.493816398039819 -0.12038450299110974 1.4734035843902986 ]
[0.06189017199801457 -0.05972360710847808 0.1537511434675648 0.2646556316999542 0.15384827100641965 0.06541691129086367 -0.35639137951968153 0.5114240770883477 -0.13056420471976124 -0.4020190965644109 -0.24428798164925725 -0.3617690125195217 -0.42608790321957707 0.08727369166921323 -0.36852307317690425 0.5224037482351294 -0.13958258640421323 -0.37662936852474205 -0.07122344333324454 -0.22475581759027755 ]
[0.0650085023739843 -0.06586898808008776 -0.05933863429509361 -0.5038386344025204 -0.25053030972497387 0.31278334420695036 0.17128979482908277 0.24889453177335547 0.434415911535987 -0.15833328103628522 0.027056666848791558 0.48379611105203674 0.554419890850536 0.21270026718629725 0.43432263939144616 0.35883385201739565 0.03672625537953323 0.028147873412498525 0.11422061275717994 -0.16945227401809604 ]
[0.04787945739755443 0.36006868261669145 0.15946713925836142 -0.21605129200122847 0.18910386091575515 1.0189558783350539 0.9233871254457492 1.226522860227423 -0.622329498077748 -0.6571568245154695 0.20220208776566612 0.25867491596117564 0.5822480005647628 -0.8166872312285043 0.34088365405109516 -0.2118953075602547 -1.0371398141125363 -0.29860771101921907 0.2678648801465513 0.5325826640069464 ]
[-0.01252971334871414 -0.033912291762345226 -0.06394184880376627 0.5002857268846375 0.25002571686761255 -0.8875749676187847 -0.937786337328719 -1.085994562652275 0.5763549378147699 0.8748602342617331 -0.09182200609615729 -0.5085706640964324 -0.6767897107124901 1.0258443658467966 0.034068243181629154 0.9434623838293668 0.16176309599968816 0.4755193702355052 0.24004212639336422 -0.9370218804293065 ]
[-0.126482958871178 0.11714386220149188 0.2938536997726415 0.5492541128323242 0.3285473100163485 0.08230567338275589 -0.12993586217635167 0.8852560842202611 -0.09213324106155224 -0.8094979925681082 -0.22333005516987528 -0.06300385188675706 -0.21913193005596185 0.19562766474317336 0.5877293404932048 0.6529931071477659 0.23048306046540337 -0.1821157096340575 -0.1460720135846461 0.08107140037198517 ]
[0.20162394464110533 0.037765141117104925 0.19289735690353502 -0.8928821271479392 0.06784950680013956 -0.5225970598345439 1.49716787526151 -0.366050556417011 -0.032908748618653304 0.4140868782470171 -0.5187980759004527 0.9784190465326543 1.454551061914449 -1.3787788103411684 1.119017042791219 -0.9043502003085245 1.2123410546429574 0.12892786467911124 -0.20181903405483287 0.8706158178245331 ]
[0.116541312265192 0.09653385036211526 -0.060174129326360654 -0.31951290804916854 0.004428794681493963 0.6531557396635573 1.0503414930068358 1.1990072643800573 -0.3006926334030251 -0.6654551650520272 0.34543152390981846 0.5680988744129299 0.8426966520022132 -0.7647687990964317 0.7574207065834566 -0.2420359175975577 -0.5946940125545781 -0.27892511182900936 0.07211224184465073 1.196201420480897 ]
[0.274695761563121 -0.11280694139622031 -0.14060874639411114 0.2903821007847005 -0.16712697238967378 0.256076370446014 0.0823458954531243 1.1754212447875352 -0.7265114157316228 -0.2993160838939023 -0.23827338220658123 0.09985306374575123 0.4064284888648844 -0.1226275613563044 0.5847809774739288 0.23277512959222965 -0.16214045452685 -0.5834301238784941 -0.24543082007852812 0.23848931878662882 ]
[-0.11021994651998868 0.2199789037988117 -0.1970724118878128 0.05521096009299852 0.27330660799486767 0.1479357262913454 0.6247250907824368 -0.2079931738097675 0.41805033786775386 0.1981412237828208 -0.29243890483727913 0.5378089499748421 0.7113341663154084 -0.09509307261240085 0.7416653935401418 -0.07884215109722809 -0.4653727819165464 0.04583957656655694 0.2551718621081409 0.16092061808343697 ]
[0.966622695373819 0.7393078031863278 -0.793511687152256 0.17112352455123775 -0.5085666842814874 -1.2046545024486404 -0.2838886838659741 -0.9479112089753251 0.9941413586719949 1.1785632857489732 0.5317665607200943 -0.26355374246850505 -0.23309761852564762 0.5289042461373631 -0.18092328955044712 0.19536178052432587 1.0663188649112874 1.0206912975403708 -0.5468084917885554 -0.23925853215546783 ]
[-0.03936082706651982 0.40816225121587496 -0.06641191192063678 0.04876273140646219 -0.2918775555875643 -0.11969867549310434 0.6182201614111449 1.3014230786851895 -0.5362496176659298 -0.07465180885494578 0.7793343522495341 0.1471745212966779 0.34270298796831816 -0.6310841351214113 0.48181390953646697 -0.7104400581370356 -1.234733528758682 0.31520726933161936 -0.19020997409381551 0.4531480990013035 ]
[-0.33170975488829296 0.2077829865248634 -0.27242152880990467 0.435329831557709 -0.2951924147262263 0.05805924675537265 0.21078951257122935 0.9376717045987384 -0.20946599492958293 -0.3615164294662025 0.3842125269260198 -0.1626018172096096 0.6341667480660769 0.15200569324850027 -0.17671840030969438 0.1359273106435053 -0.8500514404029403 0.26523121501400115 0.364189717912588 -0.25248588592950777 ]
[-0.20562458080158544 -0.49249926069230876 0.2645904264641722 0.39199802603638945 0.012616269006279813 -0.2982053023327187 -0.5284204673226636 -1.7229159508659264 0.7899859267081148 0.5113994297628923 -0.7610852688599413 -0.6057332922895622 -0.6069896580525197 0.5728664359041602 -0.6462372595287509 0.28790815724013996 0.5418803480594881 0.5104653097793275 0.1615416693979468 -0.9488416279000033 ]
[ -0.749609269604113 -0.5846996791104851 0.5500090222422603 -0.13956221195101864 0.6175692436510386 0.7629658184040595 0.38001007832613964 0.9915583462775024 -0.5851726568272962 -0.8436887348430541 -0.36147323256220804 0.3039733033547658 0.0657054434367066 -0.36873918256047855 0.1899483371858968 -0.000589308223210225 -0.6481801560873063 -0.5482200297948266 0.5501610689476989 0.2921045558643808 ]
layer 5 Activation
tanh
layer 6 Dense
20 1
[-2.174160828303566 ]
[-1.4117905358640688 ]
[1.4046468034156816 ]
[2.9913061169144672 ]
[1.413254066345134 ]
[2.8745167486660352 ]
[-3.0165572748631932 ]
[2.5901722259388515 ]
[-2.6777191272351053 ]
[-2.8036095238977055 ]
[-0.7729923539899708 ]
[-3.7592135984915656 ]
[-3.090794782799025 ]
[2.724159257198796 ]
[-1.6339539435537889 ]
[1.2066018189570882 ]
[-2.9782943739876084 ]
[-3.009915040331451 ]
[1.3650915826917243 ]
[-2.8214397473012096 ]
[ 2.6852300755873255 ]
