layers 7
layer 0 Dense
20 20
[-0.50837475 -0.13485904 0.25318566 -1.7066627 0.31346187 0.032477498 0.16472031 -0.121390596 -0.121967934 0.084645055 0.2281351 0.17692833 0.4590688 -0.1937661 0.037692685 0.6229585 0.13854295 0.4201641 -0.4481651 1.0189872 ]
[-0.7031138 -0.1272224 -0.10480649 -0.72051686 -0.15192242 -0.3738065 -0.35507938 -0.29010442 -0.70189077 -0.006337951 -0.21108961 0.26363423 -0.023033518 -0.5714021 0.129037 0.42092165 -0.044360597 -0.03573522 -0.18239419 0.50532913 ]
[-0.073278226 -0.075774156 -0.23172887 -0.32533786 -0.41343695 -0.56348276 -0.23884127 -0.35859835 -0.6593921 -0.10538292 0.06689416 0.16600582 -0.25688398 -0.54670787 0.40913582 0.7959376 0.5064297 0.1584536 0.034043957 0.24667923 ]
[-0.9298191 -0.23566058 0.7386819 -1.7657651 -0.19858581 -0.5111251 0.10416622 0.1402019 -0.6464047 -0.3659493 0.1630641 -0.32069767 -0.2036111 -0.1891959 0.052071013 1.1152856 0.26772827 0.51089877 0.16340806 0.6425762 ]
[-1.4012862 0.21081449 -1.880332 0.8231362 -0.09268397 0.16655098 -0.5160545 1.0839125 -0.75764734 0.7356454 -0.5304817 0.49647343 -0.36293477 0.08293358 0.061280023 1.3238312 -0.69188434 -0.41672847 0.5771022 1.4104644 ]
[-0.522153 -0.29274866 0.81541604 -0.40009138 -0.15128483 -0.0259684 0.060795523 0.7607593 -0.83950895 -0.26508242 0.15348437 -0.7134622 -0.095714614 -0.40864354 0.39127657 0.78763485 0.49167183 0.751863 0.53435856 1.0240262 ]
[-0.73072904 -0.13371454 0.7748075 -0.49523816 0.33784312 -0.5482776 0.16043156 0.9109278 -0.3818039 0.4326619 0.15867758 -0.78474253 0.530833 -0.28524718 0.21678999 0.77329546 -0.14460577 0.24038324 0.6879856 0.30869305 ]
[1.0539588 -0.08691941 -1.9922014 0.51185256 0.061440673 0.7055215 0.030097326 -0.090872385 1.2508472 -0.21705824 -0.06763069 0.15140365 -0.20059724 0.85628307 -0.0876441 -0.95621234 0.1306413 0.16256519 -0.24563153 -1.5461864 ]
[0.9475882 -0.778823 -3.011505 0.59569424 -0.62159157 0.08129296 -0.9937609 1.1358942 -0.09578082 1.1670356 0.16231139 0.9055789 -1.1604681 0.3526936 -0.7925548 0.27539855 -0.53608763 0.48267323 -0.7860706 2.9732833 ]
[0.16625418 -0.010899365 -0.39636588 -0.023599233 0.03789049 1.0099559 -0.780348 -0.27449828 -0.14116223 2.6118648 0.18701555 -2.955312 0.1439055 -1.2871456 -0.020786043 0.37760678 -0.24008414 -0.17562066 0.09641868 -0.12027019 ]
[-0.072103634 0.8368324 -0.023468776 -0.13333066 -0.30091187 -0.1798613 -2.0658617 -0.6909295 -0.24542914 -2.248467 -0.15202174 -0.8257502 -0.27228445 0.064642854 0.2651352 0.112138286 -0.28200722 0.8141836 -0.12848352 0.03397903 ]
[0.28785753 2.0529187 1.5724181 3.2690682 0.9472667 0.5110945 1.8422523 -0.95559615 -2.2807498 -2.8656812 -0.3500597 -2.251181 0.89619035 0.38422635 1.5836548 -1.9383004 -0.22404417 -1.9110812 1.1909562 -5.89732 ]
[-2.6930318 0.3725896 -1.4132937 0.7985284 0.77140486 0.75008917 0.66272825 0.36315024 -0.20727518 0.27237752 -0.01172498 -0.3374356 -1.0490658 0.7755529 0.6258458 -0.11913699 -0.8771505 0.2914275 0.71426934 -0.7460625 ]
[0.083973095 0.038358677 -0.46245256 -0.03347877 -0.003280864 0.94313693 0.14049871 0.41617316 -0.16714667 -0.33269563 -2.0714786 0.34213856 0.19088754 -1.2216482 0.12197276 0.32293785 2.8089092 -0.26492423 -1.8019165 -0.14288747 ]
[-0.0065259323 0.6646409 -0.28794494 -0.15793665 -0.46041834 -0.16161074 0.17499669 2.816222 -0.27924916 0.5371029 1.8043946 0.07732003 -0.24152318 -0.0052168597 0.29688615 0.13834907 0.28809723 0.8359175 1.0491477 0.045968395 ]
[5.101414 0.05650783 -0.9232422 2.9470367 -2.3882785 -0.03702983 -1.4088374 -2.1223135 -0.1224775 0.29945666 2.564815 0.5430841 0.8589716 -0.3233249 -2.2402759 -1.3674139 1.3621912 -1.4505289 -3.2348769 -0.93593645 ]
[1.1514605 0.6766144 -0.76195437 -2.3714561 -0.14877495 -0.18364625 0.111544855 -0.2786571 0.39718267 -0.63462013 0.02405606 -0.41108525 2.965025 -0.15681058 -0.13104033 0.047027376 0.094889015 -1.4068841 -0.22653738 -1.3427604 ]
[0.15770327 0.53125894 1.2846688 -0.019758854 0.46400312 -1.6961176 0.3855991 -0.7210691 -0.10975147 -1.8801104 1.5775759 2.0418823 0.14493567 1.890035 -0.44541088 0.26583952 -2.0586195 0.29218277 0.9489486 -0.14036232 ]
[-0.06404183 -1.3368055 1.0842897 -0.08545494 1.148518 0.53606516 1.8471392 -2.286752 -0.10129485 1.5151913 -1.2605133 0.39623 -0.066304386 0.27600095 -0.90339386 0.0046157427 -0.6437633 -1.756947 -0.9191631 0.051580325 ]
[-1.7543876 -0.9239516 -1.8852264 -2.6910458 0.5174051 0.118501924 -0.4318511 0.9065893 0.8924647 0.7922584 -1.090272 0.5763561 -1.1283056 0.06633976 0.3652406 1.0018767 -0.60930717 1.1574554 0.9117672 2.0278254 ]
[ -0.62012786 -0.085098825 2.6051893 -0.7994125 0.14772436 -0.42983297 0.03741168 -0.08975323 -0.63010675 -0.1288768 -0.008787945 -0.061723392 -0.06636781 -0.5528944 0.15753108 0.86006147 0.24959862 0.14979424 0.045554098 0.76679677 ]
layer 1 Activation
tanh
layer 2 Dense
20 40
[-0.15414295 2.1369166 2.2639556 0.78019005 -0.77326775 -0.24170503 0.8823924 0.5554131 0.36225212 -0.886844 -1.2960757 -2.035695 0.6226061 -0.93821806 0.32190925 -1.6365227 1.8029202 2.8910768 -1.3378816 -0.14130971 0.19076921 -5.5034337 -0.67557484 -0.52570784 0.65483385 0.85151863 2.8675432 0.30942625 -0.00038438523 0.6411389 -3.3638685 1.4113646 -0.17032543 -1.4030459 0.49336073 0.732444 1.4052615 -0.76330906 -4.090136 -0.8568247 ]
[0.6606035 -1.338692 1.4280388 -0.33191466 0.2280099 -1.1476026 0.0037242183 1.3010134 0.1006779 -0.35847908 2.5262554 -0.9255772 0.011269072 -1.1296104 0.7475782 -1.8036937 -0.1726911 0.61389434 -0.6996997 1.21173 -1.9097525 0.10686725 -0.39003736 3.297881 0.6197403 -0.6218701 -0.047903206 -0.38823286 0.78019047 -0.035922993 -0.1325151 1.5081931 1.1442239 0.06453468 -0.22254454 -0.24739769 -0.52970326 0.35919425 1.163346 -1.9005399 ]
[-0.71762645 -0.5570581 -1.3350549 -1.3787333 0.09962646 1.6647652 0.3758855 0.33846942 0.056934584 1.599827 -0.372263 -0.17862016 0.20227145 0.9329249 -1.3603661 1.5980844 0.7338044 0.18181002 0.30102187 0.95829475 -0.030826833 0.11921593 0.30925247 -1.0175946 0.16158111 0.22238566 0.12984972 -0.6751998 -0.24923289 -0.04990554 0.2051513 -0.6752396 -0.32179523 0.34107047 -0.050922494 0.07728516 -0.18216816 -0.0312965 1.752527 -1.221477 ]
[-1.1179775 -1.2087694 5.6645255 2.1627393 -0.1764074 2.8859348 0.04115585 2.7933826 0.0017619925 -4.514167 -2.5642233 -0.18617041 -0.7928785 1.4044987 -0.2906469 -4.5209565 2.881301 2.7527652 -6.238349 1.947087 -2.343224 -1.2909571 0.07915991 -2.7093797 2.8300426 1.9601077 -0.54709756 -1.300852 -1.302204 1.5734384 0.92176086 2.7735455 1.2416658 -1.8035977 0.9301791 -0.40722507 2.3585515 -1.7063789 -2.1364813 -1.1002804 ]
[-0.9816773 -0.2744576 -0.7040209 1.627376 0.27995527 0.67519736 -0.042876452 -1.2862874 -1.0768224 1.0270675 0.085827105 -0.5254438 0.017229013 -2.4907424 -1.1855259 -0.23483913 -0.06061923 -0.15364574 0.329688 0.068543896 -0.42018872 0.32394668 0.39649823 0.34016505 -0.13356318 1.1525668 -1.144869 -0.9682282 0.5906312 -0.03381772 0.059284315 -1.4399762 -0.9262195 1.0537771 -0.2888017 2.0916798 -0.7826703 -0.17899403 0.30606514 -0.54217404 ]
[-1.6780331 0.7913434 -1.2134625 0.08113036 0.45055664 -0.6694556 -0.057450924 2.139518 0.05920161 0.36561823 -1.8371899 0.6063903 -1.1362144 -0.33323467 1.6650946 1.5093493 -0.19853026 -0.18005121 0.047308985 -1.5468469 1.9339256 -0.060400076 -0.26499653 -0.3898472 0.4220461 -0.22692694 0.16569448 2.366558 -1.5009922 -0.10327032 -0.20102997 -0.46539947 -2.2315102 2.418099 0.5619065 1.4245355 -0.14781934 0.3362058 0.13163406 1.9250953 ]
[-0.75144416 0.48138952 1.7468698 1.726625 -1.8605963 -0.023976386 0.07978275 -0.2703758 1.0354031 0.37126973 -0.17083971 -0.039531715 -0.18009715 3.0232496 -0.3758453 -3.036952 0.491644 0.564103 -0.3170588 -1.1982504 -0.36483702 0.49787933 2.3744648 0.20192683 0.24105783 0.3856845 -0.27452525 -0.7585646 0.75133353 0.034636736 0.2522775 -0.21046598 -0.55136704 1.4409345 0.27720344 1.0703161 -0.0669407 -0.18057397 -0.20056534 -0.22704752 ]
[0.6479697 0.11039868 -0.2977589 0.20257896 -1.050665 -0.17287038 0.16377611 -0.09510697 0.46208653 -0.110856086 0.44641048 0.19428323 -0.3562653 0.7801601 0.28801623 -0.7068054 -0.41674924 -0.47681475 0.00841421 0.27431548 0.18419081 0.828311 0.27643684 0.36027917 0.052013997 -0.19807236 -0.01550244 0.6640644 0.7976672 -0.02453592 0.56700724 0.16080263 0.25273213 -1.0701226 1.6159456 -0.24818365 -0.20169955 0.07201353 1.1069542 0.015048856 ]
[-0.57761705 -1.3410021 -0.6250609 -1.0006632 -0.07733246 -0.93876654 0.57609093 -1.5220494 0.6265545 0.7829766 2.0277934 -1.4295739 -1.4213847 -0.28894114 -1.001063 0.5886759 -0.1675233 -0.8859097 1.912535 -0.29711625 1.1183949 -1.2122763 -0.90483516 0.6355366 -1.487777 0.4501764 -0.8756446 -1.1776388 0.69791406 0.30700514 -0.6979686 -1.4950149 0.81540203 -2.4861038 0.34748232 -0.702708 1.5579345 -1.1717944 0.018407866 2.9017992 ]
[-0.21720351 -1.4894305 -1.7858444 -2.311559 -1.8903692 0.5444215 0.04343604 0.31017134 0.09798758 -1.0391976 -0.5047848 -0.5563847 0.388264 -0.65791184 -0.71043885 2.2075815 -0.49734575 -0.56551 -0.018909737 -0.7281344 0.45378733 -0.12775505 0.16675155 -0.72844505 -0.06314138 0.1507879 0.20030409 0.11292423 -2.5877028 -0.055664487 0.026427856 -0.7483408 0.14810577 0.69721395 2.2302022 0.1977546 -0.14814971 0.032295547 -0.09873307 0.066627406 ]
[-0.05205892 0.26510844 -0.18496065 -0.55668783 0.007146123 -0.5090226 -0.2403261 0.19604725 0.43904448 0.10674148 0.3694029 -0.4950996 -1.8129239 -0.38845366 0.36477786 0.21541812 0.27548578 0.45307726 -0.22875762 -0.1709232 -0.5634122 -1.7009405 -1.3869208 0.28393906 0.12267879 -0.099037 0.40094694 0.08479864 0.7024302 0.026068779 -0.64018863 0.33941382 0.10015138 -0.7989041 -0.014426863 -0.1237396 0.18525016 0.285626 -1.9829323 -0.029417342 ]
[0.5010262 -1.0359862 0.23994716 -2.644428 -1.959548 0.0354693 0.13689561 -0.44881928 0.25894982 0.009762678 0.841388 -1.3257271 -2.1193976 0.87094086 -0.1221005 1.23165 -0.4773992 -0.27631226 0.22808073 1.5080581 -0.26226467 -0.37899286 0.13990347 1.3918921 -0.19420333 0.109574385 0.2317481 -0.3079119 0.63984346 -0.025032267 -0.048829302 -0.5635794 -0.114089794 -0.19778028 -0.45079973 0.20463268 0.05857591 0.023129856 -0.7310901 0.0055308966 ]
[-0.2258028 1.2420442 0.51798505 -0.6892328 -0.21218707 0.47204486 1.3650928 -0.33020014 0.026438028 -0.20162056 -0.8929723 -0.113293946 -0.032600634 0.18868013 0.09485912 -0.21817741 0.38321814 0.45895395 -0.47504953 1.9960067 0.1916544 -0.74148554 0.05406122 0.47080073 -0.13089527 0.082118705 -0.04929198 -0.6408961 -0.8863144 -0.046787143 -0.78288156 0.31254885 0.47029307 -2.41151 0.1179605 -0.76255155 0.113398336 2.40456 0.042592533 -0.0017288215 ]
[1.4572392 1.0923097 0.50386626 1.1318948 -0.00941463 -0.08464802 -0.14155526 -3.3771152 -0.122211516 0.8672368 4.4100537 -0.3862425 -1.0709621 1.1555012 1.058325 0.97991246 -0.99157596 -0.46455678 0.2956691 0.5925048 -1.1937845 -0.22334225 0.10140524 -1.1092616 0.15797384 0.025774943 0.30606517 -1.123753 2.292959 -0.1079289 -0.29159206 -1.5443246 -0.7159558 2.2722585 -0.100620046 2.4063807 -0.32311293 0.25077716 -0.6447649 -0.59706825 ]
[-0.90695107 0.18686882 -0.15463209 1.0976954 0.23623511 -0.49246323 -0.07048376 1.9893526 0.0929758 1.0277783 -0.82838255 0.8845265 0.31809032 0.5637659 0.96831024 -0.36512476 -0.122766525 0.1736359 0.56988615 -1.3040421 0.20519905 0.13213919 -0.21457264 -1.0069319 -0.1484818 -0.45252934 -1.0431222 1.3026927 -0.9905065 0.059451804 -0.08582077 1.1832908 0.7854113 -0.9455256 0.28166458 -1.4152536 -0.8764169 -0.3146813 1.7449101 0.94882137 ]
[-1.1465011 -1.2294974 -1.5740898 -1.76492 0.08985408 0.94852525 0.22357255 0.79267627 0.64597833 1.8523953 -0.6876785 0.27978954 2.1174262 1.3397557 0.0024776442 1.8708407 -0.21587618 -0.38783395 0.78129035 1.5349096 0.34275585 0.6649704 3.3403516 -1.5309107 -0.09769258 2.0127716 0.8078909 -0.7352181 -0.8823227 1.3348567 0.50771946 1.5512607 0.83435214 0.021916937 -2.581612 -0.7659384 -0.8267125 0.3014179 2.2277682 -1.2533071 ]
[-0.4595356 0.041980892 -0.34949186 -0.52584165 -0.04233891 -0.017021116 -0.108297534 0.716198 1.4428285 0.014906482 -0.04578291 1.1219726 -0.22564277 1.4043431 0.060592674 -1.1075222 0.25803182 0.02487212 -0.07070972 -1.1900837 0.12156123 -1.0985875 0.13312608 0.30828887 -0.07611732 -0.14077906 -0.26283878 0.5739245 -0.85818374 -0.0108803585 -0.44525248 0.7383836 0.3684966 0.039651725 0.41595724 -0.20501223 0.28980565 0.008903026 -0.3887567 0.75195163 ]
[1.1999503 0.8575531 -0.7341016 0.03808494 0.29802674 -2.589897 0.11472308 -0.6962026 0.026541073 1.8325747 3.588123 -0.8384635 -0.49860424 1.3179524 1.2440057 1.3960352 0.1516566 -0.5477223 0.15841354 2.355228 -1.2863294 -0.12548693 -0.47078893 -2.5009859 -0.3164321 0.5159689 -0.5471689 1.0111238 1.5002784 0.07749119 0.19500156 0.66661453 1.3235004 -0.14600202 0.28877178 -1.0106183 0.58040726 -0.28155765 0.99301445 0.2548818 ]
[0.06506507 -0.11382812 -0.52360475 0.055627987 -0.042458158 -0.09194275 0.21136425 -0.23426338 1.3250726 -0.34846285 0.11083747 -2.9755573 -1.3015819 -1.7075024 0.21586256 -0.7860754 0.4153511 -0.04156123 0.1832362 0.23474683 -0.17830391 0.65340555 -2.6683934 -0.41177526 -0.24925946 -0.07834463 -0.64114225 -0.3117512 0.8890095 0.009878973 0.54386294 0.36963227 -0.009149835 -0.21712549 0.082767025 5.0290982e-05 -0.44630095 -0.38573137 2.2961805 0.4237258 ]
[-0.9303019 -6.7045074 -3.107599 -3.7478023 -0.50043374 -0.76586765 -2.621616 -2.238996 -1.111436 1.8663013 1.14761 1.9668052 0.30652928 -1.3442445 -0.28907886 2.4066567 -1.5370449 -3.0320828 2.022384 0.5785885 1.6725215 1.5989387 0.3760606 -1.6290337 -1.0091903 -0.15801539 2.186819 -1.0805382 -1.1513234 -1.1301937 0.70275825 -1.4526024 1.0958248 1.1926775 -0.1473797 0.39306056 3.7066982 0.8580545 2.5058196 0.5472295 ]
[ -0.5401277 -0.6391041 -1.7464632 -1.8749194 0.17125641 1.2601583 0.76076025 0.33798122 1.4110247 1.6740469 -0.41642758 0.73403835 2.1510534 1.196383 -0.021426367 2.2641401 0.30985445 -0.34807464 0.70816755 0.70428216 -0.022776479 0.6675352 4.052925 -1.6282848 -0.06379125 2.4388022 1.5715921 -0.50698936 -0.23051466 1.6508263 -0.11336121 1.0763112 -0.012905944 0.20859069 -2.6194127 -0.067895636 -1.8248523 0.55460167 1.877026 -1.2126752 ]
layer 3 Activation
tanh
layer 4 Dense
40 20
[-0.0139028095 -0.37079453 0.6392269 -0.7906437 0.84043014 -0.6223234 -0.4251134 -0.27129158 0.1365225 0.9606908 -0.024063727 -0.038892675 0.21048306 -0.1450255 0.14819512 -0.23624788 1.4568236 0.22437362 -0.21625789 0.19611834 ]
[0.6273623 -2.379953 -1.2785599 2.627797 1.3761386 -1.8411554 0.46239227 -0.17113715 0.030497028 1.686027 0.4702784 0.43258274 0.035751514 1.13249 -0.47937778 0.29935348 -0.43841258 -0.5024511 -0.97106725 -0.15133308 ]
[0.23877442 -1.0503021 -0.48881337 2.0330696 1.448933 -0.9555234 0.6379036 -0.17576946 -0.32351306 1.5162941 -0.3780372 -0.4759425 0.026134001 0.42018175 0.7908747 0.17828232 -0.668554 0.608563 -1.6436011 0.57890666 ]
[0.5389386 -2.1392546 -2.4602787 3.4586737 0.9618823 -3.3042943 0.84884065 0.31804693 0.2380563 2.6648328 -0.08342898 0.32870352 -0.023337381 -0.1095935 0.97697496 -0.02241454 -2.233038 0.042139817 -0.7002225 -0.19657513 ]
[0.12434493 0.413951 -1.1827412 0.72397965 -0.22618276 -0.8901758 -0.7547974 0.051484168 0.051221896 -0.44303584 0.106718495 0.04600451 -0.01626257 0.08759982 -0.51779705 0.015459869 -0.55186373 -0.012987241 0.5194935 -0.0705751 ]
[0.41034028 0.12580183 -0.48721415 -0.25052398 -0.14824651 1.6919367 0.14965734 0.45408112 -0.2507819 -0.48637486 0.5502213 -0.508611 0.4370561 -0.1880337 0.50796205 0.35848767 -0.19856194 -0.23966824 0.43973255 0.5410981 ]
[0.59231406 1.4659216 0.6201086 0.17589287 -0.61349124 -0.3884103 0.5122213 0.292956 0.21217483 0.4678906 0.24730967 0.4015216 -0.63136846 0.21062125 -0.31961527 0.48095617 -2.1824393 -0.25956252 1.1913213 -0.44130155 ]
[0.27165082 0.0025401043 -1.1117184 -0.6295912 -0.6063186 -0.31131363 -0.42208517 0.40479404 -0.21490262 1.8270298 -0.20871589 0.07497083 -0.114250205 0.3827184 0.22258437 -0.21152753 -0.78625685 0.19468465 1.3521099 -0.50245965 ]
[0.072221294 -0.026091876 -0.21813622 -0.49613637 0.005720068 0.35898873 -0.34278953 0.091125175 0.002648265 -0.56528145 0.06860211 0.09824403 -0.031306323 -0.16554 -0.15820368 0.07413003 -0.740831 -0.11340432 0.85796237 0.062720664 ]
[-0.30442265 0.43702093 1.0240115 -1.5062329 -0.69804585 0.90360314 -0.5634143 0.38892165 -0.11624544 -1.7693853 -0.38765383 -0.009832016 0.20619178 -1.2633054 -0.9314919 -0.61030906 0.48447114 0.06045849 1.6892357 -0.019973665 ]
[-0.23305726 0.35210153 1.3582871 -1.0066301 -0.11116303 -1.2151006 0.77474684 -0.7650769 0.37756407 -0.23137383 0.777486 0.46670693 -1.4084715 -0.20123993 -0.42723006 -0.58671105 0.49921194 0.33389294 -0.33324674 0.71545315 ]
[-0.07766381 -1.1640521 -1.3587984 -0.10018165 -0.7991001 0.81210744 0.43083024 0.03616792 0.009454516 -2.1515415 0.016300362 0.06019845 0.0044769137 0.7766295 -0.10898019 0.072620064 -0.16294059 0.00091641315 -1.8207278 -0.027971433 ]
[0.3901228 1.1342849 0.88885653 -1.3988742 -0.89579517 1.3544524 -1.535163 0.8944718 -0.14140855 -1.551241 0.028836943 0.037032835 -0.20135641 -1.16902 -1.598156 0.8167406 0.7374883 -0.21389157 1.2623459 -0.39342302 ]
[0.22630681 1.0326138 0.008877912 0.6637191 -0.6031611 -0.3044703 -0.14843303 0.07826069 -0.002338258 2.1464813 0.08077357 -0.04737152 0.059455995 0.08493472 -0.28519163 0.0022112408 0.3272354 -0.009245204 0.9304958 -0.1719789 ]
[-0.3695809 -1.4279008 1.3745011 -1.2935115 0.616755 -0.37720373 0.6544911 0.09605991 -0.01928963 -1.3233482 -0.3715258 0.050456967 -0.17731807 1.5673512 0.64290756 -0.2772802 1.7409723 0.143787 -0.92055297 -0.53091025 ]
[-0.24862657 0.069460146 1.8614467 -1.2787775 -1.0432156 -0.2193716 -1.0771087 0.14272994 -0.21473506 -2.4051285 -0.5106654 0.22229454 0.056122232 0.050647233 -0.58071846 -0.308968 0.22536536 0.039825466 1.5760016 -1.1868321 ]
[0.45696485 0.19585289 -0.9990042 1.1161096 0.33425274 0.2796368 0.19426194 0.11268624 0.2257684 -0.114529 0.12748882 0.22633499 -0.7677762 -0.066644736 0.12968196 0.35236675 0.4845633 -0.21595323 1.0206462 -0.12085064 ]
[0.36639392 -0.7480735 -0.71962404 0.94808906 0.20750499 0.45846567 0.03734999 0.6412359 0.49769855 1.0671679 0.43099415 0.8061697 -0.56134444 0.62353927 0.7201271 0.2638362 0.7453974 -0.61212164 -0.8486503 -0.2877604 ]
[-0.52121127 0.8574115 1.201117 -1.8003376 -0.3087921 1.214105 -0.25480464 -0.6858094 -0.40993172 -2.7208962 -0.40914616 -0.5390222 1.2601268 -1.0071572 -0.4575462 -0.9730601 1.2576792 0.47236276 1.4079506 0.6349424 ]
[0.10691392 0.9831158 1.172224 1.0723898 0.039366268 0.946334 -0.9545149 -0.07464757 0.036363013 1.3158945 0.09436417 0.19744885 -0.3803636 -0.3562046 -0.15981631 0.001000005 -2.009676 0.03606198 0.14262454 0.0034578596 ]
[0.07336662 0.6210104 0.5760999 -0.7237099 0.20471379 -0.61432296 -0.42957819 0.4124199 -0.23678069 -0.009935954 -0.30076644 0.22628604 -0.33933768 -0.11850711 0.26692948 0.294388 0.94995564 -0.3098303 0.42569092 -0.8233458 ]
[-0.6479884 0.19481741 1.9260671 -2.0812235 -0.35535464 2.1916373 0.20438099 -0.7737293 -0.17686015 -2.0800564 -0.7113104 -0.8023638 0.031679247 -1.8145003 -0.5135554 -0.55199075 0.98719144 0.5533806 0.5244568 0.9742145 ]
[0.31393668 1.0930842 0.9226569 -1.4737854 -0.9933199 1.5307996 -1.3420902 0.078851044 0.16070895 -1.3810496 0.18731172 1.2982081 -0.31584337 -0.9536423 -1.161455 0.89093596 0.14331447 -1.220282 1.540886 -0.008515709 ]
[-0.039622948 -1.9324502 -0.25509927 1.198301 0.64881945 0.4534017 1.1019752 -0.11324515 0.040398963 0.1883732 -0.11045535 0.019106952 -0.15865211 0.13057669 0.7460962 -0.014314577 -0.28871858 -0.004534581 -1.7544163 0.25691253 ]
[1.265141 -0.38652548 -1.2241579 0.19573197 -0.6998733 0.19032972 0.010130102 0.5463902 0.69580996 0.63859993 0.54394335 0.41560856 -0.65421164 -0.31380242 -0.19668484 0.57776415 -1.2609527 -0.5961422 -0.30887944 -0.90287536 ]
[0.8367431 0.4009156 -0.13531502 -0.9371585 -1.1504437 1.2166904 -0.33415753 0.20688802 0.30284414 0.10065366 0.25916433 -0.14729911 0.13265021 -0.3271573 -0.5418773 0.20227554 -1.0982969 -0.057645492 -0.23303711 -0.4417263 ]
[-0.88575006 0.9545973 2.0215425 0.55296075 -0.9386816 0.5629459 -1.2615799 -0.52411735 -0.16075641 -0.8449787 -0.22697489 -0.24524125 0.31071976 0.06390009 -0.9171324 -0.5353272 1.6632437 0.31869453 0.30385846 0.39087045 ]
[-0.48450673 -1.2701589 1.5900054 -1.7364278 1.1418622 -0.45688134 0.2959537 0.78876746 -0.42519146 -2.4764435 -0.49254227 0.70169455 -1.024065 1.7710378 0.47887725 -0.4116366 2.4847775 0.15063676 -1.1294795 -1.0823687 ]
[-0.34048706 0.14633973 1.1470171 0.48975283 0.8309126 0.015509534 1.0030409 -0.3030151 0.1758273 -0.48009554 0.29188758 -0.015337054 0.32351398 -0.060479484 0.60486424 -0.27249533 0.1693914 0.17871186 -0.26279804 0.4514316 ]
[0.60492235 1.3939561 -0.44162458 -0.87236184 -0.7643894 0.5330444 -0.085157916 0.5924604 0.32835135 -0.7713808 0.6141852 0.5003753 -0.7067041 -0.19369243 -0.5300206 0.6288688 -0.32602382 -0.73109436 0.39254454 -0.6969424 ]
[-0.50579643 -0.14187646 2.2806575 -1.7594987 -0.06970555 0.44319052 -0.020548247 -0.21448657 -0.22966714 -0.6530827 -0.3101786 -0.2755807 0.33038124 -0.71167713 0.09801356 -0.17177413 0.47857565 0.3240959 -0.003903203 0.37430444 ]
[-0.31195167 0.36451408 -0.13555728 0.37701333 -0.25594777 1.2891488 -0.6131902 0.39635834 0.107960515 0.025385935 -0.34143215 0.63809377 -0.67881805 -0.12382668 -0.44676173 -0.31841946 -0.0017882994 0.31122184 0.4684467 -1.1160645 ]
[0.25616315 -0.5990133 -0.63236916 0.10205182 -0.6331665 0.3801834 0.4366364 0.10022347 0.32129696 1.7217766 0.23791032 0.45258558 -0.8119547 1.081897 -0.29852566 -0.25545603 -1.4348961 0.23395213 0.2945235 -0.4332868 ]
[-0.09529392 -0.25580543 0.49987262 -1.6957989 0.79663736 -0.43784526 0.116194844 -0.013443721 0.017778454 -1.8004905 -0.1376353 -0.42757154 -0.295123 -0.9431063 -0.4409711 -0.2814819 2.0834048 0.086697966 -0.5013484 -0.026027717 ]
[-0.073921025 -1.7823839 -0.6888385 1.2077197 1.3479549 -1.4670444 1.558431 -0.99693555 -1.0046854 1.1899481 -1.1730177 -0.91463816 0.32995474 3.2597697 1.334581 -0.9218683 -0.78661984 0.18561314 -1.9880922 0.6956031 ]
[-0.48972178 0.9030009 1.1699576 0.267769 -0.1057564 0.7512666 0.4154326 -0.5019402 -0.23987696 -1.3907348 0.20590876 -0.30221763 0.5371075 -0.110423334 0.25794044 0.07950927 1.3358815 -0.1474844 -0.7652355 0.4331745 ]
[0.430953 -1.0049279 -3.0997438 2.8961413 1.2063912 -2.1610034 1.487501 0.37968838 0.15927407 3.3337235 0.36386922 0.08904532 -0.40545112 0.7360333 1.107448 0.7121768 -0.26734406 -0.29678985 -1.0410354 -0.6146337 ]
[0.10761433 1.6806314 1.0145347 -1.5036244 -1.5133142 1.7717282 -1.4487033 0.86665785 0.7778486 -0.9628267 0.81177056 1.1433228 -1.0258944 -0.80133 -1.4240184 0.6171133 1.1456057 -0.93591577 1.1938474 -0.5455021 ]
[-0.3339894 0.83792543 0.93267405 -3.9795403 -0.009220545 0.9823487 0.045017116 -0.43878332 -0.19636081 -3.5015037 0.040574025 -0.2052693 -0.6202909 -1.3919629 -0.61298156 -0.15815046 0.73348296 -0.28698847 0.4943779 -0.2628986 ]
[1.0422914 -0.8774534 -0.8595597 -0.040035512 1.0413052 -1.4129192 0.39685366 0.2661056 -0.044263437 0.43087813 -0.030823596 0.06984067 -0.36040255 0.76106906 0.02361058 -0.20257366 -1.9249706 0.11017914 -0.98225695 -0.34784132 ]
[ -0.33610532 1.3666856 1.2532268 -1.4396862 -1.2181209 1.9413145 -1.2666715 0.82619506 0.7523349 -1.3444219 0.80871654 1.5358403 -0.98651236 -0.7327646 -1.1644113 0.6577154 1.1389465 -0.8789663 1.512021 -0.7332104 ]
layer 5 Activation
tanh
layer 6 Dense
20 1
[2.4990377 ]
[1.5907775 ]
[-1.5454642 ]
[1.6978865 ]
[-1.887244 ]
[-1.2307537 ]
[-1.7800517 ]
[0.7372593 ]
[1.3573895 ]
[2.045627 ]
[0.9818854 ]
[0.6841613 ]
[-0.4308651 ]
[-1.9968525 ]
[-1.7074375 ]
[1.1715528 ]
[-1.4922643 ]
[-1.2533437 ]
[1.5711432 ]
[-0.39785984 ]
[ 1.4533443 ]
