layers 7
layer 0 Dense
24 20
[0.0185937454650554 0.8256776863580304 0.16809178924517143 0.0024092083223060013 -0.43116759332371485 -0.2878277575590673 -1.3608326810451967 0.2805184065036244 0.3198858962757184 -2.224448156162714 -1.0147635556097445 -0.9983042588714404 0.7096511551331577 0.5112538658314895 -0.14484541588626929 -1.1576576139283419 -0.15065329928850285 -0.07300887777514178 1.2450262596469979 1.668101172616072 ]
[0.1303232699937025 0.05294106310463482 -0.1509942547527538 0.8671102821339193 -0.6163638948816845 -0.4829846593715157 0.05309882233077409 0.010543531605077974 1.2279990876054878 -0.8595189344684053 -0.7676823075032327 -0.258974455977345 1.2427748786524075 -0.15600727947020487 -0.7819963317543778 -0.3618175328286596 0.40087107398678684 0.4728885327428143 0.9081361821260201 0.8633706847066149 ]
[0.3141137590082557 -0.35456184134885166 -0.36254623468924285 0.359676160149871 -0.182169919483961 -0.2997529219623555 -0.11084861043420083 0.21454494963783297 0.8918347767525631 -0.5309438079182176 -0.531966359944194 -0.583243425755191 1.374237929603833 -0.2266382603191506 -0.5590196155923013 0.03157753980115707 0.22644645072748493 0.5992463789579177 0.4600672030312555 0.7768536822036405 ]
[0.29190402400536725 0.13522812463306483 -0.3808918585731425 -0.1562824827117251 -0.2680808129961866 -0.04319588607438145 -0.5728904912575338 -0.25141805970464554 0.2946939307207508 -1.6295760727682596 -0.9437430714908189 -0.6369341041626642 1.2011632511748878 0.4485244252296995 -0.8760707246253542 -0.6437362650056868 0.32459590825737167 -0.010333141507626297 0.9620632820165645 1.4001078927338053 ]
[0.6457512922776567 1.1672360284713155 -0.3682693556473735 -0.9609497034369203 -1.0477800013558132 -0.23327140797313076 -1.6607469726508641 1.006234887849051 0.6350686550590767 -0.1469457399416119 -0.16006925127405763 -1.373522393143998 0.15964826418601838 1.6600724431122196 0.8020051788804754 -2.005115746748236 1.003795210795695 -0.20494884428428667 0.9296655741156723 0.4664739893461604 ]
[-0.5190348879575449 0.2547627488853337 0.6574004962870164 -1.143662765952671 0.20393575901478544 0.47780959855316063 -0.14810023075960946 -0.16410052643333925 -0.8240381890169833 -0.1246485154629765 0.495061549140263 -0.11679554609589511 0.4545225130288826 -0.8710213471717814 -0.002831172596097461 0.07076987050624421 -0.525924391175435 -1.2486640411220018 -0.02636624416426347 0.3535897536218915 ]
[-0.3242141447790367 -0.14542841755473906 0.6520668922504305 -0.6573679464417649 -0.004173908361224927 0.7039955924698076 0.27797252225432934 -0.5438956262134548 -1.1483867153185037 0.17159835898618397 0.4127171709661075 -0.42070565091566897 0.616250919137615 -0.23959153206022704 -0.3700863498344216 -0.047071179319703366 -0.11749471893773762 -0.9984132650197178 0.05362045730184769 0.11898540466119292 ]
[-0.2900391051572869 -0.4841102130122453 0.31144463258871546 0.6204628934311773 0.8809742780117267 0.19548312788918626 0.8965748517217008 -0.6099155388257741 -0.5978037455888834 1.3157140120699795 0.11533734689450968 1.7088022006833694 -1.0617680240179397 -0.5059127863218438 0.6634458103442857 1.2162225924891092 -0.9292486779667186 -0.1718532902339454 -0.5701298656436633 -0.660185288628325 ]
[-0.020344893817097937 0.5210117918585895 0.3372370595593467 -0.2721432535201829 0.08275465370266878 -0.344331292848074 0.2737758099353344 -0.2198349779939768 0.045621488105721454 -0.5253585184595762 0.5030521124686169 0.9035582774177476 -0.34600046451589445 0.7358615757701839 1.043184523573698 -0.5665612255224833 0.4853120880460091 1.1041914200057925 -0.499019121965945 -1.4634613589321261 ]
[0.7479638885338697 0.37164785886263446 1.2975601088409225 -0.705430583611019 -0.06335361909354663 0.33443813816443413 0.4216011463812571 1.500939739384731 -0.3295536191085225 0.4226515101481598 0.556667090212688 0.654342161233198 0.07094467266168211 -1.218935535029943 -1.5117266519656243 1.1528507159493369 1.0878959678964895 -0.03734785051697843 0.24023929574835062 0.24973003412509823 ]
[-0.003202239550574991 -0.015602621293455354 -0.29632436876155627 -0.35663103847593275 0.5102720335499504 1.115199625719418 -0.2404329761119384 -0.42463865882769025 0.6825626511530937 -0.974573814712277 -0.22844126303017884 0.1511503507835348 -0.3485007021072771 -1.048241622994973 -0.40230994600623055 0.3609138169279148 -0.37602036983907944 0.3079911986116307 -0.34798101924778213 0.1135989740972679 ]
[0.8148125625881524 -0.3395338775163955 0.7724777828254875 0.3453128202930899 0.5550382085441603 0.31747884514948727 1.1233052446453442 -1.98706292466369 -0.8840744816928515 -2.737030619969771 0.5843844737293641 1.6006205070618242 -0.8298556163585381 0.5185283944731267 -0.3875372537373343 0.2726319706776849 -0.12989416634541226 2.127318327915928 -2.0769124719746044 -2.629289950556567 ]
[-0.5649125457203185 0.5412150545035782 0.21822977283712097 -0.2506712481487049 0.2593785618151281 0.15566162018653348 0.6993676685184421 0.6425409334025781 0.11104554138063369 0.41192278103993957 0.12007666405207623 0.09815125412801368 -0.506572775825687 0.8147907504567451 1.0033417335389745 -0.10628317288586654 0.9103840952503313 0.1885790543494614 -0.4426976243293107 -0.8152624018377681 ]
[-0.2355983095799276 -0.11728013545916001 -0.29106858753374454 -0.7165157310148073 0.0770107111313267 -0.1298559145206509 0.010952617670583404 0.40839868497106696 -0.4185741953758399 -0.399525366225404 0.6083586350751684 -0.3612722197411968 -0.14664254416194494 -0.40838877352437275 -0.9366250324651146 -0.05564752878078888 -0.2763886098099932 -1.237978820825545 -0.2850953308423734 -0.4471555392691424 ]
[0.2790586734620772 -0.20117302405150228 -0.8723619407057797 -0.1630210559376331 0.56027935783348 1.6916831643777868 -0.3381890053686772 -0.4914091148415213 0.5986520607790919 -0.22221774665924054 -0.3608994569005142 -0.3039515527055299 -0.42705120761018067 -0.5489083943884785 -0.06130033034401291 0.09896103724228633 -0.11496136449865917 -0.9343826776159624 0.4586217882173709 -0.3337956258210188 ]
[-0.4096391978448532 -0.5746529465760426 2.867602891595043 -0.32013813282153836 -0.769228315858158 -0.2725941884954238 0.20241664584153365 3.3801945868107266 0.25232386488664044 -1.9126561342061532 1.7075389578653453 -3.3991064116557412 0.22600251096347868 2.0923131941659685 0.6524160922509031 -1.5288637135916203 3.465039833898386 0.7578432510637568 0.15246362060877003 -3.1208820756203646 ]
[1.5465264445917888 -1.7489868775490631 0.29802675625094543 -1.3700494412159012 -2.023610869446593 1.2079817426197477 1.048451484916251 -0.8073168653922469 1.1119656270850384 -0.6042594046122685 -1.7954822611222647 -0.6327793374162201 -0.8014583231602088 0.4278721229255568 0.3953298184961469 -2.036772118097561 -0.2716056496602361 -2.0064303985355143 -2.276342455586787 0.610349450454988 ]
[-2.069623636783876 -0.5648589907469105 -3.28919749136329 11.816574478038916 -0.8467990271080024 -1.4182610283322838 0.4767835133406036 -2.0616516123542366 6.527936417780097 0.887731519536758 -3.3367045983153143 -0.5812219551754025 0.07774663415549733 1.6263748829252265 0.3321634576698808 3.4851018423363964 2.302948950227611 2.0175537717158853 -0.048366113861572836 0.1753883213761448 ]
[-3.2411608929624047 1.9868089782216207 2.357614236892696 2.0905294219119517 -8.903642466724085 -1.5429089717434694 0.16352613865803725 -0.03341411668637667 -5.664122701110813 0.567878185455796 1.3989040800208261 0.2223862262360633 0.0558792494179601 4.518411480614808 -2.3777780423630843 0.7937659318588638 -1.216557974880902 -2.05122681877819 0.1820496497178684 -0.253479889734484 ]
[-0.9033463620998088 0.1529253504342921 -0.5538943289865285 2.0159175264327023 0.9027132499409354 0.044519274056346175 -0.4620224599830297 0.8220489929261072 -0.35616545837543917 0.055838921795269385 -0.7551240681443059 1.3183209325167238 -0.3880015499332034 -0.8775528848297889 0.07384793475881372 0.29618445244213837 -0.6753173926635551 0.013935130254486852 0.0301259993968202 1.449263161745925 ]
[-0.33910051402019104 2.1163006555508828 -0.5759409214620042 1.3458217780990944 1.9443843625988846 -2.4155997622780734 -2.0851204953631775 1.3111181421576015 -0.8679210547208605 1.4304852060327105 1.7698790138002714 -0.3858485361204473 -0.7024391827002836 0.30983704172045134 -0.16772373893505996 1.0260615588704816 -0.012613749576140044 0.8088865827261054 1.6492331856932858 1.2843495645762524 ]
[0.2856407697236864 1.6405324537663108 1.91523892756064 -0.5142501307733177 0.21219686551382955 1.6620512183986784 -0.15294766353307948 -1.6629592530389194 -0.33449150336871664 0.2620431114487479 1.0374469232407795 0.3730974021275335 0.0644688965831949 1.2045528437868982 2.506890127142161 -0.8642918490860299 -1.5465174326369389 1.1347052290085358 0.13854807004476408 -0.038510884973103114 ]
[2.976744709780016 -2.997929517594298 0.1958090352711571 -0.20142538724499442 0.9486413203669058 -2.599019765762675 0.19498160323369326 1.4149177278839629 0.6044514793192106 0.49713784876412603 -0.08732721410813701 0.10828717487265054 -0.05913524666232407 0.8441261293721786 2.382399396208831 -0.8914860681662604 0.9062938185170758 4.114099884090955 -0.4182258390991857 -0.23716713289374994 ]
[1.4842542410733517 -0.5812037406943523 -1.2049714238973508 -1.4141272232626951 -0.9257187365852257 0.569938453794213 -0.5175547975073979 -3.2150310658825574 0.11411635726697038 2.0786697626767223 -0.45612161212471963 1.040657298436592 -0.7581363753849185 -1.7267549713103423 -0.04606933814391982 0.7540022394519801 -3.263465460903571 -1.9578924636368003 0.07214540717137369 1.6351750646906449 ]
[ -0.027315065294975686 -0.08123123188782082 -0.1380152772344959 0.057709452308997045 -0.14192487565553974 0.21127319381318843 -0.11847892467561509 -0.12883472059919196 0.06752008209380331 -0.5578376306626892 -0.38459007191380346 -0.4908304115249804 0.96406996446665 -0.1518671256410436 -0.5844406196162604 -0.0071076762322534424 0.09579830574954802 -0.06543117711255322 0.3550849490052123 0.49016665993376163 ]
layer 1 Activation
tanh
layer 2 Dense
20 40
[-0.47265513573042245 -0.29966402618345234 -0.5024246864018103 -0.16301312145157765 -0.41342910329635896 0.3049675925060752 1.6417172091975503 -0.5966816215049319 -0.4165402741249487 -1.9091651731664112 0.610288834551597 1.0601977048505014 -2.32142647989852 -1.2398294586380085 -0.7124075126869639 -1.0972469417134563 0.8269441971312053 0.1395674947482843 1.7657329181933437 0.7238846483087273 0.053733486894933805 -0.9528373503522867 -0.5279789595348067 -0.19848731782680243 -0.5243903427683625 -0.7923881935157221 0.4373167272503601 1.543406106013816 -1.0722291545104061 -1.0291150262265105 -0.004122349595904275 -0.3504408891385171 0.2202734594819867 -1.2232954027442662 0.5840290407761466 -0.044909050146891935 -0.08314901454084131 -0.4467726841640188 -1.7459978102881444 0.4976038405179165 ]
[0.6084303872079063 1.3281858719976278 -0.33910052784618316 0.2238580058231841 -1.1099065382636577 0.30848424023794524 -0.3834856535421649 -0.7225477513897389 1.219287627910417 0.35637173798572686 0.702500811511763 -0.23630727376368 2.111707914795168 0.48061696859674224 1.5753195909896864 0.5911556600456817 0.1544769611961038 1.3271080470962093 -1.5527001079981275 0.47710603403244495 -1.320787185938684 0.6607438917589944 0.5433031285290715 -1.594441268393915 0.16445644816610383 0.6966585328681162 1.7355266965110911 -0.19320133408440174 1.1115285481036936 -0.08472146100342434 -0.7798772393322302 0.1553808350139535 0.09007143165635521 1.5419591301826912 0.3545122343684687 -0.45859690513906776 0.29981405595398375 -0.5139893283266614 0.461142293019209 -0.4302354837626213 ]
[0.8103039684379688 -0.4689685372598938 0.16752097671497612 -0.8886123711283859 1.5269303342600946 0.2971533541750882 1.3222756840798338 1.062824525981184 0.3693525311784701 0.7616318286021735 0.6969460889738092 0.7497732203307548 0.374372356665711 0.2968086845854036 -0.14533384165493887 -1.2709593484476118 0.260243221520483 0.07025823683095385 -0.2549172807395378 -0.22334751476469727 0.10897614312683103 1.1539026326570823 0.27105899571383196 1.0141788150353963 -0.14389305813075356 -1.0757628582584478 -0.2844433016589164 0.963770185008452 -0.9306975346001753 0.6173072729180838 0.7098446908004196 0.6946747288391477 -0.9279245836125105 0.046283849776990064 0.3080254563481756 0.787577871896601 -0.799024062865988 1.1087326014409233 0.5734296374999178 1.1374324097835025 ]
[0.3383350824692699 -0.18919239302531907 0.9107862888467977 0.1585262105284896 -0.39710334916128004 -1.036369782387666 -1.0715446030978792 -0.2239577037477568 1.0824661337366104 2.6496710141938515 0.3295843220677767 -0.4116277057385192 -0.14831062493665473 -1.7148517539335684 -0.8938460548158513 -0.03740860844084855 -0.6275281831496454 -0.2834000028687985 -0.2538130540420316 -0.5291033669368481 -0.2523048986652429 -0.5617134290940811 -0.8331780775515739 0.7553050302678811 2.454410029195164 0.17505277223835736 -1.098060721106015 -4.457101251574008 -0.32645836252699584 0.6925250649552072 0.22914574364362716 -2.3448320879958624 0.08329380508299951 -1.1321962408953876 0.3179970410086919 -2.1449098216645623 1.460719427353585 -0.7306933653891227 1.5744717295601656 -0.6382075382596121 ]
[0.5153706130426021 -0.8088743804040435 1.9729034359298478 -0.3076659931043967 -1.1682771040897535 -0.7821293450644088 -1.813883503783513 -0.39394002813679707 1.6444613604852152 0.10009378876788837 -0.6057392808103065 -0.845977607705627 -1.3493835178049287 -0.9960646473281866 1.596163941809484 0.8580931811955328 0.5080129379477208 0.9312594579483844 1.8577222534541626 -0.3057012504609169 -0.6943403179883295 0.8676409056390312 0.189944045935001 -0.35562232284032275 -2.9678530388238054 -0.07098416619401306 1.2380565362246827 1.5853188087253642 0.15778913649698717 -0.4158993393671105 -0.5885796941168063 -0.5596578662686663 -0.1036112559776633 0.2561526573222476 -1.6659576924682848 1.1729580249482494 2.5916464294484487 -2.3796046116294733 -1.2795553555180337 -0.33659503283697495 ]
[0.6595939379075119 -1.1913229230959184 1.7250736560429194 -0.10290747349399215 0.9912069125565145 0.866130728898532 -0.14802030202544406 1.1923008221039364 -1.7685098679500812 0.8145370414205575 1.1546790199734176 -0.5882679356154465 0.007185577551544501 -0.5955330200352962 -0.47631604388619947 -0.9693048043238465 0.5279652654282198 -0.4901143675153731 0.4120858917112678 -1.0244480878943238 0.210714024919839 1.1828885802021056 -1.1001562680756427 1.0104539616930721 -0.6669252206227833 -0.47869157850941546 0.8648748361299282 0.9478160598651896 -0.7743807994363985 0.40261447275829904 1.3125831211862273 -0.06012181686831888 0.11343950938850704 1.7774481546510654 -2.0827354920458205 0.40023178666902803 -0.371568468086739 -0.06703730042260785 -0.7609293872037429 0.6218325110941391 ]
[0.8477369316996004 -2.327814795621925 1.066017350115064 -0.3526026484151604 1.3367885284427412 0.30604367380696057 0.12456859222024876 0.2811367877211173 -0.4387417006405259 0.37798932643458943 -1.3129321097959528 0.24191907084181796 1.3396823461088374 -0.03326227194185603 -0.4105779638989994 -1.9640835453743157 0.9340256526973815 -1.964754538867333 0.1859837082144794 -0.42694814294793326 1.2227545742483878 1.8560932570599171 -1.0227048149583329 2.9653012727669523 0.04704375369733502 -2.2863208156543804 -1.4398900100045553 -0.2408720709001872 -1.6712282140336494 1.7346907637125097 0.8085727371793751 -0.01247272645431051 -0.819136406654747 -0.6615724603134389 0.37937994597213787 -1.1978380193870448 0.4875474680604267 0.2910050104602816 1.5438328774983532 -0.22360811067505035 ]
[-1.1527203623893298 0.7139945155891222 0.7003987051818836 0.466417029097694 -0.25317661179350887 0.06668839833633203 -0.3598531651599487 0.6485892490071367 0.4590401582384322 -1.2067807427521884 -0.4082817459532386 -2.1029986759345904 0.44362074487789965 0.4204619188773095 1.566606490112081 0.2084442288154827 -2.840857599197859 1.505010110859055 -1.3025720447678188 0.20205247859607217 -1.1268614797518834 -1.1776422195354876 0.0089387856853217 0.8885931918973003 -0.1080557717380151 0.13096068619673804 2.14438156269334 0.32784741904004083 0.12880717226381727 -1.9628356647139646 0.9301279178056513 0.25006708042980125 -1.0661776425010112 -0.6886697601638345 -2.156843489995315 -0.33242470866167056 -0.347936829355305 0.0913471956146686 -1.9458334206507855 -0.5728187957398901 ]
[-0.4461486636253462 -1.6057794780487784 -0.29834387842309024 -0.11528465713305643 0.1988274561468652 -2.023950168022637 -3.188022761177112 0.7755244094441376 -0.48967299724061086 1.1289060034701557 -0.4250966513620466 -0.6552633165369813 -2.5853066929073205 -0.97509941528733 -2.7233740692795685 0.4752961620621089 -1.5693509158168493 -1.2379399039161063 2.4001444347476486 0.030093332719756397 2.4279647927044707 0.18441363178582063 -3.772987869498241 0.20039185634938042 -0.4696593543698333 -0.6378123389408781 1.0416721593139329 -0.4879825806463961 -0.2569989160268073 -0.7556866908942765 0.4188459356727011 -2.77197227371555 -0.6375518854269931 2.5193177789390915 -1.1035824283359015 0.33030747923495585 1.1013932117224055 -5.113525050574694 -0.5662577112507853 -2.377175698959799 ]
[-0.3287312742964542 -0.7263208241807843 0.08297211935166579 -1.1111543327736377 0.897544787594738 -0.6037488765306477 1.0363424697693022 -1.8150061867960399 1.7517293679074089 -0.34063343128162255 -0.5396184070744768 1.7935811750384374 -0.7789330338419395 0.9303404209502995 -0.03778077501548385 -0.9351528670270647 0.48293953115970795 -0.9158370804629734 0.20874342509409327 2.0195278700009136 0.6734318099042306 0.11837083619593415 0.2425142708189262 0.2800399197453181 0.5299326089026801 -1.1448364899888486 -0.9257547119424311 -0.849476042954904 -0.8069697034050509 0.7681026918878396 -1.8426495343135267 -0.5044412603335305 1.3007400527365125 0.5061147321832824 0.047440570954488955 0.8068039501578003 0.7498110364983337 -0.022651434829402673 0.5562149113349621 -0.2504124397149949 ]
[0.8054631377555209 0.3721089792139798 1.0291927725317815 -0.5173513577969073 -1.1089473966120318 0.4736582223692372 -0.07587481689470359 0.025426931023016543 1.1857616423830115 -2.3305726324285887 0.04174982955412952 -0.8340180447936606 1.710084435041156 2.2442140563862027 0.9798002561979655 1.0646058156638842 0.09835408088039342 1.039333734854157 -1.5341553019124081 0.012535350392293823 -1.191107495451215 0.24754221613956182 1.6860978473758539 -0.03596310537116916 -0.4346582438184658 0.10689290032337305 0.604118461525682 0.6300540633690666 0.08562517433169271 -0.2618417189462712 -0.5139051519991478 1.0771086732273276 -1.2251788957632679 -0.18818114418334916 -0.13741796320194058 0.7116166074761267 -0.09924814871296546 1.7388430071578382 1.3469336446296387 1.8491928348672013 ]
[0.4891468225814288 -1.5711618826285927 0.43294176911864407 -0.5771448918812075 0.7591252199242348 -0.3059996833600105 0.5004294498686883 -0.35983371061042957 1.1126667472781648 -0.21977457496619476 0.22330565351347423 1.3149929530486522 0.12070163673106528 0.17720234025556833 0.007130190916391453 -1.1279266457338215 1.9113520132858655 -0.4349017141942663 -0.171212987215685 1.7354209557282199 0.5573406797965277 0.24382767993867147 -0.5886741607168646 0.5561277508827426 -0.03748825721929998 -0.7333430683256638 -1.1620071780150452 -1.0096501885556513 -0.7085593701516613 0.6637553247062379 -0.3416323560579385 -0.3591645828987987 0.375486994337589 0.04992110439947084 0.7686207151731348 -0.36982619317304644 1.0090714054268572 -0.7472810617902074 0.26397231154522866 0.14173266576972401 ]
[0.7649391009091918 0.6274577104745684 -0.5224451021136151 1.3198901633084472 -1.241001065612642 1.698950037061246 0.719287502351266 1.3430528240032436 -1.0814949536054101 0.3597159661186581 1.2115915802585813 -0.5834674308375685 -0.6037953660119177 -0.9373855299722286 0.0854863756380234 0.978930321091567 -0.4777603263439363 1.0981075136176977 0.25936638034577275 -1.1748110691808613 -0.9659435313768707 -0.23860417187364644 0.41018800430575025 -0.8088196430363431 -0.9281640366816736 0.8776613140852166 0.37506120760401146 0.24442716292119937 1.1142659519359406 -0.7595696769305228 1.1363697278662157 0.1538503749913358 -0.9126741913407078 -0.6288666115273274 -0.26205803911092274 -0.198775595334559 -0.9035189371247252 0.1565477835087571 -0.4357766474922344 1.1782160907800119 ]
[-0.706061250709379 1.0983063703634028 -0.13404284888992427 0.23818713573159023 0.05909014803207469 0.10852892265860387 -0.23844850270771173 1.1678852900828967 0.08840076214098569 -0.11079471156109273 0.5550332485245728 -0.38159584514406697 0.4673956459834721 0.05416674399261788 -0.6224759438826091 -0.8179632166387071 -0.6262120279359666 0.17673927361158187 -0.13834812996657692 -1.0362875987312503 -0.14674140273758762 0.9982487958695819 -0.6184568042125522 0.7874068187764633 0.7494847825910225 -1.3350544952637902 -0.0028191820434755772 -0.42050224052622104 -0.7024261915372338 0.5053224732963213 0.17023445042507904 0.18591222984283468 -0.628925617737391 0.17183018590979943 0.12095481888314613 0.03427175587990743 -0.6130924523257896 0.26254835087515555 1.2518407542995469 -0.40885611513282155 ]
[-1.8011512387139355 -0.6380038918158154 -0.8400619411874545 -0.3907293169282875 1.1716567220349183 -0.5342664397997184 -0.8019126067199259 -0.14795098550340569 -0.07225819491529924 -0.5842160769344682 -0.1724528275316822 -0.33655459968594864 0.3178114145188501 0.317039431994556 -0.07929577905232098 -0.8302730491743544 -0.5320970248396468 -0.9225224082958816 -0.4488643342492284 -0.04802834125457345 -0.13083224150647207 0.31774312376213704 -0.8933486587852129 -0.057851128087832215 0.5821354065189329 -0.5043688183281168 0.531752568708586 1.047277526644036 -0.8169145387727395 0.42230944341320414 -0.7201970167685227 0.7333417727469909 -0.1367212542790351 0.5669830776698194 -0.3207606500619635 0.2631298577439208 -0.34039444010679015 0.12036482593313445 -1.240795564158822 -0.8140415300465109 ]
[0.6166134771189447 0.1176635919030192 0.3898474835445817 -0.687389259533962 -0.27228299692289865 0.1894232991300994 -1.1761482302214346 -0.983121146767254 0.6120643666203147 0.3238139676032266 0.022459907549366838 0.2518499341392551 0.34003349021690144 0.5846511571024395 -0.36625936098946377 1.0969447885188663 0.845798940849103 1.136855572346501 -0.05399534810375281 1.6168547638554165 -1.2129353234265126 0.14172234882125498 0.04983889322099988 -1.9809885000737106 0.9557214375769689 0.34233870418810386 -0.9870166315703516 -1.4445926091587296 0.5143498016761853 -0.36150573266735575 -1.3978264912470333 -0.2887502836028436 0.28019451911724963 0.6039510388139915 -0.32517618337856613 -0.09595785018370688 1.143328998046631 -0.8153225342769749 0.3748184119011055 -0.4700207932886949 ]
[-1.7966566036075768 -0.3702184277794089 1.6280718475851466 0.8575411625457251 0.0759708781625583 -1.083335069951585 -0.28145254606046793 1.62149381945084 0.14277492361068223 -0.293041421979028 0.3411629049856931 -1.022978137323201 -0.21491127555937065 -1.9744990420055346 0.46874955976355975 -0.5806031605373196 -0.15011525378244875 0.0631363799921676 -0.41198740227810265 -0.8464596565582422 0.10893369080036203 0.48257164584757145 -0.7718939855375923 -1.0028059873058257 -0.18533362130254596 -1.270769706350735 0.42647244327657047 0.20041123208288716 -1.1527100471643044 -0.603162389940468 1.3431827666220129 -0.08234958419825976 -1.746462024596941 -0.9906458722124174 -0.8983916485176535 0.005040441753091695 0.0814695889098173 -0.7397116595638695 -0.8077890994946101 -0.8975634978644088 ]
[-0.2845499794395281 -0.08774102986899449 0.25654612173355423 -0.006229989864616837 -0.8890557028864204 0.42372812965704953 -1.2576209670021543 0.8046861889598427 0.5450667242519488 -0.7992340546363632 0.519846087025308 -0.40179685532464904 0.0846829202000735 -1.4008455278314254 0.26237493258734934 0.256645155870162 -0.35325171111601766 0.9430070392783542 -0.6159024018167398 0.10337555768501612 -0.5520358997286355 0.9650996968301107 0.23591690627142514 -0.6236122435743723 0.011640519151240453 -0.07713693572732525 0.8387093221615928 -1.00379418316842 1.0698142302843867 -2.283629729801978 -0.726745420712443 -0.9287148152510741 -1.8585931570063685 -1.4424841912889312 0.16994353361647316 -0.4661221205473351 1.2241002306397515 -1.2702081988082607 0.2419928956468835 -0.04459983059937866 ]
[0.29161884662601795 0.4611077027345759 -1.3047789850201998 1.718508244243344 -1.5745082030687234 1.2786717246815604 0.2666924083331175 1.345043749198827 -0.4592920058776402 0.2999860017259103 1.7231391714865885 -1.6387690217073179 -0.24606704412184077 -1.3381918557328984 0.9182229440305318 0.9956927899771253 -1.5755523434050258 2.6003590059539845 -0.7828882359204834 -1.3614749871950784 -2.2046087326095822 -1.4128414477164855 0.32120790868213345 -1.7734765833397905 -0.5130225798614286 1.7306024168125296 1.231266440306008 0.13293175802902474 1.1555641649659196 -1.676324596752711 0.5479468606787395 -0.047473892005449804 -1.4026836731473329 -0.18867096731099278 -0.08165172043993985 -0.29810468790256117 0.07040138322198827 -0.8882432920029542 -0.8042127280363796 1.2660319949301484 ]
[-1.876456714128788 1.841598737736921 -2.4008018284650796 0.8065304892637232 -0.26924885714300884 -0.04696457897003338 0.5560347308686902 0.5631410053210699 -2.0893679965924288 0.7547242953936596 1.1495766437589592 -0.7443938985148779 -0.9340846956275255 -0.41905875517545726 0.7660982608403067 0.9598996034889934 -0.8284442863454203 -0.22013541842500062 -0.2389148875719821 -0.6893200489456106 -0.24819238588423057 -3.3922778636097126 -0.9678840800119314 0.21893005863897255 0.8060082372415709 1.3513529626424867 -0.3637595414982817 0.5176681803243657 1.0920420758108482 -0.32973067877499485 1.189845343691488 -0.28100878707398336 1.0609999121205924 -0.20728911096215955 -1.1632652864831932 0.6026369463679622 -2.5549548872729106 0.4393444279912732 -1.0203479500373938 -0.08949172842734242 ]
[ 0.7020516464780389 0.672281467531234 -0.6928655828044005 1.29648961426127 -1.186292062600153 1.4348846990595459 0.44684092924925867 1.1777525227910854 -0.8451120860729634 0.1512988759125059 1.0207242513086205 -0.49130196157471956 -0.3729917771686994 -1.141352027310418 0.26922461224582156 1.036219387088649 -0.601285565559833 1.187331736315387 0.5186412311402535 -1.0138404249630903 -0.9660451234124433 -0.4039732331751087 0.38508646709099004 -0.6343580577210632 -0.7297628410447846 1.1245623317943771 0.19829152317443022 0.20404938884558566 0.998194431873222 -0.7636578078952236 1.0654512938194398 0.2137229880396146 -0.9037919533341432 -0.41459504499326844 0.1057239868230896 -0.28988664227981387 -0.5940892511581446 -0.07220839691093485 -0.17873954263937555 0.8384751760359892 ]
layer 3 Activation
tanh
layer 4 Dense
40 20
[0.7673201587484536 0.29083006701733377 0.8760103470769005 -0.16614141050376519 -0.32953388939570283 0.2250725153306358 0.9579524151499348 0.7544694084291318 0.004192248890918802 0.23000334859577293 0.5192314413870086 0.5109639336050588 -0.15319294472121475 -0.0651572762629547 -0.554800910282354 0.6369908735066376 0.45179068815071616 -0.28911741745665287 -0.1046912059866737 1.0162005695774121 ]
[0.4365237390644332 0.7437969218265168 0.38540668867447664 0.05195765958391999 -0.9796478695787612 0.14573779936705578 0.1823062252488044 0.5515465490462576 -0.9622253365876848 -0.11965772485730913 0.7009837860329289 0.8419169931982509 0.06820891818931533 1.1632801713822072 -1.4831567335788327 0.7622281636365553 0.5957516656392287 -0.009725622014447025 0.9903438177283991 0.7161861131111974 ]
[0.6222128835529329 0.23827500290647827 -0.2764924405061223 -0.07979947534435558 0.4867795902799587 0.44752987189560395 -0.025591974191244128 0.4906922953300716 0.04005624023481733 -0.5418901203458453 0.19922460761600128 -0.17959246310646385 0.02689749097860576 -0.7831240262105597 0.06126295916020514 -0.055840149063314484 -0.05981020312452734 -0.050141610918514316 -0.15098088195722642 0.2533250038700732 ]
[-0.19373332208262034 -0.11528617764438541 -0.9849031756296999 -0.1446699217869841 -1.4699890095977117 0.24557436522987697 -0.5912938453771551 -0.2518837421858575 -0.19780457538197627 1.3536166795927982 -0.8407556844491791 0.5745996916029037 0.46028312098602026 0.7845109274663574 -0.6123649309240115 0.3234758995865327 0.9378919289510241 1.0323160728884595 0.965265987540637 0.28481885349514074 ]
[0.709638892273442 0.91926962194107 1.5671896371532075 0.6135234815141009 0.8996227417625722 0.5815564514138347 0.9197571695227715 0.5073450302111727 0.8944571507703665 -0.5737692206659329 0.9873384328652484 0.3164756224301298 0.49847901854383414 -1.277281051569454 0.9870055324431964 -0.2789441067175694 -1.3516081886059477 -1.2140304919718663 0.23290217695658608 -0.7775371462890824 ]
[-0.13773850350092687 -0.24384729192711196 -0.16426121599765528 -0.43685831336670927 -0.875576606375932 0.8837557007766415 0.09046133508248416 0.4068239294216691 -1.3414712504867652 0.2561455329313895 0.19926042755680037 0.7398611436690002 0.7752877105055421 0.3979607922762467 -1.268943279409885 0.7717061512024972 0.73173609916315 0.6176608686999643 1.3460866806699605 1.1293554971626454 ]
[-0.7282599717921058 0.9782409817249816 1.6946548247675943 -0.16371572145428717 -0.017502881940528396 0.4779661021761088 1.699543089567993 0.20135862367519516 -0.7505207051900847 -0.9704867735820422 -0.4391918886212808 1.6656826458091563 -0.5366168721094892 -0.48707426600091336 -0.7410684891679097 0.2058958154310394 0.11375702202771817 -0.6807797751021626 -0.5530729410236749 0.1744561271188093 ]
[-0.8951676684776441 -1.0435850476290303 -0.6461865228634379 0.4204601603944704 -0.9924559993606029 -0.5159091529398478 -1.9521113728090145 -0.9520098966248561 -0.24522110615870515 0.6332340197734199 -0.8307449608692499 -0.973749258827157 0.031155233788456152 0.8441324751488605 -1.4126157208641115 0.9047391324754858 0.8672786833907045 0.4731311919698243 0.05915090949944571 0.7435031018310063 ]
[1.703837566145356 1.5647659764132547 1.6206454787148104 -0.2801041648666522 0.5568313642689029 0.6234260859393785 1.137057551462046 2.0474290768115146 0.4151437505653129 -1.793569193957191 2.594366968210008 1.207786446002919 0.4469181292522647 -1.026116337850432 1.1859710630262517 -0.573304037922092 -0.8528363966443155 -2.4258268341917275 -0.023751720660720458 -0.5098617261144919 ]
[1.1946640419266423 0.1658115110578194 0.21145766439830327 -0.15833921401430415 -0.8689626885772255 0.5997230817306564 0.2828427925025511 1.126977319117468 0.2713627479846583 -0.4913960584157641 0.7947102309806636 -0.3529024738799469 0.04627548813694698 0.4764942148010324 0.32588774292634876 -0.15481542003920842 -0.2957626954372295 -0.18006277179979213 -0.5527891278871783 0.4930631836691476 ]
[-0.38227971558370905 -0.0859578818855042 0.03292982623659758 -0.6246154155035697 -1.116527953111726 0.927516738906733 -0.17647198454762703 0.4807073037581294 -1.2656155344802082 0.3502985078778938 -0.37544472910506005 1.2733413856426157 1.3028952636666575 0.9675307686096881 -0.9013675765288935 0.8242724322620615 0.9788898638922412 0.04903692285355944 1.529893173008402 1.0833693976674672 ]
[0.5132857700124525 0.2856632432998317 0.48103689819917006 0.21893936542961168 1.9124211960205395 0.4338930575338095 1.031498432972787 0.45920267644349455 0.6038304539827143 -2.1206747669178627 1.1111942596074893 0.1518492202828323 0.20167323354253558 -0.17797856592496902 1.3755344036180366 -0.21996526644039097 -0.4992825862897294 -1.4375229832451657 -0.21549963799033203 0.006393763186068832 ]
[1.5033252033422535 -1.3178646421836335 -1.5564110943323217 -0.07027400773907344 -0.06907875122409515 0.18058884576258724 -1.5211901688602822 -0.1129440287304378 1.0037999546351968 0.8408063500539055 0.9202060849828896 0.8179907629945066 -0.2297227628416601 0.9087840064151005 0.7565567054318187 -0.7845453239633889 -0.7841682203940262 0.9993143132740763 -0.2603973771581288 -0.7604311835564298 ]
[-0.21485941135890702 -0.309543987667343 -0.18580444288664677 0.002703806333417864 0.5752705153358758 -0.4960533311117731 0.4844344392065132 -0.9005381838281298 0.07426952642070438 -0.027266215301156933 -0.3088423892953758 0.7178922051116032 -0.5051932491315047 0.15734692109137458 0.31669671039993813 -0.7437169654469178 -0.8861019747643211 -0.12565508576047116 0.3545579704449449 -0.3478488606445403 ]
[0.8924414738532904 -0.4377002654042161 -0.46716948873341385 -0.1963648735949201 -0.04327060972929267 0.7456776337855049 -0.4415045323163145 0.6286058103740709 0.7047047149688813 1.1414726497237861 0.8901301187573173 0.9563015622477739 -0.28831068623223105 1.1965275675771194 0.13921006105630965 -0.6741767972058839 -0.19092847192354015 0.3100715201247674 -0.640519010682488 0.07691750232019404 ]
[-1.0242099372471616 -1.139495930250035 -0.7327983263151949 -0.1940736979147119 -0.37470561668345914 -0.49186679360182956 -0.9320035325027236 -0.5650358640096034 -0.5307586307767321 1.2425629306688484 -0.7148547003022889 -0.31870114105877223 -0.18523311541554255 1.6800053969622744 -0.4170227222180568 1.1121760863309218 0.7467958531605549 0.7592292286270915 -0.23831805901848377 0.9109812783005325 ]
[1.296671049926061 0.5949083908152213 0.5976475826361202 -0.20247033179508356 0.6759446299893981 0.41909096435317467 0.730689138082011 0.35865637557225905 0.19563732294021755 -1.5718323976874515 0.7807562797320006 -0.3484213571119311 -0.10369477432424375 -0.29373048511627264 0.6465385761243545 0.007258524639764192 -0.43281368897830214 -1.4802330783811544 -0.09715337177768262 -0.5303380296911625 ]
[-0.292379142122896 -0.9478615592306621 -1.6367510756881152 0.4045250366849501 -1.0371862395603906 -0.8985534588416926 -1.1622709515098768 -0.6694645388992898 -0.8235112531982977 0.537966228556571 -0.8029872795144835 -0.49918665941672435 -1.0029300774684273 0.5920696798395627 -0.5974527050400925 0.2619093056815099 0.3353173707553912 1.0843152651244952 0.2628434945353428 0.5083980079434164 ]
[-0.025438769077372837 0.2563645656980083 0.6821172360150388 0.1719561599058876 -0.25405300066784436 -0.08765623725903238 1.5642616634902955 -0.2746778038124499 -0.49669931830453395 -2.1487071401783067 0.35563013443320607 -0.7478889069488142 0.34110513418151145 -0.5296792071212219 0.24413105855764491 1.1099899495952577 0.7289483621113553 -0.7728962295323557 0.8909378327202239 -0.029223227608516842 ]
[0.6650560691100063 1.5227290875911914 1.0367431102243683 -0.1461114741356594 0.9887486967264736 0.15473714300949812 1.7184775502049814 0.8660355904018476 0.8984604817786789 -0.7874162592727899 0.6299771342161337 0.19013756750668936 0.3388892605597311 -0.8978828292098886 1.3856746537723856 -1.1100407846493674 -0.9728492057517142 -0.8758332390380773 -0.1177528476632392 -0.8123981916818073 ]
[0.16118756268930892 0.7144366219224039 1.193411836279114 -0.4509446723370655 0.6072128757879536 0.9956117193159395 0.7659548080850684 0.7277143870100303 0.7671789115881703 -0.6495864667430851 0.9358022175847671 0.11809852727259333 0.9347195905325177 -1.781496263368739 0.45182402149227535 0.24581847393206224 0.5417725627213614 -0.6434607991511585 0.1709082384994337 -0.3610917487899894 ]
[1.5139783407726652 0.47682020901052113 -0.6005259325611156 -0.22374543608871314 0.6057163031500252 -0.020466902577956574 0.18692276590178042 0.7602217424168156 0.30965142245232274 -0.4930166857693057 1.248596594238288 -0.05760632188001739 -0.1451128180873058 -0.7429238875815327 0.46561032084139864 -0.34980738500005054 -0.28019537110254633 -0.4712129292514694 0.08517302939760528 -0.052568962265605715 ]
[1.3347943813677088 0.4553729383197951 -0.6703490271470479 -0.25917247226334744 -0.1057968915421401 0.5900221322439747 0.21894559441512396 0.7188650778419485 -0.13744626439085642 -0.4907914458797216 0.40012135562237056 1.3596375250511783 -0.5407104799990495 1.0882757129916512 -0.19064795011137836 -0.3448443927600603 -0.18224278844659858 -0.6129718189191437 -0.6145132902688455 0.40528867529312196 ]
[1.3945966200542879 0.11763650514914445 0.7345471881517234 -0.3621532849254559 0.1752500301614744 0.49693422949442373 0.47069417368207384 1.1479385540421132 0.23848391009614364 -0.5246375634929236 0.16572278296139903 0.39797650468580975 -0.3092065432505901 -0.6178353583330162 -0.20500145425238253 -0.0812058706185275 0.14389320123758945 0.26510289041695406 -0.18017272446962831 0.3130681025706732 ]
[-1.514630339260146 -1.2595769573753723 -0.774585859159477 0.25184807527351266 0.4248275825415619 -0.2839617197462419 -0.19943331271028736 -1.4849901274051485 1.0269805557432166 0.7395072207869143 -1.3641104504994006 1.100165643102627 -0.5888364961873868 0.1053923825554338 0.9822773467895547 -0.6177951813400322 -0.8308325479028837 1.6220425781447942 -0.06923648434779692 -0.686136785210942 ]
[-0.5497494317153956 -0.629296745748349 0.13273653185325698 0.42993403003997993 -0.8381438625566974 -0.5426487024680543 -0.48363422265894485 -0.6568367651806911 -0.2554834218516284 1.0333546397472122 -1.0843399961314828 0.41551250749776897 -0.1682553270319922 0.6611485065996252 -0.574738283396581 1.0838522466524887 0.665298922423043 0.48729132459458957 0.018964943303326112 0.8001726926603082 ]
[-0.02210650107097358 -1.2853641861955316 -1.1109673651915333 0.22644115076900675 0.45666869395399673 0.005308338246662713 -1.6792683939778594 -0.12590159751013152 0.1825742068153328 1.4829822218780904 -0.15070220758136302 -0.11862500772482891 0.22487417859013248 0.3676129487434953 -0.8758066793045933 -0.8061495595955047 -0.010670752032754714 1.4419143872192237 0.004105745697116978 0.8187530435295367 ]
[-1.2233728960273185 -1.1285950382863081 -0.5230942108352513 0.20376646956793648 0.6186808404783716 -1.982058149476459 -0.2935624262193946 -0.4925404654312807 -0.9772242182203849 1.2007637419205064 -0.9495684824573836 -0.9005133008600033 0.2185496566234355 -0.4621053061141003 -0.7872798079776531 -0.011941614122405545 0.24330806652992748 0.5512648231770916 1.8397298986972777 -0.23606042564093396 ]
[-0.35579861172811517 -1.0275567800467063 -0.8674842872507683 -0.22934947952676707 -0.7487230521512958 -0.4248766631455228 -0.7346936737967366 -0.6595666559791938 -0.032802317546255524 1.548543689143652 -0.9820440024854933 -0.4142002260468019 -0.2893459787975359 2.1175849919506575 -0.42529057590477276 0.9407151978063366 0.03785569833277001 0.616638534035339 0.27279991535839493 0.5923768438525027 ]
[-0.08013110627681491 0.6270177898473173 1.1267824126381585 0.15969538131157376 0.492043893329825 0.1409387102726806 1.427870164972853 0.1958689378083524 0.5848573216202476 -0.7092212918107844 0.5418051735780114 0.16460270900662757 0.07349671401480853 -0.6338812444786421 0.3531033422773661 -0.5178299846677247 -0.6606723311639514 -0.4824248642711899 -0.06657394029072482 -0.6887463964213664 ]
[-1.4833402290617015 -1.5224814093418342 -1.4283574001105332 0.2917245167728241 -1.035870878257311 -0.5368675749681362 -1.3046050599840617 -0.9698028562090594 -0.6131119854303831 0.7948418176793293 -1.6778295393902662 -0.487276112112639 0.04300125025033099 0.6807553016617143 -0.9694591546208727 0.7357822452723178 0.9153862565194522 0.9609075377607269 -0.05936010284785883 0.9817136507289675 ]
[0.6507436472983968 -0.05428311292250182 -0.2739443367070302 0.2725006761911525 0.05248095114524391 0.4238125575440088 -0.34812733096623816 -0.45972645984291727 1.0282062651087944 0.5106885245411623 0.04747494629927084 0.3919205980073007 -0.08435455164675394 0.4841045812212717 0.23348006017964043 0.29298671301983553 0.5169534166302685 -0.4178928544636131 -0.4398123803516522 0.12245451940221729 ]
[0.5418330960479649 0.5569114646436522 0.9773874282777879 -0.07711159332379312 1.385057885131632 0.46752060917394417 1.7328622949729153 1.0442246333280736 0.36068541805790205 -0.2992344005039949 0.16362910244925766 0.2897368195493396 -0.061613298966472864 -0.24022449775197602 1.1239307060292851 -0.2046676233579055 -0.8419884005301923 -0.3448734524021421 -0.3637341436402424 -0.2890400127166547 ]
[-0.9940992547547501 -0.812227301310703 -0.6907994617021547 0.16140820540016396 0.6291153355476429 -0.48321181837081906 -0.3529114298624264 -1.2500153449180962 1.071082283670518 0.2292314455979517 -0.6384350968930328 -0.13092623860073258 0.0649106062207333 -0.4284977453057129 0.9630482367212582 -1.1574716274608103 -0.8482600203957386 0.6289878052298415 0.3680343661041039 -1.0936312570955153 ]
[-0.260490187555946 0.3946695371495864 0.5388783161077932 -0.046190323426305885 0.08226265080940197 -0.08298034648042565 0.6353324416811077 -0.5250253723729693 0.16642134166383304 -1.2376367168483386 -0.011614679790001642 0.5656127470828487 -0.09425812616910416 0.46041359961356937 0.509844263913932 0.5624691233874797 0.12235321537413771 -0.45844799209858916 0.05228116877361471 -0.562824742077202 ]
[-0.5851663931821924 -0.24287361882496966 0.5354881285828371 0.3560526223311354 0.7041908356467632 -0.12078830120098637 -0.008170142036203802 -0.19909258245941755 -0.6491365410193956 -0.3184989142657067 0.14981633936085004 0.09088020452560773 0.05274623191355329 -0.4647346672846029 0.13960845265321023 -0.2999139528637625 -0.08747632486936932 -0.4054157004530964 -0.16682905564006742 -0.15789759639117878 ]
[1.144732825530889 1.1185271022343048 0.5983043044671905 0.051570101278766496 -0.8094175942391733 0.5410712182103689 0.32169996448219607 0.2797711089064762 0.43381490020042274 -0.8355727470418359 1.298585316740847 -0.26506696922825446 0.5361713226641485 0.500502408447005 0.6044548149523054 -0.7867006716501025 -0.22940631002984255 -1.2961204741858023 1.0047981288681813 -0.33140487603238583 ]
[-0.6041797000334318 -0.24341538131189483 0.7476300470771631 -1.2920862115622722 0.49805264605906546 0.7965228013447779 0.6538471265070704 -0.18927788196835504 -0.4705717338287974 -0.2676109972851154 -0.5284103034960407 2.596173236672316 -1.5448626088986548 -0.8665746343551443 -0.032287027292594674 0.4888218899022406 0.778345344078934 0.26785552838531074 -1.2034248811254444 0.378625556383002 ]
[1.0965336613863614 0.4237160541764658 0.9709879367199525 0.03661960281141533 0.4339020836078453 0.13321180995467102 -0.0731266858689372 0.4779027287263171 -0.7020014281745006 -1.0686385383850654 1.4271782932484134 0.5133472889746663 -0.16549523861377874 -0.3812447194727275 0.1280116163029259 0.7922531498468708 -0.2122032930281343 -1.2729187832833073 -0.16537615756758536 0.9028418220755131 ]
[0.055204556953516996 0.2663084709393258 0.29371880439480136 -0.3620873047900822 -0.4149006792923112 0.17416891324102962 0.06096911997835271 0.616743981590503 -0.6971725879398439 -1.136050032420593 0.4098780603959934 0.7590036307159331 -0.3485608981931807 -0.8646844230695099 -1.440284742865732 0.46602680907886546 0.2565786620079177 0.16126032325260034 -0.1248528653505603 0.3104584027617441 ]
[ -0.08196740808362747 0.02790666050837428 -0.09154674765611259 -0.451781885898434 -0.9024834248868303 0.9359622678709589 -0.2645420664596874 0.13373208814239806 -0.9933918540803363 0.4078696132693276 -0.12486503787085299 1.0949920937877342 1.0608382077876222 0.7482792790825032 -1.044529284449082 1.1120036320911628 1.1663184413774332 0.19381565779044582 1.5213282410201678 1.003685664512223 ]
layer 5 Activation
tanh
layer 6 Dense
20 1
[1.7372241938116397 ]
[3.001168129038818 ]
[2.4522143728410226 ]
[-1.9213808053974473 ]
[-2.9104986567690987 ]
[1.968657035905364 ]
[2.4310378389443956 ]
[3.371518543507705 ]
[-3.4965028510197813 ]
[-1.8552646239775872 ]
[3.668718792890337 ]
[0.9811475872653322 ]
[2.78997514968238 ]
[-1.6042260817354057 ]
[-3.186309600514569 ]
[3.1331032097918534 ]
[3.4551068979869037 ]
[-2.5949880695893506 ]
[2.0149322954020454 ]
[3.1722227486127674 ]
[ 3.2536892585773987 ]
