layers 7
layer 0 Dense
20 20
[-0.07885372 0.2250372 -0.28840077 0.076610364 -0.23669177 0.16922653 -0.26241663 0.0756469 -0.005417418 0.37067476 -0.2278201 0.44158146 -0.19628425 -0.12794682 0.3746564 -0.002361429 -0.18292141 0.16755249 -0.0738846 0.31514743 ]
[0.25865775 0.19478753 -0.093192145 -0.124092475 0.10306056 0.41480768 -0.13745594 -0.3589038 -0.18365434 -0.07767131 -0.18383448 0.4173975 0.11540061 0.22338562 0.3325732 0.13320394 0.44366387 -0.08489058 -0.19230719 -0.50275093 ]
[-0.040467296 0.48012143 0.365977 -0.108915314 -0.03661288 0.24674954 0.18106417 -0.38400483 0.43024096 0.40556434 0.35963002 0.065543145 0.035329472 -0.090552084 -0.16609001 0.30531397 -0.17029403 -0.008445372 0.16059722 -0.28266388 ]
[0.38541257 -0.3582087 0.2512455 0.09453869 -0.010785604 -0.21581806 0.2000965 0.17502813 0.099390164 -0.16367641 0.23291562 0.44428295 0.35802153 -0.2781467 -0.18102889 0.4165481 0.12560584 -0.21467304 -0.22433747 -0.34345847 ]
[0.3905275 -0.18458226 -0.21391602 0.1291653 0.11373334 -0.13081335 0.36786345 0.27916598 0.1741216 -0.07828747 -0.11202879 0.01536182 0.2704939 -0.37930825 0.09483115 -0.123593695 0.11151589 -0.13335942 0.10297326 0.0716611 ]
[0.2322019 0.20874076 -0.54314554 0.12873606 -0.066789575 -0.22112052 0.24235284 0.08201534 -0.2097875 -0.21332617 -0.31162742 0.0019803334 0.2241587 0.19189155 -0.1090992 0.16245571 -0.11431666 0.00240035 -0.38140008 -0.09546268 ]
[0.2360619 -0.16504128 -0.27393818 0.46031645 0.038459938 0.12004009 -0.40561503 0.25493774 -0.022418844 0.097757764 0.1067014 -0.2474627 -0.12869984 -0.31886157 0.2680063 0.033099387 -0.23033161 0.12186531 0.19267572 0.21343009 ]
[0.048430774 0.27747643 -0.059243973 0.13492359 -0.16245365 -0.42139137 -0.2259184 -0.33217403 0.12966369 0.10751607 0.08450479 0.16291328 0.32879716 0.11010119 0.10188231 -0.07777223 0.15587111 0.14219318 0.010693871 0.22524448 ]
[-0.36166987 -0.27145112 0.32050988 0.08451706 -0.20922936 -0.2010901 0.04823056 0.10724216 0.3005473 -0.12485705 -0.13343485 -0.35534447 -0.1543965 0.017314918 -0.2060009 -0.19130535 0.58788115 0.027110135 -0.14103173 -0.12485918 ]
[-0.29329062 0.08593049 0.12140146 0.04955255 0.36060435 0.48812053 0.011640456 -0.21100554 -0.28789794 -0.32535034 0.059435718 -0.45119235 -0.2790538 0.06503305 0.26820076 -0.18289484 0.660411 -0.012907325 0.24664496 -0.31238595 ]
[-0.11833672 0.4739976 -0.03458532 -0.06319509 -0.2824059 0.08963899 0.40341938 -0.45739114 0.65165496 0.5962708 0.09079583 -0.6534128 0.40964898 0.4097475 -0.49451038 -0.92683953 -0.050530575 0.59542906 -0.6574119 0.18061903 ]
[-0.27408448 0.56861997 -0.02342642 -0.10735496 -0.038992714 0.24327107 0.42588714 -0.21719973 0.15032615 0.1888777 0.025441268 0.14729895 -0.4366944 -0.36946508 0.01424327 -0.13914761 -0.29177368 0.17912473 0.2508746 -0.40900576 ]
[0.19249274 -0.037407182 0.27733627 -0.15484776 0.056421366 0.0030679328 -0.09509271 0.06653938 -0.0926053 0.078487195 -0.15299362 -0.40878305 0.27448097 0.13879435 0.019019196 -0.17107245 0.05966042 0.11243349 -0.01677737 0.21850488 ]
[-0.20747614 0.28488222 -0.2800709 0.51399106 -0.43646166 0.7094838 0.14421476 -0.42949048 -0.16055173 -0.19470982 -0.19483675 -0.024241233 0.055837274 -0.10311363 -0.55534595 0.09858059 0.311016 0.09820246 -0.12100214 -0.2559168 ]
[0.5924017 -0.46217367 0.5356908 -0.93095 -0.48991916 0.19591218 -0.9150432 -0.611166 0.3742903 0.663256 0.05813341 -0.2830101 0.35154587 0.14864379 -0.1395408 0.5508308 0.011000421 0.40583244 -0.078201056 -0.26644424 ]
[0.03575411 -0.266747 -0.15382941 -0.63317895 -0.10835393 0.22368017 0.06491472 -0.12735584 0.23170656 0.23231398 0.22578095 0.1490772 -0.19564618 -0.093187764 -0.10641142 0.38674158 0.12683883 -0.0056430227 -0.002449876 -0.5800664 ]
[-0.028542604 0.26529697 -0.031068837 -0.33581665 0.34350938 0.26941207 0.035910517 0.0976321 0.09912897 0.2361094 0.49531507 0.17307661 -0.32648984 0.06537778 -0.09171575 0.14903638 -0.37131795 -0.102783166 -0.07165415 -0.19198726 ]
[0.60155064 -0.55782765 0.33699757 -0.07370361 0.45078626 -1.1126734 0.21411315 0.0769135 0.13960408 0.21003158 0.6500014 0.25589183 0.70756614 -0.099979125 -0.16384421 -0.009239633 -0.9287737 0.5499992 0.2859517 1.1480541 ]
[-0.19735092 0.3759989 -0.53302544 -0.084066585 0.79373616 -0.4571789 0.98853517 0.7671718 -0.92652893 -0.74557835 -0.25321993 0.59019613 -0.40013728 -0.002755804 0.050280225 0.36568502 -0.33576432 -0.79348713 0.38974062 0.16977224 ]
[-0.016699351 -0.6221455 0.2569951 0.1461315 -0.24597931 -0.16918269 0.1498768 -0.02643872 -0.554225 -0.41358387 -0.2745651 -0.3050489 0.001087799 0.24569745 -0.46638823 -0.43598676 0.4002755 -0.49948525 -0.4478539 0.067461915 ]
[ 0.038778532 -0.012345992 -0.009203873 -0.09225417 -0.03583775 0.10613068 -0.11208865 0.07998107 0.092994355 0.053305443 -0.09348041 0.06454968 0.002295934 -0.33640832 0.027881052 0.0620059 0.15896986 -0.024156347 -0.033459265 -0.082982905 ]
layer 1 Activation
tanh
layer 2 Dense
20 40
[0.43434477 -0.2391792 0.10966356 -0.09550967 -0.046296664 -0.09461794 0.19189638 -0.018889649 0.020983575 -0.07940755 -0.09812227 -0.22514422 0.0976548 -0.04912688 -0.19676946 -0.04769754 0.009540488 0.2483534 -0.088795274 0.0688528 -0.14046991 -0.25628743 -0.50423354 0.24163415 0.0698124 -0.03337568 -0.02393144 -0.011432903 -0.0034578247 0.08210901 0.118327975 0.21162097 0.25676355 0.33398995 0.15564144 -0.17970397 0.26098356 0.33047777 0.22811036 -0.16065642 ]
[0.09902916 -0.28042102 -0.30118594 0.46335125 0.029449983 0.22860041 -0.17691424 -0.16516715 -0.10648594 -0.049624275 -0.38922456 -0.2922525 -0.18859057 -0.19047183 0.6091844 -0.09309469 -0.018750565 -0.10734597 0.22541441 -0.7513631 -0.3430896 -0.07640932 0.41542742 -0.009273585 0.32944992 -0.07438525 0.40211806 -0.34825245 -0.33526596 0.024959004 0.19869636 -0.26975808 0.4374861 -0.31104356 -0.21706992 0.482369 -0.37408394 -0.29430366 -0.035319105 0.44077855 ]
[0.1038799 -0.313841 0.28346154 -0.20186168 0.023512896 -0.31215957 0.2962868 0.009309529 -0.19751303 -0.3282001 -0.15589534 0.030950908 0.36585927 0.44834995 -0.40236154 0.25332958 -0.32669985 -0.13226536 -0.06521329 0.42051065 0.3702295 -0.2476634 -0.06344632 -0.0133956075 -0.30672964 -0.35895896 -0.13504405 -0.101228744 0.07664325 -0.09590227 0.13668378 0.30544773 -0.21530403 0.34412763 0.14306135 -0.2208927 0.121565394 0.31554288 0.2010635 0.10704823 ]
[-0.13763742 -0.052625623 -0.23920149 -0.049041845 0.31829226 -0.277948 -0.38015425 -0.032972485 0.12665083 0.23025183 -0.23215415 0.18819906 0.15945159 0.06737875 -0.06297234 0.043235563 -0.24561484 -0.10503225 0.18271239 0.054086532 0.269019 0.3702119 0.24533027 -0.13024318 -0.11217616 0.031615604 0.21732059 -0.39887914 -0.1696265 -0.10415158 0.18164384 0.315059 0.14367655 0.04759087 -0.11073915 0.1519755 -0.2669611 -0.34985995 0.11654335 0.04136647 ]
[0.0059028175 0.06697081 0.24553148 -0.2658802 -0.0035173616 -0.15199474 0.20517954 -0.013843079 0.12597436 -0.2229642 -0.036566712 -0.20758864 -0.37642705 -0.5083575 0.4287198 -0.01055764 0.028743215 -0.016415717 0.34643534 -0.08786119 0.2185052 -0.033885855 -0.2758253 0.5275802 0.2609187 0.16407852 0.39916456 -0.16319695 -0.0062303976 -0.048549272 0.06332073 -0.15598169 0.09558529 -0.20149341 0.06515745 0.28380352 0.13179381 -0.06193444 0.084378436 0.06517296 ]
[0.14407565 -0.0268233 -0.4901622 -0.36759317 -0.37493917 0.5315059 0.4490993 -0.39141336 -0.24707575 -0.18061708 -0.35994464 -0.14921407 -0.5585326 0.34119534 -0.028022112 -0.07509208 -0.07460083 0.010057513 -0.067519285 -0.36127618 0.13051718 -0.0040568747 -0.2248751 -0.0800486 0.3588017 -0.059254512 -0.09915883 -0.09369909 -0.4143325 0.30478966 0.8773139 -0.101826094 0.42174795 -0.62381065 -0.48739526 0.90724075 -0.48497766 -0.163449 -0.74414307 0.2024281 ]
[-0.030816207 -0.11802107 -0.29482254 -0.1314432 -0.043336373 0.03702877 -0.3610993 -0.24393164 -0.106494814 0.16247481 -0.013923641 -0.32055023 -0.032035433 -0.43781465 0.3850588 -0.35549736 0.14600591 -0.051367786 -0.037653252 -0.36232364 0.10474434 0.001326325 -0.04154979 0.22844042 0.25906006 0.12840238 -0.062016133 -0.13563569 0.09742257 0.27165583 -0.22551474 0.14931579 -0.116447866 0.088532895 0.011928125 0.13238338 0.15000565 0.0131022725 -0.09221219 0.22603002 ]
[-0.2988453 0.29071587 0.057998117 -0.07590045 -0.062016975 -0.13551345 -0.3982786 0.33913687 0.016401164 0.033318203 0.37293088 0.52532184 -0.07549266 -0.31754687 0.1465596 -0.19076346 -0.06805288 -0.28718436 0.15936117 0.34831595 0.11379449 0.06523798 -0.117657825 0.5511932 0.048928816 0.023003882 0.3229377 -0.070300296 0.2574231 0.014020107 -0.40104094 0.26958066 -0.28073663 -0.27906826 -0.15649296 0.07915041 0.3710597 -0.18439865 0.232291 0.11286856 ]
[0.2315752 -0.18613078 -0.14390871 0.37843302 -0.45364976 -0.5174038 0.4832097 -0.42508915 -0.101912506 -0.034105673 -0.0462986 -0.32915574 0.3791033 0.3178643 -0.120875515 -0.18342848 0.13994485 0.21901985 -0.27047437 -0.19607727 0.02446514 -0.65943617 0.45654678 -0.22487615 0.21804643 0.026010277 0.16925327 0.31148604 -0.15704569 0.033746336 0.29102153 -0.21115847 -0.19802724 0.56279427 0.45404217 0.049409784 0.21362044 -0.28023452 0.13774487 0.1923908 ]
[0.4676164 -0.18207142 -0.0547703 0.3075347 -0.18464693 -0.3498018 0.20362447 -0.42510727 -0.23932314 -0.3153289 0.01457547 0.456543 0.41275683 0.40176094 -0.007841951 -0.047193523 -0.20352215 0.13560125 0.040345408 0.084656656 0.19441184 -0.4894621 -0.15117241 -0.08836427 0.29569903 -0.19350573 0.29862317 0.050968535 -0.17946082 0.011575646 -0.101631336 -0.21148334 0.11681455 0.16356072 0.5999986 0.07119377 0.28839687 0.29566294 0.0434931 -0.03899763 ]
[0.35296574 0.09789796 0.0103767505 -0.05471499 -0.24764591 -0.026578289 0.016697802 -0.36946255 -0.13462552 -0.36122653 -0.24908046 0.22789238 -0.1285271 -0.3383006 -0.1081699 0.15001072 -0.112735756 -0.0841643 0.018633647 -0.031725947 0.30603966 -0.34968576 0.031857505 0.016967952 0.34667844 0.14178418 0.25770774 0.29831946 -0.0947286 -0.3129282 0.34185392 -0.15575896 -0.0050268085 -0.18855369 -0.19570875 -0.059796 -0.018942138 0.2503294 -0.043449786 -0.008439714 ]
[-0.20763448 -0.19484916 -0.29491854 -0.48694938 0.0633345 0.47152966 0.24444996 0.2670202 0.2602958 0.18315576 0.40249652 -0.43008384 0.04491814 -0.51736546 0.5154394 0.021257596 0.24621855 -0.18404076 0.1639199 -0.13267958 -0.20015772 0.16217376 -0.45238307 0.10270246 0.0117366025 0.16789265 -0.1979046 0.3421182 -0.27866152 0.29013178 0.047484245 0.18522647 0.11136634 0.05592485 -0.06649642 -0.2043186 0.29997614 0.3857306 0.05795961 -0.27210468 ]
[-0.10745357 -0.24307269 -0.021040995 0.25306985 0.05990682 -0.37682068 0.1939967 -0.16915499 -0.119575806 -0.22336984 0.24389473 0.35033852 0.30369565 0.28529602 -0.12138109 0.2842303 -0.19777815 -0.10202969 -0.20033185 -0.0010631769 0.3843674 -0.43552023 0.16744836 0.16755171 0.27407995 -0.35930467 -0.18847643 -0.13294336 0.12786172 -0.13705537 -0.13806422 0.20676562 0.11405929 0.31208143 0.35186374 -0.31401017 0.03405531 -0.044539616 0.31018478 -0.14483117 ]
[-0.1085694 0.27073583 -0.113971956 0.0031798678 -0.005557633 -0.06781196 0.00547075 0.0033272617 0.09196201 0.04914025 0.042526435 -0.06574134 -0.11635117 0.1021942 -0.24009226 -0.05005263 0.04179723 -0.22313873 0.028673405 0.06453003 0.23787066 0.019659095 0.54170996 0.14186229 0.098198116 0.067268714 -0.002298199 -0.21199256 -0.040407103 -0.12115343 -0.070562236 -0.2789851 0.21247868 -0.00825982 0.23621146 -0.011978475 0.09870443 0.27810106 -0.11931306 0.27265984 ]
[-0.016488109 -0.44616655 0.27148244 0.036559675 0.39132 0.23333398 -0.020975184 -0.2827159 0.17162156 -0.2098491 0.047482803 -0.45130256 -0.21290922 -0.27172953 0.10107006 0.09051099 -0.1270984 0.36586744 0.35070106 -0.42050272 0.013748626 -0.010128429 -0.33692977 -0.07465889 -0.20577824 0.31910196 0.174007 -0.21226779 0.0027012466 -0.1853899 0.14641233 -0.17839094 -0.04379964 0.1345608 -0.2823253 0.0056289313 0.22759935 0.1507837 -0.16605729 0.2314182 ]
[0.108915426 0.030075204 -0.035389036 -0.7700098 0.2546363 -0.054981627 0.5086572 0.21241266 -0.123434454 -0.1836558 0.30134687 -0.39438292 0.004652692 -0.4195805 -0.15300389 0.1840451 0.04047906 0.4959499 0.3561116 0.31206593 -0.55876756 0.21431383 -0.5688441 -0.32954085 -0.2743295 0.37366453 -0.048410498 0.40066883 -0.039714746 -0.14917429 0.005402101 -0.030237433 0.095460676 -0.13600887 -0.45906803 0.1568184 -0.0560229 0.5175229 -0.3169301 -0.014783084 ]
[-0.35475665 -0.027727334 0.43009228 -0.09760392 0.40180528 -0.14848925 -0.38517272 0.25886595 -0.24828857 -0.002036739 0.15113068 0.07306352 0.016038947 0.6132194 -0.59800315 0.2649851 -0.25449955 -0.46150175 -0.1746126 0.017133038 0.26817784 0.39015666 0.13570783 -0.47630253 -0.27727866 -0.1940135 0.088720016 -0.1746749 0.25564006 -0.011371489 0.25226304 -0.032991897 0.24809386 -0.19810824 -0.1946834 0.384008 -0.16251566 -0.41768652 -0.14488545 -0.17423753 ]
[0.45868036 -0.42933044 -0.025906933 0.19456932 -0.36722863 -0.46070498 0.2522692 -0.5665089 0.17484392 0.028897192 -0.1378524 0.2440882 -0.08877939 0.15190016 -0.22454779 0.01643974 -0.13237238 0.33044422 -0.15637603 -0.16188714 0.1493009 -0.52749443 0.054506432 0.17823645 0.08112846 0.12479299 0.5990803 -0.033873066 -0.19955583 -0.14380349 0.2761311 -0.28742528 0.035340153 0.2748836 -0.030152738 -0.10521457 0.45113054 -0.10823367 0.009403363 -0.13331826 ]
[-0.13427629 0.11864876 0.09235839 0.0924486 0.22538626 -0.31500643 0.2238939 -0.07683528 0.16260497 -0.061173618 0.28771663 0.08758638 -0.18178602 -0.25223804 0.56323874 -0.111699685 -0.15247133 0.2885492 0.003903277 0.08313654 -0.06253598 0.2009275 -0.60050005 0.19132558 0.20187561 0.52335364 0.067750216 0.100592755 -0.003660259 0.10516484 -0.07998242 -0.20659357 -0.07076918 -0.23282777 -0.30315492 0.21599378 0.29367062 -0.019950442 0.27069184 0.036033675 ]
[-0.2654621 -0.08097129 0.16922118 0.17731054 -0.010306012 -0.32310444 -0.28698543 0.08784317 0.12971239 -0.025280176 0.07802878 0.2147469 0.5063108 -0.4365328 -0.02922824 -0.13358857 0.15026121 0.026443597 0.04666623 0.41399378 0.12738205 -0.3398329 0.54735506 -0.16085477 0.020806711 -0.19489369 -0.014432874 -0.07852748 0.009334568 -0.35743433 -0.4307788 0.4228392 0.050076786 0.3547923 0.33316582 -0.42089158 0.0042620255 -0.21294856 0.48157692 -0.3401245 ]
[ 0.03477128 -0.096634634 0.10594502 0.042077985 0.07209343 -0.0914429 0.0068083615 0.029320767 0.029708685 0.0130919395 -0.058471724 -0.103890985 -0.10939556 0.07424912 0.025789415 0.0079603335 -0.00816187 0.1915246 -0.04390459 -0.13517919 -0.0068661356 0.13468637 -0.29503882 0.03584565 -0.08712069 0.0691011 -0.03520922 0.058765966 -0.055745505 0.00038568128 -0.036914766 0.057955164 0.04046846 0.04892351 -0.06382056 -0.00048114554 -0.13594419 -0.015662445 -0.08917321 -0.024276111 ]
layer 3 Activation
tanh
layer 4 Dense
40 20
[-0.012920024 -0.07741338 -0.00012956595 -0.26744673 -0.15227556 0.08543361 -0.15743825 0.25804755 0.36319473 -0.07280876 -0.14918943 0.2491917 0.41109264 -0.0071241893 -0.30327043 0.005634967 -0.42465708 -0.020581592 -0.39113054 0.30866784 ]
[-0.15672375 -0.0073673557 -0.15863249 -0.21954463 -0.0053071994 -0.0052848416 -0.057619072 -0.083482765 0.061360218 -0.14192852 0.041435722 -0.43338054 -0.03297824 -0.19245204 0.23573358 0.10502013 0.051540956 0.08286882 0.10391307 -0.19870651 ]
[0.100199685 -0.33033115 -0.50765115 0.37237415 -0.21316522 0.23035882 0.09328571 0.20044073 0.09517598 0.41473177 0.3536541 0.18982925 -0.18178749 -0.14107752 -0.14016488 0.0476949 0.06531841 1.0103278e-05 0.1750171 -0.023482021 ]
[0.23741363 -0.24426147 0.13778356 0.15747312 -0.18372338 -0.20956245 -0.32646224 0.12149032 -0.0598097 0.31781462 -0.33465517 -0.25120917 0.020697266 -0.20166682 0.54604787 -0.07362561 -0.0077741053 0.27082524 0.070578545 -0.438722 ]
[-0.08874264 -0.10324785 -0.260637 -0.13966632 -0.525089 0.24512324 -0.23708749 -0.07962781 -0.09566473 -0.09786393 0.51891285 0.33166474 -0.18994881 -0.2676038 0.03400988 0.3760307 -0.043527156 -0.32424602 0.062373463 -0.24803774 ]
[0.25476208 0.3683793 0.325705 -0.6331803 -0.20960696 0.12321932 0.051834278 -0.15861338 0.17808 -0.398536 -0.0009424239 -0.085505135 -0.25290245 0.09551242 -0.24735042 -0.31230158 0.34450164 -0.17992641 0.23871496 -0.08989045 ]
[0.18422621 0.15956354 -0.15182583 -0.45402023 0.43554464 -0.2014961 -0.20282926 -0.25840047 0.5289082 0.03375984 -0.25819573 -0.31790486 0.06323171 0.25601798 -0.12236773 -0.21397565 0.1504629 -0.29411325 -0.01257844 0.04920434 ]
[-0.46496642 -0.14147717 -0.1269693 -0.34136456 -0.36027786 0.3121964 -0.255619 -0.40673095 -0.03191629 -0.24702805 0.5082261 0.28096157 -0.37714309 -0.18398209 0.3970627 0.46775392 0.14128803 0.13960223 0.4012694 0.1046055 ]
[0.40152526 -0.21612388 -0.17341849 -0.10668438 -0.05079274 0.2635369 0.1167938 0.12302766 -0.56613094 -0.28235564 -0.015626237 0.098644905 0.32640833 -0.2608407 0.33063486 -0.071701854 -0.1416565 -0.079031795 0.1044768 -0.14735419 ]
[-0.11746171 0.0030196386 0.080782235 -0.09289872 -0.2915454 -0.16363549 0.20084558 0.2300793 -0.011106668 0.2093112 0.29788136 -0.08981317 -0.27815315 -0.026506068 0.2418031 0.34301484 0.023607118 0.2699409 0.28820503 -0.20979953 ]
[0.26437184 0.20776796 -0.22496307 0.08007168 -0.12960875 0.20318034 -0.043795597 -0.1352741 0.10697083 0.032747157 0.38555333 -0.35184324 0.12786089 -0.27224976 0.11689762 0.14250997 0.032305166 -0.35915762 -0.2794887 -0.010608976 ]
[0.12325181 -0.30189726 -0.14160587 0.16357788 0.1841287 -0.2457395 0.07183338 -0.087166235 -0.23569742 0.28827044 0.10732435 -0.0133513855 0.3884647 0.022654071 0.47025385 -0.067557864 -0.15519266 0.3068316 0.055517413 0.13005 ]
[0.27714193 0.16149783 -0.26426682 -0.14664108 0.28392622 -0.075974815 -0.2965269 0.08043584 0.15036552 0.27249405 0.09337418 0.18722658 0.2536012 0.02997142 0.25957927 0.019108038 0.031128144 -0.002327397 -0.30947548 -0.248491 ]
[-0.772733 0.030787813 -0.43842873 0.57161 -0.1479973 0.18865512 0.11360246 0.53127456 -0.08136479 0.68596554 -0.38097528 0.19056585 -0.4089854 0.23211408 0.43376088 -0.35444626 -0.10406994 0.19768502 0.54627603 0.073688924 ]
[0.43970007 -0.12235899 0.37553576 -0.4153968 -0.1883187 -0.02276811 0.12605008 -0.42473522 -0.43195885 -0.33491406 -0.07586372 0.13057344 -0.08417914 -0.07394192 -0.17494018 0.12171909 0.4848185 0.056120176 -0.35587388 -0.19978361 ]
[-0.28449064 0.082268625 0.12618716 -0.071864806 0.015089407 0.24393636 -0.18712993 -0.09893173 0.04534652 0.015064651 0.100502625 0.2613672 -0.042584203 -0.18320556 -0.37526214 0.12367554 -0.121581316 -0.29336968 -0.080080725 0.32542425 ]
[0.25573722 0.10591163 0.006997039 -0.15828444 -0.14080599 0.032821674 -0.38275558 -0.10124517 0.31076798 0.02132287 -0.11352208 -0.19581628 -0.027264167 -0.12238271 -0.026750026 0.5110832 -0.104675606 0.034391366 -0.19044207 0.18243736 ]
[-0.0954446 0.18991002 -0.2526402 0.207149 -0.24368525 -0.085542 -0.024729088 0.22490752 0.22747022 -0.10456884 -0.24526402 0.2845351 0.04376259 0.16610831 0.36910272 -0.2372678 -0.051246822 0.079649754 -0.043146618 0.16527231 ]
[0.2755566 -0.028446423 0.23076619 -0.53441864 -0.021844119 -0.28652912 -0.0866411 -0.21569884 -0.24124789 -0.09570113 0.31286246 -0.1262249 0.044608887 0.1769996 -0.05380759 0.25106388 -0.104877435 -0.24178778 -0.08991777 0.28448483 ]
[-0.26791966 -0.1205955 0.062200997 0.102457695 0.07066339 0.28375772 0.08840883 -0.18184637 -0.15471548 0.32176447 0.36270085 -0.31508598 -0.10740863 -0.21476504 0.4842958 -0.039870754 -0.094108306 -0.11634486 -0.153845 0.2943612 ]
[-0.14952303 -0.28995767 0.046016123 0.06905025 0.23995319 0.101017505 0.023563879 0.24813235 0.1510976 0.24435732 -0.25518066 -0.14696522 0.16939846 -0.108594865 -0.12740788 0.09994105 0.24618024 0.08776686 0.2845889 0.14355902 ]
[-0.39783537 -0.319198 -0.3635453 0.10736145 -0.5224375 0.35914832 -0.35124117 -0.057236973 -0.12172824 -0.20241025 0.11670552 0.15357147 -0.1564839 0.011359238 -0.0812324 0.3792482 0.29049563 -0.34931436 0.18817765 0.10258326 ]
[-0.22453241 0.08470615 0.19509791 0.53374267 -0.022667903 -0.20284183 -0.031066192 0.031983703 0.078052804 0.30423528 0.0032861417 0.06433573 0.15550064 0.056651965 -0.090489596 -0.16279195 -0.25469393 0.12114561 0.26185405 -0.42234537 ]
[0.20530555 -0.43000582 0.22179794 -0.2869824 0.18816814 -0.33225223 0.20293146 -0.2730116 -0.43592346 -0.17557928 -0.10911905 -0.0876653 0.17652586 -0.5940558 0.02563413 0.10160724 0.16355696 -0.113149144 -0.11339971 0.0040249373 ]
[0.40155923 -0.04007525 0.2257434 0.05642366 -0.13047677 -0.18956444 0.20011541 0.29802448 0.056628186 -0.11591379 -0.15125933 -0.20811988 0.3314954 -0.1905528 0.2166301 0.13800082 -0.010156403 0.21132943 -0.019033609 0.020096712 ]
[0.31048203 -0.19865231 -0.022272453 -0.26422092 -0.22141762 0.22665589 -0.13255571 -0.0067647113 -0.42892236 -0.085577525 0.16937308 -0.16583928 0.033004798 0.119088344 0.005354079 0.1931781 0.32263055 0.054508142 -0.030436408 0.035641305 ]
[0.42275158 -0.29392338 0.14869237 0.44369906 -0.27844363 -0.15920605 0.16066584 0.26499352 -0.060729664 -0.0119190095 -0.18421175 0.039816525 0.064192675 -0.114982836 -0.58176893 -0.25484684 0.013267494 0.16042511 -0.22349848 0.033682697 ]
[0.3316149 0.1696359 -0.3923815 -0.13237913 0.0945189 0.33247212 0.035313785 -0.14304677 0.42225605 0.06418572 -0.11805213 -0.072146066 0.20144333 0.16927281 -0.016001202 -0.19522998 -0.010834397 0.02732006 -0.08487129 0.31253722 ]
[-0.18914865 -0.35021895 0.06259191 -0.06092926 0.17221078 -0.08076316 0.22547835 -0.0187956 -0.1394932 0.047364846 -0.10795733 0.16030706 -0.060254436 -0.087001845 0.13040529 0.22335052 0.49978194 -0.11740863 -0.0043918914 0.22351943 ]
[-0.12073584 0.010497564 -0.20459673 -0.45066994 -0.05312583 0.1307957 0.23401743 0.105872475 -0.085420385 -0.5139118 0.15424678 -0.04927078 0.1884495 0.0673664 -0.35843134 -0.109375365 0.010290098 0.04842658 0.18431787 0.095104195 ]
[-0.25170794 0.1092909 0.17460963 -0.39230427 -0.051058307 -0.024540877 -0.13315243 0.049539346 0.23463136 -0.1564279 -0.17892374 0.07480507 0.07962392 0.40458634 -0.52455616 -0.33456743 0.1608372 -0.038664743 -0.050532926 0.2445442 ]
[0.04693303 -0.36295137 -0.24756819 -0.0075134207 -0.022139918 0.21870269 -0.08767228 0.0749661 0.015122073 0.12727733 0.22699611 0.3045875 -0.27157113 -0.010758169 0.10399331 0.2959465 -0.27627146 0.23733252 -0.07026391 -0.06509765 ]
[-0.03253123 0.013301903 -0.11133269 -0.4150885 -0.21903077 0.21600492 0.09355844 0.060306754 0.1897901 -0.10295857 -0.25700235 -0.2671875 0.017676888 0.31603548 -0.38317734 -0.24434143 -0.12975591 0.015035714 -0.061614487 -0.14452647 ]
[-0.051118173 0.022490256 -0.48086703 0.23682393 0.6704005 0.2679847 -0.22230136 0.39596218 -0.048707258 0.3486948 -0.26698035 0.19057329 0.10013102 -0.38418162 0.8583022 0.3985684 -0.691636 0.049171194 -0.25949246 0.054761194 ]
[0.64371836 0.19687292 0.13949053 0.30773905 0.17932767 -0.19140959 0.28647515 0.07218974 0.21001145 0.19592611 -0.0021609925 -0.17914996 0.29155117 -0.5085581 0.40588725 0.33642182 -0.32251182 0.48816282 -0.014052681 0.16723683 ]
[-0.10918403 0.20168057 0.18475555 -0.16104728 -0.36257648 -0.40332448 -0.21543185 -0.081694275 0.54551935 -0.48207226 -0.24763864 0.11325943 0.022934146 0.4794115 -0.48283342 -0.16143647 0.29247376 -0.022116004 0.20446594 -0.26792204 ]
[0.5487021 0.031659976 -0.19214882 -0.27271 -0.21382686 -0.18031423 0.3072122 -0.23207544 -0.18672322 0.21502468 -0.0070365914 -0.1495288 0.11037583 -0.09865073 0.18576297 0.2619686 -0.22961599 0.26413083 -0.31339908 0.42910594 ]
[0.03406003 0.0068372195 -0.29667893 -0.5326979 0.10123094 -0.08701631 0.17892729 -0.33737388 0.41516313 -0.046362657 -0.014207715 -0.060932808 0.30374032 0.014690166 0.26900136 -0.29695052 -0.17027852 -0.35228926 -0.3085816 0.39784837 ]
[0.60253567 0.04373596 -0.12317632 0.30931607 0.006145115 0.02838294 -0.07542554 -0.03107492 -0.55370265 0.1534612 0.18514554 0.021939948 0.34341395 -0.6036901 0.09849745 -0.0297918 -0.20888261 0.2837131 -0.18808012 -0.18525358 ]
[0.124702886 -0.036897074 -0.03492639 0.13699012 0.30199778 -0.3879241 -0.031537093 0.06599405 -0.100971065 -0.3633787 -0.007295969 0.27478772 0.15764762 0.26925853 0.0066882493 0.13936195 0.106215246 0.051873673 0.11645212 -0.06456204 ]
[ -0.05648829 -0.03966766 -0.024769409 -0.015478002 -0.06274841 0.044534527 -0.017191438 0.024496906 0.15650783 0.018161481 0.009650568 0.1916061 -0.076800734 -0.046974003 0.01350218 -0.017436448 -0.0855715 0.031877138 0.011558251 -0.0015351345 ]
layer 5 Activation
tanh
layer 6 Dense
20 1
[0.23559327 ]
[0.19692808 ]
[0.4049939 ]
[-0.09764394 ]
[0.15177412 ]
[-0.2921982 ]
[0.012175652 ]
[-0.4866753 ]
[0.034805015 ]
[-0.45095357 ]
[-0.29291895 ]
[-0.14289492 ]
[0.33503723 ]
[0.16290209 ]
[-0.084596425 ]
[-0.18497382 ]
[0.048361607 ]
[-0.16736016 ]
[-0.32568693 ]
[0.26803508 ]
[ 0.00969518 ]
