layers 7
layer 0 Dense
20 20
[-0.03929118 -0.23116505 -0.39307523  0.277681   -0.3226078   0.27895346
 -0.39530757 -0.22355166  0.01874258  0.18238638  0.32753128 -0.40594774
  0.19398023 -0.02134184 -0.19991238 -0.12555067 -0.22222787  0.19108777
  0.18964134  0.02319115]
[-0.15815637 -0.23398782  0.14096525  0.10582197  0.18985568 -0.3423246
 -0.02537946  0.19029854 -0.21628144 -0.73411083  0.46119332 -0.19243926
 -0.3671757  -0.06454316  0.26048216 -0.45002386 -0.20784613 -0.24226972
  0.32763836  0.10872976]
[-0.2736957   0.2236695   0.18918489  0.03175347 -0.16726734 -0.09693104
 -0.0290038   0.10049577  0.2699744  -0.25616035  0.14836952 -0.403941
 -0.04342321 -0.19339079  0.35216734  0.26815766 -0.2790609   0.02706502
 -0.11613537 -0.05968093]
[ 0.02216925  0.4594052  -0.03492931  0.35805136  0.39150688 -0.2452969
 -0.30046862  0.22934413 -0.0776403  -0.1759621   0.27792212  0.11843051
  0.08363738  0.54908985  0.29408404  0.14330994  0.22028083 -0.16385028
 -0.2824667  -0.1559381 ]
[-0.08460531  0.22351223 -0.23434101 -0.03685914 -0.0049321   0.17329356
 -0.01741527  0.16363177 -0.30441123 -0.17496383  0.24582647 -0.05978532
 -0.08426917  0.32588425  0.37086326  0.39999613 -0.29636246  0.29536384
 -0.18596435 -0.03662008]
[-0.03891453  0.01228919 -0.37157148 -0.4640876  -0.04762721 -0.12184499
 -0.41844916  0.2726383  -0.37326863  0.60765773 -0.13195649  0.01527747
  0.08053432  0.01036884  0.20667924  0.06425437 -0.25702462 -0.35525194
 -0.12292994 -0.19301905]
[ 0.23376693  0.08554661 -0.54626065 -0.07269701  0.35540006 -0.31602144
  0.18416493 -0.2973659  -0.1679603  -0.08200983 -0.2261947   0.15999378
 -0.18375075 -0.4479415  -0.19892341  0.33712855 -0.12244616  0.07072399
 -0.42580733 -0.35201678]
[ 0.12030067  0.26663083  0.12870295 -0.17279351 -0.1402225   0.39296818
  0.30911362 -0.06211511  0.30019835  0.07693283  0.19284919 -0.03721341
  0.05651665 -0.16652331 -0.12862147  0.4106163   0.2851847   0.32759655
  0.27874818  0.363149  ]
[-0.33986732 -0.1527038   0.43395463  0.32062986 -0.11015844  0.16737907
 -0.1423852  -0.22330955  0.23385037  0.15498005  0.21105622 -0.242367
 -0.27086803 -0.33647916 -0.1419808  -0.00766781  0.00541514 -0.1559302
  0.460725    0.11867159]
[-0.34955847 -0.27076852 -0.20080592 -0.23466459 -0.56933206  0.3995361
 -0.5236335  -0.12784278 -0.27104598  0.17821398  0.03161801  0.3276591
  0.00337672  0.2823343   0.06525423  0.19104433 -0.3227029  -0.18464203
 -0.09954323 -0.35513476]
[-0.07408396  0.20565042  0.47082388  0.54042804 -0.52294856  0.14877766
 -0.02807789  0.08858681 -0.27808717 -0.17364617 -0.17518371  0.08263623
 -0.45443943  0.6026109   0.14902884 -0.17024684  0.25294054  0.3498326
 -0.36729404 -0.4249226 ]
[-0.80294144  0.26127923 -0.41013741  0.46539652 -0.9117364   0.5571523
 -0.22678187  0.18907276  0.11171672 -0.5692558   0.09021384  0.54901636
  0.15304591  0.541528   -0.26292098 -1.1460567   0.21419448  0.6913106
  0.43694723 -0.6427331 ]
[-0.16986606 -0.25864634  0.17575155 -0.35134244  0.66279584 -0.06419211
 -0.35240218  0.11450721 -0.07889917  0.30494004 -0.16016395  0.17458318
  0.2209194  -0.5030632  -0.2261111   0.01972552  0.33436465  0.15812746
 -0.04051002  0.20368794]
[-0.2781588  -0.3912682  -0.33455405 -0.17808247 -0.24492759  0.07670589
 -0.33700895 -0.14561911 -0.39826414 -0.09740157  0.28146884  0.11048912
 -0.345206   -0.23267695  0.11676321  0.05530927 -0.15053836  0.31162784
 -0.29340506 -0.4149992 ]
[-0.05667627  0.26808193 -0.26808497  0.28457692  0.12845868 -0.23358744
 -0.09392556  0.00751436  0.21541671 -0.17524737  0.12848946  0.37226328
 -0.26552498 -0.40526986  0.09932771 -0.1723772   0.06379689 -0.04525705
 -0.34013808 -0.33004028]
[-0.14214332  0.04994275  0.21025182  0.00918061 -0.17058997  0.3009917
  0.4132225   0.6127593   0.21079749 -0.18430571 -0.3197778  -0.1115284
  0.32024878 -0.09760231  0.09822017 -0.6452632   0.41400975 -0.33250687
  0.18772897 -0.14631632]
[-0.00281965  0.13004148 -0.23218782 -0.0407636  -0.15130778 -0.01657062
  0.27550432 -0.38026312  0.05180423 -0.21863422  0.4006746  -0.07744641
 -0.1444273  -0.27100006  0.35432273  0.4480544  -0.45321554  0.34301674
  0.23353319  0.15782133]
[ 0.6281872   0.15911293 -0.1217946   0.16037427  0.40406972 -0.45405164
  0.3301377   0.5230126   0.23876707 -0.37471837 -0.58089197 -0.4620248
 -0.16454656 -0.17017443 -0.14999723 -0.46732306  0.5549649   0.11681404
  0.28054035  0.22405472]
[ 0.47576714 -0.48878917  0.16250882 -0.7403246   0.40998328  0.44771945
  0.84555274 -0.32753885 -0.69965863 -0.26663175  0.22194791 -0.25615445
  0.4073277  -0.15326375 -0.37591204  0.2545429  -0.10593535 -0.42143527
  1.0608472   0.2907166 ]
[ 0.5012526   0.16930495  0.45124474 -0.4308501   0.08895069 -0.30352843
  0.31783894 -0.566711   -0.40336987  0.8418004  -0.35899502 -0.37046146
 -0.3547976  -0.30779105 -0.33340645  0.72587264 -0.239959   -0.5062599
 -0.2937847   0.69057655]
[-0.01833099  0.04693762 -0.01995343  0.28129387  0.01008019 -0.12552118
 -0.03236249  0.08786544 -0.02085933 -0.14251897  0.00266351 -0.0707458
  0.00240948  0.17836341  0.09265964 -0.13512842 -0.05234453  0.00930903
 -0.01520493  0.03597602]
layer 1 Activation
tanh
layer 2 Dense
20 40
[ 0.36269346 -0.2692607  -0.43026304 -0.10072625  0.3491634   0.5058315
 -0.45581254 -0.07708165  0.02949572 -0.12936348 -0.24666212  0.14228249
 -0.24975424 -0.05327275  0.48957464  0.15221928  0.21775837 -0.10683797
 -0.10668991 -0.0755858   0.17904411  0.17674044  0.0531194  -0.13075824
  0.08160669  0.43032494 -0.12347224 -0.211419   -0.17410572  0.09798656
  0.09137063 -0.5671105   0.04296332 -0.04813711  0.25553706  0.03618325
 -0.5138923  -0.14107864 -0.06205193  0.24413095]
[ 0.1558906   0.47583595  0.19909063  0.01546093  0.2028866  -0.08565554
 -0.35804775 -0.21375254 -0.14215854  0.16003661 -0.02072084 -0.21850449
 -0.07550659  0.12340132  0.0562093  -0.12867117 -0.10319746 -0.1874999
  0.13140419 -0.2897742  -0.3536667   0.147068   -0.24189682  0.0171876
 -0.18906686 -0.14708704 -0.31589854 -0.01396822  0.20176283  0.38791585
 -0.0441757   0.31258604 -0.28720587 -0.21837899  0.23174427  0.31679845
 -0.19486043  0.11897358  0.3247938  -0.3891638 ]
[-0.14570513 -0.12831953  0.24112868 -0.12365092  0.36103722  0.36545265
 -0.31423032 -0.24409686 -0.23182757  0.0729472  -0.21192996  0.22836426
 -0.13706982 -0.25614646  0.23601344 -0.10662335  0.06580426 -0.06098661
  0.20844015 -0.01753236 -0.04219599  0.20016146 -0.44125077 -0.3496674
  0.33732095  0.03382828 -0.25159642  0.07794219 -0.06499533  0.01869188
 -0.00297668  0.5339886   0.13976862 -0.05660535 -0.41050202  0.20247477
 -0.43506798  0.1257921  -0.04798934  0.13467357]
[-0.27122244  0.6299706   0.23527919  0.34270418  0.05020727  0.41364968
  0.13615392 -0.0128483  -0.11905117  0.4358064   0.20039855 -0.08034859
  0.35647616 -0.35555792  0.35099933  0.0510635  -0.15841858  0.02433872
  0.1859301  -0.03088013  0.19468482  0.18896572 -0.27289474  0.726718
 -0.09694926 -0.3392218   0.20241964  0.5242698   0.36936176  0.03308057
 -0.7400831   0.06277087 -0.04413822  0.12142426 -0.32800776 -0.17223799
  0.2695642  -0.3511224  -0.30721125 -0.47796503]
[ 0.09755136 -0.18159434  0.0052346   0.07685294 -0.13469566  0.5384293
 -0.30288154 -0.08868314  0.08163434 -0.2065711   0.12003388  0.20463508
 -0.10611095 -0.01471086  0.3554453  -0.19454135 -0.13470069  0.19917227
 -0.03385096  0.35026157 -0.2799532   0.07789639 -0.29451588 -0.30897897
  0.29461777  0.58153737 -0.3638524  -0.0921462  -0.06984247  0.5726777
  0.03645251 -0.17450957 -0.04852227 -0.12588578  0.17964189  0.3569143
 -0.5412521  -0.25674695 -0.02024743  0.24800369]
[ 0.14928932 -0.05094693  0.04450951 -0.4018048  -0.40184838 -0.36980224
  0.06878208 -0.26186067  0.04569231 -0.12139814  0.04983134  0.06075494
  0.00523615  0.12600978 -0.05658955 -0.00980039  0.16230918  0.30309743
 -0.020392    0.16659448 -0.00830678  0.07398411  0.06170467  0.18121938
 -0.17191193 -0.3030038   0.14918461  0.21680911 -0.20224789 -0.09440628
  0.17456946  0.11257301  0.09852017 -0.28975856 -0.16748649 -0.09338807
  0.27432165  0.1811302   0.07260714  0.11528417]
[-0.05242715 -0.5322205  -0.33326662  0.12928623 -0.07507666  0.48058775
 -0.46594355  0.5469084   0.12113576 -0.21335445 -0.50872076 -0.3637905
  0.19831298 -0.15112919  0.16016985 -0.03029793 -0.08549532  0.26297444
 -0.09998785  0.3714533  -0.14793096  0.13040386 -0.18614711 -0.8656862
 -0.1208008   0.5647437  -0.06997966 -0.15711525 -0.43591878  0.29986408
  0.7619183  -0.066562   -0.13682342  0.17499317  0.10059997  0.36785233
 -0.08489995 -0.04541088  0.18231979  0.14458494]
[-0.39048463  0.47468612 -0.00076998  0.6935923   0.25134042 -0.14896859
  0.13534053  0.05215804 -0.29147813  0.25007084 -0.57067347 -0.40702936
 -0.2830792   0.05354666 -0.20337783 -0.28017572 -0.633016   -0.44269842
  0.18632522  0.32748386 -0.28091577  0.5363241   0.31024253  0.1252331
  0.11755466  0.34798536 -0.2709806  -0.47899583  0.10077544  0.2868584
 -0.32142124 -0.11604796 -0.0739456   0.50758094 -0.02338063  0.19203891
 -0.16947843  0.10361721  0.35991326 -0.06078949]
[-0.0963655  -0.12001575  0.08827415  0.28535312  0.1095155  -0.19478652
 -0.21173255 -0.18242458  0.08406533 -0.01933737 -0.02500258 -0.3087777
  0.14875071  0.10539673  0.2059553  -0.21298316 -0.1557293   0.29256225
  0.10572472 -0.17124225  0.33434168  0.25526538 -0.24116893 -0.09321575
  0.10573693  0.03168899  0.22103721  0.06716347  0.27089357  0.01796656
  0.21841946 -0.01856601 -0.43654877  0.43352446  0.10014967 -0.33096328
 -0.08739925  0.37245017  0.07543871 -0.1237167 ]
[-0.1955104  -0.01840367  0.1317033  -0.09234926 -0.09606147  0.2514735
  0.21742931 -0.26776922 -0.43167233  0.1910689   0.3113493  -0.04728538
 -0.05178704  0.14798085  0.06998102 -0.21390435  0.3387336   0.23080067
  0.28522182  0.04446122 -0.27841052 -0.20527914 -0.3563994   0.19339325
  0.10660213 -0.0527523   0.07166771  0.25589845 -0.20854156  0.26342112
 -0.05311654  0.2001174   0.18023892 -0.3404153  -0.04404633  0.1128009
 -0.31183004 -0.07416563  0.2887946  -0.12797014]
[-0.18457273 -0.20358121 -0.15128443 -0.47200835 -0.31682998 -0.36406747
  0.0014096   0.11756297  0.42880368 -0.2582472   0.606698    0.5554379
  0.0066039   0.0535139  -0.1841601   0.01381114  0.05492111  0.18447348
  0.13526475  0.18500885  0.2984037  -0.22265172  0.3081052   0.31300938
  0.34158844 -0.29810697  0.0873903   0.05002591  0.13585629 -0.10109445
 -0.06396501 -0.03070839  0.18928437 -0.35126555  0.23110066  0.21052592
  0.42306    -0.30825618 -0.25560075  0.14501211]
[ 8.10427889e-02 -1.43224956e-04  3.33779186e-01  1.91189200e-02
 -3.75395536e-01 -4.62129235e-01  2.72554994e-01 -3.48188460e-01
  1.43428966e-01  6.60523549e-02  2.44376734e-01  3.43695730e-02
  3.50917839e-02  1.76933855e-01 -1.11309066e-01 -1.12122595e-01
  1.82694167e-01 -1.46282464e-01 -2.61159778e-01  9.35849920e-02
  3.80625546e-01  1.05640329e-01  2.59518713e-01  1.87708542e-01
 -1.59758165e-01 -4.82311100e-01 -3.17762047e-01  8.70615169e-02
  7.20631192e-03 -5.43830991e-01 -4.38727885e-01  4.62738097e-01
 -3.73029858e-01  2.89192110e-01  1.15064688e-01 -2.25730196e-01
  5.10717511e-01 -1.88607529e-01  1.25554949e-01  1.41923428e-01]
[ 0.04956625 -0.1833273  -0.46631464 -0.11525619 -0.06499464  0.13053557
 -0.24467336 -0.11579162  0.15360062 -0.24132681  0.41384465  0.13118945
 -0.01046185  0.26395556  0.09545347  0.12862189 -0.03592837  0.305779
 -0.16981089 -0.16032974 -0.21106085  0.23151904  0.04827828  0.08932918
  0.17724545  0.09706483 -0.1564608  -0.2668328   0.09419718  0.36833525
  0.23390523 -0.05180001  0.2026072   0.34888968  0.01685265  0.17154978
  0.05668191 -0.3625616  -0.19553697  0.14055458]
[ 0.24967648  0.36370516  0.27749527  0.06547295 -0.08934933 -0.3350835
 -0.12294824  0.11660751  0.15685417  0.48726806  0.13445102 -0.16099018
 -0.3196614   0.0699956  -0.04942366 -0.11244016  0.03623207 -0.16951683
 -0.00230733 -0.15346232  0.24494936 -0.07428093  0.5065491  -0.05870397
  0.2077873  -0.22251111 -0.10199276 -0.20511816  0.1873953  -0.3382553
 -0.36834285 -0.13690342  0.16009761  0.32223782  0.5443578  -0.17172475
  0.12965538 -0.15675707  0.07740554  0.11066548]
[-0.02814798  0.3830639   0.03277767 -0.1678173   0.23770079 -0.4262365
  0.15682675  0.23227303 -0.0697948   0.08070453  0.39924714 -0.04459844
  0.38362244 -0.16694139 -0.00579211 -0.17280647 -0.09335057  0.28648847
  0.01385091 -0.21763954  0.25438747 -0.5882788   0.11808562  0.33856
  0.13080138  0.14138073 -0.32701367 -0.05770725  0.32197982 -0.50644284
 -0.23267528 -0.4515891  -0.33793473  0.07033685  0.17937876 -0.00350333
  0.02720032 -0.17037997  0.06117488 -0.17070238]
[-0.05002211 -0.14951062 -0.40800548 -0.7959843   0.35488966 -0.06531075
  0.04174422  0.06023854  0.11501148 -0.33939192  0.07760396  0.11977784
 -0.1866038  -0.12952928  0.05062465  0.08664759  0.55307496  0.0379788
 -0.35668686 -0.3472577  -0.15640041 -0.49799508 -0.06218685 -0.27347606
 -0.30106375 -0.07358377 -0.13550183  0.590702    0.00423525  0.23933697
  0.3535141   0.1536777   0.26322573 -0.6003543  -0.4299016  -0.17818822
  0.07348839  0.06874392  0.04029287 -0.15329619]
[-5.64330742e-02  2.25319043e-02  1.17608063e-01  8.46472204e-01
  3.13250899e-01  1.37998179e-01  3.37454617e-01 -3.26802999e-01
 -3.68530661e-01 -6.59434572e-02  2.33117238e-01  5.05134813e-04
 -9.84115601e-02  1.55419275e-01  3.14602554e-01  1.18738227e-01
 -3.55986774e-01 -5.10332808e-02  1.12891570e-01  1.80716008e-01
  1.78765938e-01  4.90234494e-01 -8.98156837e-02  3.17032099e-01
  1.34435236e-01 -8.31016377e-02 -3.35834503e-01 -4.36547101e-01
 -1.28974795e-01  1.96909368e-01  2.12932453e-01  3.59526902e-01
 -9.03410614e-02  1.45152602e-02 -3.76467593e-02  1.40716910e-01
 -1.33398488e-01 -1.45593897e-01  1.75469339e-01 -1.24409236e-01]
[ 0.29825416 -0.1710935   0.16895632 -0.0037717  -0.0729681  -0.4542915
  0.31159177 -0.10123251  0.07451671 -0.01543194  0.08272622  0.01999937
 -0.24312925  0.11592572 -0.25669658 -0.13396697 -0.21526429 -0.10600381
  0.13468184 -0.03184683  0.02014381  0.12919483  0.17880392  0.01535997
 -0.13136746 -0.19226488 -0.22619426  0.19178936 -0.22729704 -0.20463802
 -0.12510768 -0.02377251 -0.18096761 -0.0381082  -0.15730663  0.01446896
  0.49619734  0.12641935  0.05128361  0.02556076]
[ 0.11976638 -0.83965105 -0.46067175  0.31334415 -0.55353916 -0.15815458
  0.14806306  0.10798073 -0.13821895 -0.24376188 -0.08041327  0.01596157
 -0.39211866  0.20215361  0.15484563  0.22670412 -0.2508732   0.4630078
 -0.16463882 -0.09575704  0.3679528  -0.06510839  0.24659728 -0.3951129
 -0.26452917 -0.02239042 -0.14964895 -0.7246563  -0.19241714  0.15757337
  1.0062646  -0.01824331 -0.2500551   0.01013019  0.3865357  -0.3105927
  0.2920323  -0.08156423  0.1268146   0.25831828]
[-0.09586591 -0.33996868 -0.5057087  -0.39433488 -0.23177908  0.4577206
 -0.09895007 -0.20032561  0.26828638  0.11513295 -0.43385667 -0.12236258
  0.24596584  0.27572337  0.3925603   0.04439531  0.30995622 -0.2731167
  0.26448026  0.29678524 -0.00593682 -0.18865122 -0.24676518 -0.11136504
 -0.09848908  0.33807942  0.08913849 -0.24201636 -0.19973053  0.10718271
  0.47283822  0.34340903  0.14623778  0.01131234 -0.35589412  0.26453826
 -0.11751651 -0.11775875  0.3687234  -0.09775928]
[ 0.07033696  0.14498802  0.09571098  0.24968313 -0.01693139 -0.09861667
 -0.05109853  0.02542834  0.09932959  0.15689608  0.23410672  0.15166558
 -0.0136082   0.04223643  0.04043008 -0.05020326 -0.11847004 -0.02818278
 -0.03156557 -0.02197579  0.05445614  0.10339428  0.11807697  0.2146647
  0.02971056 -0.061175    0.04504753 -0.21629202  0.07301948 -0.049862
 -0.28737944 -0.2825481   0.03769461  0.09489914  0.23356639  0.03854923
 -0.0438826  -0.21296582 -0.07976856 -0.03698161]
layer 3 Activation
tanh
layer 4 Dense
40 20
[ 0.11015054 -0.2048627   0.05587397 -0.21567607  0.18577467  0.08268135
  0.00937779 -0.07725567  0.2378787  -0.19410259  0.45258474  0.16350628
  0.05486682  0.20849687 -0.13965134 -0.17395458 -0.0964957  -0.21088137
  0.4160763   0.16211805]
[-0.27600417  0.04592346  0.18078136  0.21678548  0.73023504 -0.10661785
  0.02706145  0.30280593  0.21644062  0.38288128 -0.05618771 -0.24554984
  0.19284558 -0.16202034 -0.54647416  0.39214894  0.26143405  0.18421417
 -0.07769857 -0.2610101 ]
[-0.2651763  -0.0293799   0.06381476  0.1596407   0.11645758 -0.3556259
  0.24327245 -0.00552212  0.31000763  0.0367203  -0.06458677  0.07226595
 -0.2082689  -0.28875974 -0.1277639  -0.02539876  0.27272588  0.15703465
  0.16328606 -0.16899888]
[ 0.0426059  -0.07065706 -0.24116011  0.31548336 -0.21009995 -0.0620005
 -0.09688725  0.11114444  0.38254485 -0.04345799  0.31978095  0.06740293
 -0.2102174  -0.74357635  0.18169452 -0.08718858  0.5254517  -0.12328792
  0.06564317  0.1774475 ]
[-0.35924017  0.23102269 -0.04570355  0.11204777  0.08145743  0.12227498
  0.36456674  0.3250812   0.13962014 -0.00656386 -0.3724415  -0.08772778
  0.06348645  0.20455764  0.13122134  0.19045283 -0.15363988  0.19548932
  0.06012863 -0.04237657]
[-0.07512153 -0.34632513 -0.32106945  0.3831094  -0.24212585  0.29015338
  0.45435447  0.23998427  0.00804762  0.4575874  -0.43296936 -0.1937837
  0.20454732 -0.14507593  0.11444895  0.08708648 -0.21477342 -0.20734523
 -0.00369073  0.4448962 ]
[-0.18112025  0.23262087  0.23700237  0.09907266  0.2512377  -0.24786136
 -0.24943152 -0.05317855  0.08410153 -0.02841186  0.0687333   0.11432956
  0.34470665  0.19038247 -0.207134   -0.12630343  0.12762074 -0.15334451
  0.42261317 -0.4762682 ]
[-0.00623075  0.02906194  0.08911132 -0.02127273 -0.13349502 -0.30611733
 -0.2644279  -0.20429906 -0.11278846  0.12248057  0.3527527  -0.01331397
 -0.23065618  0.14700189 -0.31526783 -0.04534817 -0.368403    0.18276969
  0.05347963  0.19074042]
[-0.03424827 -0.23390615  0.25131032 -0.32476485  0.24409972 -0.12371346
  0.2303734  -0.12368813 -0.03450958  0.30126655  0.3219998  -0.08692446
 -0.01939786  0.29956403  0.05194194 -0.37727818 -0.20061584 -0.14144312
  0.07829148  0.1075009 ]
[-0.30718678  0.08834817  0.05519618  0.09006954  0.1848035  -0.22758517
  0.13589744  0.16067687 -0.21690418  0.20016615  0.34177703  0.06714899
  0.27332294 -0.381186   -0.10280654  0.04986523  0.4691888   0.02529589
 -0.08658068  0.07448789]
[ 0.15250406 -0.12737794  0.12973835 -0.13243213  0.21524411  0.3048683
  0.12400744  0.22977996 -0.02570885  0.07685553  0.08258481  0.17691776
  0.19346923 -0.08854326 -0.33911568 -0.25356358  0.0354615  -0.2672531
 -0.03002426 -0.28294542]
[ 0.15293683 -0.28309378  0.13197267 -0.3357531  -0.10939203  0.09181988
 -0.07528733  0.1330983  -0.20774561  0.03468574 -0.06104472 -0.19165812
 -0.11741687  0.01024226 -0.03606236 -0.15944712  0.10800611 -0.20903432
  0.09715533  0.01245504]
[ 0.02163341  0.31865317 -0.00339839 -0.11768015  0.15954934  0.4138752
  0.01489752  0.0017285  -0.52053297 -0.19262612 -0.14215301 -0.08135445
  0.10403937 -0.04933171 -0.0116083   0.1425363   0.09797511  0.2431049
  0.1607385   0.14210816]
[ 0.37698185  0.00530923 -0.27494138  0.17325625 -0.10976888 -0.2101311
 -0.2767683   0.0647582  -0.13885777  0.15952319  0.43794525 -0.0139465
 -0.10306958 -0.2787737   0.08477696 -0.07851725  0.0163718   0.2837561
  0.13766222 -0.10028567]
[ 0.0480006  -0.1693587   0.02804882  0.01375422 -0.3697031  -0.1566737
  0.04260264  0.26413348 -0.3404573   0.29556164 -0.07516118 -0.2862681
  0.31643572  0.01663075  0.39116904  0.12395044 -0.23855776  0.2883111
 -0.14912023  0.3440947 ]
[ 0.32968304 -0.36820063  0.3103464   0.21714997 -0.27921265 -0.16018
  0.05904518 -0.25739017  0.0254194  -0.21909416  0.22212005  0.01623711
  0.1571671  -0.24859208  0.08321349 -0.2536735   0.1318507  -0.13056858
  0.09640245  0.20459077]
[ 0.46303356 -0.2237895   0.06279882  0.10969051  0.31918582  0.30409777
 -0.05562952 -0.11988452 -0.20173518 -0.07333047 -0.4225663   0.16212487
 -0.04845962  0.5428835  -0.26417795 -0.15330133 -0.24067691 -0.12460684
 -0.2998332  -0.0218895 ]
[ 0.3595638  -0.28444147  0.10150205 -0.10508022 -0.35290873  0.12933797
  0.14707896 -0.3409686   0.01699521  0.06957519  0.04267553 -0.14032929
 -0.08047745 -0.05184397  0.07575223 -0.11132386  0.04950766 -0.19383615
 -0.07362223  0.11808515]
[-0.18768105  0.31083113 -0.22775513 -0.1942998  -0.17482191  0.12647763
 -0.34546804 -0.02522508 -0.22558436  0.35085768 -0.21376778  0.13637182
 -0.06851766 -0.27094665 -0.03704954  0.33164275  0.05840224 -0.042648
 -0.2825995  -0.04544829]
[ 0.03886226 -0.06986112 -0.06433643  0.1029871   0.03919154 -0.25466084
  0.2521108  -0.05644498  0.32283324  0.17583089  0.00034709  0.06841862
 -0.2127644  -0.2280957   0.30075282 -0.19240606  0.00345567 -0.28826028
 -0.32042715  0.15022074]
[-0.09314825 -0.15343894 -0.08270404 -0.01662991  0.03004572 -0.2690513
 -0.12103872 -0.07316173 -0.10447589 -0.00899409  0.27792844  0.27282166
  0.03218158 -0.37469202  0.12092736 -0.30445555  0.12014411  0.07831156
 -0.01601565 -0.414454  ]
[-0.27407795 -0.06582781 -0.20192124  0.34137353  0.09383079 -0.17921104
 -0.03651449  0.2815486   0.16935036  0.08918089  0.217276    0.18411057
  0.13211003 -0.64490414  0.5344478   0.02474381  0.34151757  0.20686537
 -0.16435395 -0.23493305]
[-0.28798258 -0.2848306   0.08106305 -0.03248738  0.35314775 -0.36549553
 -0.02856846  0.09842774  0.29933575 -0.14209156  0.49163747 -0.12688679
 -0.04720284 -0.13968454 -0.28407183 -0.37833363  0.04573742  0.24305372
 -0.03960627 -0.27739677]
[ 0.01090405 -0.2141139   0.23421924 -0.2118768   0.31288898  0.3649674
  0.10080264  0.2677977  -0.25598943  0.41242945  0.11318393 -0.25921002
  0.37763727 -0.34942508 -0.28950408 -0.20167361  0.42827106  0.2798813
  0.29216546 -0.30256262]
[-0.2664728  -0.2978211   0.27861506  0.14660922  0.3091231  -0.09152529
 -0.2579644   0.37046063  0.01835419 -0.05689109 -0.11318809 -0.24453402
 -0.14071326 -0.20722078  0.02114531 -0.28432682  0.05906427 -0.13465065
 -0.28850427  0.14571175]
[ 0.14416118  0.07320048 -0.32259926  0.01350666 -0.35522974 -0.20956479
  0.16418536  0.20776954 -0.25242457  0.25077528  0.12239782 -0.22889471
  0.03461632  0.00405157  0.4219563  -0.16967353 -0.35116786  0.02002836
 -0.15298022  0.29418683]
[ 0.2547652  -0.20853801  0.03969302 -0.08231539  0.2170693  -0.10221236
 -0.27853474 -0.22903602 -0.37997624  0.07851368  0.14784534 -0.35791844
 -0.0026334  -0.01690676 -0.19742815  0.24196362 -0.15860458 -0.02318669
  0.30329108 -0.31488523]
[-0.15236357 -0.15895742 -0.00741685  0.08701618  0.2512949   0.34713048
 -0.1793028  -0.04764405 -0.13015029 -0.43065113 -0.39128357 -0.3165077
  0.15337697  0.3715158  -0.45537373  0.28901932  0.07999659  0.11700425
 -0.24131355  0.06889258]
[-0.09442443  0.15476029  0.21119484 -0.0475404   0.399335    0.09607573
 -0.29834998  0.08420455 -0.21882878 -0.1885639   0.26232854 -0.24659005
  0.1610652  -0.33893192 -0.31326583  0.21802478  0.23011622  0.22649127
 -0.00375279  0.02688247]
[ 0.24126612  0.00899807 -0.09657054  0.12252922  0.11730383  0.4262185
 -0.24137014  0.04188251 -0.28844476  0.14833386 -0.08345736 -0.1882628
  0.04258199  0.04969057  0.3621736   0.2715727  -0.20706923 -0.0855558
 -0.44259745  0.17262565]
[-0.21147515  0.46581575 -0.02073485  0.30529234 -0.7666964  -0.24712834
 -0.13457775 -0.4694073   0.27859196 -0.1917573   0.06599634  0.10836875
 -0.1045648  -0.02223425  0.5168318  -0.19755585 -0.3828347  -0.5015316
  0.21984664  0.08341108]
[-0.2504936   0.27344802 -0.04973343  0.35078147 -0.01951207 -0.15019743
 -0.24014194 -0.2172253  -0.01554766  0.06394431 -0.4032138   0.13844314
  0.29237473  0.02888162 -0.01119142  0.23925357  0.11653833 -0.3505977
  0.04277973 -0.2718222 ]
[ 0.18356071 -0.47818473  0.30518827  0.03942569 -0.12053706  0.06503773
 -0.17982742  0.18124975 -0.09440913 -0.16245146 -0.12150864  0.0282663
 -0.22224763  0.04866144 -0.04469329 -0.21354045 -0.08247876  0.34296665
 -0.40448424  0.2588514 ]
[-0.38143644  0.01684028 -0.22919044  0.4363023  -0.03396784 -0.01768255
 -0.291654    0.45048624 -0.01365815 -0.01690571  0.2769253   0.4166588
 -0.28713396 -0.48123226  0.3591845  -0.104059    0.42843717  0.24233381
 -0.01811944 -0.07514801]
[-0.212287    0.23192035  0.04551098  0.3181582   0.3546356  -0.04046724
 -0.27715868  0.08847631 -0.15075147  0.2604578   0.4922187   0.2605864
 -0.28146738  0.10350521 -0.16419923  0.2506748  -0.01139015  0.26319134
  0.12237643  0.12071522]
[-0.30562785 -0.23290029 -0.17105839 -0.23687802  0.14338383  0.19438136
  0.16259974  0.36813542  0.19183943 -0.17439155 -0.13916092 -0.07314595
 -0.12531021 -0.22310017  0.42294222  0.1938562  -0.31041655  0.09175182
  0.09229498  0.27226925]
[ 0.01729821 -0.22064632  0.25766683 -0.16772735  0.03180145 -0.22093704
 -0.36281103 -0.43474537 -0.00279355 -0.20894822  0.23384427  0.12075347
  0.19720006 -0.25248936 -0.18388098 -0.2206084   0.32729515 -0.1652425
  0.47881916 -0.30975178]
[-0.17261489  0.37253442 -0.38793698 -0.01830246 -0.04779469 -0.2852665
 -0.27074018  0.16109703  0.08177962 -0.2138314  -0.37059167  0.27438506
 -0.02392286 -0.21187182  0.16336    -0.03994833  0.22698316 -0.2904602
  0.05392507  0.0620494 ]
[-0.21080643  0.18345805 -0.13374448  0.25352833 -0.2645462  -0.24096288
 -0.13364208 -0.0387238  -0.21750592 -0.435748    0.22230248  0.08917515
  0.21553676 -0.13952608  0.15928838  0.25180197 -0.03348292 -0.3191064
 -0.1246817   0.12230977]
[ 0.29469678 -0.29929936 -0.26124296 -0.1527975  -0.07010614 -0.41866213
 -0.05952765 -0.23673156  0.27663916  0.2365439  -0.02599797  0.4577577
 -0.3770369   0.12036176  0.2188762  -0.28665027  0.03832516 -0.24114949
 -0.02167277 -0.28663883]
[ 0.03391041 -0.11126152  0.08524723  0.00571814  0.13145415  0.06296183
  0.02333707  0.10941273 -0.04917375  0.11094772  0.12658395 -0.0164588
 -0.00294385  0.00611063 -0.06166923  0.02850758  0.01078264  0.07474157
 -0.0308366   0.01282517]
layer 5 Activation
tanh
layer 6 Dense
20 1
[0.4334164]
[-0.40559828]
[0.44113505]
[-0.2627465]
[0.31458905]
[-0.22504105]
[0.08216378]
[0.6156049]
[-0.00361766]
[0.2906832]
[-0.70630395]
[0.06282561]
[0.49019685]
[0.18081653]
[-0.5084451]
[0.5096458]
[-0.6127662]
[0.48574787]
[-0.08762024]
[0.6804514]
[0.12520708]
