layers 7
layer 0 Dense
20 20
[-0.22865233  0.01469475 -0.7645593   0.20014083  0.1383802  -0.6462453
  0.0027687  -0.41984314  0.13049139 -0.38379326  0.08022112 -0.29717687
 -0.40810612  0.1909067  -0.11213196  0.13728766 -0.11848101  0.2888922
 -0.27797067 -0.29720867]
[ 0.34463853  0.29754287  0.13407445 -0.07838225  0.34047288  0.36674172
  0.15497947  0.22456688 -0.07990456 -0.18791205  0.33089817 -0.10414976
  0.32022303  0.28746265  0.15780449 -0.28318387 -0.09223682 -0.18300423
 -0.2227661  -0.26124573]
[ 0.05300024  0.03453076 -0.23389195  0.37003     0.1148296   0.24091154
  0.10504988 -0.29788148 -0.17026356  0.31613046 -0.17938232  0.19752264
 -0.06096828 -0.29939666 -0.14260189 -0.10995826  0.09629208 -0.32874483
  0.11965692 -0.15132   ]
[ 0.05088746 -0.08962269 -0.70366365  0.327719    0.45804045 -0.65587133
 -0.12206559 -0.24850051  0.00113726  0.21125601  0.06762635 -0.2915799
  0.08613342  0.73814404 -0.35441345  0.00885248 -0.7197424   0.35885474
 -0.11792801  0.0272657 ]
[-0.19341393  0.20825934 -0.24958351  0.25269562  0.5067236  -0.02961387
  0.2518437  -0.42902803 -0.03976462 -0.20609194  0.00322121 -0.56712234
  0.00168264  0.64857227 -0.39176485 -0.5416902   0.00916565  0.3809638
 -0.1948606  -0.3135013 ]
[-0.07854247 -0.28329402 -0.08001795 -0.14137341 -0.18602686 -0.17683744
 -0.0588032  -0.13691813 -0.14736427 -0.28122157  0.2041642   0.24073309
 -0.33169338  0.1789152  -0.09553626 -0.03508878  0.27219045  0.30279005
  0.23056006 -0.04712713]
[ 0.0729903   0.24357593 -0.00234956 -0.15807267 -0.12817454  0.30217052
 -0.33783266  0.2152577  -0.33735776  0.36253983 -0.17134263 -0.08420673
  0.11534625 -0.20748536  0.3182177   0.3289643   0.19615024 -0.26646024
  0.21427    -0.2504286 ]
[-0.14083444 -0.19986048  0.5609177   0.03571276 -0.5246574   0.32382727
 -0.23163705  0.25688958 -0.12756921  0.38906002 -0.0255734   0.04286974
  0.4633185  -0.7922472   0.24527109 -0.01019801  0.09648415 -0.37848315
  0.38903844  0.36262944]
[ 0.12229398  0.12667722 -0.20774253 -0.02196149  0.10041421 -0.10280254
  0.18687342  0.3802192   0.28773233  0.27641517 -0.03619191 -0.29665336
  0.41930315  0.38939467 -0.10959212 -0.2566004  -0.03192181  0.12618923
  0.05301417 -0.20550314]
[ 0.94717634  0.3554847  -0.5737766  -0.6543152  -0.17064947 -0.2109605
 -0.3721072   0.94721025 -1.2106993   1.1879115   0.88245547 -0.07334802
 -1.1733121  -0.10580012  1.7759243   0.1168206   0.28284147 -1.0135989
 -0.6902704   0.40141118]
[ 0.4946071   0.81718576  0.10725595  0.00818546 -0.0397041  -0.05652064
  0.86449975  0.00653979  0.54401666 -1.1482165  -0.10223012  0.04544839
  0.8681369   0.12081355  1.095332    1.6128083  -0.75453943 -2.3502805
  0.27618304 -1.0958735 ]
[-0.23115036  0.10039312  0.68786186 -0.93970436  0.1911721   0.5616773
  0.4776728   1.0232637  -0.73466235  0.85531944  0.55777085  0.04964771
 -0.68427134 -0.6784819  -0.75993496  0.5261229   0.33430696  0.21040837
  0.8107464  -0.19275844]
[ 0.13324957 -0.00235642  0.56786907 -0.24799219 -0.6535157  -0.10970409
 -0.24845868 -0.16524811 -0.09764478 -0.14148895  0.39399943 -0.00892464
  0.060982    0.09651369  0.3334892  -0.19924387  0.3135562  -0.18837762
 -0.05147077  0.2923176 ]
[-0.00787107  1.1862129  -0.19478689 -0.06078102  0.10389309 -0.09774546
 -0.5943162   0.06103258  0.96082234  0.06055044  0.23765257  0.30013222
 -0.8879679  -0.16610973 -1.0586852  -0.47199377  0.54959214 -0.31611156
  0.20931603 -0.00890703]
[-1.3170613   0.7342132   0.1110366  -0.5081318   0.15853103 -0.20574306
 -0.11712927  0.09806205  0.6658081   0.0111942   0.5485899  -1.148047
 -0.03070082  0.12497563 -0.00716194 -0.2384538   1.2483338  -0.08493964
 -0.06494045  0.5114331 ]
[ 0.80610234  0.11819103 -1.3113409   0.1339347   0.2654516   0.49594042
  0.23397996 -0.28678533 -0.1290131   0.33408365 -0.90089345  0.5561509
 -0.14673327 -0.3130113   0.3520369  -0.40462464  0.553784   -0.23475137
  0.1106829  -0.02115865]
[-1.0555978   1.0276394   0.73402745  0.1733215  -0.59334975  1.1747451
 -0.18568332 -0.21209073 -0.9338653   0.9438277   0.19442421  1.0546277
  0.17830716 -1.1534349   0.18748298  1.3364562   0.5292974   0.5020701
  1.5269287   0.1485117 ]
[-0.9249676  -1.5369717  -0.06188568  0.8663345  -0.10761304  0.3466942
  1.0480906  -1.0789672   0.22906758 -0.33898622 -1.3525473   0.03599923
  1.4181503  -0.16802886 -0.14212644 -0.45227033 -0.99117005  0.85017407
  0.9298107  -0.22597131]
[ 0.92466366 -1.2123463   0.17355664 -0.21714406  0.13913319 -0.057802
 -0.7624297   0.01977739 -0.6637821   0.3460979  -0.40592515  1.0741104
 -0.5341451   0.0798666  -1.0531838  -1.1766475  -0.18015492  1.1831406
 -0.20669337  0.6118903 ]
[ 0.25990158 -0.39918602  0.2227962   0.48802418 -0.15455072 -0.35221058
 -0.49342668 -0.43328428  0.2908072  -0.63186526  0.02110924 -0.6948099
  0.07186806  0.42377347  0.01845807 -0.2619518  -0.49995884 -0.55603385
 -0.54534745 -0.46966627]
[ 0.06417003 -0.12845373 -0.5171886   0.16641678  0.4025976  -0.31497204
  0.24241889 -0.18721321 -0.06625373 -0.15476185  0.15961248 -0.24753796
 -0.12756775  0.43119428 -0.06709478 -0.16932964 -0.36464456 -0.00289618
 -0.31598148 -0.0129448 ]
layer 1 Activation
tanh
layer 2 Dense
20 40
[-0.09091836  0.16860335 -0.0787863  -0.62519366 -0.27540693  0.17506634
 -0.45548472  0.47227877 -0.4650629  -0.07301915 -0.3042573  -0.10078137
 -0.8299523   1.2693465   0.21861792 -0.4630293   0.6830322  -0.8255729
 -0.38549238 -0.49040306  0.46759185  0.11632662 -0.3832487   0.24059975
  0.26120177  0.8011271  -0.41186675 -0.7482115  -0.36832458  0.9047911
  0.7771934  -0.49822775  0.5194949   0.48579517 -0.37436742 -0.56929636
  0.4728163  -0.67484915  0.32993227 -0.07512281]
[ 0.16962741 -0.05869706 -0.7238129   0.0913652   0.03662395 -0.02109419
 -0.10484503  0.15692754  0.5056288   0.09659722  0.48850644 -0.02871576
 -0.57658505 -0.16437037  0.06283738 -0.2924204  -0.36345923  0.5056425
  1.0738887   0.37822285 -0.09903096 -0.21866547  0.3571151  -0.3768933
 -0.5521952   0.7835878  -0.3346583   0.29878047  0.4782829  -0.0789759
 -0.24492799  0.22772369 -0.60992056 -0.13353562  0.14087887  0.24900152
 -0.09192968  0.06379005 -0.36315864  0.00440212]
[ 0.49762958  0.80523866  0.40075207  0.80620176 -0.90665215 -0.2563405
  0.16660796  0.38176098  0.21160293 -0.07912655  0.8064124   0.6620222
  0.19326562  0.6275761   0.2080334   0.9388528  -0.43601114  0.12063869
 -0.6295592   0.69314706  0.681719   -0.30613548  0.37825197  0.18296114
 -0.26396078 -0.41424066 -0.38092875  0.27537802  0.14908366  1.1141024
  0.6219004   1.021663   -0.56031835 -0.83977246  0.5707282  -0.12653908
 -0.52584493  0.6647471  -0.23755287 -0.6520424 ]
[ 0.5650331   0.214773    0.39033267  0.4002433   0.28376535 -0.1379432
  0.14940476 -0.15902284 -0.12738462 -0.8093667  -0.26210088  0.26497617
  0.6222422  -0.89712024  0.31018943  0.34949097 -0.13772759 -0.02554092
  0.34554926 -0.17162687  0.15713578 -0.00618032 -0.17922434 -0.5411116
  0.23936996  0.04981431  0.40116188  0.2838429  -0.78452474 -0.7056933
 -0.5838062   0.19021259 -0.26087788 -0.339374   -0.10224075  0.31742057
 -0.39207575  0.139032    0.06784958  0.09931941]
[-0.23267968 -0.9904072  -0.6044076  -0.626528    0.42208564  0.07010476
 -0.4562251  -0.51238626 -0.20086506  0.23989183 -0.3843391  -0.6233363
 -0.04047646  0.05049936 -0.13506414 -0.7295029   0.29363087 -0.08143134
 -0.56596416 -0.69045776 -0.39829856  0.10845305 -0.13588448  0.17713183
  0.35597086  0.31884208 -0.4748766  -0.8894641   0.1656398  -0.20182718
 -0.40026376 -0.5242828   0.3641387  -0.0688834  -0.6915937   0.149053
  0.6091256  -0.45391208 -0.2208886   0.29331166]
[ 0.60577875  0.5090177   0.7295422   0.4299148  -0.4097125   0.18349783
 -0.06015224 -0.33306545  0.01215283  0.2258341   0.20762706  0.15775423
  0.53540987  0.6077154  -0.0428392   0.5705789  -0.4326859  -0.04995327
 -0.11075349  0.39606476  0.35037452 -0.00440636 -0.36442572 -0.3183474
 -0.37913647 -0.9010403   0.35491353 -0.26111606 -0.6650184   0.69721293
  0.7902016   0.4232129  -0.24345692 -0.60953444  0.33351985 -0.66330785
  0.1862555   0.29027545  0.25752547 -0.13134855]
[ 0.45314097  0.04886581  0.16071317 -0.1120175  -0.23262107  0.0937359
  0.17440546  0.00526857  0.21940897  0.28899452  0.06799635  0.31457746
  0.5167318  -0.5762563  -0.5587381   0.01496427 -0.38325492  0.7016301
  0.448998    0.2893978   0.01884759  0.01669659  0.07007607 -0.40139067
 -0.2900998  -0.02577303 -0.31269076  0.02197676 -0.5800736  -0.568925
 -0.30248398 -0.20579511  0.14765505 -0.20653075  0.18205725 -0.8859381
  0.53921556 -0.04273632  0.5507171  -0.05443335]
[-6.4814878e-01  3.4384619e-02  1.7892763e-01 -2.7849323e-01
 -4.2380226e-01  6.9519356e-02 -4.9049899e-01  4.8151290e-01
 -6.1517581e-05  8.0534124e-01  2.1278802e-01  6.5155673e-01
 -3.6863297e-01  1.2590928e+00 -4.5788628e-01  3.7576154e-01
  4.7880512e-02 -1.2311129e-02 -2.6876253e-01 -1.9746599e-01
  1.7412959e-02 -1.6259654e-01 -9.5436580e-02  4.6164167e-01
 -4.9742994e-01  1.3056155e-01 -3.4146196e-01 -7.6619029e-02
  1.0519331e+00  1.1464850e+00  8.1639439e-01 -1.4215925e-01
  1.3079864e-01  3.3891793e-02 -2.6619685e-01 -4.0942571e-01
  5.5397734e-02 -2.5531974e-02 -2.3415427e-01  2.1860178e-01]
[-0.28934515  0.33275142 -0.17757423 -0.6607975  -0.31546417  0.30705395
 -0.03078049 -0.20393758  0.04222608 -0.6217342  -0.5054625   0.24667269
  0.96261275 -0.26217827 -0.5417224  -0.35634783 -0.8112937   0.733723
 -0.07765087 -0.29267344  0.40014765  0.15981887  0.02792502  0.0240809
  0.25876775 -0.35477665  0.52471125 -0.39898625 -0.73850477 -0.21553156
 -0.3308169  -0.3321693   0.28963012  0.270669   -0.70971775 -0.65268797
  0.26168016 -0.26258042  0.05348936  0.01024861]
[-4.7196573e-01  4.6896124e-01 -3.3095533e-01  2.7748406e-01
  8.8062603e-04  1.8966959e-01 -3.4174630e-01  4.6003079e-01
 -5.3231284e-02  2.4317686e-01  4.8919722e-01  3.6414886e-01
 -1.6976550e-01  9.3023568e-01  2.8831413e-01  4.6358442e-01
  4.9853632e-01  1.0697557e-01 -1.3974501e+00 -8.4324352e-02
  1.0607721e+00  5.5739129e-01 -7.2452456e-01  6.8005276e-01
 -3.6786166e-01 -1.5471549e-01 -3.7679416e-01 -1.0188659e+00
  7.7033482e-02  7.2724473e-01  6.1560810e-01  3.8230602e-02
 -6.5388553e-02 -1.0172138e+00  5.9967524e-01 -4.4258308e-01
  4.2394634e-02  7.8840956e-02 -3.0662972e-01 -2.5475645e-01]
[-0.6243606   0.29263434 -0.11370102  0.08920171 -0.27419153 -0.13161026
  0.04200619  0.20962149  0.55791444  0.49920908 -0.3389906   0.16449068
 -0.6769816   0.61544514 -0.0361378  -0.30301186 -0.30542484 -0.32501706
 -0.4227373   0.11445214 -0.20900646 -0.04105107 -0.16666748  0.3088738
 -0.07415541  0.5042356  -0.47463557  0.02825049  0.97166985  0.4989706
  0.31070673  0.4915433   0.20182401  0.46236876 -0.57288617 -0.19993815
 -0.3144435  -0.2781432  -0.19814613  0.14427811]
[ 0.6682768   0.49325746  0.6812539   0.5527774  -0.28913695 -0.14397141
  0.0516234  -0.15761875  0.15614095 -0.30806208  0.7931289  -0.34146273
 -0.83589554  0.17381555  0.2338096   0.5263443   0.24341321 -0.61432654
  0.11131359  0.6301752  -0.11686756 -0.42470157  0.47291073 -0.09220858
 -0.7759007  -0.04492624  0.09465327  0.7935325  -0.01662034 -0.22603592
  0.16650705  0.18799408 -0.8217007  -0.682861    0.55263174 -0.08399311
  0.08945844  0.16561182  0.7256393   0.14058681]
[ 0.13412397  0.17234375  0.30286905 -0.27308902 -0.6692486   0.2569564
 -0.18504652  0.38635457 -0.03082028 -0.5759931  -0.48828745  0.39121777
  0.9091211   0.27209088 -0.02591676  0.02463895 -0.56402737  0.32318702
  0.60263807 -0.11366576  0.10078492 -0.16436546 -0.08104761 -0.53170043
  0.25275138 -0.5006436   0.43031365  0.14384788 -0.65790653  0.18317768
  0.08708011 -0.5319911   0.11348721  0.12183134  0.22681446 -0.27094978
  0.06426485  0.19876951  0.4122797   0.42890158]
[-0.75770026 -0.4718219  -0.50470716 -1.2018555   1.0829355   0.57307416
 -0.7381765  -0.21754503 -0.61050993 -0.9356567  -2.0147855  -0.8606145
  0.2507516  -0.7367695   0.24442795 -0.90641624  0.34702113 -0.21000534
  0.04265729 -0.83004975 -0.42312208  1.4651027  -1.0087951   0.5327376
  1.8510416   0.18581448  0.3407652  -0.96466523 -0.74275786 -0.7487291
 -0.5948961  -0.948192    1.6976138   1.9279588  -1.6283062   0.38860473
  0.99432236 -0.8040227   0.50478417  0.5385042 ]
[-0.07928566  0.27103773  0.6856681  -0.07260262 -0.23074163  0.02548897
 -0.34422532 -0.07806382 -0.0673994  -0.42279425  0.1155381   0.37305045
 -0.2618701   0.5258439  -0.36911088 -0.18840164 -0.07292858 -0.04831997
  0.8341149   0.12787803  0.22065403 -0.41526338  0.49984023 -0.2166331
  0.34229833 -0.65564156  0.04674941  0.19916815 -0.28177303  0.11995876
  0.17427959 -0.09391909 -0.22409566  0.25496998 -0.11234663  0.40991795
 -0.04859987 -0.32065442  0.68088484  0.12351634]
[ 0.80931056 -0.141886   -0.6407797   0.7075293   0.00846613 -0.17258783
  0.67451704  0.271392    0.28983983  0.15897727  0.45743957  0.03925712
 -0.7286722  -0.46440306 -0.5881166  -0.5745727  -0.7614607  -0.38591713
  0.68369824 -0.02712931  0.68286204  0.04210807 -0.037194   -1.2626534
 -0.56899995  1.0046343  -0.79939246  0.597671    0.93190145 -0.816332
 -0.0875071   0.8150449  -0.02730774 -0.4165784   0.8945266   0.535895
 -0.17295761  0.8679626  -0.5340948  -0.4603362 ]
[-0.501166   -0.01505644 -0.38818282 -0.22158657  0.13533218 -0.11778429
 -0.3496417  -0.03275358 -0.0552615   0.39900342  0.2781948  -0.11126468
 -0.18496655  0.54777     0.23637     0.0037983  -0.12797609  0.7992015
  0.03487892  0.10568513 -0.23442939 -0.43232197  0.29992262  0.57398176
 -0.3447878   0.1394154   0.38573524  0.4142879   0.46410623  0.25773945
  0.47611076 -0.03077979 -0.5895366  -0.20681119  0.18376467 -0.11568259
  0.2317432  -0.28820577 -0.553911   -0.07951979]
[ 0.4767478  -0.07929769  0.04270483  0.6436669   0.19201957  0.34549412
  0.7599852   0.0662124  -0.3677457   0.413324    0.6959398  -0.8039983
 -0.44313502 -0.88508946  0.38375384 -0.24577366  1.1884888   0.3155686
 -0.22372119  0.07711653  0.21368024 -0.01341328  0.27469203 -0.43113023
 -0.46258777  0.15001544 -0.6289507  -0.19776836 -0.16950147 -0.5493531
 -0.60350454  0.43712762 -0.03676382 -0.4320006   0.7453397  -0.3274312
 -0.1166578   0.5325988  -0.8396751  -0.36034596]
[ 6.4130479e-01  3.9313474e-01  6.2207741e-01  7.5617999e-01
 -5.5533361e-01 -1.6539429e-01  8.6620045e-01 -6.9433957e-01
  2.4149401e-01 -7.6165117e-02  1.0563117e+00  6.1310846e-01
  5.8242297e-01 -5.7742995e-01 -4.9257407e-01  5.3674018e-01
 -3.3520576e-01  9.7305551e-02 -2.2225529e-01  1.0350047e-01
  3.2806179e-01 -3.2575846e-01 -2.5764802e-01 -5.0294429e-01
 -6.5139771e-01 -9.8758292e-01  2.7563098e-01 -3.4713384e-04
 -2.0815800e-01 -3.2826522e-01 -2.7161583e-01  6.7128223e-01
 -2.8979123e-01 -7.9661018e-01  8.4614408e-01 -1.1727687e+00
 -1.1614725e-02  2.1253596e-01  1.1712361e-01 -5.6969708e-01]
[-0.1341217   0.11246686 -0.23565017 -0.24300297 -0.39360857  0.15707417
 -0.30871943  0.1522631  -0.35081026  0.22480728 -0.15021795  0.35716626
  0.14957754  0.22290407  0.46706295 -0.05481294  0.33212224  0.16336098
 -0.5906608   0.3078477  -0.37572426 -0.14728463  0.15414312  0.39617535
 -0.12156878 -0.16521262  0.48885322  0.17463185  0.44210315  0.17062518
  0.36958203  0.03785202 -0.3890471  -0.08395156 -0.09082784  0.49855548
  0.2246636  -0.1236381  -0.55851173 -0.12321438]
[-0.12824582 -0.40239316 -0.26537454 -0.29894516  0.55490464  0.26724914
  0.05711723 -0.20057696 -0.29503816 -0.18777479 -0.5126062  -0.662042
  0.21851991 -0.5420707  -0.25113347 -0.19070224  0.15652934 -0.4560399
 -0.14322022 -0.46753356 -0.45474395  0.59013295 -0.64529467  0.0329501
  0.6982794   0.22611794 -0.0491765  -0.40070182 -0.291791   -0.43909308
 -0.50035053 -0.41525337  0.60717684  0.55944335 -0.48138896  0.16763456
  0.46103746 -0.1891275   0.08519877  0.26907727]
layer 3 Activation
tanh
layer 4 Dense
40 20
[-0.5312138  -0.09925161  0.22274822  0.40153316 -0.00501556  0.08954592
 -0.22657365  0.92551357  0.11683752  0.63479775 -0.75340384 -0.38439056
  0.26165932  0.16410822  0.25559443  0.2800912   0.06793834 -0.06019808
 -0.07634212  0.01340196]
[-0.37621638 -0.5032987  -0.01006569  0.31484234  0.30147287 -0.4698198
 -0.787215    0.4678148  -0.53659195  0.44355127  0.02341215  0.4390648
  0.14596002  0.8225639  -0.4900103  -0.14650778 -0.07590862  0.501383
  0.5548069   0.41408217]
[-0.07718244 -0.06196763 -0.41772956 -0.3917315   0.58259034  0.08026701
 -0.12727186 -0.33033514  0.10160634 -0.16647543  0.19024934  0.25829446
 -0.00619438 -0.01161404 -0.02320372 -0.61935645  0.30681878  0.19680846
  0.32860166  0.61716014]
[-0.7676648  -0.7379925  -0.17496805  0.51209164 -0.21187264  0.40372416
 -0.6779888   1.2307911   0.25727084  0.9940212  -0.66553026  0.18929082
  0.1309434   1.1884841  -0.5562107   0.2588189  -0.7939752   0.59714836
  0.5264901   0.6062424 ]
[-0.10282761  0.7966763   0.4323545  -0.77260435 -0.231751    0.10085695
  0.30896634 -0.6494863   0.20922072 -0.06807011  0.1082906  -0.35475412
 -0.00169915 -0.07227288  0.7068018   0.26278028  0.44888067 -0.5396033
 -0.19273591 -0.23843478]
[ 0.10821428  0.16749378  0.3320381  -0.20953338 -0.06971033  0.12572126
  0.06304412 -0.10909842  0.1989597   0.00575928 -0.08223186  0.08751244
 -0.27141023 -0.12998861  0.0384436  -0.11037958 -0.19177423 -0.38842162
 -0.1481732  -0.29743245]
[-0.17799026 -0.17634557 -0.13409165  0.03396243 -0.21499185  0.19967741
 -0.22206476  0.07264677  0.08782527  0.36298302 -0.5407941  -0.44214752
  0.21028389  0.23581372 -0.20578136  0.08780297  0.09839768  0.4422892
  0.16142252  0.27624255]
[ 0.07421768 -0.25617197 -0.5994028   0.09147823  0.10173756 -0.20606923
 -0.02267718  0.44022876 -0.2119699  -0.10094026 -0.26811457  0.10785103
 -0.11046951  0.11053531 -0.21790205  0.21941686 -0.0280149   0.03908115
  0.29014015  0.7051678 ]
[-0.4342852  -0.41843125 -0.14228152  0.47159687  0.11195216  0.0930952
  0.07295987  0.2241725  -0.14040315  0.19501482 -0.20732014 -0.20151924
 -0.12884004 -0.22453701 -0.3551884  -0.00347293 -0.2218848   0.37582636
 -0.19536874  0.36674905]
[-0.13891032 -0.545734   -0.2814389   0.10055865 -0.17922305 -0.39565927
 -0.37866503  0.53715193 -0.2554289   0.4666162  -0.21805616  0.17924276
  0.3312903   0.17085347  0.11596544  0.4315955  -0.63565767 -0.26171675
 -0.06762172 -0.16835596]
[-0.88406044 -0.9787731  -0.32897782  0.77852833 -0.5910851   0.4915909
 -1.3183182   1.0339974   0.09206904  0.65492696 -0.7026292  -0.02789648
  0.5665066   1.0118     -0.3287639   0.14616488 -0.83574253  0.20796047
  0.542454    0.8871758 ]
[-0.045894   -0.58958447 -0.31790295  0.7239345   0.4884901  -0.27630588
 -0.3880793   0.6472076  -0.6008657   0.44074258 -0.70258605  0.1996747
  0.1706991   0.22349752 -0.79551786 -0.16913483  0.03745135  0.3371813
  0.56818354  0.2870264 ]
[ 0.56483567  0.69695073 -0.26029766 -0.8526227  -0.03506219  0.00456475
  1.1064477  -0.2862348  -0.28274435  0.39559147  0.4556389  -0.05259326
 -0.22076575 -0.613027   -0.6002187   0.0964306   0.5391676   0.2992626
 -0.05779484  0.22403404]
[ 0.6161853   0.31618288 -0.36116883  0.1715084  -0.6790995  -0.84632415
  0.23840834  0.2983217  -0.18594426  0.2640748  -0.3758482   0.6198632
 -0.06382966 -0.38243377 -0.2747217   0.8426376  -0.22079933  0.48181272
  0.29128605  0.385081  ]
[-0.21347973  0.4292061   0.03022308 -0.05591727  0.20213565  0.07490661
  0.4214254   0.04112113 -0.05662027  0.11756849 -0.04173416 -0.15195529
 -0.2745537   0.59108686 -0.06191663 -0.1905709   0.3350778  -0.01752414
  0.20354095 -0.06056746]
[ 0.00331756 -0.51618063  0.05193453  0.01354689  0.31384972 -0.20666821
 -0.0418704  -0.0095037  -0.23093767  0.79807436 -0.01148949 -0.01761212
  0.06126394  0.15044902 -0.72641295 -0.1020804  -0.17267491  0.15691961
  0.16045491  0.4919986 ]
[ 0.34221852  0.01644479  0.32028982 -0.08734333 -0.4353729   0.20847668
 -0.50022614  0.04033934  0.47797537 -0.26605716 -0.11353952  0.2645314
  0.43220437  0.0310583   0.2903243  -0.12834264 -0.6066696  -0.3081219
 -0.04897039 -0.08784831]
[ 0.19872607 -0.18884078  0.27347308  0.48423672 -0.08767064  0.44481707
 -0.328296    0.17064813 -0.06557252  0.70445603 -0.16866885  0.01324493
  0.49610373 -0.5065259   0.05547342 -0.496259   -0.3420953  -0.41448733
  0.03689145  0.32620725]
[ 0.1131013  -0.54655683 -0.10796792  0.3051964   0.42469606  0.04743312
  0.11099702  0.66627055  0.02400943 -0.09845562 -0.6215881  -0.40599564
  0.452802   -0.45152953  0.8514754  -0.1057183   0.3766965  -0.5942055
 -0.42610678 -0.38328096]
[-0.38062376 -0.35493863 -0.18048461  0.30675825  0.0811509   0.04776327
 -0.08114561  0.12392658 -0.13999046  0.8383005  -0.31567982 -0.16860542
  0.0170252   0.26123032 -0.64683485 -0.2608316  -0.04157485  0.7962943
  0.08723201  0.03794238]
[-0.30126056 -0.14071362  0.05541175 -0.10235621 -0.279278    0.00360089
 -0.34715918  0.2551726  -0.00589746  0.17405905 -0.04597542  0.20278953
 -0.49034807  0.21243471 -0.02695161 -0.27629268  0.04246838  0.4413987
  0.33730233  0.13923515]
[-0.24212173  0.79438835  0.44355783 -0.76304966  0.01198539  0.45435253
  0.24774037 -0.63780284  0.30175596 -0.43204454  0.6285872  -0.16319576
 -0.38576537 -0.45097575  0.19296274 -0.19098923  0.3589087  -0.13475162
 -0.09131201 -0.49653107]
[ 0.03554638 -0.21393768 -0.07217803  0.4353443  -0.00170404  0.12729803
 -0.53014535  0.458316   -0.36463794 -0.00376988 -0.49546364  0.0170241
  0.59535146 -0.14099415 -0.2035536  -0.1543422  -0.15655048  0.41656944
  0.1445713   0.20487264]
[ 0.5607929   0.56704855 -0.42802134 -0.5554306   0.03115052 -0.2346743
 -0.08321362 -0.33251512  0.01172825 -0.3773918   0.11877836  0.23754434
 -0.11432277 -0.24158432  0.30405903  0.23519835 -0.20944685  0.40279514
  0.3519116  -0.05335601]
[ 0.36711264  0.9095793   0.4752361  -0.7581864   0.3257351   0.13135333
  0.49390423 -0.9455846   0.3928481  -0.816284    0.46324778  0.5267729
 -0.52763337 -0.736183    0.03768839 -0.38357008  1.0551739   0.4053364
 -0.06307545 -0.06710869]
[-0.08803672 -0.37137905  0.54490554  0.08750658 -0.2511582   0.17202628
 -0.10408525  0.3339627   0.12242353  0.37440634 -0.33456203 -0.09273465
  0.4116784   0.26617226  0.23157696  0.6922011  -0.31007794 -0.62860906
 -0.36803234 -0.5711445 ]
[ 6.7523766e-01  2.7261823e-01  1.3949725e-01 -2.6008493e-01
  5.7397938e-01  5.1497817e-01  4.4872990e-01  3.1812210e-04
 -3.4512255e-01 -3.7861449e-01  2.1896456e-01 -3.6974284e-01
  2.0611517e-01 -2.6158240e-01 -2.2676922e-01 -4.7734785e-01
  4.5243204e-01 -7.4592143e-02 -1.7099020e-01  1.0413397e-01]
[ 0.24978611 -0.60162574 -0.02076464  0.6565999   0.48458484 -0.39936996
  0.23828843  0.34220815 -0.12341481  0.28018376 -0.27116644 -0.16381262
  0.21831019  0.2673594  -0.28278258  0.4054382  -0.39057437  0.14445277
  0.3487086   0.1576573 ]
[-0.3542699  -0.7063746   0.44692078  0.7393578   0.22736417 -0.45394954
  0.01371082  0.26455238 -0.206714    0.05011468 -0.5221306  -0.23464122
  0.37116644  0.55816567  0.3452943   0.36408645 -0.6894481  -0.56078947
 -0.29399362 -0.56979847]
[ 0.49793965 -0.11869604 -0.3442358  -0.1187189  -0.57868314 -0.21774417
 -0.30931836 -0.21483684 -0.37912324 -0.02018084 -0.36115068  0.5575392
 -0.3394353  -0.04199969 -0.0774451   0.10967353 -0.28791398 -0.23616725
  0.12636395  0.17670454]
[ 0.1691408  -0.12926331 -0.5467041   0.18466121 -0.29381505 -0.506413
  0.2494612   0.20301385 -0.3548156  -0.21149878 -0.39246807  0.3227973
 -0.25240338 -0.19567417 -0.5390499   0.09566274 -0.26526633 -0.06734636
  0.41236892  0.20687664]
[-0.9852834  -0.55228156 -0.07667121  0.5706371  -0.20182218  0.6026271
 -0.6896443   0.89004916 -0.0481542   0.31687284 -0.7352763   0.05422089
  0.30258003  1.1405135  -0.4858635   0.45924228 -0.48423418  1.270751
  0.7790718   0.42027482]
[ 0.2800945   0.32787573  0.5651474  -0.9381237   0.270584    0.14295556
  0.5620475  -0.7780117   0.3557175  -0.937551    0.59656495 -0.16684158
 -0.2794436  -0.70931196  0.11725952 -0.12411616  0.70327663 -0.1093851
 -0.09301133 -0.76739424]
[ 0.5749733   0.4379815   0.220384   -0.20394066  0.24154522 -0.12122924
  0.7896008  -0.48074594  0.4182704  -0.6581733   0.34568802 -0.12768383
 -0.36718613 -0.33495098  0.11750475 -0.42447823  0.86438596 -0.40405443
  0.12964459 -0.4567636 ]
[-0.76286477  0.02762908  0.12926747  0.18481816 -0.32186478  0.12266312
 -0.7432952   0.40122545 -0.19217424  1.0041469  -0.29392987  0.20465551
  0.5031499   0.48649615 -0.49321738 -0.21806741 -0.52138656  0.79668635
  0.37201616  0.04694851]
[-0.1966489   0.2242967   0.20375803  0.12634236  0.298931    0.00093508
  0.47140616  0.0581505   0.12055853 -0.24456128 -0.02613686  0.31391934
  0.01138903  0.2550424   0.3550578  -0.43094972  0.41062394 -0.43407628
 -0.26543328 -0.09963223]
[ 0.4574582   0.04389147  0.10236897 -0.5481586   0.08608228  0.10221975
  0.26928282 -0.47696295  0.4499619  -0.48474428  0.5084057  -0.07067527
 -0.3200683  -0.8439189   0.48711783 -0.31066394  0.35752064 -0.650514
 -0.55543566 -0.60524124]
[-0.3568893  -0.22509204  0.06386323  0.3247385  -0.30270216  0.1217348
 -0.4667835   0.98804635  0.14381436  0.8877862  -0.6451038   0.22602275
 -0.0578749   0.19200246 -0.7969857   0.38202494 -0.5258485   0.5610951
 -0.00549899  0.09028336]
[ 0.70103157  0.49309608 -0.14153284 -0.25878957  0.05618352  0.10829371
  0.19159606 -0.67923325 -0.17390336 -0.7911953   0.47026455 -0.01231998
 -0.5036659  -0.76828414 -0.0118413  -0.1265211   0.20495513  0.16190915
  0.35259575  0.29022485]
[ 0.45231774 -0.0675029  -0.16885352 -0.02708707  0.24468194 -0.08148465
  0.7122803  -0.12044761 -0.18673028 -0.32964683  0.14642403  0.0601021
 -0.00129658 -0.08859859  0.37371564  0.14037147  0.1930818  -0.7181391
 -0.09072626 -0.13063173]
[ 0.0401452   0.57149804  0.06307238 -0.4909538  -0.12351038  0.32861954
  0.38276744 -0.53188336  0.19456546 -0.19393684  0.4282646  -0.31425455
 -0.17943016 -0.30841     0.30440953  0.15462264  0.30367815 -0.37347192
 -0.2228155  -0.31357282]
layer 5 Activation
tanh
layer 6 Dense
20 1
[-1.2258835]
[-1.1901486]
[2.1023445]
[1.6855085]
[-1.5669893]
[1.6835529]
[-1.0832632]
[1.2483419]
[2.1049612]
[1.1614075]
[-1.5481082]
[-1.5543897]
[0.30095053]
[1.4055246]
[1.4439937]
[1.6907122]
[-1.2575384]
[-1.319286]
[-1.8319703]
[-1.7879041]
[1.3266636]
