layers 7
layer 0 Dense
20 20
[ 0.5011927   0.10990366  0.04727782  0.71187985 -0.24514212  0.14806738
  0.40799809  0.05883604  0.69757056  0.21574135 -0.09596279  0.00988719
  0.47041798 -0.0112749   0.15514734 -0.3227015   0.1936024   0.44889134
 -0.18434994  0.24859184]
[-0.11808423 -0.30032346  0.02677422  0.45686498  0.1663705  -0.38102382
 -0.07396773  0.18041582  0.14977139 -0.11747217 -0.25264987  0.23494774
 -0.39793387  0.08101903 -0.06175249 -0.16582039 -0.03105422  0.46817032
 -0.31337968 -0.43307346]
[-0.44981983 -0.50142205  0.4798994   0.37144315 -0.06154072 -0.27998164
  0.6262836  -0.21400696 -0.05445053 -0.14264889 -0.85399884  0.0605994
 -0.65682715 -0.24253125  0.00419111  0.11869764 -0.53909606  0.16923967
 -0.19813988 -0.38537008]
[ 0.35750708 -0.14328533  0.34722587  0.62028277 -0.5250793  -0.40709797
  0.45517388 -0.37583274  0.43761107 -0.05521848  0.15943578  0.31722307
 -0.02122719 -0.14092082 -0.52458125 -0.04833671  0.09112711  0.78101194
  0.2069683   0.46581036]
[-0.09239043 -0.14849228  0.6042597   0.05839683 -0.25501582 -0.17658882
  0.29068926 -0.02032941 -0.3184653  -0.34061268 -0.2935714  -0.06729033
  0.6101119   0.52012074 -0.07888834 -0.0785289  -0.0668572   0.22220044
  0.47074017 -0.35154057]
[ 0.52556413  0.5080673  -0.1037551  -0.25923222 -0.17614618  0.72055167
  0.04825135  0.06229373 -0.11791542  0.48260176  0.72225165 -0.11568392
  0.6752137   0.35598543 -0.4243303  -0.33977473  0.49249867 -0.5299569
  0.28733504  0.34602064]
[ 0.06164313  0.24405232 -0.23489617 -0.4529539  -0.3487201   0.67436135
 -0.31858942  0.27960047  0.07898083  0.3462339   0.39957213 -0.1136405
  0.09026738  0.5651356  -0.26896647 -0.10068349  0.46669495 -0.37636024
  0.43203983  0.21295752]
[ 0.04588273  0.17913732 -0.6855229  -0.47309864  0.32650623 -0.10897031
 -0.36471313  0.11127198 -0.05718876  0.48906028 -0.12559341  0.16503082
  0.27965942  0.14595754  0.5400143  -0.072634    0.48201454 -0.6225035
 -0.1790501   0.12198057]
[ 0.4827451  -0.4074493   0.51565444  0.10022542 -0.30707544 -0.4221641
  0.37539893  0.10108624 -0.11544274  0.62759393  0.33167052 -0.32481968
  0.15127075  0.31427506 -0.19620538 -0.22211736  0.4523117  -0.02323219
 -0.14926672 -0.5286739 ]
[-0.52074003  1.0208331  -0.21534047 -0.04350409 -0.88977534  1.087201
 -0.20206857 -0.04173187  0.11028484  0.3974915  -0.036638    0.48297074
  0.22362155  0.17478487  0.8068872  -0.919216   -0.6919547   0.06651769
  0.7217699  -0.10573331]
[-0.62257224 -0.1632608   0.39733946 -0.2895441  -0.0172538   0.9005908
 -0.47590652 -0.99915737 -0.8578415   0.0908033  -0.4743456   0.7824343
 -0.2730008   0.6803228  -0.13792746 -0.76190776  0.07522566  0.96014
  0.8052547   1.0129675 ]
[ 0.2006033   1.059218   -0.21294558 -0.59903336  0.07196689 -0.27453482
 -0.95678866  0.8538219  -0.6182261   0.18917236 -0.18725777 -0.52861446
 -0.43166423  0.02446568 -0.15001233 -0.06621283  0.0623464  -1.0925277
 -0.6870801   0.47737327]
[ 0.6927239  -0.28832597  0.21154022  0.19339505 -0.24979544 -0.03682153
  0.1293591  -0.25957093 -0.3967508   0.13139103 -0.04678828  0.5689565
  0.31302628  0.06432419  0.03385062 -0.2659943   0.34170687  0.04643676
  0.25001088 -0.01488111]
[ 0.43082926 -1.7697854  -0.18903719 -0.4761348  -0.31247213 -0.69252247
 -1.9996631   0.6767432   0.5415117  -0.6961508  -0.6068709  -0.02996058
 -1.0371376  -0.3761596  -0.9898459   0.35106102  2.0803382  -0.28660867
 -0.41755074 -0.03806168]
[ 0.0376933   0.43983772  0.22637868  0.33076313 -0.14812185 -0.00795664
  0.2629995   1.1239586   0.5604496  -0.20320572  1.2401743  -1.31012
  0.82412815 -0.5485989   0.3731823   0.20212547  0.11966188  0.38792148
 -0.3512603  -0.90464914]
[-0.55792516 -0.45792416 -0.14240934  0.28398708  0.3739228   0.3655574
  0.7873299  -0.02714035  0.17319572 -0.83825964 -0.52032524  0.8485552
  0.98486286 -0.43436208  0.9999609  -0.29181695  0.56474507 -0.6913153
 -0.04326193 -0.5818473 ]
[-0.6971527   0.29834744 -0.65891635 -0.6155889   0.38416606  0.2726667
 -0.1245318   0.25695828  1.4127702  -0.32837236 -0.01306784 -0.24516544
 -0.10608408  0.69153106 -0.6242969  -0.10310964  0.03591338 -0.45204005
  0.22973579  0.5862935 ]
[ 0.24109921  0.2908399  -0.0560698  -0.02082409  0.40234908 -0.16253965
  0.71339875 -0.2866179   0.08403181  0.427021   -0.1795154   0.36626774
  0.09091734  0.05334498 -0.29355744  0.49951935 -0.38165665 -0.1762811
  0.1307304   0.32060862]
[ 0.19540423 -0.16882862 -0.01083766 -0.5385519  -0.06360334  0.14090262
 -0.17683415 -0.02641697 -0.12355368  0.1532727  -0.4532295   0.548891
  0.28733978  0.15449381  0.2555834   0.2829057   0.15800536 -0.86713445
 -0.19902721  0.17793995]
[ 0.33923802 -0.02692582 -0.32413104  0.03141628 -0.06931839 -0.15512598
 -0.36211544 -0.13488247  0.73893195  0.8287546   0.09123139  0.2887948
 -0.2902231  -0.1268729   0.11310136  0.1571709  -0.00721793 -0.2994393
  0.19615187 -0.0722733 ]
[ 0.05819277 -0.1119464   0.34416112  0.32331854 -0.1301843  -0.11544701
  0.20008196 -0.00050793 -0.03644213 -0.20223835  0.00157474  0.0458204
 -0.15444392 -0.14170927 -0.34515312  0.06425311  0.04573091  0.38765663
  0.08566962  0.07713716]
layer 1 Activation
tanh
layer 2 Dense
20 40
[-0.5614575   0.10050515  0.22570577  0.1708803  -0.73260516  0.07996378
 -0.42541698 -0.20034982 -0.5248986   0.08863179  0.54308975 -0.44487268
 -0.30321866 -0.0945032  -0.17333925  0.01162697 -0.38815498  0.21194214
  0.1595142  -0.23805855  0.4143861  -0.2441006  -0.01529448  0.34998003
  0.03844616  0.19298372 -0.14915939 -0.5384595   0.2816753   0.38348708
  0.01396625 -0.03163491 -0.22581634  0.0464716   0.15999335  0.1419156
  0.83100647 -0.69371414  0.11757778  0.35113043]
[ 0.61767745 -0.31362924  0.82274556 -0.22933042 -0.06202397 -0.13707681
 -0.2507583   0.02873755 -0.28063244  0.09991632 -0.5215603  -0.18403016
  0.28681174 -0.27126634  0.68594503  0.01474944  0.40116873 -0.22718365
  0.60525054  0.22194472 -0.19370905  0.31179646  0.20109165  0.25915712
 -0.08627512  1.1362495   0.11014268  0.23834339  0.38797814 -0.1165878
 -0.22540721 -0.7427761  -0.15818264 -0.14992449 -0.01215975 -0.5002461
 -0.73465526  0.14459734 -0.1449981   0.05610116]
[-0.24093908 -0.06887247  0.303828    0.43837065 -0.12369451  0.4053041
  0.19823319 -0.7718998  -0.19395877 -0.20767699  0.08804151 -0.11025028
 -0.40502197  0.2351923   0.33779335  0.44388396  0.17004815  0.20082495
 -0.84168845  0.05135151  0.25915214 -0.23240286  0.47925946 -0.6106991
 -0.40655017 -0.41143695  0.09181932  0.51814544 -0.01453205 -0.25660565
 -0.4591655   0.04647743 -0.30388737 -0.23113917 -0.39188978 -0.49546158
  0.00280395  0.1746049  -0.4390554  -0.15858668]
[ 0.09318811 -0.3560749  -0.60705477 -0.07262766  0.11273917 -0.17762175
 -0.26444644 -0.6151854  -0.2834546   0.3530818  -0.29816332  0.36362526
 -0.5107756   0.40965056 -0.07493909  0.05921751  0.07858306  0.08775971
 -0.56610435 -0.37467766  0.4171743  -0.15867937  0.22022663  0.22353712
 -0.26608568 -0.07756679 -0.33339596  0.21873249 -0.6952846  -0.09591212
 -0.19236797  0.0600124   0.13622484  0.03866288 -0.3325539  -0.24318281
 -0.32336769  0.02975851 -0.35077268 -0.13093884]
[ 0.6416473   0.00211306  0.23144826  0.12319688 -0.14165325  0.08373248
 -0.11990099  0.4346152   0.04205963 -0.48102918  0.22994602  0.2045441
  0.07273227 -0.49816164 -0.14562236 -0.04606588 -0.00382002  0.08353022
  0.12039933  0.9387417  -0.07544054 -0.35063422 -0.68997866 -0.13977948
  0.32885316 -0.07807038  0.00408336  0.07033487  1.1447312  -0.1877389
  0.62342995  0.15971363 -0.11328568  0.21924157 -0.07386775 -0.16052847
  0.59013134 -0.3205674   0.73901385 -0.1091451 ]
[ 0.0501247   0.16277088  0.1020445  -0.03669573  0.19926913 -0.20552653
  0.45995983  0.214504    0.38700536  0.06054111 -0.6819875   0.3028756
  0.4904456  -0.2031995   0.2707988   0.25934714  0.06939221  0.04685305
  0.45877448  0.1966313  -0.00292845  0.5048092   0.23178788 -0.096999
 -0.22565922 -0.12129284  0.31857964  0.21256766 -0.5099803  -0.22106616
 -0.19677049 -0.5069706  -0.03344233  0.10256952  0.06889395 -0.13743037
 -0.5645119   0.23126748 -0.36337882 -0.18254213]
[-0.54824567 -0.20930582  0.10475362 -0.7627126  -0.45625532 -0.1117936
 -0.5837753  -0.54826283  0.05282017  0.26986095 -0.02793137  0.21156225
 -0.19873878 -0.03750942  0.4523991  -0.11096261 -0.00346912 -0.3041021
  0.12721872 -0.18367063  0.51606065  0.6660417   0.25093672  0.12441723
 -0.54462016  0.28664505 -0.55555713  0.45074955  0.34008858  0.28622526
 -0.23488714  0.34421882 -0.05561175 -0.2026648  -0.1526943  -0.38574168
 -0.14442174  0.13796796 -0.36716017  0.2953516 ]
[-2.73571789e-01 -1.34173945e-01 -3.06580484e-01  4.22860235e-02
 -3.81137252e-01 -3.48183215e-01 -5.89363426e-02  5.71081042e-01
 -1.30503923e-01  7.05082417e-02  4.48020250e-01 -4.27950799e-01
 -6.95000589e-01  1.25174031e-01  9.25689489e-02  2.04955682e-01
 -1.10148666e-02  3.45579199e-02  3.24289053e-04  2.30186835e-01
 -1.18375935e-01 -3.28248113e-01 -7.88896456e-02  6.54113591e-01
  1.01013213e-01  2.21612379e-01 -6.20569110e-01 -2.82504708e-01
 -2.03053236e-01 -5.60495734e-01  1.81271568e-01 -3.90255481e-01
  4.13483322e-01  5.22416383e-02  3.05550337e-01  5.66230476e-01
  4.17796001e-02 -3.57086003e-01  1.89139962e-01  7.40013123e-01]
[ 0.22714598  0.09533474  0.15096912  0.01001984  0.14883047 -0.28708714
  0.01328553  0.13373211 -0.31523246 -0.6239286   0.31807566 -0.09993186
 -0.20947689 -0.16294333  0.37715295  0.06670395  0.30219695  0.02592805
 -0.21567139 -0.18078694 -0.04808689 -0.55193335  0.52206653 -0.22383921
  0.6387624   0.19413565 -0.05587276 -0.30758396 -0.13399988 -0.28229454
 -0.13798404 -0.01534928 -0.24662495 -0.19169904  0.40020093  0.56478196
 -0.3780459   0.12457573 -0.13781898 -0.11712632]
[-0.36291468  0.17008716  0.00868404 -0.2248968  -0.00423683 -0.42572734
  0.34123817  0.08958126 -0.07670981  0.7928658  -0.01245235 -0.27243176
  0.00623528  0.1871015  -0.226991   -0.08193449 -0.19100817  0.02014624
  0.7274714   0.12710235 -0.17676999  0.9044009  -0.6288225   0.4796252
 -0.2721036   0.12569687 -0.59378946 -0.10627805 -0.04662138  0.55646056
  0.30746868  0.17335081  0.30652294 -0.2592367   0.13319772  0.01582278
  0.14883067 -0.37442958  0.18995902 -0.03125027]
[ 0.32824355  0.29808277 -0.6438405  -0.3686677  -0.48093396 -0.06990205
 -0.2656726  -0.3030121   0.16156253  0.43818644 -0.2662336  -0.22496772
 -0.33337784 -0.04672949  0.28403658  0.12489456  0.39861953  0.19770373
 -0.19677114  0.31862062  0.3317489  -0.01405468 -0.30589616  0.1294167
 -0.30733597  0.44907683 -0.32665506 -0.20214602 -0.32546332 -0.25031996
 -0.13827258 -0.24566948  0.02189155 -0.38000903 -0.57380545  0.15702268
 -0.11912142 -0.4207588  -0.00581819  0.08496439]
[-0.21026905 -0.13074736  0.5821457  -0.31201634  0.35301498  0.39131284
  0.35583842  0.1655669   0.19220093  0.24232896 -0.03252051  0.23699145
  0.5245816   0.30255213 -0.2173826  -0.09071811 -0.5710318  -0.13070598
 -0.3741509  -0.03274193  0.1305573   0.20323211  0.05899683 -0.35035184
  0.12011462 -0.5396338   0.4023971   0.17088161 -0.16445497  0.71451956
 -0.12625776  0.21341865  0.19277467  0.14427972  0.54706615 -0.26653823
 -0.3746771   0.45067716 -0.29337576 -0.3612855 ]
[-0.5052931  -0.18689953  0.5046584  -0.56469417 -0.33775318  0.02422512
 -0.40626955 -0.12044664  0.16551323  0.52963835 -0.13031122  0.05266012
 -0.46522343 -0.02264658  0.55428576  0.305767    0.5178743   0.04897925
 -0.6427732   0.01059474 -0.10711901  0.31954238 -0.07493001  0.4888542
  0.08183388  0.4031539   0.2261607   0.38417873  0.12633295  0.2766154
  0.02222859 -0.585487    0.05668393 -0.20270513  0.04309762 -0.70226884
 -0.5766181  -0.27402887  0.50128347  0.2780121 ]
[-0.40601084  0.05968819  0.21349125 -0.24973442  0.10183856  0.06212606
 -0.3616607  -0.04275176  0.24252419  0.29254204 -0.36394414 -0.21735632
  0.18528512  0.03059165  0.5342146   0.18556535  0.31848612  0.28233632
  0.15709013  0.24850422 -0.20410939  0.27583155 -0.3042853  -0.21718471
 -0.27363     0.10526645 -0.01371307  0.42647538  0.4901078  -0.00876232
  0.27262634  0.44833118 -0.09123456  0.0563486   0.16744258 -0.06905086
  0.554872    0.35670346  0.5635773  -0.05997216]
[ 0.0835198   0.02807593  0.14070253 -0.60577226  0.25911346  0.10239359
  0.14055526  0.34917545  0.2885575   0.5746114  -0.30920085  0.01178157
 -0.14042138 -0.22554767  0.03126212 -0.12721005 -0.01696713  0.18435186
  0.26390564  0.07259142 -0.24503438  0.40943146 -0.252143    0.67358965
 -0.03067757 -0.00334817 -0.35338038 -0.04893339 -0.5215798   0.20231168
  0.3549318  -0.09434709  0.37171572 -0.23280968  0.25873482 -0.37170312
 -0.1419591  -0.23404302  0.17249906  0.35026067]
[ 0.12405957 -0.13343875  0.06021853 -0.16701876 -0.7811755   0.1867925
 -0.5803848  -0.01975603  0.25136372 -0.46504086  0.31625378 -0.05079592
 -0.40133905  0.08822624  0.3198826  -0.17048185  0.42729038  0.07095744
  0.04948834 -0.1287073  -0.24565215 -0.28666955  0.0876544   0.24111904
  0.293062    0.19515327 -0.61959624 -0.05094425  0.20400545  0.34317917
 -0.07545453  0.5820861  -0.04067421  0.16716416  0.12158024 -0.14056005
  0.43841413 -0.5714223  -0.05638063  0.13438885]
[-0.26638106  0.18420264 -0.02836067  0.482252    0.3721067  -0.19529508
  0.41584995  0.06910829 -0.22164258 -0.27226993  0.5863507  -0.1202182
 -0.2092694   0.23321684 -0.3703154  -0.22811277 -0.65022576  0.10901389
 -0.6322423  -0.00845619  0.03554666 -0.21399567  0.26670137 -0.02441096
 -0.1241814  -0.67149884 -0.17283303 -0.22323531 -0.52931714 -0.05367386
 -0.2731953  -0.15849665 -0.18337563 -0.17974909  0.5461403   0.2839009
 -0.11530508 -0.29682884 -0.18139978  0.4289931 ]
[-0.54563314  0.18200473 -0.52487993  0.00680086 -0.25714636  0.20588852
  0.20256847 -0.89024186 -0.08618334  0.24188253 -0.25533503  0.05378134
 -0.4177524   0.6767764  -0.36988184  0.46309102 -0.3254219  -0.38427168
 -0.49733222 -0.36528957  0.25699806  0.35232043  0.18998586 -0.10581575
 -0.22612104 -0.58932006  0.05726568  0.40060857 -0.66963917  0.4801758
 -0.3302537  -0.2084656   0.1998407   0.02232245 -1.0153562  -0.6723175
  0.00791649  0.21684666 -0.34592113  0.17290007]
[ 0.03088939  0.26038966  0.03004735  0.09710719  0.2349545   0.1843438
  0.47307146 -0.01379672  0.09873758  0.18286674 -0.79372066 -0.03209072
  0.1309631   0.08556695  0.00278039  0.31723157 -0.25724223  0.15046923
 -0.06405928 -0.41412714  0.34243605 -0.01448498 -0.09605109 -0.26393953
 -0.04000936  0.06641126  0.7047572   0.26903147  0.04309117  0.12024978
  0.10308801 -0.02886725  0.2912702  -0.3179491  -0.5623258  -0.47664928
 -0.19853194  0.5180444   0.02038308 -0.25890157]
[ 0.08854946 -0.32840303  0.7175658   0.6963623   0.49849674  0.23925965
  0.26233333 -0.09033134 -0.52200943 -0.28492594 -0.07105631  0.22070552
  1.1464736   0.05883678 -0.0513449   0.16788629 -0.17176776  0.34692916
  0.04258773 -0.02863798 -0.15904807 -0.57322407  0.5505097  -0.623443
  0.32475078  0.52267206  0.14564595  0.10407052  0.34730315  0.3185194
 -0.47985572  0.20549712  0.14528441 -0.06390183  0.06627093  0.36287135
  0.37407902  0.45349678  0.03968259 -0.22199814]
[-0.12748292 -0.12587103  0.09310839  0.11374606 -0.01857     0.11734691
 -0.15964769 -0.43545383 -0.33537173 -0.14662828 -0.04683034  0.24668878
  0.17742486  0.2512455   0.07109223 -0.09014606  0.19268653 -0.06286515
 -0.5180672  -0.58766735  0.4139336  -0.22263947  0.88249946 -0.39376047
 -0.23068738 -0.00164307  0.11244474  0.22395815 -0.44574896  0.08841647
 -0.8612217  -0.21258937 -0.29172707  0.00323971 -0.1417445  -0.08550256
 -0.17152157 -0.10540601 -0.63715285 -0.00391774]
layer 3 Activation
tanh
layer 4 Dense
40 20
[-0.08545855 -0.14468934 -0.47248915  0.46537167 -0.03329019 -0.09995016
  0.07303286  0.06120979  0.20439366  0.26844487 -0.40097946 -0.3838736
  0.06114935 -0.08891959  0.17912593  0.08893894  0.11640902  0.17665784
  0.48136044 -0.11589564]
[-0.06727251 -0.24857107  0.07104226  0.13976203 -0.28473914 -0.03371753
 -0.04559923  0.02042562  0.0461367  -0.19496344  0.3266221  -0.14990357
  0.40599987 -0.0913798   0.32466188 -0.03550634 -0.05006282  0.35640645
 -0.0068487  -0.13759853]
[-0.15544418  0.00488617 -0.23981765 -0.3713017   0.42317253 -0.4311766
  0.40514365 -0.07484595 -0.14572857 -0.17412105 -0.15664876 -0.14847517
  0.10686528  0.0037615   0.42289978 -0.06695422  0.7107832   0.14305317
  0.24180019 -0.00724377]
[ 0.18114191  0.01814981 -0.40405917  0.17626014 -0.2618131  -0.378898
 -0.22852767 -0.06299361  0.06715442  0.0477565  -0.36396217 -0.0846325
 -0.25451332 -0.36983448  0.23593026 -0.08607599  0.3503142  -0.16733047
 -0.03792239  0.5295145 ]
[ 0.13309968 -0.00236738 -0.4532937  -0.17011051 -0.19891202 -0.19305487
 -0.05211059  0.02182293 -0.28561532  0.09730012  0.08828916 -0.4436802
  0.32102814  0.3593023   0.39618507  0.24153447  0.2988974  -0.03222048
 -0.06065011 -0.02423474]
[ 0.00521453 -0.07686657  0.31565437 -0.08699802 -0.22020978 -0.38235518
 -0.0782835  -0.03092958  0.00812699 -0.10995519 -0.39038292  0.2802183
 -0.39755574  0.04249576 -0.25329295 -0.24389598  0.13747625 -0.38212916
  0.07710005  0.1144826 ]
[ 0.15724097 -0.1861885  -0.39564407 -0.08192904 -0.40417206 -0.4105551
  0.14258863  0.12942885  0.11072031 -0.11009829  0.02976378 -0.23333527
  0.34165588  0.10322074  0.2442966  -0.09288935  0.23820262 -0.1568156
 -0.06462125 -0.15288708]
[-0.24809627 -0.13625447 -0.8084639  -0.07777327  0.24674952 -0.3855222
 -0.34126922  0.06497519  0.10604327 -0.31960452 -0.15954617 -0.45443037
  0.16371407  0.47222906 -0.11803728  0.0437715   0.13769647  0.10996443
  0.45162198 -0.18650553]
[-0.164969   -0.33439073  0.07775182 -0.05291244 -0.156774    0.26057482
 -0.24400803  0.2624052   0.3461817  -0.51073277  0.0484369  -0.32664984
  0.30482557  0.1173121   0.11305647 -0.14278978 -0.01894155  0.12401299
 -0.04556754 -0.4425278 ]
[ 0.02397855  0.04580775  0.13645677 -0.0848151   0.19743343  0.2714875
  0.28161415 -0.11767054 -0.00154984 -0.2872084   0.5566782  -0.2074832
  0.30236763 -0.23846339 -0.5229703  -0.15115294 -0.53741384  0.13010933
 -0.24322425 -0.13001424]
[ 0.1876581  -0.235298   -0.0112662   0.11491348 -0.12291265  0.11972714
 -0.44190052  0.2770844  -0.29249224 -0.37658724  0.09354269 -0.2051055
  0.04680776 -0.19111384 -0.28717467  0.033672   -0.3452868  -0.2238454
  0.01459961 -0.10524914]
[ 0.42465886 -0.18414061  0.07743856  0.01646955 -0.16048957 -0.07365633
  0.34160933 -0.0791482  -0.08964425  0.23346284 -0.22362831 -0.1140723
 -0.14943644 -0.07711834 -0.02540943 -0.25313637  0.5648268   0.23420803
 -0.01770737 -0.07574233]
[ 0.23223187 -0.225408   -0.44953412 -0.2246822   0.13649607 -0.2936391
  0.4452598   0.12591805  0.23725632  0.24081796 -0.42376485  0.2276626
  0.21182182  0.1238686   0.35429978  0.13346875  0.42546627 -0.21196221
  0.18703192  0.00980663]
[-0.05380474 -0.22728138  0.02996634  0.13182138  0.06527461 -0.08859301
 -0.00837952 -0.09324184  0.05858985 -0.05405346 -0.03017202  0.18611716
 -0.33881867  0.24181168 -0.1296397  -0.23684773 -0.27540246 -0.1947931
 -0.4140836   0.27181196]
[ 0.03965957 -0.1523399  -0.00924686  0.04904338  0.2899308   0.1158975
  0.14444304 -0.2759374   0.48540804  0.07485165  0.2851439   0.36287814
 -0.3687506   0.16356464 -0.289942    0.01478644  0.335021   -0.29727718
  0.2916381  -0.08342773]
[-0.07761673 -0.24985953 -0.00062106 -0.07556424 -0.03713752 -0.38494503
  0.25345057  0.17331477  0.05112553  0.17536433  0.19053847  0.36555386
 -0.22648136  0.00364239  0.08621605 -0.13675943  0.27542683 -0.346272
  0.00499928 -0.09325991]
[ 0.08585015  0.22727115  0.05412006  0.1497422   0.45508522  0.0085918
 -0.08882398 -0.00747911  0.46124396  0.31684938  0.28230768 -0.21677527
 -0.14109911  0.26544568 -0.21884646 -0.03239806 -0.11200198 -0.15730637
  0.27235788 -0.0558537 ]
[-0.14361326 -0.14313573  0.03365043  0.01425467 -0.11342236 -0.04264499
 -0.26333255 -0.04660515 -0.0604276  -0.0263984  -0.21133307 -0.15799811
  0.169178    0.30955413  0.06858574 -0.07263096 -0.37624893  0.08519624
  0.00423032 -0.08978342]
[-0.47090244 -0.2417886   0.19634445 -0.23392801 -0.05527534  0.31063583
 -0.05215298  0.02669423  0.3604571  -0.33857054  0.28559047 -0.17207628
  0.016525    0.38166142 -0.13903545 -0.22531448 -0.11477023 -0.15941232
  0.36315507 -0.1385321 ]
[-0.40703326  0.03984822 -0.30071548  0.25649384 -0.3452007   0.26272252
 -0.10516535  0.00438174  0.00305351 -0.27911344  0.4419412  -0.08159548
 -0.11239608  0.28221256  0.04388872  0.13035753  0.09567871 -0.11854104
  0.21172957 -0.14519764]
[ 0.21282034 -0.12085136  0.27050474  0.3096814   0.19597861 -0.10203936
  0.19699237 -0.01879519  0.04089731  0.05364424  0.17653039  0.7274938
 -0.24214369 -0.12055545 -0.39801824  0.17923465  0.03325028 -0.46061924
 -0.31996617 -0.18873453]
[-0.19209374 -0.19497207  0.47058645 -0.46154693 -0.25003177  0.4598504
  0.22433849  0.04103006 -0.01182079 -0.37091205  0.78737193  0.12917452
  0.17588292  0.35855293 -0.20525488 -0.00876126 -0.06318367  0.23402846
 -0.04765316 -0.00256493]
[ 0.3188828  -0.06929737  0.45469815 -0.08877249  0.42401698 -0.36588544
  0.14806151  0.2553236   0.25123382  0.38009173 -0.37028673  0.26939026
 -0.13209486 -0.25979236  0.18686268 -0.02344123  0.22379635 -0.13761929
 -0.18144055  0.6644897 ]
[-0.17688322  0.13177949 -0.03691892  0.1890594  -0.0275328   0.530166
  0.08974542 -0.20709479  0.04869556 -0.30366078  0.2761467   0.10672487
  0.23760879  0.40105817 -0.2947188   0.06233944 -0.43545577  0.05317631
 -0.18781029 -0.23343278]
[-0.0339213  -0.14876777 -0.24365842 -0.11655794 -0.0158636   0.12275419
 -0.4283087  -0.01306397  0.02190255  0.12249435 -0.41283146 -0.39610803
  0.17225347 -0.09976637  0.10282429 -0.08948544  0.10111348  0.36261562
  0.20159586  0.13033102]
[ 0.01635064  0.24065289 -0.30236343  0.20309936  0.34406602  0.04856395
  0.1640913  -0.14955704  0.10163911  0.13126402  0.31283545  0.28587663
 -0.12961414 -0.04383862 -0.04359893 -0.08510669  0.32609415 -0.12858972
  0.4729646   0.03468293]
[ 0.14687066 -0.17310484 -0.07767341 -0.25110424 -0.20483536 -0.48811546
  0.29974586  0.15347457 -0.23424381 -0.13761073 -0.2790663  -0.43698466
  0.36987025  0.08510941  0.80643046 -0.00207027  0.5913349  -0.23836057
  0.10831361 -0.16001996]
[ 0.11915047  0.11629619  0.25550118 -0.11894631 -0.25815415 -0.1914404
  0.4280768  -0.12208744  0.12512319  0.00910379  0.34148476  0.1374877
 -0.28203586 -0.25132433 -0.24466418  0.19228853  0.68334866 -0.038272
  0.22111593 -0.24395245]
[-0.43067145  0.06895278  0.28414923 -0.04563759  0.28186348 -0.15126014
 -0.02652405  0.17154709  0.250654   -0.04961014 -0.14208876 -0.21525946
 -0.02118226  0.18567881  0.13806131 -0.37692156  0.2323777   0.17889649
  0.44506896 -0.36599773]
[ 0.28110895  0.07336451  0.18459907 -0.29164666 -0.01335097 -0.12031554
  0.24217026 -0.00341482 -0.3569924  -0.08255827  0.18395035  0.04179461
 -0.16057914 -0.44066945  0.28948066  0.39107078  0.28555208 -0.11267938
 -0.297964   -0.06535967]
[-0.4730222  -0.14567477 -0.33363867 -0.1304287  -0.09129591  0.3277356
  0.1525349  -0.3010894  -0.24279103 -0.39780506  0.20619121 -0.00207285
  0.47048512  0.12623847  0.21652022  0.20460437  0.09562851 -0.04373993
  0.2145659  -0.6247819 ]
[-0.2051244  -0.36380497  0.16116987 -0.28154388 -0.28961885 -0.16334358
 -0.3460947   0.28318337 -0.18267126 -0.18751495 -0.15687759  0.16663904
 -0.10520867  0.5136034   0.09173642  0.12462298 -0.02776984 -0.05726594
 -0.03071153 -0.16771978]
[-0.09271754  0.17211503 -0.12149904 -0.02355206 -0.27778772 -0.01383424
  0.07443056  0.04636171  0.10249931 -0.21612442  0.22888812 -0.5123417
  0.06957245 -0.13542862 -0.08479869  0.25156024 -0.21814981  0.20549227
 -0.0076875  -0.34409302]
[ 0.08094895  0.27737892  0.0335316   0.10208896 -0.04944445  0.0208032
 -0.23118533  0.1018062  -0.09550419 -0.26908532 -0.0112784  -0.12914471
 -0.05487991  0.29931507 -0.05520377  0.14333524  0.08329722  0.27908015
 -0.08410539 -0.1061037 ]
[ 0.00756796  0.1831742  -0.56481695  0.12911573  0.131615   -0.15918721
 -0.18329395 -0.2267515  -0.14406374 -0.26586106 -0.3189154  -0.32398832
  0.02357843  0.4941566  -0.13266231 -0.03865005  0.2012963  -0.07492051
  0.38681486  0.11200546]
[ 0.01524465 -0.09838089 -0.38978335  0.25369936  0.3466387  -0.07357632
 -0.08428697  0.07495518  0.00707827 -0.1473964  -0.5048007  -0.05776538
 -0.08211942 -0.1957609   0.12019213  0.05937361 -0.34428892 -0.01698752
  0.07990081 -0.13008392]
[ 0.03974266 -0.12294502  0.38692588 -0.29840812 -0.46582165 -0.29332522
 -0.6640378  -0.27834836  0.26436216  0.09264241 -0.0361747  -0.10831228
  0.13424526 -0.05913353 -0.3743162  -0.0818157  -0.58196634  0.05279606
  0.14268373 -0.24775067]
[ 0.19213358  0.0476299  -0.13071458 -0.24236546  0.23497805  0.0692411
  0.31919122  0.05392339 -0.2064125   0.05976629  0.03271567 -0.1295174
 -0.17169903 -0.15510541  0.3720491   0.21857633  0.3441037  -0.07968355
  0.15674682 -0.07200692]
[-0.4140578  -0.36589724 -0.3242683   0.01040446  0.02439211 -0.10654712
 -0.23715891  0.16675833 -0.30512398 -0.29148793  0.43063334  0.05409937
  0.0930521   0.41500983 -0.27234948  0.25859365 -0.2543008   0.1544769
  0.38407296 -0.60155255]
[ 5.98452007e-03  1.33804306e-01 -2.39265114e-02  1.04764409e-01
  3.97240482e-02  3.23632002e-01  4.07594955e-04  5.41045554e-02
 -3.09000351e-02 -2.33711436e-01  4.66729462e-01  5.60572386e-01
  3.57095659e-01 -5.89263663e-02 -3.27426612e-01  1.03840202e-01
 -1.35411471e-01  9.78834182e-03 -9.95354876e-02  1.14284895e-01]
[ 0.33450282  0.06291148  0.17856055  0.13697805  0.1899588  -0.14060198
  0.15460779 -0.08688762  0.0065362   0.1354179  -0.2624616   0.14338088
 -0.2894368  -0.0183524   0.13429853  0.07919388  0.24986157 -0.02308138
  0.0417807   0.35506958]
layer 5 Activation
tanh
layer 6 Dense
20 1
[0.24848798]
[0.00917681]
[-0.2526956]
[0.20722944]
[0.12276762]
[-0.10921562]
[0.10078724]
[-0.01941143]
[0.03057055]
[-0.17792404]
[-0.10782044]
[-0.04344287]
[0.05096399]
[0.03701235]
[0.04801027]
[-0.01469531]
[0.05490405]
[-0.02993511]
[0.26106068]
[0.18071575]
[0.16653682]
