layers 7
layer 0 Dense
20 20
[ 0.01491727 -0.24118847  0.35565758 -0.47844967 -0.23706073 -0.08861292
 -0.2706309   0.01204109  0.18129703  0.29905358  0.15025824 -0.06996673
 -0.24114764 -0.17789191 -0.46888056 -0.33654234 -0.31112927  0.37577945
 -0.16281623 -0.3542377 ]
[ 0.23831259 -0.3539464  -0.27291673  0.41274482 -0.16602772  0.09017904
 -0.1968847  -0.26957047  0.0192231   0.52299345 -0.16662008 -0.4577198
 -0.22458151 -0.21812634  0.15057369 -0.3162616  -0.5903418   0.32032618
  0.27921546  0.28125948]
[ 0.26866302 -0.5215379  -0.2819574   0.26575947  0.31263354  0.05315309
  0.20385751  0.05412027  0.35260174  0.03816772  0.23636019  0.04897333
 -0.16319625 -0.45131248  0.33989403  0.03156192 -0.24594085  0.08091804
  0.35863042 -0.0800705 ]
[-0.1300529  -0.39423564  0.3501643   0.2120267   0.3015466  -0.67163026
 -0.3630786  -0.32018754 -0.06370041  0.5464086   0.9000871  -0.9645023
 -0.69320667  0.21400471 -0.61116177 -0.02358459 -1.1975173   0.7889246
 -0.271688    0.16070311]
[ 0.90740293 -0.44782397 -0.58207184  0.5861887  -0.20290977  0.10853719
  0.00696261  0.35846615  0.55579436  0.4030864   1.0103188  -0.27099836
  0.66939616 -0.29227254 -0.5023793  -0.7201792  -0.07887319 -0.55553484
  0.3193191  -0.46542534]
[-0.41963756 -0.02308673  0.35683918 -0.39571756 -0.07482549 -0.17107242
  0.2518732   0.03753683 -0.41016656  0.1814926  -0.20364046 -0.08262399
 -0.40102565 -0.0163027  -0.5652809   0.2890842  -0.3885503  -0.22574937
  0.34287804  0.19918521]
[ 0.25854343  0.07815875 -0.26875168 -0.11011399 -0.16315345  0.1615228
  0.3023376  -0.35433593 -0.16486105 -0.5472916   0.27388194 -0.0941705
 -0.4370119   0.520872   -0.36216095  0.24874529  0.12840484 -0.33255526
  0.3170436   0.0449204 ]
[-0.30527028  0.25623152  0.44446692 -0.33186874  0.19900754 -0.0441797
 -0.14294079  0.40539366 -0.16265824 -0.38558015 -0.31814227  0.5749456
  0.0439717   0.08972859  0.2447073   0.56540906  0.6657917  -0.34294304
  0.22919418  0.54548544]
[-0.17644286  0.33296698  0.08773959  0.19817205  0.22633421  0.14636114
  0.4101832   0.03366374  0.06469984  0.40402102  0.42067033  0.16590686
  0.48214713 -0.26662493 -0.24278466 -0.02804562 -0.30283627  0.05931718
  0.28989807 -0.2895092 ]
[-0.4441679   0.20147876 -0.87102     1.3099927   0.64990187 -0.49843398
  0.54812175  0.40183866 -0.01377851  0.00844905  0.00454024  0.2711496
  0.7994957  -0.70596385 -0.16427685  0.65361553 -0.63559043 -0.67639744
 -0.85072005 -0.17453003]
[ 0.33478647 -0.14105497  0.02695184  0.49044335  0.23450391 -0.11926026
 -0.25177592 -0.5610322   0.59182066  0.42888916  0.34762645 -0.11003124
 -0.13176776  1.5737258  -0.34959692  0.17703083 -0.23919043  0.09382349
 -0.03212471 -0.56159085]
[ 0.16233729  0.5783671  -0.02253634 -1.335333   -1.5019743   0.69460535
  0.93439865  1.913903    0.5495773  -0.5525077  -0.37646455  0.46036243
  0.74043685  1.9170983   0.46719775  0.33349726  0.7922635  -0.23476268
 -0.33568022 -0.41321072]
[ 0.63687646  0.10011233 -0.39576343  0.11794016 -0.33883646  0.38686043
 -0.09061313  0.08144351 -0.37936682 -0.45744282 -0.17447802 -0.12429561
 -0.41442207  0.311391   -0.44179758 -0.13937415  0.12110272  0.30669367
 -0.4689768   0.28002578]
[ 0.84525096  0.18323398  0.49849015 -0.31423733 -0.7580885   0.6026012
 -1.1919869   0.2673417   0.07621431 -0.23716803 -0.21651688  0.4567004
  0.03395124  0.18559109 -0.20170623  0.41954064  0.6903657  -0.13353184
  0.39573973  0.14619176]
[-0.2658113   0.28612825  0.0768952  -0.4287786  -0.29023    -0.7036218
 -0.2851738   0.86032844 -0.4379551   0.8338241  -0.23550956 -0.1766589
 -0.15948892 -0.7548069   0.47230062 -0.8591393   1.2204163   0.61896473
 -0.76180196  0.94054365]
[ 0.1768034  -0.2210994   0.759167    0.41986364  0.755746   -0.89126915
 -0.36291906 -0.96225697  0.5442801   1.0549939   0.06528196 -0.12225961
 -0.41137436 -0.19871831 -0.3768657  -0.02978834 -0.17452234 -0.16005157
  0.05507861 -0.5648521 ]
[-0.08234883 -0.29592583 -0.19031347  0.05293521 -0.22877403 -0.06243774
 -0.21701384  0.4075474   0.10184433 -0.5041051  -0.05699811  0.30880335
  0.25656867  0.51898557  0.32224348 -0.07827362  0.43615842 -0.23434548
 -0.18942226  0.07408889]
[-0.10993465  0.03460674  0.29100925 -0.3740433   0.17001884 -0.18926117
  0.1373508  -0.08460695 -0.19451751  0.19431578  0.56196094 -0.37450337
 -0.7045187   0.16752689  0.5840975  -0.75875354  0.25980237  0.64835095
  0.19116196 -0.10417087]
[ 0.31521812  0.03422087  0.06618628  0.03341718  0.06878268  0.5348537
 -0.12053325 -0.13928975 -0.28080982 -0.15795335 -0.36958683 -0.14043392
 -0.44908288 -0.43633842  0.5128801  -0.04834665 -0.6336837   0.0959164
 -0.31446388 -0.36007145]
[-0.34567943  0.23389804  0.58853245 -0.16316716  1.0598928  -1.1156772
 -0.02884162 -0.5077763  -1.3735274  -0.02046838 -0.43114847 -0.7675212
 -0.96526366 -0.3221998  -0.27068588 -0.5873488  -0.4269732   0.31668591
  0.10854423  1.3273373 ]
[-0.06560922 -0.33897725  0.04106718  0.10442907  0.02795464 -0.10336815
 -0.1302592  -0.15203334 -0.05135907  0.2483112   0.24620552 -0.16174036
 -0.08281912 -0.11336346 -0.17214869 -0.1507935  -0.36639974  0.47488704
  0.12625298 -0.11278056]
layer 1 Activation
tanh
layer 2 Dense
20 40
[ 0.03402731  0.27915934  0.01420665  0.02667501 -0.06238864  0.45211586
 -0.5001759  -0.274444   -0.14136204  0.23831832  0.25803778 -0.13720904
  0.06948388  0.05676409  0.3903887   0.06262921  0.46906543  0.3231951
  0.15856674 -0.43517625 -0.16769043 -0.3164408   0.10723435 -0.06314189
  0.07478471 -0.1098035   0.17384824  0.19606762 -0.21113178  0.21835823
 -0.152391   -0.21915314  0.34205508  0.4471124   0.49096197  0.02635699
 -0.26262215 -0.38021728 -0.33586386  0.37207255]
[ 0.14543167  0.04244131 -0.23444663  0.04996313  0.03915823  0.13226524
  0.17280851  0.14691623 -0.21617514 -0.02530011 -0.3564123   0.26524937
 -0.09953436  0.23762953  0.17942254 -0.428316    0.16096336  0.17682472
 -0.2767748   0.28907806  0.05241308  0.15225777 -0.25700948  0.11008854
  0.14521272 -0.30818108 -0.40901464  0.18878733  0.07109416  0.2809908
  0.37947747  0.19587886  0.01474328  0.00597083 -0.10357752 -0.2540491
  0.10295569 -0.04858748 -0.09598569 -0.55581814]
[ 0.22286919 -0.13326435  0.26184297  0.24832425  0.18093593  0.26616037
  0.343413   -0.13283594  0.06724623 -0.01235243 -0.06377345  0.1098233
 -0.5521038  -0.35591888 -0.16696937 -0.25297084  0.47970176  0.34637615
  0.03723755 -0.26536527  0.6173165   0.27359533 -0.00786422  0.135227
 -0.14878662  0.21601526 -0.40787566 -0.08888651 -0.16826834  0.24659967
  0.22036411 -0.2079164   0.03438453  0.19368404 -0.18899196 -0.12305006
 -0.07917726  0.07615332  0.5649064  -0.6638095 ]
[-0.10352515 -0.07053459  0.08579642  0.15060595 -0.4039299   0.21308856
 -0.11937372 -0.35512292  0.19360343  0.03928911  0.28577027  0.17796317
  0.0526176   0.29430845  0.28861153  0.16307014 -0.8531832  -0.18346082
  0.3645353  -0.08446423 -0.20364824  0.06578281 -0.24117482  0.09217864
 -0.07135069  0.18760219  0.51329243 -0.32452074  0.36893257 -0.55820626
 -0.23252815  0.07057712  0.08049282  0.0786876   0.265822    0.4378605
 -0.05563897  0.487963   -0.9847363   0.7670838 ]
[ 0.16998623  0.00177674 -0.09539067 -0.25653735 -0.19664757 -0.04940291
  0.3944614  -0.23339517  0.0640413  -0.14320253  0.4703282   0.33527112
 -0.71821547  0.08549229  0.00495566 -0.00821472 -0.20238943  0.45324767
 -0.17491199  0.01751527 -0.30810222  0.18703154  0.0775573  -0.01872707
 -0.24023832  0.39401415 -0.21463442  0.14594848  0.22768863 -0.02020684
 -0.02735091  0.15911171 -0.10250622  0.46381813 -0.6586461  -0.06113747
  0.25812924  0.09950431 -0.4617721   0.38913235]
[ 0.3842943  -0.08816679 -0.34680554  0.02294932  0.2803037  -0.07578691
 -0.32608312 -0.13146998  0.23375039  0.00134326 -0.18061589 -0.26661524
 -0.01042072  0.19521229 -0.09371018 -0.437562    0.53662115  0.00077501
  0.10173276 -0.15653893 -0.4671445   0.01705902 -0.75684184 -0.16873085
  0.04605264  0.07500172  0.28231496 -0.09606604 -0.44570804 -0.22607912
  0.37910724 -0.20043886 -0.12871587  0.08029415  0.2096943  -0.091028
  0.04129032 -0.21008894 -0.39907518 -0.17693153]
[ 0.04101714 -0.01993951 -0.1320107   0.05390307  0.00218125 -0.2601483
  0.25672927  0.27113613  0.08081705 -0.30601954 -0.24326567  0.2518937
  0.13612354  0.14253527  0.05673104 -0.39868957 -0.35289133  0.07284439
  0.15863109  0.21012905  0.35997716 -0.16418487  0.11657449 -0.12189104
  0.18438725 -0.3455905   0.30455405 -0.24618818 -0.20619635 -0.11977348
  0.3276947   0.3254254   0.16787884 -0.288356    0.15067591  0.25785118
  0.4901175   0.03471221 -0.3552154   0.01875814]
[-0.1656929   0.03701363 -0.45187312 -0.11028743  0.2920093  -0.11866286
 -0.25532094 -0.28922114 -0.07433411 -0.12110662 -0.7803996   0.2739652
 -0.13017675 -0.01142449  0.0607067   0.04930081  0.41412476 -0.09546725
  0.13615572  0.5803972  -0.10113766  0.23793823 -0.38764834  0.12475082
  0.17769538 -0.4506026   0.23601171  0.22381489 -0.21517003 -0.1410948
  0.25470537 -0.3051753  -0.08605454 -0.07372778 -0.30583438  0.05869167
  0.76113325 -0.20762482 -0.36758208  0.4356738 ]
[ 0.21086672 -0.09939931 -0.2539698   0.02735367  0.18369927  0.3222812
  0.00281454  0.36868972  0.27891883 -0.06726002 -0.7868098  -0.12778959
  0.25365147 -0.01825275 -0.01135419  0.71717304 -0.26790252 -0.3641641
 -0.05195744 -0.09217569 -0.15335672  0.08403091 -0.08313368  0.07129847
  0.1494265   0.16730802  0.5216169  -0.26627955 -0.4081735  -0.19562766
 -0.7171327   0.23222241 -0.12221523 -0.11398964  0.00780811  0.16246274
 -0.46225592 -0.12041874 -0.36782622 -0.3345514 ]
[-5.70407719e-04  1.83023199e-01  7.56701589e-01  5.23409426e-01
  4.77565527e-02  3.05087775e-01  3.77867073e-01 -7.37615153e-02
  3.37242365e-01  3.38059664e-01  2.04696164e-01 -1.87670544e-01
 -3.55755329e-01 -8.40001926e-02  4.43840660e-02  7.29390621e-01
 -2.69314498e-01 -1.62710041e-01 -1.43910766e-01  1.01428226e-01
  7.00832382e-02 -8.79006907e-02  8.82315159e-01  1.71155304e-01
 -1.37077151e-02  1.62867129e-01  3.03397387e-01 -5.64445257e-01
  1.14848725e-01  2.03445479e-01 -4.51148033e-01 -1.50602862e-01
  2.12129615e-02  7.03257024e-01 -5.21470308e-01 -2.27305025e-01
 -5.90213478e-01 -8.34706202e-02  5.71776368e-02 -1.70698613e-02]
[ 0.4638867   0.37049595  0.6862174   0.10331487  0.0755922   0.20946258
  0.16771445  0.31576478 -0.06993221 -0.1537391   0.34681723 -0.08721088
 -0.19246371  0.2723336   0.2312433   0.5307841   0.03216579  0.09489299
 -0.23194583 -0.02361971 -0.07499428  0.14286812  0.5010686   0.5329729
  0.53734106  0.395495    0.73073417 -0.58053476 -0.23210168 -0.39525977
 -0.23278506 -0.13332382  0.27974296  0.2120838  -0.04048745 -0.32273546
 -0.19589522  0.04020973 -0.4501525  -0.20347968]
[-0.16577032  0.24458751 -0.33007094 -0.38224128  0.2013843   0.32482108
  0.21106404 -0.1856794   0.15091303 -0.13177784 -0.4518907   0.24464564
  0.16018324  0.2752408   0.23763761  0.00900346 -0.3764011  -0.12096486
  0.27977484  0.23287226 -0.30663174  0.3462808  -0.38887563 -0.48726237
 -0.11254978 -0.3354857  -0.26616046 -0.05887495 -0.24045806  0.10464212
 -0.04850949 -0.13837658  0.08506282 -0.33360878  0.31885397 -0.08045893
  0.12160924 -0.13619727 -0.01767497  0.20669597]
[-0.28316265 -0.17566876 -0.39701802 -0.35449436 -0.35723612  0.15308127
 -0.17667942 -0.24010305  0.32447255  0.04891709 -0.7818201   0.09149318
 -0.06903195 -0.07990516  0.66536576  0.3586653  -0.4162933  -0.06080697
 -0.21715842  0.1089862  -0.30083406  0.02147773 -0.63502336  0.23368108
  0.30597788 -0.3203312   0.35637894 -0.10865626 -0.51325077 -0.22228211
  0.00316588 -0.25394207  0.34797642 -0.20690502 -0.27667615 -0.0366514
 -0.29321373  0.34382224 -0.83768463  0.11855232]
[-0.02686092  0.2645746  -0.0159213  -0.00737845 -0.09222203 -0.06717705
  0.00438472  0.26165688 -0.30903357  0.00171526 -0.5211437  -0.06919312
  0.32354015 -0.35562807 -0.27191177  0.50213337  0.09558333 -0.5076326
  0.31783426 -0.03118339  0.29931945  0.19890636 -0.31701687  0.10716543
  0.25698894  0.2551247   0.06327007 -0.5536362  -0.46983558 -0.09225549
  0.27522826 -0.12254474  0.12263089 -0.40018195  0.31346467  0.2066744
  0.35002378 -0.3929415   0.17493656  0.09250255]
[-8.5580826e-02  9.1602698e-02 -1.3147330e-01 -4.4003323e-01
  3.9759600e-01 -2.6427373e-01 -1.8015306e-01 -3.6375800e-01
  1.3749552e-01  1.3777705e-01 -6.1289519e-01  1.0712867e-01
  1.6458087e-02 -7.5473525e-02 -1.8104956e-01 -6.4166278e-02
  8.9855260e-01  3.0979931e-01  3.1889462e-01  4.9979034e-01
 -2.9883516e-01 -2.2332998e-01 -3.6297831e-01 -1.3937743e-04
 -1.7132637e-01 -3.9028496e-01 -1.0767307e-01  1.3489425e-01
 -2.0370342e-02  3.6678308e-01  3.2738054e-01  1.5454863e-01
 -2.6627409e-01 -4.6756454e-03  6.6812269e-02  1.7720205e-01
  4.5845192e-02 -1.4021239e-01  1.5196699e-01 -2.2922060e-01]
[-0.1148782  -0.03311241 -0.1420373  -0.17521353 -0.22060001 -0.1203322
 -0.25944683 -0.3510562   0.06130702 -0.09559849 -0.8346456   0.24600379
 -0.14736214  0.158093   -0.16163456  0.27310386 -0.1500428  -0.4147135
  0.17586643 -0.13201971 -0.11156611  0.10071556 -0.43890962  0.1947394
 -0.36666083 -0.17633882 -0.15425278  0.33083957 -0.35465288 -0.18517199
 -0.2371109  -0.14336735 -0.18921767 -0.03046968  0.1961282  -0.03706932
  0.27203968  0.11775161 -0.40217525  0.11073244]
[-0.14760652  0.00991817 -0.42967135 -0.31865466 -0.16659936 -0.00973898
 -0.14279495 -0.6100127  -0.54820526  0.00235314 -0.7312155   0.08917692
  0.6872746   0.12745291  0.00955955  0.16941574  0.37486875  0.26755965
 -0.17560866  0.17010432  0.10335476 -0.09086685 -0.6423114  -0.07123915
 -0.681443   -0.3988823  -0.73392457  0.23659922  0.12742163  0.46363962
  0.15830767 -0.02887803  0.01496415 -0.22456421 -0.01568665 -0.11851092
  0.09846635 -0.5091813   0.5588686  -0.24110207]
[-0.2475301  -0.2087361   0.32253593  0.29156044  0.27304375 -0.22020943
 -0.2763596   0.34979138  0.02335997  0.06419968  0.56022877 -0.1702587
 -0.42712054  0.06246752 -0.2499447   0.2905048   0.17988874  0.00664909
  0.00851149 -0.07357711  0.3500211  -0.07687789  0.5365244  -0.15419383
  0.31887844  0.19090271 -0.37397265  0.08542938 -0.06734012  0.25552619
 -0.30389914 -0.20236228 -0.10698613  0.14078468 -0.22501741  0.11349393
 -0.04709477 -0.09100444  0.55711067 -0.48486695]
[ 0.31452346 -0.14238626 -0.22082211 -0.05001542  0.1343984   0.3812647
  0.06914838 -0.10348524 -0.03347136 -0.3092167   0.05536988 -0.06919344
  0.09423833 -0.33920458  0.08038606  0.04133212  0.30908233 -0.16344988
 -0.26138043 -0.35081938 -0.41548294  0.18824689 -0.23783343 -0.07644331
  0.1073263   0.09708094 -0.18020609 -0.05021188  0.05044582  0.19902155
 -0.09034999  0.21828936 -0.00347841  0.25435445  0.3583826  -0.07466384
 -0.11332758  0.08992096 -0.32222715 -0.19895306]
[ 0.04317412 -0.09548154 -0.12677845 -0.02427168  0.20203575 -0.2187973
  0.20630716  0.08876431  0.19044805  0.04574647  0.19149281 -0.20772293
 -0.06429314 -0.11540526  0.11748163  0.15888835 -0.1373186   0.36967045
 -0.03370295 -0.01704476  0.4255723  -0.13071422 -0.08535261 -0.38771978
 -0.26527843 -0.06091847 -0.7488231   0.4513475   0.14559433  0.5031317
 -0.4560556   0.16254471 -0.28245553  0.12231421 -0.0138901  -0.34777406
 -0.00133179 -0.06285467  0.72105026 -0.5270263 ]
[ 0.05289803  0.07299074  0.39844385  0.17471847  0.06992095  0.00141145
  0.02718535  0.22235763  0.21859598  0.19214424  0.37467444 -0.22277698
 -0.34602007 -0.08995105 -0.319885    0.3168272  -0.05551539 -0.02495388
 -0.19922654 -0.12712029  0.03491576 -0.13437209  0.3162334   0.33854842
  0.14637995  0.09599823  0.10049181  0.03937637 -0.00799495 -0.12005711
 -0.40440038 -0.07991894  0.09636804  0.11360118  0.04205626  0.03072263
 -0.50612015  0.13013811  0.3527148  -0.38942626]
layer 3 Activation
tanh
layer 4 Dense
40 20
[-0.22851686 -0.10893164  0.20158458  0.10039146 -0.18284437  0.10586083
 -0.02082211  0.22918127  0.07995377 -0.05801021  0.14196268  0.34852326
  0.11493032 -0.09782282  0.27280435  0.09751508 -0.24473225  0.24827948
  0.22899964  0.09061163]
[-0.12250397 -0.35785362  0.08797035  0.22231504 -0.01832196  0.04391048
 -0.17299855 -0.07287768  0.3316449   0.18439516 -0.05209931 -0.00464167
  0.16311574  0.22302425  0.08223432 -0.08131648  0.21351247  0.20770316
  0.13017689  0.02877504]
[ 0.09844451 -0.06454703  0.26388687  0.26622915 -0.27639213 -0.34769827
 -0.04792896 -0.06182322  0.314607   -0.01969934 -0.23824671  0.18998307
  0.18461066  0.43570083  0.31618527  0.06119155  0.19194706  0.14013231
  0.23002888 -0.27318618]
[-0.04155418  0.2529699   0.27202427  0.08570194 -0.1072663  -0.25877613
 -0.39679447  0.05349738  0.05049947  0.22203033 -0.04595722 -0.16682127
  0.22747123  0.36559483  0.17912962 -0.10763982  0.07778128  0.20614734
 -0.05910658  0.10159642]
[ 0.07401445  0.20458797 -0.13277797  0.13993007 -0.05038635 -0.30043742
 -0.00655328  0.38655788 -0.21813561 -0.16444282 -0.16803946  0.38042384
 -0.20543663 -0.25965706  0.13427664 -0.20490044  0.07679694 -0.01061664
  0.11662231  0.2378051 ]
[-0.30988872  0.07530247  0.36900702  0.11799362 -0.02725109  0.16919921
  0.1578493   0.21615322  0.39332527  0.18803225  0.3125448   0.20459329
 -0.07334469 -0.11948127  0.23581699  0.04187708 -0.29909173  0.06536148
 -0.00085031  0.15049256]
[ 0.34307697 -0.23887627  0.38694033 -0.00081491  0.06533455 -0.36077824
 -0.12021449 -0.2654265  -0.05108533  0.03771802  0.3638221   0.18383466
  0.05186323  0.21602182  0.21118106  0.0178922  -0.22234608 -0.12731184
  0.16176498 -0.09340081]
[ 0.06553958  0.29461974  0.24678944 -0.11275028 -0.01546113 -0.38629
 -0.2516743  -0.15789263  0.344761    0.05685378 -0.2206864  -0.04318444
 -0.17368148  0.20170654  0.3988333  -0.06045058 -0.20284203 -0.21677
 -0.07554539 -0.21555091]
[-0.22439508  0.1978237   0.43050194 -0.03018829  0.25658995  0.05200766
 -0.01897405 -0.11745424  0.20120662  0.17149317 -0.2952491   0.11364303
 -0.13047138 -0.13435341 -0.30645028 -0.12399601  0.22716711 -0.31103417
 -0.29097828 -0.07398126]
[-0.18449461 -0.25580084  0.15248396 -0.01088973 -0.03449625 -0.09576366
 -0.01113365  0.15969524 -0.11309988  0.12429071 -0.2004235   0.01027042
 -0.28807402  0.14661115  0.06917314  0.03074102  0.06850225  0.04147011
  0.25627166 -0.12481778]
[ 0.44579452  0.18535201  0.5837177  -0.22436778  0.24134184 -0.22726414
 -0.47602367  0.07135601  0.22105414  0.07380001 -0.01383015 -0.19473165
  0.3102491   0.00621508  0.18718629 -0.02322102 -0.00928053  0.5762698
  0.101799   -0.16959685]
[ 0.26800215 -0.06509997 -0.00935898  0.12995785 -0.0425456   0.22072531
  0.17884342  0.15774894 -0.15326424 -0.16708833  0.33817348 -0.12260726
  0.03626879 -0.24599528 -0.08091293  0.03608045 -0.21783438 -0.22627938
  0.02902695 -0.06356303]
[ 0.21231577  0.05943836 -0.41519672  0.03801969  0.17562555  0.09656455
  0.04065097  0.15016589  0.29193264 -0.2070928   0.34193248 -0.3897932
 -0.16009669  0.19583508  0.30474448 -0.33599046 -0.22530296 -0.23681377
  0.20636006 -0.00168324]
[ 0.00176336  0.16094941 -0.14568962  0.02920089 -0.12023985  0.12720515
  0.21704425  0.03405059  0.10784056  0.10070752  0.01618044 -0.13707465
  0.24783356 -0.33027774 -0.2548936  -0.1406285  -0.3919796   0.202174
 -0.43039864 -0.4710481 ]
[ 0.14879182 -0.21120112  0.26932403  0.02852943 -0.17341195  0.34363934
  0.30027458 -0.00463832  0.18815328 -0.10563383  0.20569652 -0.16189879
  0.34183043 -0.2149928  -0.03072243  0.0300793  -0.30523527  0.09051148
 -0.21152301  0.2038456 ]
[-0.4477808   0.31887195  0.258387    0.04880647 -0.00849371  0.27584487
  0.03386738  0.1383915  -0.01660106  0.01881426  0.21068986 -0.24466306
 -0.4826964   0.4092751   0.19443068  0.03566576  0.00530767 -0.16675821
  0.06085964 -0.26388255]
[-0.01602295  0.1591692  -0.5335672   0.20925184  0.04272078  0.41051638
 -0.4671324   0.63572913 -0.33652285  0.01967282 -0.37277532  0.6270861
 -0.23791613  0.03727559  0.0199833   0.09991048 -0.06598118  0.24299213
  0.03947757 -0.08405054]
[ 0.2985892  -0.23875478  0.33667827 -0.14395536  0.13154848  0.00968623
  0.02870268  0.25060368 -0.39235333 -0.31787822 -0.27846396  0.19594607
  0.26804474 -0.06514511 -0.23144212  0.16193172 -0.21170977  0.45787624
  0.22523431  0.28907064]
[ 0.07069248 -0.03734916 -0.34198537  0.4037693  -0.23870355  0.30499795
 -0.1548405  -0.12491154  0.13612106  0.23065671  0.04235408 -0.14300415
  0.14554529 -0.2640693   0.18150267  0.13321714  0.0116325   0.02097641
 -0.17577599 -0.15261175]
[-0.05715639 -0.29648185 -0.1563771   0.06535853 -0.25258422 -0.13085791
 -0.18866746  0.3005196   0.13443883  0.04579943  0.01067923  0.26050204
  0.07216085 -0.4838591  -0.30459502 -0.10475773  0.30057228 -0.3885979
  0.06949332  0.32886186]
[ 0.09771248 -0.23000087 -0.26286823  0.04607302  0.04065816 -0.39377862
 -0.40241873  0.13664411 -0.16858333 -0.0463064   0.07781941 -0.2513094
 -0.0522782   0.24102728  0.2698393   0.00946546 -0.07491913 -0.15623759
  0.18336077 -0.10006282]
[ 0.20908427  0.04888276 -0.12051854 -0.0693979   0.00080185  0.0994811
  0.14769258 -0.3862189  -0.05269291 -0.15595642  0.23020704  0.21873721
  0.14858702  0.08407064  0.11898591  0.30415913 -0.05867738 -0.23820744
  0.06886505 -0.36160997]
[ 0.4165724  -0.08455918  0.415289    0.1755543  -0.17462753 -0.5421332
 -0.45326477  0.16846925  0.17231148  0.03645078 -0.20723985 -0.25624046
  0.26503426  0.34332943 -0.14471792  0.02737522  0.00346048 -0.09320644
  0.11578432  0.13149221]
[-0.2930726   0.11876735  0.04373539  0.31569394  0.25632757 -0.13766173
 -0.0476672   0.00917933  0.2983615   0.07236859 -0.11650778  0.112494
 -0.17027299 -0.21775588  0.16462098  0.29038873 -0.08270155 -0.31255585
  0.22027364 -0.12265521]
[-0.19117057  0.1164609   0.09496951  0.08498915  0.036722   -0.04645034
 -0.37805453  0.20450649  0.3927294  -0.1700074  -0.08909129 -0.11049395
  0.14657322 -0.18109378 -0.31706175 -0.05393813 -0.20390181 -0.05888272
  0.2820954   0.1313648 ]
[-0.16065504  0.241609    0.21566747 -0.23740137  0.1924755   0.07616764
 -0.41386506  0.20401654  0.31147054  0.00433313  0.2500917   0.11325864
  0.2345163   0.4399566   0.11728659  0.03601855  0.0022069   0.39798316
 -0.20291084  0.22934356]
[-0.2948571  -0.14806612 -0.00500554  0.17862135 -0.03531645 -0.3592675
  0.01994235  0.11414454  0.48130476 -0.08734916 -0.02668072 -0.0296668
  0.25055844 -0.23255473 -0.4094304   0.06800865 -0.26982573  0.25439173
  0.12376459 -0.06150904]
[ 0.22078961 -0.35689545  0.06224227 -0.3135689   0.01098335  0.3360845
  0.30938098  0.05264782 -0.50566065 -0.07047712 -0.06030137  0.01380365
 -0.20899282 -0.14409181 -0.31601176  0.1209715  -0.06068645 -0.20256984
  0.1569023   0.24345042]
[ 0.42033255 -0.14600137  0.25686702 -0.01962501 -0.32790235 -0.33151317
 -0.09973224 -0.30301744 -0.16086785 -0.3025005   0.09610398 -0.31315157
 -0.22155397 -0.23055175 -0.16449025  0.112801    0.19635461 -0.05619555
  0.05204796  0.06727443]
[ 0.31954572  0.18542692 -0.17956954  0.13159062  0.00949388 -0.22601306
 -0.01696732  0.18054545 -0.31740347 -0.06764463 -0.25128737  0.10157288
 -0.19839215  0.2127357   0.35565186  0.10691649 -0.39123812  0.0126726
 -0.11195097  0.03021021]
[ 0.3215358   0.20166294 -0.27280024  0.07537298 -0.16041568  0.27763432
 -0.40777063  0.43244594  0.09475542  0.04918841 -0.14246841  0.07557818
  0.47939172 -0.22886117 -0.17791335 -0.01995553  0.15707266  0.26821944
 -0.27042937 -0.01070473]
[ 0.0791957  -0.22769019  0.2686851   0.01400144  0.20194337  0.19021375
  0.02833614 -0.05392275 -0.10576718  0.07444886  0.01722703 -0.15191647
  0.12927698  0.17815277  0.16105275 -0.13588408 -0.18673478  0.15115005
  0.1822678   0.07148276]
[-0.15843768  0.1281094   0.04330698 -0.01162666  0.03646596 -0.23332429
 -0.03777393 -0.12628862  0.1862515   0.24416922 -0.15065713 -0.05211749
  0.12522    -0.14852817  0.18666182 -0.11938775 -0.10220274  0.2443763
  0.00800266 -0.05130833]
[ 0.08938522  0.27109787  0.3384723   0.0221947   0.0650038  -0.16471529
  0.15172993  0.08333845 -0.05859825  0.30116197 -0.1484952   0.42890266
  0.21427123  0.25306273 -0.24371079 -0.01671191  0.03357783  0.16082865
  0.20182887 -0.1313185 ]
[-0.2507615  -0.33202836 -0.11641717 -0.27869642 -0.21746951  0.21860048
 -0.22632529 -0.26372343  0.2749839   0.04899852 -0.04143135 -0.50683194
 -0.24748042  0.15038389  0.3785085  -0.00436507 -0.20941088  0.29109013
  0.08742526  0.19795762]
[-0.1925858   0.00836252 -0.20949326 -0.01884703  0.05349945 -0.12352708
  0.07270381 -0.05673656  0.31292263  0.0113669   0.12833036 -0.28904414
 -0.03817194 -0.13923876 -0.19486696  0.15631755  0.31222916 -0.00444347
 -0.05148758 -0.03069902]
[ 0.06605639 -0.37424102 -0.37716272 -0.09426703  0.2930622   0.03533414
 -0.10232954 -0.20057638 -0.20320128 -0.20048061  0.20239702 -0.11478689
  0.4991267  -0.481807   -0.21209659 -0.1386782   0.14286943 -0.12949595
 -0.20064981 -0.11978067]
[-2.3960036e-01 -2.6909509e-01  4.2992333e-01  1.9596252e-01
 -1.8396513e-01 -1.4909825e-01  1.0992531e-01 -4.9038973e-01
 -2.7548987e-04 -1.7050415e-01 -6.1058145e-02  1.9466659e-01
  1.5074863e-01  2.6916711e-02 -3.7497586e-01 -2.6033562e-01
 -7.0492223e-02 -2.2980736e-01  3.4550436e-02  1.9803146e-01]
[ 0.18602721 -0.25789353 -0.18701847  0.15546706 -0.14208035 -0.30091888
 -0.21841286  0.2593143  -0.39969492  0.17083618 -0.11125447 -0.41808626
 -0.5607841   0.35774985  0.3711873  -0.12636793  0.1847984  -0.28130868
 -0.18511969 -0.19415636]
[-0.27032086 -0.11654621 -0.3189747   0.00698206  0.04764531 -0.08102615
  0.17847775 -0.37286302  0.16984509  0.27599502  0.15728544 -0.04441092
  0.50898945 -0.01886426 -0.44287294  0.11335906 -0.03820023  0.32856768
 -0.11698537  0.11789352]
[-0.25491455  0.04171433  0.19546284  0.03657529 -0.05781871 -0.11564127
 -0.01881287  0.1194144  -0.1251767   0.00123747 -0.11550069  0.01003163
 -0.23560527  0.03248905 -0.09710194 -0.01386584  0.07866688 -0.0399963
  0.06843818 -0.06547737]
layer 5 Activation
tanh
layer 6 Dense
20 1
[-0.22916706]
[0.01427725]
[-0.2500913]
[-0.00157436]
[0.00851308]
[0.12976728]
[0.13525772]
[0.08343308]
[-0.1562132]
[0.02043398]
[-0.13820215]
[-0.05093901]
[0.21138705]
[0.11592203]
[0.1713459]
[-0.00817502]
[0.06453292]
[-0.11877137]
[-0.0015947]
[-0.00619908]
[0.2263929]
