layers 7
layer 0 Dense
24 20
[-0.5006975604831657 -0.5665422353604981 -0.2007624371312509 -0.664362363474609 -0.12153341871388883 -1.1304379917083986 -0.3191586157972073 1.2093169226996754 0.8629061080153875 -0.005552697969039053 -0.06380978858488313 0.43411420014543545 -0.39566846860154625 -0.32890441400941284 -0.18376269268809453 -2.107610443976611 -0.9417444825998503 1.8412056912904866 -0.4125763813139829 -0.46689726828642086 ]
[0.5788032628105857 -0.21656272706620106 0.019390836482832192 -0.9697628020108968 -0.11829743928641975 0.05372323752708307 0.03070614851865697 0.2518888700918672 0.4063065168361498 0.6921778734406083 0.14618769713682944 -0.11017387051368328 -0.10847016965843177 0.16384035526807017 0.3700152365049449 -0.4668885602183086 -0.077402637572907 0.395415206021999 -0.2737377227564625 -0.35723933218663595 ]
[0.08135333108194022 -0.1848251204646083 0.15809191857643673 -1.3106776638847144 -0.7592045726929806 -0.5532200205926967 -0.09953756289189664 0.03336029052510641 -0.14439092815365354 0.34298081609600345 0.041302486262393516 0.016815408248699894 -0.18865998214368462 -0.17925694611547568 -0.312149958934071 -0.5441844491579966 -0.45445642805832825 0.5581253712025206 -0.3742611686739189 -0.4186416500772329 ]
[-0.1288076430581812 -0.5630732799558902 -0.10329119791687776 -0.5898427095033859 -0.15523558760827924 -0.5022399043600078 0.11135913678951476 1.117309823357413 0.1911351848756497 0.4861334593283489 -0.11141594180167887 0.5776306740125076 -0.43058907763713666 0.3648594355648831 0.08604647778468454 -1.0620092262608598 -0.6929339169358235 1.1320706323349454 -0.07878932754421153 -0.026803938066736817 ]
[-0.06645423951195348 -0.8530584261629773 -0.17385612892595478 0.14397046637768277 1.30200351441035 -1.0565688776645559 0.052881666675128884 0.10498226442504097 0.4781281591952255 0.039358463784974845 1.6333493308094906 -0.005346434046023619 -0.566788857655718 -0.660130652176957 -0.7316069300015724 -0.544647545013913 -0.6231119274520064 0.24841254912840832 -1.2152405837093914 -1.6308222582362406 ]
[-0.33525580028222385 0.13012466189481714 -0.24049806886667174 -0.25442842998002774 0.28605840289225914 0.33450676388177314 0.7035975309364864 0.6713213835802991 -0.40560976340000726 -0.1352417931357422 -0.9991008925281782 0.17682446024700874 -0.847931892006223 0.5408141114917351 -0.16618339718014172 -0.22180804080060262 -0.49077988030203457 -0.07747191290905407 -0.008868172020657232 -0.1375651487211062 ]
[-0.5895698158909027 0.05901545464220515 -0.45193671567902005 -0.2788217484172512 0.2878130208389978 -0.1688018189100578 0.17850706755797624 0.5061059247224545 0.14094644375077367 -0.3927818209093232 -0.8255057193709257 -0.2098791642966826 -0.8138447289958481 0.19879877333686724 0.1276677170669369 -0.5210479554931189 -0.38898697705382573 -0.0831469174563056 -0.22705213093877696 -0.16976281575916724 ]
[0.23696302044869427 1.0317872931292054 0.6541030275446772 1.4557924721517252 -0.5755661831388836 0.9144264140113172 -0.492635628923948 0.10184739330148977 -0.19599515969147202 -0.11371611869638254 -0.3099478768900759 0.02278285763776605 0.5890388272836173 -0.38095998665506237 0.4372636396165943 1.054229679820935 1.4073631884163342 -0.8227575552733154 1.3850067483443533 0.7152873588691017 ]
[-0.09765070851469487 -0.0516813130166799 0.6396596287626516 0.06610477637669904 1.1604511929776613 0.025521099102793127 -0.8355092932965719 0.6712566377659546 -0.032562329862961675 0.34414849418765836 0.7914711600349739 -0.4697045467048575 -0.004581243081639169 -0.7967546364525836 -0.040877371932458786 0.23023215831935312 -0.5842988292989373 0.10060636514755408 -0.9163346931627182 -0.8464058581610966 ]
[-0.22098001599609302 -0.4165936466520806 -0.6810682317066425 0.1274454877222812 -0.35322258565607145 -0.1917339830795429 0.09304065296272851 -0.3737132960491926 -0.6621396184687216 -0.9342258144029282 -0.6806512011320177 -1.508301910965406 0.10512099394528333 -0.078515604949012 -0.8373221880038895 -0.30167890567449995 0.32111092991608964 -0.07740687246174115 -0.10128483494191234 0.7288148028583346 ]
[-0.7388296789023535 -0.31094918055360576 0.13765257981737378 0.989725905182518 1.2653929529340266 -0.15085770161311926 0.39371995775167723 -1.0023393427944498 -0.8417015513502117 0.21507287304984762 -0.6710429328978967 -0.6564273929361506 -0.23108505841693835 1.0205118221738032 1.1428385372641614 0.3552116851712767 0.07728363970844086 0.2705133871374519 -0.2250712894272126 -0.7172179241882751 ]
[-0.24726085850578852 1.599287332551119 1.2346206997378155 -1.2431605149753453 0.5789683922923364 0.5893178170583071 -1.9683472501323156 1.80837590023745 0.17455483353451107 1.7319658813340517 1.4192689202715403 -1.8124830744399192 2.0204010936002472 0.6543427623565027 0.010669622627514308 2.5079730155920252 -2.0331241826804147 -2.3148229735176473 -3.093434660731997 1.0542901530764295 ]
[0.15523832814220317 2.1356252859814764 0.29725778871913006 -0.1591699871895899 -0.1446155185690753 0.19414153469883194 -0.14025302382045096 -0.06244973868201713 -0.3134252676831665 -0.6265988496582549 0.4427359549268179 -0.22246149158236445 -0.25575067808891644 -1.2773997432892985 -1.664507656819994 0.3435466220083257 0.8908822396782172 -0.38901038405875354 0.5757177140389549 0.8084214881761108 ]
[-0.591987530290308 -0.16889887368555045 0.05825750281011153 -0.3771017281486515 -0.5442607031253834 -0.2728213211286394 -0.4530750924953162 -0.895305798566415 -0.42087842615272375 -1.2094718803009743 0.3815227038984579 0.009215889231009562 0.7306316121568963 -0.08174111161348323 0.4920638899426028 0.40564562009983096 0.07002391183801715 -0.08266386675735081 -0.43394616995874724 1.0772945123918327 ]
[-0.4753582585714981 0.10686503684263382 -0.7841133787807936 -0.4260523859114698 1.1450236562731293 -0.05654254816837423 0.3126374644318569 1.099214682322979 -0.18475379657808927 -0.13906684874938394 -0.7765187471081684 0.3198565718048239 -0.4814231070047343 0.9038080318253534 0.2500350379200864 -0.11936078650694103 -0.3612345243638111 0.16175329857567583 -0.417514484613684 0.027914772070574693 ]
[0.3395109624830749 3.1880375943773127 1.3757147140512764 -1.7508769025870625 -1.3504284298151008 1.5029068672049066 -0.09867304919819012 -0.24637116378881618 -1.2775162390801227 -0.2659657954562902 -0.08073412527692253 -0.9518224041782922 0.6448817120640262 1.0925292307138725 -0.11188473233552941 2.1642919174468 0.8779852600032275 -2.2994921536078614 -0.040115671319277395 1.6272116084064774 ]
[-1.306456913210282 -0.4797924700434493 -1.5247285056942668 -0.1757865592638356 -0.3259553471895693 2.2429459512932604 0.012559108192130426 0.4911508736134619 1.4764388154332893 0.3971663096269718 -0.03160223393888892 -0.7314662253652867 1.9663802399621666 0.8846805166257511 0.020266788254792417 0.6587630652584445 -1.477607109837755 0.7854926906973058 -0.4634430325293892 -0.28207246639245565 ]
[4.039928095827205 1.9042907014492712 3.8626346490273535 0.3322540991283485 0.7328385616205118 0.24157771029620406 -2.792559898123738 1.182595327909116 4.750990366531521 -0.46090329467202723 2.8331315009091735 1.003329719347519 2.1239370690009833 1.250807138953744 4.885221854871296 0.8812946635277813 0.40476732218120487 -0.2528950596065013 -0.390058384177052 -7.180437259936022 ]
[3.037547721042099 0.5009632023565935 2.109969979680174 0.9015311046008293 -0.13865457268412515 0.04432615348597734 -0.63882800550491 0.9039183658363759 4.1663282571787414 -0.41790475659893184 -1.3735269646919084 0.2892573526961907 -0.0562006003473575 -3.7934454420819517 1.4535449467475132 -0.5854716205026561 -0.07964192423597727 -0.0008681592494810856 -0.27758299239863937 1.5956864920716587 ]
[-0.4857784211625145 -0.8582991339890386 0.012048221151314112 0.8773187602721977 0.29837135386537295 -0.5278263020655684 -0.21799706886403317 0.4628794613985275 0.2076907869845952 -1.5733555502903196 0.5051092001013241 0.8743047253680261 -0.6570815441719744 -1.1216767856906382 0.38891871921908916 -1.7220002912400185 0.5259127586556632 1.5861581422599893 2.0291606330475753 0.015071877929559054 ]
[0.8022516657994073 -0.6284444419658208 0.7738524178919938 1.8889084430685221 1.2701099297689722 -2.017501095107972 0.49698753198683804 -0.41289693676548045 -1.7605698439264998 -0.10879617424157992 0.9112485325545341 0.8857080429841526 -1.610793468385717 -0.40219053523418147 -0.39518751913136685 -1.1100113960268414 1.5144613086734942 0.1782522757809447 0.7773655815370759 -0.35415408548533495 ]
[-0.9320396708145134 0.20165700938760878 -1.3326741144475223 -0.34471921752048 0.6373543803304845 0.39363827766047116 3.637012517278971 2.408837325247341 0.2350620686348321 8.141324037025528 -1.3206025260648042 3.9305062738559484 -5.966322464833588 -0.39460046742119426 -1.7856216617744765 0.6442326905856928 -0.40165186904223515 0.17733791669907198 0.5779568721280958 1.0619277196602543 ]
[-0.7377994287846232 -0.5162568489567401 0.19106073691567152 0.07863863697009518 -6.879460181356414 -0.4451882680405115 -1.0143270142398249 -0.5263321592265857 -0.4650911052748765 0.6423658155503489 2.982760178599051 -0.6160233100352931 1.2647779979682665 1.1485707860319623 -2.092636816673389 -0.11453207986801983 0.2878494023065602 0.06010736286828582 0.5341553054189906 -0.6128726800174822 ]
[-0.015524745267419943 -1.3977708612121111 -1.3483959605965274 1.1398636853936897 0.0544895047796622 0.34351162613455094 1.1901167200193745 0.5780835267868334 0.6565209622939185 0.7387408203302307 -1.583584878890111 0.8884810968706963 0.37438535252826094 0.1838843799059284 0.11244270928247078 0.6640932265175895 0.5238573130694852 1.6765915412246144 1.2702136566886728 -0.8734156396997091 ]
[ 0.1439346073630696 -0.35855410280864375 -0.11270700544119915 -0.7911742608687341 -0.15134581591892546 -0.2523801973084368 0.20264746606546377 0.21073313320850218 0.202181547635334 0.13064955496342645 -0.3867871668322179 0.14665672403235244 -0.20790987251857482 0.24748363955466937 0.016282898091370214 -0.44173526478847064 -0.47212070508970416 0.25796265744192515 -0.3509021911841249 -0.11766825088349896 ]
layer 1 Activation
tanh
layer 2 Dense
20 40
[0.4566255955373291 0.44770946960666375 0.8888976835782951 0.27534368624497596 1.9988143975410377 -0.4195736564888207 0.1541442894778441 -0.5207661052522448 -1.1072682081320753 -0.5690872246654178 -0.6164973790995754 0.33034962725922373 -0.3128484591355432 0.3948992685993059 2.5629988780473236 1.959347152227846 0.333255748201852 -0.4435159171494861 1.0914972288421476 0.06685083918389222 -0.8428455718361526 -0.6771985768491768 0.20695304062675393 0.3427439169232434 -0.4367510503344513 -0.16452260761917836 0.02828582427881019 0.9250297749676692 -0.18593674578905858 0.32061366354488346 0.4258803541854282 -0.8196394338894895 -0.5545429116700707 0.5787553450898246 0.810339024807603 -0.11257733908397703 0.29526914599567233 -0.006464857013850722 0.06266091927285526 -0.8069056865819035 ]
[1.788325452401892 0.6757922075484647 0.997510157154319 -0.2920175519377339 -0.23515047227659935 0.2810121014719461 0.3079411819916532 0.26430813349552607 -0.5530785071910829 -1.510681728854267 0.044866901613489496 0.029822731424292308 0.6005758033938006 0.27384944171001 -0.28207617987574285 -0.15400399986868898 1.1497975664624338 -1.005248725815227 1.4329810066712134 -0.009169290930675941 1.1308262746013285 -1.5210654341206753 -0.6350016152500622 -0.24785585594168963 -0.7383387466724256 -1.8684649617205022 1.5566279964812693 1.7987534409203543 -0.3384557042682888 1.7615521728185128 -0.8249071404345198 -1.058454009532976 -0.27116065993559646 0.10338693727658926 2.350045698698922 0.34317244221454357 0.45761243263005763 0.05444561927604059 -0.5510909608206246 -0.577674357955941 ]
[0.773068932222297 -0.43778160249169007 0.0902105943866634 -0.16081462340756938 1.4031629229557574 0.002621497421800372 -0.3551299425637053 0.3417788554552138 -0.24049664285108174 -0.269042431783684 0.36366336594291676 0.8359685067063054 0.3220854870056667 0.7968072767972093 1.641324245779856 0.7758304716148731 1.314763251343807 -0.4126675686427631 1.2472165493482636 0.7194420326353874 -1.0419935457322889 0.009033070968102139 0.16469430899562096 0.21813977125869807 1.078058433202162 -0.45295782897837783 0.42728079520377316 1.6346007358517634 0.5037375872120337 0.5592527833934081 0.6490955044189378 -0.71955630518618 0.35302465263989186 0.7334969514919811 0.8297808769945679 0.44430261212135425 0.13876612256171827 0.6291660450704964 -0.8128986570064402 -0.36369061237157746 ]
[-0.7561827191093649 -0.024772894084839108 0.18586996472616166 -0.706200364259278 0.30246846268743915 1.055914495955786 0.739834678790665 -0.4722598189917816 -0.9374040308040975 0.12574920227835903 -0.586014811404779 -0.941643604798702 -1.131067462829896 -0.71855981841383 0.12478395007624499 -0.3516208669999701 1.3584167681247457 -1.1645782162296787 0.32910203889459605 1.786726918232398 0.5826537265080282 -0.7517649403015589 -0.5588107798678895 -0.20329252740159112 -0.2873819686838765 -0.29953036725579824 0.006099176110314254 -0.2639678488363645 -1.4984761087330878 0.34107482710643916 -1.121506536074928 -0.18053942778967538 1.4571286928875746 -0.09102440617451477 -0.1108099170930326 0.7110738228526774 1.8132441814285734 -0.714967706062928 1.520705446668634 -0.1782050478145618 ]
[0.7360192789951213 -0.5746981831328409 -1.6800622751401784 -0.3352497255059483 0.6654452293000603 0.17564345329927153 0.05867970580168923 -0.18189711015381144 -0.6640079062446672 -0.236139057847041 0.2948426241752957 0.2646463428747717 0.29118999401327206 0.6808654562008396 -0.2924191645203757 -0.3326702568083236 0.21402170685937616 -0.2314951050121298 -1.5233721953540647 0.37623369129746426 0.29316145969265334 0.6479348336946655 0.09523580888442362 -1.5813105705309336 0.8808446525389498 -0.09017425930248428 -0.19515801234597444 -0.6637247280429756 1.0579639337890634 0.2886210672757868 -0.41948187301953077 -0.24351044634757432 -0.369561357262156 -0.5599375431335335 -0.12518299931875201 -1.3952931564617268 -0.29271061801323317 -0.5964541348579395 0.2732016269116897 -1.4250621607843084 ]
[-0.07700161142087093 -0.03479534896689585 0.6219744215479895 -0.2998069595455038 -0.41284688276542636 0.4972667258945581 1.0770150576962723 0.1633668658386256 0.16665300889858842 0.34511445272527574 0.10799976085633928 -1.3147482816406717 -0.36250886038570057 -1.6359554069328408 -0.2706124998280668 0.14478704103827983 -0.40902136154627805 0.025074114707996985 0.40600450196299304 0.5889569126609044 1.6917967346206144 -0.2595602763221231 -0.6086085125948538 0.321931062905021 -0.6089428577680593 -0.9255377603123827 0.504734991383428 -0.3111965778699044 -1.3877144232188998 0.24079194350011457 -0.16759664023696827 -0.5330948936062593 0.6463599217837505 1.903075836935417 0.8664860600908925 1.116560315351427 -0.012802204119331723 -2.061928009801811 -0.27258031785800096 -0.4282303785214586 ]
[-0.8123779456668798 0.14690590875644333 0.07778300030222737 -0.9649502642179221 -0.020712300173807978 0.30545245816173655 0.5340693168135255 -0.5039373869987525 0.25091548557358306 0.43815911505653005 0.14163661494263538 0.12199315259440704 -0.9893917344337069 -0.6622945458432424 -0.22982375856326612 -0.4957182507704247 -0.14686757006808074 -0.36139992468610294 -0.6201380442117135 -0.21719200035976016 0.6716119912239387 -0.9683070259523833 0.16856513614380972 0.013858897844604163 -1.2068807263328865 -0.7782884275745794 -0.27989977883251876 -0.9649743223963049 0.7247741222875486 0.4567008449577506 0.2457003862775692 -0.18937568998693025 0.009137526288284322 0.2568079565555928 -0.4053109447818842 -0.7286041846216075 -0.2307043626387182 -0.10749608953969558 0.2124836775787386 -0.833890368259957 ]
[1.2068342147255862 1.1221156853266652 0.5031356559398638 0.8055163121347783 0.1561445730279373 0.34730633174886244 -0.42970546259492104 -0.3038981794308882 -0.7329164084854163 -0.4136592743484837 0.41956955080730135 -0.3186459442369243 0.23606419909824264 0.5557036885194325 -0.29589744652917566 -0.10803859971137116 -0.03713973999793482 0.337397528054748 0.6081054326541759 -0.6826650423416403 0.3575242655736832 0.3497751132881694 0.5506458851448466 -1.0776184298921145 -0.6191750746541042 -0.13171319541648108 -0.40535981428131806 -0.6350362448099995 -0.2786090198305543 -0.31156366321907053 -0.09670700096377106 -1.1399827840421828 -0.11260176723860597 -0.1119852497603387 0.21970705037341728 -0.5760108160175393 -0.36474046706100915 0.33063510317460487 0.2324474751952667 -1.1689686198320048 ]
[2.0454087017317946 0.3644885611992417 0.360853550069248 1.03263035146661 2.379799409007075 -0.3356342867674017 0.6729664853813502 -0.01361801559327295 1.0958046938732953 -0.7725498422950444 -0.49571843156392037 -0.5683984814823316 -1.55599219676298 0.6490319205567388 1.770072597853253 3.248988844912798 -1.40468691835804 1.3089767272354027 1.196563618547031 -0.2579728335368752 -0.0018753113766848154 0.9056972615236745 0.2626523736277622 0.27006424617449254 0.341153948244436 0.4142758848339091 -0.8131058095564655 0.8168759089493813 -0.18696046328887678 -0.7428970352043623 -0.4927286657816984 -1.578716742413806 -0.5724496882705333 0.49876407928493854 0.6499288038182317 0.926518876020927 -0.23475225582362527 -0.9076709924562778 -0.3471101337703862 -2.1099525368634424 ]
[-1.2316635056547292 2.4203334613544456 2.224045454755547 0.2430672159706581 -0.12189499791526257 -0.348001300040019 0.32447749134980064 0.5971475591274192 -8.092124289788873e-05 -0.035627872212087706 0.6801454618842713 0.040134318773831196 -0.5900027388544209 0.6900694220492571 0.3200746970664768 -0.7601338715748347 -0.9392771822468073 0.8950150564406169 -0.40820559934894374 -1.4130515565470367 0.9661033907457944 0.8655398878417796 0.1800061808715736 -2.3362954586027604 -1.8436078911692901 -0.5690254893028671 -0.07814065474260487 -0.142450805402658 0.22355777955210587 0.40977362926862393 -0.6198755373504696 1.5385820346535721 -1.449597359646161 -0.7069310295774194 0.8412200026211076 -1.543003331215565 -1.2287851254704245 -0.3218511501436019 -1.3161448512336353 -1.0254432451331237 ]
[1.0186597631457215 -0.6480606226820026 -0.615762726600953 0.38610208816898245 0.6801827847161575 0.0022705923900222793 -0.009461397906381924 1.9092850656288876 0.70319126921497 0.23582386134426223 0.0813659224002788 1.1518344603043589 0.7133952725017331 1.1427244397494585 -0.25070550094396543 -0.27462766174612957 0.7603075787171819 -0.13405934754853313 -0.08817215518580691 -0.5542528440850042 -0.25929174680358374 -0.38842387138467294 -0.722358959166707 -1.209489090606513 1.7079032055498031 0.4381415656564958 0.5349724927094013 1.0660346858630996 1.4516933564251524 1.352407243801894 0.16798591690565345 1.400867641879573 -0.4167787958674923 -0.7805748124148729 0.403348611802825 -0.2680255110739161 -0.46839017519472254 0.3194135473217651 -0.8047034966632689 0.6469617085740287 ]
[0.7183722245589869 1.4717486999267766 1.6104018196837575 -0.09816353031649917 -0.09987336757495191 0.8649797211834002 -0.19007113363479092 0.3974461119465296 -0.3279604093221508 -0.6386369205610846 1.1206392026979404 -0.2177044924897199 -0.5509748846944758 -0.2900599076034494 0.07095810352519182 -0.444658072123686 0.1562309410383697 -0.46033652540367836 0.3093389380146435 0.3325828286332553 -0.8422362486403214 0.23970437476747447 -0.5455530478419652 -1.4690241714918617 -0.4428087650752822 0.3347005432045531 -0.17815707039596212 -1.3048581703030722 -0.3001172266225155 -0.0005042956012937727 -0.31519757346848426 -1.0834066874966422 0.4409075752834258 0.2795522163137152 -0.34225225047500857 0.3429572894359042 0.6374383281669719 0.17416683787262718 0.27178107058895257 -1.815674350431252 ]
[0.7632655149242354 -1.896711446568414 -1.4287845406879143 0.6265156415428723 0.09776764713929917 -0.4131018678559462 1.0939023628143654 1.5206464232748949 1.0727662771570665 -0.08678640803240965 -0.39424942358692966 -0.9351796087499297 0.7696290679325754 -0.19138594781785526 0.07138217158186067 1.482789605501884 -1.9311935596539858 1.6997730163347842 0.23396932115894986 -0.6284851911763832 1.4462721032257766 1.25764113547748 -0.8421018099161206 1.810336128123052 1.744831313667698 -0.02161305124339463 0.6597698350388541 1.9160070736370693 -0.6120748604774857 -0.6334019972941108 -1.573172340349457 0.8519333712595716 -0.010937450760579203 -0.24889779312417784 0.9217532280263806 1.8261736583260109 -0.6891373540915321 -0.8723487538339543 -1.1155131368811018 0.9752577591602448 ]
[-0.8796232920533332 0.43598861350224966 0.15119416076001574 -0.3606336627269968 -1.523509185316893 -1.163678356861593 -0.27618100772201926 0.4420439953076681 -0.37414057623745434 0.006875307291404724 1.3427946595396822 0.017696234343129717 0.5503983554236571 -0.5721575681996699 0.3861382494574604 -0.17072797868062695 -0.3560646122465393 0.04563806828316415 0.5167000522066253 -0.718745764350118 -0.2289104999928926 0.5078849336539445 0.4335637025420435 0.485991806860334 -0.8761827968576702 -0.13766143666717312 0.23387704188459488 0.14753712501895197 -0.11278851090330003 -0.5559997261600182 0.06768648789942269 0.2469474117917537 -0.43153530041946375 0.7385396129846941 0.09067117264476648 0.6538635695588242 -0.3148287855543131 0.048948444397657935 -0.6388629361708131 1.4376387769816743 ]
[-0.33783538084285103 0.9707749829562152 0.011963770488561854 0.6958997608507768 0.20324473468637272 -0.5494083443217151 -0.17129270950010103 -0.1906295703350525 0.5718666865034855 -0.5066690843734435 -0.2509316105537935 -1.2029712850239445 0.6116392911177516 -0.5770709941069382 0.3180863001008622 0.9231658627483766 -0.4163364355071845 0.005353376969612519 1.754198648767428 0.3845854005653435 -0.25777470008569686 0.4060475957658038 0.0528211117968432 0.22195238338680767 -0.10294820485969265 -0.06386232467828556 -0.013262566722738903 1.0784972677831952 -0.8725109766611673 -0.9299521437876963 -0.32712981457447304 -0.3903529023660735 0.4766337522288166 0.28863257811183723 1.0929792912478848 1.7478301649919914 0.3019542574268727 0.14838242281037994 0.43975780273511184 0.8144710551749481 ]
[-0.8857909445097683 0.2510870166040508 0.7071583454336459 -0.35303896378429755 0.23338218339289782 0.5659156974636572 1.3129505356994926 1.641459721652438 -0.13441834111795825 -0.19744526886497024 -0.23340676315300513 -1.358405079829153 0.5321237761660528 -1.2347761907712234 0.12499563716192354 -0.5588935096843178 0.10937391837580969 -0.10965414780172464 0.056213033941456554 0.7329145292802984 2.2321891201083295 -0.6407704583599354 -0.9524183963981523 -0.31436643487508054 -0.761972645870097 -1.069290273614133 1.324441507260036 1.2780799334023585 -1.1673612131690483 0.7880663677017347 -2.0350805006043218 1.5651624101288433 0.545957364333354 -0.23183813515318852 1.542122387135126 0.9918922058839459 0.26872978248247603 -1.0800989417707096 -0.3204753968992548 -0.8077215316052833 ]
[-1.3277456781241588 0.10235181622865469 0.2891225881847313 -1.3659931141586648 0.3166508659859119 0.9042490915772027 0.770491682522854 0.4390244470959089 -2.180578631614979 0.4238261735323202 -0.27065671172214273 -0.8404713797497433 -0.3852415519978134 -1.3730006214155612 0.6334773849212352 -0.3158403941376662 1.5523466758163782 -1.7002186962436086 0.41304845199962126 1.7884179641262834 0.3744090810694391 -1.8645284685256156 -1.1608895958734529 0.6166976631050602 -0.21354265131764322 -0.4466330115107994 1.322757633212708 0.5868909254984204 -0.8158672237437444 1.1848926055820443 -0.7192916894031752 0.4531022791183664 1.6423804611209072 0.7271235650335107 0.6172743104184252 1.0205584908578382 1.6263320863542692 -0.780424769349323 1.2699595818355824 0.35823651707590876 ]
[1.2247988255223428 -0.373777002502407 0.033216100307705373 0.6621432823634607 -0.8315070261839969 -0.29373414353799254 -1.484385393578791 0.40028619964474704 0.9923385358401563 0.026750895201396292 -0.0036534298693675048 0.08564341947559964 -0.4789140898368393 0.07446263414331684 -0.08862934919530217 0.28746118549728317 -1.627458737967623 1.1129075088012266 -0.09289550999408248 -0.6461330890042042 -1.2685075896499003 0.5278540585253655 0.7658980528082364 0.06120409080294289 1.1410696649567653 2.5618972736396013 -2.8689778287405105 -1.251507583596464 0.31530276320099077 -2.396241310163351 0.4049957319309648 -0.9651144832164992 -0.759201024165792 -0.16213223572951965 -2.41761806707687 -0.516534947767317 -0.37073423643677805 0.22482662715495855 0.26840670721913623 -0.06368557594701119 ]
[-1.3541361143739874 0.7238158121976394 0.8117288534290864 -0.8155397891969118 -0.5057983304007283 0.4482061020719026 0.9029655393117425 0.26356810397124103 -0.741598345941223 0.8203461138136268 0.08511963030174864 -1.1356291165095371 -1.1185925527720268 -1.1513725196535294 0.3817085710052624 -0.25531741872122976 0.6403330608785315 -0.41070336638021343 -0.25659150822487153 0.3068052460595949 0.7318062932276612 -1.3219862359016188 -1.1416517003768551 0.34392093775105864 -1.0742865599015674 -0.6578401764139623 -0.150196588682699 -0.6708024052209943 -1.359726052767903 0.4998085426250186 -1.0880946252006962 -0.0676539411238636 0.7331068453996695 0.9939785921984304 -0.08882772366918602 0.47733113418059653 1.094529757157198 -1.5363220515000977 0.09621594954739993 -0.46789860410458123 ]
[-0.22674328947777148 0.2094562451929882 0.39600974603685996 -0.03866435912735163 -1.1577228030893159 -0.01341799812009389 0.6695507077724481 -1.8624096101921301 -0.6485799137513285 -0.5230841690035903 0.09828903106145398 -0.3697966271861699 -0.46930586114672895 -0.1845517455720933 -0.09572370475941379 -0.5449322080175945 -0.22711294613303434 0.03498290186025704 0.41518152962231203 -0.5066286703177648 -0.044202063778525286 0.07524645078059555 0.38708714619003276 0.6401956481856586 -1.013484117832814 -1.5622476340214877 1.729803632819573 0.24602196372722762 0.05694992950495837 0.9894962793471815 -1.4260838063383037 0.7955760493322033 -0.5175199051784353 0.14142363925217347 1.058703233045762 -0.30447704248508467 -1.0755360617762857 -0.645981910033389 -0.7400720354018211 0.4785290487274358 ]
[ 0.03133828153027987 0.8056822951879962 0.42825096270379304 0.5792115405896926 -0.38100254764085867 -1.3359281884220477 -1.1836020371378049 -0.33874507726357694 0.5848524527518217 -0.25416219630440856 0.6482841018234918 0.7048362446678262 0.4237901954276183 0.5552695982760368 0.513801129171102 0.15100710094302938 -0.4568513418567453 0.4598073674831364 0.5750544192865901 -0.8265348588112267 -0.758496003307227 0.4985432565473292 0.9639027073941193 0.2158230744902801 -0.275185723456923 0.38491391046904316 -0.32612807941507466 0.0005209166626003497 0.33708967065025636 -0.6795656182863711 0.9785928389156168 -0.03660322674121433 -0.6397177584431313 0.21473171324844656 -0.10932633580401234 -0.004493472578041099 -0.5436218144865852 1.1180837742381085 -0.20373689128573028 0.7324850262968075 ]
layer 3 Activation
tanh
layer 4 Dense
40 20
[-1.056269902958561 1.0643388046951372 1.0526060189874178 -0.2029232051525217 0.007451183277508089 -0.11734721850235152 0.08222783969589359 -0.5395005343737359 0.15568044031708153 -1.1939996280402387 -0.7605124700793345 -0.037452796932806155 0.15669146850159502 -0.5320622368088909 -0.6996189393555199 0.827703062463068 1.1407045887493783 -1.6697225821531247 0.06895634562539714 1.2953028174052303 ]
[0.1544476341911073 0.026036134443684186 -0.5721235947592711 0.04050508382505923 0.0970889666446446 0.1900655178917094 -0.5223498752463255 0.42873412516266096 0.08194877713092912 0.4340281519298637 -0.1075690897225613 -1.0405509239862747 -0.5267870884899427 -0.30876145740677646 1.1016501472696327 -0.7826365736750724 -1.0268573550664244 0.5719954139969557 -0.01923120000040101 0.08283334657551975 ]
[0.43819755527799154 -0.31497333140603273 -1.442108983858066 0.3709811518214436 -0.10371901798827383 -0.0758898269727015 -0.4212562670106076 -0.14732137074045148 -0.0216983910414383 0.8308989494529367 -0.27143633124836447 -1.3131703628010614 -0.28526053906209986 -0.14150530916467435 1.3588404134641994 -0.6582583308626854 -0.3342750091079796 0.5705252489233391 0.0671364261456937 0.07719702161339133 ]
[-0.14749358123566284 -0.014836852189266416 -0.30911762153018535 0.621322846036223 -0.2679621377887215 0.10308887576694867 -0.8926692306664535 0.7716945059940379 0.40784236131480767 -0.366871967736443 0.8727687886101713 -1.0847264756665236 -0.6888908197457508 -0.1801587348514867 -0.11590888549696718 0.179075662114379 -0.004768678947516251 0.3175577090765184 -0.5137024857232408 -0.14104552107422014 ]
[-0.7706112868427677 0.06576959849436313 1.1920235612497032 0.13418276392507247 -1.3436727227469074 -1.5882828458104112 0.21483683214185498 -0.3118624524734349 0.057022248292014535 -0.28618127832792406 0.23157118391048193 -0.050846148167496864 -0.4777260830192841 -0.3341598434015765 -0.0180761960476792 0.6209910894097612 0.13250930243379164 -0.5140419798758159 -0.10585870956525213 0.9024089236102714 ]
[0.21481430183304662 -0.5369752138292161 -0.15338226820183606 -0.9168430336903026 0.8894086465125373 -1.0248213002278768 0.9908645221650677 -1.30418245384582 -0.37555860148538556 -0.09954055700527957 -1.428465582691305 0.6773922055729313 1.0551355240043554 0.29234795810383335 -0.2142323631284964 0.15033363905757208 -0.15930547551450627 -0.46248836798981074 0.7506021536789822 -0.2630362687530566 ]
[-0.00920813259588969 -0.4131620618065304 -0.18378894820748912 -0.6827105480467455 0.4579452619707594 -0.37408019961971145 0.7007118979030431 -0.5017716931701592 -0.5526934403904421 0.21782570498967854 -0.4010188546057753 1.1583869666486737 0.7513533207427534 0.4780372745680133 -0.15370909340922878 -0.42809185487260437 -0.45216257366867785 0.17339665668454798 0.7247261939437143 -0.3365341981061064 ]
[-0.7547410871261667 0.5462860126310913 0.3060320484836649 -0.32427742602730664 0.0870674062638247 0.048559040412817084 0.8884525144745719 -0.6841290028952872 0.22482729043469266 -0.28787184373338587 -0.3331488608784309 0.6541894970688386 1.1230483204274158 -0.18787854245340987 -0.37041883409094734 0.6152728512819554 0.6694400900462093 -0.5392560411200291 0.4054678016822375 0.16713523849167347 ]
[-0.8774532376857923 0.07205546291871051 1.0426925068305217 -0.08634304430275845 0.49709343484614477 -0.8955416013498434 -0.7269212204203179 0.3584650858989408 0.40625071595350365 -0.3090503818684335 -0.18034742856948316 -0.4403825310343831 -0.10402661565439365 -0.018177023276787434 -1.2761050138995635 0.5803646529516207 0.526300843619038 -1.315088750273763 -0.2189892626261774 0.8720396170889588 ]
[-0.21239562765031123 0.02219117406191619 -0.35967256168705014 -0.03161952318723894 0.14898174354272348 0.1355444878759811 -0.02268485856294197 -0.24906081678918476 -0.09350293472777539 -0.26230192851731093 -0.3515030126462324 0.12944194134441683 0.11466254800677422 -0.3758090664781749 -0.037556903876749405 0.03479569596181637 0.24453740455126877 0.3999378005743307 0.37396732332630955 -0.015596019808899974 ]
[0.24432579106418198 0.26303523969800385 -0.018750331212097383 0.5700168785357332 -0.011331823684401407 0.12929841517231636 -0.09744834704922498 0.6625823091247773 0.03586924742765871 -0.096851075752953 0.17985279352910774 -0.7506825473946336 -0.43194798266261714 0.03293591806649434 0.27313106289962646 0.19476705196966493 0.08620246931336546 0.027448101780296833 -0.6059347314413737 0.37996081426169354 ]
[-0.429673116452676 0.616719858020335 0.3415490104195759 0.22361899657100465 0.36123379139775996 0.13151666748440768 -0.09375159147124151 0.07348257878475538 0.49006582531667603 -1.0058403740606405 0.34265379152334163 0.17386633063852303 -0.3416404204767351 0.25106538437991344 -0.30203033813266117 0.22757988242635882 0.26757583391050105 -0.8754198491680528 0.03288563337359933 1.011872375563486 ]
[-0.10127173426291987 0.3037685015693096 0.3043617455894479 0.09894655283458179 0.1424406873087544 0.11865223024407197 0.2799654759561328 0.4118831045803198 0.610508045293031 -0.5759456537574648 0.517745082193587 -0.5281991093019515 -0.33932123363772054 0.05062339522657821 0.1641439796624466 0.511290217844572 -0.02806106167564033 -0.4525529077589624 -0.250657550059819 0.8573916113426462 ]
[-0.2534633014289281 1.3633915826440979 0.5930336589979791 0.1220883348040551 0.49850959008689083 -0.8412546198882023 -0.6192822972164707 0.6754451954852405 1.007565007100344 -0.5615158129950001 -0.02803097801797744 -0.7733568418362903 -0.2669977625201602 -0.8876859162366206 -0.18094257449445733 0.39772167728775293 0.6339541349097687 -0.8418941445711593 -0.17546396739249462 1.5574604334315207 ]
[0.31061460976231936 -0.07204844596459511 -0.22921349401645993 0.38657334513341596 -0.7407955488756325 -0.6499715152898649 -0.4032795402553532 0.20311161333824457 -0.08810307646118659 0.03271216962785315 0.09479052072197483 0.6326545859890418 -0.4971319026551499 -0.4820490544274119 0.0012114244941749193 -1.0011085302641685 -0.07582665448708682 0.4815256622802677 -0.28867966166978853 -0.17791684244943015 ]
[-1.161704634925723 -0.0021124472465928576 0.525986153611988 -0.549467064207722 -0.23761822128911014 -0.3202020209686726 0.006507215920929429 0.4974128139323619 -0.14240337052218044 -0.8604678779787113 0.17327201886409394 0.47313530500814155 0.4906304887852661 -0.13881339505544166 -0.22203989735149324 0.11433028710147258 0.6694832858324974 -0.4623920083222141 0.6216440178526962 0.04072568052666754 ]
[1.3000510607260767 -0.15737340279567114 -1.875481353865564 0.009451042208296971 -0.4024455421855125 0.1767413195743708 0.16358503807840896 -0.20994680866474674 -1.4181454436901764 1.4650663452973387 -0.4225132263372226 1.2762121837245817 0.3111850876193974 1.30670216532289 1.9641647998915177 -1.5266624250467309 -1.749883660070297 1.4131622439085283 0.13960587106770542 -1.1941712295005622 ]
[-0.6781661393680579 0.5628048038215476 1.478959560534848 0.47795744803017454 0.057566157602001594 -0.3858412088555381 -0.743526506741027 0.36285368553369096 0.7857227247132444 -0.642695171052663 0.48134883799058403 -1.460172518063575 -0.4106670767779118 -0.33071821133310036 -0.6339431341739551 0.6883723590442608 0.5229895264687253 -1.0167081928545012 -0.4857208257691193 0.7719872041028537 ]
[0.5129059416749038 -1.0747039825697158 -1.0121866703638842 0.163581267511158 -0.32702480855461713 -0.24790773880246783 -0.2544890446445047 0.5566876490917644 0.6099648159632302 0.386714358072174 0.592665209764739 -0.13991125584315992 -0.012018634111519402 0.7112812977737709 1.0384153480764715 -0.5827973983872119 -0.9289470629167954 1.1132416800020275 -0.46295502555660284 -0.6559049652077295 ]
[0.8246185392402864 -0.8704873126785164 -0.4615770902741804 -0.46837593106855674 0.10265883356765622 -0.31557825960829566 0.3351769913214706 -0.6188722741626428 -0.6992305936471679 0.5300949286424524 -0.8938834388988321 0.17730319664558641 0.502230334439589 -0.03601512345704764 0.12943552392230348 -0.6070068487275321 -0.6639348737746158 0.9861790498973829 0.48653841373887297 -0.9236742024290632 ]
[0.7635473493944533 -1.3552682707141364 0.10347683173457914 -0.21265786049609642 -0.5025027103136414 0.040798045595673224 0.18600238546400294 -0.7345061341985988 -0.4176985554384914 1.5683880198721458 -0.5704987601647074 0.15174208801067765 0.7049088777666528 0.9658965849598848 0.7886850055161302 -0.7015766730166919 -0.5396492772466476 0.7722057578571552 0.46493814552877166 -1.8919102044763734 ]
[-0.10233612961221271 0.8020257955397709 1.3654137501189159 -0.09244963775369175 0.17259607435108648 -0.13738236713676757 -0.44224128615568653 0.6743468946559975 1.858308813478968 -1.0818944370244437 0.027239038154857093 -1.2857194897492266 -0.7083133182070178 -0.18543912567596738 -0.6522832801525963 0.4788918835967106 0.8428071758125701 -0.6841641931345678 0.17127665984060939 1.1423567696443016 ]
[0.30972386349105474 0.2476727951144672 -0.07274009874192823 0.4816012261530659 -0.6156638140023796 0.685873929563947 -0.9040663979458763 0.7977890495493577 0.002987039996933061 -0.05852912779504963 0.5636424577454588 -1.0694681664084966 -1.059494401197085 -0.6707624741765226 -0.024731431332493083 0.4157094369804963 -0.10369514424459537 -0.1623012950862907 -0.7509894144392806 0.3227016518895895 ]
[0.33032261343634356 -1.0749761562169224 -0.44345758731689133 0.45758138832230727 -0.14968333754085864 -0.006852701091734472 0.025105489460879968 1.2751052194427088 -1.2473000680386155 0.45062115685498866 0.6809732541318292 0.514896631447121 -0.20495800955367757 -0.13308730117685239 1.4278417545304232 -1.55685461546746 -0.5053433586826888 1.060115179414004 -0.7853013065654835 -1.441554927720775 ]
[-1.045731222758673 0.16809799373239778 1.958019065224009 -0.09136252662532154 0.3825956471764152 0.4383316117135114 0.920229840733937 -0.16872386355380678 -0.7238426617157809 -1.276043255282023 -0.05009754453281728 1.1928457760298714 -0.426109397023817 -1.3718598013258014 -1.1034168535505067 1.3636883946942417 1.2913737636260634 -2.2562423535206073 -0.01440069161720844 0.8633223161716845 ]
[-0.8337914330988262 0.5811189125414057 -0.4139092922193583 0.40614432561257685 0.3841211494864837 -0.11974193314649098 -0.011133544578857013 0.011902482148894077 -0.19443629994517078 -0.5559385508079239 0.37248828980984944 -0.18480925462046788 -0.24093630133083827 -1.1215357452532562 -0.9049910328871271 0.11881449183680284 0.8933385061213214 -0.252460537337487 -0.21791736204494905 -0.018342463469375344 ]
[0.5831182370094817 -0.5757819926699863 -0.46818402425383887 -0.14626018395014403 -0.13789826049727308 0.19079344464069764 0.42905950448053926 0.014807698177460606 0.2590551322050324 0.46785009344944684 0.06264852473360406 1.1617928396395942 0.23024819659853404 1.313366468410999 0.8742681884743579 -0.5995382419460016 -1.0932468272124505 -0.10698791579113602 0.08599871083880808 -0.20639281516253777 ]
[0.5631244896829574 -0.5353767738331995 -1.0794141459510442 0.4719973250623303 -0.013341558991394989 0.019356254825348154 0.39132017396734553 0.3680923851375028 0.4477183683655901 0.8521110383039143 0.0037900429828535975 1.1362253360741728 -0.26315809907566395 1.4052177729049438 0.9833458365540122 -0.14445883668639065 -0.7839236195801722 -0.09217938546837327 -0.44172546207203156 -0.14330239227691352 ]
[-0.425390164819974 1.2872448814424153 0.6090731088023186 -0.13156712635171394 0.2316840775647328 -0.4530043558016792 -0.25948132066799506 -0.32943434054571846 0.42179473222849395 -0.5393014879571238 0.009236645441072455 0.22239123162257646 -0.47955940209136966 0.11375415611353307 -0.431673161689696 0.02873303568082445 0.38762191230308995 -1.191232544202437 -0.4177349776191752 0.6171024556558884 ]
[0.14195463241328032 0.20882952524297616 -0.9031991027210694 -0.5915644245000506 -0.2883694810092599 -0.0822142525262941 0.9882256985867042 -0.6628591501065926 0.18241404331867334 0.538413667760661 -0.4516450048158952 0.801076603426151 1.3383501102276876 1.1593555086937035 0.6668643919194159 -0.21778239567354368 -1.2361551439790495 0.7599366193328284 0.6961800328309903 -0.05097533185043585 ]
[-0.5720690506686475 1.4549371021229207 1.0738435111625513 0.7418265709768689 -0.21725610802067344 -0.17429686653114115 -0.2646700422651987 0.28489517222931005 0.42332114202949944 -0.7245879837817598 0.8739559293692365 0.06292732994501304 -1.2393831703731362 -0.8186991469695423 -0.6362539991419198 0.5089230238279885 0.443632004049089 -0.6299258134225018 -0.9030247025093782 0.6617363952302215 ]
[0.2209529724663899 -0.5252583668589575 -0.5619215334629615 0.0489668255590793 0.34224401185921444 0.36218052407613077 0.41036242361085323 0.7839470106286693 0.131208233696327 0.5409104478712006 0.2713327628206565 -0.009487635211252069 0.0724010957699545 0.9536748190480412 0.13309017877274676 0.00520404676281272 -1.0014513667784057 0.14441669887125122 0.0501646178984845 -0.07072222581594904 ]
[0.6633621545726546 -0.7706339982535244 -0.8428185676691323 -0.46289351304004706 0.09350137830268662 -0.10663964137857877 0.42372215192163043 -0.6987642521273877 -0.5491172480935259 0.5727502307758515 -0.2992546103045321 0.1941631453873536 0.22636445671855837 0.059873790092689144 0.14010915356473225 -0.13167485498369527 -0.35350958481622774 0.3122330047846467 0.3418176507332954 -1.1847618102483972 ]
[0.3268105670863607 0.6050369009240963 0.02728427340378602 0.24419748492187585 -0.5425011029098764 -0.17826935803361277 -0.24477009860495572 0.3769521614494821 0.14177386670984451 0.35272156692076556 0.44981416204708413 0.07649297269831824 -0.45864399534550526 -0.12002818299423793 0.24066041968407054 -0.19817067407600555 0.03414607247116228 0.1367814340064603 -0.06770223558256104 -0.23993629011401665 ]
[1.5893469847267323 -1.116256457592508 -0.6466320483965036 -0.39470705716095805 -0.09867068606108789 -0.08456515409088002 0.015370181396009793 0.17375217884279168 0.1449517148789072 1.5365350381215253 0.5929157836290843 0.8692381498602627 0.36005685544997484 1.6713615873956456 1.9733121922801133 -0.2856093241836708 -1.6588013419202807 1.154625241337876 -0.32911570299097265 -0.7614105469051895 ]
[0.2178313452454966 -0.7829786633721673 -0.8884606836827341 0.733881879697471 0.2273340010980828 0.28403070868103913 -0.12595777568073535 1.2904257229953722 -0.25557785082812595 0.8328006250808115 0.8757331468542449 0.5914418534671043 -0.4109235859866922 0.105705264973212 0.5016202542839697 -0.8808746922565532 -0.6821552168845573 1.3556846876376043 -0.488031292507944 -0.7973994613059916 ]
[0.2556387307060264 -1.0402995897335379 -0.775200877441967 -0.5440613239959634 -0.11213543798270358 -0.17791315058522247 -0.2186828300262155 -1.1275275393826625 -1.343617635454796 1.1854291098063703 -0.6643240290013398 0.7581118335554254 0.3043740711979737 0.1282113389185273 -0.03173775755470093 -0.39353698251201785 -1.0291685375184736 1.1467230947210114 -0.07085506053421527 -1.3103001024589136 ]
[-0.6112532460447321 0.8281915152658433 0.29413251498128656 0.38619966496857433 -0.08471047917330483 0.24652557091288047 -0.2772967968120193 0.3360590651236958 0.06163581679510552 -0.5620998733402591 0.5718055177537862 -0.4625859024653195 -0.6475346620922268 -0.6029691585918223 -0.7661132736163109 0.6257760111169615 0.5392374874142153 -0.5525739085538407 -0.37436490681092466 0.8818562689753263 ]
[0.3990858055047112 -0.8307433362811454 -0.2169023376353819 -0.1700909913884371 0.06020873525751771 0.08930921527690239 0.0702192941311722 -0.5149510438146578 -0.8589549695685451 0.5602325123093314 -0.4429405264791306 -0.46322379081354603 0.6163867735668972 -0.4517349874417695 -0.49915437536349117 -0.1568607205403288 -0.6302388760474161 0.43272581222125855 0.44536258023757286 -0.7393396984114982 ]
[0.8913554321058544 -0.20816741286882723 -0.5756972631827411 0.666503565740109 -0.17311218031593842 -0.15164699033062648 -0.6269682820221386 0.857673200861068 -0.10793493762693547 0.6314757462603385 1.112959461581857 -0.7179417678743354 -0.727390269203117 -0.08091624520033991 0.8767313703623306 -1.0429690172299764 -1.0945796009377244 0.27531234265386373 -0.5750112212702833 -1.1577493801462753 ]
[ 0.0665131220711871 0.22322501196827255 -0.06918531211458469 0.7275541234844515 -0.7095022203018854 0.8205195643156765 -0.7267475157740705 1.1477493316516545 0.28548253923102507 -0.18364354663191643 1.051497796136002 -0.5273512660526334 -1.0593923355993833 -0.13687123099017767 0.260446330269948 0.05891047979054512 0.060343825708111754 0.19155278732921316 -0.7350766909794131 0.2338063183955513 ]
layer 5 Activation
tanh
layer 6 Dense
20 1
[2.537985037493935 ]
[-1.9204824924959467 ]
[-1.028311672293641 ]
[2.4763400724717726 ]
[-1.8472600519337739 ]
[1.8345298226993043 ]
[-2.333947858075821 ]
[2.2046137300067965 ]
[-1.1395136021771117 ]
[2.574163173959337 ]
[2.3464118950942225 ]
[-2.0590089845768085 ]
[-2.20575000247148 ]
[0.37602479631542074 ]
[1.549898414194062 ]
[-1.698886550813379 ]
[-2.1722770559391344 ]
[1.7249174483350027 ]
[-2.2666012819242938 ]
[-1.3849871437587635 ]
[ 2.1464008543545425 ]
