layers 7
layer 0 Dense
20 20
[-0.20617336  0.4208958  -0.13532689  0.02428332  0.27004406  0.73325485
  0.7677116  -0.06097354  0.0364169  -0.08187394 -0.45961985  0.13979027
  0.15757394  0.04101893  0.06858701 -0.07315686 -0.11745387  0.34316158
 -0.30988458  0.13556322]
[-0.25115085  0.37078542 -0.11994806  0.11796719  0.2858593  -0.01579294
 -0.37828013 -0.26487282  0.18066537  0.05561724 -0.27562767 -0.29225525
 -0.26954675 -0.3065514  -0.1462841  -0.11348763 -0.19440718  0.0101153
 -0.19192354  0.02158779]
[-0.10224304 -0.20181444  0.22174233 -0.19789548  0.2790445  -0.04150552
  0.05269074  0.23509079 -0.01327217 -0.10347521 -0.10521498 -0.2196732
  0.01405135 -0.08561906 -0.13597184  0.08495218  0.1448741  -0.30688447
  0.35931832  0.06450385]
[ 9.96441394e-02  1.07989736e-01  3.71659487e-01 -1.92732081e-01
 -2.34078258e-01  4.25414354e-01  5.99015474e-01 -5.33191413e-02
 -2.72699505e-01 -3.76573086e-01 -1.37567237e-01 -2.14272842e-01
 -3.37143779e-01  3.00206333e-01  2.33181730e-01  7.75519311e-02
  2.59774983e-01  8.46186727e-02 -5.88403344e-01 -1.93900545e-04]
[-0.04266493  0.7493298  -0.21721333 -0.32472184 -0.17041953 -0.13602738
  0.086276    0.3022833   0.5354344  -0.07596435 -0.0631769  -0.3030104
  0.38411832  0.2575661   0.17256571  0.49530852  0.3618099   0.23882246
 -0.25444093 -0.00393882]
[-0.16144904  0.37652886  0.07326868 -0.16511436  0.04720837 -0.13930602
 -0.03689051 -0.07897055  0.3179233  -0.33446726 -0.31819406  0.02980661
 -0.36592922 -0.3495767   0.06836605 -0.3834356  -0.23939092 -0.15688546
  0.16860151  0.1868661 ]
[ 0.02945995 -0.04138482  0.02705315 -0.14685199 -0.36770397  0.38120472
 -0.20671304 -0.21704735 -0.30448502  0.21623653  0.21668273 -0.31210715
 -0.19536133 -0.3337966   0.16250032  0.06504941 -0.00969478  0.1105881
  0.25753683 -0.03037044]
[ 0.09530309  0.01305125 -0.35758248  0.577309    0.27221656  0.00757258
 -0.5294077  -0.8200822   0.1357176   0.49883538 -0.14497271  0.32465336
 -0.20665945  0.08736755 -0.7488407  -0.8479391  -0.54719466 -0.701163
  0.30252185  0.549155  ]
[ 0.4873286   0.16642123  0.3164315  -0.91419774  0.3113134   0.76131636
 -1.0872684  -0.35690084  0.8346932   0.8419126   0.76104295  0.3213563
 -0.44644448  0.26222283  0.30526495  0.47674125  0.15994519 -0.73131406
  0.8611715   1.1583531 ]
[ 0.01455445 -0.17205401  0.09256794  0.16543931  0.37959388  0.07760216
  0.594166   -0.01395379 -0.18423119  0.20662706 -0.4123401   0.31830573
  0.19368325 -0.5741994   0.19713002 -0.14772102  0.31838492  0.4027261
  0.26519993 -0.25482547]
[ 0.45020756 -0.62701434  0.01087148 -0.20606622  0.17109363 -0.03039186
 -0.1324196  -0.22302136  0.36657396 -0.21069695  0.58159494 -0.5541928
  0.15348493 -0.02476812 -0.40522578 -0.09245864  0.07681835 -0.04983936
 -0.3941697  -0.10568959]
[-0.6248379   0.0199886  -0.53346497  0.00147156  0.12004528  0.7599084
  0.11904343  0.7806642   0.45629457 -0.06262011  0.08056662  0.12867282
  0.61311775  0.09428748 -0.10691114 -0.42729995 -0.71773446  0.7179879
 -0.04723407 -0.38570568]
[-0.3205439  -0.04687738 -0.4753937   0.40343943 -0.2600061   0.0176988
  0.6004808  -0.19234844  0.07077514 -0.19632137 -0.43262982 -0.31690568
 -0.00916352  0.3091681   0.1367069  -0.34171325 -0.21840285  0.510348
 -0.6019739  -0.4540927 ]
[ 0.49199674 -0.25498706  1.0493191   0.90193504 -0.36328682  0.64635676
 -0.01598486 -0.04255209  0.01833327 -0.10832626  0.8435914  -0.15325165
 -0.59806573  1.0610944   0.8463876   0.871601    0.02009326  0.01465494
 -0.10347375 -0.40460774]
[ 0.5319389  -0.98080856 -0.7633446  -0.07421094 -0.49572122 -0.2887475
 -0.21211044 -0.57543963  0.06175374  0.2690157  -0.5656851   1.1069956
 -0.3702445   0.25122225  0.2738061  -0.10518306  0.7194175   0.12696606
  0.271524   -0.4213252 ]
[ 0.07518146  0.07831154 -0.08890764 -0.93486995 -0.04515289  0.29265806
  0.6878244  -0.92552143  0.8111787   0.15513279  0.02889213  0.77959687
 -0.64429486  0.48364738 -0.2749548  -1.217187    0.24921225 -0.79791653
  0.03635054 -0.00368883]
[ 0.045668   -0.03532576 -0.5500454   0.630996    0.03248972 -0.36857352
  0.13244784  0.47020417 -0.20172714 -0.642818   -0.6347913  -0.5501466
 -0.06840561  0.32757112 -0.14920427  0.05128971  0.34325418  0.38654754
 -0.580362   -0.4337886 ]
[-0.6584532  -0.12664108 -0.9696756  -1.19114     0.3441269  -0.6311367
 -0.27523398 -0.46171585 -0.196846   -0.31787196 -0.9453084  -0.6339656
  0.47406125 -0.8333597  -1.2767828  -0.67670006  0.5466159  -0.61130065
 -0.4537375  -0.47555053]
[-0.7319239   2.802778    1.2273687   0.29919294  0.05023193  0.234742
 -0.30299917  0.35783598 -0.4503417  -0.07225571 -0.0453973  -0.84774405
  0.28773546 -0.10860415  0.16946228 -0.6096538  -1.0955818  -0.19638835
  0.06040964 -0.24806562]
[ 0.46376216 -0.6465078   1.1798403   0.40056002  1.035377   -0.48492202
 -0.34021366 -1.7386227  -0.2721663   0.7847807  -0.83127105  0.4043615
 -0.15870975  0.10319025 -1.0716379  -0.37065133 -0.38259125 -0.8611364
  0.64542973  0.68578887]
[-0.09911311 -0.01092132  0.21309152 -0.25112543 -0.19030052 -0.10665351
  0.08166343  0.10778072 -0.12879063 -0.09703947 -0.03123763 -0.01300254
 -0.01106266  0.02955138  0.30842632  0.04466954  0.1377706   0.1262829
 -0.1446778  -0.13121012]
layer 1 Activation
tanh
layer 2 Dense
20 40
[ 0.00151526  0.2604257  -0.18652806  0.18848798  0.01092075 -0.43566117
 -0.02113016  0.08279127 -0.6337553   0.33719957 -0.05746873  0.2752378
 -0.09600369 -0.0394827  -0.24611597  0.21677956  0.30588046  0.2785204
  0.12547898 -0.07716598 -0.04843298 -0.09698587  0.29731065  0.1397612
 -0.23601195  0.20766921  0.0968523  -0.20058987 -0.04451198  0.34554803
  0.02952652  0.04589309  0.16725577 -0.08578253 -0.3051446  -0.13510014
  0.24716547 -0.41284016 -0.10550284 -0.22471477]
[-0.2726177  -0.7509041  -0.14204577 -0.59311485 -0.19580443  0.48816216
  0.10570353 -0.29676506  0.72512966 -0.80188215 -0.15129086  0.05722461
  0.8533415   0.08976365 -0.24687704 -0.86283267  0.31961563  0.22542976
 -0.52725834 -0.06975394 -0.2937298  -0.29596516 -0.58460975 -0.42462853
  0.19960648  0.05469829 -0.97954047 -0.27640328 -0.45751715 -0.04712925
  0.18568714  0.72224385 -0.5309956   0.04971735  0.817915    0.13656422
 -0.73748046  0.22949879  0.00725476 -0.36012694]
[-0.38291445 -0.42521113  0.4013795  -0.13692929  0.26711106 -0.02328565
 -0.16969012 -0.58184004  0.78469545 -0.00405933 -0.31425524  0.38284072
  0.1258274  -0.4216487  -0.51581043 -0.3157387   0.11960755 -0.26042405
  0.42127347  0.34063458 -0.25796384  0.17838024 -0.17885585  0.02637613
  0.1612571  -0.09234443 -0.27149248 -0.7798552  -0.82998157 -0.2850907
 -0.0365854   0.06484058 -0.7344611   0.02650118 -0.7377383  -0.8274628
 -0.2467716   0.09086155 -0.50296706  0.84028697]
[-0.21663678  0.22683267  0.21644017  0.34816283 -0.03325794  0.33696443
 -0.20830941 -0.46459642 -0.13128175  0.9942544   0.23583348 -0.05115784
  0.2337248  -0.19709398  0.87523234  0.19282082  0.04656016  0.40348262
 -0.4809377   0.18209569  0.55003786 -0.17638993 -0.01146076 -0.0476185
  0.3014033  -0.9274726  -0.12751509  0.02067477  0.04813973  0.53844255
 -0.52786297 -0.38560456  0.7654888  -0.25390363 -0.00735777 -0.04398678
 -0.52448595 -0.32270548 -0.1262909   0.14399081]
[-0.12888874 -0.41042623  0.15641093  0.23539712 -0.15917934 -0.16925472
  0.14735334  0.141321   -0.17180182 -0.01015911 -0.19559175 -0.09825182
 -0.04779146 -0.13285775 -0.15133896 -0.13772349  0.18338516  0.04527773
  0.09542565  0.19000962  0.10564274 -0.02770331  0.01739698 -0.10170726
  0.17462067  0.0324265  -0.33051512 -0.12379781 -0.15515962  0.23620121
 -0.03837598 -0.01682591 -0.28795946  0.18129633 -0.4444774   0.03771314
 -0.3986835   0.08571693  0.1598981  -0.1771487 ]
[ 3.5277465e-01  2.2499573e-01  3.8767329e-01  1.2071320e-01
 -2.7236995e-01 -8.6280331e-02  1.3414831e-01 -3.3053309e-01
  4.1922450e-01  3.5771316e-01  2.3840955e-01  2.4372962e-01
 -5.4681213e-03 -3.4009337e-01  1.2628222e-01 -1.7503922e-01
 -2.5818497e-03  1.0852441e-01  1.8402173e-01 -2.4544669e-04
 -4.2824009e-01  2.6879621e-01 -3.2567164e-01  3.3614740e-01
 -4.0494338e-02  1.9861174e-01 -1.3692102e-01 -1.4969985e-01
 -1.5934573e-01 -4.9151006e-01 -1.6410981e-01 -2.6510334e-01
 -3.8436174e-01 -3.0049646e-01 -1.2842037e-01 -3.6707151e-01
  1.8883042e-01  1.6232055e-01  6.1191894e-02  4.9729416e-01]
[ 0.07010143 -0.08535106 -0.38108453 -0.09853958  0.1170032  -0.65965986
  0.43918198  0.49070418 -0.26758328 -0.01881267  0.23902461  0.2456246
  0.03690678  0.5486519   0.8403915   0.08625276  0.67575     0.4225489
 -0.15311249  0.34462872 -0.24982044 -0.2804691  -0.11580072  0.11801273
  0.63330454 -0.12798655  0.12265605  0.16616485  0.03298176 -0.08337785
 -0.28086656 -0.13541868  0.17609857 -0.2949878  -0.3208967   0.26882076
 -0.03088253  0.26873237 -0.14168543 -0.43801224]
[-0.07965552  0.57816917  0.13804789 -0.18891856  0.4102312   0.17101887
  0.295307    0.04854885  0.29958987  0.26009768 -0.20779842  0.18633151
  0.8406813   0.34013137  0.28436556 -0.6486902   0.28798297  0.4999429
 -0.28458467  0.14421882 -0.24986404 -0.23129506 -0.42283607  0.07288484
 -0.28305307 -0.13631977 -0.41104934  0.12491682  0.38759467 -0.5330882
  0.18303521 -0.47509915  0.13885884 -0.06976534  0.5553566  -0.38302323
 -0.22422464  0.20960833  0.22987679  0.24276783]
[-0.09368875  0.23233543 -0.3978759   0.24030851 -0.01807124  0.10546067
  0.2904715   0.06392869 -0.20586757 -0.09620851 -0.0338724   0.03092795
 -0.02399155 -0.04781201 -0.17132021 -0.11293127 -0.3405372  -0.12664448
  0.03709808  0.19806315  0.54410464  0.1795587  -0.21759428 -0.17455699
 -0.07793491  0.1600845  -0.31217447  0.05562834  0.04201387 -0.13118273
  0.23700817 -0.10926889  0.63718635  0.04088397  0.27103516  0.13496163
 -0.22741349  0.3582372   0.03926294 -0.3685107 ]
[ 0.19602063 -0.4473068  -0.24935693  0.4214095  -0.38949734  0.3921909
  0.11390394 -0.06733458  0.0222632   0.45034155 -0.06932389 -0.13980985
 -0.46533817  0.024047   -0.3897876   0.09200191 -0.19654076 -0.11095032
  0.3565653  -0.25017306  0.7042441  -0.18562336  0.13549028  0.45881858
 -0.19459286 -0.63216466  0.00314273  0.2593378  -0.26874188  0.5301943
 -0.30587274 -0.3558225   0.4193286  -0.01763362 -0.9423839  -0.11646066
  0.2280409   0.10911583 -0.3102044  -0.19606294]
[-0.29499272  0.7080918  -0.01248969  0.459973    0.06555642  0.26970437
 -0.18872584 -0.10503999  0.08676977  0.21691328  0.01136588  0.22295237
  0.23474988 -0.13929762 -1.0938973  -0.1466748  -0.35322535 -0.2885981
 -0.03722216  0.08390994 -0.1563418  -0.12007423  0.21394014  0.39095703
 -0.46618935 -0.13693854  0.13638164 -0.08782753 -0.591335    0.48186457
  0.31641844 -0.8089535  -0.26174656 -0.02934879  0.05611474 -0.750114
  0.29918173 -0.07880801  0.05048079  0.2558493 ]
[ 0.5721883  -0.09847534  0.04117864  0.16197786 -0.17752324  0.25481123
 -0.13111225  0.00929694 -0.26370957  0.00095759  0.18496415  0.25193906
 -0.21294783 -0.23816724 -0.03864726  0.36695316 -0.0586829   0.01226438
  0.34632128 -0.06481317  0.03647737 -0.33518627 -0.17403859  0.715009
  0.0326548  -0.06609327  0.58539015  0.24078158 -0.435607   -0.29131648
  0.008339   -0.27135572  0.6319186   0.05684365 -0.69201463 -0.48315477
  0.31411538 -0.02183565 -0.13705532 -0.26147178]
[-0.01885904 -0.11003023 -0.33920255 -0.3307354   0.1659372   0.24896567
 -0.01780164  0.23636325  0.03457147 -0.10837216  0.27458718 -0.18039085
  0.4453581   0.2744957  -0.19719823 -0.3741348  -0.05755904  0.38226828
 -0.128114    0.11760309 -0.06450684  0.27999678 -0.15114152 -0.00108168
 -0.01508653  0.0771417  -0.34733695  0.29059306  0.3025738  -0.21211262
 -0.08292136 -0.00814801 -0.45714295  0.5894097   0.3274597  -0.23931614
  0.11100607 -0.17553909  0.16479224 -0.3060738 ]
[ 0.4322406   0.24804978  0.22617336  0.2041562   0.06467413 -0.00590998
 -0.13685411  0.06808345 -0.4965624   0.32604906  0.08036923 -0.07160748
 -0.14701131 -0.07923716 -0.07370245  0.24251941 -0.33996114 -0.2619496
 -0.16862777 -0.18941014  0.08315315  0.2484628  -0.177943   -0.42069763
  0.02368319 -0.28835106  0.23400015 -0.20023744 -0.35709977 -0.12088629
  0.07823434 -0.35872248  0.57068396 -0.19035275  0.04727583 -0.14737873
 -0.41449672 -0.13063878 -0.37380883  0.35244137]
[-0.22247535  0.35699996  0.11514491  0.04545618 -0.00189171 -0.15486024
 -0.44108373 -0.09586423 -0.01427106 -0.12124552 -0.08570822  0.8676237
  0.04818518  0.16470538  0.627739   -0.66565394  0.28968573  0.11789615
 -0.0216292   0.01200667 -0.14570363  0.0988341  -0.02850495  0.17936039
  0.09497963  0.12621285 -0.00479553  0.14521456 -0.30704403  0.13414346
  0.17157045 -0.21560359  0.19454123 -0.22978595 -0.1404468  -0.35902506
  0.1077984  -0.35785887 -0.04363534  0.3715729 ]
[-0.31029922  0.5271093   0.2662627  -0.17179887  0.02224225  0.27709353
 -0.14148879  0.17218372 -0.40998286  0.15115714 -0.3097451   0.32019508
 -0.13857935 -0.12885565 -0.35471228  0.0082515   0.03412448 -0.07228784
 -0.12769654 -0.09712555 -0.4061149   0.06247192  0.19135715  0.04271647
 -0.03180522  0.07930214 -0.26314113  0.3208077  -0.24875042  0.19425969
  0.12794678 -0.06138267 -0.17864402  0.10254396  0.25035983 -0.16026284
  0.4377841  -0.10552005 -0.17772588  0.20668702]
[ 0.21905397  0.43887335  0.21091847 -0.24167836 -0.23713163  0.0456429
  0.01041991  0.30299217 -0.92668986 -0.24890171  0.02027262 -0.24235056
 -0.16493273 -0.25369346  0.09194826 -0.05398695  0.16171679 -0.16216028
  0.05120875  0.02232988 -0.08817365  0.05064494  0.14041716  0.17086335
 -0.06511375  0.24388884  0.40399945 -0.00635074  0.29260075 -0.11210557
 -0.03628204  0.39094466 -0.14222209  0.4315082  -0.12561753 -0.04456932
  0.5949517  -0.1437876  -0.00487692  0.11703193]
[-0.09270994  0.3428803  -0.18833478 -0.41594124  0.26901245 -0.34504518
  0.2052648   0.20884512 -0.6606817   0.01478812  0.01825965  0.02412929
 -0.05791494  0.04687129  0.7851368   0.12347962  0.3114088   0.7565527
 -0.20258154  0.08560637 -0.2955739  -0.34990436  0.25395477 -0.14535959
  0.07724688 -0.11331433  0.33513957  0.12195632  0.18599606 -0.21237308
  0.09388201 -0.37722465  0.38724685  0.32820722  0.44131508 -0.08446623
 -0.13710387 -0.24060358  0.5012943   0.18138292]
[ 2.4652037e-01 -4.4305950e-01  3.4797898e-01  1.8190540e-01
 -3.4052822e-01  4.7815377e-01  5.5494379e-02  7.6847509e-03
  2.4716191e-01  4.1492051e-01  1.4192271e-01 -3.4228364e-01
  1.6526818e-02 -9.2170365e-02 -1.2052738e-01  9.0055205e-02
 -1.8485323e-01 -1.6622955e-01  4.7670051e-01 -3.4888533e-01
  4.6160159e-01  2.0658696e-01 -5.1064629e-02  6.4320296e-01
 -3.5733640e-01 -1.7456426e-01 -3.0428183e-01  3.5487495e-02
 -3.8649131e-02 -4.7823935e-04 -2.2424568e-01 -7.9692446e-02
  3.5241090e-02 -7.9357930e-02 -4.0175796e-01 -3.6254272e-01
  2.6564959e-01  1.2991856e-01  2.6850113e-01 -5.0399733e-01]
[-0.38440835 -0.12578082 -0.10099375 -0.05946337  0.10639744  0.31846395
  0.10139409  0.03037593  0.04899589  0.00795174  0.01268538 -0.36790243
 -0.07929182  0.15243568 -1.1458541   0.03886328 -0.21213664 -0.34361568
  0.41706714 -0.13486528 -0.02471905  0.30943432  0.31969836 -0.05019455
  0.2767806  -0.42072618 -0.51166856 -0.3114163  -0.07483166  0.26932392
  0.28996167 -0.4533843  -0.37915814 -0.05864221 -0.44634387 -0.08522844
 -0.20430277 -0.16869727 -0.2731107  -0.05219654]
[-0.09298747  0.19336776  0.0479251  -0.15977329  0.04661059 -0.20110308
 -0.18446814  0.08453457  0.2590756  -0.09060828 -0.13603564  0.11667898
  0.01494515  0.14423555  0.16032925 -0.15193304  0.46070468  0.10777137
  0.05804095  0.04793861 -0.3811517  -0.12279297 -0.06458609  0.04083113
  0.25519738  0.24329095 -0.02429146 -0.04102333 -0.10687882 -0.3010718
  0.00965461 -0.02403396 -0.36499983  0.03673396 -0.05346237 -0.12265692
  0.13747005  0.01883205 -0.0333365   0.1926719 ]
layer 3 Activation
tanh
layer 4 Dense
40 20
[ 0.19548938 -0.23810875 -0.05147498  0.13127685  0.42441985 -0.32949495
  0.13145207  0.35853913  0.03369936 -0.21198831  0.37414157 -0.22429007
  0.08059119  0.0807311  -0.06657576  0.36139733  0.07660866  0.04073386
 -0.0308303   0.09686039]
[-0.1663428   0.52940476 -0.22046593  0.3764334  -0.18956572  0.06632262
  0.02349576 -0.4554197  -0.25079495  0.308701    0.42862862  0.06066111
  0.11219964  0.04292455  0.0232921  -0.59453875  0.1516854  -0.43781087
 -0.32837558  0.16248983]
[-0.12190008 -0.28711343  0.11736887  0.14857364 -0.05212002 -0.23440154
 -0.24138767  0.10775122  0.12078543 -0.05617103 -0.06998598 -0.0093504
  0.04840291 -0.16781692 -0.09492225 -0.23083533  0.02167905  0.03526056
 -0.02256031 -0.19663282]
[-0.32608226  0.2459817  -0.24514745  0.4166886   0.13286015 -0.07176568
 -0.24246803 -0.34945568  0.25110197 -0.03190105  0.15738404  0.29383293
  0.3781383   0.1180425   0.21791732 -0.0939239  -0.03717027  0.5712981
  0.05864351 -0.30762327]
[-0.21152703  0.44736663  0.12681106 -0.10916929 -0.07702965 -0.20719172
  0.21399821 -0.24145998  0.01929415 -0.13179551 -0.00406436  0.15014866
 -0.54592204 -0.5613829  -0.10854977 -0.26819196 -0.00398388 -0.15560324
 -0.17522073 -0.07488803]
[ 0.05451179 -0.28076378 -0.3099636  -0.1331529  -0.30929616  0.09847862
  0.22469695 -0.2956088   0.21234347 -0.11832792 -0.25179255  0.08646916
  0.46095243  0.10096924  0.18621002  0.0843263   0.2046241   0.31822705
  0.16063227 -0.16093381]
[ 0.11851433  0.16450307 -0.1436116  -0.08436044 -0.00902723  0.22036229
  0.01604656  0.00055826 -0.19257355 -0.2796944   0.15369101  0.01901601
 -0.08903547 -0.24275899 -0.03601402  0.2262926   0.100054   -0.12434134
 -0.08460373  0.1009661 ]
[-0.0637523   0.29277423  0.1256184  -0.15594243 -0.12025308  0.17743433
  0.13001548 -0.05732134 -0.20234172  0.24025446  0.47520173 -0.4641085
 -0.20710008  0.35700664 -0.17390752  0.2246106  -0.01914428 -0.13492966
  0.03797333  0.13079381]
[-0.22243057 -0.54799294 -0.16271566 -0.47435686 -0.08324078  0.16136464
 -0.05568705 -0.31536955 -0.13834663 -0.08923289 -0.3926604  -0.23341103
  0.15960667 -0.5096716  -0.08490842  0.4293931  -0.20312059 -0.34530014
  0.25208518 -0.43791154]
[ 0.33035493  0.25469506 -0.30441135  0.14216729  0.28922358  0.02695747
 -0.15519434 -0.06337774 -0.03588218  0.24132428 -0.15530819  0.23960993
  0.5085455   0.23290369  0.27236018 -0.20809904  0.28705716  0.35791773
  0.03818906 -0.33636004]
[-0.03447912  0.18959962 -0.20679611  0.05130794  0.46480596  0.10219934
 -0.2866066   0.13956264  0.03888442 -0.08845964  0.1840849  -0.00332303
  0.2471185   0.18122299  0.01174195 -0.0582796  -0.10517101  0.4615162
  0.14384694 -0.05889985]
[-0.27533343 -0.04212749  0.3572488  -0.08586486 -0.15315819 -0.05579145
 -0.21076177  0.23220618  0.1527245   0.03176003  0.4430528   0.16185161
  0.10339075 -0.30742064 -0.02037622 -0.07959111  0.11990526 -0.4378196
 -0.30845487 -0.24292567]
[-0.11535399 -0.00581386 -0.39945382 -0.24752192 -0.21146806 -0.17874824
  0.17909572 -0.11035948  0.08124252 -0.10406683 -0.563004   -0.09591188
 -0.2861959  -0.17702062 -0.19534166 -0.2064236   0.0491552  -0.31115264
  0.02869482 -0.02738691]
[ 0.08132911  0.22446883  0.13388081 -0.15304837 -0.31728348  0.11308304
  0.13077699  0.1760673   0.1018882  -0.10820302  0.25634074 -0.2622949
 -0.00036862 -0.10284476  0.10595925  0.25368974 -0.15027812  0.07311191
  0.30654365  0.03130259]
[-0.16486818  0.5155133   0.6190378  -0.00584517 -0.2053     -0.08178525
  0.17024684  1.0295633   0.11566731  0.23105644  0.15097228 -0.15480559
 -0.56679606  0.43402508  0.11663134 -0.21866788  0.21123864 -0.13952224
  0.17583722 -0.2372015 ]
[-0.08516031  0.3078893  -0.08260997  0.19158901  0.39064062 -0.05499775
  0.03732955 -0.04781965  0.10945956 -0.01637325  0.24673551  0.06666309
 -0.20074221  0.43512776 -0.11627199  0.28961506 -0.03786639  0.06939495
  0.10076777 -0.05190767]
[-0.01693561  0.51879257  0.5221505  -0.39568037  0.1073895  -0.01809636
  0.1386696   0.51952386  0.11788282  0.08859175  0.2000119  -0.38958243
 -0.03616316 -0.33125663 -0.06127052 -0.03663906 -0.04018898 -0.42352635
  0.09281006 -0.05908377]
[ 0.35348868  0.4857356  -0.17253186 -0.19343315 -0.10703853 -0.25626057
 -0.01454478  0.40213838 -0.07032715 -0.20095612 -0.151883   -0.31273565
  0.05996063 -0.2863291   0.10245319  0.14058687  0.26057905 -0.21245803
 -0.11804194 -0.09187049]
[-0.2820166  -0.6943632  -0.27945808 -0.13733728  0.18971965 -0.23836464
 -0.18697648 -0.7662906   0.01287778  0.16137642  0.35642    -0.2576968
  0.2391552   0.13987002  0.08907682  0.37017873 -0.417419   -0.09300925
 -0.39579976 -0.15491022]
[ 0.12239068  0.29141805  0.102798    0.03181281 -0.28123966  0.03287118
 -0.07629251 -0.04153195  0.22653225 -0.09517138 -0.0893041   0.14941613
 -0.45633158 -0.5267592   0.28330934  0.17123581 -0.03870656 -0.07332377
 -0.26321474 -0.03839082]
[-0.1908982  -0.23683365 -0.403562    0.34495112 -0.23307084  0.16131465
  0.1348259  -0.25035587  0.25214922 -0.37825295 -0.18073447  0.09301559
  0.51376617  0.54750806  0.06129259 -0.337868    0.22739708 -0.10649248
  0.28160736  0.19775347]
[ 0.14434274 -0.1396363   0.14182058 -0.01122126  0.17219387 -0.00697823
 -0.01719765 -0.23705271 -0.03934748  0.00191855 -0.09027806  0.16369398
  0.15280524 -0.0041345   0.1206326  -0.00298611  0.26185971  0.40326506
 -0.26250577  0.20449722]
[ 0.15019996  0.45892906  0.22675495  0.2978523   0.19773287  0.01911719
  0.1705211  -0.3110461  -0.01473316 -0.13987029  0.0219263  -0.14484334
 -0.06335447 -0.07859174  0.11236075 -0.02674344  0.01504103  0.04311426
 -0.43261304  0.01489354]
[-0.14375967 -0.26030558 -0.2590899   0.01237947 -0.2597767   0.03520799
  0.13722283 -0.28071862  0.07289137  0.15707849  0.16422093 -0.13286379
  0.08104791  0.07511321  0.02231688  0.24610718  0.0326862  -0.20697927
  0.06375834 -0.09368618]
[-0.07308234  0.1849422   0.14809375 -0.16080512  0.11284077  0.07471085
  0.11844266  0.3124804   0.06111788  0.13086426 -0.03847076  0.15463297
 -0.21872427 -0.15883316  0.22308457  0.3444599   0.07368642 -0.00388744
  0.24191807 -0.06904585]
[ 0.24552631 -0.05120688  0.29149175 -0.09567761 -0.05655017 -0.07359971
  0.20757753 -0.12693258 -0.08504777  0.16830705  0.3277977  -0.19333364
 -0.42321667 -0.18570876  0.12681271 -0.21866104 -0.29477888 -0.48518112
  0.11884931  0.211113  ]
[ 0.06599227  0.05604011  0.23664537  0.11211638  0.3125196  -0.15617146
 -0.08546524  0.0122417  -0.02260397 -0.00882874  0.46881917 -0.17372164
 -0.14192258  0.33178923 -0.23909445 -0.29826528 -0.30723724 -0.10393663
 -0.29040596 -0.22379994]
[-0.02238335  0.0540217  -0.26420262  0.10749438 -0.15954833 -0.11659209
 -0.369835    0.13694203 -0.08571899  0.06575701 -0.07618205 -0.41274807
  0.35774598  0.2825187  -0.06313147  0.06470581  0.05675527  0.0896565
  0.0532834   0.10633793]
[ 0.08977411  0.15413095 -0.18947342 -0.06132274 -0.02542888  0.28838187
 -0.27139315 -0.18912566 -0.08901169 -0.20782056  0.12933338 -0.4715075
 -0.04038641  0.26939455  0.40051028 -0.13083805 -0.3285136  -0.18190159
 -0.10777567  0.32399964]
[ 0.13538317  0.322422   -0.27105138 -0.01601269  0.22187358  0.21675529
 -0.01876825 -0.24131534  0.20443021  0.22393085 -0.37961528  0.26901168
  0.47579965  0.34972152 -0.10446772 -0.20561749 -0.06954151  0.20218298
  0.03038428 -0.09495881]
[ 0.06057676 -0.03101428 -0.13270707 -0.23603705 -0.13611571  0.05274992
  0.32492912 -0.25648853  0.09346574  0.34413606  0.18628895  0.00551802
 -0.16418016  0.08477648  0.2604015  -0.13392277  0.2602176  -0.42786163
 -0.01309268  0.22910106]
[-0.0915372  -0.47031337  0.29091844 -0.33674657 -0.13077646 -0.04543664
  0.24200065  0.22844824 -0.2445491  -0.22329283 -0.34264657  0.10208698
 -0.12853839  0.39109528  0.23028116  0.14822136 -0.6051689  -0.10502367
  0.15758131  0.47383332]
[ 0.13008472  0.41835096  0.03860256  0.44017258  0.35639027  0.19182748
 -0.08769643  0.42654416 -0.2668591  -0.3106446  -0.29383746  0.40784785
 -0.17708535  0.1596436  -0.08120513 -0.0646257   0.41754425  0.16136502
 -0.16254726  0.33203968]
[-0.21685588  0.04038669  0.03837834 -0.18543461 -0.22236043  0.2853543
  0.1921438  -0.08968085 -0.13986948 -0.19288471  0.06030814 -0.28414175
  0.18498991 -0.20181082 -0.12859386 -0.11036537 -0.25247157 -0.03680732
 -0.18433064  0.17064755]
[-0.20426229  0.42500165 -0.1623294  -0.3122758  -0.46182606 -0.17714626
  0.0853014   0.12356588 -0.07511803 -0.2523727   0.06023766  0.15930814
 -0.3579527  -0.20530923  0.03530221 -0.1926088   0.2560105  -0.03304261
  0.16382802  0.5561756 ]
[-0.15577261  0.09460248 -0.11236039 -0.10037227  0.09003579  0.19480512
 -0.0655414   0.14574395  0.07113088 -0.37058127  0.1627643  -0.37100914
  0.18133743  0.26203454 -0.14051354  0.32043242 -0.3972413   0.10044942
  0.24230683  0.42663157]
[ 0.01538347 -0.24135579 -0.22077662 -0.09158339  0.2882506   0.01137771
  0.23127834 -0.39393866 -0.1854471   0.05610968  0.38059306 -0.3787434
 -0.13854216  0.2773834   0.05635853 -0.19166727 -0.37387103 -0.08647784
 -0.05198451  0.1485108 ]
[ 0.144216   -0.12379701  0.00171574 -0.08307797 -0.17739671 -0.14615273
 -0.14922169 -0.01598928  0.00721014 -0.10558812 -0.12751494 -0.12949003
 -0.10976931 -0.16564405  0.20280145  0.3319991   0.10398247 -0.2716045
  0.28732985  0.05869569]
[ 0.23706071  0.11157442 -0.2067837  -0.32478324  0.09215973 -0.10742099
  0.16281103  0.0281977  -0.08548179 -0.32384986  0.14552034 -0.23316284
  0.18343809 -0.01318536 -0.12570828 -0.18781488 -0.11287307 -0.03018146
 -0.06504858  0.0074599 ]
[ 0.18396391 -0.0133719   0.07758971 -0.02459639  0.2898092  -0.11168147
  0.0525529  -0.29312626 -0.11217447  0.42824656  0.09043391  0.40584135
 -0.40420854 -0.50591046  0.21978644 -0.4849453   0.09074967 -0.29803792
 -0.24723831  0.01687997]
[-0.05737146  0.02742936  0.05758192 -0.23408356  0.06775142  0.03216757
 -0.05277777  0.03626717 -0.04026247  0.15948933  0.23051178 -0.20465527
 -0.14574136 -0.33071488  0.07653272  0.1374839  -0.16795272 -0.2645823
 -0.15277186 -0.07302921]
layer 5 Activation
tanh
layer 6 Dense
20 1
[-0.00845639]
[-0.12150856]
[-0.10764065]
[-0.1095809]
[0.03576056]
[0.01348681]
[0.00198089]
[-0.15178367]
[0.01451873]
[0.07967927]
[0.05123422]
[-0.07437401]
[0.01022085]
[-0.0744831]
[0.00467794]
[0.06620174]
[-0.04396605]
[0.03890099]
[-0.02714694]
[-0.10631791]
[0.14949228]
