layers 7
layer 0 Dense
20 20
[ 0.51907295 -0.39972615 -0.4444032   0.1993149   0.29070175  0.2500523
 -0.46457762 -0.065446   -0.31486645 -0.17008926  0.1103425  -0.30793715
 -0.01314863  0.36506084  0.33653295 -0.10406105 -0.01396451 -0.34639087
 -0.6508501  -0.4072392 ]
[-0.27026802 -0.07821059  0.26904     0.34991127  0.34426075  0.21897292
  0.05876407  0.16144681  0.31994492 -0.06576365  0.02200174 -0.01725662
  0.29156846 -0.10900348 -0.06757432  0.23091722  0.03681561  0.08840445
  0.15480876  0.37156558]
[-0.0133732   0.33391136 -0.26942313  0.09926501  0.11548615  0.27273613
  0.36711377  0.313699   -0.09261724  0.3727709  -0.04017398 -0.05568713
  0.06551829 -0.10623819 -0.12069184 -0.0222854  -0.16121016  0.12782705
  0.2347253   0.34437025]
[ 0.9225966  -0.7515328  -0.94380844  0.13014553  0.04101173  0.5181055
 -0.13928278 -0.07944866 -0.39072672  0.31908652  0.03851445 -0.32882777
 -0.1152928   0.45590532  1.0440556   0.20735063  0.24901097  0.0636403
 -0.7947394   0.09618671]
[-6.1036725e-02  4.8498251e-02 -2.8924704e-01  2.9300877e-01
 -8.6659983e-02  3.3354726e-01 -3.7370959e-01 -2.0584948e-01
  5.4825723e-01  3.8464880e-01 -1.8155302e-01  1.2779429e-03
 -3.2813236e-01  3.1019890e-01  4.2700264e-01 -1.4049921e+00
 -6.6244489e-01 -2.4939346e-01  2.3935713e-02 -1.9570589e-01]
[-0.2805978   0.08332285  0.17838562 -0.3375934   0.3848859   0.34823084
 -0.3287425   0.22314572 -0.17518781 -0.10229531 -0.05916741  0.10186213
  0.1156767  -0.1696567  -0.37067196  0.03413934  0.05812591 -0.00771448
  0.15155739  0.24153262]
[ 0.16150916 -0.00282836  0.07274577 -0.05552417  0.2669251  -0.03040025
  0.10948309 -0.37921765 -0.2136417   0.24794126  0.32036847 -0.16037524
 -0.2869957  -0.00939441  0.3227377   0.17864478  0.30933106  0.3718362
 -0.21025923 -0.14522995]
[-1.090531    0.79889154  0.91055137  0.22980545  0.22156632 -0.62465495
  0.5162619   0.3123408  -0.21868086 -0.22999972 -0.06468447 -0.01851028
 -0.20909499 -0.7218875  -0.35190484  0.6167961   0.20482123  0.13604303
  1.107936    0.36565205]
[-0.30280435  0.22898799  0.2067646   0.25533015  0.04262078  0.1353977
 -0.2398387  -0.24419141  0.20194212  0.22809838  0.22139381  0.19175622
 -0.38958168  0.43029335  0.82791555  0.7078014  -0.01462077 -0.42129552
 -0.03766255  0.5386899 ]
[-0.19463152  0.14924513  0.08635695 -0.3074349   0.4886633   0.16297138
 -1.045776    0.28480968  1.0813257  -1.1504818   1.0328712   1.4344232
  0.5217954  -0.08950632 -0.41493675 -0.3746751   0.5230934   0.02980902
  0.21077396 -0.80448437]
[ 0.21175367  0.0368051  -0.18126713  1.3320216   1.4348537  -0.25128055
 -0.21327898  1.3121964   0.3142837  -0.69641554  0.10157827 -0.5302892
  1.4650208  -0.04742807 -0.57701075 -0.10778791 -1.46804    -0.93992805
 -0.32139507  0.9391785 ]
[-0.59763515  0.68260366  0.7081053  -0.81867325  0.06712214 -1.102093
  1.5878279   0.19615519 -1.1679085  -1.1527128  -0.8433229   1.4544413
  0.61037654 -1.3088121  -0.33688608 -0.6823217   0.61029536  0.7981264
  0.8294525   2.00036   ]
[-1.7343131e-01  2.3738927e-01 -1.7254498e-03  5.5549234e-01
 -4.0579820e-01  1.0853777e+00 -1.0048676e+00 -1.8479569e+00
  8.1150568e-01  5.5249071e-01  1.1169527e+00 -1.1011848e+00
 -1.0151447e+00  4.0580517e-01  8.6802250e-01 -3.3060813e-01
 -1.4131925e+00 -1.0776800e+00 -1.0172362e-01 -1.0089264e+00]
[-0.35061002  0.17438054  0.12789771  0.56867915 -0.8331813  -0.16056848
 -0.01216043 -0.36276978  0.2293257   0.6772905   0.5546225  -0.24316263
 -0.11654341 -0.21412514  0.5768018  -0.55554664  0.7589379  -0.15474992
 -0.18345495  0.25261813]
[ 0.22598086  0.05626637  0.23283848 -0.9212089  -0.8424828   0.14733848
 -0.02385606  0.25558618 -0.89728874  0.3636116   0.09858803  0.5387365
 -0.36822253  0.07521099 -0.2102289  -0.11427314  0.03773573 -0.45900285
  0.12640144  0.13276544]
[-1.0072839   1.366509    0.4979414  -1.3095958  -0.36577153 -0.8903564
  0.19922335 -0.54501075  0.4880615  -0.9642913  -0.952622    1.0842365
  0.95939744 -1.8400896  -0.38467103 -0.3140643   1.0417637  -0.14369877
  1.0457501   0.9459072 ]
[-0.58007616  0.10506342  0.27443823 -0.50573665 -0.05238549 -0.40026242
  0.69247067 -0.10271841 -0.51768464 -0.48308924 -0.22137974 -0.01753007
  0.6302723  -0.0808328  -0.21973774 -1.0364748   0.38366327  0.13469854
  0.05430901  0.20630874]
[ 0.13267295  0.23279254 -0.33860958 -0.33829618  0.5781759   0.03709209
  0.6757636   0.31736422 -0.6127134   1.0491261  -1.5494015  -0.7335021
 -0.17142239 -0.19524343 -0.11451975  0.05953903 -1.0896131   0.41472366
 -0.22153197  0.6700307 ]
[-0.04742606  0.1127801  -0.45162797 -0.8953327  -0.9382965   0.61373454
  0.9733142  -2.0184643   2.0413454   0.07907276  0.20216286  0.62481934
 -1.6026261   0.15481974  1.7399786   0.12274987  1.3861228   1.4938687
 -0.40768266 -0.4683348 ]
[-0.27788267  0.12617613 -0.21157975  1.0009128  -0.06637305  1.0435131
 -0.9593532  -0.31711808  0.44011864  1.0122347   0.70314544 -0.7070396
 -0.6243905   0.9275827   0.27351168  1.3761097  -0.6761663  -0.51984084
  0.06688289 -0.7542133 ]
[ 1.0156298  -0.6759193  -0.8980612   0.04043296 -0.07111165  0.20421325
 -0.37917516  0.54275036 -0.04099755  0.18572721  0.29773015  0.02782681
 -0.2066662   0.22837357  0.8213485   0.1429884  -0.06404434  0.02649675
 -0.8792551  -0.28334445]
layer 1 Activation
tanh
layer 2 Dense
20 40
[ 0.47168908  0.45661166  0.06899638  0.3839777  -0.7009886   0.854309
 -0.66221756  0.32295206  1.0242573   0.7355372  -0.7022023   0.7454998
 -0.90906787 -0.51486367  0.08265553  0.4018289  -0.3244274  -0.6821711
  0.32949632  0.25336915  0.45672435 -0.32736707 -0.5211407   0.14715412
  0.60438854  0.6972149   0.55739105  0.1672796   0.47822797  0.62296474
  0.58143127 -0.1930174  -0.95446044 -0.23083471 -0.66923463  0.74397504
  0.703559   -0.821843   -0.51085216 -0.34793288]
[-0.57156503 -0.6298452   0.09248867 -0.34812954  0.6725117  -0.5795438
  0.73209566 -0.54368585 -0.7562925  -0.27311233  0.7036541  -0.5290201
  0.60859627  0.07357234  0.1176488  -0.24323809  0.46850163  0.834982
 -0.55470824  0.1687311  -0.9804827   0.9429583   0.47109282 -0.24294633
 -0.6692071  -0.9950576  -0.4421984  -0.11190073 -0.90309054 -0.5467117
 -0.22503339 -0.31685486  0.6574899   0.06368172  0.67797005 -0.70742744
 -0.2732627   0.3857835   0.7110335   0.18017441]
[-0.43877637 -0.52174944  0.23816058 -0.18859915  0.78830826 -0.6947574
  0.8880531  -0.4145912  -0.63955826 -0.693609    0.6834547  -0.8202023
  0.5038683   0.20613301  0.4109862  -0.6256527   0.31506592  1.0460205
 -0.12829095 -0.29971302 -0.8852989   0.77639973  0.29698968  0.37708077
 -0.40094656 -0.9199512  -0.0051766   0.14950332 -0.6128163  -0.4435012
 -0.54170024  0.21018864  0.56838036  0.06592665  0.7311364  -0.89416236
 -0.18530037  0.8200289   0.8892648  -0.03582262]
[-2.6988577e-02 -5.8691442e-02 -3.7289223e-01  3.9323419e-01
  8.7333715e-01  6.0071784e-01 -2.5096980e-01 -3.1873044e-01
  7.6867342e-01 -7.0402724e-01 -3.9211392e-01 -4.7649126e-02
 -3.4017751e-01  2.8996119e-01 -6.0154033e-01  1.4413763e+00
  7.9850197e-02 -2.0907192e-01  4.1700926e-01  7.6733500e-01
  3.9555731e-01  5.5060664e-04  8.2035549e-02 -1.9294399e-01
  6.4878500e-01  5.6398755e-01  2.2467503e-01 -1.0193090e+00
  2.1568140e-02 -6.5115261e-01 -2.5115281e-01 -8.2345086e-01
 -5.8912319e-01  9.5417857e-01 -3.9094177e-01  4.0255117e-01
  4.8106095e-01  9.9864062e-03  1.2001074e-02 -4.7092184e-01]
[-0.07629393  0.06665678 -0.7648344   0.18674904  0.4589456  -0.06118527
 -0.06266709  0.24046616 -0.04738978  0.50681335  0.13379948  0.11400719
 -0.09161177  0.30847308  0.1798139   0.10904409  0.12829794 -0.01061851
 -0.15674171 -0.5477832  -0.16968231  0.04153905  0.37953892  0.23234308
  0.42332873  0.12850548 -0.15109426 -0.8984454  -0.20298065 -0.6343067
 -0.2146693  -0.22123231 -0.01947468 -0.03240503  0.06806961 -0.06762914
  1.0558     -0.13122027  0.1613262  -1.1428657 ]
[ 0.3932377  -0.20319195  0.7203079   0.27896172 -0.37106344  0.4155825
 -0.4386539   0.7541647   0.31521106  0.47497454  0.75998557  0.21096724
 -0.32971033 -0.88027847 -0.6075742  -0.3798312  -0.49816963 -0.16515759
  0.43596932 -0.33263636  0.23259187 -0.15237795 -0.62725234  0.08209515
 -0.12134753  0.49338946 -0.48586845  0.53056544  0.13875377  0.77870035
 -0.39928347  1.334769   -0.27968213  0.13368542 -0.04366653  0.4432899
 -0.26453465 -0.05509725 -0.49402165 -0.49796006]
[ 0.03056995  0.90233    -0.49944347  0.23891714 -0.46973944 -0.7820174
  0.6139558  -0.34722835 -0.47998163 -0.98382527 -0.03332562 -0.13948435
  0.62329376  0.24292791  1.0987878  -0.51806855  0.17931205 -0.22446369
 -0.34047276  0.51494575 -0.76867527  0.12764938  0.2974199   0.0824636
 -0.55505484 -0.7336274  -0.8408251   0.3566407   0.06718951 -0.46320087
  1.4155585  -1.2909032   0.8483139  -0.85829556  0.58350325 -0.64499795
 -0.7218652   0.08302952  0.6121319   0.22139649]
[ 0.4054583   0.13399579 -0.07810605  0.00726987  0.24698801 -0.0779742
 -0.5304399   1.0861729   0.42234877  0.17716116 -0.27908742 -0.02399582
 -0.18705705  0.5899193   0.02020248  0.55799633  0.0165309  -0.05268278
  0.2550786   0.28583172  0.30289704 -0.06714555 -0.2552421   0.31463903
  0.7455527   0.56254065  0.9004184   0.0927722   0.00299837 -0.5318446
 -0.5837198   0.27406836 -0.14386037  0.18435483 -0.8039304   0.39903325
  0.43560356 -0.04819947  0.43843818  0.01231698]
[-0.08651298 -0.13069116 -0.11658103  1.0314983   0.282532    0.18704818
 -0.14367431 -0.48764828  0.16826591  0.20720372  0.38497204 -0.05887252
 -0.04276242 -0.6889746  -0.6187774   0.54400265 -0.15628135  0.6076095
 -0.16850084  0.6830238   0.42046946  0.26029894 -0.2227181   0.05986717
  0.28109175  0.24675591  0.93603903  0.16097502 -0.42255    -0.91783875
  0.42633846 -0.36796194 -0.31822062 -0.05357971  0.40092826  0.01058828
 -0.12582242  0.05695787  0.17384465 -0.5804849 ]
[ 0.16510451  0.1755532  -0.95275533  0.70726     0.47085938  0.83821946
 -0.18632089  0.35900325  0.9168798   0.73057646 -0.11983364  0.23353475
 -0.8477296  -1.2849268   0.09877981  0.51675606  0.31416005  0.43171632
  0.38798374  0.6005241   0.5471168   0.41594213 -0.2425123   0.79943436
 -0.10805228  0.8027459  -0.05145014 -0.38879946  0.09904424  0.0440019
  0.5483235  -0.19702676 -0.83372223 -0.02716966 -0.74199206  0.62004477
 -0.89049137 -0.05770653 -0.7964646   0.6405573 ]
[ 0.11203138 -0.95525557  0.9816507   0.32758877 -0.37875384  0.6576099
 -0.24234234 -0.02130492  0.44740072  0.4155998  -0.48553768  0.08353364
 -0.3309422   0.25493386 -1.0628707   0.6059134  -0.039793    0.09449705
  0.4850091  -0.567689    0.6402805   0.16352825 -0.21206528  0.17103763
  0.7801939   0.17390339  0.6277389  -0.17256743  0.1857396  -0.19647501
 -1.0972362   0.18751459 -0.42083716  0.5647842  -0.5998204   0.5164444
  0.82122386 -0.17123397  0.08632682 -0.8167865 ]
[-0.31686893 -0.23208338  1.5629941  -0.5672215  -0.50630486 -0.66915965
  0.30649295 -0.74954087 -0.54097056 -0.19956356 -0.11626781 -0.12075701
  0.7423369   0.12353775  0.01445949 -0.6250411   0.08108895  0.4131681
 -0.49847993 -0.34813088 -0.5891366   0.57274586 -0.05324074 -1.7926134
 -0.59131724 -0.42726457  1.5430993   1.2767262  -0.456014   -0.8477428
 -0.0314777   0.4295751   0.44772205 -0.99049544 -0.05729068 -0.4079101
  0.45492935  0.23884183  0.25165924  0.5531311 ]
[-0.0173735  -0.11073402  0.45883542 -1.0309087   0.0704035  -1.0379796
  0.6929562  -0.6148873   0.03377378 -0.62258047 -1.6378647   0.00254028
  0.75633353  1.3687003   0.60992837  0.19585072 -0.09673827 -0.65246296
  0.06112178 -1.0634378  -0.8373434  -0.22631207  0.21858205 -0.26305607
  0.62372696 -0.64841044  0.01405224 -0.4859176   0.47610882  0.13331787
 -0.05332324 -0.8247926   0.64461476  0.20183846  0.67732674 -0.6931826
  0.77795315 -0.02114236  0.21523806 -0.4143252 ]
[ 0.60202044 -0.49626243  0.12259396  0.18799439  0.22073038  0.19606721
 -0.43802512  0.27346158  0.93399024  0.4788244   0.5041932   0.42678347
 -0.6616217  -0.892535   -0.39528424 -0.00627847 -0.8298557  -0.533098
  1.8400517   0.33883718  0.663132   -0.52443486 -1.1259562   0.75140095
  0.2621946   0.72648203 -0.14464486 -0.25977486  0.12794168  0.38680902
 -1.4117601   0.9825138  -0.37551773  0.7784699  -1.0405262   0.19046699
 -0.6096361  -0.42072624 -1.0920336  -1.2028857 ]
[ 0.50519466  0.3943415   0.25456628  0.66060525  0.09147788  0.598993
 -0.24938597  0.64026594 -0.02380958 -0.15338281  0.492048    0.01815492
 -0.14532588 -0.45984155 -0.55834335  0.02881572 -0.787851    0.5359093
 -0.9421719   0.6979055   0.19244239  0.1600747   0.4967382  -1.4543179
  0.12436993  0.26551163  0.44669214  0.9349928  -0.0402615   0.8926442
  0.49428013 -0.58141357 -0.28809267 -0.06349815 -0.12128171 -0.12419496
 -0.02419457 -0.26672798 -0.57303697  0.780767  ]
[ 0.20178331  0.05133425  0.04044633  0.64578474  0.36915174  0.01695557
 -0.22986776 -0.03892291  0.6114067   0.19273238  0.26859546 -0.20838255
 -0.41000742 -0.3943652  -0.8985419   0.64785606 -0.1268822   0.34367865
  0.47731537 -0.0783806   0.6917416   0.17629653 -0.4720105   0.05273687
  0.40056187  0.29590532 -0.30600074 -0.28545013  0.0111757   0.14340948
 -0.7514874   0.00318168 -0.32069445  0.81847125 -0.4696468   0.32364792
 -0.27249032  0.34446365 -0.23446389 -0.24045205]
[-0.1040108  -0.32512465  0.9928382  -0.2802981  -0.26828915 -0.68676734
  0.7860952  -0.81365    -1.0296808  -1.0405501  -0.37525746  0.05616751
  0.5826276   0.23913604  0.69964546 -0.36688325  0.03194602  0.08806818
 -0.16770492 -0.41730076 -0.56504744 -0.16701896  0.17796414 -0.56692874
 -1.1714231  -0.7746889   0.17196442  0.33008236  0.04614197  0.07573291
  0.10545802  0.14365269  0.8106945  -0.5117614   0.7873932  -0.97017986
  0.18600231 -0.02337379 -0.05277507  0.52285105]
[-1.4623830e-01  2.8841490e-01  3.0815846e-01  6.0781193e-01
 -5.0764483e-01  2.7179629e-01 -2.3379806e-01  3.0393881e-01
 -4.3497536e-01  6.2002349e-01  4.7925845e-01  1.2398928e-02
  1.3254983e-02 -5.4092121e-01  1.2857239e-01 -2.4104421e-01
  5.8147728e-01 -2.9654518e-01 -1.7932834e-01  3.9660358e-01
 -2.1306127e-02 -2.6785180e-01  6.7420803e-02 -5.0621760e-01
 -4.9974334e-01  6.6548623e-02 -3.6933124e-01  1.0329183e+00
  7.8575715e-02 -2.2429509e-02  3.8002983e-01  3.1106505e-01
  2.3534785e-01 -7.5183272e-01 -2.4270137e-01 -7.3554397e-02
 -1.5949697e-04  6.6271566e-02  5.6540620e-01  4.0744656e-01]
[-0.5238562  -0.56689465 -0.20731308 -0.2106606   0.5819931  -0.6142967
  0.40082404 -0.8179451  -0.41336498 -0.35075408  0.6263216  -0.23629631
  0.8155717   0.04867662  0.33669302 -0.28345653  0.25086874  0.7360107
 -0.51227564 -0.12988193 -0.38001007  0.47078776  0.33641717  0.27330768
 -0.28600705 -0.8362305  -0.31324658  0.17733382 -0.6079476  -0.51288134
 -0.3640058   0.00126233  0.7648448  -0.23478414  0.3041582  -0.87093574
 -0.4135359   0.60183644  0.36799932  0.19498448]
[ 0.13039634  0.12808989 -0.32574838 -0.17911433  0.63037145 -0.55270296
  0.28962925 -0.5567999  -0.6116058  -0.39513454 -0.06598876  0.03827647
  0.70203805  0.50890064  0.7505459  -0.14265496 -0.25136107  0.51891893
 -0.26450878  0.17348278 -0.38771102 -0.20135142  0.2525767   0.1945463
 -0.49921498 -0.66641366 -0.19468148 -0.16318217 -0.06264961 -0.06259921
  0.52605164 -0.70195276  0.4775382  -0.5056345   0.8075228  -0.41157228
  0.61297536 -0.05181453  0.31836742  0.476493  ]
[ 0.66156805  0.49400708 -0.23695041  0.25988096 -0.42221755  0.65621924
 -0.643276    0.5110941   0.8800902   0.5433625  -0.45865685  0.5218492
 -0.71129245 -0.5246988  -0.22234698  0.34644175 -0.40858677 -0.43574584
  0.40367648  0.18666083  0.7798213  -0.27509278 -0.3436263  -0.067681
  0.4580451   0.8421321   0.5018673  -0.12726061  0.38230658  0.656149
  0.3188132   0.03978446 -0.6530859   0.03582878 -0.62815326  0.7048614
  0.4438084  -0.55813193 -0.7122816  -0.24129225]
layer 3 Activation
tanh
layer 4 Dense
40 20
[-0.09036627  0.05320809  0.42426538 -0.09461553 -0.09461194  0.30782953
  0.13493124 -0.03164976  0.04337212 -0.13714567 -0.1396533  -0.00316633
  0.26152346  0.21064222  0.22914466  0.13086249  0.3969183   0.26446608
  0.12137082  0.47667488]
[ 0.27375656  0.26912928  0.54200417 -0.6432569   0.18499506  0.2659443
  0.6497926  -0.21598002  0.02761495 -0.12824105  0.35228258  0.391774
  0.26324955  0.27729294  0.21624914 -0.3191059   0.16740075  0.3821378
  0.26729807  0.15076998]
[-0.48367193  0.28034738  0.23469792 -0.09784365 -0.32149008 -0.20406464
 -0.01376609 -0.02587291  0.31625828  0.33261466 -0.5656593   0.18847392
  0.23442578  0.09113687  0.41497082 -0.19260247  0.01288387  0.18144447
  0.47035116 -0.59609187]
[ 0.50507987 -0.13049531  0.01119714 -0.22465962  0.58854985  0.46990287
 -0.43463814 -0.03553566 -0.3916427  -0.38955542  1.0579944  -0.36641958
 -0.09444836 -0.23370323 -0.25390604  0.2785714   0.05131155 -0.3518004
  0.24575277  0.60517687]
[-0.29156727 -0.6867764  -0.5226476   0.15619473 -0.21256815 -0.39177683
  0.14613944  0.10621816  0.27761558  0.26869994 -0.61563665  0.06004786
 -0.36849123 -0.55983484 -0.5528489   0.3781294  -0.4304166  -0.17912336
 -0.6302228  -0.24100752]
[ 1.1306293   0.34322247  0.08199243  0.3042379   1.1071142   0.79931355
 -1.3308433   0.10659304 -0.30109927 -1.406061    1.292858   -0.7496165
 -0.07313477  0.31429192 -0.18371592  0.11785784 -0.21842611 -0.6058364
 -0.15791665  1.5155226 ]
[-0.29935387 -0.03928351 -0.39535367 -0.21217556 -0.22989371 -0.80480975
  0.59280336  0.20983456  0.3295442   0.52385753 -0.03237678 -0.05534948
 -0.03919864 -0.0044213  -0.36846918 -0.14137493 -0.24304989  0.18736409
 -0.26713073 -0.11036841]
[ 0.6871984   0.05432988  0.2866514   0.17942958  0.61943245  0.11445383
 -0.21225709 -0.04075365 -0.4268227  -0.30599368  0.550149    0.49635294
  0.22828606  0.28487352  0.37086973 -0.07170874 -0.07815868 -0.47495493
  0.17943485 -0.1364306 ]
[ 0.72425324  0.2891053  -0.12616098 -0.40333357  1.1394643   0.8708111
 -1.2157141  -0.11377028 -0.8851958  -0.8697488   0.5441194  -0.6922814
  0.21360701  0.16548066  0.3563125   0.06152921 -0.4995472  -0.93746966
  0.219626    0.3949497 ]
[ 1.1007916  -0.27725062  0.31914192  0.21393423  0.7488447   0.68191236
 -0.71824545  0.2948888  -1.2725772  -0.6003303   1.383004   -0.59700644
 -0.30270046 -0.15974478 -0.00782322  0.17354925 -0.03997606 -0.7799248
  0.03428975  1.2468202 ]
[ 0.67411095 -0.4391471  -0.19306868  0.18707806  0.54114157 -0.2910876
  0.3442023   0.18240711 -0.13927077 -0.17335333  0.21335027 -0.3949422
 -0.5302911  -0.5762231  -0.73920727  0.61826515 -0.17000857 -0.75287145
 -0.21116547  0.4264446 ]
[ 0.37458527  0.8456449   0.6120871  -0.6353869   0.42972797  0.75884455
 -0.28497192 -0.14551193 -0.19002709 -0.5495857   0.46310794 -0.23284544
  0.29734126  0.7108109   0.51491714  0.23893742  0.5059378   0.06349894
  0.44128737  0.09551334]
[-0.9559185  -0.11141527  0.01323529  0.55616444 -0.5653081  -0.7552018
  0.5118718   0.0029611   0.47568974  0.42737886 -0.59014964  0.05306722
 -0.19186486 -0.1234594  -0.34797803  0.02070556 -0.12806824  0.55720323
  0.13769232 -0.13307723]
[-0.6251976  -0.0139416   0.11354298 -0.19574468 -0.7311074  -0.7989755
  1.1199429  -0.10582399  0.450704    0.52410334 -0.87751615  0.4266423
  0.44701836 -0.09565926  0.20656121 -0.3042164   0.01861434  1.0490208
 -0.34293178 -1.0416424 ]
[-0.8461078   0.09676232 -0.24991149  0.36875847 -0.57689047 -0.7797942
  0.7062864  -0.12022065  0.00800131  0.6732888  -0.26327157  0.7353512
  0.14510357  0.07315485  0.4150293  -0.17644735  0.06009652  0.7173896
  0.08982779 -0.6586998 ]
[ 0.29169533  0.14237058 -0.21057914  0.4039197   0.5070986  -0.37238434
 -0.05684872 -0.05322719 -0.2724031  -0.07375596  0.74633896 -0.500366
  0.06086086 -0.02968614  0.09266415 -0.03985985 -0.02189891 -0.38586003
  0.19700547  0.612402  ]
[-0.3423156  -0.20920138 -0.21723263  0.01087324 -0.2237788  -0.35419893
  0.15718591 -0.1117608  -0.03471524  0.26419526 -0.14579764  0.23075174
 -0.1343663  -0.13110512 -0.11199648  0.03395399  0.29185495 -0.52005297
  0.00368141 -0.62591165]
[ 0.2799416  -0.3623872  -0.5451629   0.41898835  0.30641147  0.22265363
  0.32440352  0.9107921   0.11359722  0.1335496   0.03150599 -0.2299224
 -0.34450313 -0.37160084 -0.5600915  -0.61382204 -0.0736171  -0.47852072
 -0.5476205   0.2601748 ]
[ 0.43175834 -0.2614253  -0.10224739  0.2545178   0.4698341  -0.04850856
 -0.49010342  0.2959634  -0.47089553 -0.16472062  0.3304787  -0.5890499
  0.03968886 -0.15147217  0.237468    0.49455628 -0.50373006 -0.8323855
 -0.13304871  0.11426815]
[ 0.5937155  -0.24423859 -0.50895     0.0724954   0.58941454  0.35239854
 -0.40631565 -0.00467372 -0.10722183 -0.34401196  0.33582565 -0.09507109
 -0.19798426 -0.26285538 -0.4290328   0.01428132  0.03236829 -0.20906182
 -0.3679098   0.5205864 ]
[ 7.35222340e-01  5.23586452e-01  9.70151052e-02 -2.55355626e-01
  7.03288734e-01  1.11982203e+00 -6.50941849e-01  1.47116154e-01
  4.41178781e-05 -5.32878339e-01 -1.07269682e-01 -9.01036620e-01
  2.60513306e-01 -1.13336809e-01  1.17151864e-01  1.86494336e-01
  2.69086719e-01 -5.19586623e-01  2.54306793e-01  5.07291615e-01]
[-0.2635021  -0.63150394 -0.29785234  0.43079644 -0.04204004 -0.35507435
  0.20851736  0.6259425   0.6121478   0.22961931  0.07650855  0.20807606
 -0.47853133 -0.11946227 -0.56328344 -0.15119    -0.40346202 -0.36215794
 -0.31921616 -0.09967119]
[-0.19675335 -0.2209719  -0.18735525 -0.21021172  0.52428025 -0.19256505
  0.67406076  0.05485243  0.3318276   0.20081072  0.02990673  0.37063763
  0.03697878 -0.1449977  -0.25570643 -0.2158776  -0.00732166  0.31783807
 -0.45774552  0.30128542]
[ 0.25245142 -0.19627728 -0.55008036  0.20285623  0.12557887  0.02185593
 -0.4302407   0.01719476 -0.26296878 -0.12836382 -0.09691051 -0.68649346
 -0.5798581  -0.33446538 -0.33413452  0.35690704 -0.02540468 -0.2860643
 -0.37483087  0.42616782]
[ 0.74580777 -0.24516109 -0.13309294  0.15925798  1.0541313   0.43396643
 -0.70330304 -0.00719806 -0.6584636  -0.47978878  1.0850513  -0.59287244
  0.42466137 -0.12261555 -0.10291433  0.07429584  0.15180928 -0.66212016
 -0.1906566   0.530376  ]
[ 0.7502617   0.61640185  0.20650356 -0.14792679  1.1041965   0.9184689
 -1.4889566   0.25112998 -0.9305104  -0.4810412   0.7367158  -0.6367345
 -0.16537409  0.39776394  0.45601153  0.1446829   0.29139912 -0.67672855
  0.20310488  0.7640369 ]
[ 0.1390498   0.07117801  0.14756149 -0.34632012  0.28196943  0.37138757
 -0.43504593  0.06935496 -0.24970183  0.36382946 -0.08702985  0.15339494
  0.01138927  0.17483518 -0.15473108 -0.32636058 -0.03100955  0.33271396
  0.07534564 -0.20498051]
[-0.3535571   0.04821267  0.21417114 -0.08099793 -0.37401175  0.14833574
 -0.2221844  -0.06761674  0.2814111   0.03781372 -0.14277573  0.75819665
  0.35592985  0.17302817  0.02343262 -0.23351121 -0.01727971  0.17118837
 -0.08464947 -0.45396978]
[ 0.07708545  0.5390946   0.16322969 -0.55447704  0.17763542  0.24486835
 -0.2555711  -0.72714967 -0.5013588  -0.12816308 -0.13830288 -0.22899611
  0.256249    0.34981924  0.82228327  0.09818228  0.25101596  0.01590235
  0.5000924  -0.03588326]
[ 0.09971185  0.40573898  0.3526129   0.02634721 -0.06896935  1.0801628
  0.321873   -0.09553721  0.0238886  -0.15903679  0.2430531   0.26306483
  0.56300324  0.36220747  0.35063905  0.08986369 -0.05315427  0.56546277
  0.23724009 -0.00147183]
[ 0.11893037  0.44644636  0.31141827  0.07857758  0.32054612  0.71631867
 -0.3678122  -0.10317705  0.15460254 -0.40771103  0.5445221   0.45536724
  0.21525656  0.29266748  0.17794667 -0.40550688 -0.06873137 -0.06935284
  0.5210714   0.20227024]
[ 0.7874582  -0.25819024  0.44228196 -0.2326907   0.07967892  0.03546834
 -0.5348777   0.06611758 -0.32412523 -0.14459814  0.28690395 -0.59191906
  0.14990255  0.07944103  0.2021876   0.29629037 -0.19588552 -0.14942883
  0.0312581   0.240295  ]
[-0.746632   -0.32539564 -0.5535182  -0.19324362 -1.4743851  -0.66255236
  0.9297854  -0.34344172  1.0509409   0.771668   -1.2002742   0.53264946
  0.1884787  -0.21685229 -0.09010286  0.25370672  0.04964132  0.9406923
 -0.81412274 -1.1458904 ]
[ 4.5911855e-01 -1.2689543e-01 -3.4873474e-01  1.5018757e-03
  3.6923459e-04  1.8960740e-02 -1.6670127e-01  1.5112071e-01
 -2.8309442e-02  8.7840348e-02 -1.4139004e-01 -4.1100907e-01
  9.7784229e-02  1.5780905e-01 -1.9444422e-01  3.4840614e-01
 -7.9446495e-02 -4.8476449e-01 -3.3807033e-01  5.8377051e-01]
[-0.9161675   0.05261216  0.12693225 -0.23635265 -0.42623445 -1.1451206
  0.63992536  0.260466    0.6467547   0.41341946 -0.74506474  0.07611956
 -0.14954376  0.06132632 -0.6016541  -0.21378668  0.16754976  0.95951724
  0.08421715 -0.31131244]
[ 0.78857696  0.3209644   0.14131673 -0.17937492  0.48146412  1.055097
 -0.9529651  -0.268864   -0.85021734 -1.2518185   1.1433331  -0.42364684
  0.48487532  0.14076135  0.75366396  0.12819561 -0.03140106 -0.88261604
 -0.1406096   0.42144135]
[ 0.20027694  0.52520454  0.41360572 -0.07508289  0.40645388  0.47697547
 -0.2867823   0.10330856  0.28863633  0.15480267  0.4302832   0.01125638
  0.50750875  0.6552598   0.2652707  -0.3699654   0.11644352 -0.37902835
  0.5205681   0.43216035]
[ 0.06314308 -0.3211828  -0.53162885  0.33005473 -0.4291492  -0.3009399
  0.5830174   0.04238346 -0.12583773  0.7161828  -0.77579725  0.09621201
 -0.48452452 -0.55155945 -0.08287037  0.04013897 -0.42955342  0.280537
 -0.53394544 -0.4899311 ]
[-0.44302043 -0.3044845  -0.35609528 -0.09865816 -0.31117573 -0.6735033
  0.83746445 -0.23520148  0.700794    0.659903   -0.6872436   0.50330436
  0.14772992  0.09804652 -0.145137   -0.27915263  0.21431956  0.22367346
 -0.3201399  -1.1909326 ]
[-0.33444902  0.3397049   0.13724416  0.12629242  0.2752706  -0.7586539
  0.29447863 -0.05743882  0.11597186 -0.2973705  -0.44394392  0.6363747
 -0.29474115 -0.02868754  0.16864656 -0.22654173  0.03084339  0.42647457
  0.28400388 -0.70214707]
[ 0.06347965  0.26343393  0.20384398 -0.20925939  0.2532222   0.39692864
 -0.36611792 -0.23281267 -0.12192269 -0.41515625  0.44920564  0.05930642
  0.27865812  0.20776485  0.293961   -0.0025499   0.33046117 -0.03402531
  0.41734034  0.22103055]
layer 5 Activation
tanh
layer 6 Dense
20 1
[-1.7309568]
[1.9429052]
[1.7588947]
[-1.9720249]
[-1.3629031]
[-1.0432522]
[1.3039389]
[-1.8608351]
[1.6225473]
[1.1265322]
[-1.6205722]
[1.8368288]
[1.6986142]
[2.007524]
[2.009098]
[-2.897229]
[1.7648222]
[1.8701482]
[1.4866498]
[-1.4374148]
[1.3899322]
