layers 7
layer 0 Dense
20 20
[-0.2558242  -0.27267054 -0.13746864 -0.17034012  0.43332937 -0.35382187
 -0.4028879  -0.41427448  0.2741829  -0.11845386 -0.14279945  0.27447942
  0.29779157  0.25264394  0.1839285   0.0058116  -0.2067844   0.25151712
 -0.06565174  0.10332857]
[ 0.17211479  0.11819851  0.20090657  0.06167394 -0.07423168  0.3705268
 -0.36770675 -0.07546139 -0.21572839 -0.09194705 -0.02155676 -0.18446724
  0.1749931   0.24999624  0.36447597 -0.14125495 -0.23605637  0.26741934
 -0.31072742  0.2687676 ]
[-0.18559812  0.2908489  -0.37938368  0.19687885  0.22407955 -0.00054213
  0.18783659 -0.15437162  0.12203187 -0.10601574  0.00760496  0.27017856
  0.34128362 -0.05915818  0.36580986  0.17206305  0.17158759 -0.14284696
 -0.03495619 -0.00377926]
[-0.01893306  0.15552106  0.0835572  -0.4234432  -0.01377599 -0.34470752
  0.21441957  0.239217    0.00877457 -0.28990874 -0.2021039   0.32613575
  0.11561866 -0.25634244  0.1649028   0.26699296 -0.33562186 -0.13623357
 -0.15542346 -0.1233757 ]
[ 0.260914    0.03379614 -0.0056738   0.04498037 -0.01334402  0.06386681
  0.15053266  0.14827718 -0.0039899  -0.5171752  -0.07313512  0.10787583
  0.14524053  0.16850063  0.19943759 -0.03982915 -0.43454394  0.28107822
  0.26160616  0.1349899 ]
[ 0.21804917  0.23190922 -0.1075711  -0.13340104  0.05071393 -0.1680187
  0.04667291 -0.2795382   0.12655705  0.20987195 -0.05336556  0.24881166
  0.10898307  0.0935145   0.28920835  0.18231964 -0.26393366 -0.1530014
 -0.1847101  -0.30480295]
[ 0.22686893  0.04172832 -0.02760801  0.17233425 -0.3652702   0.1815604
  0.27668005  0.20689207 -0.13856797 -0.22088136  0.12450552  0.37984592
  0.12109756 -0.22819592  0.32037568 -0.12320071 -0.37571108 -0.05519339
  0.36164808  0.3719378 ]
[ 2.4335163e-02  4.8909444e-01 -1.6453239e-01 -2.2170512e-01
 -2.2798349e-01  9.0563893e-03  7.0056632e-02  3.2192987e-01
 -2.1171235e-04  7.3851109e-02 -2.1474752e-01  4.4604114e-01
  2.1681276e-01  4.0396690e-02  1.0673353e-01 -9.9071577e-02
 -9.6635390e-03 -6.7492172e-02 -2.0817935e-01 -1.8441895e-02]
[ 0.12639748 -0.3504361  -0.09752479 -0.14048207 -0.01903787 -0.44202757
  0.2127112   0.19888903  0.21452221 -0.02023888  0.10473544 -0.40869457
 -0.28728133  0.38101435 -0.54128814  0.2405788  -0.5267627  -0.00580111
 -0.13177304 -0.05314573]
[-0.75408125  0.01089878 -0.26412222 -0.30014762  0.07250642 -0.7737482
  0.31042975 -0.60944575 -0.48878825 -0.08752085  0.198684    0.47702494
 -0.45956615 -0.41747797 -0.41368732 -0.3445431   0.10583974  0.22519933
  0.33569014 -0.09029956]
[ 0.12424193  0.00309364 -0.19834547  0.41906378  0.09029318  0.40501374
  0.5788036  -0.1093327   0.5054274  -0.26258606 -0.4816042  -0.24774915
  0.30598742 -0.23696987 -0.04587951  0.28893968  0.14540547  0.03983691
 -0.5118914  -0.01869637]
[-0.4419392   0.52295953  0.33801416  0.44646272  0.54562855 -0.1644997
  0.44516858  0.19030102  0.02647074 -0.4122515   0.04791861  0.34624448
  0.34710997 -0.1118712  -0.44162032 -0.28875586  0.712838   -0.2725091
 -0.31507188  0.06121977]
[-0.11484724 -0.13772531 -0.4529337  -0.32933757  0.16419634  0.00292407
  0.59439933  0.12625754 -0.09703427 -0.23648353 -0.05244207 -0.10654178
  0.20591855 -0.06642234  0.12761325  0.46612576 -0.3200246   0.31004766
 -0.15929009  0.14116238]
[ 0.05002503  0.13692684  0.14531218 -0.03301428 -0.41176623  0.33038068
 -0.25816494  0.57110673  0.1880143   0.08737197  0.42538208  0.20790869
  0.45589507  0.47871712 -0.01993783 -0.03157881 -0.05174102 -0.4201773
 -0.1388227   0.6296679 ]
[ 0.45145822 -0.05783091  0.57075477 -0.14920941  0.18546318 -0.21174973
 -0.12340942 -0.23283236 -0.01194594  0.2029905   0.24109463  0.6176934
 -0.02532885  0.6877254  -0.5043008   0.06425052  0.14478686 -0.09537504
  0.10383818  0.36022872]
[ 0.1888348   0.36270648  0.60853535 -0.11972479 -0.13500164  0.16041969
  0.4268811  -0.47801128  0.11378675 -0.30302063  0.17751259  0.5286795
  0.3022271  -0.4752852   0.7178203  -0.33253288  0.1072963  -0.02693227
  0.02461536  0.5558297 ]
[-0.33047277  0.38512418  0.21575105  0.11406321  0.25474542  0.41150358
  0.18693735 -0.25235364  0.19714451 -0.49099776  0.2990125   0.05489459
 -0.10193467 -0.14909157  0.00957484 -0.33649328  0.20522474 -0.18336208
 -0.30470347  0.37819496]
[ 0.14941622 -0.15175836  0.3162119   0.26772642  0.4448268   0.491846
  0.09198681 -0.31325942  0.22769646  0.18876    -0.14331253 -0.21724108
 -0.20109609 -0.38079172  0.34616953  0.29240438  0.06292427  0.12489332
 -0.00572159 -0.05638432]
[-0.18044847  0.05681266 -0.4038162   0.34258106 -0.31198296 -0.17402487
  0.17971843 -0.70115125  0.07268918  0.03234242  0.42901328  0.0202309
 -0.17360702  0.27305856 -0.04687053 -0.2571912   0.04765135  0.09003151
  0.24921127  0.27773336]
[ 0.05807308  0.38429964  0.11139662 -0.36769328 -0.19726479 -0.05817527
 -0.08174668  0.26526734 -0.34604067  0.10977531 -0.28559893 -0.2520045
 -0.02090203  0.26633015 -0.26031762  0.32134482 -0.49291778  0.4429264
 -0.41634676  0.03611347]
[ 0.03840721 -0.08431476 -0.01237076 -0.04283768 -0.03794761  0.12480813
 -0.17358537 -0.09435792 -0.1896961   0.15809762  0.10238638 -0.07501364
 -0.03778188  0.043308   -0.03233914  0.03859041  0.02594374  0.07970195
  0.07771637  0.26333547]
layer 1 Activation
tanh
layer 2 Dense
20 40
[ 0.3659462  -0.2656916   0.2682267  -0.09571934 -0.18230294 -0.03884773
 -0.21658604 -0.22010455  0.14264314 -0.11521734  0.772114    0.27250755
  0.12636182 -0.63333017  0.27213427  0.13712186  0.17498828 -0.04667116
  0.18970431  0.39989334 -0.15096323  0.04821268 -0.05421384  0.3717059
 -0.9837233   0.23137674 -0.2698658  -0.06994997 -0.09454323 -0.43782943
  0.4547324   0.2799782  -0.34791204  0.3479717  -0.13928454  0.04591095
 -0.32403502  0.17221706 -0.0600483   0.12672576]
[-1.44077078e-01  1.85385644e-01 -2.30109707e-01 -3.61778075e-04
  8.89016539e-02  1.56023040e-01 -1.48847476e-01  3.15615296e-01
 -2.12943956e-01 -3.74243408e-01  1.74883038e-01  2.48741433e-01
  1.59704313e-01 -8.84605348e-02 -1.09837214e-02 -2.03193516e-01
 -1.30492002e-01  1.24963865e-01 -2.88033094e-02 -7.20549449e-02
  1.49748856e-02  1.06236055e-01 -1.42957885e-02 -1.82547078e-01
  4.72878441e-02 -3.03410470e-01 -2.22088754e-01  1.09566227e-01
 -3.27112943e-01  2.42536172e-01 -1.22572258e-01 -1.49767414e-01
  1.19409472e-01  7.95470029e-02  1.86838299e-01  2.19227880e-01
 -1.73100606e-01 -2.22797111e-01  7.02485964e-02 -2.27211267e-01]
[-0.1601149  -0.24733603  0.02519801 -0.33749574 -0.14421467  0.52404904
 -0.09897748 -0.5541993   0.28292796 -0.36987984  0.21096614 -0.21673432
  0.21412085 -0.44737226 -0.33289054 -0.06870184  0.1507818   0.35855213
  0.49540767 -0.0931293   0.46794483  0.22472192 -0.16578221 -0.23363526
 -0.25437662  0.50799227 -0.21904802  0.3476028  -0.03057281 -0.06355286
  0.33369204 -0.14191239  0.66649777 -0.18079557 -0.29556698  0.409114
 -0.3106907   0.29979458 -0.49095336  0.02859267]
[-0.30655545 -0.0230622   0.3305267   0.1529829  -0.04229094 -0.39459768
 -0.05677769 -0.22397204 -0.12290168 -0.1259296  -0.35178155 -0.10004528
  0.07453191  0.17322119 -0.19624607 -0.25115356 -0.21745317 -0.23259126
 -0.00562258  0.36483562  0.26560766 -0.19929668 -0.3226469  -0.10039403
 -0.09732964 -0.29801232 -0.0691097   0.23781191 -0.06426532  0.25385284
 -0.11342274 -0.27453694 -0.10381348  0.36860192 -0.02678677 -0.1277068
 -0.43171176  0.03438961 -0.26703793  0.06336969]
[-0.32212397 -0.00328473  0.10944239 -0.24794926 -0.2611715   0.4499172
  0.08887114 -0.22992483 -0.16700236 -0.1680102   0.16041793 -0.26369017
  0.22101429 -0.05604756 -0.10223906 -0.08680377  0.23767476  0.01462449
  0.1720923  -0.15780893  0.1321707  -0.09302631 -0.09817677 -0.28636587
  0.28387734  0.26281008  0.22879998 -0.04130538  0.10522905  0.21311519
 -0.05819699  0.26072106  0.39498347  0.24536447 -0.33464584  0.03339848
  0.29398715 -0.02483703 -0.26252678  0.20860553]
[ 0.23777962  0.43209025  0.28448844 -0.04092878  0.12667264 -0.45117676
  0.02241918 -0.15431225  0.05788089 -0.1699273   0.29280445  0.24983421
 -0.29803237 -0.25365755  0.19145322  0.27599722 -0.25746372 -0.4943465
  0.22861977  0.36177063  0.3456331   0.28229067 -0.4899327   0.21782528
 -0.2755081  -0.01256646 -0.01061518 -0.25065184 -0.39800555 -0.13558182
  0.12791449 -0.47943616 -0.29902634  0.45037892 -0.3960758   0.27546504
 -0.39866114  0.5837148  -0.08930974  0.14924832]
[ 0.22998308  0.1989999   0.19291243  0.16519354  0.2225951  -0.063277
 -0.01107458 -0.05714148 -0.44080618  0.20601533 -0.1248455  -0.21011049
  0.33202013  0.4411731   0.09089232 -0.08715557  0.03185384 -0.09580392
 -0.10230973  0.0723112   0.04357082 -0.15521803 -0.03614475 -0.03055562
  0.28686592  0.12943105  0.3482695   0.00703018  0.1214679   0.06380793
 -0.28937143 -0.03373505  0.1836369   0.01605611  0.03092068 -0.30934688
 -0.08697786  0.06867611  0.37766424  0.16583666]
[ 0.5074279   0.04410328 -0.00900345  0.20831747  0.2017354  -0.224537
 -0.2738926   0.16571154 -0.13108143 -0.14514168  0.6850415   0.11305073
  0.01842359 -0.24071024 -0.06966973 -0.14562201 -0.10311759  0.14798926
 -0.16969597 -0.1997067   0.33226332  0.4767065  -0.15404774  0.06644966
 -0.56192243 -0.15521121 -0.36749175 -0.06863204 -0.34038273 -0.40105343
  0.62526745 -0.29155967 -0.11382852 -0.02800815 -0.23613368  0.06869419
 -0.37420753  0.3963034  -0.12696795 -0.28837252]
[ 0.32329807  0.1519572   0.0218317   0.0702088  -0.20423266 -0.18010029
  0.09994076  0.04539145 -0.17558707  0.1927139   0.26041698 -0.17097849
 -0.04143907 -0.22493121  0.01988417  0.19349454 -0.10867118 -0.03905562
 -0.09533724 -0.09190966  0.2794641   0.27334002 -0.32943165  0.16282646
 -0.04663005  0.13384034  0.1782732   0.2940821  -0.37664786  0.09296612
  0.0557803   0.15231527  0.24924088  0.02461195 -0.2884717   0.15016323
 -0.23741116  0.07444051 -0.00977502 -0.0732227 ]
[ 0.16397358 -0.25896174 -0.04315939 -0.04791023 -0.33904564  0.01486331
 -0.26296574 -0.38971126 -0.04326128  0.13432658  0.24024813  0.03855546
  0.00052766 -0.25550455  0.2071906   0.19445424 -0.19676483  0.08255167
  0.00178183 -0.27317795 -0.2756959   0.18697987  0.11704259 -0.03211146
 -0.11467437 -0.10576097  0.05291329  0.03145451 -0.27891493  0.0443208
 -0.01429806 -0.06181667  0.12887119 -0.09258086 -0.07748473 -0.14357108
 -0.0046609   0.28955182 -0.41777122  0.12249032]
[-0.26433626  0.16997612 -0.25980422 -0.20352302 -0.36354077  0.36368942
 -0.08535397  0.27316102 -0.13224834 -0.13575076 -0.12633562 -0.12096551
  0.38705137  0.00627626 -0.2761784  -0.27268744 -0.17980954 -0.15572236
  0.25322545  0.13414527 -0.22154    -0.45561716  0.213098   -0.02681356
 -0.00413484 -0.16269901  0.28259748  0.08022051 -0.09442576 -0.42267805
  0.11310665  0.06485959 -0.13274297  0.1133581  -0.22510396  0.14805594
  0.06163287 -0.22747552 -0.23335056  0.10096491]
[-0.48731852 -0.2398877  -0.14940833 -0.5666211  -0.31135383  0.00996982
 -0.04972199 -0.19721548  0.11283953  0.1941478  -0.04023177  0.11798746
  0.23171015  0.18090029 -0.31685328 -0.4226638  -0.3134451   0.3040513
  0.16639489 -0.3891798   0.15587775 -0.08833136 -0.08484193 -0.45097175
  0.21206164  0.4624984   0.14362743  0.38760144  0.07810076  0.32090127
 -0.49587497 -0.06188279  0.06685423 -0.37412053  0.19509663  0.06481537
 -0.22022378 -0.372477   -0.2109738   0.1614083 ]
[ 1.9976346e-01  1.9555571e-02  2.8237823e-01 -2.8699765e-01
 -1.2893915e-01  3.5991591e-01 -1.4250459e-01 -9.1523901e-02
 -1.9981684e-03 -1.8529084e-01  1.1418029e-01  2.6071623e-01
 -7.2060294e-02 -8.5396551e-02 -1.7539379e-01 -3.1755853e-01
  5.6795083e-02 -1.6316405e-01  1.7935488e-01  2.6895985e-02
 -1.5134388e-02 -1.1933474e-01 -6.9274403e-02  7.4447677e-02
 -2.1930951e-01  1.3821881e-01 -6.7550577e-02 -1.6525704e-04
 -4.2638686e-02 -5.0196685e-02  1.5965794e-01 -1.4697908e-01
 -2.2107401e-01  2.1876311e-01  1.7312977e-01 -4.0817134e-02
 -9.4289273e-02 -6.0657267e-02  8.5300744e-02  1.2023091e-01]
[ 0.15044916 -0.5069528  -0.11778938 -0.35922632  0.05112546  0.02577273
 -0.34844112  0.02786505 -0.3084618  -0.13512516  0.4314689   0.3000855
 -0.13445072  0.12424371 -0.00731601  0.03940721  0.31841278 -0.10738111
  0.24565713 -0.40270275  0.1304589  -0.00487071 -0.14226694 -0.33523482
 -0.35903552 -0.1846172  -0.40383098  0.28592867 -0.19751027 -0.34265485
  0.37938285  0.15201686  0.33832818 -0.34653643 -0.24275212  0.18495244
 -0.02291754 -0.24244143  0.14858535 -0.23789677]
[ 0.13432764  0.23131916  0.16882841 -0.05001053  0.06334862 -0.13926712
  0.27979633  0.1916474  -0.04427054 -0.14290038 -0.17698754 -0.20676446
 -0.2714069   0.19583645  0.33246303 -0.20632616 -0.19861807 -0.41971332
 -0.14504553  0.3634872  -0.00909891 -0.28135967 -0.25036258  0.0160104
 -0.01523856 -0.03159919 -0.12758225 -0.13586889  0.01789621  0.06988902
 -0.28834254 -0.2254634   0.02777066  0.5195141   0.07887426 -0.04382873
 -0.3265993   0.27368078 -0.23426618  0.12206978]
[ 0.38416198  0.10303317 -0.16639906  0.26909515  0.21207449  0.348309
 -0.04977229 -0.06859872  0.06546841 -0.25629342  0.28984344  0.10103503
 -0.24610074 -0.5149857   0.3574906   0.30004606  0.48199242 -0.10390987
  0.33791915  0.2780848  -0.05041627  0.35161993 -0.00176456  0.13725044
 -0.50154066  0.28140858 -0.00575485  0.17053342 -0.24845801 -0.2970515
  0.16069782 -0.00495496 -0.06274318 -0.29339528  0.07906902 -0.29369792
 -0.18316422  0.28285867  0.05839185  0.05268846]
[-0.30985683  0.2736325   0.03708339  0.0871096  -0.3258514  -0.09624604
 -0.11025216 -0.31817213 -0.23985416 -0.2989165  -0.3943354  -0.01941193
  0.06468286  0.26726082 -0.48992446  0.2116862  -0.28279796 -0.43789625
  0.11712603 -0.1915231   0.39327455  0.09273832 -0.37186208  0.17792131
  0.30349284  0.12447249 -0.13851684  0.11950611 -0.1577272   0.47172102
 -0.15198481 -0.24199383  0.25608325  0.32017925  0.06387603  0.38259688
 -0.10853992  0.2796653  -0.4613111   0.06260453]
[-0.14783823 -0.04158598  0.27046868  0.4714972   0.26753032 -0.02014748
  0.18962972  0.35230342 -0.17922395  0.09001984 -0.29444104  0.07167802
 -0.19981621 -0.12510026 -0.17568019 -0.04495215 -0.02707574  0.17763335
  0.2685463  -0.36743695 -0.2875589   0.00594815  0.24071826  0.35284323
 -0.03397272 -0.34696904  0.35548016 -0.24766538 -0.18117887 -0.11711118
 -0.41956958  0.34814212  0.07470318 -0.26759398  0.23743054 -0.47046468
  0.01233941 -0.16610338  0.03425585  0.16815297]
[-0.15986037 -0.3627716   0.10516898 -0.14551929 -0.13663669  0.08278896
  0.15534146 -0.11727252  0.2771896   0.01350096  0.0348368   0.0730878
  0.22933105  0.2235276  -0.09835456  0.13276999  0.06594038  0.11982378
 -0.16627118  0.0040052  -0.39984506 -0.23264638  0.22908697  0.01132034
  0.33599547 -0.03394601  0.22097799 -0.20208256  0.21162644 -0.31931868
  0.02821349 -0.13611145 -0.17784305 -0.05223441  0.1237039   0.01135179
  0.17749985  0.24755158  0.02118625  0.03951888]
[-0.19870919  0.05723629 -0.26361635  0.12759274  0.23207675  0.19019383
  0.12125363  0.03586328 -0.18138202 -0.2396382   0.15547006 -0.06353022
  0.07250354  0.15954188  0.049224   -0.17126215 -0.24618414 -0.2685035
  0.27017158  0.00958016 -0.14204906 -0.23145685 -0.03680173 -0.11009938
 -0.19981065  0.19747262  0.06311043  0.34712717  0.06480032 -0.21919534
  0.07024186  0.22531973  0.15667155 -0.23901887 -0.05686229  0.10719991
 -0.3378254   0.4759007  -0.10877259 -0.1040737 ]
[-0.00074809 -0.09243     0.00607805  0.09633632  0.06454243  0.02456376
 -0.03094994 -0.05538145  0.14675647  0.07653753  0.07287457 -0.02539264
 -0.09146565  0.10724392  0.13224976  0.03504952  0.06925901 -0.03343299
  0.13225952 -0.0544624  -0.10542835 -0.0317858   0.04238342  0.00322423
  0.04720168 -0.04656259  0.06190128 -0.09362122 -0.00045958 -0.08893683
  0.05197338  0.02408768 -0.10836203 -0.02102594  0.05610444 -0.02751365
  0.0867603  -0.0460167   0.14906406  0.04482081]
layer 3 Activation
tanh
layer 4 Dense
40 20
[-0.32026777 -0.06090343  0.07021401  0.01065017 -0.3668602   0.31625602
 -0.2620393   0.28999007 -0.14732403  0.19135077 -0.23076029 -0.04104757
 -0.36746666  0.23507366  0.14597419  0.09085211 -0.42936426 -0.09995702
  0.26008123  0.17254882]
[ 0.15816082  0.46390623 -0.34431687  0.04744194 -0.04031528 -0.02706541
 -0.41090026 -0.22533612 -0.05861568 -0.20136274  0.2792302   0.14808196
  0.16212797  0.16579026  0.10510755  0.11312775  0.1952692   0.20632088
  0.4492087  -0.1998087 ]
[-0.2085283  -0.10185938  0.2285811   0.1421506   0.05899557 -0.07222224
 -0.39456287  0.28516626 -0.30430093 -0.12152312  0.05287615 -0.23949285
  0.14828204  0.33177638  0.10849929  0.10030045 -0.03786015  0.34738863
 -0.09987927  0.18910164]
[ 0.11770885 -0.10136931 -0.15402845 -0.10373919  0.29691595 -0.16688755
 -0.14439943  0.41734594 -0.10839815  0.24479213  0.2620489   0.13187775
 -0.19828117  0.24581552  0.24266662 -0.27716267 -0.06103275  0.2128185
  0.3512918   0.20227823]
[-0.17034747  0.22132987 -0.1474521  -0.2354473   0.24466297  0.314501
  0.09068235  0.13394094 -0.2942778  -0.10513991 -0.14708064 -0.06794515
 -0.25326225  0.13697948 -0.25672796 -0.33436015 -0.3473744  -0.19159986
  0.12606347 -0.04328635]
[-0.14037625 -0.3210629   0.25669366 -0.00068628 -0.1120346  -0.08915822
  0.03509033 -0.06438509 -0.03552428  0.15195262 -0.14326766 -0.19938464
  0.27531487 -0.26375183  0.34716907 -0.39210397  0.23142092  0.3506724
 -0.43148544 -0.2525441 ]
[ 0.03995077  0.1135345  -0.31583968 -0.00408054 -0.14194092 -0.17844702
 -0.30347264  0.12539238  0.0873334  -0.19835739  0.21205686 -0.14119726
 -0.14227614 -0.08241958  0.08428191  0.11838058  0.17211677 -0.06553829
  0.02990352 -0.13993979]
[ 0.42867512  0.32703707  0.1863663   0.273288    0.26318228  0.0262747
 -0.04203352 -0.16406427 -0.26762295 -0.2060349   0.23276374  0.2357859
 -0.02935396 -0.13372777  0.13227338 -0.32980978  0.15078548 -0.18944868
  0.39612418  0.01049716]
[ 0.05716487 -0.01186319 -0.12555546 -0.28634337 -0.26324275  0.02789817
  0.08310983  0.19399494 -0.13287173  0.21727657 -0.2960977  -0.16298686
  0.2851144   0.13384539  0.1994693   0.23398918  0.11592871  0.15470041
  0.19257458  0.1381393 ]
[-0.06730068 -0.06372803  0.08536451  0.3298311   0.4334293  -0.31441358
  0.01972819 -0.03708753  0.03274041 -0.11127947 -0.19447318 -0.2821454
  0.04787835 -0.15989286 -0.302929   -0.07564427 -0.01717844  0.14511614
  0.32199082 -0.1190352 ]
[-0.03659815 -0.04540637 -0.15133832  0.19213355 -0.21884526  0.17482385
  0.019183   -0.24087632 -0.08509248  0.23417126 -0.12133198  0.35402903
 -0.3716332   0.3260173  -0.15993224 -0.24151854 -0.32180893  0.23920195
 -0.23221546 -0.10304342]
[-6.01721331e-02  1.36271387e-01  1.94608897e-01 -7.86782354e-02
 -2.70515472e-01  8.58538076e-02 -1.69911504e-01 -6.12802245e-02
 -2.97072381e-01  2.21257761e-01 -3.73860091e-01 -2.31657267e-01
  1.22012995e-01 -1.88179716e-01 -2.80490935e-01 -1.36135310e-01
 -1.96297839e-01  6.68539256e-02 -6.33465275e-02 -3.52325151e-04]
[-0.16319793  0.00210937  0.1001327  -0.34781235  0.02997964  0.29784393
  0.13180763  0.01221438  0.32370904  0.05371343 -0.19370425  0.11416593
  0.3242625  -0.10087064  0.11550646  0.24143419  0.15094684  0.18515252
 -0.25957897  0.21854801]
[ 0.20685115  0.35359251  0.16958074  0.11465092  0.02627667 -0.07739291
  0.31190786 -0.02277425  0.09389046 -0.16954584  0.27968523 -0.01924094
  0.23685622  0.0056737   0.29347154  0.14644058 -0.00606561 -0.12651679
  0.19269507  0.37670532]
[-0.26044336 -0.12487497  0.13318212 -0.13418655  0.03065235 -0.0950809
  0.08061045  0.03272702 -0.1846849   0.14369059  0.13615052 -0.0290518
 -0.26371297  0.36839148 -0.12169102 -0.34645864 -0.47475    -0.12062174
  0.15680511 -0.1309813 ]
[ 0.14514065 -0.11653513 -0.04212919 -0.14866664  0.22860783 -0.2893755
  0.13043097  0.2092578  -0.3352156   0.30821592  0.25741953  0.13479157
 -0.16945057  0.15292421 -0.34427062 -0.18677281 -0.03276679 -0.10463609
  0.31866407  0.04651868]
[-0.0004743  -0.3495899   0.02223636 -0.12893932  0.26516315 -0.09068619
 -0.22311115 -0.0624803  -0.00216471  0.02496768  0.07579639  0.2669879
 -0.09039932  0.19088125  0.2788284   0.05133585 -0.20840909  0.0281969
  0.14830826 -0.35751334]
[-0.02608878 -0.33407056  0.22876723  0.17249842 -0.1528509  -0.30123118
  0.13828132  0.05488042  0.28624794 -0.14528081 -0.33171922  0.41140646
 -0.04286716  0.13076267  0.00240853 -0.10567934  0.28534937 -0.28224728
  0.22385576 -0.19867386]
[-0.03004595 -0.30442697  0.18960291  0.20922412 -0.0930154  -0.25552028
 -0.21994667  0.00431981  0.04989736 -0.02115713  0.07308325 -0.05493646
 -0.2505397  -0.2657428   0.06034414  0.1955881  -0.14976977  0.32236904
 -0.10933752 -0.14465764]
[-0.15416609  0.15594281 -0.33241606  0.10877174 -0.2295777  -0.25281188
 -0.35090202 -0.19091159 -0.2901502   0.05252164  0.4979756   0.04804759
 -0.15949456  0.16268018 -0.1162134  -0.1851727  -0.06070414 -0.18259892
  0.186426   -0.15873829]
[-0.3705226  -0.11773208 -0.19596684 -0.10329001 -0.23290029  0.04984433
 -0.31108537 -0.35750595  0.23466872 -0.18304151 -0.10781429 -0.05610166
 -0.20453794 -0.39130744  0.33790648  0.2772137   0.21834725 -0.14843541
 -0.32645342  0.15726532]
[-0.2989533  -0.11441613  0.11398698 -0.1902244   0.11745232  0.15226361
 -0.1862381   0.28353626 -0.2169547   0.03708198 -0.17682013  0.05230337
 -0.32777375 -0.17735715  0.06377248 -0.26192334 -0.31857154  0.06239097
 -0.11698662  0.06393141]
[ 0.4860656  -0.03300858  0.37108597  0.37684214  0.1638975  -0.0652599
  0.09548348 -0.11336046  0.25774962 -0.11948153 -0.24185379  0.09654267
  0.34836736  0.21680966  0.04714373 -0.29240888  0.15001345 -0.25275046
  0.04615945 -0.35096553]
[ 0.2190403  -0.0827434  -0.12762325 -0.05817446  0.11070985  0.22677754
 -0.11516722 -0.09041596  0.00332496  0.16403435  0.1477816  -0.3202768
 -0.0069657   0.21913631  0.15884233 -0.09446441 -0.1652849   0.07232198
  0.31039548  0.17081133]
[-0.00283539  0.3861617  -0.2733289  -0.1507964   0.41294816 -0.5241305
  0.32175517  0.02467468 -0.07942742 -0.3384704   0.1540611  -0.23422416
  0.32618752  0.07996245 -0.1805093   0.27271327 -0.10706446  0.02690123
 -0.08483043  0.27505726]
[-0.01507444 -0.02473497 -0.11753427 -0.13781647 -0.1232197   0.07143901
 -0.15021081 -0.31595743  0.38621157  0.09273335  0.13562171  0.28916514
 -0.22892155 -0.11355756  0.31693608  0.42322037  0.16312541  0.2304959
 -0.268706    0.17655423]
[-0.12652269  0.04485167 -0.16847385  0.16418864  0.280284   -0.27519152
 -0.06187865 -0.03212499  0.11132318  0.00496387  0.01141672  0.12836634
 -0.09555534  0.17490408 -0.23101752 -0.14097382  0.27011648 -0.04153081
  0.05212694 -0.1644046 ]
[-0.09705476 -0.1069849   0.16264038 -0.34751126 -0.27040672  0.04687634
 -0.05520656  0.03584738  0.19366089  0.09687619 -0.2980276   0.0545501
  0.24797893 -0.26433712 -0.12352492 -0.1150772   0.00900532  0.01037259
  0.00724444  0.07171364]
[-2.3383175e-01 -9.1696575e-02  2.1124963e-01 -2.6972669e-01
  1.6974594e-01 -2.9758459e-02  2.8061306e-01 -5.0445791e-02
  2.3040271e-01 -1.7426315e-01  1.5700597e-01 -1.6239665e-01
  1.5885472e-01  3.0685151e-01  3.4961331e-01 -2.5260361e-04
 -3.6207650e-02 -6.3225724e-02 -2.2606461e-01 -2.3842679e-01]
[ 0.01100918  0.16967426 -0.2560766   0.11848088  0.01664877 -0.13118593
 -0.16292088  0.13875392  0.3215583  -0.45583534  0.32805914 -0.17029183
  0.32475877 -0.17500126  0.16282989  0.11005104 -0.16211423 -0.23337997
 -0.07413992  0.1329983 ]
[-0.20679995 -0.04956811  0.15858807  0.11112025 -0.20544286  0.3164139
  0.26399213 -0.1162699  -0.09505617  0.33863044  0.1540983   0.20988144
 -0.1980589  -0.076094   -0.11769797 -0.28613672 -0.2782578   0.19044541
 -0.15338063  0.05318766]
[ 0.17663608 -0.2785394   0.17458211  0.10572116  0.15853913  0.03624847
  0.10363354  0.12276722 -0.03298868 -0.02635076 -0.18244123  0.11380983
  0.3102755   0.17288     0.18444173 -0.3334976   0.2879109   0.12312735
 -0.2522204  -0.3142453 ]
[ 0.08657229 -0.31545848 -0.03969521 -0.31609777 -0.19723307 -0.1686521
  0.13066842  0.02133381  0.24462081  0.00283268 -0.0686631  -0.09520563
  0.22466035  0.14194542  0.35418072  0.11636612  0.3199769  -0.05225126
 -0.300074    0.07717338]
[-0.34003496  0.2309914  -0.41452944 -0.14122693 -0.38042778  0.04359293
 -0.131663    0.11323515 -0.32500347 -0.0912471  -0.03287123 -0.15544842
  0.16938075  0.20987444  0.18530157  0.34128892 -0.26013088 -0.25033802
  0.07755079  0.48056832]
[ 0.4219957  -0.02622755 -0.18902197  0.0257056   0.3568209  -0.13692842
  0.3067672   0.41057664  0.08001449 -0.10004997  0.16773179 -0.17964256
  0.03086122 -0.18260768 -0.21284601 -0.05752518  0.11726783 -0.19331267
  0.05083894  0.31707034]
[-0.01949041 -0.11231951  0.12633346 -0.31448662 -0.18952934  0.34216785
 -0.08827713 -0.49862742  0.1246074   0.13684252  0.14279349 -0.03382183
  0.06743309 -0.32260212 -0.13116722  0.27107415  0.17666095  0.16978113
 -0.2827124   0.09398012]
[ 0.16950083 -0.22053169 -0.17656465 -0.02544973  0.31990546 -0.16672699
  0.45337164  0.01365199  0.08177232 -0.1671957   0.25138432  0.07622939
  0.08376369  0.07618108  0.1846525  -0.187916    0.05725891 -0.24545088
  0.04215336 -0.16954269]
[-0.1309965   0.1156722  -0.2787058   0.3475857  -0.37076524 -0.18905784
 -0.39669636  0.06901646 -0.36054122  0.24616018  0.03321316 -0.38608214
 -0.28290316  0.28463557 -0.0778278  -0.03309743 -0.46312156 -0.06494026
 -0.0231334   0.2906344 ]
[ 0.1770652   0.11226213 -0.27151498  0.11931933  0.31143758  0.21710782
  0.4542915   0.33910483 -0.4520952  -0.19914976 -0.09134439  0.11632518
  0.01406256  0.46877438 -0.15140106 -0.11992226  0.24576536  0.12444924
  0.04549021 -0.24366277]
[-1.6917923e-01  1.3637713e-01 -1.9786231e-01  9.1397502e-02
  1.2164950e-01 -3.9937997e-01 -4.5011871e-02  1.6467920e-02
 -1.9728738e-01  4.6166763e-02  2.4612285e-01  1.3774808e-01
 -1.7597382e-01 -1.3996789e-01 -1.1478108e-04  3.1462264e-01
  2.7849307e-04  2.2918208e-01 -3.2545614e-01 -1.6252764e-01]
[ 0.02333146 -0.02790823  0.01698136 -0.01272081  0.03915275 -0.01773565
  0.04386469 -0.00381843 -0.03721442  0.00466035 -0.02521408 -0.06890711
 -0.00813158  0.01905221 -0.02231406  0.13795133  0.01511045 -0.06341721
  0.05251241 -0.02620453]
layer 5 Activation
tanh
layer 6 Dense
20 1
[-0.27487582]
[0.41857052]
[-0.42615715]
[-0.03570007]
[-0.6463244]
[-0.3025823]
[-0.57159233]
[-0.27657393]
[0.458121]
[-0.56036353]
[0.18331431]
[-0.08578933]
[0.5344766]
[-0.3158824]
[0.1354809]
[-0.3027124]
[0.17748697]
[0.02508548]
[-0.46636233]
[0.40145192]
[0.03670681]
