layers 7
layer 0 Dense
20 20
[ 0.01546605 -0.14407791 -0.25478658  0.23262717  0.02497063 -0.06016479
 -0.35165554  0.18358281  0.35562292 -0.17133947 -0.05669061  0.22231625
 -0.26014474 -0.20735879  0.0398296  -0.01243684  0.309376    0.3213188
  0.15259318 -0.07467771]
[ 0.03362728  0.10270984 -0.02489182 -0.35515893  0.28934503 -0.07723271
 -0.01089007  0.0872936  -0.23576336  0.22189459  0.0513751  -0.4897525
 -0.41916075 -0.13892087 -0.39225727  0.06024129  0.07004682  0.10169908
  0.28323233  0.20250131]
[ 0.33524376 -0.02053491 -0.4987542   0.06354497  0.12606096 -0.13338968
 -0.06562191 -0.28131992  0.05057941  0.44991475 -0.32143506  0.11040975
 -0.398078    0.28547308 -0.11401247 -0.19113223 -0.25235668 -0.24320486
  0.52990454 -0.30941117]
[-0.04351288  0.20083982  0.15337642 -0.30683786 -0.1987431  -0.07516063
 -0.3394344   0.18560083 -0.09378862  0.2653148  -0.10041374  0.06576675
  0.02230423 -0.23212962  0.05405046 -0.3256278   0.40722585 -0.19284372
  0.25907183  0.19751254]
[-0.1840928   0.42575076 -0.25912094 -0.1964021   0.33768716 -0.43655747
 -0.0535169   0.42346123  0.16466162 -0.11800868 -0.02082518 -0.24744163
  0.03874527 -0.35311252 -0.10962709 -0.3430144  -0.2197921   0.19641382
  0.03135867 -0.15975478]
[-0.00820134  0.43046582  0.42439646 -0.07321823 -0.20984113  0.41089812
 -0.08490992  0.12918055  0.19546124 -0.04872055  0.01410478 -0.05861352
 -0.17592172  0.27077413 -0.14630388  0.49915573  0.2017932   0.270038
  0.11980609  0.41255683]
[ 0.3301868   0.00913606  0.168455    0.08476523 -0.3065666   0.3471531
 -0.09702416 -0.29295114 -0.33616406  0.0363756   0.4584213   0.27919805
 -0.27031088  0.29348686  0.22057563  0.07339962 -0.03110185 -0.40989342
 -0.0742664   0.22208975]
[-0.06831101  0.00096518 -0.03798364  0.47919995  0.2640721   0.05188762
  0.3282987  -0.43819878  0.06710574 -0.40523997  0.384564   -0.08513115
 -0.21968792  0.02655766  0.144175    0.03596557  0.30275902 -0.27848333
 -0.14325795 -0.09121417]
[-0.17645516 -0.00844059 -0.10345862  0.23835349 -0.23706141  0.23461576
 -0.33781502 -0.31484145  0.04645474  0.33534655 -0.29130962 -0.2279694
  0.4557629  -0.15021211 -0.19544154  0.23557131  0.28583008 -0.02216762
  0.24178381  0.2713249 ]
[ 0.24778274  0.44096604 -0.18584572  0.26271355  0.11954191 -0.4305554
  0.12990247  0.13813496  0.37018165  0.22029026  0.27575296 -0.37090307
  0.07131056  0.24479368  0.04709995 -0.30865052 -0.06077029  0.20909853
  0.3356725  -0.4147342 ]
[ 0.42392185  0.17295815 -0.34094197  0.13712779 -0.03358734  0.00861758
 -0.16254996  0.50753623  0.05741554  0.22002529  0.2923207  -0.15174802
 -0.20205861 -0.25581476  0.2904242  -0.37508416  0.14115153  0.01382439
  0.19132751  0.12059551]
[-0.07382709  0.2814911   0.33480322  0.23572691  0.18716806 -0.4169378
  0.07317167  0.29563218  0.45078698  0.17047787  0.10398328  0.05265097
 -0.2797519   0.16446991  0.22033146 -0.22105023  0.25953868  0.0387664
 -0.09189887  0.41016665]
[ 0.4183782  -0.35498473  0.5913757   0.06929424  0.34517384  0.2818555
 -0.40408477  0.3402242  -0.17010728 -0.14756048  0.13463996  0.11917529
 -0.3383749  -0.12790172  0.54307204 -0.26488888 -0.24522512  0.37031686
 -0.24112374  0.02409467]
[ 0.24987617 -0.24950348 -0.2988908   0.19492887  0.27564722 -0.44166234
  0.08492439 -0.08145673 -0.1109004   0.13562036  0.18124758  0.38497174
  0.33264565  0.02096306  0.10420947 -0.17562841  0.14676858 -0.12832454
  0.20837536  0.01484247]
[ 0.26360285  0.16224615 -0.1429393  -0.0982383  -0.0720303  -0.06555825
  0.3564817  -0.4098223   0.04342304 -0.12586199 -0.31899816 -0.20536482
  0.0655349  -0.00899553  0.0367332   0.2406487   0.35153383 -0.2961481
 -0.3884038   0.3730455 ]
[ 0.08086438 -0.12324128 -0.10606597 -0.1471061   0.20620795  0.33806688
  0.13716468 -0.14141078 -0.08605091  0.37027627 -0.31236324 -0.26367337
  0.34452197  0.08117367  0.17074281 -0.23153275  0.26351228 -0.6030587
  0.43746242  0.09778435]
[ 0.30763373  0.22916582 -0.3465565  -0.19591811 -0.05999808  0.11089497
 -0.15372626 -0.11898381  0.02005011  0.4632054  -0.24162304  0.04003242
  0.0009816  -0.01123685 -0.33542275 -0.37496653 -0.11782235  0.0463982
  0.14342308  0.11594215]
[-0.15396146 -0.43466058 -0.46098366  0.01258132 -0.2134963  -0.1770282
 -0.07780376 -0.11419644  0.14810061  0.04985335  0.2204179   0.17171057
  0.27878094 -0.20972726 -0.0078654   0.19267745  0.36571595  0.10509145
  0.16894658  0.06849191]
[-0.29000443  0.00184283  0.12377947  0.10664408 -0.18957056  0.0968738
 -0.2672496   0.30891883  0.2478907   0.21626471 -0.21907923 -0.39880723
  0.15859392 -0.11205633  0.0531052   0.47886962  0.15333538 -0.05678815
  0.16482241 -0.03251485]
[ 0.186554   -0.43570295 -0.04035017  0.16106367  0.37150434  0.3489627
 -0.30157802 -0.00826528  0.00608306 -0.36437315  0.2861681   0.39113152
 -0.15480754 -0.10188637 -0.23058973 -0.10758748 -0.2189148   0.29244545
 -0.10534792 -0.4105761 ]
[ 0.0405416  -0.04369187 -0.0478728  -0.09842622 -0.06617576  0.02734913
  0.04264717  0.03418349  0.02096757  0.04986637 -0.09192154 -0.04897245
 -0.03096795 -0.05546771 -0.03590358  0.03161819  0.00120747  0.0062889
  0.00063952 -0.00991702]
layer 1 Activation
tanh
layer 2 Dense
20 40
[ 0.32068637  0.02279922  0.02712717  0.05342028  0.00233864  0.21963987
  0.30566674  0.19952396  0.05226166  0.12196529  0.04670144 -0.03985995
  0.04565579 -0.25530478  0.0136347  -0.13308294  0.04396428 -0.25864062
 -0.2345296  -0.16229045 -0.06469867  0.13179389  0.10350879 -0.0153383
 -0.03527339  0.15255912 -0.36198416 -0.36051998 -0.041636    0.21848159
  0.03552428  0.11998978  0.30838913 -0.17511451  0.27404147  0.23759182
  0.21246156  0.293822   -0.18900602 -0.04628399]
[ 0.29072762 -0.03014233 -0.17106001 -0.18270773  0.2813564  -0.22414756
 -0.16312526  0.22763221  0.00181794  0.01176485  0.30613837  0.01021098
  0.22490099  0.05042483 -0.43066064  0.14791533 -0.03578931  0.03558914
  0.4997153  -0.10706156 -0.13741143  0.21410783 -0.11974537 -0.26906085
 -0.27802163 -0.24716549  0.0162573  -0.0545923  -0.26935318  0.0297698
 -0.19413033 -0.07834145  0.11038125  0.1963228  -0.08905125  0.05791101
  0.17920765  0.3691269   0.09537486 -0.07594635]
[-0.19353673 -0.06980117 -0.0308814   0.18394542  0.1681305  -0.09824362
 -0.14393862 -0.13867868 -0.264889   -0.11547631 -0.25033617 -0.38631758
 -0.48148984  0.22052537 -0.08270448  0.02545764 -0.3817847  -0.04680285
 -0.39986274  0.38038865  0.10049646  0.28979582 -0.13521944  0.08547635
  0.23970893  0.29312685  0.42366916 -0.21840923  0.23924096 -0.21429726
 -0.0475297  -0.09175507  0.3260996   0.23043288  0.38584527  0.20034939
 -0.01399173 -0.02921457  0.37420547  0.14372018]
[-0.2147097   0.37659025 -0.3734439   0.09113103  0.2805813  -0.2583231
 -0.21573947 -0.16503918 -0.06230121  0.28974763 -0.3150644  -0.20353483
  0.02527523  0.2359917  -0.04974222  0.18678662  0.08661552  0.34157127
  0.12836492  0.25243288  0.02968274  0.13186376  0.01514077  0.3119541
  0.08522052  0.13794567  0.02825946  0.13583599 -0.20393091 -0.099378
 -0.19148506 -0.14569621  0.25938997  0.00258792  0.24153559  0.16836071
  0.15222144  0.12537637 -0.19837645  0.26797897]
[ 0.01066847  0.17773221 -0.33317924 -0.01512135  0.09134038  0.15547326
 -0.21397734 -0.32226682 -0.13354981 -0.15203108 -0.36864248 -0.19037084
 -0.09152288 -0.1515685  -0.1723536  -0.1588646  -0.06567961  0.26879135
  0.1065202  -0.09220181  0.050121    0.1527766  -0.09052102 -0.23763369
 -0.18728468  0.08108156  0.00489999  0.1516268   0.30738178  0.00885405
  0.09248384 -0.27517706  0.08808546  0.25634477 -0.11915283  0.0301691
  0.00306489  0.08445892 -0.13898757  0.02132825]
[-0.31671715 -0.17347886  0.18672082 -0.28941846  0.12663557 -0.21421425
 -0.14795966 -0.21666546 -0.19814755  0.16236833  0.0768744  -0.22045633
  0.23748514 -0.02633329 -0.08059451 -0.29904526 -0.22199783  0.33780867
 -0.18023518  0.05193485  0.07218514 -0.1356149   0.02141119 -0.10411147
 -0.00171533 -0.08027181  0.14043401  0.08459608 -0.00748338  0.02502869
 -0.2847997  -0.24000494  0.14779352 -0.19105165 -0.06043667  0.21998204
 -0.07685974 -0.25604978  0.24399872 -0.14646903]
[-0.19237503 -0.24345274 -0.18651731  0.03707974  0.19426884  0.06752914
  0.05606008 -0.12209874  0.18950273  0.14527626  0.01669054 -0.14398259
  0.09356125 -0.2975521   0.22849326  0.10152535 -0.22297008  0.01172754
  0.26706165  0.13537836 -0.03168419  0.08926527 -0.02125727 -0.18724495
 -0.31149617 -0.20023067 -0.11625974  0.1042801  -0.17301565  0.1695498
  0.21489078  0.00610161  0.11767711  0.10339101 -0.03411305 -0.14812647
  0.05848961 -0.04245915 -0.13762403 -0.00434264]
[-0.01616606 -0.3300148   0.06071559  0.24889068 -0.13199967  0.10359987
  0.2712289   0.22425961 -0.27444655  0.19528756  0.21190584 -0.12748778
  0.20391586 -0.28665987 -0.03732903  0.21510625 -0.12806982 -0.36620098
  0.23819035  0.2404388   0.17174266  0.14078699 -0.06058373 -0.2792106
 -0.22679216  0.27999058 -0.08948071 -0.03388724 -0.02047755 -0.1514998
 -0.11682159  0.23173533 -0.00697697  0.24525727 -0.05615557 -0.09017661
  0.21514082 -0.2906663   0.3236582   0.2666416 ]
[ 0.05691776  0.07277192  0.24051164  0.21486688 -0.02007614 -0.12535176
 -0.31874028 -0.17973419 -0.17094554 -0.2308814   0.12684403 -0.17211384
 -0.09195029  0.34852126  0.02096399  0.12403614 -0.05764176  0.02042956
  0.24288484 -0.23914474  0.11852333 -0.19171971 -0.236939   -0.05126128
 -0.06936013 -0.19411166  0.22649066 -0.24910474 -0.11498022  0.24126355
 -0.00264951 -0.02737853  0.14416991 -0.18499048  0.00826225 -0.26689872
  0.23887463  0.26738426  0.10140343  0.1957761 ]
[ 0.02742965 -0.22523238 -0.18364611 -0.02873624 -0.17391238  0.15220338
 -0.20298576  0.07213144  0.03977071 -0.13509823  0.29036     0.2973849
  0.26090172  0.22635701  0.13845679  0.25118083 -0.1776511  -0.33445773
  0.36522055  0.1989157   0.23369592 -0.3406479   0.03549395 -0.02458607
  0.06919954 -0.24485165 -0.14837375  0.26228037  0.25559935  0.17233533
  0.16112596 -0.12840396 -0.10818285  0.1950973  -0.04695372  0.04162014
  0.09834822  0.00327379 -0.35212582  0.17008196]
[-0.0175888   0.11180003 -0.05385944  0.08067633 -0.00998391 -0.32323655
  0.11536736 -0.17827281  0.2517926   0.30942848 -0.12305032 -0.06489225
 -0.10849104 -0.15034407 -0.08968244 -0.24239431 -0.23035723  0.22682007
 -0.23631209 -0.20039237  0.18864356  0.29532394 -0.17501481 -0.19942018
 -0.09623037 -0.10536946 -0.02784335 -0.08917938  0.0015945   0.24314891
 -0.24644652  0.14527011  0.1077399   0.32091576  0.2205216   0.28170013
 -0.1585249  -0.1063295  -0.2753414  -0.20494482]
[-0.20347105  0.21600744  0.00280636  0.1959868  -0.05242493 -0.28431323
 -0.2561721  -0.08123946  0.2169341   0.11604873 -0.03078568  0.01266728
 -0.10895858  0.15228938  0.20019859  0.06391228 -0.06497132  0.22557162
 -0.08474791 -0.14815661  0.27119604 -0.00950427  0.07222232 -0.0416184
 -0.02216654  0.21737184  0.3280256  -0.1394419  -0.22263387  0.22962856
  0.18734893 -0.16684291  0.08418428 -0.00628852  0.16175108  0.29470077
  0.18637104  0.1162338   0.13000773 -0.01851019]
[ 0.04692591 -0.07514057 -0.1431843  -0.24063927  0.01139392  0.12403165
  0.08583127 -0.13011588  0.09528168 -0.09657397  0.32631814  0.376141
  0.21159     0.07723296  0.12778193  0.2480922  -0.08531042  0.20578575
  0.21808855  0.09859809  0.14503433 -0.01174123  0.49610776  0.09831607
 -0.28206158 -0.02403359  0.20553195 -0.12304996 -0.21215604 -0.22062732
 -0.13521303  0.16021219  0.15051915  0.09225559 -0.22445609 -0.11764352
 -0.15029766  0.2503608   0.1718626   0.12082604]
[-0.05701421  0.15336026 -0.11221457  0.25050792 -0.15495846 -0.26549408
  0.11562077  0.18594451 -0.2572144   0.27592084 -0.23779957  0.12026989
  0.18645348  0.27531424  0.04498714  0.21638861 -0.051303    0.29900062
  0.03860261 -0.05355437  0.2229025   0.13348329 -0.12258589  0.15893723
  0.11681264 -0.34350368  0.22665799 -0.22283334  0.09043507  0.2471206
  0.10152136  0.2440792  -0.01073267  0.02757498 -0.03475543  0.27929854
  0.04626038 -0.16119137 -0.14294232 -0.09049135]
[ 0.21067737 -0.02019366 -0.19734454  0.15956518  0.24043697 -0.22214684
  0.1603327   0.02088775  0.22771138  0.2740845   0.06822656 -0.25093
  0.00603795 -0.14576529  0.30425     0.2148673  -0.26738635 -0.15097432
 -0.01962824  0.40215373 -0.07782558 -0.0587897  -0.48250443 -0.11783744
 -0.01115628  0.36176997  0.15181628 -0.34504414 -0.14347883 -0.05883468
  0.02604481  0.19594449 -0.20204084 -0.09064712  0.13824831 -0.23567833
 -0.3428352  -0.22209582  0.19663396  0.03072314]
[-0.28326818 -0.12924345 -0.1308382   0.13703944  0.12032443 -0.0355612
  0.20828739  0.24426638  0.19529648  0.05358031 -0.09325068  0.07468335
 -0.20398402 -0.07100443 -0.03533946 -0.09789664 -0.17060179 -0.18573307
 -0.2090543  -0.03687635 -0.23531918  0.28315493  0.3221227   0.23367266
 -0.18744658  0.14802477  0.2041007   0.29960302  0.24683633 -0.14236377
 -0.12795907  0.25555733  0.1007313  -0.14906433  0.24635741  0.31777516
  0.09572805 -0.06564683 -0.09290621  0.27465248]
[-0.17071919 -0.06699325 -0.04613017 -0.15587491  0.16395025 -0.14339314
  0.20818438  0.13295099 -0.22349466  0.00058681 -0.02871052 -0.07986739
 -0.17223972 -0.02826754 -0.14794275 -0.19475238 -0.20322962 -0.17056
  0.42735583 -0.03115414 -0.17320254 -0.18290035 -0.09775134  0.1533341
  0.10707016 -0.29756898  0.13951847  0.38712737  0.08339699  0.18269314
 -0.20790148  0.01886269 -0.36530268 -0.14302683 -0.25202376 -0.33482882
  0.37994096 -0.17537574 -0.07046573 -0.10821828]
[-0.29030707  0.00578663 -0.07655454  0.11624414  0.06123709  0.21028943
  0.14121316 -0.26473144 -0.07658733  0.12421869  0.00245297 -0.10498358
 -0.313369    0.22259948 -0.2514637  -0.32100078  0.03451475 -0.27169704
 -0.17662477 -0.1828006  -0.16645063 -0.12177395  0.05792233 -0.14358534
  0.1587968  -0.20111084  0.15401484  0.06478216  0.12685603 -0.16780685
  0.15577273 -0.07004988  0.04534167  0.24810055 -0.20781066  0.09655926
 -0.3848549   0.33224714  0.06709784  0.05493338]
[ 0.22436218 -0.16344264 -0.0948521  -0.17535912 -0.06273624 -0.00221031
 -0.28982252 -0.1229947  -0.00333784  0.19277358 -0.08609226  0.3404025
  0.18016207  0.22816734 -0.03893237  0.30762517  0.08136795  0.30953604
  0.15389031  0.0997036  -0.2445622  -0.07518199  0.33013168 -0.26342952
 -0.30123854  0.1696155  -0.0112745   0.21284874  0.02775752  0.1872905
 -0.17773746 -0.28156382  0.1944065   0.23429428 -0.0109804   0.1785182
  0.11005199  0.10348457  0.17176737 -0.17216957]
[ 0.07599261 -0.24418202 -0.06487056  0.10991688 -0.08667105 -0.12246262
 -0.1306983  -0.01449941  0.0239139  -0.05472927 -0.10115144  0.07738677
  0.07387037 -0.03746298 -0.1825641   0.02674231  0.24888593 -0.15348774
  0.41579142  0.1597573   0.01727214  0.08282554  0.39535528 -0.22959325
 -0.10490979 -0.03996348  0.11051003  0.22013144 -0.1470311  -0.19334327
  0.03804502 -0.21975283  0.15560684  0.03395484 -0.29860413  0.18885855
  0.268462    0.23329923  0.12524351  0.30021518]
[ 0.02486998 -0.03947376  0.12759458  0.03476284 -0.06759083  0.00651158
 -0.01626377  0.02250194 -0.02410817 -0.02707977  0.01231651  0.01458373
  0.0326471  -0.02449781 -0.01893622 -0.01184816 -0.00347715 -0.04255972
  0.04755887  0.00076073 -0.01226527 -0.04668005 -0.01632891  0.00157228
 -0.0183711  -0.01142316 -0.00067613  0.00075823 -0.02626136 -0.0215713
  0.01509524  0.01382548 -0.00394026  0.01564337 -0.00311903 -0.05959496
 -0.00618471 -0.00072573  0.02547564 -0.01889282]
layer 3 Activation
tanh
layer 4 Dense
40 20
[ 0.28638428 -0.03145496  0.06519929  0.3889016   0.14394356  0.27602208
  0.16998415  0.03890882 -0.2236923   0.03358059  0.1021717  -0.23362653
  0.31191355  0.29794523  0.20010205  0.02038736  0.14972703 -0.2831282
  0.15431835 -0.11986949]
[-0.26744303 -0.21057698 -0.32200906  0.22400145  0.16944495  0.28527728
  0.23861752  0.2535382   0.20434912 -0.17949498  0.0014407   0.3043684
  0.30533022 -0.23554647 -0.13708459 -0.05464079 -0.25145862 -0.07785352
  0.2264012   0.24165688]
[ 0.19251293  0.22771332  0.00293433 -0.27166623  0.05529172  0.18859385
  0.13944189 -0.068933    0.15892096 -0.2793022   0.00424546  0.00417686
 -0.03771518  0.22866225  0.15170456 -0.1317808   0.2178269   0.01030208
 -0.16653627 -0.2620398 ]
[ 0.1030952   0.15503176  0.07049839  0.10010893  0.16281064  0.2241045
  0.18605617  0.17377932 -0.09759083  0.13575803  0.09666549  0.02752592
  0.1136243  -0.05192545 -0.15180159  0.13628781 -0.22644906  0.1539002
 -0.18703067 -0.3458828 ]
[-0.2745815  -0.21860194 -0.05626456  0.19898449 -0.2519198   0.26557857
  0.3088978  -0.0114472  -0.09257407  0.09435253 -0.20949392  0.08251253
 -0.248751    0.09754447  0.00344357 -0.02612432 -0.31962425 -0.18179007
  0.11453267 -0.00367974]
[ 0.00551666 -0.00247168  0.13742103  0.03498632  0.1628756   0.04357086
  0.0554721  -0.07799944  0.0402595  -0.2194799   0.02129851  0.12378634
 -0.2130896  -0.08448439  0.23296155 -0.05821459  0.12075122 -0.06766248
  0.02541675  0.05890489]
[ 0.1870889  -0.18653826 -0.2538385  -0.22651911 -0.26172793  0.06912205
  0.314917    0.12303956 -0.10834843 -0.27138335  0.20235224  0.3097881
  0.04726255 -0.17790629 -0.19023398 -0.2010094  -0.12013318 -0.05465088
  0.13857558 -0.05951938]
[ 0.3021449  -0.17453653 -0.11835419  0.2519373   0.19370723  0.22172095
  0.24957255  0.25248465 -0.23558995 -0.2986035  -0.12746264 -0.06592342
 -0.31405678  0.32250208 -0.29732415  0.2651722   0.14775053  0.29300663
  0.21326265 -0.03771796]
[-0.09339604 -0.06149109 -0.08692423 -0.2710553   0.21505038 -0.22087501
 -0.14940087 -0.11120582 -0.03845379 -0.06622732  0.26987925 -0.03669851
  0.06086659  0.06522944 -0.18272895 -0.07791188 -0.16304687  0.10283716
  0.2981543   0.00647433]
[-0.05791691 -0.31036618 -0.1838745  -0.08561073 -0.09607119  0.29293954
  0.19355255 -0.11290839  0.14486204 -0.3343852  -0.23393273 -0.07061893
 -0.16039349  0.00737483 -0.08465434 -0.2415033  -0.13663381  0.08883322
  0.23545119 -0.00737131]
[-0.11988092  0.14555334  0.05350452  0.01259098 -0.17478615 -0.15834509
 -0.09969608  0.14652084 -0.29055405  0.37209958 -0.0406619   0.2547988
 -0.2436224   0.2448955   0.22382304 -0.08705381  0.05318607  0.2530486
 -0.11860038 -0.17300135]
[-0.11758408  0.2802285   0.01660193 -0.31127548  0.16220038 -0.28223345
  0.094251   -0.25388056 -0.29517508 -0.18471225  0.17855012  0.1281129
 -0.26431087  0.09727535 -0.2041983   0.14534941  0.28898016 -0.03752876
 -0.29658538  0.10845908]
[ 0.09780373 -0.04805306 -0.10651093  0.30175558 -0.10894401 -0.18592781
  0.2545483   0.04327265 -0.22094986  0.23038004 -0.04255851  0.05408807
 -0.23354097  0.10341305  0.13361211  0.05590541  0.18558134 -0.06542281
  0.06638224 -0.17072132]
[-0.10489933 -0.27099365  0.17234568 -0.04667872 -0.11186473  0.0644979
 -0.25255418 -0.23111723 -0.08787026  0.06594314  0.2663886  -0.2739611
  0.08676112  0.22581796  0.11690857 -0.23685494 -0.24176858  0.08644425
 -0.02044889 -0.04446848]
[ 0.01080139  0.22390957 -0.06230505 -0.17158267  0.23325835 -0.05406655
 -0.28744823 -0.18860832  0.28892064 -0.02984941  0.3170434  -0.00599819
 -0.01994331 -0.00620711 -0.2662275  -0.02540187  0.15033613  0.07424942
 -0.01116761  0.2922076 ]
[ 0.11678086 -0.18834652 -0.21308224  0.274246   -0.11671146  0.08189377
  0.08679684  0.06390478 -0.27799478  0.06777542  0.23631969  0.10879724
 -0.20688714  0.26890895  0.3239188  -0.28649363  0.21463172 -0.13537389
  0.11468314 -0.11611738]
[-0.11877249 -0.28736326 -0.25141022  0.14085896  0.02022402 -0.08820144
  0.0223045   0.28160682 -0.07603975  0.40377167  0.32104298  0.13615733
 -0.25913382  0.29127777 -0.07154537 -0.07596471  0.01200729 -0.2437135
 -0.02271267 -0.03356424]
[-0.34378234  0.18577346  0.18427606  0.11390723  0.32177484 -0.09147251
 -0.22305936 -0.14210992  0.15163605 -0.09865358  0.01749892  0.2119242
  0.17249377 -0.17085093 -0.2619429   0.28104803 -0.26909506  0.18647435
 -0.09808917  0.16976213]
[ 0.2026915  -0.13654374 -0.05745842  0.09956941 -0.003538   -0.08107153
 -0.1047828  -0.01853111 -0.17751743  0.18916863 -0.04712412 -0.17933974
  0.05148532  0.23297872 -0.05458892 -0.13818027  0.33276498 -0.24153611
 -0.13428791  0.33055687]
[ 2.9097769e-01 -4.0390633e-02  1.6421950e-01 -1.7629439e-01
  1.5553217e-01  5.1724028e-02  1.9312553e-01  2.3932546e-02
 -1.2885959e-01 -2.5540417e-01  1.9981520e-01 -7.8520730e-02
  6.2397242e-02 -1.8304266e-01  2.5440478e-01 -2.4025477e-01
 -1.6026512e-01  5.2145276e-02 -3.1021470e-01 -2.0037871e-04]
[ 0.10107452 -0.27043927  0.03133233 -0.30640882 -0.24746364 -0.1705499
  0.12646632  0.21212432 -0.0088427  -0.28581786  0.27945313 -0.25020775
  0.04753657  0.11548494  0.13282546 -0.26737028 -0.20307788  0.13132751
 -0.31144723 -0.20788343]
[-0.13575965  0.00874425 -0.0770174  -0.00347584 -0.04606925  0.05633983
 -0.18846662  0.27553323 -0.1134126  -0.3227359   0.11061513  0.2345712
  0.04601579 -0.22406386 -0.14460334 -0.09310742 -0.07873306 -0.05299124
  0.21107386 -0.26637176]
[ 0.04621558 -0.12668778  0.26044202 -0.3099081  -0.15991141  0.02876576
 -0.03261368 -0.17478807 -0.14092831 -0.02784092  0.2894086   0.32047832
  0.14845715  0.26453477  0.22188379  0.32049817  0.18118374 -0.22964217
  0.28795066  0.01727613]
[ 0.03242133 -0.16410428  0.27452207 -0.26552686  0.01830461 -0.05656542
  0.16801235 -0.28467953  0.10873022 -0.12146256 -0.01407988 -0.21841913
 -0.13736479 -0.22528319 -0.0377217   0.13080548 -0.06635024 -0.20861827
 -0.11591402  0.19275634]
[ 0.17198938  0.17784028  0.0668369  -0.24983361  0.24729319  0.14051591
  0.20014755  0.01311758 -0.00536075  0.18038654 -0.2417444   0.00928195
  0.05432392 -0.11072127 -0.09006003 -0.2014359  -0.294075    0.20940025
 -0.28133968  0.27150965]
[ 0.1865028   0.32353202  0.09093556  0.02971454  0.11391715 -0.1956806
  0.29004148 -0.2675178   0.20885478 -0.02000727 -0.2267017  -0.2297319
 -0.33734626 -0.33126453  0.11907841 -0.19463103 -0.13821314  0.23293942
 -0.03185794  0.08404984]
[ 0.0577     -0.01090532  0.18474054 -0.3267874   0.23455928  0.1164621
 -0.02908854  0.22129424  0.13091522 -0.12886341  0.08198528  0.09995965
 -0.23084751  0.1249617  -0.06872184  0.0295633  -0.04315514  0.10695678
  0.17078964  0.05779869]
[-0.13550545  0.29497972  0.01401546 -0.31631967 -0.23239256 -0.00486173
  0.18022007 -0.13773473 -0.3933047  -0.07510893 -0.2859645   0.24923858
  0.04225359 -0.05933715  0.24506648 -0.29421413  0.20365232  0.00937958
  0.17347798  0.33471027]
[-0.03963202  0.04410271 -0.00742078  0.01447007  0.22789228 -0.31662744
  0.29596546 -0.07844384  0.23821978 -0.04567846 -0.24847218 -0.14678521
 -0.27746364 -0.32237098 -0.20262867 -0.09296941  0.17936672  0.03881944
  0.00814091 -0.14929189]
[ 0.2828926   0.10920598 -0.02266909  0.19443208  0.23946306 -0.23560454
  0.09907711  0.04616913 -0.16732837 -0.22467376 -0.10193331  0.12733667
  0.04464028 -0.22095332  0.27209184  0.04530256  0.07981161 -0.00313063
 -0.0561012   0.04458882]
[ 0.30195558  0.13331178  0.12896185 -0.14688982  0.12055298 -0.16893604
 -0.09203362  0.28925768  0.05696798  0.2492469  -0.15153638  0.34981403
 -0.31184083 -0.18857834 -0.14526935  0.01157278  0.01629347 -0.2800259
 -0.15326259 -0.18609905]
[-0.24991971 -0.15696836 -0.35131982 -0.03623123 -0.24143936  0.06493463
  0.2771969   0.094282   -0.05321803 -0.22195995 -0.14930925 -0.05732146
 -0.30404258 -0.16369262 -0.01217047 -0.02856479  0.23087205  0.06243906
  0.29090196  0.1098181 ]
[-0.12014209 -0.17493619  0.22030611  0.06591975  0.17489076  0.24761903
 -0.22232041  0.127911   -0.00171451 -0.15280493  0.26881173  0.01229726
  0.32779664  0.02312863  0.01618705 -0.19866869 -0.13962632 -0.03229776
  0.3218618  -0.274132  ]
[ 0.2758995  -0.13372423 -0.03294693  0.0337902   0.03715349  0.20595154
 -0.02205698  0.0709203  -0.23974703  0.04896998  0.2888083  -0.02563736
 -0.01435805 -0.24419643 -0.16956447  0.10114373 -0.12601861  0.27209306
 -0.0406698  -0.26540345]
[ 0.1051214  -0.166521   -0.24057518 -0.11197935  0.3112237  -0.12220115
  0.16120271  0.06127604  0.23829827 -0.24930917  0.09566832  0.21363029
 -0.24495524  0.1071929  -0.00322006  0.30180117 -0.24425738  0.05000931
 -0.03006271 -0.31387937]
[-0.07342027  0.2862679  -0.05525999  0.03060665 -0.17856398  0.25550568
  0.06483862  0.00839944  0.37479007 -0.10285557  0.0955046   0.24190798
  0.19764544 -0.12559186  0.10823192 -0.13709953  0.21827656 -0.20936413
  0.14626819  0.2967491 ]
[-0.01253544  0.19037361 -0.16322039  0.09397852 -0.09566248 -0.05152459
  0.17035817 -0.07603856 -0.18522409 -0.0481093  -0.15196669  0.18187918
 -0.26702935 -0.0256731  -0.2523471   0.12389894  0.06052318 -0.28387824
 -0.21985866  0.19670306]
[-0.14942709 -0.2708773   0.09003818  0.18774562 -0.18870658  0.12541942
 -0.2533171  -0.10174301  0.1047623   0.3128518   0.02516183 -0.1176273
 -0.02658875 -0.24186987  0.23224767 -0.08033101  0.29477254 -0.15327631
 -0.17882213 -0.14273192]
[ 0.11141022  0.25533852  0.24003892 -0.11196625  0.16555226  0.2000299
  0.10864959 -0.27291185  0.00783975  0.01102386  0.2716707  -0.19907534
 -0.10165029 -0.09771819 -0.26802906  0.18857345 -0.03853619 -0.15175852
 -0.24230942  0.21863852]
[-0.12831576  0.17423056 -0.23351894  0.019247   -0.03954054 -0.01111148
  0.22318952  0.02316314 -0.09595933  0.08051509 -0.0148258   0.04560738
  0.10458358  0.14586355  0.2944242  -0.12676686 -0.2580081   0.12975338
  0.00318128  0.00109275]
[ 5.2419282e-02  3.7925448e-02 -3.7745584e-02 -4.8568365e-03
  1.5305282e-05  3.5819091e-02 -2.4230991e-02  2.3812268e-02
 -2.0952538e-02  1.0694711e-02  1.4730985e-02 -3.1113539e-02
 -3.8647953e-02  8.6083543e-03  1.3056765e-02  2.2775032e-02
  1.2463856e-02 -9.4089727e-04 -1.1471712e-02 -1.5686598e-02]
layer 5 Activation
tanh
layer 6 Dense
20 1
[0.4169546]
[0.22605729]
[-0.24820262]
[-0.46189073]
[0.01175629]
[0.24422531]
[-0.09388919]
[0.15976492]
[0.27618733]
[0.25466192]
[0.06328046]
[-0.36924312]
[-0.15304469]
[-0.32975522]
[0.18974368]
[0.19939889]
[-0.42618018]
[-0.31998932]
[0.26117933]
[-0.20198798]
[0.02652076]
