layers 7
layer 0 Dense
20 20
[-0.10169785  0.0738392   0.11216799  0.16811574  0.18705212  0.11821431
 -0.02091293 -0.02900133 -0.2592986   0.10406294  0.3378068  -0.24084754
 -0.23850651  0.08103517 -0.14590167 -0.23556393  0.27864662 -0.13102111
  0.12350015 -0.25028354]
[ 0.24973133  0.08216849  0.064262   -0.3456295   0.02438288  0.25562635
  0.05726252  0.05243506 -0.45476    -0.36366433  0.2005282  -0.04593569
  0.07447696 -0.4028623   0.2599309   0.25471878  0.3113283   0.06526171
 -0.309925   -0.3687173 ]
[ 0.175354   -0.01986839  0.32107395 -0.01649089  0.27994078 -0.10791054
 -0.02796675 -0.18718053  0.25758684  0.2558477  -0.0981728  -0.4400538
 -0.04517759  0.17261723 -0.17540541  0.47216266  0.2651722   0.28238368
  0.0343838   0.11532353]
[ 0.37499762  0.19514824  0.38256216 -0.07531561 -0.2924651  -0.30115905
 -0.31602192  0.29074258  0.24272299  0.3613188   0.13728642  0.06483427
  0.28481382  0.29852733  0.08554079 -0.20255241  0.2330426   0.22441968
 -0.14133286  0.01870429]
[ 0.1411868  -0.15239951  0.22993395 -0.18324172  0.33871973 -0.3286328
  0.16699547  0.22251685 -0.03195567  0.07066985 -0.21642049 -0.20237873
  0.22246128  0.02533154 -0.35413018 -0.09942842 -0.07380415  0.19421363
 -0.21824041 -0.3485224 ]
[ 0.08741659  0.07377978 -0.38871968 -0.12404637  0.02370526 -0.01903934
 -0.24294378 -0.12828076  0.10009173  0.1549549   0.3575811  -0.13849334
  0.34861544 -0.16388789  0.09479129 -0.10148322 -0.3207269  -0.38189086
 -0.24367267 -0.07260022]
[ 0.3256718   0.3406048   0.13145773  0.17214571  0.15768428 -0.13781138
  0.12617275 -0.0549682   0.01721068 -0.02296857  0.48426047 -0.2282574
  0.08302867  0.58098406 -0.05536341 -0.326193    0.14533897 -0.2498555
 -0.10065723  0.4568935 ]
[ 0.19931635 -0.10183875  0.3625224  -0.32716867 -0.15432908 -0.20755778
  0.22809596  0.40450996 -0.25409153  0.28645205 -0.16567343  0.0936022
 -0.16371293 -0.28799385 -0.03405343  0.011469   -0.09344956  0.26510516
 -0.02432436  0.21847023]
[-0.15681565  0.20095406 -0.07325087  0.06548881  0.16147527  0.29514715
  0.16909263 -0.28998947  0.11489524 -0.05462723  0.28573778 -0.05813665
  0.02482741 -0.26445135  0.1880355  -0.15458289  0.00219908 -0.3478098
  0.18404916  0.19386742]
[-0.15985051 -0.36227036 -0.5673498   0.02670567  0.13127162 -0.03134309
 -0.13783914  0.42084214  0.04488219  0.23094718  0.3326349   0.28027573
  0.19354297 -0.11339345 -0.06273511 -0.15060392 -0.13530082  0.28745097
 -0.02792303 -0.07622958]
[ 0.30970907 -0.36562285 -0.1352766   0.30368257  0.08791126 -0.12930372
 -0.31189573 -0.34084368  0.163205    0.30850255 -0.25152653 -0.13338614
  0.09937305  0.2960674  -0.4003216  -0.15551236  0.37932947 -0.40101418
 -0.01177152  0.11211974]
[ 0.07433899  0.12156171 -0.15556823 -0.03406521  0.04589738  0.07965373
  0.32188156 -0.11031207 -0.37576655  0.33376125  0.13909432  0.22471239
  0.29004982  0.08664211  0.17312343  0.0031889  -0.01668115 -0.19014704
 -0.19875206 -0.19919553]
[ 0.0757976   0.11702188  0.30060905  0.0538155  -0.11808152 -0.33117214
  0.07436966  0.23356663  0.10137473 -0.12125933  0.1816634   0.11601534
  0.2019993  -0.31013954 -0.31537005 -0.14154513 -0.26180482  0.25545895
  0.41255674  0.35702723]
[-0.22032605 -0.25262445  0.11275531  0.14490198  0.14736396  0.66172636
  0.16499253  0.3931658   0.09955711  0.07093353 -0.18438995 -0.19157766
  0.11037733  0.20734955  0.1234856  -0.4144285  -0.27998558 -0.14777166
 -0.20354389 -0.13316928]
[ 0.3777831  -0.06973109  0.00931369  0.34919766 -0.11238556 -0.14620163
 -0.21618181  0.30498308  0.08527181  0.0757909   0.15144537 -0.25822377
 -0.19519109  0.37880206 -0.35614336  0.24293634  0.15130657 -0.13230552
 -0.20036721  0.1612628 ]
[-0.08514509 -0.5743515   0.10101727 -0.16477863 -0.26400098 -0.6788201
  0.21030797  0.0149636  -0.16825174 -0.26022315  0.3783294   0.24431759
  0.02396316  0.02229323 -0.10950793  0.06039149  0.0046868  -0.22625963
 -0.10079109 -0.5271626 ]
[-0.30936107  0.17373984  0.03467098 -0.1261312   0.17971721 -0.3531562
 -0.36076987 -0.22385904 -0.1572077  -0.38568932  0.15428981 -0.31274593
  0.10592381 -0.16494815 -0.08158011  0.37719956  0.11064249  0.13142502
  0.33017486 -0.29836574]
[ 0.18537936  0.46189868  0.29542783  0.17643198 -0.15729737 -0.30164602
 -0.17149964 -0.7814912  -0.402861   -0.14493361 -0.3318852  -0.18719241
 -0.6190414  -0.15478462  0.3866572   0.22645918 -0.03059374  0.34821638
 -0.23165946 -0.11168196]
[-0.76226056 -0.33600783  0.0917066   0.17189847 -0.2760612   0.22955349
  0.33480296 -0.09959871 -0.43435735 -0.591048   -0.18038289  0.40136287
 -0.53846204 -0.14258641  0.06343324  0.51141375 -0.22226596  0.41254145
  0.6087528  -0.4954174 ]
[ 0.17712742 -0.12166424 -0.17240328 -0.26001817  0.33083484 -0.10379006
 -0.33923185  0.474186    0.06861229 -0.5138711  -0.10956882 -0.24083799
 -0.14535747 -0.41141164 -0.2529597   0.15859555  0.609028   -0.07228827
  0.48375723  0.65141785]
[ 0.0636904   0.04980959  0.02904281 -0.02153509  0.03405605  0.01544341
  0.03227311 -0.02037077  0.00034741  0.05647951  0.04119083 -0.09896471
 -0.06521709  0.20830119 -0.03036034 -0.02481264  0.0239281  -0.10226756
  0.0822475   0.05449472]
layer 1 Activation
tanh
layer 2 Dense
20 40
[ 0.05885888  0.09546864  0.24090023  0.17921147  0.16777037  0.46650082
  0.29803106 -0.13158911  0.10845018  0.00160429  0.17943017  0.1742782
  0.05089004  0.09745797 -0.23385917  0.23786244  0.39342862  0.00581665
 -0.0446367   0.02687501 -0.05905703  0.08684867 -0.25491458 -0.26846063
  0.17569727 -0.10261683 -0.24965982 -0.10958091  0.07016245  0.3024921
  0.34569395 -0.16991983 -0.03183805  0.30179605 -0.17964481  0.207814
  0.17828651  0.25466317 -0.19565874 -0.37448174]
[-0.19126542  0.08416196 -0.23273195  0.09300684 -0.13952321  0.23678479
  0.02112899 -0.35098657 -0.33315328 -0.17776714 -0.04512773 -0.17553914
  0.02632093 -0.16814664 -0.1353421   0.33216938  0.11477815 -0.03981195
 -0.10914035  0.01775427  0.02803936 -0.23580004 -0.03339948  0.07413107
  0.21824294  0.25974867 -0.3850793  -0.09334461  0.12403914  0.02857086
  0.26349428 -0.0738928  -0.20481563  0.12170287 -0.2621305  -0.24718049
  0.31822026  0.10947056 -0.06195932  0.32852197]
[-0.25283232  0.15018968 -0.01574221  0.10778794  0.24031886 -0.1398848
  0.26823345 -0.24909012  0.26237813  0.02222894 -0.09707735  0.30382788
 -0.1596726  -0.19398367  0.12696666  0.07853433  0.29561034 -0.1526786
 -0.03114657 -0.32817858 -0.18265489  0.03924541  0.0132267   0.06870753
 -0.08139532 -0.1835762   0.01286427  0.22859144 -0.26245606 -0.49077022
  0.13299565  0.01797075 -0.20602976 -0.04731778 -0.11160714 -0.06864403
  0.30763692 -0.34863314  0.00279701  0.11234775]
[-0.05201399  0.00276888 -0.0333814  -0.08432566 -0.1952945   0.28052652
  0.21853957  0.14392355 -0.00611422 -0.24501887  0.23591156  0.12022617
 -0.19535612  0.24005531 -0.16450483 -0.09566109 -0.25280654  0.15143341
 -0.31442297 -0.26186383  0.14332397  0.23082711  0.09659322  0.18979076
 -0.27889982  0.3037151   0.11372665  0.2526642   0.06642182 -0.02710972
  0.2199176  -0.00800562  0.03226071  0.31901267 -0.13583268 -0.07534043
  0.04506583  0.26485273 -0.11534346  0.04979424]
[-0.29500586 -0.01230127 -0.00914733 -0.01556247  0.05700002  0.25386748
  0.19916563  0.21200992 -0.24208543 -0.20512809 -0.02610285 -0.00562827
  0.323965    0.09960099  0.23989058 -0.00700767 -0.18959616 -0.15470353
 -0.1991526   0.06379201 -0.08614584 -0.01211873 -0.14348587 -0.17508267
  0.13711712 -0.18079191 -0.2510135   0.03595646  0.29557252  0.03030066
 -0.03386897 -0.15629297  0.25417557  0.02629058 -0.09168004 -0.20944129
 -0.2639969   0.03214892  0.14121902 -0.17524086]
[ 0.2200642  -0.20560545 -0.16183911 -0.37994736 -0.15238921  0.13057566
 -0.3796262  -0.1752119   0.1302384  -0.26209056  0.24494353  0.1208223
  0.33981916  0.3115211   0.41217324 -0.00171919 -0.34383807  0.06186881
  0.14454289  0.14392325 -0.10070749  0.0584258   0.20826676 -0.0912397
 -0.18768732 -0.07622634  0.3588168   0.08058214  0.35994685 -0.10352401
 -0.5378939  -0.14381094 -0.18346117  0.0861311  -0.27429485  0.1522922
 -0.30953556  0.43907368  0.20129465  0.17955291]
[ 0.08603476  0.3174873  -0.32829255  0.03160571 -0.19944118  0.10706881
 -0.09811912  0.23387991  0.33656466  0.185584    0.04884824 -0.18224075
 -0.30673832  0.20855424 -0.18902391  0.17004222 -0.0865082  -0.27767286
  0.22682357 -0.04750463  0.01049421 -0.12786974  0.05182833 -0.15392515
 -0.05014786 -0.19602032  0.32577646  0.18945584 -0.42564508 -0.33526084
 -0.397615    0.07240696  0.04229598 -0.28555572  0.09620015  0.15209392
 -0.21127327 -0.0398003  -0.23866963  0.2172802 ]
[ 2.12754652e-01 -7.94329122e-02  1.48179993e-01 -1.34569965e-02
  3.95195074e-02  4.42638367e-01 -3.40427250e-01 -1.80447325e-01
 -1.23829953e-02 -6.02418423e-01  1.70240790e-01  3.04064989e-01
  2.78352588e-01 -4.04970013e-02  2.18753889e-01  1.43151104e-01
 -1.72741234e-01 -3.82647663e-01 -1.57284543e-01  8.58982503e-02
 -7.14970976e-02  3.79889738e-04  2.93195426e-01  1.82056025e-01
  1.27667353e-01 -4.68339324e-01  3.22938710e-01  4.71879095e-02
  1.15137495e-01  2.86374241e-02 -2.88603634e-01  3.66589546e-01
  1.07147656e-01  3.09436947e-01 -1.65633950e-02 -3.78800035e-01
 -3.17628652e-01  3.63873363e-01  2.74889708e-01  4.78689015e-01]
[ 0.13249487  0.09838849  0.09565984 -0.09229653 -0.37574667  0.233665
  0.3984595   0.18713894  0.19051854 -0.20946206 -0.11468455 -0.19752117
  0.08037592  0.4609157   0.1620003  -0.19327326  0.34788436  0.34675515
 -0.15139306 -0.23115912  0.3420807  -0.23235409 -0.24963526  0.02386647
  0.08486971 -0.24906391 -0.2802274   0.19814198  0.03659276 -0.1750373
  0.13161372  0.15678054  0.3362867  -0.09921736 -0.17089327  0.0223284
 -0.01138247  0.19839016 -0.07333375  0.17681606]
[-0.15655316  0.18595219  0.23878193 -0.27948833  0.12984669  0.2896984
  0.08215214 -0.25248694 -0.08985653  0.26281753  0.36670688 -0.14309254
  0.31908727 -0.13800268  0.11410733 -0.34658235  0.3032657   0.10734841
  0.1808654  -0.17944078 -0.24686061  0.02360851 -0.13198426  0.13589227
  0.40809712  0.13594554  0.22095744 -0.01493084 -0.0446642   0.35074058
 -0.14188436 -0.25445518  0.07991187 -0.07534397 -0.07350723  0.40688595
  0.04415601  0.16167052 -0.0390625  -0.40735987]
[ 3.5775658e-01 -8.9511238e-02 -2.0485456e-01 -2.4193859e-01
 -2.8662872e-01 -2.3470938e-01  8.2054809e-02 -3.3865371e-01
  1.1305532e-01 -2.0646535e-01 -7.8470759e-02  2.2175655e-01
  4.5282058e-02  3.4404129e-01  7.4238591e-02 -1.7228608e-01
  3.3340966e-03  3.7227660e-02  2.3115117e-02 -2.0337920e-04
  1.6126972e-01 -9.1281161e-02  2.5316662e-01  2.9740015e-01
  5.7032555e-02 -1.9077449e-01 -2.4273600e-01  5.4146737e-02
 -3.6577288e-02  3.6545292e-01 -2.2663192e-01  1.7276612e-01
  2.0335869e-01 -2.2306521e-01 -1.4128403e-01  2.6921573e-01
 -1.8842685e-01 -1.5257733e-01 -2.7303463e-01 -9.7254567e-02]
[ 0.09503385 -0.0969036  -0.09681261 -0.1529987   0.21839674 -0.20813692
 -0.07696624 -0.30318737  0.04725234  0.23970366 -0.12207408  0.1004073
 -0.34996516  0.3527667  -0.2178883   0.19282398 -0.31414607 -0.09802519
 -0.2411871  -0.04742782  0.22307372  0.15049     0.12436879  0.0686441
 -0.08852126  0.11812177  0.4054043   0.05694191 -0.07914628  0.1949865
 -0.33103433 -0.2242448  -0.05088427 -0.2004642   0.10369504 -0.09754612
 -0.1773756   0.3137254  -0.07825464  0.22337796]
[-0.237109   -0.26556912  0.29552713 -0.05178601  0.17910226  0.04701954
  0.4125607  -0.04765594  0.06393062 -0.15910588  0.09858061 -0.21772042
  0.20805632  0.32308906 -0.0553657   0.11626241 -0.25490552 -0.14898302
 -0.13496327 -0.22069997  0.20906465 -0.21201065  0.33578628  0.1219362
  0.33037186 -0.04599386 -0.3102233  -0.16264515 -0.1942563   0.3308572
 -0.3730658  -0.07408345 -0.09870279 -0.06726748  0.1400535   0.2237967
 -0.34788132  0.21361652 -0.07441616 -0.01826459]
[-2.7416810e-01  2.0450467e-01 -1.7028766e-02 -1.4900362e-01
  3.0867445e-01  1.0693901e-01 -1.5292262e-01 -2.2590537e-01
 -6.3739322e-02 -6.1098665e-02  2.8387177e-01 -3.4315443e-01
 -9.5954545e-02  2.7880007e-01 -8.9080684e-02  1.9624346e-01
  3.6899175e-02  7.8666300e-02  1.6051143e-01 -8.7858498e-02
 -2.5567541e-02 -1.5363000e-01 -2.8731505e-04  1.6703555e-02
  1.0444372e-01 -2.6015791e-01  1.9051066e-01  2.5603529e-02
  8.0061398e-02  3.5333037e-01  3.9149158e-02 -6.8841606e-02
  4.0262544e-01 -2.4743071e-01 -2.8732750e-01 -9.7766444e-02
  1.1336081e-01 -1.4662454e-01 -3.5191643e-01 -3.7867278e-01]
[-0.33144516  0.07531807 -0.2606638   0.07879539 -0.13378859 -0.18329924
 -0.08056349 -0.1156102  -0.24540502  0.3122036  -0.2964804  -0.04304949
 -0.27318996  0.07497495  0.2949657   0.27137986 -0.29462376 -0.31829038
 -0.1513853  -0.10541284  0.03221918  0.21753623 -0.24655767  0.23663536
 -0.22264364  0.24360569  0.08072227  0.23194334 -0.13274403  0.10440149
 -0.25676075  0.21138471  0.06260973  0.06920539  0.1334426   0.257154
 -0.06398217 -0.2969604   0.26997316  0.17839141]
[-0.22767065 -0.06782396 -0.00246102  0.5281764   0.27396438 -0.1660586
  0.11790662 -0.33403224  0.18676463  0.2333953  -0.08765595 -0.04071799
 -0.12790203 -0.16955104  0.06948023  0.0808484  -0.06076477 -0.12438356
  0.06207138 -0.00187545  0.2006789  -0.19110174  0.2479741  -0.29591894
  0.04919689  0.0433401   0.01653577  0.08257281 -0.16768804 -0.17547652
 -0.0737011  -0.07927741 -0.275099    0.16597393 -0.09819453  0.13683549
  0.2318028  -0.13960208 -0.01349927  0.14176284]
[-0.2995408   0.03692444  0.20134152 -0.0171269  -0.17853966 -0.18407324
 -0.16176988  0.22973292  0.01109598 -0.13412745 -0.12298655 -0.0676771
  0.04570731  0.13719052  0.21689029  0.04685688 -0.2527708  -0.13017344
  0.24785958  0.20371625  0.15529448 -0.14534909 -0.19535583 -0.2680077
  0.36770323 -0.12720844 -0.26106519 -0.29578373  0.22830258  0.17590821
  0.17791516  0.24814321 -0.04195134  0.15291163  0.2760811   0.35920626
 -0.03454639  0.19519679 -0.01006854 -0.44264463]
[ 0.21414329 -0.16181935  0.2052824  -0.07259443 -0.00322973  0.0610946
 -0.09913338 -0.3181792   0.1540071  -0.10328988 -0.25609726  0.05521909
 -0.06486696 -0.14963686  0.00415309 -0.23971245  0.11783712  0.03267464
  0.12836269 -0.0169505  -0.03345422  0.08979616 -0.2143249  -0.1820045
 -0.00092102 -0.08143775  0.27472854  0.28233933  0.04903301 -0.21211036
  0.2538252  -0.1599379  -0.26833183 -0.08469377  0.04373012 -0.14366047
 -0.16730173 -0.06856135 -0.29127723  0.1495257 ]
[-0.25698975  0.11941868  0.22775564 -0.04215442 -0.24489366 -0.21645285
 -0.03545052  0.08859213  0.3143614  -0.05076033  0.1541031  -0.03723629
  0.02172166  0.09963752 -0.09751431  0.26405942 -0.13554135  0.17900178
  0.12791426  0.29069936  0.36869487 -0.02478045  0.29305044 -0.24800794
 -0.26849112  0.24752235  0.35156557 -0.05085983  0.13400713  0.04596058
 -0.24479091 -0.23580723 -0.17368887  0.0858354  -0.0582871  -0.04427563
 -0.12187544  0.29428867 -0.04422288 -0.20038058]
[-0.18689391  0.268733    0.3083026   0.10730833 -0.31103128  0.17540368
  0.13992229  0.15099749  0.21912521 -0.1494238  -0.15741563 -0.01263453
  0.39370573  0.24812165  0.2033476  -0.03470571  0.10831594 -0.20246786
 -0.24179247 -0.1794837   0.02012864 -0.03880572 -0.13745286 -0.07798148
 -0.000757   -0.25943357  0.20846497  0.16083975 -0.00375627  0.03862504
  0.27868873 -0.19436044  0.08536345 -0.19713546 -0.21529745 -0.13367905
  0.08655488  0.26138836  0.33502832 -0.11346578]
[-0.03822687 -0.01137724 -0.00794917 -0.02492848  0.03025563 -0.0067002
  0.0479633   0.0190169   0.00889859  0.0078112   0.01144891  0.02849183
 -0.03576443 -0.01072108  0.05092958  0.00905384  0.00340217  0.06663259
 -0.01073999  0.00958924 -0.0590709  -0.06213496 -0.02199017  0.02404443
  0.06625586  0.00281357 -0.10714886  0.03888519  0.02623152 -0.04738772
 -0.03495133 -0.03352489  0.11473009  0.00106395 -0.04149568 -0.0583895
 -0.03257268  0.01446593 -0.04951891 -0.04993809]
layer 3 Activation
tanh
layer 4 Dense
40 20
[-0.20210944  0.12893526 -0.11063214  0.07025062 -0.38409036  0.09147602
  0.04642609 -0.3323302   0.15324801 -0.3070166   0.16214086 -0.12833571
 -0.28907618 -0.31963873 -0.00106053  0.03214405 -0.04149248  0.20554948
 -0.02054194 -0.0525509 ]
[-0.0626042  -0.14224876 -0.01611901 -0.19266598  0.07278778 -0.01899323
 -0.33281627 -0.12162118  0.0561191  -0.2898479   0.25626564  0.10316394
 -0.19208002  0.28803718 -0.14725965  0.10195712  0.21234629 -0.05122998
 -0.31559128  0.08657769]
[ 0.19764417 -0.072139    0.02595418 -0.2526196  -0.22778818  0.15636383
 -0.3562172   0.10957841 -0.03714669  0.1459528   0.07875271  0.05646824
 -0.08089896 -0.33999708 -0.09766495  0.15805237 -0.10140782  0.11556353
  0.1588375   0.1804764 ]
[ 0.16668987 -0.1972924   0.3832192   0.00166646 -0.34788176 -0.15772474
  0.02098514 -0.18930396 -0.19190682  0.03732938 -0.17118174  0.06027352
  0.19725141 -0.02083114  0.08944453  0.17311803  0.14003253 -0.20422663
 -0.15020066  0.35587445]
[ 0.28789482 -0.03359567  0.18718588  0.18190277  0.02765574  0.00657461
  0.08980601 -0.2281417   0.08489612 -0.34644288  0.06392767  0.34568956
 -0.10025814 -0.12768431 -0.14335462 -0.22625189 -0.08940399  0.02812902
  0.19315985 -0.12920702]
[ 0.1249866  -0.41731468 -0.16428258  0.29645655  0.19832556  0.1193513
  0.17537493  0.03397802 -0.30102468 -0.2944922  -0.13309766 -0.25044578
  0.25811765 -0.16640896  0.03603829  0.39776412  0.16159797 -0.20566903
 -0.34518057  0.17482674]
[-0.14451757 -0.22497559 -0.18870229  0.04697652  0.06075777  0.10331419
 -0.24340074  0.12857106 -0.08969679  0.24081945 -0.04272144  0.14403403
 -0.1562567   0.055462    0.3336423  -0.21474755  0.3200649  -0.32337514
  0.11167505  0.1292304 ]
[ 0.10289665 -0.20180836  0.09268163 -0.10405281  0.3200578   0.33983743
 -0.30836162  0.24167228  0.29821125 -0.22382964  0.17751503  0.04426917
  0.12324777  0.23607041  0.0605939   0.20221019 -0.24253067 -0.18492515
 -0.14579076 -0.23576355]
[-0.0731205   0.26402354  0.24061635 -0.20575579  0.01542211  0.01099439
  0.3523895  -0.2127957  -0.04609627 -0.11515391 -0.1413038  -0.28082666
 -0.1290747  -0.13149661  0.11424701  0.09830335 -0.11855448  0.20544897
 -0.24479377 -0.23692517]
[ 1.8233521e-01  3.1002945e-01  8.0152959e-02  8.1482887e-02
  1.0272015e-01  2.4328513e-01 -2.7963595e-04  1.4397381e-02
 -3.5806239e-02  1.2684718e-01  6.4872578e-02  3.0521476e-03
 -5.8492351e-02  2.4479316e-01 -2.7440062e-01 -1.1655444e-01
  2.8573626e-01 -1.9316014e-02  2.4970333e-01  3.0747649e-01]
[ 0.2381368   0.23193632 -0.25413713 -0.30347744  0.07343145  0.26467517
  0.2005162   0.25175282 -0.28636152 -0.22132008 -0.1299656   0.08602968
 -0.22992447  0.1396882  -0.43212044 -0.08271579  0.07486056  0.20739256
  0.1897145   0.3233755 ]
[-0.11776122 -0.18794392  0.14062153  0.12514369 -0.07305226  0.24654026
 -0.10912794 -0.24492052 -0.24622707 -0.0920041   0.23361607 -0.09067895
 -0.23391086  0.37837896  0.21481061  0.31027943  0.16050619  0.16645235
 -0.04863604  0.12817407]
[-0.16231449  0.25083637 -0.04335134 -0.03856892 -0.04772364  0.3177456
 -0.37531772 -0.12635237  0.04227342  0.09276573  0.3039446  -0.21555328
  0.0539442  -0.30841452 -0.32567823  0.23606554 -0.13265228 -0.10345372
 -0.11181518 -0.0805468 ]
[ 0.36644453 -0.00293581 -0.00773246  0.16504793  0.41953185  0.31297228
  0.22602428  0.20192732 -0.34682417  0.13879281 -0.01701828 -0.23555732
  0.27841228  0.2377748   0.01048169 -0.28387395  0.19303995  0.14132011
 -0.00331614  0.15368567]
[-0.00113213 -0.12854107 -0.02640451  0.02829277  0.34039298 -0.27150446
  0.09531641  0.34006625  0.22636764 -0.02617478  0.07035802 -0.19127859
  0.07108814  0.06717266 -0.01630036  0.0752217  -0.1362016   0.05234376
 -0.12648802 -0.23388405]
[-0.24709846 -0.14996374 -0.06172907 -0.15610777 -0.17062923 -0.24903111
 -0.00889045 -0.17514865  0.26314873  0.15440275  0.05798006  0.08724036
  0.17601818 -0.07351876 -0.0155553   0.20071569  0.12203841 -0.17652127
 -0.09457185 -0.0537778 ]
[-0.24508618 -0.23951334 -0.0675332   0.23470594 -0.27873635  0.00350355
  0.04022509 -0.0215007  -0.02044389  0.17104009  0.28095976  0.02341563
  0.25619495 -0.2711237  -0.16307932  0.26240367  0.23350297 -0.09962176
 -0.23816    -0.2020936 ]
[-0.01470321 -0.23679882 -0.05818247 -0.00750315  0.07166743  0.34086093
  0.26668283  0.2609931   0.07830476 -0.02494133  0.21825023  0.04301297
  0.26509795 -0.11979809  0.19101304 -0.289871    0.28660893 -0.23384215
  0.23854303  0.16796163]
[ 0.2242416   0.20180352 -0.12534803  0.18010439 -0.10136591 -0.13509874
 -0.22055751 -0.17747714  0.24534056 -0.22467765  0.14373717  0.07404848
  0.0977288   0.11661318 -0.0521731   0.27371123 -0.22853203 -0.11484712
  0.10890542  0.26735383]
[ 0.04715161  0.25852093  0.0530142   0.2425429  -0.09049343  0.1960882
 -0.2843456  -0.1000827   0.06695424  0.0216128   0.10432421 -0.2342699
 -0.31076884  0.11125195  0.09090725 -0.3006741  -0.29128703  0.28759757
 -0.01850965 -0.19241424]
[ 0.24421334 -0.02439143 -0.10492055 -0.3359824  -0.06233855  0.21606715
  0.19231579 -0.04143337  0.33796462 -0.24200144  0.09012859 -0.0346256
  0.3391108  -0.24847353  0.32144248 -0.41969848 -0.08239207  0.28693524
  0.04925439 -0.07982566]
[ 0.196776   -0.15526032  0.30326483 -0.01823911  0.0728931   0.15942322
  0.24594693  0.17504263 -0.00376047  0.1976673  -0.21695256  0.26414016
  0.29111826 -0.17944147 -0.17832693  0.31531003 -0.05822583  0.00850051
 -0.01366297  0.08345898]
[ 0.25050434  0.11599375 -0.15018086 -0.01682991 -0.2728917  -0.11496341
 -0.21072614  0.02324133 -0.04794186  0.0898708  -0.20671627 -0.04003579
  0.00558064 -0.21404636 -0.10523968 -0.03461379 -0.2376757  -0.03329382
 -0.1626741  -0.09475023]
[-0.1394646  -0.10760523 -0.37525934 -0.2011407   0.05027093 -0.20949453
  0.04061211  0.10771573 -0.09942061  0.04987888  0.216476   -0.03548604
 -0.35068113 -0.17056729 -0.14948158  0.03847722 -0.06349649 -0.09521033
  0.190555   -0.287373  ]
[-0.26601118  0.29758334 -0.2922673  -0.18705074  0.08278441  0.33688775
 -0.10146084  0.07771633 -0.31621408  0.09442981  0.01305376  0.02644745
  0.1605321   0.19944873  0.04459703 -0.16045497  0.16917405  0.22352459
  0.02270063  0.1925555 ]
[-0.16537294 -0.04737426 -0.0576131  -0.27042446  0.24901153 -0.22987469
 -0.22810325  0.2863255   0.16356243 -0.08889983 -0.02772378  0.22066347
  0.00235072 -0.10627921  0.09870384 -0.19947043  0.191598   -0.08999015
  0.24233128 -0.0711044 ]
[ 0.10073619  0.23163728 -0.08541042 -0.23685044  0.2605939   0.04452873
  0.06621642 -0.02453588 -0.1945326   0.37817106  0.1926072  -0.02333839
  0.0117915  -0.28892237 -0.31765562  0.05671581 -0.3136491  -0.00911999
 -0.01051532 -0.1581785 ]
[ 0.06576818 -0.24864908  0.04341147  0.1413388  -0.07971127 -0.04486766
  0.27485618 -0.08273549 -0.22270331  0.04396251  0.2665791  -0.10674689
 -0.13419692 -0.18224575 -0.20928259 -0.09882404  0.02142145 -0.00738288
 -0.0245147  -0.24763279]
[ 0.13648877 -0.01309721  0.12782392  0.28315586 -0.05684116  0.1403974
 -0.21843022  0.09010986 -0.17407668 -0.08178788 -0.25093243 -0.13193385
  0.27961186 -0.00241233 -0.23349279  0.24121632  0.09945101 -0.09339464
 -0.2571428   0.2827852 ]
[ 0.03252909  0.35443395  0.13980356  0.1722836  -0.25362116 -0.27997404
  0.18152085  0.34846982  0.04689855  0.26953676  0.31734276 -0.25066814
  0.24574931 -0.22995019 -0.19031419 -0.23297918  0.11927869  0.20867176
  0.2164488  -0.2520632 ]
[-0.34707838  0.02766258  0.17574754  0.29562292 -0.1989527  -0.20627369
 -0.35364613 -0.3114552   0.260283    0.13786456  0.07980561  0.27033353
  0.11821736  0.16914481  0.12262107  0.04331439  0.353221   -0.28439948
 -0.08709149 -0.12310027]
[-0.20376214 -0.19920807 -0.2876289  -0.11039655 -0.18777198 -0.06841005
 -0.20809507 -0.20427078 -0.3037633  -0.01889207 -0.12704016  0.19236149
 -0.06738609  0.06849914 -0.13947655  0.00913878 -0.25537667 -0.24208936
 -0.3285275   0.01856903]
[ 0.36911914 -0.14009097 -0.07743409  0.3744228   0.2606398   0.00628409
 -0.07490761 -0.18088499 -0.16627146 -0.31826964 -0.25666475 -0.01509547
 -0.03150939  0.28679693 -0.07971323 -0.2458442   0.1824747   0.33229408
  0.22962654 -0.01184167]
[-0.3782291  -0.04978054  0.10179696  0.1649995  -0.16263416  0.26227716
 -0.04323729  0.06532325  0.23259519  0.10543457 -0.08565671  0.08657806
  0.17048413  0.25704432 -0.14604071  0.00345149  0.10194913  0.0916591
 -0.21499233  0.17582096]
[-0.04427791  0.30678734 -0.02915774 -0.07850014 -0.14477435 -0.03470499
 -0.17070901  0.21954422  0.2709893   0.03922869 -0.23764104 -0.13551095
 -0.03034321 -0.2770025   0.24105865 -0.32107118 -0.23553431  0.25710487
 -0.0810248  -0.18603681]
[ 0.27729297  0.2222963   0.04257849 -0.15153338 -0.07899424  0.04819652
 -0.26639128  0.23256144  0.09452659 -0.13161308 -0.03567336 -0.041936
  0.08853678  0.1069491  -0.3332447   0.1498137   0.05800389  0.24787351
  0.11082397  0.1566459 ]
[-0.01370327 -0.00935641  0.0390175  -0.00211372  0.04884598 -0.17918016
 -0.21640936 -0.34839898 -0.02276867 -0.04383586 -0.17023697  0.22552511
  0.10715821  0.08554453  0.10664386  0.05244805  0.16696794 -0.20044191
 -0.2102213  -0.01132126]
[ 0.12787026  0.31739306  0.02456371  0.16938396  0.26746267  0.21719193
  0.08589277  0.12035865 -0.18079631 -0.14709476 -0.21463689 -0.2354157
  0.38687462  0.2466858  -0.23052578 -0.07916998 -0.35806367  0.30610466
 -0.14039041 -0.13542438]
[ 0.32797337  0.14746346  0.11170073 -0.28790426  0.12617004 -0.1302018
 -0.04055282  0.3016209  -0.08049303  0.17305231  0.08157956 -0.29419863
  0.0307628  -0.08384915  0.06448413  0.37049916 -0.1705603  -0.2319945
 -0.24789396 -0.12794127]
[-0.06043983 -0.3200824  -0.07287531 -0.2529816  -0.03142105 -0.20295599
  0.26662794 -0.20128489 -0.04901993 -0.13461892  0.19695047  0.04996459
 -0.02168723 -0.24062948  0.26709774  0.3249026  -0.19674891  0.07505995
 -0.22692573  0.2574029 ]
[-0.0320055  -0.0536717   0.00200845  0.02558117  0.03392432 -0.01146983
  0.01789507 -0.02809523  0.00125021 -0.00879171 -0.00066449  0.00980612
 -0.0056383  -0.02433794 -0.04115802 -0.00838544  0.01634398 -0.03818856
  0.04412425 -0.0253171 ]
layer 5 Activation
tanh
layer 6 Dense
20 1
[0.17521012]
[0.20517199]
[-0.2973494]
[0.14939015]
[-0.2723751]
[-0.09960113]
[0.24470627]
[0.27387956]
[-0.08744438]
[-0.04419295]
[0.01309879]
[0.3396976]
[-0.19458225]
[0.07699796]
[0.19461933]
[0.04842236]
[0.23238784]
[0.0712628]
[-0.2657648]
[-0.00906249]
[-0.0020467]
