layers 7
layer 0 Dense
20 20
[ 0.23083296 -0.19063786  0.38570946  0.01831009  0.00830808  0.24764898
  0.07592306  0.12306519 -0.09841296 -0.20470826 -0.21601659 -0.41513932
  0.20257545  0.155269    0.23165111 -0.03207459 -0.29076397 -0.03946251
  0.02075241  0.39698458]
[-0.41113353 -0.3893009  -0.18112664  0.03996864  0.05017076 -0.0137291
  0.3642837  -0.00127517 -0.283119    0.15608634 -0.1454092   0.28358462
 -0.18415605  0.22412165 -0.24962696 -0.01359766 -0.05325089  0.02461797
 -0.28126526  0.25246307]
[ 0.14488964 -0.10278297  0.3220611   0.26836538  0.01154016 -0.19461906
 -0.3396853  -0.34118912 -0.24422811 -0.10003725 -0.49379086  0.26778597
 -0.03675826  0.18846612 -0.28455567 -0.25285667  0.32927155  0.04818651
 -0.24008952 -0.08191175]
[-0.30630907  0.33172846 -0.2018811  -0.00853872  0.00282205  0.31316534
 -0.06781024  0.12294053  0.07145751 -0.32914907 -0.36129153  0.14781249
  0.36192524 -0.25164267  0.1631828   0.36575857 -0.31072184  0.11435943
 -0.06830655  0.2425115 ]
[-0.03381871 -0.07019462  0.04325639  0.01527997 -0.06219067  0.38178506
  0.10938257  0.2914878   0.12273783 -0.21173872  0.0254733  -0.34178123
 -0.20669445 -0.00215328  0.1074792   0.23582678 -0.37042728 -0.03271171
 -0.11584175 -0.025466  ]
[ 0.1844796   0.04397773 -0.20389172 -0.03420247  0.18310946 -0.31384787
  0.294037   -0.35253572  0.00367192 -0.3669011   0.31131807  0.24139187
 -0.31078604  0.2770462  -0.12204311 -0.224533   -0.11854506 -0.24416019
 -0.03261796 -0.33972555]
[ 0.3526867  -0.29677004 -0.14731196 -0.06160882  0.22168876  0.11745477
  0.33103454  0.27458903  0.25010598 -0.1377406   0.03577658 -0.2679944
  0.20294176  0.22626808  0.2532857  -0.36762357 -0.20335135  0.358896
  0.31323445 -0.2622143 ]
[-0.33642998  0.28624827  0.01936856 -0.31208888  0.37977633 -0.32568622
 -0.07666628 -0.25307435  0.11664139 -0.3467836   0.06539249  0.06495503
 -0.0127442   0.0894014   0.09749614  0.11783549  0.17891468 -0.10720437
  0.3847628   0.05186649]
[-0.16231754 -0.13162546 -0.19186544  0.14966176  0.26947755 -0.36512867
 -0.3471803  -0.35036016 -0.34953928  0.37382978  0.38964263 -0.1607645
  0.21977112 -0.21278597 -0.3238904   0.28972483  0.3169658  -0.4052269
  0.41612977 -0.4078162 ]
[-0.11140158  0.20144896 -0.04210607 -0.03953464 -0.21448061  0.3279432
 -0.266171    0.15829283 -0.22321631 -0.30167103 -0.05863403  0.35753244
 -0.14347236 -0.19385879  0.19082186  0.03584504  0.10796619  0.23172455
 -0.00628812  0.15870737]
[-0.09045088  0.21734472 -0.27755022 -0.24039306  0.3933811  -0.13830276
  0.14624926  0.33250925  0.22901306 -0.08898405  0.23018979  0.20883785
  0.30265057 -0.2827916   0.07682949  0.12588418  0.39230713  0.34216574
 -0.04066319  0.06017203]
[-0.13568819  0.4075511  -0.00903601  0.26686844  0.2754393  -0.01034647
  0.10925883  0.00181312 -0.03490825 -0.07487799  0.02965735  0.01880968
  0.2864826   0.26951686 -0.16934225 -0.18931594  0.34339577 -0.35582593
  0.01406388 -0.14466272]
[ 0.04597003  0.1038707  -0.04400255  0.24867083 -0.29558098  0.15091632
 -0.2969766  -0.4684468   0.25653097  0.24472341 -0.04366273 -0.04319528
 -0.29740527  0.30972812  0.10757347  0.13825192  0.23414768  0.1097656
 -0.00390218 -0.08025002]
[-0.25261694 -0.05813361  0.04716727  0.22695504  0.13445333  0.20672862
 -0.35819465 -0.12509537  0.18639277 -0.14003395 -0.02916834  0.2843755
  0.23736584  0.05588485  0.27634254  0.20054933  0.19915242 -0.15080519
  0.21863076 -0.18572749]
[-0.14885496  0.353498    0.4685178  -0.12572964  0.081596    0.3340368
 -0.25649068 -0.38400838  0.29965326 -0.2167081  -0.05730439 -0.25985637
 -0.09173577 -0.38822287  0.39422393 -0.12201326  0.26582438 -0.294147
  0.10377287  0.34839183]
[ 0.00152536 -0.18893293 -0.13765475  0.24631631 -0.2255742  -0.10000112
 -0.18102072  0.28515866 -0.20715243  0.2627955   0.07434225  0.19233242
 -0.08446801 -0.10151832  0.13146126  0.27905726 -0.25853115 -0.09536188
  0.02700667  0.0309076 ]
[-0.440259   -0.12819085  0.25499806 -0.03171238  0.34551653  0.33706054
  0.15698901 -0.38678804  0.01018535  0.1428921   0.07439262 -0.23846203
  0.315876    0.11343826  0.10781349 -0.19263619  0.20286477 -0.12076913
  0.3108224   0.0077179 ]
[ 0.25416756  0.12738907 -0.2929548   0.3035702   0.1739947   0.38076672
 -0.36462212  0.20266289  0.27588272  0.1285661   0.21287006  0.02603244
  0.35191217 -0.02180714  0.3882465   0.2353534   0.12924054 -0.01092559
 -0.2186562   0.03288097]
[ 0.2099695  -0.25471053 -0.32290414  0.37041986  0.25381213 -0.0313708
 -0.4143583  -0.25117388  0.04341746 -0.30440304 -0.27944687  0.33546305
  0.26227853  0.04112094 -0.27005222  0.04028154 -0.27720055 -0.30650464
 -0.27523154  0.31219485]
[ 0.34231508  0.2538076   0.08532654  0.19795835 -0.22579075  0.32252023
 -0.14897007 -0.07159649  0.11264551  0.31892818  0.03160561  0.23092629
 -0.12215489  0.18605237  0.07574686 -0.28330335  0.2590478   0.0897666
 -0.03071169 -0.06298634]
[ 0.02800754 -0.00037595  0.01165948 -0.02389842  0.00290471  0.00138148
 -0.01665194  0.00403456 -0.01286517  0.00366773 -0.06280298 -0.01601332
 -0.01010278  0.01616195 -0.05673128 -0.02014631  0.02794601  0.01326247
 -0.04370452  0.01590562]
layer 1 Activation
tanh
layer 2 Dense
20 40
[-0.14905709  0.09738763 -0.00727866 -0.01973986 -0.0513442   0.02429942
  0.19365089 -0.19040781  0.2185396   0.2568671   0.2381573   0.21955334
 -0.3448058  -0.2037922  -0.03464539  0.29458636 -0.1135701  -0.1731616
  0.0174252  -0.2838779   0.2861391   0.29884088  0.3073106   0.03142866
  0.1425681  -0.29310945 -0.1766682   0.28105307 -0.00891485 -0.351504
  0.10990617 -0.23789807 -0.04836533  0.07696965  0.3078326  -0.12563908
 -0.3799344   0.28642985 -0.22211611  0.2557965 ]
[-0.03745895 -0.0828383  -0.25697878  0.2683364   0.06847364 -0.13231684
  0.21518467 -0.31564364  0.112648   -0.01409057 -0.13942547 -0.29300305
 -0.04967277 -0.22406238  0.24904078 -0.06028666 -0.2887096   0.20903829
  0.14112528  0.04865888  0.29419273  0.3615688   0.28331047 -0.00597572
 -0.19374771 -0.25653794  0.13748628 -0.05405362 -0.26772645 -0.00606968
 -0.09569518 -0.28249454  0.17039058 -0.01348924 -0.09640265 -0.00701945
 -0.1741803  -0.0112397  -0.08833836  0.05455308]
[ 0.00262913  0.12643553 -0.10783224  0.14531745 -0.14840734 -0.23691392
  0.00580861 -0.0100066  -0.13531606 -0.24495037  0.02765219 -0.01082161
  0.05972064 -0.15756404  0.22017346 -0.1768554  -0.2215008   0.18976189
 -0.08571999 -0.16835773  0.07602698  0.11286423 -0.22021507 -0.12316567
  0.2547885  -0.07048907  0.00290915  0.14542654 -0.27272716  0.37181708
 -0.08894572  0.28802183 -0.19544627 -0.14647609  0.2548726   0.2285823
  0.41962856  0.24499273 -0.24587405  0.12510903]
[-0.04952337  0.02921076  0.22396071  0.10235243 -0.15018402 -0.2818076
 -0.26343334  0.00651258 -0.09196131  0.17679575 -0.08337764  0.00582105
 -0.3690096  -0.01843087  0.32583588  0.10303271 -0.00460601  0.05883037
 -0.22484002 -0.01300164  0.30806103  0.3721579   0.24109185 -0.3413279
 -0.29476738 -0.12428212 -0.06013298  0.24506703  0.08710728  0.03439723
 -0.11835124 -0.04096872  0.31584987 -0.16730404 -0.07189269  0.20021011
 -0.238461    0.3644753  -0.24833016  0.10891923]
[ 0.2621415  -0.31360543 -0.16497418  0.10110458  0.31049702  0.20139158
  0.12464923 -0.16779454  0.23891336 -0.19011514 -0.23373729  0.05787012
  0.18001513 -0.0235794   0.14333089 -0.01322359  0.25485206  0.16452552
  0.07206473 -0.19003527  0.15538396  0.17716883 -0.09386881  0.07681987
  0.00454767  0.22502242  0.24082536  0.13340393  0.2383647  -0.27861643
 -0.26857665 -0.08016106  0.22816306 -0.0345492   0.06741507 -0.29324102
 -0.20670892 -0.27169946  0.23800068  0.09047816]
[ 0.06096984 -0.05255949  0.0164118   0.30045792 -0.31355053  0.19152635
  0.07431161  0.31195602  0.19322407 -0.22241224  0.25686648 -0.19073026
  0.12334796 -0.19115497 -0.23624091 -0.0682929  -0.01720492 -0.20669276
  0.20165092  0.16026117 -0.04615826 -0.11207879  0.15348537 -0.19756372
  0.13709188 -0.21664271  0.12863873 -0.27968702  0.21973243  0.16536583
 -0.05236267 -0.1175203  -0.1955072   0.1892916   0.16325115  0.00824912
  0.15683028  0.1912902   0.31413415  0.23320034]
[ 0.11517748 -0.10686395  0.13753113 -0.20543142  0.00624581 -0.33700338
 -0.0246339  -0.24130236 -0.17757861  0.21119487  0.23387478 -0.18370023
  0.05020597 -0.15734442  0.17997168  0.26604658  0.0569067   0.29432258
  0.13448879 -0.15783824 -0.16867639  0.22212139  0.14894348 -0.20675506
 -0.2794684   0.00883606 -0.17846952 -0.08254907  0.1453592  -0.24447136
 -0.02790463  0.26072562 -0.18007113 -0.15294087  0.04862192  0.2322541
  0.08605273 -0.2841088  -0.24598768  0.1117887 ]
[-0.00845456 -0.20806518 -0.23029833 -0.17192563 -0.07280636  0.2566986
  0.23838362 -0.2596698   0.18131964  0.26015997  0.17333446 -0.17547515
 -0.19008797  0.03234912  0.08077864  0.12929593 -0.07024721 -0.28731707
  0.22940435  0.05987424  0.30019307 -0.01000337 -0.13880312  0.05136107
  0.19765724 -0.2995108   0.2695539  -0.17213269  0.00739369  0.25294706
  0.12123526 -0.21040371  0.1536102  -0.2648243  -0.1342016   0.18165915
 -0.06812941  0.07673543  0.15125896  0.18096241]
[-0.1325929   0.06060578 -0.12124752 -0.07668056 -0.24238974 -0.055567
 -0.20216289 -0.26348707 -0.27168763 -0.34700766  0.2997086   0.18168865
  0.04711786  0.23338942  0.18700513 -0.09862055 -0.14257415 -0.18040532
  0.25304374  0.07409143 -0.09830706  0.00923369 -0.25670767 -0.02571681
 -0.09295927  0.25246978  0.17361787 -0.17943548 -0.1673655  -0.14464627
 -0.13614398  0.22144006  0.22447945  0.17306341 -0.25116163  0.08501069
 -0.19385736 -0.0341727   0.04769929 -0.20261793]
[ 0.22354558  0.16431603  0.23122051  0.00117908 -0.14205918  0.18846694
  0.12278654 -0.3365976   0.3273305  -0.2971812  -0.31973746 -0.00277623
  0.07085447 -0.01560651 -0.00682869 -0.1199453  -0.20644043  0.16082025
  0.06336503  0.30531505 -0.05254723  0.24255328 -0.16403313 -0.12769952
 -0.2325172   0.31762043 -0.10828321  0.20424408  0.22226495 -0.27293676
 -0.27184382  0.3006775  -0.20145619 -0.04046103 -0.00119935  0.21376665
  0.20575304 -0.13444942 -0.29385194  0.27980345]
[-0.05296001 -0.26162136  0.314269   -0.02258624  0.27954015  0.07638533
  0.08053979 -0.24075069 -0.09980813  0.03367889 -0.3024913   0.21474215
  0.02947873  0.0319938   0.11269299 -0.01076532  0.07342659  0.28781405
  0.24760881  0.04794025 -0.3309878   0.0379733   0.10152664  0.24523957
 -0.14313701 -0.02712056  0.26782647 -0.04981834  0.2971568  -0.20830673
 -0.3667992  -0.19078818  0.04500883  0.2017345   0.02015741  0.02259144
  0.16997448 -0.08202611  0.19368723 -0.09330919]
[ 0.03129258  0.01873942  0.00964153 -0.179656   -0.11706258  0.18732156
  0.2131511   0.18784127 -0.17481874  0.08184364 -0.1731287  -0.01348181
  0.05823278  0.03450662 -0.2616003   0.23620418 -0.33191237 -0.10430786
  0.2236845  -0.17315552 -0.18155001  0.01822816  0.2298877  -0.13749665
 -0.14921552  0.02565881  0.15783048  0.07878419  0.33298922  0.27544335
 -0.24195546  0.2255084   0.02267172 -0.17800447  0.20623873  0.01094246
 -0.17258395  0.11791105  0.10146929  0.26187435]
[-0.02492185  0.10086233  0.06338657 -0.19490205  0.23855324 -0.12140027
  0.10714904  0.00510127  0.07133326 -0.06375414  0.21375702 -0.25534177
 -0.11543734  0.08956754 -0.29694563  0.15568629 -0.15851998 -0.15869346
 -0.26785225 -0.20362313 -0.2544699  -0.09896107  0.18586726  0.32058936
 -0.03154974 -0.09321623 -0.2199662  -0.06316854  0.18739277 -0.19267565
 -0.20410569 -0.08752536  0.04999725 -0.0510866  -0.04216477 -0.27476126
  0.13189097 -0.03816694 -0.25190723 -0.10301998]
[-0.24317297  0.24561182  0.2870554  -0.18960738 -0.15395343 -0.27209178
 -0.04734543  0.01064661 -0.13177346 -0.04171    -0.03211871  0.11676568
  0.02877947  0.26006323  0.02992505 -0.21178292 -0.17146517 -0.11506069
 -0.19920558 -0.08655672 -0.19868922  0.34438634  0.02918165 -0.22872213
 -0.22174965  0.08964456  0.20973141  0.00903832 -0.00984519  0.19550467
 -0.26314706 -0.27403668 -0.29550895 -0.01356854  0.266816   -0.1788682
  0.33008936  0.02070079 -0.1605092   0.07930784]
[ 0.19469187  0.18346903  0.19110659  0.33042273  0.19693337 -0.02405076
 -0.07286102  0.00046214 -0.00970908  0.23012164 -0.05029038  0.27656665
 -0.1290509  -0.11777227 -0.05600547  0.25006157  0.11057106 -0.11376923
 -0.26783842 -0.06765795 -0.24006128  0.00852484 -0.32876512 -0.26101732
  0.08000997  0.01276207  0.21269092  0.10931928 -0.10477896  0.11654508
  0.20977472  0.04835895 -0.02028942 -0.19372274  0.21536453 -0.02244893
 -0.17374317  0.26251665  0.31178895  0.19587815]
[ 0.19491167 -0.3110492  -0.23735817 -0.2040043  -0.07974878  0.3095709
 -0.026133   -0.12530024 -0.05950417  0.02190148 -0.13992888 -0.03115819
 -0.3511724   0.06254335 -0.11753289 -0.11439884 -0.00671504  0.01017639
  0.13917096  0.01733528 -0.02278344  0.06896581  0.01742583 -0.31763333
 -0.1550184  -0.22016951  0.01157357 -0.12856853  0.1019545  -0.16326076
  0.21050625  0.12357649 -0.01884016  0.08111121 -0.246128   -0.16063954
  0.16980264  0.307204   -0.2690638   0.05048059]
[-0.2561553   0.18198909  0.12327528  0.22885218 -0.09095118  0.03593476
 -0.09716766  0.05725506  0.08775043  0.00187048 -0.20594594  0.1422407
 -0.02864444 -0.30214682 -0.27984953 -0.21450467  0.1583727   0.00274222
 -0.1776059  -0.14202057 -0.14913994 -0.2744698   0.03859068  0.22582644
 -0.1514351   0.2946891   0.03595008  0.05062591 -0.24062416  0.13643698
 -0.04819646  0.21298698 -0.24456549 -0.18034014  0.16402009  0.22150733
  0.19610712  0.05892016 -0.23961565  0.28328803]
[-1.8227767e-04 -3.0879596e-01 -2.4008919e-01  1.6804467e-01
 -1.0580106e-02  2.9653233e-01  2.1287227e-02 -1.6816621e-01
 -1.5265928e-01  3.7341341e-02 -2.1796092e-02  1.4515813e-01
 -2.3619667e-01  3.5897180e-02  7.3332176e-02 -5.3343102e-02
 -2.6117760e-01  3.5817288e-02 -1.7048270e-01 -1.4236867e-02
  7.4559741e-02  8.6559422e-02  1.7975010e-01  2.1945648e-01
  6.8480998e-02 -2.4513988e-01 -1.0103403e-01 -1.9567087e-01
  1.9418205e-01 -5.6533370e-02  2.3748408e-01  2.9346094e-01
 -1.8015547e-01 -2.8190902e-01  2.0113382e-02  2.2657943e-01
  1.5771122e-01 -3.1685826e-01  1.6778956e-01 -1.9250486e-02]
[-0.02950353 -0.17629655  0.11220252 -0.10107537  0.02967547  0.00599908
  0.3105456   0.26367828  0.22313294  0.16983353  0.01473591 -0.26946273
  0.21448101  0.3080674  -0.0445845   0.31678623 -0.04496847  0.0381943
 -0.07214427  0.15907416  0.13428332  0.19050217  0.02550292  0.10107766
  0.19805051 -0.05890967 -0.11096574  0.18504086  0.18940362 -0.02389454
 -0.21663521 -0.33521578  0.24621072 -0.12537669  0.01621972  0.1486085
  0.2721485   0.2397626   0.13262405 -0.04347412]
[ 0.27851272 -0.0195691  -0.21132451 -0.11315995  0.22597979 -0.07413572
  0.02123615 -0.04742695 -0.27232382 -0.17342107  0.12430271 -0.28813127
 -0.18684362  0.21441741 -0.08024897  0.13949192  0.18888901 -0.25264174
 -0.02885391  0.02438425 -0.01568725  0.1578624  -0.22326091 -0.12143198
  0.06383506  0.12967893  0.18572322 -0.15242346  0.10602903 -0.04729448
  0.10638404 -0.14228272 -0.21080834 -0.18143396 -0.03133172  0.3175039
 -0.19775277 -0.12004246  0.09641932 -0.11037587]
[-0.01405249  0.01624391 -0.06289279  0.00224121 -0.00349798  0.00175109
 -0.00919646  0.02001746 -0.02056244  0.01470072  0.03067806 -0.00672022
  0.02973241  0.00349294 -0.00185423 -0.00015942 -0.00591027 -0.00827051
 -0.001393   -0.00975018  0.01829654  0.0014326  -0.00221258 -0.005277
 -0.0139862  -0.00903771 -0.00727598 -0.00658869  0.00659039  0.01911768
  0.04811281  0.02132923 -0.00251164  0.0006604   0.01558333  0.00870823
 -0.10403218  0.00242486 -0.00780004  0.00863388]
layer 3 Activation
tanh
layer 4 Dense
40 20
[-0.19103129  0.09704486 -0.1628087   0.09359022 -0.30774844  0.23603095
 -0.25037467  0.0756463   0.06657307 -0.19631204  0.24268219 -0.09145728
 -0.10530476  0.10768456  0.1268453  -0.00365816 -0.07349145  0.27265278
  0.23646377  0.14305893]
[ 0.02105919 -0.12675282 -0.2869386   0.01854961 -0.10587112  0.26763672
  0.14684556 -0.14474593 -0.06440517  0.28905985  0.22672981 -0.3274669
  0.03696617 -0.17110613  0.13208681  0.28424367  0.0250177  -0.24012052
  0.32310694 -0.10572392]
[ 0.04476088  0.16074525  0.17975594 -0.02878573  0.19497025 -0.34132627
 -0.18384382 -0.1808787  -0.01018398 -0.02164012  0.23967879 -0.34928912
 -0.15782674 -0.06625693 -0.18811983  0.24360198 -0.2452247  -0.20271437
 -0.04028152 -0.07623373]
[ 0.22835107 -0.2129369  -0.03591869 -0.07040083  0.28050786 -0.19861199
  0.18170528 -0.24289867 -0.03560482  0.07945968  0.01966091 -0.25168848
 -0.02168499 -0.24734817  0.1375673   0.21979874  0.22245166 -0.01583284
  0.10327695  0.14982755]
[-0.09654947 -0.07649453 -0.13373324  0.20766236  0.18825538  0.21586972
  0.16823499 -0.03384893  0.27266625 -0.14991498 -0.06965234  0.33288398
  0.07469776  0.17304078 -0.01956948  0.07388635  0.0121079  -0.04255436
  0.09954678  0.08301181]
[-0.09181765  0.11707875 -0.23241219 -0.18144841 -0.20646168  0.25375932
 -0.30020308  0.31469077  0.25414047  0.06681485 -0.29935545  0.15595119
  0.284769    0.17650214  0.12146251 -0.14438155  0.10923018 -0.16118339
  0.22892146  0.2005146 ]
[ 0.23700133  0.15638384 -0.09819305  0.1227214   0.19863638 -0.20861982
  0.07755262  0.29487506  0.2603741  -0.17243285  0.21876332 -0.20942819
 -0.31441036 -0.18212488  0.05966118  0.11758753 -0.01118599  0.18215382
  0.30649906  0.26605785]
[-0.15468757  0.00139608  0.23354037  0.26779094 -0.1261218   0.29658124
 -0.15462337 -0.20543195  0.1980456  -0.25472397  0.21173856 -0.27318463
  0.15299568 -0.01540751 -0.00645949  0.2917312  -0.25879964  0.21559776
 -0.19196254 -0.3117135 ]
[ 0.18248013 -0.01623356 -0.01253363  0.12031607  0.01663392 -0.17048635
 -0.15091665  0.19843535 -0.0122337  -0.10989726  0.23562327  0.21353737
 -0.18791257  0.22811075 -0.17276071  0.30869547  0.12744057  0.03234735
  0.18407375 -0.31098568]
[-0.22230844  0.12252805 -0.06227816 -0.16575326  0.01519624 -0.08873101
  0.30206084  0.2077132   0.23443264  0.15192811 -0.18922476 -0.1904807
 -0.09833533  0.02921391  0.19874781  0.08256125  0.29158682  0.04297629
 -0.06623811  0.20473088]
[-0.25456592  0.17072968 -0.06379778 -0.25857562  0.03883956 -0.09798587
  0.0428859  -0.10102706 -0.00473018 -0.00169072 -0.29317838 -0.10400802
  0.13045624 -0.00593532  0.184534    0.10542773 -0.19199032  0.16907732
 -0.22717005  0.00819515]
[ 0.22605775 -0.00478504 -0.13141236  0.12591517  0.05283747 -0.00048206
  0.19233428  0.08516543 -0.04115827  0.11349584  0.28242683  0.1300931
  0.20930026  0.2974225   0.10029814  0.03602761  0.0055296  -0.19259386
 -0.05328862  0.33234328]
[ 0.15138228 -0.12331212 -0.19840072 -0.16623501 -0.14535941 -0.04788419
  0.3023136  -0.211087   -0.2253406   0.09503028 -0.24833032  0.2797379
 -0.14142697 -0.09255417 -0.00446793  0.07481678 -0.14965364 -0.24725969
 -0.12912935 -0.28764394]
[ 0.18012711 -0.12728927  0.05687856 -0.23669536 -0.03278648 -0.28548378
 -0.19583318  0.01396414 -0.02229108  0.08289438  0.21241501 -0.24377951
  0.24601261  0.03578791  0.26429406  0.08919129 -0.12919208  0.09949408
 -0.21186586 -0.00767732]
[-0.06079742 -0.11480394  0.28171602  0.07387125 -0.15667908  0.24394535
 -0.057497   -0.06913036 -0.26772937  0.22439109  0.0459436   0.20229496
 -0.0773011  -0.08764099  0.03978768 -0.25222    -0.03549584 -0.16934946
  0.04865501  0.08267795]
[-0.07848223 -0.0095243  -0.15204225  0.1473021   0.1385643  -0.14307345
  0.12603709  0.2534219  -0.08690425 -0.03825317  0.26230207  0.18242827
  0.16669217 -0.28676647 -0.11778444  0.27715036  0.00411395  0.0800865
 -0.09183738 -0.0140435 ]
[-0.06724039 -0.02302948 -0.09274851 -0.00229083 -0.21086964 -0.12050752
 -0.09320146  0.10607196  0.32514712  0.0762964   0.2974708  -0.07114751
 -0.15953323  0.1309305  -0.12080628 -0.2410196   0.00732491 -0.15932377
 -0.07393274  0.12973784]
[ 0.16081722  0.11538932 -0.12755689  0.12926322 -0.11114645 -0.12841436
 -0.25238785  0.23940545 -0.22254105 -0.08054595  0.05836757 -0.26005605
  0.23590672 -0.10968479  0.2033519  -0.1937589   0.09337284  0.01486059
  0.1889009   0.10712454]
[ 0.07844871  0.24981798 -0.03174821  0.02282976  0.25062364  0.2302172
 -0.12707362  0.03961273 -0.19024748  0.01151108 -0.14995043 -0.12353467
 -0.1945972   0.25035518  0.24322252  0.1928242   0.19993228  0.04776356
  0.23999749 -0.17028143]
[ 0.0236835   0.10423391  0.17329891  0.01928046 -0.1268151   0.14406908
 -0.22074522 -0.07332878  0.08269627 -0.30828908  0.15693249  0.14604498
 -0.23637992 -0.19817232 -0.16288573 -0.24431114  0.17682886 -0.16153543
 -0.08966028 -0.25556335]
[-0.29531202  0.20126992 -0.22922778  0.28653812  0.29716906  0.0116203
  0.11144884 -0.33883145  0.31572518 -0.1805092   0.11364897  0.26720947
  0.19963606  0.11498968  0.21525967  0.22152466 -0.04605541  0.21351847
 -0.21523508 -0.20609978]
[ 0.07687712 -0.32446724  0.2433931  -0.13687432 -0.24416071  0.14468426
 -0.35265937  0.11558314  0.06567796  0.05844687 -0.02120543  0.3132272
  0.18924324  0.24565946 -0.35046524  0.14440788 -0.1726495   0.1313843
 -0.1803229  -0.14352883]
[-0.23002274  0.12003652 -0.20663522 -0.31235075 -0.2999991   0.08397716
 -0.23194142  0.04073718  0.14435229 -0.03103598 -0.18215445 -0.21181236
 -0.17758282 -0.35233766  0.22103153  0.06764723 -0.21089341 -0.02203888
  0.23787935  0.22308037]
[ 0.15644123 -0.03458206 -0.10123801 -0.04607834  0.30947787 -0.23214343
 -0.23093092 -0.10997648 -0.28063515 -0.26924345 -0.11529449 -0.05306915
 -0.13391653  0.0087362  -0.03048796 -0.12374504 -0.256345   -0.19376677
 -0.02502384 -0.26795036]
[-0.08690605 -0.11044048 -0.24780044 -0.2721072  -0.24362677  0.2642755
 -0.11245692 -0.08971701 -0.15226692  0.09215406  0.0443387  -0.0730572
 -0.2425579  -0.15431246 -0.22635144 -0.19235379 -0.069522   -0.17332664
 -0.16739064  0.17827156]
[ 0.09866457 -0.11822594 -0.02449481 -0.24333097  0.0343076   0.14904688
  0.15909566 -0.06431427  0.30139086  0.04315988  0.28464139  0.16000842
 -0.22544123  0.06788622 -0.11304904  0.19808944 -0.14457431 -0.13888183
 -0.301012   -0.04404317]
[ 0.05151153 -0.1374861   0.10007149  0.23479451 -0.28790417 -0.07933023
  0.023659    0.20583837  0.07972735  0.10723539 -0.04294313 -0.15523307
 -0.14202845  0.23157384 -0.17872678  0.35431194 -0.063117    0.04911991
  0.01891348 -0.10284309]
[ 0.13942152 -0.24086334 -0.00677975  0.0701167  -0.05810585  0.24809182
  0.0890962  -0.07027954  0.24425198  0.16906804 -0.23227677  0.24984446
  0.23570183  0.05340427 -0.31335807 -0.10870223  0.00599066 -0.2645407
  0.30388102  0.18663248]
[-0.16592078  0.09501863  0.34800538  0.06739216  0.26333356  0.14486243
 -0.3086116  -0.04206438 -0.2021339   0.19603439  0.1408239   0.02856695
  0.10424546 -0.18226084  0.15210877  0.13375778 -0.3446364  -0.3541512
 -0.04172495  0.15577419]
[ 2.1253414e-02 -1.5582635e-01  3.3502057e-01  2.8626722e-01
 -2.9291600e-01 -3.8574900e-02 -2.0774575e-02  2.7535298e-01
  2.2505987e-01 -3.4900820e-03  4.3171901e-02  2.9228581e-04
 -2.7789161e-01 -2.1438442e-01  2.6710379e-01  9.7628541e-02
  1.6953173e-01 -1.3742119e-01 -1.6681288e-01 -1.1349727e-01]
[-3.1568921e-01 -8.5391819e-02  1.9284794e-01  1.4650482e-01
 -1.3479702e-01 -1.2320054e-01 -2.5582645e-05 -2.3571663e-01
 -1.1236451e-01  2.7454104e-02 -3.1364846e-01  3.0720878e-02
  2.6916108e-01 -6.6008955e-02 -5.0540421e-02  2.6814234e-01
  1.8010270e-02 -4.8557445e-02 -1.7478557e-03  2.3211293e-01]
[ 0.14217891  0.1605472   0.2838979  -0.38066894  0.02157251  0.04573498
  0.2827928  -0.00932555 -0.08850981  0.04913402 -0.11861895 -0.20040941
 -0.04050765  0.11993667  0.10266659  0.12411591  0.21581218 -0.23768741
 -0.08887599 -0.01185579]
[-0.11191665  0.3258537   0.16970582  0.15288477 -0.01430924  0.15508443
 -0.19610728 -0.15478209 -0.05520556 -0.31836256 -0.23519327  0.13992785
 -0.08168618 -0.02360728 -0.18326552  0.28443205  0.11093447  0.12644118
  0.14139874 -0.26391512]
[ 0.128151    0.23424627  0.08035474 -0.11885256 -0.32584155  0.19221106
 -0.25898495 -0.2612394   0.22181872 -0.3093253   0.09890236  0.00757549
 -0.02613045 -0.21601497 -0.05626768 -0.07327671  0.0772009   0.17090586
 -0.23107168  0.12527671]
[ 0.04546064  0.02247349 -0.27520975  0.05585106 -0.30746734  0.12487844
 -0.04595738 -0.14099495 -0.24164145 -0.05107927 -0.16820791  0.29844722
  0.02562177 -0.34228274  0.0140102  -0.1564262  -0.08448233  0.33084702
  0.2519761  -0.2692083 ]
[ 0.09955914  0.14903018 -0.13027042 -0.30920196  0.12324542  0.23749894
 -0.01396225 -0.19047655  0.08937542 -0.11778603  0.02757277 -0.37353337
  0.02235736  0.05915584  0.24748383 -0.1326794   0.0774055   0.1295289
 -0.19685051  0.13632832]
[ 0.29507315  0.14260453 -0.14665435  0.01365593  0.03406699  0.00430099
  0.10513772 -0.3270722  -0.01750832  0.26912954  0.25389004 -0.1944198
 -0.14588287  0.23953561 -0.14433917  0.06198499  0.08581667 -0.07722048
 -0.21869643  0.30815426]
[-0.17968114  0.22396497  0.18886091  0.01109154 -0.20200282  0.16090748
  0.1600189  -0.23044682  0.12654382 -0.09126744 -0.04591188  0.12369436
 -0.20627777 -0.18735906  0.09088653  0.2331285   0.18166657  0.09138091
  0.07800189 -0.3658443 ]
[ 0.12713763 -0.28225422  0.23098241 -0.16541548 -0.14621383 -0.03423444
 -0.07606724  0.06771367 -0.13305505  0.02807273  0.09303752 -0.28607574
 -0.04156463 -0.13630454 -0.06955489 -0.03472115 -0.0738936   0.03272353
 -0.2838339   0.23399533]
[-0.05749505 -0.07222756 -0.12946093  0.3366627   0.32028255 -0.0302272
 -0.22162874  0.09780747 -0.201804    0.14803217  0.08602764 -0.06101555
 -0.170105    0.3271398   0.02278535  0.08277956  0.11273377  0.13525064
 -0.13513646  0.30878887]
[-0.02268899  0.00085679 -0.00739063 -0.00119806 -0.0123264  -0.00376942
  0.0058307   0.02260464  0.00069456 -0.0030748  -0.00527572  0.00340322
  0.00991248 -0.00035554  0.01712624  0.00631007  0.00427581  0.01622969
 -0.01101417 -0.01118121]
layer 5 Activation
tanh
layer 6 Dense
20 1
[0.35895061]
[0.04809427]
[0.01377039]
[-0.02403823]
[-0.06202004]
[-0.22598974]
[0.17068368]
[0.07431035]
[-0.35364228]
[-0.05718644]
[0.40182987]
[0.04699026]
[0.41342324]
[-0.01738207]
[0.4100037]
[0.24542944]
[0.08156673]
[0.2395424]
[-0.15703394]
[-0.11625796]
[0.00518799]
