layers 7
layer 0 Dense
20 16
[-0.5614753   1.0100086  -0.9269667   0.24379374 -0.763251    0.59498954
 -0.3003316   0.7519135  -0.5369149   0.12477058 -1.25013     0.5071707
  0.20457882  0.14406022 -0.05315079  0.80191886]
[-0.06571142  0.00174777  0.48488516 -0.4471174   0.57346594 -0.25130272
  0.14175408  0.3098249  -0.5216087   0.6078671  -0.56171036  0.18879655
 -0.39225805  0.01821891 -0.17738034 -0.3177526 ]
[-0.33432037  0.32337815  0.5527604  -0.2754157   0.42759505 -0.4953613
  0.13147439  0.25689745 -0.38500983  0.24447057 -0.17122976  0.05226297
 -0.5340967   0.20693716 -0.1797103   0.23333009]
[-0.9369137   1.1374992  -1.224708    0.5218516  -0.6771087   0.4445647
 -0.6273205   0.9775132  -1.2309073   0.22938618 -0.65470374  0.8386277
 -0.093858   -0.2003362  -0.08676594  0.48458123]
[ 1.2892778   0.7169209  -0.2816324  -0.25155142  1.326683   -0.26073396
 -1.1991229  -0.02694389  0.6526081  -0.05793464 -0.59936345 -0.4693835
  0.17004271 -0.0684271  -0.12205046  0.61233824]
[ 0.13989995  0.00097168 -0.1420527   0.8764308  -0.33571577  0.08278452
 -0.47199267 -0.19589452  0.30689535 -0.66403604  0.526441    0.13290113
  0.31664994 -0.45691887 -0.4949737   0.2328052 ]
[ 0.16991001 -0.14754821 -0.5201706   0.8266228  -0.67425114  0.44182917
 -0.2657576  -0.54132235  0.29304898 -0.24768095  0.00654887 -0.3676664
 -0.03854384 -0.26100227  0.02887887  0.0200141 ]
[ 0.09132038 -0.80057484  1.000742   -0.6374567  -0.49760053 -0.06544864
  1.1200303  -0.84526974  1.1546823   0.32269254  0.74479705 -0.37655494
  0.58665645  0.29502478  0.10326476 -0.583292  ]
[ 1.0062946   0.2499173   0.25610074 -0.8736442   0.02516909 -0.2899375
 -0.5838083  -0.28173256  0.57149136  0.38940382 -0.33929518 -0.3575449
  0.3771127   0.10477622  0.53744143 -0.1096796 ]
[ 0.78030497  0.13165349  0.17058901 -0.8158213   0.06778504 -1.4080391
  0.12241414  0.2775478   0.06338304 -0.21110238 -0.02568626  0.12050308
 -0.08434471 -0.4116965   0.78183347 -0.1019809 ]
[ 0.39034545  0.16993412 -0.01948305  1.0836345   0.09321623  0.2060728
 -0.03084393 -0.01760068  0.02985424  0.84174466 -0.22088602  0.34129322
 -1.0874636  -0.5108359   0.56785    -0.1388693 ]
[-0.36500993 -2.8127058   2.4185345   0.50612134  1.7816423  -2.201303
 -0.4571831  -1.1594262   0.06500471 -1.2552869   2.3150525  -2.2294598
 -1.3681452  -1.1958392  -1.0495721  -0.12751167]
[ 0.2718741   0.15044484  0.16820695 -0.86687404  0.29649708  1.1081638
  0.51204765  0.05728289  0.3830955   0.07904736 -0.11792588  0.5046169
  0.5405609   0.00349141  0.69474727  0.71960753]
[ 0.54347664  0.01455547 -0.02035779 -0.8690087   0.12774612  0.12978223
  0.35906824  0.21503784  0.04773334 -0.25142953 -0.12681909  0.05114692
 -0.20974919 -0.8705339   0.7612908  -0.5531989 ]
[ 0.54630655  0.01488005  0.36843312  1.1830065   0.1440417  -0.26101476
 -0.4550095  -0.1321747   0.09729511  0.8655155  -0.22191393 -0.26165992
 -1.3630191  -0.31195092  0.65155107 -0.53287643]
[-0.33652106 -2.5650358   1.2185658   0.9186783   2.2434614  -0.9321654
 -0.5420231  -1.9703292   1.6798562  -1.0753545   2.3582234  -0.18411317
 -0.8989124  -1.2253653  -1.1742831   0.8827096 ]
[ 0.3345152  -0.20289108  0.6268371   0.27559835  1.0663778   0.29176885
 -1.411489    0.04588281  0.17935808  0.5809552  -0.22267865  0.02216647
  0.75333184  0.34767964  0.53513324  1.1357182 ]
[-1.5176561   0.20026478  0.50263816  2.5916429   0.35235566  1.5453042
 -1.9528632   0.17678349  0.01975212  1.0567085   0.04848443 -0.6139797
  0.44105956  2.919333   -2.366404    1.4963431 ]
[-1.1699423   0.20168021 -0.22074443 -1.5514765  -0.1941776  -0.4661699
  0.07818142 -0.09586714  0.05909617 -2.2574642  -0.19132519 -1.1570745
  3.0396338   0.39338323 -1.6181519   0.10294282]
[-0.39238527  2.202686   -0.08487841 -0.4637209  -1.9904175   1.6654558
  1.6141739   0.83994955  0.25259194  1.698542   -2.0668538   1.7902834
  1.7767453   1.7643123   1.7912931  -0.7502648 ]
[-0.5583726   0.51391405 -0.93488884  0.57486224 -0.09848916  0.10721314
 -0.30930212  0.5605495  -0.8518113  -0.09488289 -0.41350314  0.26032275
 -0.18484235 -0.24936716 -0.45501408  0.2347272 ]
layer 1 Activation
tanh
layer 2 Dense
16 32
[-0.7670989   0.50311834 -0.10617161 -0.1615962   0.1957718  -0.33028853
  0.09003989  0.1652486   0.12715285  1.077672   -0.56636393 -0.01313496
  0.37516806  0.8271527   0.6104492  -0.673668    0.6212234  -0.70425713
 -0.20448457 -0.0426867  -0.8809575   0.07559917  0.35895884  0.2885408
 -0.64459765 -0.00997536 -0.46107784 -0.16650423  0.20214817 -0.31590602
 -0.11866731  0.5549241 ]
[ 0.17466626  0.02154123  0.14253595 -0.15972172  0.09943744  0.43852744
 -1.2666377   1.4480058  -0.48604944 -0.2694877  -0.1524374   0.3673259
 -0.14275014  0.37741163 -0.69290876  0.4368741   0.7446455  -0.29091173
 -0.08854169 -1.3041816   0.6062078  -0.29796097 -0.6247427  -0.5433203
 -0.75506055 -1.6467979  -0.9215737   2.0360916   1.292018    0.5895076
  0.53062075 -0.26746678]
[ 0.07243349  0.71774614 -0.47669232  0.17841092 -0.22885032 -1.0173045
  1.1160209  -0.85238814  0.22047226  0.34980237 -0.31349838 -0.8568927
 -0.12265317  0.1933111   0.8435851  -0.7995632  -0.13007893 -0.25013378
  0.57755345  0.8899192  -0.42233258 -0.15473138  0.99759895  0.918717
  0.6814007   1.2392201  -0.64612305 -0.40179384 -1.3356626  -0.24681778
 -1.3775848   0.710176  ]
[ 0.38801134 -0.7705351  -0.41707304  0.5498636  -0.5831306   0.1653393
  0.4643828  -0.6018836   0.87127477 -0.24832416  1.2597221  -0.29299894
 -1.9170855  -0.58077306 -0.3803445   0.64454794  0.00561722  0.70063347
  0.6992461   0.8376962   0.7184033   0.9203026   0.10257793 -0.26969045
  0.71148515  0.51179403  1.4052294  -0.34733194 -0.63942087 -0.097319
  0.15793063 -0.08445095]
[ 0.53001213  0.13558844 -0.15164138  0.36379707  0.3079491  -0.42878854
  0.428929   -0.68239623 -0.0907063   0.10430284 -0.97226095 -0.88429433
  1.6197814  -0.30172992  0.5527351  -0.04743141 -0.41409564 -0.2911888
  0.3426674   0.70998305 -0.31361678 -0.3338378   0.52627236  0.39592832
  1.6604884   0.67978376 -0.43618974 -0.86531675 -0.8003846  -0.90816367
 -0.7527661  -0.18815106]
[ 0.7372059  -0.7875151   0.14428245  0.77873856 -0.6651148  -0.13561226
 -0.42498618  0.6528858  -0.04552681 -0.76171666  0.7476094   0.16155973
  0.14868644  0.40727425  0.20561555 -0.04406421  0.74312615  0.5082906
  0.6892331  -0.28796303  0.56385523 -0.57187873 -0.18107891  0.26675713
 -0.22790033 -0.33917993 -0.17491783  0.473051    0.27260104  1.0910975
 -0.1435155  -0.08629201]
[-0.28763896  0.76242656 -0.36455068 -0.8592468  -1.1512884  -1.0155599
 -0.11226957 -0.0194915   0.24323654  0.64884263 -0.00674508  0.20361088
 -0.75216115  0.48436293  0.02060085 -0.50495106 -0.62284994 -0.5915788
 -1.5195447   0.23747016 -0.8631171   0.12687325  0.14304733  0.57293975
 -0.3232978  -0.07821196  1.3387281   0.70084333  0.14849924  0.4580525
  0.4269084  -0.01722332]
[ 0.03500678 -0.41933167  0.4166748  -0.18086651 -0.03539647  0.6225487
 -0.7662619   0.6047889  -0.15811756 -0.5397648   0.7848079   0.18409683
 -0.83079505 -0.17557618 -0.34515944  0.81134737 -0.978816   -0.11415102
 -0.75194347 -0.46026194  0.56727135 -0.08412047 -0.513945   -0.55436885
 -0.3334239  -0.6660879  -0.32371345  0.27418375  0.35497612  0.75668466
  0.04526589 -0.42960122]
[-0.18268292  1.2265756  -0.5815014   0.1453902  -0.39024356 -0.5458014
  0.9606354  -0.9661759   0.689973    0.54219955 -0.49703538 -1.1182343
  0.16467254 -0.24469961  1.3023505  -0.61989486  0.15253557  0.03065414
  0.26282883  1.0485716  -0.64205605 -0.6672605   0.86332566  1.0316664
  0.43498006  1.1377573  -1.2171729  -0.3448289  -1.3425872  -0.0082977
 -1.0648948   1.0628607 ]
[ 1.9331714   0.57681495 -0.8613376  -0.7437823  -0.89171225 -1.0931469
 -1.0341076   0.6490087   0.7789268  -0.63812596 -0.7121209   1.1058303
 -0.56899303  1.4582183   0.5298497  -1.0232431   1.7413226  -0.05881622
 -0.44067642 -1.1272584  -0.8604389  -0.39162296  0.1131883   0.5636532
  0.03138445 -1.1540312   0.07804681  1.1119776   0.9933589   1.034084
  0.03132295  0.6914733 ]
[ 0.6469684  -0.17071277  0.19128537 -0.17674835  0.3427061  -0.57157236
  0.99367297 -1.2773106  -0.18878622 -0.00169372 -0.21079911 -1.082608
  0.33734083 -1.0335889  -0.039031   -0.3277875  -0.59956634  0.24204966
  0.1082032   0.69708043  0.26112553  0.67560154 -0.25899556  0.23265237
  0.9924051   1.3696114   1.4461493  -1.0207285  -1.3149873  -0.9569142
 -0.22140662 -0.07853724]
[ 0.14981893 -0.94617695  0.4420249  -0.3170655   0.0336084   0.64851254
 -0.12926963  0.28685522 -0.4183789  -0.4114681   0.61085165  0.14843364
 -1.6428305   0.24947976 -0.9944404   0.95546645 -0.1600948   0.04144616
 -0.4376675   0.02698604  1.2062489   0.30512968 -0.48979643 -0.2631172
  0.1719797  -0.09182245 -0.21335804  0.25283358  0.12505703  0.37432307
  0.02286794 -0.83999246]
[ 1.6021272   0.4153442  -0.73724025 -1.0235583  -0.805327   -1.295836
 -0.67929983  0.3508695   1.1774455  -0.00516028 -1.3200983  -0.12343703
  0.39946738  0.3998131   0.23225407 -0.44984752  0.7151431  -0.844786
 -0.34245116 -0.6231459  -0.72021663 -1.1397687   0.5947327  -0.41032612
 -0.8795943  -0.58358455 -0.5564608   0.42416006  0.55964     1.3037661
 -0.09247577  0.7058512 ]
[ 1.9506752  -0.186132   -0.8814895   0.49600276 -0.6799118  -1.0706297
 -0.9176183   0.08887171  0.9579379   0.68273395 -0.5896303   0.8917829
  0.8196582   0.5110773   0.5659632  -0.37748662  1.0367166   0.21760787
  1.7373401  -0.70750517  0.31682986 -1.0106407   0.8168117   0.27880186
 -0.55603194 -0.416625   -0.1308136   0.6187869   0.6479546   1.3837876
 -0.0471615   0.9380697 ]
[-0.60881376  0.22023746 -0.9519118  -2.4361787  -0.6927703  -1.0789591
 -0.16175199  0.47117692  0.8358867   0.8514695  -0.09211085  1.2212965
  0.35805762  0.8948839   0.36522487 -0.9793005   0.8768981  -0.6992776
 -2.1283472  -0.28782523 -0.59014004 -0.6247942  -0.3108964   0.3968062
 -1.0635285  -1.0333637   0.57691956  0.45374012  0.6725742   0.34975412
 -0.5503941   0.55110294]
[ 0.17214896  0.18708648  0.4939181   0.49402994  0.40348843  0.6364732
 -0.14900768 -0.2931551  -0.62339807 -0.2159105  -0.40960738 -0.6758517
  0.11550286 -0.13284019  0.1942557  -0.57195115  0.11371516  0.15859008
  1.1393058  -0.01599269 -0.2915951  -0.00226004 -0.27851194 -0.15489542
 -0.01415901 -0.50096333 -0.4280673  -0.0381698  -0.2229448   0.5102897
 -0.3593573  -0.43167531]
[-0.02507125 -0.9137405   0.2244609   0.04120653  0.23490874  0.7295774
 -0.8423686   0.6758105  -0.48647135 -0.459558    0.44134018  0.75785875
 -0.302635   -0.07526548 -1.0503871   0.7078881  -0.07404959  0.00916277
 -0.43875748 -0.6156513   0.74231255  0.29470393 -0.6516689  -0.61978185
 -0.3311491  -0.9789512   0.8153649   0.38811636  1.1233315   0.40603048
  1.1977149  -0.89788055]
layer 3 Activation
tanh
layer 4 Dense
32 16
[-1.1611655  -0.01080548  0.78451484 -0.61913604  0.36583304 -0.0828066
  0.04164339 -0.66896755 -0.47133133  0.99225265 -0.32538673  0.31074604
  0.00909199 -0.01832102  0.8150181  -0.43551838]
[-0.04357887 -0.24412918  0.08088472  0.3240183  -0.2111943   0.48759735
 -0.48324797 -0.03601933 -0.1745849  -0.2135887  -0.4531593  -0.34776288
 -0.15974924 -0.22442451 -0.48525715 -0.34014   ]
[ 0.48595706 -0.76563597  0.08360505 -0.19290519  0.26450005 -0.7265024
  0.7193104  -0.08837915  0.2457546   0.478711    0.3840048   0.57607263
  0.39006996  0.5173146   0.9691162   0.03856121]
[ 0.55264664  0.5305206  -1.1922886   0.04303187 -0.04969359 -0.08554618
  0.24328195  1.0515993   0.06567866 -1.241995    0.5008846   0.13911244
 -0.05758372  0.03243276 -0.660096    0.34264183]
[ 0.05887995 -0.90561426  0.24480417 -0.9110971   0.85455096 -0.42873943
  0.31928682 -0.83914286  0.3750307   0.59764004 -0.0833765   0.67193645
  0.7000849   1.0831242   0.56278306 -0.41436973]
[ 1.8143712  -0.6778679   0.27972135 -0.18539183  0.6596394  -0.67924845
  0.36981657 -0.01460999  0.7606496   0.37631017  0.44857216  0.48106652
  0.35138655  0.5895853   0.4046971  -0.4177092 ]
[ 0.1602397   0.167591   -1.3225248   0.01006425 -0.41191933  0.45685938
 -0.3546284   1.1698698  -0.22063188 -1.4385275   0.30441582 -0.20475243
 -0.16061221 -0.3073274  -1.2130011   0.52247447]
[-0.17824377 -0.02081582  0.994884    0.0495744   0.49806666 -0.12239616
  0.05180053 -0.87322694  0.1642085   1.9017187  -0.33012587 -0.01314819
 -0.05088239  0.05173073  1.2161918  -0.98363346]
[-0.5104824   0.7933196  -0.49936542  0.7563694  -0.93117964  0.7161776
 -0.66695684  0.37138647 -0.61090904 -0.54220617 -0.07463508 -1.0353771
 -0.2531824  -0.6922937  -0.84390295  0.08854281]
[-0.23034494  0.03043238  0.4441008  -0.2657879   0.36427504  0.1520588
 -0.44701558 -0.22915633 -0.22061722  0.08582512 -0.3348389  -0.48151174
 -0.13418517 -1.0509962  -0.53384143 -0.3337454 ]
[ 0.33065745 -0.6534846  -0.24749325  0.10884108  0.5908261   0.40268946
 -0.1489284  -0.01913023 -0.00457431 -0.12643573  0.62130404  0.23063375
  0.28402418  0.2785951  -0.45339885  0.45747802]
[-0.20054947 -0.44851857  1.3478243  -0.54333043  0.17173937 -0.5030042
 -0.03697982 -1.1607194   0.2680555   0.9290648   0.02873081  0.13851006
 -0.01946766  0.30316937  0.8949318  -0.20616615]
[-0.29754987  0.04805247  0.21094282 -0.04811334 -0.37483105 -0.84685963
 -0.1721114  -0.22075579 -0.16042124  0.32571256 -0.533137   -0.15366386
 -0.06310777 -0.22810456  0.887864   -0.25515446]
[-0.3693577  -0.4491794   0.6535659   0.20602442  0.39233667 -0.05613443
 -0.06250599 -0.460335    0.21132804  0.42259884 -0.39855793 -0.04302038
  0.30259636  0.11326249 -0.3490624  -0.6115803 ]
[-0.40824184  0.27368644  0.03125397  0.6712411  -0.27405462  0.9132412
 -0.5042028   0.23611468 -0.42601293 -0.67439383 -0.32649177 -0.629818
 -0.22432709 -0.55607325 -0.7205672   0.0179006 ]
[ 0.33751157 -0.09696666 -0.17603213 -0.4287727   0.32958037 -0.11543895
  0.06985141 -0.10302202  0.3100347   0.06160347  0.36415583  0.40465537
  0.23907804  0.21326502  0.13233598  0.46707454]
[-0.5003137  -0.08291727  0.42788294 -0.06454114  0.18616456  0.04501225
 -0.1335229   0.02842954 -0.06216472  0.24924852 -0.3836935   0.37671882
  0.21445273  0.3392083   0.04417058 -0.5368422 ]
[ 0.3894716  -0.10735453 -0.32998684 -0.03713673  0.42191818 -0.05681382
  0.60569745  0.40494564 -0.00881377  0.37904462  0.81624895  0.62414926
  0.20675816  0.85922915  0.25758716  0.3734456 ]
[ 0.32734635  0.15196225 -0.44011533  0.20478539 -0.05257763  0.20425417
 -0.08122543  1.3168602   0.08293357 -1.0324843  -0.5220838   0.1680127
 -0.13747796 -0.07701591 -1.5458722   0.10434616]
[ 0.07607721  0.53685045 -1.2624052   0.74778706 -0.23245485  0.5464891
 -0.54169023  1.244558   -0.26487762 -1.1647297  -0.05175805 -0.3590047
 -0.35913026 -0.09970085 -1.0939155   0.41337597]
[ 0.65745413 -0.23346864 -0.1267071  -0.04316982  0.2484574  -0.11434078
  0.22198449  0.18472491  0.03060588  0.20659442  0.2604842   0.28417006
  0.21261273  1.3262604   0.3310673   0.18416288]
[ 0.09918074 -0.33153287  0.20114112 -0.11749829  0.58077556 -0.6107715
  0.2675076  -0.9389115   0.15449272  0.335       0.5998332   0.64452463
  0.8132869   0.24172962  0.5953451   0.2177594 ]
[ 0.1566037   0.81766224 -0.18061055  0.71484    -0.26203412  0.8958057
 -0.78969544  0.6393439  -0.24860342 -0.51445186 -0.03244768 -0.52915126
 -0.6322222  -0.54579145 -0.47230586  0.08920272]
[-0.02128032  0.78814054 -0.13222203  0.7546915  -0.40832677  0.8933246
 -0.80046666  0.31026977 -0.08842493 -1.0175908   0.01471922 -0.27414164
 -0.5865116  -0.9243612  -0.5411577   0.24516156]
[ 0.35297048  0.30112085 -0.5799439   0.41810554 -0.33903226  0.29985866
 -0.2907424   0.72766274 -0.4747408  -0.5458203   0.18915148 -0.5707251
 -0.56460834 -0.36788365 -0.2756319   0.1633049 ]
[ 0.2142081   0.49430487 -1.1273793   0.26694438 -0.26039323  0.29531866
 -0.80959386  1.6322647  -0.2675888  -1.2714828  -0.27780116 -0.6083083
 -0.4107585  -0.35571647 -1.0805396   0.13223116]
[ 0.02367697 -0.2991249  -0.4293523  -1.1539912   0.452813   -0.36513656
  0.48091292 -0.13855754 -0.12703507 -0.07891725  0.81184083  0.89984477
  0.641291    1.434241   -0.06158897  0.4537131 ]
[-0.48992386 -0.14903648  1.4350371   0.35042354  0.38997963 -0.3782071
  0.11625075 -0.9620877   0.20874272  0.9309129  -0.63218963  0.38621107
  0.35163265 -0.11955009  0.13471423 -0.96921897]
[ 0.09533182 -0.5413336   1.2537425  -0.666103    0.3268601  -0.6801328
  0.7097004  -1.4344285   0.31492934  2.3025057  -0.01277379  0.02419983
  0.40336165 -0.14720955  1.7390275  -0.28662437]
[ 0.04329719  0.8706995   0.22712882  0.4595565  -0.80137265  0.7857133
 -0.5849103  -0.00834142 -0.4444502  -0.7255905  -0.25310203 -0.6495267
 -0.6755896  -0.7991026  -0.4093792  -0.1402661 ]
[ 0.17124252 -0.28130156 -0.00899849 -0.81046563  1.2143894  -0.40984848
  0.51967555  0.15808916  0.40378308  0.48867866  0.09808718  0.45420867
  0.31043062  1.0021498   0.5818749   0.17921388]
[-0.5061902   0.5865892   0.06268962  0.23931104 -0.62974614  0.56423765
 -0.36334282  0.2880067  -0.18377139 -0.5019328  -0.4620761  -0.453463
 -0.3385072  -1.2576485  -0.461081    0.0755484 ]
[-0.22342414 -0.56051165  0.13113339 -0.42990544  0.47108522 -0.47392026
  0.52709365 -0.48803523  0.20018598  0.709171    0.22466257  0.48362654
  0.34948552  0.7731072   0.6489451  -0.20765635]
layer 5 Activation
tanh
layer 6 Dense
16 1
[-0.22874871]
[-0.5618163]
[-0.06284849]
[0.14050558]
[-0.25747636]
[0.11020429]
[-0.07138539]
[0.09195606]
[-0.05932211]
[-0.08833605]
[0.04176631]
[0.11573164]
[0.37285814]
[0.04354169]
[-0.10785711]
[0.08080271]
[0.1187022]
