layers 7
layer 0 Dense
20 20
[0.21961613 0.06471344 -0.36556482 0.31485155 -0.10654065 0.08270592 0.37429827 -0.48977777 0.06847113 -0.1999854 0.06484185 0.03143458 -0.33488575 0.31817052 0.031301923 0.04347332 -0.0010210092 0.18472615 -0.2619102 -0.53714705 ]
[0.023032427 -0.2545674 0.33511227 -0.2607404 -0.3797356 0.17036182 -0.27573255 -0.37618348 0.114399016 0.37029445 0.057962477 0.28077304 -0.24886113 -0.37999865 -0.13012224 -0.08158246 0.084974706 -0.24022466 0.38299274 -0.21571508 ]
[-0.17774995 -0.17440829 0.2824443 -0.34192652 0.3759557 -0.18298437 0.2420795 0.222054 0.2783712 0.06910595 0.03683713 -0.012962669 -0.14655973 -0.29261556 -0.19202751 0.013567299 -0.32532096 0.2933458 0.31824195 -0.20780975 ]
[-0.27890232 0.3162573 -0.15068924 0.63957167 0.26152232 0.29750997 -0.3177901 0.024061363 -0.16139369 0.29653737 -0.024399715 -0.47828147 0.060174886 -0.25679582 0.26891634 0.1700559 -0.04370202 -0.11237172 -0.17265889 -0.41543037 ]
[0.39140883 0.46541566 0.19683456 0.085259214 -0.06836278 0.15087868 0.12964368 0.08347992 0.02687551 -0.23688091 0.4585184 0.090372406 -0.35607424 0.21262932 0.06046264 -0.09818142 -0.2595302 0.17155862 0.29978627 -0.23055813 ]
[-0.35786462 -0.01953268 0.2584595 -0.2933855 -0.14705032 0.050349742 0.3350286 0.22886276 -0.24440798 0.087724 0.055039108 -0.010443836 0.025915354 -0.17763296 0.14342093 -0.09911403 0.08283013 0.020513326 -0.09124258 0.33992988 ]
[0.0599823 -0.36574095 -0.2531631 -0.08391991 0.14710087 -0.011280417 -0.18785785 0.12612998 0.010612249 0.08010501 -0.2342191 -0.20178498 -0.062086344 -0.22850673 0.24376309 0.23092741 -0.3416854 -0.1267263 -0.26547968 0.2563684 ]
[-0.092454486 -0.71182805 -0.028903475 -0.79863703 0.089823194 0.30233353 -0.4120719 0.31922722 0.5768014 -0.008965377 -0.30155712 0.38328412 -0.061987523 -0.14293861 0.10062195 0.20977566 -0.0016035517 -0.6736994 0.23408483 0.41844422 ]
[0.20641522 -0.15624768 -0.4636903 0.5687861 -0.89625764 -0.27832127 -0.19791153 0.17017052 0.24756916 0.37935135 0.4653284 0.22809839 0.70041317 0.33448842 0.6554081 0.6813537 -0.762345 0.57329303 -0.24256058 0.15635629 ]
[0.81047416 0.5859428 -0.10726012 0.40078884 0.09405709 0.5605197 0.13320771 0.34164858 -0.38053676 0.45451695 0.19689323 0.26581383 0.45711544 -0.5772115 0.48267263 -0.7222004 0.057876002 -0.5182825 0.14089337 0.19023336 ]
[-0.28672472 -0.5686197 0.14489701 -0.075536475 0.51606894 -1.1248794 0.45831618 -0.17153238 -0.6376503 -0.5868653 -0.5310435 0.38971186 0.9615831 -0.087535456 0.06385963 -0.12964392 -0.15993974 0.6044886 0.698917 -0.21297726 ]
[0.060322616 -0.69099087 -0.022421403 0.66907805 0.79583913 0.20425564 -0.11772155 -0.20134713 -0.28732374 0.36242393 0.22027867 -0.66791975 0.2944141 -0.3603488 -0.358515 -0.94832265 0.46140105 0.009281713 0.067771144 0.74556255 ]
[0.059976276 0.5407919 0.5869288 -0.48103908 -0.36892357 -0.26479256 0.5756539 0.47725102 0.100357264 0.2561528 -0.66378945 -0.7011567 -0.22501948 -0.08972523 -0.22148065 0.30404302 -0.87902117 -0.13886292 -0.090909675 -0.045868028 ]
[0.13770808 -0.111706294 -0.061810043 0.07879844 -0.5086551 -0.08684127 0.12712063 -0.5290054 0.040896855 0.28274673 0.02843621 -0.37545028 -0.7980069 0.03490593 0.4303853 -0.28064302 0.21546814 -0.018233044 0.13491249 0.08283467 ]
[0.15179153 -0.07722453 -0.44432333 0.03308915 0.42049232 0.797273 0.20301905 0.10177099 -0.22165647 -0.41812384 -0.21340346 0.17354806 -0.7137037 0.06535234 -0.045055673 -0.09449997 -0.6459872 0.08407097 0.3850113 -0.03149366 ]
[0.3243208 0.8892067 0.6968613 -0.33629438 0.04970065 0.5884103 0.8086921 -0.7545177 0.6651663 -0.46213606 0.19852144 0.31776673 -0.6372601 -0.23262285 -0.49528432 -0.41817644 0.05432544 0.31152406 0.9516951 0.9663434 ]
[0.13129075 0.14292316 0.28655213 0.30570105 0.2585018 0.020458251 0.22715938 0.44885284 -0.56178635 -0.27767542 0.046383772 0.62441975 -0.03476251 -0.0056903544 -0.06391325 0.053833894 0.37631387 0.46240872 -0.19516002 -0.34047636 ]
[-1.6994653 -0.90956014 -0.34684002 -0.0071248156 0.28268814 0.05950006 -0.63873696 0.6801596 0.45647466 -0.9676508 -0.04634714 -0.9797616 0.6637533 1.0306945 -1.1594381 1.2366508 -0.67052186 0.2244644 -0.7335111 0.4378584 ]
[0.22412345 1.1339153 1.2157024 -0.028735394 -0.8784016 0.56660104 -1.6804717 0.27452698 1.3560195 0.63664615 1.0252392 -0.7046959 0.11695392 -0.09270047 -0.6137129 0.57823753 0.37297767 -0.19548954 -0.8959951 0.23403947 ]
[-1.1020417 -0.8618589 -0.45303795 0.25062007 -0.1917528 -0.9792816 -0.8061752 -0.0606394 0.7051059 0.31180537 0.022453371 0.59447783 0.6872256 0.348032 0.546266 0.1841015 -0.4100605 -1.003484 -0.41911077 -1.1514693 ]
[ 0.19531116 0.13993052 -0.18042375 0.31607097 0.00789151 0.015834583 -0.041220807 -0.15305734 -0.047169052 -0.031084137 0.07536411 -0.14056362 -0.100428276 0.057293605 0.051154364 -0.040205423 0.17739633 0.107602976 -0.048598893 -0.11706952 ]
layer 1 Activation
tanh
layer 2 Dense
20 40
[-0.29198405 -0.28251496 -0.11779477 -0.17662871 0.14952 -0.33556807 0.15546893 0.5110435 -0.35112223 -0.20827346 0.20303854 0.3457314 0.011312873 0.23548962 -0.5721698 0.13532205 0.7068311 -0.57635677 0.3090337 0.20517999 -0.21235582 0.4694166 0.02593565 0.57832533 -0.2535817 0.16147202 0.188689 0.2602765 0.009606019 -0.24952953 -0.69633114 0.44790727 -0.32832524 0.036127776 -0.34487185 -0.37749496 0.46752968 0.33026147 -0.054811686 0.015746942 ]
[0.21434703 0.56295747 -0.12894249 0.14549254 0.1991437 0.13359837 0.4069465 0.6433967 -0.33003768 -0.34998682 -0.19198065 -0.49148104 -0.4221735 0.36501122 -0.7250992 -0.099699706 -0.3535758 -0.107138366 0.39912155 -0.1913674 -0.27858624 0.78374636 -0.048264157 0.47074732 0.053064868 -0.59456146 -0.48637637 0.02614172 -0.012151775 -0.052798077 -0.6417247 0.09500405 -0.45715484 0.0032729865 -0.36497948 -0.38010302 0.53750736 0.0035420153 -0.2061022 0.13605233 ]
[0.038908668 0.32937652 -0.29122734 0.14356308 0.02431784 -0.50584483 0.35467255 0.015692592 -0.0530968 -0.27366063 -0.48342237 0.107172616 -1.0188091 -0.000604677 -0.6858626 -0.61185217 0.27203697 0.20146301 0.26432183 -1.1569856 -0.07521109 0.002697005 -0.44250935 0.7110397 0.33867067 -0.09289317 -0.51795727 0.5562885 -0.5713377 0.42596784 -0.30576256 0.5155831 0.6068605 -0.5722569 -0.091765314 -0.359673 -0.30001464 -0.027272288 0.36987394 -0.7307053 ]
[0.40262198 0.06409499 -0.31299937 0.2687236 0.24522904 0.18351643 -0.19904922 -0.19419007 -0.24181424 -0.0072927373 0.029726136 -0.057347905 0.41462195 0.38122347 -0.073559955 0.10628508 -0.09230757 0.022699656 0.5481483 0.049966678 0.52896875 1.0445999 0.27510533 -0.21969524 0.28960136 -0.59178835 0.28960252 -0.6135539 0.7230179 -0.006952437 0.34653962 -0.3895371 -0.7835709 0.04495272 0.035111297 -0.5931374 -0.23153469 -0.06973929 0.16945523 0.2598329 ]
[-0.16230386 -0.2001881 0.3992069 -0.26569024 -0.591917 0.28213653 -1.1252201 -0.37060007 0.053702116 -0.16743003 -0.18080577 0.7729175 -0.105495624 0.0827758 0.0036408773 -0.15384333 -0.19414073 0.83554024 -0.2919183 -0.039465584 -0.08680235 0.20004788 0.16455562 -0.2131959 -0.028917069 -0.16382767 -0.18536477 0.20764147 -0.13088587 0.04377833 0.19566765 -0.015297834 -0.15253949 -0.20071185 -0.3582344 0.67493415 -0.32548255 0.21370384 -0.44881046 -0.08025547 ]
[-0.12008457 -0.022559412 -0.5942822 -0.6714021 -0.2623005 0.20230576 -0.025157453 0.11304465 -0.020398142 0.3329792 0.09001967 -0.32927635 -0.40590099 0.27837345 -0.09877149 -0.15838349 -0.314824 -0.6243612 -0.17371927 -0.45836782 0.13567705 0.1399029 -0.16086712 0.3719547 0.0011548616 -0.3563378 -0.20945244 0.074685745 -0.45488116 0.50769126 -0.4311863 0.29168835 -0.6152861 0.10927827 0.011484229 -0.23737368 -0.34968972 0.1369765 0.10111121 0.059069715 ]
[0.39073962 -0.39954165 0.037924822 0.3191638 -0.19045097 -0.34662497 -0.40061116 -0.020916356 -0.6008499 0.41517082 0.27809328 1.1995579 0.14011791 -0.40364453 -0.38010368 0.66555464 -0.7395747 0.6457163 0.2836465 0.39355135 0.18530214 0.55556 0.0476177 0.3349895 0.40810934 0.1522897 0.6513942 0.48800778 -0.33743295 -0.6071055 -0.33652693 -0.12396907 -0.16513014 0.4733675 -0.90442824 0.27915984 -0.07620075 0.71432173 -0.6056183 0.09920094 ]
[-0.43787318 -0.16141504 0.14694518 -0.56331295 0.5435313 0.10590612 0.51002663 -0.18419862 0.45031103 -0.16955565 0.002743518 0.07213749 -0.0872943 0.025021946 0.19917703 0.32752192 0.3728735 -0.1914822 0.3267466 0.042460147 -0.48480174 -0.023605775 0.27464077 -0.3952165 0.28894544 0.12521285 0.10674162 -0.049434982 -0.18009134 -0.21615918 0.067817174 -0.16952753 -0.14237265 0.11628473 0.35587123 -0.5929956 -0.105474316 -0.4489054 0.62764597 0.49590075 ]
[0.5121534 0.48560467 0.16664365 0.026438797 0.113002874 -0.0675694 0.5054714 -0.45691717 0.20828862 0.08409153 -0.20831282 -0.5243431 -0.36555964 0.04727997 0.117321916 -0.25894803 -0.01078731 -0.5407199 -0.23575461 -0.22327794 -0.044266004 -0.65929514 -0.34180453 0.17602356 -0.8119889 0.20807184 -0.066603325 0.30561 -0.12811773 0.5255544 0.08701487 0.10415324 0.14357722 0.2606097 0.016607333 -0.27357954 -0.08338586 -0.26652 0.009185571 -0.47324935 ]
[-0.048054595 0.14374611 -0.8305554 -0.34549576 0.19279152 0.018617766 0.31210095 0.01236775 0.35146955 -0.15446912 -0.64396214 -0.33544552 0.33281982 0.13241415 -0.4311603 -0.45975885 0.97374547 -0.38746622 0.0345147 0.24072823 -0.054122 0.52343255 0.17884742 0.2878877 -0.4061869 -0.15028366 0.14743508 -0.25683537 0.4526001 0.09792472 -0.19271584 0.018858267 -0.11933859 -0.06950434 0.037625868 -0.6120269 0.027601914 0.2785838 -0.043616336 -0.57228744 ]
[-0.011630984 0.13026646 0.2801928 -0.16654737 0.49347526 -0.12480381 0.7137445 -0.084828764 -0.20805234 0.07925666 0.004989515 -0.036174383 0.26937976 0.6676681 -0.28411862 -0.37108675 0.12552996 -0.47119978 -0.20636345 -0.4697698 0.32035127 0.3001879 -0.24261062 -0.08877429 0.28636596 -0.14376073 -0.55988234 -0.5097153 0.33771986 -0.23281631 -0.4121554 0.2933839 -0.2679821 -0.35897088 0.42598134 -0.5352708 0.22588861 0.020461 0.4104594 -0.8298565 ]
[-0.3182647 -0.03436016 0.14300072 -0.5839296 -0.10485626 0.015069468 0.045198012 0.13644373 0.1483607 -0.57912606 0.00049490726 0.4156501 0.17603348 -0.32381853 -0.63769597 0.53021544 0.14567035 -0.35961983 0.5632351 0.09664827 -0.42365456 -0.10435343 0.05283969 -0.18526609 -0.34449416 0.18563674 0.3349523 0.105995156 -0.36786386 -0.6674388 -0.25615865 0.22417717 -0.30331916 0.6096933 -0.44925773 -0.1548437 0.48997438 -0.20247295 0.36112478 0.51737964 ]
[-0.20719798 -0.3502987 0.29645666 -0.26541078 -0.13929856 -0.090727665 -0.3736976 0.02911166 0.12255534 -0.10666655 0.48147738 0.29872134 -0.37995946 -0.19416815 -0.22727923 -0.46517867 0.11141713 0.28908747 0.29701015 -0.044512786 -0.27478698 0.56607807 0.37566906 -0.32152444 -0.32650706 0.1581742 0.41846392 -0.18300343 0.27101728 -0.34570628 0.28150553 -0.23581956 0.5703762 0.23223984 -0.33412927 0.015948754 0.29300466 -0.24360944 -0.29034862 0.08628976 ]
[0.10010523 0.45883554 0.29658848 0.72816885 -0.18700379 -0.05190929 0.25931728 -0.20869304 -0.5587659 0.03986216 0.47596192 -0.06710198 0.35248584 -0.03643547 0.4893699 0.75918156 -0.80053645 -0.5030837 -0.1917155 0.13655785 0.29346225 -1.0818752 -0.11366407 -0.22458795 0.23153342 -0.037152044 -0.030002492 -0.36966598 0.16669148 -0.13087586 0.2286431 -0.17452572 -0.021261286 -0.61664057 0.39912617 0.16464171 -0.4522487 -0.5363118 -0.10283617 0.4678828 ]
[0.10990068 -0.5114659 -0.17819966 0.027758656 -0.4611233 -0.22135545 -0.11788342 0.4005679 0.16869698 0.14011501 -0.42424822 -0.067382984 0.56383777 -0.43547472 -0.5820046 0.52719134 0.6357105 0.14962354 0.46919692 0.6408314 0.11680449 0.26902732 0.3954158 0.10994786 -0.33985204 0.10018461 0.5353595 -0.101491965 0.06700353 -0.40372568 -0.08469542 -0.08891781 0.00836741 0.4621941 -0.4850484 -0.10730361 0.54456836 0.57465494 0.56736773 0.04841933 ]
[0.24773596 0.87240636 0.10330551 0.20874012 0.07439566 -0.1740751 0.64609396 -0.24329695 -0.48545256 0.4150722 0.4925826 -0.2137758 -0.41103756 0.06974961 0.44536906 -0.029434951 -0.76699376 -0.53563744 -0.13331684 -0.46424 -0.16820914 -1.026778 -0.033456624 -0.27679676 -0.21305457 0.07334763 -0.24684174 0.18322664 0.062589146 0.04754419 0.7333778 -0.1636307 0.17980061 -0.19171986 1.019135 -0.09888071 -0.3205058 -1.0706906 -0.3701349 0.28907463 ]
[-0.19595358 -0.46307042 -0.17679703 0.23926672 0.13141792 0.21370411 -0.07898349 0.2753644 -0.21054387 0.03601543 -0.37416673 -0.33268756 -0.34751055 0.39599115 -0.61199725 -0.2737485 0.29938364 -0.16607305 -0.32640848 -0.00012936653 0.3444113 0.53700286 0.055344906 0.49023288 -0.0460424 0.2334737 -0.10584087 -0.055334263 -0.28928897 0.18862914 -0.49709043 0.3641963 -0.42302343 0.06812984 -0.2714288 0.18130738 0.2131726 -0.29644543 0.23511888 -0.32639474 ]
[0.3156869 0.12636384 0.88674605 0.4110194 -0.58501786 -0.40131325 0.32463405 -0.13443165 -0.39975503 -0.23998888 0.5737526 1.1592189 0.013271553 0.1259527 -0.3903866 0.0024459376 -1.023091 0.13371329 -0.010108445 -0.17431918 0.46741393 0.062543064 0.37621948 -0.055541944 0.25599307 -0.23270926 -0.19790296 -0.16089131 0.40796798 -0.57829064 0.02287877 -0.099845 0.28950676 0.10053247 -0.23306857 0.26449174 -0.29116 0.15158473 -0.3019102 0.21815895 ]
[0.23983368 -0.28389928 0.23323809 0.18260185 -0.38696802 -0.20097236 -0.30102935 0.2790808 -0.00857596 -0.20163158 -0.2916225 0.26162735 -0.19543596 -0.6100046 -0.19125454 0.44684318 0.108029425 0.23280944 0.083766505 0.06944259 -0.07786358 0.4544581 0.1386563 0.33747205 0.05495225 -0.014902128 0.21834902 0.4039914 -0.7348677 -0.11532999 0.006849686 0.051842082 0.3501691 0.47811815 -0.86093664 0.39377955 0.10106671 0.3147576 -0.11002841 0.2284301 ]
[-0.21479288 0.05686452 0.18155639 0.18950452 0.3872691 0.056277134 -0.18581454 0.38311782 0.12374344 0.45894152 0.1204094 -0.2341505 -0.36092663 0.4516851 -0.29825655 0.0058103832 -0.92465156 -0.40652117 -0.43811554 -0.09189689 0.079172626 -0.2956774 0.30235565 -0.14575246 -0.0629966 0.03883531 -0.47749454 0.8472353 -1.126748 -0.054537423 -0.7808289 0.15236294 -0.0064072493 -0.29403433 -0.33275282 -0.19817372 -0.27363256 -0.31101096 -0.689614 0.26564777 ]
[ 0.22247039 -0.03636193 -0.08085173 0.005490039 -0.022629673 0.14078228 -0.16216357 -0.08754311 -0.18224072 0.29495668 0.033986345 -0.2504621 0.08621674 0.08105706 0.3194032 -0.42802018 -0.07931778 0.32915258 -0.032771576 0.020799963 0.44223318 0.499859 0.13079059 -0.017212912 -0.044545837 -0.33321995 0.1974807 -0.33242047 0.43806553 0.09582085 0.32709697 -0.22754745 0.017055688 -0.21988201 0.1703223 0.08772525 -0.1705713 0.10156133 0.01469132 -0.24481614 ]
layer 3 Activation
tanh
layer 4 Dense
40 20
[-0.46245047 -0.083155744 -0.08962534 0.2793004 -0.0935797 0.16132455 -0.1221213 -0.1463181 0.13081658 -0.33204344 0.032902732 -0.29916793 -0.09247232 0.0003096115 0.015750155 0.22553839 0.055967256 0.35493815 -0.19030462 -0.084960476 ]
[-0.20332842 -0.06567307 -0.32781085 -0.19843034 -0.35612413 0.34669754 -0.36799714 -0.10191589 0.15671286 0.23573126 0.31531778 0.04529711 -0.66939914 -0.120789275 -0.09768335 0.22647646 -0.40899515 0.16612564 -0.27982596 -0.29458377 ]
[-0.14057453 -0.1540293 -0.14359869 0.2563481 0.36095256 -0.20160502 0.16788024 0.15358745 0.44263375 -0.5373363 -0.08601174 -0.53709835 -0.7140451 -0.43228883 0.21528117 -0.07963765 0.5798798 0.21843055 0.31040737 0.075330354 ]
[-0.37944582 0.23011062 -0.17711987 0.41563064 0.1913258 0.4471793 -0.15514848 -0.1311339 0.04686806 -0.6833294 0.07525886 -0.22942947 -0.30999088 0.21659163 0.02902752 0.9431777 0.44321245 0.31968012 -0.18562144 0.024315534 ]
[0.38935015 -0.21220227 -0.27511084 -0.4366169 -0.41233307 0.22191244 -0.20099522 0.10930302 0.0027299814 0.3287824 -0.14791529 -0.038073353 -0.24227017 -0.3770086 -0.07194742 0.035174973 -0.33822775 -0.16509771 0.013770115 -0.109096006 ]
[-0.14761676 -0.019988207 0.10999738 0.049465094 0.24404743 -0.23341832 -0.10975017 -0.13493788 -0.15313458 0.6234202 0.23120317 -0.32548273 -0.19300811 -0.3958388 -0.028725943 0.2602218 -0.12612066 0.4320129 -0.018956788 0.17112887 ]
[-0.11936735 -0.34842572 -0.3726932 -0.6727671 -0.37489894 0.30222362 -0.2896286 0.047324304 -0.2072571 0.106981225 -0.07092988 0.43957886 -0.15068549 0.13489532 -0.1972716 0.012479446 -0.31950927 -0.23165749 -0.29284862 -0.061980505 ]
[-0.27530107 -0.053134486 0.07267328 -0.18446681 -0.13243832 -0.056143437 0.21649121 0.32337165 -0.27446786 0.12856027 -0.09679762 -0.091691345 -0.08919009 0.025726017 -0.31636986 -0.16310038 -0.018356567 -0.11017083 0.20630078 -0.15367633 ]
[0.30972907 -0.17796813 0.27484187 0.16141197 0.14910908 0.05054856 -0.063537806 0.5707136 -0.11934938 0.7163012 -0.29592323 0.64489335 0.24797332 0.5555923 -0.08844713 -0.5731273 -0.3778593 -0.29799646 0.08114247 -0.20694432 ]
[-0.42936128 0.03942884 -0.16809237 0.5518785 -0.014965313 -0.12552005 -0.009465738 -0.3609914 -0.43603376 -0.3123675 0.3850381 -0.39528337 0.1379899 -0.086102925 0.20922 0.10479457 0.30644497 0.15461944 -0.09554313 0.08745364 ]
[-0.12129722 -0.009172722 0.029161977 0.7178778 0.29279315 -0.07868513 0.22938153 -0.2871207 0.2316103 0.14212899 0.099230506 -0.5509548 -0.48697817 -0.18585171 0.08881622 0.1783018 0.28179446 -0.15483896 0.5014091 -0.36674878 ]
[-0.42976308 -0.23392704 -0.08195097 0.11165788 0.427032 -0.13276811 0.2673273 -0.0642041 0.10685449 -0.42787677 -0.11404615 0.09830196 -0.2464288 -0.12693188 0.16827852 -0.74959385 0.8343475 0.46209806 0.28753272 0.36983085 ]
[-0.24101001 -0.113079 0.08379415 -0.2308517 -0.15613773 -0.26578388 0.36448166 -0.7030612 0.009150531 -0.33029926 -0.4555774 -0.20936017 -0.12438421 -0.59543526 0.24168728 -0.1520215 0.1102558 -0.44439715 0.24853256 0.2713728 ]
[0.056550596 0.11320117 0.3325478 0.06579435 -0.37410232 0.10298024 -0.16596808 -0.17833565 -0.45788294 -0.06635276 -0.10970131 0.1639436 -0.5897624 -0.31088135 0.09696156 -0.02143585 -0.091068976 0.022374472 -0.21108064 -0.22286662 ]
[0.5555459 0.4899646 -0.47466967 0.8934411 0.11130657 -0.11743613 0.11228077 -0.1728037 0.477674 0.23271923 0.760582 -0.3015893 0.23988104 0.1293908 0.41669118 0.4926894 0.25242275 0.043023948 -0.50442696 -0.38101122 ]
[0.29415402 0.50594157 -0.08780617 -0.06139653 0.5594889 0.050052676 0.46686813 0.2174656 0.52219856 -0.35544285 -0.25518048 0.22139241 -0.03177583 -0.37488058 0.05868459 -0.10090113 0.4853348 -0.37173784 -0.0077533815 0.091229364 ]
[0.52409965 0.013793197 0.29397696 -0.44404563 -0.5593665 -0.1642952 -0.39938286 -0.10849436 -0.43314105 0.7564121 -0.85650194 0.5787639 0.40359285 0.7806379 -0.03963026 -0.26985365 -0.13261452 -0.4116503 0.21295078 0.40034226 ]
[0.24662176 0.5745318 0.16225225 0.48504463 -0.14652297 -0.12389559 0.26509088 0.121434815 0.07584987 -0.029743887 0.45164603 -0.5678249 0.5929803 0.8432504 0.14463119 0.23299024 0.5895681 -0.03193895 0.015541811 0.48873708 ]
[0.08959938 -0.16244875 0.012218697 -0.30376053 0.28046495 -0.16166429 0.46518087 -0.556271 0.16118552 -0.059879597 -0.5559615 0.54498947 0.11578998 -0.5675545 -0.006387203 -0.3080223 -0.53358495 -0.10864384 0.124026194 -0.25275227 ]
[0.09925096 0.2822451 0.05295924 0.3182996 0.15730315 0.13731813 0.59242237 -0.4850316 -0.19248769 -0.2602608 -0.33071464 -0.08945255 0.46917796 -0.38999 0.3454895 -0.11873699 0.48628795 -0.2666739 0.37124002 0.020244304 ]
[-0.558575 -0.14252353 0.073202394 0.07316858 0.18022086 -0.20903134 -0.026706738 -0.29732212 -0.19642143 -0.53782094 -0.1487937 -0.33877906 -0.16101122 -0.38150814 -0.25088862 -0.045707233 0.5900226 0.40135956 -0.39987394 0.24875888 ]
[0.23539102 0.3707279 0.21617919 0.0958736 -0.4444807 0.024131356 -0.5764176 -0.41703343 -0.37067434 0.35791728 -0.1653092 -0.17794372 0.32246086 0.5643793 -0.17363329 0.36479938 0.45097855 0.19164439 -0.22953168 0.3270432 ]
[0.09172089 -0.15347075 0.36836523 -0.04315109 0.0036246171 -0.4214908 0.08843266 -0.23964553 0.023112392 -0.050913785 0.033636775 -0.39877865 0.40207067 -0.36606488 0.34048954 0.031386476 0.5539658 0.06439714 0.24639413 0.11389036 ]
[-0.5236243 0.14095888 0.30672175 -0.48387906 -0.46558785 0.34463838 -0.09714112 -0.38603818 -0.7024626 -0.26739874 -0.2220106 0.35019428 -0.47630146 -0.03145965 -0.4460351 0.02131906 -0.26924777 0.14991052 0.19343774 0.115986526 ]
[0.36293352 0.2994879 -0.20180945 0.11693545 0.30021325 -0.5237861 -0.0029945974 0.099814415 0.1609654 -0.7083346 0.034817446 -0.48594046 -0.09136236 0.04906201 0.43961596 0.55100834 0.3721974 -0.09068234 0.24874729 0.076664746 ]
[0.062006187 -0.1164441 -0.19639097 -0.06031363 0.17026779 0.29322118 0.28372374 0.44170582 0.18756865 -0.05685918 -0.17923477 -0.16685528 -0.01161566 0.4444509 -0.22508918 -0.13131595 -0.29927942 -0.50667506 0.21644495 -0.13223685 ]
[-0.024868911 0.2766496 0.2153333 0.25915873 0.074252896 -0.0025691225 0.34835047 -0.26279062 -0.30263317 0.14832671 -0.051877372 0.10276715 0.3437524 0.33464107 0.18134332 -0.27785638 -0.051329702 -0.18126109 0.33234113 0.3526625 ]
[0.15429637 0.19478728 0.1498879 0.43665037 0.24693055 0.7199403 0.13093366 0.8680996 0.33194396 -0.4635527 0.23197734 0.23673952 0.5647115 0.8753771 -0.5032494 -0.18593688 -0.06693318 0.27145717 -0.12849924 0.2098289 ]
[0.2483236 -0.4889387 -0.07772489 -0.3951895 0.15156755 -0.3809462 -0.25444975 -1.0110382 0.23098925 0.51155525 -0.1538278 -0.4220778 -0.27662376 -0.9552874 0.08866225 -0.17461045 0.7155076 -0.48008648 0.1738589 0.03190112 ]
[0.23474655 0.23266365 0.47755814 0.54783565 -0.4574085 0.19392616 -0.36446065 0.20447654 0.107296 0.55965114 0.72296256 -0.40400195 -0.31527078 0.8237666 -0.07570036 0.43348232 -0.7697207 -0.14294837 -0.21604109 -0.1605391 ]
[0.39870787 -0.21521963 -0.26562402 0.6626013 0.49032453 -0.2757626 0.094654284 -0.24732237 0.6440648 0.13651608 0.6371553 -0.30748942 0.49421054 -0.017655076 0.4895265 1.0608032 -0.027183417 -0.28299272 -0.2936711 0.19231656 ]
[-0.20782396 0.06501778 0.10651355 -0.22984625 -0.13030636 -0.028025936 -0.03300661 0.36225116 -0.13227002 0.017275093 -0.02275817 0.037172865 -0.27991876 0.31048086 -0.6485935 -0.6051272 0.07725088 0.37798962 -0.12923239 -0.13136385 ]
[0.16515063 -0.5523561 -0.18372114 0.23516782 0.33138362 0.25658596 -0.17714682 -0.02907298 -0.13290687 -0.44138402 0.16689366 0.115724996 -0.04750745 0.011090322 0.15891 0.6888865 0.3885131 -0.4583585 0.11932932 0.17641127 ]
[0.04915506 0.04481019 -0.21303706 0.1668496 -0.036560632 0.32175156 0.12170969 0.07953206 -0.11679725 0.2768265 -0.07651124 0.44714475 0.37988216 -0.69908464 -0.5913719 -0.28226277 -0.1501543 0.11020266 0.22279158 0.03730086 ]
[0.27379897 0.18469205 -0.33648133 -0.08746868 -0.5684838 -0.35199034 -0.15615857 -0.27893195 -0.19839476 0.8331833 0.4569903 0.024465214 -0.7122973 0.7713435 0.30137601 0.20834397 0.13611718 -0.660893 -0.4926952 -0.3572982 ]
[-0.2325446 0.2488323 0.4397882 0.4270904 0.047036957 0.20623794 0.16863224 0.38022712 0.44613943 -0.3195688 0.6766917 -0.507583 0.27670243 0.43699032 -0.25307152 0.62343884 0.33498386 0.23229389 -0.04693381 0.4400009 ]
[-0.01607069 -0.3365019 0.46892408 -0.31044424 -0.258173 0.12608409 0.35686198 -0.004856414 -0.074247494 -0.16651483 -0.10379081 0.23620479 0.2665034 -0.14856839 -0.17947815 -0.5986736 -0.08776544 -0.2345749 0.2933157 -0.23846176 ]
[-0.2691618 -0.03413776 0.33638084 0.44451585 -0.27623984 0.39255294 -0.09535177 -0.088027224 -0.6890287 -0.12631463 -0.1038411 -0.5368556 0.30700493 0.1318223 -0.14829658 -0.3100601 0.3990522 -0.13427491 0.06299891 0.40632367 ]
[0.008329506 0.041740667 0.17107458 -0.6197668 -0.114581056 -0.513997 -0.38253534 -0.2859135 -0.4625926 0.14207561 -0.2416619 0.5495198 -0.2748446 0.1537163 0.06608551 -0.18773738 -0.4455021 -0.25423875 -0.1945067 0.2578938 ]
[0.16756552 0.55200076 -0.3901247 -0.08971922 0.57438225 0.16135952 0.58473384 0.037511025 0.5834722 0.22991575 0.022583468 -0.24919051 -0.19458856 -0.2752431 -0.30616426 -0.00065482495 0.22360681 -0.19018914 0.024088794 -0.0975545 ]
[ -0.17326817 -0.15204361 0.023831198 0.003779916 -0.10748121 -0.29303023 -0.07535034 -0.3242617 0.013337791 0.19986914 0.15921246 -0.0834313 0.11042858 -0.20110308 -0.014331209 0.107507765 0.16729961 0.22399616 -0.11090262 0.11228833 ]
layer 5 Activation
tanh
layer 6 Dense
20 1
[0.15094143 ]
[0.29888743 ]
[0.468751 ]
[0.3082792 ]
[-0.31646648 ]
[0.19380438 ]
[-0.27837995 ]
[0.4359332 ]
[-0.32345322 ]
[0.08167882 ]
[0.3211899 ]
[-0.2984499 ]
[0.21702644 ]
[0.18610696 ]
[-0.045284092 ]
[0.14365572 ]
[0.19082034 ]
[-0.16956797 ]
[-0.436005 ]
[0.3721053 ]
[ 0.12439511 ]
