layers 7
layer 0 Dense
20 16
[ 0.020857204370145252 0.10890276631108706 0.5871691624593216 0.7196086030836175 -0.6645071184957074 0.5165864451048666 -0.21672465155212364 -0.25175096933808006 0.11398618000041666 0.2941152870139015 -0.039539880719456896 -0.2856574012163702 1.1483868601218679 0.4579928457354127 -0.10694716933672348 1.337395755761758 ]
[ -1.4007314113660811 1.210707610997465 0.573080723157514 -0.13575173668590215 -1.2134850230659244 0.13323967200211387 0.07477847253437848 1.61867402678028 -1.1551192486626867 -1.295154348149009 1.5342654012160222 -0.2570453945645489 0.4561660120499001 0.9888086075238426 1.361268167740347 0.6826675410002687 ]
[ -1.5707383890600823 1.7569555333602533 0.18002722084898173 0.039349630478296774 -1.3304748300811338 0.5156845305230301 0.04150287269873522 1.628569692948864 -1.40109975130844 -1.1013292712534628 1.9425560453829522 0.04452858849456371 0.5930219937010174 0.5180713961682619 1.0839376432800318 0.608066952471099 ]
[ -0.18407795228922996 -0.10378351746367634 1.141583363347084 0.48405414559569915 -1.060898189532432 1.1538403815783413 -1.3146844812624834 -0.7427787582368415 -0.34323429533428135 0.253970407949635 0.1552309314233592 0.007967469908698638 0.5918697158649245 -0.049527924633883155 0.6428896812207735 1.0242569882700747 ]
[ -0.4891938598331268 0.40340292513005815 -0.282131674973673 0.45993072020974934 -0.4939418766676 -0.9693750012342194 0.3821391032023968 0.7709939648727913 -0.11833380408297205 -0.8120514291424791 0.6782384834156637 -1.2855032887585771 0.11004053074325264 0.9735112529474418 0.3258133065942068 0.3390606189523377 ]
[ 0.4512589651005303 -2.1079449380887443 0.2358462431995405 0.042594382797340506 0.49647553140439377 0.7236365461730917 -0.7138964646771397 -2.027013540691861 1.5674898174993233 1.8442162099368928 -2.2570702886607528 0.39168811768445677 -0.1310509671163226 -0.40033387504422785 -0.14462095909612244 -0.5370956329134586 ]
[ 1.0544095767216153 -1.709493862961964 0.5719891364500002 -0.4797997507002004 -0.19951279021932417 0.5324657451825977 -0.6323483760878909 -2.313131071091867 1.4107095444229196 2.005988524958451 -2.175836074510289 0.060327353042447664 -0.6010878541302338 -0.38843971505019975 -0.13930928533305778 -0.3927548971803292 ]
[ 3.0674178260084535 0.5103436951527371 -1.237824935601399 0.3220188140674397 1.6381408648997384 -2.34453608225454 2.6297556534459683 2.1169896137342934 -0.02260330600451217 0.48339014287140075 0.8313086681593486 1.376131174021543 -0.6252001419462133 -0.523267782860842 -2.467139952065865 -0.8257874109810185 ]
[ 0.11633977235948986 1.770992431313094 0.20568847188469833 -0.5386087993204092 -0.2894815114929892 -1.3210460108593594 0.23540428815801095 0.2575807302072004 0.3301244413103581 -0.22869583581644112 1.648126568481048 0.23720886239438296 -0.031002567391790598 1.7211841550588833 -2.077315487255319 0.5958156949007395 ]
[ -0.21853630123879444 0.0714872205345131 0.9913354804716233 -1.549675089692125 0.3692497772215997 -0.014524674510559945 0.29111482985254444 0.008320494381138308 -1.0110521912206618 0.4048248617356139 -1.8255288125372522 1.5293517913342556 1.6460272300958474 -0.3609085006259342 -0.059745166683004 0.06776762195710692 ]
[ 0.7639450161237605 0.9050714756941991 -0.4022335970239434 0.7318429681256545 -0.22546384097262537 -0.21356958628856354 -0.7999183957358624 -0.6063376006236377 0.42356504558165875 -0.9012150637854018 -1.2661516120798935 -1.3089512283921525 0.24591932927445473 0.3641338697361776 -0.9131684538432169 1.0205668936301349 ]
[ 0.060360404700199696 0.9917859505447394 0.10013823631140929 -0.9338518475824565 -0.9002509212305583 -1.142323767853611 0.4968379715387862 -0.1400288810093453 -0.1530473470604899 -0.20817957396516096 0.6128419538596317 0.0991578606408327 0.5875862542934204 1.6135939232324354 -1.9512795955222022 0.3397632629165463 ]
[ 0.26890574728433897 -0.3303697757692426 -1.4049825526330553 -0.18279887636664466 -0.017022781738916033 -0.780567448703949 1.3919795056280544 0.4096254830179167 -0.6809892402411526 0.28864955260524716 -0.43244686527458115 -1.929470771985602 -0.22964111037305057 -0.7476480300160124 -0.09814695718702082 0.6367067997732573 ]
[ -0.8813152953728894 2.2384144032415505 -1.412630146727126 0.06965286640484684 0.009231006970388355 -0.36170130382840465 -0.6058433694495302 1.036968101322081 1.9203989225589417 -1.9747695344713894 0.5297391354128123 -0.7254598763048834 -1.9065542981028387 -0.019615214835068506 0.5459306184583237 -1.0023312764525738 ]
[ -0.06904470660854255 -0.636663019806147 0.9388707368537621 -0.48643345430792007 0.3215016686297978 -1.2579216473627486 1.1734619953009808 -0.9806683444467619 -1.7757801186975128 1.3504884984799341 1.2817450840788642 -0.9177589411791468 -0.5822208484664191 0.7159182040705167 0.8853704336493596 -0.5199588737158491 ]
[ -0.8100984399706594 -1.4437889000910578 -0.23824828953277716 -0.40665028452539087 1.3977012705356109 -0.42465047581848625 0.9318473491725172 -2.3111376841979427 -1.1558008160754933 0.11305317375971452 -0.11204890685216923 -3.7203015677162483 -0.09449320628062897 -0.00831912021254648 1.6750199259722298 -0.25925267093232374 ]
[ 3.598873123946335 -1.3287590017783324 -0.3128487521463441 2.7231474203289516 0.0455430921108294 -1.8637952945612788 -0.39512164596222504 2.212971309675709 -0.8594728260619656 0.8309882890159709 1.3787085368720906 -1.0317712380756145 0.5930258216487826 -1.667073739004057 4.160932898490904 0.4216729763548842 ]
[ 0.8859656828211289 -3.4260767652323363 -0.21952731160621847 2.539912272896924 -0.5875322926139029 0.043991472972557795 0.9128515966669286 -1.2898056302463832 -3.2035028421765555 4.395249825177274 2.0846650632497834 -1.6071586334209855 0.19097407686420118 -0.36044264592758846 -0.09339964243119457 1.5617568710945033 ]
[ -0.8388995258014651 0.16810787451199288 -1.2706967013844555 -0.2559986743123602 0.22433261281460048 0.8526357499964702 -0.10881734906862918 1.804221073557116 2.1813353662287933 -0.24472528556894965 0.9412752952306662 1.609540453673716 -0.09997745923946899 -0.8222699526497925 -0.37973925206408404 0.5250242480857521 ]
[ 3.406366975563318 -1.210194302866539 -0.029804421049713415 1.9394271856216423 1.1585709396159025 0.06721251355153512 0.2830578531631906 1.4723350898488474 0.41687762539018114 1.4851536087214863 1.3774947068271084 1.8409572710725062 0.1225137667791518 -2.42125805527928 0.30096989762250786 0.6479932673628778 ]
[ -1.3207832502333985 -0.33582513707623096 0.9768873666298779 -0.48898236533003764 -1.1677886356271328 1.7761396371861875 -1.7696428671872935 -1.3797749422059047 -0.14970479131724654 0.007466924437392188 -0.8981542218937637 -0.2966416818734144 0.5497279044614837 0.4280537153538119 1.0632990891800598 0.6049017335045979 ]
layer 1 Activation
tanh
layer 2 Dense
16 32
[ 1.1944967154382162 0.5140615207177419 1.2063893113735449 1.5223393409646855 1.0424478541278732 -0.186583935833051 1.1891568772674548 0.701471518162544 0.23760084629701214 -0.5321432258731792 -0.012856945950442273 0.5166671889591241 0.2203898795116828 -0.9822287207952283 2.4414447164371476 1.691252872194463 1.7447050194263167 1.0695823145651004 -1.896776856987868 1.7332616560440015 -1.4749998566805078 -0.26273259457242953 -0.48360787065208877 -0.6837998037602943 1.2586727998251945 -1.0936194568592834 -0.7270907111437332 0.4788178456934739 0.9786846585229928 -1.9972476326629784 1.1958102000366728 2.0915707498213005 ]
[ 0.32535624999656304 -0.030203698041991526 1.761277556654725 -0.3600642383143609 0.20393484943403684 0.8452113717377333 -0.7589093719170054 0.5413686679025096 0.02050722636742097 1.3650019907652626 -0.20206642431795163 0.22869005500311718 -0.3711270428798315 -0.09938128103061523 1.2886354334490733 0.43169294080728554 0.5019629300270656 -0.11878734924317609 -0.6694634864862444 1.2611019244436084 -0.976956135456716 1.6120147394939595 -1.8786023739200222 -0.16490671178764418 -0.08907505097958508 0.3255924904911442 -1.8414787885734147 0.23150577705590977 0.47092005907245676 -1.221609202477908 1.696145379890774 1.4674848088594916 ]
[ 0.28873952719785284 -0.6223406447457762 -0.009100201518745351 -0.25773599544783865 -0.8559017276253146 0.30990663338547025 -0.9954478094512416 -0.8532864472823228 -0.12078469321386702 -0.35689748148243694 -0.19899304688872688 -1.6701459711386482 -0.9567641081988211 0.9137989331917209 -0.5411683647315976 -0.8456148001952573 -1.100322250440042 -0.28716974070464313 0.4012192654239274 0.07148163659306077 0.5012815447915284 1.6002891393276952 0.3106317973460447 0.5978808167419684 -0.5206330992206948 1.7517670067046616 0.49750497174855446 -0.526970204910356 -0.012350907700624091 0.15482236454051712 0.4598899271611296 -0.27717470096631425 ]
[ 0.5035336266364763 0.14887409474013438 -1.1159337455490566 0.8142164290856018 -0.13313938952765342 -0.22490598744078688 0.8894356782562852 0.8129393521713925 0.2992846952676599 -1.0146312657263348 -0.6013897700417077 -0.5742062338942889 -0.46370450720576417 0.43945149669598027 -1.03044405617873 0.10368507128932285 -0.2017518700362377 -0.28402990975254966 0.5714481581935912 -0.3800974458146009 -0.25909302384577626 -1.6057678844372043 0.36669526595908025 -0.31517741822331224 0.1182784957062219 -0.11045130773343324 0.7906719581459526 0.20400200151480924 -0.0682834566872537 -0.040137581521853635 -1.020876967368421 -0.8804507210953969 ]
[ -0.14401528272831451 0.8784162005996864 -0.3753531721413075 0.23372039612295217 0.40789181546778247 0.23840745574403263 0.2910022443602147 0.8246168674850479 -0.9167764838888812 0.11272371882893367 -0.060040471004137286 0.6345409583150562 1.05100004281062 -0.41341219331850004 -0.033757103774486326 0.41583893115649684 1.1301154685357007 0.3352239371905838 -0.4018839993250949 0.7549559600735969 -0.1539231757338192 -0.5056748854321825 0.16128314556936935 -0.6458001398142368 -0.22381469124423248 -0.7787373174076874 -0.5526614587344606 0.6017465686902366 0.007255527952180749 -0.648984754313333 0.41039448806603146 -0.1415957864316856 ]
[ -0.8036934024669378 -0.9800856851651598 0.9764797090307721 -0.3302103358350403 -0.6713599557819359 -0.935397102461576 -0.7498333966138414 -0.9307751374770692 1.6469272522231246 0.04535790307464817 0.33083351560596486 -0.4400904208649147 -0.7028977281487511 1.404164275097562 -1.6265709748061834 -0.8415322564530601 -0.645850653819049 -1.2938028986289973 0.9686604242545597 -0.3424955998228603 0.6348061380720484 0.26197490065831663 -0.5146105956089857 1.0529127095908262 -0.4087777700978244 0.541888088718228 0.27379830539159755 -0.9610253279490621 -1.1421853596020313 0.8030749883779988 0.2228431386807191 -1.9030183615971359 ]
[ 0.7692111529381431 1.5138733664490092 -0.298720757588061 0.6476956982674671 0.6946621902723882 0.5453096035861006 0.5884629267339071 0.887942155222642 -1.0630849686508985 0.3809273418190864 -0.983655972813643 0.6033021837976049 0.5088207751263784 -1.1964729526227023 1.173372580097499 1.2996950347470844 0.5008229560987848 1.5792444497074791 -0.9446356050289363 0.84942328738788 -0.4917349255153109 -0.31664576303319286 -0.23293993699426455 -1.2588805448020037 0.31117086034428115 -1.025258927851276 -0.31064895214504235 0.9598790283005374 1.1465562554253528 -0.604728174918179 0.056195920526849234 1.8486773949436603 ]
[ 1.0763872375404118 0.7273612009807142 0.382891913860925 1.407050306992903 0.2798246324795444 -0.06280493009517527 0.834555689011444 0.879060956921565 0.19493519162435785 0.22219958413095245 0.6257483461846823 1.0722959433626449 0.12485911481288198 -1.4330344455337856 1.0272238649913497 1.0179042161193521 -0.8798524030759408 -0.3566248109289405 -0.19613680165344793 0.6365228824967581 -0.36124346672975377 -0.6627568452951657 -0.4378949974103391 -0.507908527128769 0.66357808670229 -0.8071896954652379 -0.5594679434963962 0.98625205529184 0.9033651093853412 -0.9066529228857972 -0.7953891605687522 0.7859150608229869 ]
[ 0.14443027675963166 0.03303066068197963 0.8105292637904343 -1.3071171116990974 0.34225793811800465 1.6592771763830674 0.05186984467473695 0.3475153802823875 -0.3147155883317205 2.1250484064556647 -0.1426930309281337 -0.08169363309084798 -0.09338012663071298 -0.2865591517209356 -1.4949455546421087 -0.1074769544897134 -0.31760022510097047 0.32764783900479083 0.7378802646194133 0.3112412276647819 0.4705170280447813 0.4764387786232067 -1.1257862739287494 0.052211698494347744 0.3709929132348957 0.4134582768868506 -1.273534923353848 0.1382271486791864 -0.6206993107469041 1.1683528142903223 0.5934212600762935 -1.3482570117226447 ]
[ 0.5067047457918424 0.352220104069139 -0.9188352104173957 0.08493529657960376 0.48558167349637416 -2.0127986981660344 0.161548762359095 0.2027435216771759 0.4425649584053237 -2.1391839337516956 0.01599306482874997 -0.17296479842763438 0.412368606461452 -0.14598899355480963 0.5211125524423048 0.8301530314505193 0.3238399921091585 0.480986138239041 -0.8193384259935924 0.0971703543649667 -1.0279541141024129 -1.394235278084069 1.1109618158209567 -0.5798106049336418 -0.0323004129668479 0.00032908135264307517 0.9089709392231476 -0.419981613079408 0.4366041594615086 -0.14196874065542098 -1.5826447214288903 0.2509308352937905 ]
[ 1.1328884281470046 -0.24084762881195143 0.512719461707724 -0.29290530582522994 -1.3005229521985147 -0.9770874329168563 1.203551922691929 0.6731312164001507 0.6078901618242489 -1.0743214419236706 0.7833107300467346 0.5992133312902292 0.5121077308460193 -0.1419402585906798 0.15701669543113328 -0.6175640733980658 -0.6529606796616394 -1.001740283130706 -0.6265353367952635 -0.9107736409352558 0.928009742453397 -0.36780106896322645 1.9011769234943487 0.48113395043163504 0.9250149802917842 -0.7025836153952284 -0.6594530823471622 0.2966983571603142 1.5379388735680921 0.7727741675262948 -1.0356793475677633 0.03648949130058476 ]
[ -1.0147286495894572 0.10816706082913237 0.4020354331012179 0.30041556815603615 0.7243520586242915 -1.201840035638806 -0.5854874585055486 0.32771914039959366 0.11847583557729183 -0.5849674528149853 1.0024306551245066 0.02119501556364403 1.203957383037286 -0.5702903389560793 1.6905186586505252 0.3506961497604816 1.0649268921744703 -0.00351215949236845 -0.29241467084017525 1.3638739055092328 -0.66449207060327 -0.19649478915726482 -0.13271405116775148 -0.41282701395284627 -0.28150649933409716 -1.0934733398721608 0.40202822981432207 0.16477259718402917 -0.7974877588600325 -1.6615333846344502 -0.25330449113822356 1.2100590237187607 ]
[ 0.4458373171541432 -1.000820144035203 0.5259176975470768 -0.783256718958551 -0.25248697068737597 -0.4503261588071254 0.05833056488738224 -0.4386668010725743 0.03820100920176372 -0.11967193611963114 0.545223662669074 -0.5917605802129555 -1.0777747117602872 0.5928524586783576 -0.4265450053020615 -0.3484137860546692 -0.4209729864646718 -0.756345277039436 0.4010040178321315 -0.7103215309203964 0.32905629422851507 0.32510836632758466 0.41348202593283706 0.8939827248761049 0.5045831905140221 0.550512889932723 0.5217567070469908 -1.0335662440255142 -0.06908020782078873 0.08248281082235633 -0.09570976130913918 -0.4849671356878291 ]
[ -0.1856989316114044 0.31214825818598974 0.22827698235105107 -0.16359488331788336 0.4635688958899468 0.06359503204013864 0.5877418640671657 0.66961995162764 -0.008699384301358564 0.12713495802836866 0.11112280270846038 0.5892581304471002 0.4673026787391994 -0.01939595989380678 -0.712580532406467 -0.01887544674735394 0.2117288690228236 0.03322912522648116 -0.4412644970677575 -0.6759367912137593 -0.8985796010394935 -0.15736479630837424 -0.9483278840722306 -0.756996235390767 -0.8477721658812842 0.2101732307229306 -0.28546524750113084 0.4687011214707735 -0.41945730668675607 -0.4207322472484442 0.3892098829552872 -0.2172489922802208 ]
[ 0.5402588681355838 -0.7298624055836116 -0.9067070990623959 0.042970013424952214 -1.5495092342849213 0.5380621126277657 0.8532910647261938 -1.4834857785944364 -0.20494150758028637 0.5286621602991745 0.1868370984023541 -1.1197147255333064 -1.421455247429667 1.0738295547610737 -1.646090042375071 -1.538270112293605 -1.424678052042695 -0.677757350906766 1.2387360220191959 -0.8546189671898751 1.9405189150674897 -0.7572344216654138 -0.013788870203979543 1.0506432116356823 0.9370355292145007 1.0060298340890679 0.519418738024705 -0.944240365035872 0.3250795365467379 1.765010369381785 -0.9162679366282711 -1.1275242888409858 ]
[ 0.6347538932707882 -0.9901504364754317 0.0853709118765313 -1.0214820434482998 -0.4870594652500801 -0.207439764654024 -0.3386366264273329 -1.0030335690257985 0.1750468865623968 -0.5447046225959228 0.5001122043478075 -1.2124817588856385 -0.9208432414627321 1.0978566716692066 -0.8833563221132941 -0.6460773081047038 -0.6543208584763247 -0.6173554139228136 0.6502014744815477 -0.5146524257392424 0.31634042332517226 0.5610529537127021 0.32574932710506305 0.8298183185652906 0.14158321573249077 1.3765580502149928 0.4435789271944284 -0.8565597588877105 0.3221223534772032 0.20215525867018802 -0.020538583337662702 -0.4707819148657584 ]
[ 0.24791399871605196 -1.032774537616383 0.14603150800221434 -1.2149766860175808 -0.40481528717175796 0.09722741699152064 -0.7413016975019345 -0.8600577321433224 0.23439719483098434 -0.227617170557534 0.10466518736446988 -1.4702965636533292 -1.2745414882679897 1.2667502740521468 -0.8615922523634681 -0.7448413776574437 -0.7597375217235212 -0.7888656489280673 0.6285555961107359 -0.6082261684985126 0.4843767530131721 0.8791981314460866 -0.351186336141762 1.0523399410618555 0.027751763233938978 1.9879441534225302 0.29364342835142593 -0.921516356749236 0.12477655921170624 0.4602115825621832 -0.5305624643136656 -0.6412623167564152 ]
layer 3 Activation
tanh
layer 4 Dense
32 16
[ 0.18777919428196826 0.8940769983589457 -0.826512973508399 -0.5808683933848481 -0.16854546078569 0.19548896108348102 0.19896153764934132 0.32233364408835335 -0.20469796298713525 0.015750474136641785 -0.4244918351270917 -0.4570093520230177 -0.9379370499267521 0.2420448846573136 -0.16660025049242197 -0.2925804521952049 ]
[ 1.399464346459495 -0.2675692988773295 -0.7019960744557467 -0.49467066467729653 0.11418623281762084 -0.685031305921385 -1.4576530178405946 0.17007626058392772 0.34492151793402454 -0.8100109307278328 0.6032444471616394 -0.4464614411677873 -0.5502021131420212 -0.8606473901760888 0.7452113272569402 -0.20201596698273305 ]
[ -0.12391862515162788 -0.37989231593024814 0.541549591547709 2.1928231438647794 0.29597434067811157 -0.35728171618332344 0.10448898563936133 -0.11315140586620565 -0.19112225017646056 -0.10589071823049204 -0.047949286253132245 0.8238037232547495 -0.043918791204104315 0.3662313352258377 0.1316366157957849 1.3463133839683814 ]
[ 0.4855064604905557 -0.08207098496532478 0.30617749945284845 -0.08759420279678073 0.14259751595165213 -0.4532899366219183 0.01535726858347818 0.4472115781711867 0.41283185096824004 0.12634141454022407 0.8088905421015279 -0.701183703947469 0.2788474812142622 0.0013111886758640772 0.8539872864865664 -0.5535245479269243 ]
[ 0.10878232711112235 -0.48956272863618916 -0.45477745917621243 -0.021130962656237942 0.4201516807767013 0.0093261092750869 -0.2038770950024648 0.08358499875038974 0.1225225107257612 -0.32296174684181234 0.28268185584542316 0.32497163253721284 -0.6201288939166784 -0.3550696270170623 0.26240348770134453 0.06206283225148408 ]
[ 1.1796896017893905 0.38156719422162666 0.0007696272776461704 -0.17574265915782228 -0.8349366352918135 0.07482366701793763 -0.17960873451828713 -0.6711495257514443 -0.19501629084885938 0.18940698419580415 -0.24697489909538503 0.7168647045236816 0.1726228051582429 0.37611066224114764 -0.25741346976364177 0.6486750194232316 ]
[ 0.4351299939321238 -0.21877331046208198 0.3257989626301924 -0.13456635787478663 0.3625449384359384 -0.1928511069597935 -0.6330191895775678 -0.4275492017810367 0.4540804090240657 0.015876778202380634 0.11064457621881303 -0.5398547554308338 -1.3783380226844393 0.3276084194953341 0.1889022728475257 0.35420022658735634 ]
[ 0.8770787887744173 -0.12124371384447193 -1.075369709001813 0.23453226527892249 0.7203496088397218 -0.48797834995091877 -0.8570198741596505 0.05189995683973446 -0.03775596952502223 -1.5971237566911662 0.3734836238049157 -0.32937530166894546 -0.35627115759318084 -0.17957309258554652 0.3343833511253014 0.3016935974153197 ]
[ 0.12969558968529116 -0.20321287155286447 -0.07997276356011829 0.3922511970923661 0.12753211966373695 0.32075461582538717 0.2278203392653586 0.6489004850019553 -0.32138043672387495 0.1181662947162598 -0.46802140025595845 0.696522384363047 0.06857673528516538 1.005816894851941 -0.27382900966886053 -0.18882176487352206 ]
[ 0.25985083155740274 0.03366351392819808 -0.20410402600968117 1.1069376620445925 -0.34358045734811804 0.16376332123234716 -0.20056390028419332 -0.8536225925572819 0.08277653629714016 -0.2806508418915043 -0.402246452280177 0.9844926005386498 0.7350078035573172 -0.12286928928130414 -0.3253956823084935 1.4086313720197525 ]
[ -0.2745011963999828 0.31354041940806576 0.061926085288237405 0.9787283681695108 0.21396296184383728 0.27218787233262204 0.30806262184213584 0.11392477340126544 -0.2163269133243263 -0.0559471432138594 -0.7955413719417009 0.11766013143490876 0.41313338300474517 0.0469483012401567 -0.7659265767749057 0.0442518023241695 ]
[ 0.9759647330539919 -0.4428443253643753 0.19879478836967412 0.059172300254211996 -0.486642595843193 -0.7726057890836614 -0.9853501779591397 -0.4523758962545792 1.0969556191310248 0.03465816664912291 0.35215768015335114 -0.9103641264780503 -0.21727659280426048 -0.7194198359748631 -0.052513102369560104 0.1373050788248269 ]
[ -0.006877998312660037 0.40777662173740287 -0.08777958709374005 -1.084985721627879 0.03362820783177382 -0.8080641967191154 0.013927921029743539 1.054224153786195 0.36202891054246916 -0.1823264213876688 0.1942920934186969 0.3407882142169621 0.5598129073154104 -0.5030861229176922 0.1270150905675945 -1.0913373016492462 ]
[ -0.5058128515513508 0.17616201521982697 0.3674087589765413 0.25623303770422784 0.14718707303123055 0.6149195887448472 -0.09428878274627965 -0.30178424719975033 -1.0702973278870693 -0.07299025443079367 -0.34261922753425694 0.06363280976143594 0.09818127378373184 0.4516180493175756 -0.39304043898794117 -0.277711469754968 ]
[ 0.321494825035 -1.0899656319860038 0.03605687969139547 0.4532595041868311 1.101658875923955 -0.4434140473177928 -0.8167739458231421 1.6131230854141123 1.0553991128262468 0.2904939235461695 1.149471616764017 0.8524148155647524 0.04296914659751367 -0.5377344257998574 0.8344672796291343 -0.028924682711961688 ]
[ 0.9192368302794324 -0.2269742742287958 -1.8620212611532196 0.23480670535790552 0.8131333288624437 -0.3252926737706043 -0.7435701173256216 0.3255659635939671 0.06356104510259443 -2.204211773959432 0.49714371274999 -0.0628168016376504 0.2652355339097774 -0.4781064252758107 0.061117273115456075 0.23505128247564272 ]
[ -0.4042659893383062 -1.7734169987499653 -0.8487227165205994 0.4624552929469317 0.862224199591819 -0.33584706704518025 -0.2088461447438913 1.423206639046557 0.053000797076137515 -0.1478082518696061 0.6335983475685405 1.0341729171368574 0.08264640419869493 -0.39841609766361796 0.18390604553379655 -0.24525081422232292 ]
[ 1.0446791094241106 -0.16101814906098158 -0.14259005902425337 0.01594824872760285 0.2565970268643216 -1.215834038007782 -1.1928488655851464 0.3120186251059409 0.4026674346111839 -0.7115667984279205 0.4857956936428701 -0.3593687095700753 -0.6514506902189019 -0.6746597491967231 0.443479601415498 0.027758289608308652 ]
[ -0.3835793064312343 0.6080462583321908 0.6440655107782294 0.10062637579911082 -1.3805238163112743 0.35967829435413373 0.14211341746801429 -1.3188342229895906 -0.02200427989837627 0.05209982396396951 -0.34841447964688754 -0.8713960777376412 0.6284830157594663 -0.10901512168411455 -0.21819971306384664 0.2932923201924463 ]
[ -0.2973145776975831 -0.9983357961586021 -0.2395052013957518 -0.13356364690435243 0.7924306565796803 0.7261784263327736 0.5770987927030549 1.3834991648825699 -0.424843885074689 -0.3308554325221784 0.3844035478070751 0.7557107121209736 0.24960404195928465 0.6713037451679731 0.43942370761919963 -0.3286693765549993 ]
[ -0.6411257994699509 -0.0714214160566558 0.6145077342223471 -0.6970235783722306 -0.7703351668005302 0.47980517501295483 0.46228749943947084 0.04159815351648607 -0.2852565820824038 1.0865983647558024 -0.17404201483572423 -0.09301327981921984 0.10471406596447784 0.345843071744435 0.21794117855486383 -0.6518897223061367 ]
[ 0.799425381312659 0.940649860471038 -0.3306742263756209 0.8100503181023146 -0.81478772230307 0.4138010337188185 0.12497336414350192 -0.4809196294830652 -0.05777917679951028 0.36098856660630707 -0.448071618292505 0.5295030281316293 0.06443460327954384 0.015267431781508994 0.10580350333113059 1.4834948135720831 ]
[ -0.3340541411077141 0.4580486265197843 0.5403536275651852 -1.4704061609409766 -0.8420936374204732 0.005789251610251175 0.5046411104184241 0.036260446924559576 0.29354902842018205 0.8084029347821907 0.0781870653515226 -0.7803836502168178 -0.24696200909505073 -0.13434001178608437 -0.24718813794738972 -1.261074203627803 ]
[ -1.3819074827608449 0.289986729501537 0.7217189951191901 0.44587835547885507 -0.38857659992929156 0.9401690200678233 1.3364177493504474 -0.3385200923720794 -0.09285859857714894 1.2630883562213169 -0.30692273723977515 0.3728732687639476 0.4252845669980708 0.3620106708976936 -0.6469155613700036 -0.23520776866609105 ]
[ -0.31235221329424817 -0.2568865573683451 -0.18336177500492323 0.3385505737573155 0.6754184014951814 -0.36619350612675927 0.28540361160208033 -0.572163590783659 0.2906013299346792 0.4122052505122358 0.5870625365798653 0.3259285477979728 -0.5933893381942823 -0.06895478374145073 0.07844858503027273 -0.1264559762796071 ]
[ -1.0447961669044106 -0.04438150543999544 -0.23913018688294546 -0.2115628900443221 0.3892538969909886 0.5312229872841917 1.1167899928678293 0.5126316625741766 -1.2281382640017302 -0.15064810917033067 -0.4248152469194004 0.9453370505938501 -0.13867206515498154 0.7598394115321848 -0.08063442498354378 0.06933527810728049 ]
[ 0.31692164219258995 -0.7405757285235803 -0.05460245407885408 -1.029532805794736 0.7183202704067466 -0.07950697329714254 -0.1603569301252597 -0.5223849828568312 0.02704664245581423 0.1371187150216275 0.07622176603769681 -0.8253331758419974 -0.1428856530258294 -0.37588592572933544 0.11797011368232241 -0.9733918243394115 ]
[ 1.6928288245813405 -0.2597285202921659 -0.9740327191050957 -0.4491091062360109 0.2846185830168349 -0.6777535914124034 -1.0124038051126696 0.12877011419990672 0.1359722030664144 -0.9046627577088212 0.610599080497535 -0.26343128557393175 -0.2504289244456418 -0.6311221214203875 0.634558383988923 0.030939458168987737 ]
[ 0.10440092398937371 0.387749803943312 -0.6195456505998879 -0.8783981805548954 -0.2050333733015795 -0.43634702038512413 0.060555599671132034 0.3416547813222175 -0.2984933040748789 0.5345320413910584 0.13746772315717184 -0.5589266601899806 -2.0818124123264066 0.11390884850770604 0.4583222005374433 -0.20723340854797748 ]
[ 0.4956806234596286 0.2768609884532588 -0.05271345854996246 -0.1503564059759825 -0.6929248727764286 0.30023915982988175 -0.004580537648023411 -1.1474699051127648 0.4328561682220385 -0.013924900709796035 -0.22109310835636883 -1.3632173114631145 -0.13324686555286638 0.2399903163472031 -0.6949982672533479 0.17876664827105065 ]
[ 0.15762703456116936 -0.6861824622383238 0.4345024894517909 1.3174380546045825 0.184383142320339 0.0963854064544677 -0.4792852715037061 -0.518886354521711 0.24963112861337292 -0.022559513921398138 0.18647080890430084 0.8940699681643571 0.05713759626077745 -0.2639670890576691 -0.15643143575502508 0.5902270043309227 ]
[ 0.680260682563912 -0.9448165605144828 -0.11330724901296406 0.6990984837261282 0.31251797163429024 -0.3517192791732708 -0.3808839502817487 1.1557004029159688 0.46940349946920024 0.38325695160029494 1.2594986304624207 0.4613408294331491 0.02602442085927391 -0.34622293424455236 0.9737915477924171 0.3775994540066165 ]
[ -0.6525550164293856 0.2439854234131038 -0.3284370071945879 0.45290166846710034 0.6899616452323805 0.8898747574031739 0.7992715146597651 0.293506909343621 -0.3518136322203869 -0.024686125026648763 -0.5578852432371862 0.7134401457082782 -0.07964346957152003 0.597842586557513 -0.026732358598905787 -0.189851863749446 ]
layer 5 Activation
tanh
layer 6 Dense
16 1
[ -0.2812001903248305 ]
[ -0.18782671263974193 ]
[ -0.06741053853543395 ]
[ 0.006233472659918483 ]
[ 0.11017428661240185 ]
[ 0.09119449202741679 ]
[ 0.20006133952360816 ]
[ 0.6413573991721885 ]
[ -0.14441167472477248 ]
[ -0.15201152077038949 ]
[ 0.2306514713297197 ]
[ 0.06991868418795404 ]
[ 0.028226032466057982 ]
[ 0.19764184347211128 ]
[ 0.04639290572348451 ]
[ -0.06808598146006838 ]
[ 0.48947125354845983 ]
