layers 7
layer 0 Dense
24 20
[0.648348354549398 0.02484786263404016 0.08041997970267957 -0.21561056348661758 -1.287814907462262 -1.0641798665299735 0.6763515310734382 -1.5454171069253628 -1.024078522690986 0.6407787420325249 0.5821041448162282 0.39239605185830195 0.11859366356340578 0.34201420187655796 -1.0028734407200242 1.0337729329490701 0.1977938910998418 0.42597924426818223 0.5658313144326044 -0.44383316689324287 ]
[-0.8015680811165048 -0.026218442826597597 0.5768832161516257 0.27126653285285734 -0.41012193296592286 -0.6715331447978857 -0.401602483454687 -0.5976671945760138 0.5652432237678451 -0.6626925907329748 -0.1883104917483219 0.6113536776224119 0.8416611292277096 0.42665127759862365 0.34141707357917334 0.3665501330106781 -0.11278357022967474 -0.04425355942661424 -0.08665032643601932 -0.38313815706136345 ]
[-0.44526144238529064 0.5107332588297704 0.04942211744006395 0.316709109289422 -0.45506087878631163 -0.8741153766567415 -0.6794447585377243 -0.3740064139596975 0.7837947889351483 -0.23458386055758274 -0.15824415786813545 0.9453761134141094 0.9244770737397288 0.38210819486435227 0.8867380123910382 0.28738392565304005 -0.3816605100438728 0.3598017488170579 -0.42308272621484266 -0.0498349832135891 ]
[0.05955166716824834 -0.02836655127181803 0.05199594337200398 -0.08241216385005963 -0.4814180474105384 -0.9344395298230427 0.17213074614963933 -1.2135693023892644 -0.9127800295139017 0.8945709135827535 0.39409745776894517 -0.1758293117797117 0.45738071286973586 0.5009484177597078 -0.06501372990738842 0.5453854139634139 -0.6243485722972936 0.7703269444284677 0.047231017895196695 -0.5100332770938528 ]
[0.6290716082299019 0.5810582970248701 -1.091958784071604 -0.1802455496048238 -1.561345141252923 -1.0265189944141335 0.5780099117844925 -0.29993386519789744 0.008393861960601226 1.2343287707055999 0.21629774980294114 0.11639242961512722 -0.16271973842657567 0.04153280422830897 0.4959454809559562 0.6024713547225284 1.2528057031606468 1.4528909856942 0.29551191339452454 -0.551485111404407 ]
[0.7938877430363693 0.2419321669310059 -0.6154383024225765 -0.35128016199568574 -0.20841528701513098 -0.35939321954070136 0.7262808188086874 0.4859589162770555 -0.5234573327407204 0.6303163721432361 -0.23079074831190097 -0.8339057797077428 -1.3913241273886328 -0.6274084181594808 -0.8409046663359266 0.05701754217856395 -0.5874537714210499 0.4024986197225922 0.37750338916206894 -0.24139542439940018 ]
[0.6612945034429145 -0.1590005083900941 -0.34262590945311755 -0.9980725442923452 -0.12299034462963525 -0.16315059732194606 0.8764119548639413 0.5520286567046704 -1.026911693391693 0.38263124875867954 0.26268738039849376 -0.9190005071473338 -1.193404888761271 -0.08402261796834423 -0.8682958650872656 -0.36010915515542236 -0.25320478824390713 -0.09826157291014392 0.4264709214043178 -0.16478356856940557 ]
[-0.4082301310323067 -0.3902618189262672 0.812990292531822 0.5378529645850569 0.707411617813146 0.9213356860760316 0.045538500082894735 0.7864745714621747 0.5468903724903873 -0.6397767524400172 -0.4276687285788214 -0.3747504380901475 -0.6436405534391716 -0.06267360881792153 -0.7766338612227455 -0.7237181202064452 -0.17203336576191688 -1.103649565733045 -0.35566060743881117 0.6314001524948226 ]
[0.844520918551001 0.18816700410217302 -0.36050354223001324 0.4698366134537012 -0.06896123192736436 0.2525346864645507 0.22325328482077506 -0.2550134059003865 0.4415642710465587 0.06746056434337405 0.007380611507383663 -0.12852202467837098 -0.9545191498140047 -0.6320362296309949 -0.4718686954061449 -0.337236416124012 0.7796084523091958 0.5228937801607875 0.5693859360535972 -0.1479649109472533 ]
[-0.06446168250378509 -0.8964856256553189 -1.0266577191478217 0.9718837329560379 -0.03309431975612901 -0.2921247031129081 0.20069267138025676 0.039565180611216284 -0.47318575995118134 -0.25418279451404024 -0.6436413756416397 0.9955048593259861 0.21301045286374956 -0.06288114686757683 0.649508998480757 0.22399584376290116 -0.40440039275995826 -0.3063406347444521 -0.9476001157986425 0.38029194689882334 ]
[-0.3781151100566327 -0.45570966372496874 -0.5092545606419767 -0.30327954683853076 -0.11486485289580924 0.41058974620983607 0.15496692195691306 0.1564406158081499 0.02568992906681734 -0.7831684260921031 0.10878382424715823 -0.5654283930532535 0.8019996112607592 -0.5900916287201977 2.7595675474821815 1.4016455703930424 -0.45948944927125196 0.002599278078999632 0.5230875428111162 -0.80045932510455 ]
[-1.8772602369509233 0.4115004300268142 -0.8397928781569572 -0.027117357484870493 0.36922575909486505 0.21346554621804856 1.0053225468299507 4.118455759577295 -0.5619086981126554 -0.22718618821473685 0.894577968483981 0.008577924292391289 -0.6952104429864767 -0.3549137363420917 0.8648759159667752 -1.6437544469130356 0.05167266650001109 2.8088499639613005 0.06251873536719675 1.2184603478961586 ]
[-0.3010003376067281 0.32694487593909755 0.24548935282602494 0.35125664790228656 -0.13966480444562676 1.0978280070593522 -0.23643025652387017 0.5331846862367182 0.8542347755755332 -0.6887294585257496 -0.25354872796136396 -0.15462592951539805 -0.49741213989548666 -0.6708584652788754 -1.3882671664810455 -0.3940671576620036 0.1301649452718227 -0.9710194741918317 0.6400918277734934 0.4240814881862697 ]
[0.28743266583889626 -0.7082203559193622 -1.3216449597837985 0.4817406442237779 0.11297895129325752 0.03950994165974038 -0.004157517864123714 -0.2491205547430549 0.776358075865846 -0.42822339264827464 0.1441487419465578 0.9835766587426076 0.735514914905566 0.10204560330987358 -1.2956994252363725 -0.3459923146189304 -0.17277096419010313 0.09974684332502981 -0.8198920608188047 0.4819054194634244 ]
[-0.15315503630497498 -0.4382048834702058 0.7102601391152006 -0.39469390558230316 0.05236955349049083 -0.2823585398864684 0.5637864990250059 0.057225500479242894 0.6622245032253993 -0.6014098519329105 0.27825575581970874 -0.42904109122860057 0.9025300256999058 -1.1500166828915699 -0.5991491204076688 -0.22196605149771406 -0.28621865364971427 -0.16046972788653818 1.0690901462725015 -0.6375690993737329 ]
[0.08224011466914391 -0.9209596863047692 1.1934333365961982 0.10593278440174028 0.7715482523804654 2.0647164029985507 1.570284901494376 2.700189120116011 2.3059034590927214 0.20889922362071037 0.09172942663326894 0.006384661421714426 0.14658325201599742 -0.14563648302772317 -0.11232799107401321 -0.4001309852339193 0.005989127583153023 -0.21889630682465513 1.015284891784939 0.7532300610818952 ]
[1.8159591797682497 0.3181920831710757 -0.6821004293204085 1.7550366778050672 1.383518346577761 -1.5937296436616866 1.2384041575347229 0.5930078206452848 -0.03662777000471809 1.663289533476861 1.7756185486065719 -0.5231569834664144 -0.14902709527956776 -0.8325092971702275 -0.241488816527964 1.7591975216890916 -0.045787709469587504 -0.4095122504893521 0.2363093702373238 -1.5122475228514571 ]
[-5.479895852583485 7.623438410560598 7.917306695471674 0.6854010357022355 -0.19107087708401674 -0.3116190269129079 -5.101361954427647 -0.007629359856290092 0.8457870962710129 1.4511356543068135 2.551295808675214 1.1246336079603805 -3.1690981753146596 -0.9395172639805804 2.399203819708296 -1.421824339550471 -2.205518843242174 0.4793287644037443 0.4493035347348561 -3.7164386283821713 ]
[1.8804304425829332 3.3244802933748825 -0.5805007379410645 -0.02052771923001898 0.6426430215824135 -0.1464961986902777 -2.9684011398088335 0.4481955129348849 -0.6461868663353885 4.966670804995742 -3.789465890124134 -0.7018327355415419 -2.804911460580662 -0.7195338794528889 -3.264785579326568 1.3028758846269421 0.3439940078379373 -0.24065105274140655 -0.08419139130499563 5.4648555798310765 ]
[0.15642431822136985 0.11541402872708542 1.6342889214738372 0.5294455409593765 0.09575311143465642 0.7946050333386875 -1.5301717704352613 -1.207327882716099 -1.1917640390412276 0.01752480733501987 -0.36852392673494627 -0.1140248539126787 0.2369135988339164 0.03727450311160377 0.1936290294706996 -0.6667928586137445 0.7268519890424162 0.3459396727684052 0.4269649005785618 -0.09218679938293715 ]
[-1.081647171568604 -0.2105326516342223 -0.08074119258668197 -2.0301599326816078 -1.9973068276788 1.0707566752209419 -1.2884944475628384 -0.4023980059065843 -1.3904143437781462 -1.7448937708605967 -1.8603484078419592 0.9282638180451246 -0.11699000996523372 0.13910915336747973 -1.092995834136121 -1.3220731973767852 0.6244717762535184 1.3620746235114198 -0.14179318017644024 0.9385770920851807 ]
[1.4559239406016724 -0.8762332297959665 0.05772465323743192 -4.971473621381187 0.7387826258689434 -0.16011301538248762 0.5844707380096379 -0.23477859522168612 -1.266506495956894 0.16596001226883533 -0.15496321915292927 -6.517007407677313 -1.0865604368431492 -0.057173999358267454 -0.22395744665049155 -0.631768254317289 4.542432599738594 -0.04872755578664896 2.9437630859833783 0.2914654145715795 ]
[0.30675937043719526 -0.2873745771205362 -0.2732148159001955 1.9857183839676387 -0.011822047945592381 -0.15413620640235723 0.5497530931630635 0.14361151425005375 -0.8894818979752954 -0.9370235144759487 1.3874077981059278 3.7459879106966034 -1.3752460714217087 5.347868974358953 -0.049361462570422815 -1.6933537613760943 0.4603418780981058 0.022470306219069435 -1.4401498766731822 -0.782524168608511 ]
[0.5196556306156542 0.5206584392110181 -0.7823124022829507 -0.33450728911178634 -0.3909017085453635 -1.218662782041497 -1.704222223852805 -1.8014752291689557 -1.272336788549607 -0.9506877649459445 -0.05481916009972042 -0.6801766914572657 -0.393565690716674 0.48375021728922707 -2.4592213548307407 1.2650642994406212 -1.4896155884567406 -3.430983238450518 -2.1714700954350885 -0.5463108684662596 ]
[ -0.019096115290385407 0.14696259997463113 -0.18567186924835544 -0.07891986967695531 -0.22230275493948393 -0.5350758482318865 -0.006069089718050486 -0.3528614735920335 -0.17872171793610117 0.3054185119494926 -0.02381136921306194 -0.026026612888626705 0.4044559676284584 0.3823435344458693 0.34728323347911716 0.059608155103576324 -0.28734263069551585 0.33180245508039924 0.010739171232206475 -0.07126521163124291 ]
layer 1 Activation
tanh
layer 2 Dense
20 40
[-0.026952323875655347 -0.6618545902212123 0.18993157580666653 -1.1160719633036988 -0.23670297480447386 0.917109298156687 0.7625991713188901 -0.8324903289588447 -0.32920581938036014 0.5159282855972039 -1.0402967568600991 0.05137662801321323 -0.10787511150323642 -0.6074637740645487 1.4881531334562348 -0.2140288562783873 0.8228409003480265 -0.671773946364489 -0.1676308689878849 -1.1468945049478128 0.6208472999616279 0.3987470757471035 0.7097158578467926 0.6785126741859006 0.18035462079994924 1.766286657924342 1.7721319395262884 1.1734139543238589 0.264004775265563 -0.7520954933347089 0.7791874915969756 -0.6991847969932689 -0.20144848974836818 0.9754953348261239 0.2612767171473538 -1.6586473176264385 -0.5133798691530176 0.3702861080260084 -0.5093680057176686 -0.6080493062525221 ]
[1.4600194659265038 0.2139524264316492 0.5035542374032037 1.8048718225958424 0.09987205886172641 1.1217915503004392 -1.7228845444944143 0.0704849736202775 -0.3522464001624072 0.5742596311508801 0.5702923153357214 0.2883732997546468 0.08426840372880968 0.47860316466318076 -0.5063593047076526 -0.049274343459159556 0.16177676493790663 0.019576012289518982 0.6677548539945998 0.3798713277157132 0.41628331883637304 0.502967789124211 0.65876235582335 -0.3963814120898674 1.6826460077270156 1.2912525200993623 0.4756811867091719 -2.5499330840627987 -0.667087664160584 -0.5022094151359285 0.12787687969101796 2.030244102319299 -0.5005140609162227 -0.7843115354535662 0.5732775253265234 -0.2086435586060548 -0.6087278445816828 -0.22639017093979283 -0.13612061338416329 -0.48098487189498496 ]
[1.05324305073352 -0.9070669418347215 -0.08165977212302039 0.6941536583557818 0.06218536567558283 0.7103269496695545 -1.8633198372749054 -1.3486627380822003 0.035879825853061494 0.40927466787825917 -0.7515886397681669 -0.0537919991911594 -0.20845515532847197 -0.5167800205463352 -1.9550632302572208 0.642148889639658 0.12397441783961054 0.15362729520403226 -0.2865310701290734 -0.3956513221930547 0.05318321849929386 0.4912844631771967 -0.46849056988085636 -0.31390600616613035 0.5766907511834911 -0.5506455579920987 0.8368394966830773 -1.2816374830385322 1.5320199868952935 0.45431486009239846 0.5710630804079043 0.9391969116707028 0.6025173973890848 0.23010470059636162 0.036956910576053124 0.11144553146806636 -0.14074036198478654 0.15094804624021033 0.4924591682328155 0.6336901362491365 ]
[0.47486326803443735 0.4748289089401265 0.26127243656675253 1.113063402974833 -0.10547086585207031 0.5238626369746536 -0.06165308121425703 0.9778941332555066 -2.106748983159691 2.364697079381937 1.3945696685948805 0.035559727972556694 0.5085928382738627 -1.2813521684876372 0.647877281519746 0.12652088722526933 1.1792234396197523 -0.41359514423818533 0.12510841068260864 0.44712676630366627 -0.8253065327331344 0.13574383288035805 0.4062048867136405 -0.712829114456904 -0.781387072864254 1.3347649476364727 1.080217426370427 -0.1178393394907626 -0.743582701474355 -0.7415619222010952 0.8245181069636698 0.5876277424663463 -1.3941565684293264 1.3803126277761202 0.9780503436121644 -0.7598230384073723 0.2477502081481099 -0.7281906586163525 -0.45157559637249944 1.073918990126474 ]
[-1.0842543214022733 0.4001387306780178 0.5263998336332498 0.37385381190592115 0.3328649463424933 -0.09059193294907521 -0.495959018342383 -0.7958711538822714 -2.006618554632634 -0.1550709891498236 -0.05535022229952725 -0.8212813936760118 0.46085637102225374 -1.461490834296062 -0.8158181821758942 -0.33487164105053496 0.432591094748223 0.08657555924239696 -0.6400516822234047 -1.2670718905563683 1.1257803630689893 -0.7551179277535444 0.2056917063153241 -0.8849064460868797 -1.5362011594074507 1.4123163808263914 0.8924827311619057 0.1668640676774346 -0.9820124473413957 -0.7883341383516316 1.8608034742900752 -0.3339310783811227 0.6911855257061577 1.1070419686285795 -0.4214886603590208 -1.5322468942417506 -0.6717365869458497 0.4806917883918044 -0.2902561698152653 0.5217935873968867 ]
[0.12638984138044865 -1.2996337753222393 -2.093034115752436 -0.39637249923358725 0.6356615388186043 -0.044128402960836734 0.20930830960438068 -0.7815261230433995 -0.7402921767153882 0.4148868293377016 1.0760313364950496 -0.633963354528446 1.2514081069013117 -0.4948081372189892 1.2575982841885651 -1.3438327541785196 -1.5651103758430271 1.5810682390759814 -1.2053439917625668 -0.9982572615831273 2.4862981619097235 0.5328357325795754 -0.9545044761269461 -0.5974402310693893 -0.8384036990395005 -1.2709993945040607 0.16226311571216254 -0.25141581385981593 1.7940630560472055 2.6201929287307437 0.5790526081131335 1.676895731486581 0.5307971776742306 0.7574252585193021 -0.8508411960552301 -0.06711020853519016 0.5247534648009912 0.30109790333929853 -0.48591748198885343 -0.6596404938972075 ]
[-0.762436848701917 2.2266405576051316 -0.2642545370561405 -1.333565647230933 0.6280192415361046 -0.6016134338973931 1.7877074158609236 -1.2745783063571385 -0.357768118484732 -0.7526769919270699 -0.9961309509522865 0.7848759469159817 -0.534506697549932 -1.3069664998870634 0.2111201591857712 0.24308222259944295 1.1412937393902984 -0.6185396419656771 0.3038446253420086 -0.8324336152256757 -0.8451853209497788 -1.3336681604469218 1.0887701797869684 -1.0195204203340056 0.6565791017206074 -0.19879919011432548 0.5294881009999083 2.180890173967634 -0.1875443481232293 -0.08709608020254596 -0.7987947013590905 -0.8104013833703906 0.09101132725592324 0.6156106818974404 0.12046935381522275 1.1529690573075886 -0.44320025336662067 -0.34622132086542023 0.5488714619151037 1.2482641107697146 ]
[0.7874811201765198 -0.9168474254350292 -1.6012469287852513 -0.36047420990530715 0.5655703417966363 0.3035833069097139 -0.19432937388071067 -0.5216099656694743 -1.156052395746969 0.7903484705133006 0.20341786549540652 0.5177666442276951 2.144706345750392 -2.0234107921223328 -0.049245433791600096 -1.40771198187086 -0.8198590231505425 0.9536165089017773 -1.4322036787427328 0.03185138228483289 1.3495149329756717 0.9195777616323151 -0.8950598953798247 -2.8798918949907293 -0.9203847550961676 -0.7129732642501216 1.0767782970356206 -0.3733352121083942 0.039125800562294984 1.2853508002794365 0.6092651506189212 0.6222002933520087 0.3291327809642638 0.36899856141407056 0.27584197140691064 -1.230049173260858 -0.5869842478798768 0.22266143972815758 0.5596042323071123 0.38773332917537784 ]
[0.3904976583241692 -0.7926909788345126 -1.377019890215707 -0.8724180572778012 1.2708718637193863 0.21873108867228083 1.003065998086658 -0.7379207785651993 -0.7257509283549656 0.7032633186293554 1.4025067079785145 0.3554180830044056 0.2948830046105378 -1.4806535309684627 -1.3368047513750185 -0.15963010692390414 0.5496917832758048 0.05188012913977305 -0.10736782563897382 0.75596616644234 -0.007087959348690501 0.8929458044258599 -0.17837035746431668 -0.6707548022709405 1.113141852578995 -0.14033865032627826 0.9650539455616929 -0.3194560217435562 0.43553946002218985 0.6715116433548196 1.641995506137247 0.9218976893519893 0.23444171039655085 0.10756337256604136 0.6257857876241508 -0.6925303345213688 0.3272888483838985 -0.002757936863149306 0.5693050539834106 -0.6311519698511159 ]
[0.3795509904868225 1.3544679076351953 0.705472153127659 1.2434326407867569 -2.3436048283433744 0.38032904942542584 -2.239975111842733 -1.0436919779620293 -0.25606624681261453 1.000761917185681 0.24334639087470858 -1.4479753556865513 -0.7594783300777341 -0.9607937080016794 -0.42878468202755 0.8010923201142012 1.8177149478410806 -1.7673455581840156 -0.7951760682996003 -1.0739265926043071 -1.0686339234414455 -0.5451073235768954 0.9566992293202292 -0.2518030405116898 0.8574489552839547 1.853230584287211 0.8955832326092138 -1.9508523814676804 -0.5510918151263574 -0.951199462962272 -0.3608116778361503 0.2913803980657998 0.6913933304806722 0.3098359584346236 -1.0710442077060416 -0.30436048821452216 -0.8489543648263134 1.4902469404645027 -1.0780831479147859 -1.0442981360112 ]
[0.5154480790285059 1.0861567861092538 0.40232890375942665 1.09743167455912 1.0856346297145107 -1.409047630860098 0.1256203165513213 -0.2580333353581234 -1.3826610364612824 0.016433702081060274 -0.8411646101393819 2.312418191648948 -0.09549057863556783 -0.17705330497605518 -0.6518850716150212 0.36791583000738015 0.23779019511733873 -0.4976195008630746 -0.5592535087672398 0.7581696150166904 -0.24101556686455358 -0.5063400196232705 0.39306985912164527 -0.06831658295019899 0.03299966565701575 -0.42033974334627716 0.22356984002635966 -0.31783462924333516 -1.6645138869675493 -1.4519545985799558 0.2072632272827813 1.0259795166446388 0.5239869337527389 -0.925263659466948 -0.1181672448597986 0.240533895838377 -0.5392857999436853 -1.2176646682137708 1.5155233943241535 1.8687753639618636 ]
[-0.42619799209624654 0.7741525210597868 -0.5949966105279447 -0.33496351874147284 0.11706820812530577 -0.8012885272923325 0.4482230111764572 2.8773572506478677 -1.8366603897723413 2.368628444724463 0.4332580814634345 -0.3101965713945258 -0.07232012114420158 -0.3472123247452612 0.5836047361274894 -0.29197823245498034 -0.18136671815686967 0.16133601349444968 0.51433753314571 -0.34729975680884384 0.7944854765058584 -1.1025949597917348 -0.09759684856550158 0.06574465861171708 0.5841636239344725 0.14453623545876282 -1.150941235198889 0.846963558315394 0.4945074370771289 -0.6149615664472536 0.7296972766384092 0.7130182092132927 -2.7687147589321577 -0.08227787586355885 1.6966957225032815 1.318072338773405 3.9533813041164936 -0.7174547688802485 -0.8623608415665852 -0.08454996867519772 ]
[-0.5308034270954916 0.35151737838068864 0.302752626695381 -1.9049832686556278 -0.35304330642122445 -0.558937638048412 0.49926738326108566 0.3601639974763818 -0.1415526909723928 1.5637877898800039 1.3154824433539543 -1.0413689901493788 -0.9078834852381674 0.2662325279851287 -0.6521915142542015 0.15370650305360975 0.9398717527354017 -1.4013771436219007 -0.4547542722203149 0.8410911324785856 -0.40898317362104786 -0.3513791756240908 0.6265412898175806 -0.23705181964825237 -0.5311319177404711 -0.9363999580964089 0.5327818292625347 0.34469504492895786 -0.7458779420705967 0.12517311389107344 1.0830436100517327 -0.8508680332590879 0.6910462630301379 -0.2078125821372988 -0.8791272252343391 -1.0266153404974188 -0.35486531709024316 0.3249582323183127 0.5854740869534649 -0.13182971290138432 ]
[-0.3342985691465497 0.27468635816895853 -0.005586714165796228 -1.4126094895050232 0.2231053245338874 0.2065486591053545 -0.8359571207565188 -0.15438020510758643 -0.9153292727184208 1.3432932826803121 -1.367756202712267 0.09416050101106754 -1.4422843199371453 0.007757807382856548 0.1786825279223549 1.4407130536518848 0.640764470913194 -0.2104555917549312 -0.799236532471458 1.109318027785019 -0.17597587863902886 -0.10285353864133222 0.26340732741559264 0.8087359069283118 0.41804571326733475 -0.3749375357161558 -0.528728800752078 -0.5326018052239083 0.4318711948325739 0.5657157525559534 0.7899298114654444 -0.7895116800205678 0.6782284710667904 -0.5857397747980041 -0.47600006237326775 -0.5313204995629702 0.6548951841835178 1.2673094068179664 1.2604697577504818 -0.7948363303600736 ]
[0.4141404260835146 1.4725034297895243 -0.3010440443621192 -0.04594561771893903 -0.25084937959705184 -0.301089750564807 -1.4736693106955112 -1.2060975806332952 -0.29986993112250915 -0.4555966277527187 -0.027832173163164678 2.493314465598639 0.10249338861641263 -0.845676725680597 -1.4708440570751617 0.38065202241135454 -0.5323114178260621 0.5381455350797606 0.1317564298803362 1.2991712759998078 0.29370832714653916 -0.1483065145315887 -0.15934583134084607 -1.1813999908806767 0.2942729093826651 0.355741859081779 -1.3849773390430646 0.11167905564714953 -0.19949239867694188 0.8815033627312188 0.25218771132054885 -0.9033076259978107 1.0880088795618879 -0.8014612118453703 0.04132852140376224 1.3275682618886953 0.3080060987427035 0.7420778398215367 1.0481032464576023 0.2382798385233729 ]
[0.6812718696629139 0.9543064334763358 2.4998864332744657 0.0365599650889964 -2.1846045356650654 -0.259965955376144 -0.16269099414323446 0.4133794498448895 0.2897374884290288 0.2051245607717927 0.2740587436571929 -1.4266367160134186 -0.18450450927796447 0.5656191667131749 -0.3306776302435859 0.3471109053694332 0.5392433277541967 -1.2608033337934021 -0.3583117972217604 -0.7023872152923823 -0.0956083808467315 -0.8727558380193503 0.8940107986204294 1.0510880998388707 -0.2329404291282478 0.9350293082988492 -0.01509863075341214 -0.17258832044757336 -2.222507637089034 -0.9784307621862898 -0.5750973560979941 -1.6636245269178438 0.2176001043909109 -0.9315535813398139 -0.6250673740195416 -1.346857868326662 -0.924237596058312 0.3310790935549171 0.07404679720748093 -0.4194619873323955 ]
[0.03234400942603122 -0.7970633425704606 -0.3571266213642904 -0.7138926310985092 0.6767406848634037 0.04098669947121475 0.7140705352016719 -1.9040804827064206 1.2606112469723885 -0.0850325359914505 -0.37134896730170774 0.8797759432661333 0.1746377430506792 0.3511664588083718 1.133542624464092 -0.6947988607947744 0.8498062936505442 -0.18296548652626368 0.9460032923612952 -0.43255484074783834 -0.6372268739269696 1.6868993287049308 0.11639910560239577 -0.33337305837902753 0.43138369195085285 0.19268083788047877 0.8586629102507101 0.12877569771450553 0.11465815337909506 0.2298569007740329 -1.1548040954830388 -0.5071933012952108 -0.31309799378554537 0.6635958283777473 0.3279275277830687 0.26756723387378956 -0.19786900797207344 0.36385696338509804 -0.13920750976585985 -0.1967235275372832 ]
[0.4579402376727425 0.9321715209132381 0.21623153433103304 0.35922442473161814 -0.9157303860284501 -0.21778294889583197 0.051371133523183954 -0.015613627639252186 0.855576557339545 0.779939402949552 0.0780682126899011 0.8189975315887065 -0.8209941166085906 1.1438722288596697 1.5874300581943424 0.8844960074223089 1.3354236694656965 -1.605602644878708 1.0063301347074316 0.5912298810694486 -0.9015788352116209 -0.6855899079006043 0.9874583762008337 -0.4798080910482959 1.6321236852752958 0.10200062820887466 -1.280141944856485 -0.26358717648170715 -1.353292873607011 -0.6194316427327057 -1.3690211262199103 -0.3466888016431675 -0.862099643671317 -1.2501127649046222 0.5062842667347837 1.4633016290585876 1.1855005602622668 -0.8882872364772524 -0.0034478166780434164 -0.5492127192509674 ]
[-0.46759289448586716 0.9646793968433398 -0.5927529304652436 1.209893858987086 0.2294455798982397 -1.5771157377080962 -0.019677110632577897 -0.8674509040771736 -0.5813209817877878 -0.7541454192286767 -0.8192555613440855 -0.6156457642451388 -0.11010760981430007 -0.5404344558679487 -0.37196987603235304 0.27282923491188366 1.1537471453498274 -0.9448509585081322 0.34520801229575954 -0.8848978911974935 0.7672788879598144 -1.2334870415309591 1.0275911507515076 -0.25231581983202317 0.10844909066249708 -0.31812920058988853 -0.031231988241609943 0.5760628347351245 -0.11021713945075139 -0.2608580848268424 -0.8553836712290808 0.06907199082737832 1.8443102147462929 0.006145633876438295 -1.07743546880754 0.32801157727061037 -0.9675257507550706 -0.7055149946557824 -0.4408970683445146 1.5303518521427504 ]
[-1.1571328478257383 0.6492257995084512 -1.2632022608899176 0.12870445281734855 -1.897594612909481 0.5883178696405311 -0.8436381204976086 -0.7157583953641166 -0.09267327654197229 -0.35940688467172344 0.6318886555945235 -1.6750511762046487 -0.32987044799142057 0.18967714142509243 1.288203367762609 0.4137450688507325 -1.1017118105824732 0.4645467437154798 0.35347858364841134 -2.6184209637961873 0.5927626825766747 -1.2107224936748615 -0.6691105414453726 -0.4142741675686065 -0.7332901654674301 2.0660148175794966 -0.7035017820593631 -1.3164686995518102 1.2017229146146564 0.8951944624947029 -0.473587709865119 0.189086078718548 0.6263472121310466 0.06752704308560224 -0.03995829681976793 0.7002414356278408 0.5708801320279883 2.061072092402322 -2.809014546703432 -3.3628966764845014 ]
[ -0.5141987178073989 1.0347821496550713 1.6575717588860746 -0.2802942194925649 -0.7664584900136103 -0.3989223244381285 0.10521341080503308 0.014902729565816758 0.3438618795490104 -0.41341549718187665 -0.5272081295810915 -0.17785827787204284 -1.6293519165406223 1.2554379847131045 -0.1595963997554698 1.5853901767308982 1.2524689988473576 -1.1887657452709135 -0.10171212496659107 0.09267925096304043 -1.30847951933749 -1.2838358727241972 0.9628263775927894 1.0902879772117602 0.6551795237316412 0.6031994971744773 -0.9134056437960275 -0.8432521074740249 -0.648076519443625 -1.261473260818475 -0.556975227858373 -0.911280379893638 0.2134428408346937 -1.2530387383535222 -0.4642084026728497 0.8774761341957708 0.3796740499245573 -0.1654541951108647 0.004770712964958712 -0.258315659353638 ]
layer 3 Activation
tanh
layer 4 Dense
40 20
[0.019751314515270187 -0.964588631090689 -0.2462438052086597 -0.40771075777935434 -0.018003495904258426 -0.21443415017661877 -0.05245579800629997 0.2145595926085289 0.18078708242855468 0.012297154513697797 0.7613988403034484 -0.22069718745032788 0.16633153101607898 0.9066227076092146 0.338998308820948 0.10824944151758142 0.642707383638469 -0.09621142573781132 -0.015825004462822267 0.12693340736501602 ]
[-0.9250064218500581 -0.4666923458830099 -0.7007437536016858 0.5466894486542474 -0.43101808084956267 0.20514123131166379 -1.1436389660483581 -1.3640962420532527 1.0383168755663805 -0.08609053062221968 -0.6053946426818055 -1.0587063253206983 -0.014046682285099043 0.09580042661146473 -0.5288343587713752 1.335829576079776 -0.4743792785136895 1.724062519527889 1.075930593834065 0.7699278855570731 ]
[-1.4326564581121737 -0.3839477560054625 -0.674580505212295 0.4439891750748366 -0.4985205703723864 -0.42809178536286685 -0.8662778579631081 -0.6286947975769224 1.135455520777623 0.8854262564783533 -0.7654028231051487 -0.9580292463494761 0.4869597716749556 0.06245701722292073 -0.655355480042174 0.6882725533214702 -0.9019189482731561 0.5414159850518965 0.7039763343842931 0.6716461764725881 ]
[-1.0012797566253184 -0.3555146681746071 -0.3720615965267382 0.5249548212402382 -0.5811279388710686 0.3976062192079268 -1.2182593181687782 -1.2287243919187196 1.0544030559657138 0.16281518417492127 0.004041147064917802 -0.9180786183735752 -0.23669486029654224 -0.4143339579502006 0.29079870999564594 1.173579078298138 0.04057261446233192 1.6156538303517676 1.3066476186399414 0.030870104833446238 ]
[-0.3746343733603165 -0.2233198813173902 -0.5985559498094049 0.0017191336659858984 -0.0005476425715081549 -0.09269180059260121 -0.39772055880055035 -0.44636327048060814 0.36239252616740475 0.07321325779747521 0.5062663495174489 -0.27386039178504196 0.16162357747281486 0.1759749347750072 0.221953685577442 0.6764943829474878 0.3588301316903805 0.28037327208922647 0.26643554565167704 -0.7297088174850268 ]
[0.3188135841899408 -0.3669181773067191 -0.7301330538525119 0.04911804142256364 -0.4063353211546294 0.18074747688168225 0.3883624115357591 -0.3275817836851764 -0.3142303989347962 -0.20873786320584398 0.23389109402458844 0.805603256112535 -0.07545411721220983 -0.3130808703810804 0.8373844049689091 -0.44845994560352076 0.14201703706172944 -0.3841173965051504 -0.46569028174385196 0.37364635757181336 ]
[-1.179319852531745 -0.14535164377304838 -0.8329320356915066 0.7987741591219562 -0.22246107431982418 0.14581730565228473 -1.298774336981238 -0.9116460806609931 1.5655327516102238 0.1958526515410787 0.4551154616185169 -1.220963906143745 -0.14577292334614342 0.10627783743395068 -0.095036769564095 0.9682427884681456 0.16650100516163346 0.8931132983308862 0.6960883713152913 0.8299216960303384 ]
[-1.5182862668554067 -0.12350905280416456 -0.29720952983316834 0.6735249467464476 0.14109088754288235 -0.2890268371046258 -1.419211186169215 -1.0605626367697725 1.3663107783806394 -0.33808059612526087 -0.5543439270497619 -1.1712066066232967 0.28498165019550015 0.09669934517603562 0.1386337351034727 2.0560485041915912 0.6099821356391547 0.4637516736928856 1.250882276183069 0.39556221766381233 ]
[-1.2068320557388987 -0.04614969551465188 -0.6362913697119893 1.226653572642561 0.32415348050004883 0.5022497628515544 -0.954544605842276 -1.2875890452494658 1.0349329344532794 -0.10262843827455376 0.04897506709401019 -1.0899005568632918 -0.16684004248638154 0.13786205960457426 -0.06210591774679956 0.8938626191961503 0.5721785360483539 0.610816346354833 0.7323093693777627 0.42645683856811945 ]
[1.0163696606739439 0.7807227432344749 1.0935146185186224 -0.7739444899055886 0.19629792813388602 -0.6382905432440737 0.7723499777929974 1.5084720395812057 -1.0136678166727862 -0.026371543705691666 0.02587387165228736 1.0143521817407481 0.6930967928070338 -0.20133853676642224 -0.4165931852541197 -1.5882476822744491 -0.11160840543774192 -1.5110354489655151 -0.5471666716875423 -0.4234157207534049 ]
[-0.4026307124972804 -0.7455011082851343 -0.34153522410842835 0.616169915082238 0.04406307463552845 0.26408976857140426 -0.3575811706987434 -0.41065543297705476 0.6343364798320206 -0.09616041115415655 0.35503253956051406 0.05045349922773358 -0.14616390778829938 0.1957467506208047 0.6983703694924587 0.36906165104687444 0.700172976234954 0.019071793665558796 0.553592019972027 -0.3725634525022032 ]
[1.5451031374261102 -0.7120583051249387 -0.5392716115311111 -0.11292678507702768 0.22199845552115988 0.05351509350915505 1.2926875965483526 0.4921878115720826 -1.3298264323340816 -0.21294042998987933 -0.11335428006226868 1.2651916959149994 0.10148192676075794 0.23520234352479572 -0.03592628791671802 -0.8221286269890427 -0.14626138728540533 -0.1157214399592934 -0.09744115127691198 0.5316626251255061 ]
[0.4437702720890062 -0.5827418210278285 -0.2466007658676009 -0.1278984944390465 -0.22925898236447584 0.8845818837992974 0.743390010226046 0.31803740831350163 -0.7672018117257905 -0.7736428779410994 0.8847175753037292 0.7108999129270667 0.3917574428855956 0.4684854787841073 0.967397270158417 -0.29861582575114254 0.7366029593049089 -0.3908500201989625 -0.48734724706770793 -1.308254443643409 ]
[-0.9049323043658082 -0.15391491789241457 -0.21065771900339073 0.7772676721478872 -0.13776615648965518 0.5606701833985667 -0.7784208787074489 -1.099439954520794 0.8600648101863769 0.20955947429868135 -0.4195997290382372 -0.8114223013993876 0.9626895154809749 0.0774390523244709 -1.4180413192837253 1.616737765600238 -0.13307401858402076 1.1621529518658953 0.8422071783866681 0.5053393401174768 ]
[-1.3373161141067538 -0.7893909259126928 -0.0030868541285352766 1.012811077179979 -0.05375805740575588 0.15009241000949158 -1.187556963077045 -1.0866343151493856 1.3925672269875387 0.07956388458908535 -0.10081318443161034 -1.3225934579144145 -0.05219978707259823 0.03162294814695237 0.1369570794688481 1.736702528636179 0.9171844126623766 1.1720886022999806 0.5685478766510242 0.20469283383752981 ]
[-0.6469018233611763 0.3629903119008482 0.16777451131247792 0.43967371100758407 0.24136168769505065 -0.7552819757208312 -0.671357911735631 -0.07255787610790487 0.5196247198608062 0.8663736352514945 -0.8156373188608834 -0.6044395727693748 -0.6200802867228205 -0.8025941157810783 -0.8870429805852169 0.5526377316535909 -0.8698318858666707 0.5150187722898706 0.5838157907222767 1.0322396523506248 ]
[-1.1320345917685375 -0.9354586163726379 -0.803050602069015 1.7805799213324471 -0.5449697434489842 0.00567685335608407 -1.0588905732454343 -1.16740764054966 1.0491422881485977 -0.17583353779641717 -0.6172265709744057 -0.9071313417743964 0.5498774003201615 0.00973623366671179 -0.7430240990605402 0.9685512974904209 -0.19879881248685596 1.709390493227256 1.638636658490025 0.07124445154685151 ]
[0.8140107103274146 0.4443382085730968 0.475209833856537 -0.48574012741264866 -0.36778794095269957 -0.30701321571676204 0.5695632570449801 0.7024319450693056 -1.0057421383362173 -0.4286558145041153 0.5910647939721401 0.9515647493111115 0.33355778018236787 -0.3223790130743804 0.8740292163350967 -0.8882583313774288 0.8217167203739414 -1.1040458912063105 -0.7357791294496788 -0.8091060192512073 ]
[0.08909473812227436 -2.319180178990771 -0.601644116929844 0.9281732445266521 0.003288938417979537 0.3312891803961156 0.17283023554443963 0.061456322369547414 -0.3963207986201134 -0.7667228889463695 -0.3770667780409632 0.11652105497463378 -0.07455742367337076 0.2759268226870557 -0.5888358542015304 0.22633536376705193 0.03775525975831875 0.2301730249909902 0.31553583058879914 0.15897001436262143 ]
[0.8335539366449278 0.18273481585735088 0.25175759237658885 -0.7136508816400668 0.6914472514622759 0.016076459284746287 0.9064345350514038 1.162648354890858 -0.6773077689985288 0.46057088723611445 -0.016811555160238047 0.29783571621528937 -0.06997024682558116 0.6223033503548381 -0.33436821481163176 -1.035822186750036 0.028979024004845536 -1.1151887907145763 -0.5527631585223775 0.17050694320075632 ]
[0.5028472873705454 -0.11960224430175571 0.5042400869375625 -0.1725310304629914 -0.5897702173175432 0.6804046669963378 0.7594590055093419 0.28747365036588984 -0.44975782241518364 -0.31510602862779336 0.4255421440370465 0.9799027831350292 -0.07061403243181583 0.39808118610303056 1.6421727106199313 -0.7315241916672646 0.9017205054925228 -0.27667413653356654 -0.38153620560040713 -1.129466744117819 ]
[0.9985860833626637 -0.19484616552117515 0.2796646869434654 -0.9446761640360101 -0.19016128191927578 -0.27956778018012945 1.1770216037314674 0.82964387129245 -1.0919411005637238 0.09187430573848017 0.9154675239899538 1.1628267904051701 0.09448380809461451 -0.06782820775016818 0.9141515606605631 -1.336030871180898 0.9628932120131677 -0.8114701908742731 -0.7374313676503584 -0.2532116127684617 ]
[-0.23782074354621216 0.16791458100859996 -0.39179600901656986 0.4602909617704118 -0.177897871039884 -0.0032747419652301175 -0.20433578903843677 -0.014347650846651917 0.1649304102329287 -0.18154317100887782 -0.2793198504164955 -0.06136165528420141 -0.026320669551103567 0.29307177611406177 -0.2616182761619401 0.9345791147385134 -0.01949953403416114 0.6763259018979764 0.23672320502131372 0.1839856873185742 ]
[-0.30322303135790085 -0.8547472146805775 -0.5029765432415202 0.23834896148491302 -0.3304296576456471 0.20645437179115714 -0.5315759218133224 -0.43042891274707806 0.41979196763025706 0.2281828947320398 -0.6176205961559577 -0.03706138623736053 0.17115996027709213 0.7586743463647055 -0.24032979717289998 0.6717728430397691 -0.39656042741509606 0.2151408905478395 0.7060180355778994 0.3328969376504224 ]
[-0.6603113686655566 0.48718463454068967 -0.7878159272716921 0.1998128014028248 0.6455417445825885 -0.14203547282124426 -0.2423746015543975 0.42715688107888217 0.16894856579229853 -0.23619390618189798 -0.4145233288835236 -0.12222817001904789 0.29626925105816154 0.25100284398763933 0.001858936076355764 -0.3103295367068676 0.11498469731644309 -0.15806248268605622 -0.2888714163171726 1.1819592898593976 ]
[0.2741227097031469 -0.9848410559207583 -0.7897969836314542 0.37908055436628446 -0.7912722711037042 -0.13315857972959674 -0.05686130503521744 -0.3322044548805889 0.36181278094967145 0.0861874262179278 -0.4444281140046725 -0.08267818630224473 0.12139289092006897 -0.5219533398085258 -0.1913157430901205 0.19517085733553183 0.13329671503151888 0.4704586476482381 1.4608195889240327 -1.0257120935335489 ]
[1.2528218290464772 0.17986198326228964 0.1647909161544807 -0.6443431331376948 0.3879976186019898 0.05360738092969897 1.1303902861289346 0.7333846675759764 -1.1197951015120402 0.14181095020231055 0.7684395649397548 0.8820610356366214 -0.05893748352312859 0.21592573169331322 0.7653061992399974 -0.5754721544832722 -0.0899225906396127 -0.6879682988522361 -0.41345465627302075 -0.11722861801343756 ]
[-0.5658422124233417 -1.1838878253223377 -0.7881215601470468 0.5322696691979348 -0.44188876282084655 -0.1002259507714126 -0.4631090072806366 -0.7405351841439414 0.7561225687609081 -0.15579113807563838 0.1312590601155679 -0.7932165498490233 0.1787130479699261 0.41027929268577074 -0.4477040270779274 0.6738556405101237 0.2834615496435415 0.9383911552787363 1.1523570354988601 0.8630018399418479 ]
[1.1071426761681 0.3552548244613635 0.8725158823225908 -0.41243252608359315 -0.02557498305540968 0.1144772115591848 1.261377269801708 0.9942465562654574 -1.3122740113095417 -0.1753481529555952 0.04696985741599173 1.5387771272783142 -0.25385129633811526 -0.1402123590196927 1.0812734809897 -0.8624463294232184 0.2836574599144708 -1.116608647657368 -0.4308620270197472 -0.6320821328931887 ]
[0.9679943956269162 0.5373014997263863 0.8005321288655399 -1.3496025687426443 0.4033102210161572 -0.5318487851224114 1.312699681557667 1.6179558046151645 -1.4655720241996262 -0.6196463168023574 0.4009468526783591 1.06294904319997 -0.7563264077745576 -0.17923004680913687 1.01985988848957 -0.806252331576282 0.3972331500347979 -1.5327627383849893 -0.897906226698897 -0.1653592778249554 ]
[0.7214461160395278 0.10576960493966114 -0.3087239692360524 -0.6969549495848102 0.1933535527035346 0.08411720346478664 0.5145081889076728 0.11736988115881247 -0.17586855382971447 -0.18005390191390178 0.3158401496033522 0.47221359295120124 0.0700498846681196 0.08000119196971411 0.8834216161305334 -0.2960410393237052 0.1606107894107638 -0.18014250428870163 -0.1727047539093798 -0.0810278557338011 ]
[-0.8275983405270583 -0.3103687368862374 -0.4545738441309812 0.41949820688396516 -0.11232406749226079 0.06624258860209399 -0.35510761042563543 -0.37469020097806105 0.48234870425577586 0.07493798698460925 0.2311958593647381 -0.7142966793223018 0.025564337280890796 0.06275607146764697 0.9512537702603961 0.8769107999313165 0.938466231364481 0.4737818155769293 -0.13478072881864617 0.0402240355418252 ]
[0.9716725278777524 0.27423650053693 0.39690958790737996 -0.6739599765917295 -0.10828423833242669 0.6190187881562342 0.8147890131777856 1.4142289066807214 -0.8786033982120314 0.6661686825301891 0.0984169811051109 0.7670334581717673 -0.6198945374122867 -0.21665402824709543 -0.1282379781135132 -1.3583280254973467 -0.08476362761242348 -0.7682068053541597 -0.9543137757643855 -0.06418651728706702 ]
[0.2114685685535455 -0.6781377318520296 -0.14298726218510616 0.19327606928792532 -0.48582063831135447 -0.16954559414861103 0.2199183582295744 0.4165776965147193 -0.5592028041995607 -0.07810101927908052 0.5161546124088243 0.4180207452574231 0.311065777478987 0.1504410141555533 0.28001514516139064 -0.3333476524389962 0.6807186061730315 -0.37045300289361116 -0.2726007414166449 0.03990403286621021 ]
[-0.29812340117173225 -0.49679742038518176 -0.16561605333023602 0.6331821192470138 -0.06366357703640163 -0.5380986127209567 0.35742245028842334 -0.3514655516601821 -0.0819074924914323 -0.5653008393090592 0.4027457654251324 0.015115935119840237 0.4975964236957436 -0.0020653478675933252 0.11444353179059168 0.10735558493410616 -0.1507575635406259 -0.04199428209950483 0.6092903989599135 -0.15999455185939493 ]
[-1.26757820676835 -0.10006592297851677 -0.4553755643067417 0.9281721362816487 -0.5687938848109061 -0.08527679979630828 -1.1288184759123603 -1.479875162085275 1.169183836969488 -0.024660973224037912 -0.4825960164411756 -1.1220185743054065 0.2761619847037385 -0.15435931264465072 -1.0425320710230341 1.7818210533471839 -0.5304582418256903 1.0173969776215486 0.5935545553078286 0.6849234985542391 ]
[-0.1638342864326005 0.37849118092130274 -0.5347307305717653 0.7724389230029037 -0.027856325143352158 -1.4149405204037626 0.11862270542715116 -0.06215765928947767 0.2283890628943109 -0.06421789278838287 -0.3294795708840459 -0.16503279350738623 1.4376467291473496 -0.009320853352029833 -0.21853341247764163 0.17375517904484314 -0.5350669700975262 0.14389850464550324 -0.49444012038748425 0.27760974699566227 ]
[0.7627122993717547 0.35648450711410773 0.5685148743886529 -0.4096749649623582 -0.5323566888515979 0.024766013254623166 0.7145296922950086 0.6446853560978426 -0.7077158366145335 -0.2022640389517304 -0.30705185023509657 0.8632014610408358 -0.002511875960848559 -0.5309638195483288 0.2460656050225395 -1.1331492795006277 0.02723747595392243 -0.5665573097699375 -0.6595034185345185 -0.1222982484759027 ]
[0.20478200619772455 0.14064927614941888 0.665954872668126 -0.8832954875019934 0.6612017651921812 -0.4826322812722922 0.4180780017072921 0.8591409753419501 -0.7345005907257403 -0.20362091046295108 0.2838791658053338 0.4648724091047923 0.07096360268197605 0.6150622617934982 0.0569975294720834 -0.8184461936362024 -0.2910013111200425 -0.4004354025977208 -0.7810333333993439 1.196600014267429 ]
[-0.2456972116181894 -0.5302029987665657 -0.5124833032151513 0.7270915581482572 1.4204186226117999 0.2928931956009791 -0.7221646058927355 -0.5553025032222296 0.7816733588940257 -0.42046874034383036 0.05737273542878626 -0.02962133517384629 -0.025541965424727784 1.253547795269013 0.0749290343439118 0.0997843697115749 0.26196154177436815 0.43239758556538727 1.224420298361619 0.5233615263933254 ]
[ -0.33934654796273556 0.42512741267588067 -0.0315051641788458 0.36174540253411436 0.36044278376541306 -0.6399496676705339 -0.5207997094093997 -0.24335963768390015 0.4537769278339729 0.6424750219372247 -0.5892158111876187 -0.56016115467769 -0.6023790267498121 -0.4479397707683235 -0.6435051512708913 0.4129396282348297 -0.5668550463793885 0.46406472990447795 0.3489124079864421 1.081911695271009 ]
layer 5 Activation
tanh
layer 6 Dense
20 1
[2.0944878044557838 ]
[0.29073634083098565 ]
[1.4293712409942296 ]
[-1.1711075394954673 ]
[0.9431442667645346 ]
[-1.0199228019809035 ]
[2.4226371239918096 ]
[2.197455406153979 ]
[-1.911083843246165 ]
[2.8067138862334984 ]
[-3.4763639812160885 ]
[1.4661494354179376 ]
[-0.9950058146932168 ]
[-0.9436659624600497 ]
[-3.3000361465722676 ]
[-1.3209465285762 ]
[-3.1739269206437553 ]
[-1.9949012518848837 ]
[-1.2954059274236551 ]
[1.5817919220629055 ]
[ 3.1590885667304605 ]
