layers 7
layer 0 Dense
20 20
[ 0.15730168 -0.5505493   0.17368057  0.24498157  0.12294688 -0.00778696
  0.2485977  -0.5441295  -0.30361038  0.2590183   0.08480686  0.09818294
 -0.12942043  0.34186184  0.46197596 -0.20574705 -0.11066432 -0.647614
 -0.38495472 -0.2623499 ]
[-0.18999134 -0.29828188  0.13463748 -0.03337365  0.12847346 -0.16000816
 -0.14478785 -0.6521627   0.00357917  0.04802132 -0.6442612   0.44005254
  0.20675717  0.33116788  0.09036899  0.53496367  0.15199375 -0.28702992
  0.3326542  -0.2841237 ]
[ 0.31578857 -0.4877027   0.49817243  0.5531762   0.17117633 -0.4397116
  0.03199809 -0.6907014   0.20364237  0.41569564  0.00214376  0.06907156
  0.01622131 -0.16189682  0.23655483  0.12219083 -0.13862668 -0.24122672
  0.264535    0.36058208]
[-0.11917493  0.02916193  0.18674392  0.04889647 -0.13252373 -0.3858953
  0.34328115 -0.3980893  -0.30645362 -0.32444352 -0.13119596  0.11602053
  0.21755181 -0.06693319  0.11111567  0.10279827 -0.2645054  -0.63973886
  0.23901343  0.16061197]
[-0.0812819   0.31414023  0.08867219 -0.3622189   0.52740556 -0.3067116
  0.1181943   0.2855903  -0.44066572  0.14027807 -0.18815316 -0.332582
 -0.12142547 -0.08535837 -0.08999865  0.23867396  0.08159039 -0.22671153
  0.2946722   0.18164423]
[-0.3655766   0.47160855 -0.16988991 -0.56250626  0.25319526  0.27660188
 -0.11158568  0.3576054   0.47230703 -0.4621631   0.43633687  0.10775504
 -0.41612637 -0.46660957 -0.19553715 -0.10825811 -0.35171404 -0.20623052
 -0.1644088   0.19503045]
[-0.24991937  0.31684816 -0.21305113  0.02271905 -0.18017462  0.32851765
  0.31723666  0.38853776  0.15815753 -0.03826571 -0.05328031 -0.61344
  0.25720415  0.15885757 -0.03230686 -0.18836328 -0.22496442 -0.317609
  0.18822642 -0.3670874 ]
[-0.04762182 -0.19419871  0.10922904  0.26372004 -0.12418065 -0.00506068
 -0.36491835 -0.18716413 -0.04760538 -0.15207924 -0.03987636 -0.0765894
  0.27579167 -0.15625753 -0.40227312  0.22518024 -0.21392584  0.47126067
 -0.40519717  0.2672497 ]
[-0.34232175  0.37134543 -0.3063565   0.06778342  0.07701107  0.1853105
 -0.17788015  0.35387063  0.17882013  0.01603729  0.07678612  0.32675746
  0.2523661  -0.5806619  -0.08972806  0.09901267  0.07732495  0.0658524
 -0.20601739  0.36947417]
[-0.30368903 -0.1510625  -0.33732983 -0.08373164  0.4617737  -0.02463905
 -0.5365468   0.13611034 -0.26699412 -0.47205696  0.09657841 -0.09426548
  0.11910717 -0.2419408  -0.35025248 -0.12851132  0.24702232 -0.37993446
 -0.24330167  0.02368841]
[ 0.19776239  0.19748794 -0.64734375 -0.37970835  0.20185615 -0.25724664
  0.13451774  0.10114789 -0.22267084 -0.30655935  0.02220414 -0.12196665
  0.21386628  0.1767669  -0.11253421 -0.11991308  0.49396497 -0.14572407
  0.3959953  -0.05478957]
[ 0.35293823  0.42829734  0.41907212 -0.5382169  -0.20534809  0.5932682
 -0.03742015  0.7042727   0.16005334  0.7163503   0.0973857   0.05716861
 -0.23082496 -0.40783855 -0.5513114   0.36560774 -0.41898257  0.48188967
  0.1812909  -0.14212044]
[-0.33596843  0.2267718  -0.4404453  -0.24909163  0.12483004  0.12975636
 -0.16357419  0.27835205  0.43285403 -0.02015484  0.10798843 -0.32285446
  0.32463002 -0.10420938 -0.12607493  0.05464685  0.18674222 -0.3304628
  0.47932446 -0.5376196 ]
[ 0.18436581 -0.61538297 -0.11188799 -0.06524975  0.36065942  0.2911208
 -0.4082864   0.06357979  0.35008222 -0.13367966  0.16586642  0.03214357
  0.35381204 -0.27284235 -0.04412556 -0.07503425  0.3631279  -0.3067582
 -0.2712268   0.03819168]
[-0.14042361  0.12891088  0.4217302  -0.28137618  0.11130274 -0.12558146
  0.27326515 -0.10584156  0.561416   -0.01653897  0.14944947  0.23660949
  0.01295539  0.1825516   0.42839018 -0.5062083  -0.11627913  0.14517556
  0.27722713 -0.02849538]
[-0.02132802  0.41142672  0.43090063 -0.36626902 -0.23832968 -0.09821645
 -0.06539289  0.88214684  0.37733123  0.37983894  0.8333552  -0.12644105
 -0.41003767 -0.33078438 -0.23730882  0.3455755   0.28838515  0.13495792
 -0.13908228 -0.28771135]
[ 0.27158985 -0.36189333  0.24910158  0.13642237 -0.46266952  0.00070002
 -0.35620105 -0.20025118 -0.18166704 -0.02220102 -0.3579197  -0.18799871
 -0.60836715  0.47794572  0.25285214 -0.06355101 -0.05294468 -0.47997034
  0.19702624  0.14733632]
[ 0.19117285  0.7512964   0.26581562  1.0528442  -1.4638999  -0.31404892
  1.3357334  -0.31400937  0.3217805   0.35157958 -0.34600312  0.95242935
  0.16967686  0.8458714  -0.27218068  0.4832336   0.21321253  0.23212871
  0.3768723   0.8082565 ]
[ 7.6496536e-01  6.6628885e-01  2.2850934e-01  8.0216855e-01
 -8.5055768e-02  9.0757030e-01 -1.1204103e+00  5.7992887e-01
  1.6293453e-01 -6.2720019e-01 -1.5360475e-01  1.6813584e-01
 -7.5281936e-01  4.9303891e-04  1.3943979e-01  6.6721672e-01
 -5.9975684e-01  1.2947784e-01 -2.3647426e-03  9.3288258e-02]
[ 0.0699714  -0.35398322 -0.01655365  0.6650161   0.34632638 -0.52837354
 -0.10132324 -1.1147888   0.15775482 -0.16929373 -0.54144263  0.06462865
  0.13550341  0.47272468  0.5206607  -0.5944974  -0.25540495 -0.46959344
 -0.31667647 -0.12229419]
[-0.06037996 -0.19530073  0.15636069  0.05559825  0.03260821 -0.03103767
 -0.02617595 -0.11089484  0.00196155  0.0353708  -0.07090749 -0.00072423
  0.02321726  0.07390948  0.18840317 -0.09967706 -0.15461485 -0.10494987
 -0.04195464  0.02416104]
layer 1 Activation
tanh
layer 2 Dense
20 40
[ 0.05209675 -0.01894993  0.09838492 -0.0654559  -0.08236789 -0.01424942
 -0.27215618  0.05758881 -0.42910433  0.10342831 -0.3836329  -0.12876204
 -0.15791713 -0.3952412   0.06515335 -0.02155313 -0.25152922  0.10966866
  0.12110591  0.22116593 -0.23290193  0.17329505 -0.2059717  -0.18111683
 -0.07975438  0.1196921   0.01835826  0.01197586 -0.02920627 -0.11546177
  0.16333541 -0.33181408  0.23998627  0.29170716 -0.04807745  0.08302764
 -0.29031277 -0.20477074 -0.15463492 -0.13752335]
[-0.46645012  0.083252   -0.24369176 -0.0765667   0.26875845  0.21106653
  0.1767827   0.31240243 -0.32095525  0.29966885  0.20361415  0.23558551
 -0.2468391  -0.44714865  0.49452555  0.11555608 -0.30144766  0.07625603
  0.01410894  0.1756335   0.11909675  0.03283915  0.38402128  0.01564475
 -0.02819665  0.05249624  0.18176985  0.02182067 -0.3388891  -0.14043629
 -0.16726446  0.38560438 -0.22591454  0.38156876  0.10790557 -0.02597244
  0.1455842   0.3719355   0.01493342  0.1538256 ]
[-0.01131345  0.09061267  0.26146144 -0.10023267 -0.04174108 -0.22487113
  0.23356345  0.02239713 -0.27548972  0.1317048  -0.13548872  0.05687381
 -0.05649805 -0.32871893  0.06387372  0.08365257 -0.22729288  0.19676541
 -0.28423974 -0.18650593 -0.11628157  0.22628005  0.06908303  0.09410767
  0.20050098  0.00125771 -0.09247442 -0.18192565 -0.02215092  0.12394179
 -0.01741151 -0.3750384   0.06831215  0.17021969  0.32751283  0.00296064
 -0.11378538 -0.33905962 -0.23072092 -0.21087183]
[-0.07348     0.19750118  0.0553045   0.3365925  -0.13315962 -0.16683058
  0.2489831   0.09633672 -0.38768053  0.49946064 -0.41252083  0.13103582
  0.1268986  -0.02636479  0.03716729  0.4147315  -0.01971488 -0.27853096
  0.02109491 -0.25358427  0.09586853 -0.15991153  0.20533143  0.13776776
  0.22400573 -0.24849573 -0.21668665  0.23664904  0.29444122 -0.02261006
  0.05170589 -0.3780672   0.07913105 -0.08380388  0.18218087 -0.12971123
 -0.03776953  0.00664253  0.02547075 -0.2152085 ]
[-0.01053136  0.12460908 -0.27821028 -0.12677042  0.10740372 -0.20748027
  0.03437197 -0.4029174   0.606496   -0.10966584  0.08238239 -0.10920862
  0.22238295  0.2282927  -0.31127685 -0.5248172   0.27059528  0.0042376
  0.5861096   0.13625506 -0.30823684  0.29039654 -0.29880643 -0.1868575
  0.13913788 -0.22078723 -0.32825503  0.20066616  0.088721   -0.26293197
  0.11672409  0.3982297  -0.22263917 -0.30333215 -0.35248473 -0.09886027
  0.02841512  0.19665876  0.17211579  0.04285073]
[ 0.04852741 -0.38551033 -0.13064085 -0.319389    0.00440343  0.15583849
 -0.12661466 -0.10250011  0.2966848  -0.07111014 -0.24833828  0.21398032
 -0.09030265 -0.04082558  0.1821284  -0.18236515 -0.09279593  0.28371355
  0.2267157   0.39144996 -0.28557014  0.22125779 -0.05106573 -0.45125708
 -0.13071145 -0.27117956  0.31559443 -0.25837228  0.04452001 -0.13969539
  0.08234041 -0.07130408 -0.05090294  0.27435032 -0.11079746  0.24705882
 -0.1834169  -0.05635643  0.05901876 -0.29263178]
[ 0.01545474 -0.02807994  0.4757271  -0.00638042  0.10734206 -0.05092368
  0.25372085  0.6393851   0.17664327  0.22485225  0.47197646  0.0659705
 -0.05554552 -0.14756896  0.05644248 -0.20550093 -0.29971516 -0.13193381
 -0.02827558 -0.43546048  0.3531909  -0.14406513  0.13215235  0.04248259
  0.38078505  0.35577732  0.24056897  0.26821527 -0.1445465   0.2177884
 -0.43245652  0.3455758  -0.03518211  0.10480011  0.10300451  0.08195876
 -0.22929098  0.25012034  0.15406999  0.11656891]
[-0.10708229 -0.73370916  0.08359953 -0.18564934  0.24112809  0.3499131
 -0.44290018  0.0995843   0.21016242 -0.516138    0.6054013   0.31039897
 -0.04897793 -0.2950996   0.29077336 -0.12267245  0.18155913  0.44742846
  0.38540548  0.13019992 -0.49294662  0.21459053  0.05039496 -0.20050661
 -0.20527887  0.4705768  -0.23274514  0.13245153 -0.29239506  0.30719227
 -0.13898963  0.30313048 -0.3270294   0.23457749  0.43223265 -0.26940215
 -0.00780708  0.35884264  0.21664537  0.12405531]
[ 0.05662426 -0.16536424 -0.36152834 -0.26655126 -0.02454783  0.04176706
 -0.2223122   0.2655982   0.0174637   0.04711678  0.10908578  0.07711744
 -0.05100758  0.01535214  0.00696201  0.20167394 -0.3875659   0.17287533
  0.02822256  0.22643967 -0.10186303 -0.24056296  0.20377366  0.05138265
  0.07272815  0.11600973  0.03900761 -0.19841522 -0.2536979   0.19586986
 -0.0903139   0.5158003  -0.33463916  0.02369097  0.32323194  0.31495816
 -0.07210286  0.18622847 -0.1304085   0.11977769]
[-0.10367099  0.22419788 -0.04697581 -0.02256241 -0.06347833  0.04101756
  0.26127365  0.12820877 -0.02369238  0.05034585  0.2778866   0.19132642
  0.04676047 -0.26690632  0.30126086 -0.08899074 -0.49217153 -0.01710534
  0.04514865 -0.06194684  0.05686738  0.11441804 -0.24437141  0.31277937
  0.33152762  0.351216    0.5037439   0.07250615 -0.0357106   0.06500049
 -0.26513878 -0.03391359  0.07977381  0.20393357 -0.00487984  0.10457311
  0.2393763   0.1270217   0.06472243  0.04827043]
[ 0.08876232 -0.12960055  0.14600231  0.19243424 -0.26379892  0.252897
  0.20005779 -0.3838383   0.11055948  0.02393061  0.17328595  0.13349266
 -0.05840313 -0.21583682 -0.13052176 -0.11751926 -0.00584103 -0.2463901
 -0.25630715  0.15337278 -0.23481539  0.0213014   0.01128052 -0.03435949
 -0.0850503   0.21240923  0.1322109   0.14183924  0.26376742  0.21481054
  0.504594   -0.14049011 -0.04770289  0.1522339  -0.03601477  0.21870753
  0.30147868 -0.07455312 -0.12395883 -0.01552815]
[ 0.11416385 -0.01223444  0.05990531  0.1755414   0.07925361  0.04810362
  0.28545624  0.1818834  -0.04101014  0.11909223 -0.00104213 -0.04428452
  0.06345233  0.1367529   0.38198912  0.35863096 -0.3811676   0.1373989
 -0.22200356 -0.03266007 -0.04312528  0.2068192   0.23882009 -0.28980806
 -0.23842531 -0.21459788  0.35629934 -0.02804771  0.06058655  0.10413369
 -0.18760441 -0.0383877  -0.1946816  -0.40924165  0.17220125  0.32248303
  0.18982552 -0.1025513   0.1772589   0.09418972]
[ 0.37896183  0.5391921  -0.16487232  0.14974199  0.05592991  0.18096069
 -0.00880037 -0.06799752  0.2721354   0.07469691  0.40625274 -0.12760994
 -0.33161092  0.29771903  0.14661592 -0.17802182 -0.31826422 -0.64511466
  0.11707085  0.01252596 -0.09056264 -0.06017192 -0.15706103  0.39898095
 -0.30051148 -0.2572059   0.2370484   0.07530566  0.23979804 -0.2283026
 -0.05555702 -0.00089445 -0.12848382 -0.18990088 -0.00102247  0.2826608
  0.16327839  0.28789428 -0.32873288 -0.15250927]
[-0.32701737  0.43289334 -0.14208966  0.30203244  0.0488093   0.24310367
  0.5587326   0.07848971 -0.04113891  0.5976591   0.08642944 -0.01173049
 -0.14248547  0.1964726   0.02110435  0.3843048  -0.11947254 -0.07819796
 -0.2334835  -0.44382396  0.1645679  -0.33865416  0.0298075   0.37846312
  0.20214723 -0.02058018  0.14497438  0.31817642  0.2885797   0.08553462
 -0.22828884 -0.34572595  0.4044373   0.16346526 -0.17191039 -0.04700139
 -0.03490836 -0.5580891   0.42251664 -0.20511155]
[ 0.07936071  0.10825632  0.5865221   0.21635835 -0.23474592 -0.23585342
  0.13902567 -0.01226462  0.10440604  0.23703937 -0.03602611 -0.45995337
  0.19893627  0.24948558  0.3461776  -0.12121903 -0.13233656 -0.38463628
 -0.16564637 -0.25877824  0.41028443  0.17159021 -0.15281376 -0.16059764
 -0.320318   -0.3643464   0.3696466   0.31187943  0.13503526 -0.17166872
 -0.20972157 -0.31606954  0.251108   -0.26526856 -0.15770666  0.28495267
  0.09971505 -0.05251969  0.16867447  0.00553454]
[ 0.10586637 -0.10806428 -0.3717759  -0.4164279   0.24698415  0.28720063
  0.13405429 -0.00073002 -0.3026821   0.43143454 -0.01751807  0.42650917
  0.20204185 -0.5591557  -0.01697783  0.24921058 -0.20471078  0.02094158
 -0.3323971   0.03234258 -0.26968315  0.2505599  -0.17734824 -0.37320557
  0.04367875 -0.14357617  0.27241337 -0.00474475 -0.19516286  0.4128679
 -0.10699704 -0.04120734 -0.13179865  0.24453093  0.32278326 -0.11066904
  0.15494058 -0.21053524 -0.11961815 -0.26673606]
[ 0.14589687  0.35452008 -0.19024199  0.06862555 -0.02093816  0.14829727
  0.18652001 -0.23980333 -0.17229868 -0.00715343  0.25134748  0.20106205
 -0.03061516  0.10719148 -0.02292942 -0.19075167 -0.1498812   0.21999572
 -0.13384184  0.22705251 -0.08089846 -0.22502412 -0.14404213  0.08838013
 -0.1760502   0.02325123 -0.22607525 -0.16154714 -0.25752705  0.03014478
  0.24587134 -0.356151   -0.30638346 -0.36913562  0.17826739 -0.21799248
  0.10580386  0.09250015 -0.03851056  0.19391185]
[-0.27229977 -0.2699444  -0.41857547 -0.35036084  0.45758584  0.35047144
 -0.07076237  0.28346503 -0.24258979  0.27749327  0.16616935  0.37382436
 -0.37907398 -0.11146668  0.1972772   0.01637799 -0.25717023  0.0917981
 -0.18787597  0.02733086 -0.04137274 -0.01492799 -0.24886449  0.2072382
 -0.00600593 -0.06119734  0.31338137  0.01538571 -0.25724983  0.18904884
 -0.31161168  0.3375372   0.16116013  0.23982501  0.27206767 -0.3518774
 -0.13961606  0.19972391 -0.0330901   0.17665559]
[-0.02797062  0.09009557 -0.11826678  0.06612336 -0.07312669 -0.10599048
  0.11146908 -0.06746114 -0.16560316 -0.06525684  0.17654245  0.06724878
  0.00892201 -0.13504948  0.11030197  0.23203829  0.06365776  0.08328799
 -0.21181005  0.25396124  0.07455222 -0.21861014  0.0664797  -0.02323443
  0.24977168  0.16898708  0.2439578   0.28610152  0.11954204 -0.2539286
  0.21053219  0.08768637  0.06161335 -0.24486424  0.01892209 -0.30490613
  0.03823536  0.13111454 -0.02657532  0.0514829 ]
[ 0.17921352 -0.09379377  0.0138944  -0.02043766  0.1708111   0.11498804
  0.00628748  0.21320872 -0.0130054   0.14315972  0.16000962 -0.21979052
 -0.16860823 -0.08300927  0.22841342 -0.08682833 -0.177038    0.16895413
 -0.16579233  0.03527313 -0.07232599 -0.30749726  0.20078345 -0.14894275
  0.08070202 -0.18972185 -0.02076948  0.244326    0.02883578 -0.18712254
  0.0829495  -0.08313975  0.06134837  0.15559751 -0.18622372 -0.4340274
 -0.18296918 -0.02019276 -0.15187784  0.1770979 ]
[-2.24527009e-02 -3.35621648e-02  2.19103470e-01  8.37128013e-02
 -1.02566019e-01 -7.60510415e-02 -3.47494632e-02 -1.02221578e-01
 -1.11109145e-01  1.67468900e-03 -2.81031299e-02 -1.53160021e-01
  7.94781670e-02 -1.96943758e-04  4.34234254e-02  4.70962934e-02
 -5.71946204e-02 -5.05515076e-02 -1.37807235e-01 -1.71470314e-01
  1.33094132e-01 -7.17278793e-02  2.89010182e-02  1.70332566e-01
  3.95736378e-03 -8.55136141e-02  3.26167084e-02  3.35751250e-02
  1.64822683e-01 -9.35678631e-02  5.43646924e-02 -2.90343881e-01
  5.90279661e-02 -9.95069668e-02 -2.61041690e-02  3.03645916e-02
 -1.89801212e-02 -2.63904594e-02  1.07262090e-01 -1.33506646e-02]
layer 3 Activation
tanh
layer 4 Dense
40 20
[-0.11182515 -0.14066043 -0.1546373   0.07192088 -0.0271758   0.01315802
 -0.0587801   0.13574956  0.07272877 -0.21920657 -0.07489903 -0.16759753
 -0.1099916   0.14824404  0.10679352 -0.16233788  0.24952993 -0.0477537
  0.05790383 -0.09491912]
[-0.32768703  0.18969527 -0.08966801  0.02848094  0.10353214  0.16602282
  0.3049923  -0.21657762  0.34995008  0.27839074 -0.1477241   0.28040543
 -0.09872361  0.12967697  0.04164327 -0.08415167  0.23301972 -0.19271244
 -0.00482109  0.21323882]
[ 0.09340011 -0.06925378  0.24399626 -0.24202798  0.19710118  0.2098761
 -0.344904    0.1753284   0.05479759  0.04089852 -0.03884073 -0.04153466
 -0.31762403 -0.19369102  0.08231965  0.04266779 -0.30059096 -0.2782454
  0.04229727 -0.40974715]
[ 0.00898172  0.07573906  0.3017267  -0.0968537  -0.05576074  0.21393284
  0.23436357  0.15919244  0.13256696 -0.03853763 -0.25434965 -0.06270672
  0.21576814 -0.23647515 -0.09638117  0.03666741  0.32170606 -0.20164542
 -0.19076265 -0.24064882]
[-0.05674718  0.02208557 -0.09802679 -0.0257278   0.11908437 -0.06264918
  0.2645257  -0.07700388  0.02562802 -0.02550074  0.28539577  0.30043972
 -0.19002968  0.0184421   0.08648416  0.30345523 -0.0626743   0.25863484
 -0.1449266   0.31352633]
[-0.238079    0.20987749 -0.2052385   0.2465795   0.26266703 -0.06962396
  0.17957932  0.1795709  -0.15502675  0.08151603  0.37491873  0.04343807
  0.02463681  0.0466642  -0.25086707  0.32801715 -0.08849865  0.18372798
  0.22559425  0.12503344]
[-0.05738932  0.30877772 -0.02237539 -0.24400431 -0.13724984 -0.18825611
 -0.17533806 -0.04559121  0.0108218   0.38326782 -0.2709673  -0.21106045
 -0.11397036 -0.25487775  0.14339307  0.23003012  0.0470872  -0.03424419
  0.09362005  0.10089757]
[-0.20779952  0.24318255 -0.08634865  0.09811071 -0.339663    0.1102128
  0.05281512  0.23826943  0.21724313  0.14933398  0.0856628   0.16251147
  0.23431337 -0.30216837  0.16126934 -0.15407008  0.12877086  0.20718177
  0.05305355  0.11724386]
[-0.15054134 -0.24579751  0.11472323 -0.00812392 -0.02110915  0.01826931
 -0.25889605  0.17038518 -0.02061323 -0.06756485  0.01362867  0.193267
  0.15147406  0.12517126  0.1257456   0.13781923  0.30399546  0.35187605
  0.05284418 -0.3347746 ]
[-0.25562546  0.42794517  0.32311913  0.11093751  0.1425982   0.15908325
 -0.01293344  0.17975944  0.15227653 -0.22999002  0.10575034  0.0294678
 -0.1583397  -0.41842815 -0.06210929 -0.2232316   0.01045479  0.10034695
  0.3310981   0.01732747]
[ 0.11541629 -0.01181253 -0.2868402   0.01945728  0.06367856  0.11562765
  0.09874903  0.18229645  0.06111035  0.17029712 -0.31298235 -0.13808753
  0.0449706  -0.31316692  0.06983229  0.02174528 -0.19947444  0.3053271
 -0.06287025 -0.2912106 ]
[-0.04531506  0.08397424 -0.1202777  -0.18140188  0.27372864 -0.10832745
  0.24721724  0.16261192  0.01695371 -0.14192072  0.25964573 -0.03616257
 -0.00671719 -0.01857297 -0.3092898   0.16439848 -0.16848886  0.12880826
  0.26458293  0.14923221]
[-0.0669138  -0.26275906  0.15048563  0.14849997  0.09186029  0.05158929
 -0.09276035  0.16172382 -0.19400957  0.12514047 -0.26328874  0.2407168
  0.05099006  0.15505694 -0.02593655 -0.24945201 -0.18179317 -0.17016292
 -0.20711145  0.14393468]
[-0.34400174  0.08758329  0.37092447 -0.11978146  0.14947906  0.12601124
  0.17468865 -0.21443024 -0.13938455 -0.01326569  0.03009805 -0.10836605
 -0.1321268   0.24868272  0.06284855  0.21557418  0.4901224   0.08280686
  0.32782182 -0.35415965]
[ 0.17372599  0.27727506 -0.33478138 -0.13621208 -0.14536306  0.07765456
 -0.1641628  -0.1906805   0.09258854  0.12634106  0.2587237  -0.1874374
  0.02677039 -0.18051413  0.0728763  -0.07467888 -0.1747776  -0.1496398
 -0.2995516  -0.00711906]
[-0.04236971  0.18518238  0.03899478  0.16333151  0.08407986 -0.15728182
 -0.04806435 -0.12180506 -0.2278014  -0.08393349  0.33490676 -0.22010402
  0.18252    -0.35126707 -0.04037441 -0.11238659 -0.10889687  0.01016244
 -0.03232627  0.19069596]
[-0.02387168 -0.43264398  0.26043168 -0.17788316  0.1488858  -0.02388828
  0.14133483 -0.06318232  0.2805459  -0.02787616  0.03643809  0.3325022
 -0.00463962  0.1074229  -0.26369748  0.24794018 -0.00693096 -0.10293034
  0.1375252  -0.06309739]
[ 0.11359346 -0.15545385  0.09385078  0.21605654  0.14573246  0.23856702
  0.19649234 -0.09944615 -0.27352425 -0.08841693 -0.09595587  0.11401384
  0.2836425  -0.20445633  0.26310807  0.18855457 -0.22876704  0.07231831
  0.00509355  0.11035991]
[-0.03595344 -0.46559408  0.04882634  0.23218425 -0.1571515   0.02226405
  0.29466242 -0.18148126 -0.17446391  0.0441688   0.25561264 -0.03410579
 -0.23480372  0.22091451  0.25085306 -0.0106674  -0.18075973 -0.0198005
  0.13301073 -0.3091869 ]
[ 0.17875732 -0.15667184 -0.1770421  -0.19954966  0.13761225 -0.10072666
 -0.06404711 -0.0035667   0.15433554 -0.03086427  0.32316315  0.12789984
  0.0372761   0.3022408   0.20449993  0.28749445 -0.09509368  0.20503333
  0.22888348  0.13875978]
[-0.05638454  0.27048564  0.2095562   0.16449733  0.04923614 -0.07770643
  0.03539258 -0.20817131 -0.01687805  0.28972358 -0.3627114  -0.22587094
  0.23231393 -0.18341249 -0.26366994 -0.2718198   0.09614839 -0.18618874
  0.17063732 -0.22659248]
[ 0.3136848  -0.3911344  -0.09704836  0.0645344  -0.21678491 -0.0917012
 -0.34489655 -0.03954653  0.25690168  0.00685431  0.14700675 -0.2296561
  0.06808873  0.14178328 -0.04990534  0.04468385  0.01363569  0.15026952
 -0.1588265  -0.28610113]
[-0.03070276  0.31790486  0.18532322 -0.37898743  0.05837962 -0.09073884
 -0.13012317  0.14082083  0.04059939  0.04995468  0.26888156  0.1439919
 -0.11855391 -0.4237387   0.08500187 -0.16252457 -0.16720915  0.1810358
  0.01710083 -0.02560312]
[-0.19436242  0.19847079  0.17930932 -0.09182177 -0.14232294  0.09016742
  0.12192897 -0.06778189 -0.17645971  0.23937178  0.14947993 -0.14052951
  0.04426463 -0.02480954 -0.25212184  0.26562977 -0.00637562 -0.1642276
  0.3184605  -0.21166353]
[-0.11402194  0.36439046  0.3248823   0.04201751  0.13142191 -0.14373335
 -0.12507021 -0.2202021   0.18062189  0.07847061 -0.22292475  0.06838194
  0.03192336 -0.06946996  0.22982353 -0.04238788 -0.32577068  0.26479995
 -0.3065527  -0.16738664]
[-0.15881585 -0.22269443 -0.28735825  0.00648089  0.11985182  0.07500241
 -0.19560714 -0.11591665  0.03710284  0.31094122 -0.2854365   0.00580123
 -0.06806652 -0.3408358  -0.17412427  0.15004735 -0.10130198  0.20981573
  0.31338716  0.17410062]
[-0.26317143  0.26680085 -0.33686823  0.0375499   0.10078005 -0.08829859
 -0.1124784  -0.12878431 -0.04790495 -0.00878558 -0.04936127 -0.26592812
 -0.09823615 -0.21440992 -0.25158408 -0.11567308 -0.3005705  -0.18387324
 -0.06279863 -0.1365151 ]
[ 0.05856054 -0.07426347  0.12528637 -0.11116099  0.14156857  0.02125264
 -0.14955711  0.21445332 -0.08697622  0.27523458 -0.42611545  0.3092583
 -0.02168619 -0.24640253  0.13216983  0.17206211  0.07882331 -0.18703136
  0.24744971  0.11929097]
[ 0.02467485  0.11969282  0.13755855  0.216546    0.24914229 -0.01930259
 -0.17171158 -0.07701345  0.1670842  -0.19954045 -0.03688625  0.24392746
  0.23749906  0.11094783  0.03259871 -0.26003757  0.11747839 -0.12921725
 -0.08599468 -0.23778144]
[ 0.21755145  0.28977025 -0.16060428 -0.00785608  0.1035413  -0.0016165
  0.00710685 -0.13855448  0.01229846 -0.31550828 -0.04547451  0.10825027
 -0.20690049  0.05895933 -0.17772487 -0.0623881  -0.24367051  0.16183564
  0.01626225  0.23331165]
[ 0.10200354 -0.18711875  0.03964697 -0.04441997 -0.20970798  0.06241705
 -0.05987845 -0.17574874 -0.20116034 -0.08335267  0.02266902 -0.12003509
 -0.00726055  0.26877934 -0.3032115   0.13606998 -0.19827934 -0.06937337
  0.10067728  0.01979953]
[-0.2288715  -0.04511414 -0.43950936 -0.08965759  0.01652714 -0.05606166
  0.1825664   0.27684274  0.0879352  -0.16080198  0.23965053  0.16172813
 -0.08781638  0.19094221  0.17617957  0.02354793  0.12422547  0.4059925
  0.00150448 -0.1033066 ]
[-0.22821505  0.3231051   0.33741423 -0.0412529  -0.12033866 -0.14748678
 -0.10987782  0.12118366  0.20310475  0.07358274 -0.02596316 -0.1608062
 -0.261594   -0.038682    0.10134912 -0.2188966   0.00500765  0.07330569
  0.1183121   0.14683881]
[ 0.26823762  0.21845263 -0.16193321 -0.00447566 -0.1473787   0.15336698
  0.01128221 -0.11090048 -0.03523373 -0.30239016  0.36650816 -0.21648534
 -0.11454656 -0.26005292  0.06751417 -0.17393737 -0.32322058  0.11282669
  0.02187779  0.28114673]
[-0.11788484  0.26026168 -0.33038333 -0.13963172 -0.19319129 -0.03218359
  0.04910376  0.04320149  0.08115028 -0.23303206  0.22960559  0.32177365
  0.12039488 -0.14816783  0.11968304  0.1603221  -0.39492366 -0.00465677
 -0.04517002  0.2505224 ]
[ 0.25904992 -0.07596876 -0.23706087  0.13466841  0.21139066 -0.0532794
  0.10392034  0.05935282 -0.09143396 -0.04180533 -0.29828468  0.20951149
  0.28709888 -0.18722746  0.19875446 -0.296418    0.26021686 -0.26746613
 -0.22078374 -0.18888634]
[-0.1854507   0.02206247 -0.12114103  0.03922721  0.09987221  0.04035107
 -0.29177696 -0.01682601 -0.12368154 -0.12480497 -0.17488986  0.22435455
 -0.00549593  0.20567611  0.2125953   0.2294447  -0.3453415  -0.17274517
 -0.05621982 -0.14907858]
[-0.2712537  -0.34631234 -0.22217862 -0.02043679 -0.16174282 -0.04914701
 -0.23596518  0.06907795  0.0498747   0.29840147 -0.09954242  0.15836774
  0.14106852 -0.1017676  -0.09712368 -0.17849922  0.01044483  0.3837731
 -0.04797019 -0.09696191]
[ 0.07499462 -0.00071891  0.06510498  0.1812778  -0.00877094 -0.44507408
 -0.18298292  0.04283856 -0.13708296  0.08100767  0.02904316  0.23822543
 -0.28714097 -0.24495366 -0.04809507  0.30075818  0.195098   -0.0235762
  0.0618743  -0.1361754 ]
[-0.24732341  0.08428333 -0.11375788  0.24984892  0.00105671 -0.10348228
  0.04673529 -0.28479248  0.27961597  0.22276093  0.01609872 -0.01931604
 -0.14511749  0.0531984   0.08178037  0.19512342 -0.06017943  0.11658191
 -0.147048   -0.14048247]
[ 0.03087833 -0.04052423  0.05573919 -0.04588188 -0.00879578 -0.04087569
 -0.27246657  0.04266676  0.06878959  0.06242616 -0.03942401  0.03282913
 -0.02308137 -0.08036876 -0.02578787 -0.01755888 -0.02888455 -0.07088404
 -0.16048202 -0.05245376]
layer 5 Activation
tanh
layer 6 Dense
20 1
[0.06850583]
[-0.18050808]
[-0.16896527]
[-0.02678306]
[-0.00677889]
[-0.01394626]
[-0.05305657]
[0.02575505]
[0.01770514]
[0.06360129]
[-0.05834195]
[0.05239506]
[0.0014713]
[-0.19469462]
[-0.03891565]
[-0.06134985]
[-0.13600059]
[0.13274711]
[-0.03616852]
[-0.14815827]
[0.04518211]
