layers 7
layer 0 Dense
20 20
[ 0.3782358   0.01941659 -0.03731169 -0.431681    0.5115456   0.24613601
 -0.16043031  0.21178831  0.0946354  -0.28350642  0.12917931  0.00615378
  0.2833407  -0.21821062  0.09084932  0.24569955 -0.04719901 -0.26826787
 -0.3319068  -0.31457117]
[-0.38260818 -0.06377393  0.2877568  -0.25471118  0.11749685 -0.1080412
 -0.09743172 -0.00539574  0.22125524 -0.08736426 -0.02610713 -0.3866468
 -0.11266658  0.26905257 -0.23081419 -0.29762018  0.29291034  0.02239648
 -0.24188454 -0.2022718 ]
[ 0.11337471  0.05820301  0.20637369  0.05970538 -0.06123292 -0.29566884
 -0.352137    0.00340861 -0.15020482 -0.05407259 -0.03387231 -0.30357373
 -0.04941103  0.19619018  0.3140456  -0.24392617  0.30874437  0.1633035
  0.36025852  0.01710331]
[ 0.36194995  0.03329212  0.19162326  0.19101639 -0.24975954  0.37114006
  0.17239937  0.05167548 -0.23684683 -0.42212325 -0.12821025 -0.1562496
 -0.21129397 -0.17528386 -0.09849826  0.21535687  0.10708241 -0.29394677
 -0.1389882  -0.30454943]
[-0.01652011 -0.37867418 -0.46434954 -0.31257147 -0.36076665 -0.08722712
 -0.07230522  0.1949732   0.04502717  0.18068165 -0.6118541  -0.02208769
  0.06107106  0.27537748 -0.54345715  0.6497729  -0.08570043 -0.30924985
  0.34632036  0.21607535]
[ 0.11363429 -0.13376245 -0.03164729 -0.2962624  -0.04712757 -0.30705795
 -0.00882724  0.17264718 -0.07530347  0.33110547  0.37200958 -0.04672831
  0.2385109   0.13591295  0.2759552   0.16304135 -0.00773221 -0.25341088
  0.2539972   0.24778503]
[-0.30841404 -0.13261238 -0.04741642  0.23205692 -0.27027476  0.08416057
  0.12368089 -0.21855561 -0.2068473  -0.22886796 -0.33227855 -0.17899191
 -0.20903222  0.15554535 -0.3185227   0.00608107 -0.30083275  0.15160978
 -0.004673    0.09315908]
[ 0.35060507  0.2731504  -0.15662266  0.49133348  0.07115023 -0.12529825
  0.16618502  0.3938059   0.2100013   0.34286103  0.04971576 -0.37337762
 -0.3558305   0.11035458  0.21060492 -0.2869923  -0.2596842   0.10419225
 -0.01199089  0.474152  ]
[-0.04904615  0.23401652  0.06320672 -0.4342565  -0.35756668 -0.37315962
 -0.04946442  0.3492295   0.57356155  0.13306284  0.08960217 -0.17664109
  0.526051    0.20986336  0.10654937 -0.15647812 -0.03324023 -0.2734279
  0.01789985 -0.02953852]
[-0.02585569 -0.04490479  0.25050047  0.03645408  0.77120906  0.16531168
 -0.03791317  0.47227848  0.10415321 -0.04648525 -0.6703226  -0.38532683
 -0.4833642   0.3388393  -0.4324275  -0.08405197  0.20452721 -0.2228982
 -0.33900726  0.13938235]
[ 0.13771439  0.09786052  0.08439031  0.15269613 -0.13587679 -0.00529727
  0.1679058   0.06028133  0.10062744  0.12839812  0.47933894  0.24610367
  0.06738202  0.03399364 -0.28741124  0.01017     0.3261269   0.392777
  0.31463543  0.16602503]
[ 0.152966    0.24747984 -0.3557707   0.46902737 -0.48417664 -0.31959668
 -0.3429384   0.51709956 -0.01599704  1.0799798   0.36783886 -0.13546999
 -0.47776553  0.3122649  -0.04756955  0.21915147 -0.27819294  0.12586632
 -0.13948627  0.2975753 ]
[-0.19802083  0.06873532 -0.10535034 -0.2486685  -0.3090217  -0.0804061
 -0.24403411  0.38492426  0.33958897 -0.32693872 -0.10644977 -0.05059333
  0.05183494  0.23029171 -0.27974993 -0.08522199 -0.05386246  0.23802295
  0.05513559  0.15438269]
[ 0.4460493  -0.5302033   0.06889185 -0.11800487  0.05213458  0.13010737
  0.73169017  0.17011905 -0.12793127 -0.27215606  0.23557101  0.18435352
 -0.6245851   0.40200678 -0.53868574 -0.3960522   0.11548376  0.22277157
  0.37964523 -0.3094901 ]
[ 0.32263198 -0.22736585  0.4145589   0.12679844 -0.2980964  -0.32546213
  0.26618546  0.24105927  0.4631184   0.0711496   0.36366105  0.04015268
  0.00609515 -0.24727392  0.3496808   0.2034813   0.50832176  0.3564429
  0.38952416  0.23701333]
[-0.26772493  0.36863965 -0.24178906  0.5672194  -0.36790195 -0.38559532
 -0.5759491   0.44660503 -0.15071036  0.25532156  0.34037858  0.26095346
 -0.2868411   0.07953949 -0.19630456  0.21208128 -0.41227505  0.14418648
 -0.04473846 -0.19721135]
[-0.22441451  0.14776923  0.01097406 -0.18619198 -0.26869956 -0.34108704
 -0.12887187 -0.2940591   0.48759893 -0.2110342  -0.5370165  -0.24106757
 -0.19102043 -0.30623582  0.10940704  0.5974307  -0.07815735 -0.4560041
 -0.37726194 -0.13008073]
[-0.08421213  0.693349   -0.59100175 -0.5264761  -0.5492088   0.44453084
 -0.20859432 -0.67433685 -0.28408727 -0.3880019   0.37392572  0.4386253
  0.66594326 -0.2747567  -0.10683057  0.6700704  -0.5095628   0.35372937
 -0.49988216 -0.27216882]
[ 0.18471636  0.58644605 -0.03756887 -0.38280168  0.21339592  0.2740922
 -0.5175195   0.03097784 -0.2906157   0.04471871 -0.36644855 -0.16255568
  0.04603409  0.7434954  -0.14967388  0.1304344  -0.29019743 -0.60577583
 -0.3779066   0.17799352]
[ 1.0305649e-01 -4.3139195e-01 -8.0067635e-02 -3.5449323e-01
  5.7227260e-01  6.6859901e-02  5.3743786e-01 -1.8752261e-01
 -3.9619890e-01 -9.2587031e-02  2.9282868e-01  2.3266421e-01
  5.2399337e-01  3.7966421e-01  6.3498843e-01 -4.9990889e-01
 -3.0243155e-01  3.2670432e-01 -1.8176980e-01  3.8460823e-04]
[ 0.02011042 -0.06441951  0.14614485 -0.09177399  0.05941328  0.08488639
  0.08074453 -0.1437916  -0.03248917 -0.22338104  0.08962765  0.12143915
 -0.05054787 -0.07654003  0.1050241  -0.16196476  0.00089836  0.04928562
  0.01007999 -0.09376821]
layer 1 Activation
tanh
layer 2 Dense
20 40
[ 0.45331314 -0.15840052  0.18204854  0.19409446  0.08508582 -0.27231205
 -0.11703573 -0.19694667  0.335048   -0.33841002 -0.0530447  -0.39755252
 -0.09386146 -0.19862512 -0.06604732  0.10773826  0.19630063 -0.17645219
 -0.11393384 -0.09674844 -0.03718229  0.05298684 -0.09909608 -0.05556945
  0.00290235  0.15502134 -0.28105417 -0.22958995 -0.00973762 -0.14771219
 -0.1146475   0.10250357 -0.01788688 -0.06926391  0.21531865  0.03580657
 -0.15251479 -0.24693577  0.25326076  0.17769162]
[ 0.3869261  -0.17216957  0.09647567 -0.2758892  -0.14185838  0.2816457
  0.28356534 -0.24438715 -0.4782891  -0.15747027 -0.04273267 -0.1145011
  0.20842685  0.4552976   0.23429494  0.32335052  0.3766823   0.01818587
 -0.126924    0.06707892  0.20179692  0.05075624  0.05226656 -0.3010123
  0.0048914   0.02151139  0.11842906 -0.32836312  0.7532064   0.4810333
  0.21490481 -0.18675989 -0.37716204  0.27121037 -0.30077225  0.31269723
 -0.12251514 -0.1425965  -0.48990107  0.45266634]
[-0.43174613  0.40126616  0.0684106   0.33122355  0.35951996 -0.28478944
 -0.23834816  0.2050159   0.17989187 -0.1731891  -0.4639279   0.18974434
  0.3218844  -0.4887744  -0.1497802   0.15156843  0.03601649 -0.02941485
 -0.07848538  0.29534012 -0.23761842 -0.5926168  -0.18456107  0.3257884
  0.21798982  0.29983747  0.25667772 -0.03834419 -0.28908804 -0.27641928
 -0.06400675 -0.25894728  0.40655443 -0.17690729  0.43429938 -0.07740963
  0.08914289 -0.06031461  0.11766172 -0.16432296]
[ 0.05790428 -0.29658216  0.2823501   0.25088376 -0.10752164  0.21967724
 -0.1197172  -0.17353849  0.05732048 -0.04803191 -0.60778046  0.29436457
  0.41532     0.43331665 -0.01536073  0.21887846 -0.17996801  0.39325333
 -0.11373559 -0.02106061 -0.10445237  0.11863358  0.22721426  0.23348504
 -0.41541746  0.3546783  -0.22707936  0.03836377 -0.2491079   0.09918345
  0.08334735 -0.39314258 -0.28400227  0.18639192 -0.16926557 -0.24204691
 -0.19534424 -0.140422    0.28211406  0.64401275]
[-0.3503676   0.45827588 -0.00859504 -0.22333026 -0.04704889 -0.12390499
  0.15117888  0.3916981  -0.25727206  0.2753539   0.04454941 -0.39304134
 -0.5307488  -0.17527568  0.17051148 -0.01503562 -0.07411863 -0.41734156
  0.15802811 -0.05557332 -0.22162272  0.01420414  0.08536255  0.21542123
  0.12276971  0.3007879   0.17701013  0.0027059   0.05744041 -0.12679344
  0.13697284 -0.5234786   0.39759877 -0.7075128   0.68936366  0.1961737
  0.03641884  0.02734739 -0.11871389 -0.63910097]
[ 0.3690421  -0.10618269 -0.00930637 -0.06067286 -0.3502181  -0.17525224
  0.31087273  0.21680827 -0.00637548  0.24136446 -0.11062486 -0.08212441
 -0.15543944  0.24791358  0.41480047 -0.00658187  0.38130003 -0.22521637
  0.16786103 -0.27402273  0.5157829  -0.48846075 -0.31137267 -0.28730488
  0.27988285  0.07711802 -0.30639628 -0.12281001 -0.11835954 -0.00123545
  0.21246289 -0.33511722  0.00246378 -0.16813791  0.20851912  0.446841
 -0.08901863  0.4426204   0.0057655  -0.14937353]
[-0.07051802 -0.11740077  0.17489916  0.08560421  0.25481158 -0.1401356
 -0.25413176  0.19094297  0.21386728  0.12403899 -0.13585831  0.25613707
 -0.00781253 -0.24628522 -0.4351738  -0.06266068 -0.02030324 -0.21227762
 -0.03251351  0.18569325 -0.67853683 -0.43690234 -0.40310973 -0.06360973
  0.5357661   0.2723738   0.03603519  0.3209306  -0.2909432   0.14204259
 -0.04067264 -0.24194527 -0.24416697 -0.28975314  0.5937256  -0.43550986
  0.2446018  -0.43901178  0.24843623  0.07376868]
[-0.07808457  0.06106243  0.1421152   0.2635412   0.45970124  0.44337893
 -0.40474394  0.33604276 -0.02293138  0.10481318 -0.2429811  -0.19405228
 -0.4645956  -0.09630262 -0.02869106  0.46790454 -0.2260762   0.3901168
  0.34210804  0.3066058  -0.73784983 -0.12387192  0.02212727  0.28253782
 -0.10640418 -0.21190794  0.5663035  -0.36225265 -0.2252057  -0.3357555
  0.3342299  -0.04165181  0.420947    0.13727684 -0.16215472 -0.38347554
  0.06317362 -0.10021608 -0.16415417 -0.38766646]
[ 0.20998867  0.02121975  0.08005618 -0.06407911 -0.206508   -0.15872936
 -0.26996398 -0.09528922  0.17281477  0.08968826  0.11289602  0.06704056
 -0.05196484 -0.16354755 -0.4555716   0.21264692 -0.04287463  0.25274265
 -0.0086456   0.09353852 -0.4015734   0.4091025   0.08072501  0.16913821
  0.19597006 -0.16568567 -0.20581535 -0.3031723  -0.38185564 -0.3800714
 -0.20799786 -0.10465351  0.253581   -0.27542812 -0.05267325 -0.04273734
  0.3400007   0.0355177   0.0392455   0.24316925]
[ 1.28271356e-01 -7.61766136e-02 -9.22150239e-02  3.79582316e-01
 -4.76402104e-01  2.74880052e-01 -1.15800865e-01 -4.26214486e-01
  1.61105648e-01 -1.56745210e-01  6.93932921e-02 -2.49982491e-01
  4.72702444e-01  1.90634459e-01 -1.08047478e-01  2.09563911e-01
 -2.20864981e-01 -2.56202459e-01 -1.50499135e-01  3.28619659e-01
 -1.52754947e-04  4.06471580e-01  4.21796829e-01  2.93042392e-01
 -3.81635606e-01 -1.51297495e-01 -2.59982497e-01 -9.63948891e-02
 -2.64540136e-01 -2.97030985e-01  2.12471113e-01 -2.42727444e-01
  2.27318168e-01  5.41278660e-01 -3.22604895e-01 -1.41151562e-01
  1.76446903e-02  1.94307372e-01 -1.04821593e-01  4.09871370e-01]
[ 0.05072207 -0.01306237 -0.2895298   0.12784018 -0.13907331 -0.18450272
  0.1092877  -0.20744716  0.07213041 -0.06954452 -0.27372986  0.22408494
  0.18453224  0.13480678  0.17468494 -0.24896953  0.23447286  0.4157347
  0.07214752 -0.18530416  0.64524615 -0.38123888  0.17593527  0.01940731
  0.48416805  0.36651427 -0.45201358  0.1779445   0.42751542  0.10746039
  0.04402476 -0.2976972  -0.46554753  0.3943706   0.02968354  0.21238244
  0.08905227  0.45632443 -0.16451979 -0.00850498]
[-0.05881637 -0.12953882  0.0247063  -0.12707725 -0.2923842  -0.00270183
  0.10161484 -0.30626467 -0.26275378 -0.26273412  0.01649246  0.29858926
 -0.1551725   0.28646538 -0.22250782  0.00671688 -0.3342782  -0.21097878
  0.15351889  0.01317753  0.20563826  0.16741326 -0.34244916  0.02650585
  0.6336454   0.09599995 -0.6818585   0.5334273  -0.28560555  0.16782464
 -0.47740862  0.00497092 -0.34246182  0.12616184 -0.12350709 -0.17179295
  0.23191468  0.22873564 -0.00210172 -0.34276938]
[ 0.25077236  0.5842079  -0.22755808 -0.49322376 -0.03457832  0.01279051
  0.5673105   0.17253196 -0.6007014   0.08941824 -0.07430493 -0.10866284
 -0.1925035   0.07501128  0.25379992 -0.23474859  0.48740256  0.3092595
  0.44581792 -0.2913769   0.49487245 -0.483173    0.5006478  -0.15486331
  0.70128965 -0.01327693 -0.09611565 -0.00530669  0.5141586   0.32666844
  0.04304941  0.2593037  -0.04271338  0.16483614  0.13772863 -0.03759329
  0.2568456   0.3395494  -0.34872216 -0.6109476 ]
[-0.12941897 -0.517105   -0.22334132 -0.21778151  0.24542898  0.33494458
  0.26499274  0.18347983 -0.36797014 -0.07664531 -0.20739336 -0.16619816
  0.05857933 -0.52243966  0.09621769  0.40109438  0.31135193  0.26276615
 -0.19913676 -0.2365549  -0.5790058   0.22922379  0.34554145 -0.4555852
  0.07664327  0.19139652  0.39107612  0.08226793 -0.2049357  -0.10153328
 -0.23285754  0.05551508  0.42556325  0.02010519  0.1660171  -0.43863925
 -0.14690758 -0.21659613  0.12228388  0.02461136]
[ 0.240659    0.31549236  0.14951701 -0.07449596 -0.16449244 -0.12041764
 -0.04032909  0.32098112 -0.17177427 -0.46816173 -0.05256047 -0.14092173
 -0.31907576 -0.20084251  0.1934745   0.1508424  -0.17489967 -0.11792798
  0.04452403 -0.32526723  0.12037078  0.34940708 -0.11609045 -0.40554756
  0.23006167  0.33605006  0.12914625 -0.11131216  0.11459634 -0.06121908
  0.02836677  0.08108331  0.05341243  0.04667054  0.17139295 -0.0102612
  0.19980437  0.10882273  0.04701452 -0.37384972]
[ 1.4601599e-01 -1.5653083e-01  3.0313622e-02 -1.1965384e-02
  3.8392518e-02  4.5877151e-02 -1.9533898e-01  2.8580904e-01
  7.9795986e-02  1.9634096e-01  5.7185479e-02  2.4588010e-01
 -6.8258508e-03  6.8159688e-01  2.4381062e-01  1.7293325e-01
  2.7483636e-01 -2.6031598e-02 -1.8541883e-01  1.5962422e-01
 -8.3962791e-03 -5.6351847e-03  6.9474414e-02  8.5869595e-02
 -5.7344430e-04 -1.9109683e-01 -3.6512676e-01  1.0212481e-01
  5.9627399e-02  1.4630176e-01  2.4379653e-01 -5.9288386e-02
 -2.5397792e-01  2.1124873e-01 -3.7099510e-01  5.2547079e-02
  3.8678393e-02 -1.4151159e-01 -7.1234100e-02  3.7370157e-01]
[-0.4483753   0.1326189   0.2511719   0.09761898  0.13482347 -0.2933089
 -0.06495917 -0.19802405 -0.06200162 -0.05549262 -0.50137913  0.44391325
 -0.20280114 -0.61688346  0.03039022  0.20282322 -0.10084253  0.17218983
  0.07326744  0.40069726 -0.16905297 -0.327699   -0.2632514   0.35460034
  0.03384702 -0.16854244  0.04071213  0.24612607 -0.5760636  -0.4276847
 -0.2402786  -0.2370428   0.09313021  0.02883213 -0.22502849 -0.20327665
  0.28552866 -0.13262081  0.02338312 -0.18944164]
[-0.3258121   0.25759336  0.28326368  0.21801737  0.09247465  0.2878694
  0.37029743  0.18818526  0.08401532 -0.45007798 -0.48771882 -0.14275923
 -0.12278131 -0.24367237 -0.00244693 -0.01375276  0.29494315  0.27884492
 -0.19727764 -0.1456977  -0.43504885  0.1066862   0.02183711  0.00116895
  0.5075521   0.3873833   0.03597541  0.5690071  -0.2867451   0.05555943
  0.39122322  0.32500115  0.15062071  0.0925763   0.21883866 -0.4637568
 -0.01217096 -0.07909882 -0.36427188  0.07081766]
[-0.41371745  0.09070769 -0.0027858  -0.14951722  0.21787256  0.04925127
 -0.08030384 -0.3292786  -0.04655765  0.19992699  0.11001176  0.6824563
  0.18539923  0.14247772 -0.5069977  -0.37126914 -0.08394805 -0.01069914
 -0.05179869  0.14015703 -0.15704247  0.32748985 -0.35567746  0.15886779
  0.15181656 -0.04652379 -0.00157155  0.12341768 -0.09605385 -0.47098702
 -0.4340961   0.51214224  0.09213319 -0.00255537  0.00149988 -0.46678457
 -0.2009446  -0.10436707  0.49348977  0.20498012]
[ 5.3199001e-02 -2.6470562e-02 -1.6264209e-01  8.7738380e-02
 -2.6148472e-03 -1.2962858e-01 -3.6631110e-01 -3.0263725e-01
  2.7553612e-01  5.3672853e-04  8.4413841e-02 -1.9890264e-02
  2.8149605e-01  7.0392057e-02 -1.4352432e-04 -8.4477760e-02
  8.2721733e-02 -2.7536139e-01  1.9026034e-01  1.3407147e-01
  2.0260984e-01  9.4341598e-02 -7.0843324e-03 -1.8883555e-01
  9.9043638e-02  2.3045455e-01  1.4745694e-02  8.8453807e-02
  1.9286418e-01  7.2927430e-02 -2.5319287e-01 -1.0991552e-01
  2.9299285e-02  2.1038936e-01 -9.7397052e-02 -1.8502048e-01
  2.6706362e-01 -1.1116802e-01  6.8649828e-02  2.9904124e-01]
[-0.03728499  0.16337337 -0.03884801 -0.07111327  0.10387665 -0.09529553
  0.03271302  0.14633691 -0.12906198  0.0747763  -0.0053015   0.02110088
 -0.0836455  -0.21519259  0.03720781 -0.03942555  0.05877925  0.01103478
  0.05663089 -0.0077549  -0.06122987 -0.20206185 -0.06462028  0.05166128
  0.14482778  0.05922415  0.0277734   0.02414617 -0.02952702  0.06075547
  0.06879245  0.00914482 -0.06383161 -0.13390554  0.157739    0.02707853
  0.07126103  0.00287428 -0.01519551 -0.17286274]
layer 3 Activation
tanh
layer 4 Dense
40 20
[ 0.3375239  -0.4070429  -0.15867369  0.39120364 -0.09119418 -0.33803737
 -0.12924515 -0.3707956   0.35480088  0.68351585 -0.24849252 -0.0674222
 -0.16837281  0.48370802 -0.1553615   0.17169552 -0.31639105  0.20747119
  0.01057246  0.2345171 ]
[-0.01831069  0.37898088 -0.39049524  0.253148   -0.24077713  0.23632514
 -0.1658164   0.45041686  0.49434784 -0.11942342 -0.04097096  0.13342477
  0.06229562 -0.30358163 -0.13814582  0.34601295  0.07762562 -0.42891237
 -0.15246138 -0.12092675]
[ 0.07394263 -0.17384994 -0.38631263 -0.07221127  0.30815905 -0.13972868
 -0.22626168 -0.06463078 -0.02950102 -0.02463157  0.22184478 -0.16349229
  0.07657902  0.04178148  0.21502475 -0.00705967  0.30025932  0.17602167
  0.13378447 -0.17462638]
[-0.11240328 -0.24317132  0.09313361  0.2392599  -0.04544995  0.10686506
  0.1943483   0.48307967 -0.245712    0.02960273 -0.00292121  0.17008322
  0.28324613  0.21950479 -0.01343003  0.1403299   0.04451313  0.07105695
 -0.1014079  -0.414983  ]
[ 0.09425727  0.4318645   0.06664495  0.00263469 -0.01499061  0.05640827
 -0.23788317  0.08278188 -0.16824964 -0.17941058 -0.05225481 -0.25014716
  0.20160007 -0.0349785   0.28379875 -0.26461557 -0.0810809  -0.13181314
  0.14353764 -0.2526154 ]
[-0.3446043  -0.11768532 -0.35244027  0.23849347 -0.06264371  0.25137243
  0.14743528  0.13969111  0.17673013 -0.03733987 -0.50018793 -0.18207778
  0.23556317  0.19128509 -0.03327619  0.22834152  0.06849292 -0.00944501
  0.41145417 -0.09257083]
[-0.31488332  0.1661556  -0.35759196  0.21295516  0.28691953 -0.01451159
  0.12746683 -0.22307764  0.4877821  -0.251607    0.11187933 -0.1827517
 -0.03017307  0.1615059   0.16805728  0.20963416  0.19862849  0.22019069
 -0.04414802  0.25680938]
[ 0.34125462  0.37321943  0.10947787  0.38126323 -0.10793007 -0.06205351
  0.16871846 -0.13583696 -0.11919814  0.16315275 -0.25344798  0.33895013
  0.09560762 -0.24697055 -0.17268956 -0.08412407 -0.24598722  0.24582483
  0.30943325  0.00204372]
[ 0.06182127 -0.63595265  0.1821637  -0.047838    0.25588113 -0.1623332
 -0.5694073   0.27965316 -0.36539602  0.21028616  0.16857561  0.28894228
  0.17337911 -0.01669811 -0.29235846 -0.2343687   0.19246437  0.45401484
 -0.05487551 -0.18044773]
[ 0.16709007  0.34719285  0.07712972 -0.03618196 -0.19360024  0.15643339
  0.21074162  0.05831082  0.0114445   0.13091004  0.26402155 -0.34257096
 -0.298028    0.17352688  0.19309646  0.03863557 -0.28068992  0.26165903
 -0.15437134 -0.24849105]
[ 0.25319004  0.12543778 -0.09472947  0.31393498 -0.21221405  0.19463554
  0.11534131  0.25671223  0.29183716  0.1578656  -0.04200172 -0.36629456
 -0.1952256   0.19075862 -0.19394995  0.15817231  0.10475687  0.16044877
  0.06455067 -0.13962843]
[-0.38711458 -0.05833784  0.45538002 -0.5494948  -0.3674866  -0.16211218
  0.02547923 -0.43458027 -0.30789325 -0.22475646  0.52481043  0.08764113
 -0.35618937 -0.01892936 -0.33037478  0.07482086 -0.18657245 -0.12412395
  0.1928332  -0.38274518]
[-0.3287312  -0.48149028  0.33056962 -0.02520244 -0.17047353 -0.1415162
  0.15943438  0.19421348 -0.19116254  0.09773214  0.3041585   0.03000702
  0.12648252 -0.10194627 -0.13705969  0.32898593  0.19061026 -0.07299761
 -0.05764946  0.17636459]
[-0.02621482 -0.36522934  0.08579309 -0.01432562 -0.01504693  0.26192513
  0.16856349  0.10320133  0.22686037  0.02809263 -0.0638717  -0.24093266
 -0.31532836  0.07954926 -0.27560923  0.16155916 -0.25574693  0.29437009
  0.2815036   0.2146955 ]
[-0.09133193  0.05823717 -0.20622408 -0.03142688 -0.01154533  0.14021097
 -0.04450391 -0.63674366  0.00125565 -0.17909288 -0.26164353  0.38576657
 -0.15575182 -0.04598915 -0.3073195   0.05142147 -0.4062164  -0.15688045
  0.125159    0.15708944]
[ 0.23485203 -0.3682427  -0.1801412   0.5608484   0.2017832  -0.20431243
  0.3201411   0.27838352 -0.26708516 -0.25906655 -0.33118635  0.2555504
  0.24614833  0.12710455  0.16259715 -0.14600122  0.15495487  0.17696197
 -0.2594173  -0.40564376]
[ 0.136523    0.2381326   0.13384186  0.01381355  0.17582178 -0.15435597
 -0.05667036 -0.56777704  0.42931667 -0.11155412 -0.16326863  0.27098337
 -0.31755733  0.00210199 -0.08650813  0.04328296 -0.33190584 -0.05688242
 -0.1839971   0.27055877]
[-0.09430178 -0.0685294  -0.15491879 -0.05966192 -0.07403967  0.10435532
  0.38240623  0.12655242 -0.17716806  0.0456444  -0.10345914  0.29912218
 -0.04131458 -0.37579918  0.3659182   0.04121997  0.31291637 -0.02609384
  0.14600392  0.26611236]
[-0.21737514  0.3527762  -0.16906707  0.18080798 -0.27463078 -0.14963847
  0.04814155  0.29103643  0.06903907 -0.07997899 -0.00248263  0.312556
  0.18956202 -0.23388296 -0.25405872  0.02583548 -0.1854321  -0.272101
  0.20528315 -0.06919882]
[ 0.15411766 -0.28688818  0.21190873  0.04890805  0.2567249  -0.00281773
 -0.02509951 -0.08739164 -0.39429295  0.13257006 -0.03380253 -0.39199543
 -0.26188433 -0.05101386  0.29348692 -0.38620606  0.09588629  0.05445712
  0.2220192  -0.41386294]
[ 0.00939095 -0.30122367 -0.17199276 -0.2843173   0.05495827 -0.09744515
 -0.26189068 -0.65564764  0.41094443  0.13599584 -0.14666694  0.14494796
 -0.50969356  0.02081809 -0.39318603  0.06371748 -0.14040448  0.00612672
 -0.27427453 -0.00553668]
[ 0.07597709 -0.38513243 -0.01676955  0.21329331 -0.12951475 -0.19729157
 -0.21935838  0.04767207 -0.12547866  0.26893008 -0.14617038 -0.14924641
  0.2543467   0.12053744  0.09250816  0.21032646 -0.02736427  0.23292086
 -0.3237709  -0.11722784]
[-0.08757612 -0.3653873  -0.5352239   0.14341696 -0.1482402   0.19242008
  0.5013237  -0.02519642  0.4024912   0.04467228 -0.543052    0.24423476
 -0.00521361  0.30675596  0.39717674 -0.29813865  0.23897061 -0.01474361
 -0.28361306 -0.11025956]
[ 0.04598236  0.00847402  0.26826197 -0.49179512  0.12589525  0.16571096
 -0.13306022  0.30559185 -0.27398467 -0.3295158   0.21103561  0.18531127
 -0.14823015  0.3201685   0.16918005  0.2956086  -0.01821296 -0.23389684
 -0.22374517 -0.39069873]
[-0.43679073  0.36538073 -0.28449222 -0.0340663  -0.20868629  0.45222154
  0.2673291  -0.07963419  0.41463944  0.06224879 -0.31777304  0.08807343
  0.01011433 -0.07394147  0.19659218  0.28345245  0.30820465  0.10713328
 -0.2307041   0.1396748 ]
[-0.3238426  -0.0724685  -0.28036696 -0.09122634  0.00927501 -0.16012032
 -0.07666546  0.4432588   0.31772017 -0.46919772 -0.31830844  0.30935672
 -0.09709343  0.09357763  0.15295734  0.24288216  0.23191433 -0.2432514
 -0.0367419   0.22475725]
[ 0.11137259  0.11487487 -0.30646828  0.02428446  0.11320186  0.05122591
  0.19005172  0.29933885 -0.07196882 -0.24133311 -0.13441873 -0.15060136
  0.49143597 -0.4236482   0.19592556 -0.0588467   0.00974912 -0.0231503
 -0.01142968 -0.07066587]
[ 0.06638251  0.08099913  0.19703361 -0.37057823  0.1034248  -0.01646937
 -0.154399   -0.32041404  0.10675266 -0.44659922  0.32454577 -0.05267001
 -0.05275292 -0.23576118  0.16695456  0.18102668  0.03749102 -0.04534729
 -0.2767623   0.3518557 ]
[ 0.09043345 -0.05546775 -0.0593922   0.17662309 -0.14712024  0.16003056
 -0.22546108 -0.44135895  0.5330685   0.54761213 -0.3211462  -0.23204353
 -0.42406628  0.30801183 -0.14607199  0.52712977 -0.30992696 -0.07158733
 -0.0787648   0.29879123]
[ 0.03569048 -0.00271297 -0.19078408 -0.10205622 -0.14614291  0.09375206
  0.35988674 -0.31055558  0.40779868  0.10102031 -0.09333069 -0.05091926
 -0.39110318 -0.17751846 -0.32857397  0.23615113 -0.02115001 -0.28245372
  0.02158893  0.26485428]
[ 0.4936919   0.1605949  -0.10866765  0.20807724  0.105169    0.1419678
  0.19899829 -0.19796012  0.14797765  0.05300112 -0.0045952   0.31894493
 -0.0525981   0.12701695 -0.02405928  0.19672105 -0.20592703  0.38869455
 -0.19208811 -0.18830414]
[-0.5189236   0.12961377  0.01812462 -0.01404017 -0.33032382 -0.22385854
  0.26465946 -0.09015781 -0.1269704  -0.3301555  -0.30016097 -0.43970087
 -0.12912194 -0.10899214  0.15152563 -0.10581429  0.1019865  -0.0058396
  0.39210913 -0.04791445]
[ 0.21880926  0.37211043 -0.3053808   0.6744773  -0.09756465  0.34205446
 -0.14491606  0.5869919  -0.4250334  -0.11387047 -0.18574864  0.01118602
  0.4021433   0.12422275  0.5863476   0.00903666 -0.10414065 -0.3629218
 -0.10595733 -0.390774  ]
[-0.3514135  -0.4172623   0.2115096  -0.04476047  0.29074383 -0.11058354
 -0.13843943  0.05619645  0.3196073   0.04932622 -0.15799837 -0.24625538
 -0.029742    0.15611291  0.10943009  0.14428316 -0.22308347  0.12518609
  0.16148324  0.29197198]
[-0.24635229  0.40495512 -0.37117594  0.4680778   0.3407043   0.2681859
  0.01191958  0.20819357  0.27444938 -0.39804572  0.15033281  0.11518454
  0.09602596 -0.31610036  0.35009912  0.3090036   0.36470854 -0.03730539
  0.12220119 -0.06714274]
[ 0.43857384 -0.3754682  -0.28326175  0.10799054  0.13369334 -0.0095716
 -0.25182512 -0.5938561  -0.11094828  0.39791918  0.3134556   0.08875231
 -0.16754946  0.1820723  -0.3733797  -0.03390627 -0.21583073 -0.09252325
  0.09168256 -0.3146575 ]
[-0.12670135  0.39286333  0.01143817 -0.19427402  0.30758083 -0.03586904
 -0.09233704  0.43561494  0.24757184 -0.11103431 -0.15818223 -0.15290216
 -0.17130321 -0.05215009  0.26445562  0.23488757  0.03981073 -0.39454755
 -0.34777522 -0.03688339]
[-0.05319796  0.157723    0.27606115 -0.11244207 -0.4545943   0.10152838
 -0.32240716 -0.27261192  0.3054682   0.3681048  -0.21086264  0.36858308
 -0.22382519  0.35168636 -0.28510258  0.33690104  0.3292593  -0.25299528
  0.20972915  0.29799753]
[-0.2037957  -0.19439167  0.33282104  0.22486156 -0.271324   -0.00333283
 -0.00168844  0.04568862 -0.3179196  -0.27387878  0.28445467 -0.13707039
  0.28088236 -0.13263278  0.05947443 -0.25277284  0.1589733   0.31732252
  0.33712715 -0.1440701 ]
[ 0.2855806  -0.62678504  0.40913904 -0.14939156  0.29586357  0.13051715
  0.0811071   0.01271235 -0.3501899   0.16078858  0.12890229 -0.22421595
  0.06975577  0.03293957 -0.08564771 -0.02398847  0.00067517  0.05955716
 -0.37100098  0.19147846]
[-0.03418484  0.16360699 -0.03446889  0.01182044  0.03769044  0.00684211
  0.01886815 -0.11325349  0.01977511 -0.10042999 -0.01859494  0.00727375
 -0.00249388 -0.05686641  0.03434858  0.01888417  0.03551012 -0.0136163
  0.03910621  0.01258768]
layer 5 Activation
tanh
layer 6 Dense
20 1
[0.55453753]
[-0.775933]
[0.4778322]
[-0.41972587]
[-0.03486101]
[-0.07232691]
[-0.45133477]
[-0.24223182]
[-0.80429864]
[0.19390038]
[0.73158365]
[0.6891558]
[-0.6420004]
[0.5269829]
[-0.9992658]
[-0.3622515]
[-0.4077533]
[0.18757063]
[0.00328894]
[-0.52386]
[0.02668218]
