layers 7
layer 0 Dense
20 20
[-0.09492052 -0.03636106 -0.1990902   0.46001855 -0.29984003  0.05837391
 -0.30164844  0.03492094  0.1671029   0.3758994   0.3268138   0.08840191
 -0.31521142  0.42893073  0.5686246   0.2558454  -0.11909409  0.1078067
 -0.30049652  0.11247963]
[-0.38012728  0.38530308  0.3552252  -0.16463834  0.20236802 -0.14887117
 -0.04851544  0.1982013   0.11788279 -0.22707085  0.21137375  0.16182226
  0.2974457   0.0909062  -0.34795448  0.02158317  0.02271718  0.21098804
 -0.0644682   0.24102199]
[-0.2589261  -0.38409066  0.37706542 -0.23623542  0.29369223  0.31038874
 -0.178076   -0.02269852 -0.3595908   0.2768749  -0.05123031  0.10225967
  0.04108435  0.12491351 -0.30111897  0.24722463  0.03075197  0.3251698
 -0.37617278 -0.31753337]
[ 0.09076545 -0.2581281   0.06242253  0.38816217  0.21430302  0.00579908
 -0.19641815 -0.32835126 -0.19614664  0.379881   -0.3305932   0.3994535
 -0.37467632  0.02657223  0.14823808  0.28443107  0.23523974  0.11735611
 -0.57677376  0.381795  ]
[-0.17051147 -0.16962929 -0.00384619  0.05769146 -0.71477526 -0.04030893
  0.1316876  -0.2477012  -0.40865988  0.24833548 -0.03016025  0.28477433
 -0.20820387 -0.00126107  0.28776956  0.9747682   0.5081396  -0.18669166
  0.39275414 -0.01310891]
[ 0.0570544   0.17951733  0.30542183 -0.3176621   0.11039531 -0.11034387
  0.03327957  0.0342485   0.07475728 -0.12442467  0.0416733  -0.15704086
  0.09281099  0.27112842  0.04153174 -0.15116006 -0.10710266  0.30411375
 -0.12804416  0.04756084]
[-0.25449133  0.19307655 -0.34647357  0.34079146  0.0657061  -0.11269176
 -0.01692465 -0.1744985   0.03639704  0.29269052  0.2799548  -0.2742483
  0.09613979  0.13224775 -0.33819553 -0.1406165   0.1458776  -0.24308856
 -0.21646155  0.24140334]
[ 4.1666146e-02  3.0150124e-01  3.6227454e-02  2.2405590e-01
  6.7682403e-01  1.7789660e-01  3.0047774e-01  2.6913753e-01
  2.4388748e-01 -6.6624165e-01  9.1493972e-02 -2.5860822e-01
  2.2271784e-01 -4.2180842e-01 -6.0608065e-01 -7.1611279e-01
  9.2616424e-02 -1.2496905e-01 -6.9278991e-05 -3.3313495e-01]
[ 0.01267003  0.22590776 -0.602013    0.13905331 -1.0431752   0.3658727
  0.40456074  0.5540359   0.48836315 -0.25897408 -1.0610437  -0.08262141
 -0.2622695  -0.39234567  0.96017474  0.11151195  0.37585038 -0.3781835
  0.2694948  -0.27194142]
[ 0.17742157 -0.28610346  0.13670796  0.27710468 -0.37963718 -0.11435304
  0.3232711  -0.75998783 -0.01217052  0.1885975   0.09442165 -0.26987866
 -0.04995219  0.41703832  0.03673529  0.00987006 -0.26891214 -0.27585328
 -0.18608889 -0.65885586]
[-0.24961315  0.39277056  0.5015347   0.01589897  0.10483122 -0.01382618
  0.7813093  -0.21162495  0.15193298 -0.07805064 -0.44029334  0.05057119
  0.29346356  0.64065456  0.20658864 -0.03742684  0.16060336  0.2844647
  0.06043155 -0.09307077]
[ 0.14246535  0.3162332   1.3021717  -0.88296163  1.6035303  -0.60351354
  0.2417045  -0.39164585 -0.6354185  -0.44559008  1.7200484  -0.18506943
 -1.666071   -0.17738147 -2.3373892  -0.28076422 -0.1933289   0.16556484
 -0.786657   -0.21183129]
[ 0.07962614  0.41316158 -0.12373316  0.03603878 -0.20740487 -0.96172917
  0.23531969  0.32836542 -0.9922626   1.0301101   0.32975027  0.60046893
 -0.0325937  -0.37480265  0.01200606  0.17318049  0.83171016 -0.0799953
  0.42382815 -0.27624565]
[ 0.1618015  -0.39788705  0.18866654  0.2844063   0.1400331   0.25030848
  0.34418288 -0.57254374 -0.54810464  0.06206712 -0.11337821 -0.5256866
 -0.00199645  0.39922288  0.15504448  0.04966015  0.6064884  -0.25033042
 -0.21221048 -0.6459616 ]
[-0.19130468  0.47566977  0.10869698  0.00896774  0.11673122  0.77925146
  0.76669776 -0.14798586 -0.42366254 -0.07009862 -0.02164356  0.36696404
  0.33387104  0.6507533   0.20896459 -0.07687456 -0.20562245  0.30156887
  0.0471915  -0.07761295]
[-1.1521251  -0.28869352 -0.35709026 -1.0528203   0.21385057  1.7190952
  0.10851004  0.22087765  1.911747   -2.6526086  -0.59484667 -1.1861787
  0.53479314 -0.19507442 -0.8192922  -0.3755472  -1.1154187  -0.6066274
 -0.29735148 -0.5381972 ]
[ 0.13735634  0.06645734  0.29473352 -0.14092     0.72927     0.3288495
 -0.18762796 -0.10402551  0.43490577 -0.06165086  0.15932    -0.41166267
  0.43464395  0.10652306 -0.28866264  0.7926622  -0.5152251   0.3684974
 -0.3760632   0.08186162]
[-0.1570995   0.7914332   0.24594858 -0.7520444   0.00165831 -0.35850912
 -1.0463599   0.87459224  0.17745352  0.20195943 -0.43074962  0.34868318
 -0.04404984 -0.8194616   0.09871745  0.04523271 -0.5571331   0.9540094
 -0.25445852  1.2832272 ]
[ 0.7278608  -0.8002956  -0.4381461  -0.6054229   0.07777031 -0.48659378
 -1.3711892  -0.10885596  0.46165055  0.00227325  0.8228607  -0.6587064
  0.42007223 -1.3266022   0.1771915  -0.02796464  0.19780974 -0.6893997
 -0.03842525  0.3723743 ]
[ 0.32452655  0.11624245 -0.41840312  0.977861   -0.8799407  -0.86261576
  0.72458255  0.21803713 -0.78644955  1.0682938  -0.79632914  1.1166219
  0.6644693  -0.48263013  0.8241647  -0.32306203  0.5551832  -0.5314264
 -0.213063   -0.3986228 ]
[-0.05897181 -0.2220035  -0.01470311  0.10711303 -0.06666856 -0.04214061
 -0.2775405  -0.04718444 -0.0089889   0.20447284  0.08799061  0.05864603
 -0.11795566  0.24349755  0.37142548  0.18105084 -0.06647972  0.16937801
 -0.04533415  0.25041118]
layer 1 Activation
tanh
layer 2 Dense
20 40
[-0.19026305 -0.38991135  0.5165885   0.38424343  0.66141015 -0.66701645
  1.341423    0.04936812  0.37409508  0.19584155 -0.53182304 -0.14585277
 -0.18577708 -0.3213964   0.14505146  0.75054675  0.58166635 -0.2855825
  0.34875888  0.41171417 -0.9882939  -0.23941825 -0.6851026   0.29442865
 -0.02377004  0.41326505 -0.5453336   0.14464295 -0.5672468  -1.3515911
 -1.0801884  -0.50057024 -0.31821847  0.19746351 -0.55787015 -0.45722806
  0.44933796  0.00814356 -0.37192732 -0.52808243]
[ 1.5381004  -0.05950509 -0.37037578  0.17859152  0.0244531  -0.02250447
  0.11411369 -0.9922747  -0.7440686  -0.997935    0.29025295  0.9184097
 -0.38123724  0.41849875 -0.9065948  -0.3235657   0.12863511  0.25900725
 -0.75687474  0.4977544   0.16046074  0.6756431   0.17956091 -0.642062
  0.7700026  -0.36334166  0.1843408   0.078775   -0.3556318  -0.00945531
  0.03258597 -0.9724722  -0.37063694  0.07020628  0.39496896  0.6551148
 -0.43791965 -0.20800272  1.1462169   0.67067534]
[ 0.13563932  0.44934517  0.25760606  0.28882658 -1.082246    0.28041542
  0.82106906  0.30141795 -0.02141083  0.47420505 -0.19647177 -0.3926109
  0.08810151  0.14701279 -0.07105245  0.20747505 -1.1219244   0.10073762
 -0.22987625 -0.7376049  -0.8624786   0.2628557   0.13099706 -0.20154928
 -0.7383222  -0.89234203 -0.14857955 -0.42007476 -0.5705405  -0.45236006
  0.08431457 -0.67911345 -0.35074356  0.44264168  0.624877    0.36426878
  0.24929075  0.4841022  -0.8429578   0.5217463 ]
[ 0.26591408  0.43433982  0.17879379 -0.09224285  0.07318578  0.48401546
 -0.00451957  0.23928186  0.00868495  0.320757    0.49431944 -0.50090426
  0.08074547  0.23465364  0.23871967 -0.66389734  0.4113945  -0.84865123
  0.34561494 -0.03310823 -0.35595593  0.0259404  -1.1906097   0.02629761
 -0.37840152  0.05468765 -0.34136513 -0.29856342  0.26115033  0.3857788
  0.072519    0.05426522 -0.09391338 -0.0850393   0.35061112 -0.0597838
 -0.22551507 -0.23589388  0.35213166  0.22185478]
[ 0.30660617 -1.5456109   0.39059433 -0.39471322  0.265352    0.53943795
 -0.01108307 -1.2169113   0.01716458 -0.26991025  0.26102963  0.439759
 -0.31805417 -0.44488022  0.20717056  0.57484245 -1.0575796   0.2230413
 -0.1839375   0.5028912  -0.16122457  0.23128189  0.06029948  0.2596134
 -0.5707886  -0.00659578 -0.2657748  -0.54016614  0.3899128  -0.13340975
  0.64058656 -0.46227393 -0.46348205  1.0945561   0.19856133  0.05828277
  0.72003174 -0.5325678   0.35917073  0.01059938]
[-0.20748533 -0.5666691  -0.17420506  0.077194    0.39589435  0.33936274
 -0.4141809  -0.3491805  -0.00659988 -0.04961735 -0.29334366 -0.9478728
 -0.7134218   0.52436775  0.02986352  0.43279302  0.5037744   0.20947605
  0.02242592  0.04355495  0.2729683  -0.876241    0.3045119  -0.05563656
 -0.7077579   0.63777673  0.92466927 -0.2532179   0.38755885  0.40241992
 -0.32368046 -0.10477078  0.21950391 -0.11376153 -0.49635816  0.24725027
 -0.2780202   0.25738487  0.79016095  0.15979934]
[ 2.2751836e-01  1.3505101e+00 -4.4000730e-02  6.1916268e-01
 -1.8187879e-01  9.7750860e-01  3.3056134e-01 -7.1554357e-01
  1.4067127e-01 -4.7622442e-01 -9.8366000e-02  3.7356794e-02
 -9.6155912e-01  3.1315243e-01  2.0059356e-01 -7.1450335e-01
  7.5916225e-01  5.8601730e-02 -4.8597583e-01 -4.8496255e-01
 -4.0836084e-01 -2.8185806e-01  4.2681973e-02  1.1720461e+00
  5.6759231e-02 -2.9029343e-01 -1.7598620e-01  5.6578629e-02
 -3.8741425e-01 -2.2851036e-01 -4.2074668e-01 -4.5684195e-01
 -2.5375530e-01 -7.6345660e-02  2.0044006e-01  8.3397865e-01
 -6.0194929e-04 -1.7575212e-01  5.3713059e-01  6.4477760e-01]
[-1.0731845   0.21418257 -0.1406744  -0.10988227  1.1895905  -0.43554604
  0.06087562  0.2754643   0.00879646  0.48626265  0.17130646  0.71393883
 -0.14879149 -0.78604573 -0.38311535 -0.997083   -0.35842714 -0.2629189
 -0.906985    0.61894435 -0.04977975 -0.63877904 -0.11648827 -0.6743642
  0.3724098  -0.6665876  -0.23156531  0.23073032 -0.14939943 -0.66883826
  1.4795543  -0.6847305  -0.12305579  0.2645987  -0.7563245   0.65996146
  0.52410424 -0.08025378  0.10565448 -0.19371472]
[ 0.13923573  0.7045027   0.05151998 -0.45834398  0.03899788 -0.17118752
 -0.6413253  -0.48138812  0.03130504  0.17312385  0.12354068  0.9026175
  0.59604496 -0.70039606 -0.18078813  0.21031938  0.8376514   0.11959379
 -0.08296516 -0.43357792  0.5161247  -0.56725085  0.01115715 -0.08710238
  1.067835   -0.23869619 -0.6488949  -0.3742995   0.8390492   0.133165
 -0.3016515   0.03913445  0.1356907  -0.70970285  0.51806545  0.01501752
 -0.48612785 -0.06051352 -0.53479797 -0.13461775]
[ 0.31928155  0.4624779  -0.37634715  0.44405502 -0.0898823   0.5137359
  1.0022469   1.6884087   0.25733402  1.0868044   0.01611759  0.6655875
 -0.3074542  -0.733801   -0.32798457  0.11328577  0.49855557 -0.62307924
  0.17389244  0.18211125 -0.63787574  1.8317612  -1.1522338   0.24166813
  1.2878385   0.15281707  0.33809602 -1.120517   -1.8181059  -0.1399728
  0.04150654  0.02993258 -0.68384826 -0.17995551 -0.05842578 -0.02386449
  0.680712    0.46234608  1.0053234  -0.18278846]
[ 0.43631357 -1.09905    -0.03804239  0.44623038  0.7547283   0.03557407
  0.05832196 -0.06013044  0.26954126  0.2527158   0.61254275  0.88912827
 -0.5552253   0.27984262  0.17195924 -0.2729107   0.55167806  0.45070976
  0.28276393  0.20215426 -0.12897186  0.7273349   0.6166402   0.32511014
  0.15034081  0.89307153 -0.37347433 -0.08889601 -0.41223493 -0.4441062
 -0.6591396  -0.15175845 -0.52041394  0.5826789   0.335963   -0.420636
  0.0356109   0.14447272  0.25225842 -0.36074275]
[-0.29493788 -0.69301194 -0.3046309   0.16511261 -0.39233065 -0.26705647
  0.41856235  0.4578365  -0.2931455   0.5475389   1.0587741   0.14009301
 -0.1477538   0.47787297 -0.3109801   0.17829736 -0.25876403 -0.65285903
 -0.24464023  0.2517958   0.23600312  1.0113949  -0.63647735 -0.25181842
  0.44992512  0.31379485 -0.13048151  0.5105596   0.06622267  0.03564702
  0.30658594 -0.0823193  -0.31550083  0.315082    0.07500124  0.4352067
  0.04669559  0.3808664   0.33693138  0.10304029]
[-1.3878827  -0.06931981  0.5683953   0.08002219 -0.25997716 -0.10748121
  0.39836094  0.32661662  0.00989589 -0.7383923  -0.96703184 -0.38815802
  0.42590216  0.17963894  0.20348819  0.7375504  -0.44565886 -0.80524814
 -0.08135189  1.2282513  -0.37919873  0.23146138 -0.7260592  -0.18409725
 -0.43687928  0.8187607  -0.6026609   0.05525334  0.81790954 -0.17226836
  1.5584724   1.1369553   0.7775003  -0.26768535  0.43793383 -0.18674825
 -1.4533929  -0.5317172  -0.28840908  0.01563728]
[ 1.0032324   0.85797197  0.5697343  -0.48531586 -0.15829203 -0.19738083
 -0.02296187  0.7088037  -1.520988    0.6309937  -0.3257754  -0.31103548
 -0.43759066  0.3053714   1.3478786   0.37680504  0.25014773  0.22776093
  0.48905712 -0.85236245 -0.32223308 -0.29201204  0.16384028 -0.3580677
 -0.29572612 -0.4632679  -0.41861507  0.6961643  -0.16449265  0.6430449
 -0.58190733  0.8400374   0.21628076  0.30619037  0.21052428 -0.2709426
 -0.47435606 -0.24702825  0.17133355  1.3934067 ]
[-5.9812146e-01  1.8041307e-01 -3.1581363e-01 -4.9938461e-01
  3.2167944e-01  1.3821790e-01  4.5212808e-01  1.7445186e+00
 -9.3507394e-02 -3.6669478e-01  1.0482268e+00 -5.7888448e-01
 -1.4692926e-01 -3.2915052e-02  3.2489651e-01  2.0153172e-01
 -5.3469455e-01 -1.3434994e+00 -3.2720158e-01  4.0396821e-01
  7.0412737e-01  1.1188620e+00 -2.3563488e+00 -3.0809334e-03
 -1.1239022e+00 -9.9174249e-01  2.6175898e-01  2.1796632e-01
 -4.6505740e-01  1.7352298e-01  1.5740230e+00 -6.9235736e-01
  2.1507552e+00 -3.0902824e+00 -1.9024011e+00  3.2790312e-01
 -1.0223091e+00  1.1232777e+00 -6.5305835e-01  3.3261770e-01]
[-0.11758531 -0.47746393  0.60607356  0.24781418  0.02502506 -0.4240247
 -0.14446248 -0.33213857 -0.05744597  0.48825213  0.08974905  0.05285134
  0.18690868  0.02851679  0.11098023  0.41333148 -0.52692056  0.35947555
 -0.0492471   0.3075057  -0.14195386  0.30357897  0.45090508 -0.08968867
 -0.3168975   0.11703218 -0.3951976   0.19779141  0.37141365  0.14937963
  0.02161971 -0.07168993 -0.16176994  0.24127753  0.35296747 -0.23236997
  0.10513842  1.8406268  -0.36608917  0.10559302]
[ 0.14069776 -0.68437505 -0.37737912 -1.6238879  -0.19738536 -0.00780387
  0.08423352  0.3921202   0.08185063 -1.8656018   0.27938464  0.2662714
 -0.7407467  -0.1533659   0.24732803 -0.5298869  -0.55004495 -0.1566951
  0.26009938  0.05317005  0.42629027  0.8612803   0.09122629  0.12930574
 -0.77408195 -0.22607642  0.84987944 -0.84302944 -0.5767645   0.03620784
  0.16721861 -0.3794916  -0.08351091  0.79133826  0.66248995 -0.04384606
 -0.01378466  0.253354   -0.6271692  -0.20565243]
[ 0.19214466 -1.094346    0.67866486  0.03219282 -0.25241688 -0.1260285
  0.28165963 -0.17576116 -0.73847413  0.67070746 -0.55092686 -0.4363504
  0.4428487   1.5956825  -0.60047644  0.16561292 -0.45857203  0.39027113
 -1.2776275  -1.3211318   1.1780912   0.29343703  0.2142556  -1.1810819
  0.3622587  -0.13956949 -0.7084482   1.5173056  -0.31084678 -0.5220602
  0.01774061 -0.4685594   0.14549373  0.20169409  0.33413452  0.55476695
 -0.7639376  -0.02370757  0.17922357  1.3214239 ]
[ 0.47763878  0.07347171  0.22220294 -0.424044    0.68379164  0.85638314
 -0.41863757 -0.12195667  0.03956617  0.36354446 -0.9820479   0.75663555
 -0.10568163 -0.50265974 -0.3426513   0.29347196  0.77987677  0.8043952
 -0.29723325 -0.8574984   0.26071462 -0.57518774  0.6744436   0.52295697
  0.52565056 -0.1730601   0.28397462 -0.22453584 -0.13771047  0.06073932
  0.01617058 -0.07918863 -0.05739405 -0.27441454 -0.35803196  0.3451554
  0.0580199   0.21927054  1.1144733  -0.17637882]
[-0.6822559   0.1885706  -0.11116441 -0.07257458 -0.3334591  -1.0832886
  0.03498847  0.37426087 -1.2897915   0.29859707  0.02010101 -0.0132801
  0.2796423  -0.2805786  -0.07326053  0.34323952 -0.8043819  -0.31119102
  0.6107377   0.2172808   0.27077425 -0.35907486 -0.2633131  -0.86546415
 -0.57892495  0.8873698   0.38599685  0.30268607 -0.1937662  -1.182377
 -0.12968247 -0.137484    0.36651865  0.1381468   0.97160506 -0.73050123
  0.16317602 -0.16284388 -0.18835922 -0.25066742]
[-0.21836826  0.11950087  0.19066016 -0.25906992 -0.21939385 -0.77125186
 -0.18148066  1.0426542  -0.455705    1.5547597   0.8668158  -0.06406407
 -0.13450865  0.21226674  0.22850415  0.27771086 -0.09840941 -0.11680818
  0.41051033  0.5477856  -0.37511522  1.237513   -1.0189177  -0.16087475
 -0.25824106  0.2442772  -0.495052   -0.32656273 -0.67917657 -0.3064385
  0.2904943  -0.32298183  0.38940835 -0.9320724  -0.7785629  -0.21603364
  0.02270597  0.66260976 -0.03558929  0.6399188 ]
layer 3 Activation
tanh
layer 4 Dense
40 20
[-0.34512556  0.3722964  -0.00912158  0.0546662  -0.39243957  0.54863375
 -0.54241145 -0.05951989 -0.28012994 -0.44060123  0.10077039  0.18382946
 -0.2668966  -0.4672862   0.26996508 -0.26853117  0.23172931 -0.03197894
  0.2025098  -0.16318697]
[-0.12286398  0.10882289  0.32402897  0.19978192 -0.17583324  0.12182137
  0.5271182   0.6020788  -0.38477212  1.1591895  -0.05888771 -1.3113511
 -0.30376396 -0.26691997 -0.17816725  1.1626337   0.24715053 -0.08942388
 -0.02516313  0.48301503]
[-0.24483748 -0.07617428 -0.03637374  0.01913944  0.18494108 -0.06222521
  0.5318219  -0.23488131  1.3065673  -0.91855854  0.14457975 -0.71630144
  0.08688294  0.0945781  -0.16048722  0.02011     0.26717067  0.5300729
  0.12291381  0.19741851]
[ 0.09767047  0.07835372 -0.69320464 -0.00553862  0.08915183  0.02986612
 -0.5887107   0.27640027  0.47824505  0.23872636  0.03652568 -0.2009334
  0.11566208  0.35694638 -0.09409202  0.08214993 -0.26076978  0.7338812
  0.14909974 -0.3281287 ]
[ 8.6945499e-04 -1.3793690e-02  6.7806435e-01 -3.2211822e-01
  2.1095951e-01  2.7651746e-02 -6.9978487e-01 -7.5499272e-01
  1.3321096e+00  1.1959335e+00 -1.5803435e-01  4.9363443e-01
 -3.1153368e-02 -5.5240101e-01  5.2268881e-01  2.8573060e-01
 -2.5929004e-01 -3.5756928e-01  1.4110513e-01 -1.8584805e-02]
[-0.04906532  0.68719524  0.70335335 -0.34483215 -0.22168647  0.33318475
  0.35708544 -0.9741175   0.00355956 -0.24795935 -0.265429   -0.53278834
 -0.16030928 -0.00217204  0.4316521  -0.10525641 -0.3132417   0.14735201
  0.12750608  0.2864335 ]
[ 0.02884487  0.33188528  0.7993574  -0.2870119   0.18520918  0.14737411
 -0.33571535  0.0640897   0.6641367  -0.3976737  -0.08567662  0.21778847
 -0.07568162 -0.10072626 -0.07058889  0.3093468  -0.39195374 -0.48511896
  0.22667901 -0.09324194]
[ 0.5144266   0.05812383  0.46134725 -0.6342808   0.1587969   0.21922192
 -0.3898866   0.82028466 -0.53385407  0.80984724 -0.06308284  0.46486887
 -0.3059269   0.01583138  0.5347851   0.20627707 -0.14950053 -0.55058056
  0.0754116   0.46313065]
[ 0.8175976   0.3205171   0.60509455 -0.5546937   0.19784765  0.3237083
 -0.31485376  0.18079653 -0.7381692   0.28093106 -0.43430546 -0.73976874
 -0.53610724 -0.6756587  -0.22396031 -0.5776052  -0.3148283   0.26257458
  0.3377844  -0.1250346 ]
[-0.3850704  -0.12102697 -0.8317877   0.41024375 -0.42738232  0.20781833
  0.27630246  0.40265104 -1.2067056   0.99733424  0.22417717  0.6887026
  0.5604428   0.60079324  0.64823484  0.02912945  0.24202438  0.22383925
 -0.21360488 -0.286461  ]
[-0.43757537 -0.25810176 -0.69656473  0.40781802 -0.46804932 -0.55894995
  0.37292188  0.30651975  0.16992837  0.8795339   0.2523356   1.2163547
  0.4239818   0.17897518  0.40129402  0.14729013  0.41476378 -0.17839657
 -0.27270836 -0.59448963]
[ 0.21680892 -0.18768825  0.5718357  -0.27326173  0.19258106 -0.07229167
  0.33622757  0.946367   -0.30965772 -0.04573035 -0.10147427 -0.31400946
  0.13288909 -0.03343363  0.5201355  -0.10708834 -0.2342231  -0.38913724
  0.02660598  0.41465867]
[ 0.21027708 -0.38822314 -0.20554546 -0.07789014  0.19756077 -0.17667381
  0.32949078 -0.70381355 -0.86856455 -0.08589753 -0.03217456  0.07990361
  0.1956823   0.18413417 -0.10289057 -0.79868424 -0.3257822  -0.10224618
 -0.27569282 -0.33246088]
[-0.27179068  0.14885311  0.43061417 -0.06597593 -0.43607408  0.168769
 -1.0990691  -0.0604216   0.3024609  -0.00816129  0.34464288  0.1712852
 -0.04221462  0.30203536 -0.6146002  -0.01705891  0.58974415 -0.23602046
  0.06486455 -0.8598098 ]
[-0.22433631 -0.14932859 -0.17435326  0.74232477 -0.76523644 -0.09803172
  0.17840955 -0.29023325 -0.33008957  0.0243936   0.05887847  0.55753124
 -0.03039647  0.1101546  -0.43251184 -0.68769187  0.38843748 -0.04808806
 -0.5815947   0.03843512]
[-0.02393536 -0.30123997  0.24015613  0.46260357 -0.20229962 -0.16586886
  0.18633223  0.00558128 -0.34788948 -0.18662022 -0.00320643  0.12978882
  0.12101214 -0.13453628 -0.6246647  -0.37125272  0.11519549  0.15846235
 -0.4953479   0.17184256]
[ 0.22355942 -0.01919436 -0.17438254  0.12351544  0.23550004 -0.00703292
 -0.388831   -0.89041406  0.201086    1.9643258  -0.15058394  0.02495729
 -0.15728408 -0.10343727  0.09634978  0.2500318   0.00906031 -0.8405132
 -0.05684869 -1.113854  ]
[-0.19518766 -0.4924325  -0.03595754  0.4237579  -0.3057982  -0.5489368
  0.05746496 -0.15525454  0.57564354 -0.7159875   0.17324102  0.61618364
  0.4444926   0.44940197 -0.38510457 -0.09653903  0.30777398  0.08702981
 -0.57809556 -0.3891092 ]
[-0.28713593 -0.80643207  0.24365032  0.7122988  -0.29850528 -0.15919475
  0.12420465  0.7570706  -0.7890048  -0.45679197  0.13445263  0.5552103
  0.2625762  -0.01601757 -0.12840642  0.43244135  0.9446114  -0.12691617
 -0.43259776 -0.28650588]
[ 0.24571101 -0.27929997  0.12690125  0.06503409  0.264097   -0.18097526
  0.10733228  0.7529968  -0.6478769   0.56828296 -0.28630087 -0.05258079
  0.21053265 -0.03792784 -0.3589964   0.5205159  -0.17827861 -0.18363519
 -0.33846343 -0.606341  ]
[ 0.17572865  0.46045738  0.2555484  -0.83144337  0.41174808 -0.05938947
 -0.06094514  0.02969766 -0.18457347 -0.05987582  0.4920987  -0.35399234
  0.56313527  0.73377186  0.49450392  0.1824289  -0.55927736 -0.5713734
  0.7265982  -0.23081365]
[-0.05425218  0.19995563 -0.4468684   0.21573007  0.51939803  0.5183147
 -0.56508017  1.6709622   0.30899402  1.1639723  -0.26683667  1.6862121
 -0.46300048 -0.38160354  0.55792445  0.6781091  -0.3467621  -0.7549979
  0.21308996  0.23490098]
[-0.2644282  -0.6083954  -0.18138994  0.3454534  -0.29740226  0.17749636
  0.2499796  -0.3774839   0.6165577  -0.10953102  0.4999401  -0.32203078
  0.06736201  0.04069257 -0.65793514 -0.5363633   0.38908327  0.77719504
 -0.24669112 -0.64333445]
[ 0.47975624 -0.34882256  0.5377165   0.07881676  0.42725122  0.45049688
  0.38161772  0.5276125   0.5737292   0.07910334 -1.0494096  -0.76376307
 -0.8128273  -0.31459334  0.01673407 -0.12480745  0.03394866 -0.4158058
 -0.18156308 -0.34096947]
[ 0.0661223   0.09065439  0.04586169  0.0709006   0.04815187  0.03333673
 -0.79186636  0.6061483   0.61535126 -0.7353722   0.02844393 -0.57440084
 -0.0672048   0.01032181  0.613656   -0.09308991  0.11086541 -0.4336584
  0.13656041  1.0031908 ]
[ 0.00654615 -0.28872335 -0.16025901  0.09894057 -0.01982244 -0.25090575
 -0.74575853 -0.07458986  0.53419006 -1.1368779   0.05840907  0.26431113
  0.09020824 -0.07285177 -0.5724855   0.06858547  0.23820059  0.8357863
 -0.17337517 -0.78635335]
[ 0.08346435 -0.20392281 -0.5018748   0.19406949  0.0848591   0.05853319
 -0.7429394   0.14326654  0.37868467  0.19625133  0.0282424   0.45076674
 -0.10382344  0.04110513  0.14083129  0.00513106 -0.05798067 -0.2751613
 -0.14752598  0.63015854]
[-0.44875854  0.1383169   0.06698982 -0.2166496   0.0846116   0.08313073
 -0.4078876  -0.6902578   0.2956206  -0.02972151  0.11223283  0.57870287
  0.10906421  0.06412087 -0.74259293 -0.5454716  -0.3329807   0.37836066
  0.20286867 -0.80002534]
[-0.263626   -0.23215055 -0.51857346  0.27149037 -0.2503974  -0.15195857
 -0.13097647 -1.7574874  -0.47354773 -0.570108    0.06629805 -0.7304147
  0.19107138  0.31465045 -0.34184223 -0.15889168  0.08080181  0.20641156
 -0.24987307 -0.49233684]
[-0.66371924  0.61724293 -0.10949752  0.49517664 -0.35810864  0.4807489
 -0.622123   -0.13104096 -0.7262783  -0.06127629  0.10649314 -0.11852579
 -0.4631414  -0.84657556  0.2696052  -0.01544902  0.52641195  0.10503767
 -0.04676326  0.27412692]
[-0.24346861  0.2846438   0.85330474 -0.3318669   0.08233525 -0.26356167
 -0.2408292   0.16147313 -0.1687016   0.45937312  0.3086918  -1.1727803
  0.34353426  0.46760866 -0.29070628  0.5583595  -0.42715704  0.04293364
  0.43798772 -0.35326615]
[ 0.10485849 -0.40634993 -0.39178643  0.59484583 -0.31424248  0.10515364
 -0.23627557 -0.17414668  0.17355008 -1.0735443  -0.27525052 -0.67054695
 -0.23285592 -0.52959126  0.04092575 -0.3377469   0.49521068 -0.01305926
 -0.5858549  -0.19431047]
[ 0.34436783  0.14495333 -0.42702922 -0.60615975  0.6024599   0.17115343
  0.32918707  0.82964426  0.93825394  0.7460107  -0.27869126  0.644596
 -0.33594552 -0.17645341  0.35577893  0.17359109 -0.6949316  -0.04027835
  0.35688278  0.42290977]
[-0.16140312 -0.23024206  0.61669666 -0.21602435  0.11432262 -0.42178833
  0.14413312 -1.8591113   0.8576849  -1.0340388   0.22610095 -0.02312017
  0.38620272  0.46152905 -0.10600036 -0.45033148 -0.28921118  0.1935122
 -0.01502492 -0.07637055]
[-0.61016065  0.25677562  0.46104673  0.0674727  -0.3799359   0.04605984
  0.30678287 -0.49789336  0.6612976  -0.23633385  0.37945914 -0.49312046
 -0.08775557  0.12467383 -0.6748106   0.01665943  0.11325851  0.07426125
  0.11365311  0.6379208 ]
[ 0.22973548  0.59472615  1.0926648  -0.67233014  0.55843735  1.0615296
 -0.40943617 -0.01858192 -0.3624427   0.2489724  -0.2613695  -0.08854293
 -0.39501983 -0.5485623   0.19707976  0.07094002 -0.05991952  0.07101474
  1.0150832  -0.46651152]
[ 0.28992158 -0.34180686 -0.11467236  0.25237823  0.3586589  -0.40138566
  0.37651438  0.8072174  -0.67462486  0.64776725 -0.27028972 -0.63635075
  0.04235798 -0.22732061  0.08669462  0.06552608 -0.0167328  -0.08873259
 -0.33234593  0.05576287]
[-4.8152000e-01 -6.3904679e-01 -1.0423895e+00  3.5007331e-01
 -4.8549357e-01 -4.5321897e-01  4.6230096e-01  3.6057106e-01
 -1.2759207e+00  4.8114118e-01  4.5976257e-01  8.2031626e-01
  3.4135491e-01  3.2894638e-01  7.8550801e-02 -2.4071765e-01
  5.5575264e-01 -6.6839450e-04 -5.2475101e-01 -4.7023678e-01]
[-2.69162972e-02  3.49956661e-01  1.42856212e-02 -9.99336503e-03
 -1.10081926e-01  1.30500168e-01 -4.27539885e-01  7.96341538e-01
 -1.12075709e-01 -2.27004662e-01  3.25302072e-02 -1.10595010e-01
 -2.40499347e-01 -1.57356355e-02  9.43255603e-01 -6.74326613e-04
  9.11856256e-03 -1.03182626e+00  1.17469810e-01 -8.40962648e-01]
[-0.45657793 -0.199405   -0.47559375 -0.29928747 -0.6811775   0.00172651
  0.14080349  0.724065   -0.07353937  0.21435253  1.0168667   0.32604367
 -0.18457364  0.36090335 -0.20876691  0.03117085  0.23289293  0.189735
  0.07154593 -1.0229979 ]
[-0.3029061  -0.13117452 -0.7262085   0.21365097 -0.5183987  -0.32209608
  0.6983294   0.7356266  -1.0639819   1.0856292   0.30940458  0.84052896
  0.24825642  0.17383188  0.9098848   0.27004552  0.39298293  0.01186013
 -0.19653033 -0.41729045]
layer 5 Activation
tanh
layer 6 Dense
20 1
[-0.42680907]
[-0.36868882]
[-0.79662675]
[0.36987156]
[-0.41808742]
[-0.45173582]
[0.17745155]
[-0.87670535]
[-0.7108946]
[-1.023789]
[0.52627516]
[0.85066646]
[0.4479332]
[0.44366986]
[-1.0982405]
[-0.38691384]
[0.39455986]
[0.40229452]
[-0.3671666]
[-0.15057902]
[0.73177505]
