layers 7
layer 0 Dense
20 16
[-0.01672204  1.3235841  -0.506168   -2.4761283  -1.8172771  -0.15595914
  1.6922096   2.242289    5.1353264  -3.5377147  -3.2336888  -1.2371097
 -5.4872103  -1.4797205   0.4669779  -2.1108308 ]
[ 0.929936    0.62664634 -1.9822937   0.57860535  0.25042135  1.6015666
  3.4788883   0.9869531  -1.1159481   1.1996541   1.4625094   0.5228521
  0.33134508  2.1682322   0.3131584  -0.4932071 ]
[ 1.3898126   0.62400675 -2.870913    0.7662639   0.59518063  2.1344447
  4.0780377   1.1528233  -1.1390747   0.8502852   1.9159021   0.8239513
  0.1305583   2.5351305  -0.4159277  -1.303493  ]
[-2.2352364  -1.4544944  -2.0007946  -0.04872183 -1.3483138   2.000132
  0.25836352  3.2336564   2.2867706  -1.8633453  -2.2544527  -2.6413538
 -1.7868835  -0.9948004   3.6807873  -9.438538  ]
[-4.1174393   0.40832013  0.78292     0.51014096 -4.7723503   3.1422868
 -0.04038917  2.130582    2.1336415   0.64336026 -3.7499804   3.3706472
 -1.6011248  -1.7372782   0.7741834   0.01850291]
[-1.9759731  -2.0498748   2.5951662   1.1286415  -0.45300624 -1.2600123
 -4.085318   -0.8963107  -0.49362123 -2.1173687  -1.340311   -1.4510261
  0.541464   -1.2508214   0.5063459   0.62532866]
[-2.0750725  -2.4964533   3.0542762   0.70741767 -0.05036345 -0.9757511
 -5.0277724  -0.7002908  -0.12311499 -2.139684   -1.6062241  -1.6899475
  0.3399723  -1.5885932   0.11774599 -0.34885237]
[ 4.170072    2.5396254   0.5451004  -0.50571215  2.5501475  -4.2526817
  0.28721982 -4.2641993  -1.7671825   0.5226036   3.3663683   0.01435288
 -0.5135004   1.1464107  -3.3024192   2.7349093 ]
[ 0.84692055  1.5877001  -3.524259   -2.0714498  -3.7599108  -4.721536
  1.2779036   0.32651126  3.4079194  -2.5524056  -5.647017    2.3300638
 -2.3271267  -2.826114   -0.16455284  2.8751674 ]
[-4.271418   -4.678306   -1.6611477  -4.0938954  -2.3754625  -2.0447621
 -5.5415688  -0.28287822 -1.9448098  -3.6996403  -2.1797032   4.34357
  0.15731508  3.730435   -0.14733098  0.6840601 ]
[ 0.10624829  1.85699    -2.1345885   2.9638584   1.4789404   2.6274583
 -5.1863623  -0.56910074  3.0896184   2.282228    0.8633281   0.07875866
 -1.6333902   2.456372   -0.40746686 -0.76946026]
[ 4.7108264  -1.2227803   1.7556677  -3.1524787   4.948715   -2.3626502
 -1.4534338  -5.2625675  -0.64544046  0.06452577 -1.8017256  -1.0434494
 -1.3525171   2.1705208  -0.2180871  -2.0493093 ]
[-0.18766034  2.4263268   0.20921706 -2.9627035  -0.22492962  2.04161
  1.0451474   2.311578    4.884476   -1.5815387  -3.098592    1.2826679
 -4.172391    1.260687   -1.9250475  -1.3303192 ]
[ 3.220228   -2.6627083   2.0065136   3.9216506   2.7686288   2.2420342
  8.013732    0.1070183   1.7359458   1.4981291   0.4499554  -0.06187601
 -4.1352224   1.1339462  -0.47007853  0.19927914]
[-1.8431015   0.4581897  -3.9092214   3.4781766   0.18402614  0.6864113
  1.1466208  -0.05930904  0.93750125  4.0638146  -0.34854552 -3.8598492
  1.4068239   2.4440453  -0.05009284  0.32436964]
[ 4.2593608e+00  3.6257331e+00 -1.3085202e+00 -3.5075228e+00
  3.3325324e+00  3.0930302e-01  2.4578767e+00 -5.0885487e+00
  2.4093463e+00 -1.7687492e+00 -2.9359288e+00 -2.4174209e+00
 -2.4445255e+00 -6.2253456e+00  6.6186845e-01  2.1294351e-03]
[-2.3155951  -0.81716835  7.5865755   2.694913   -3.594798    1.5931689
 -1.4071147  -2.7166157   1.3733495   0.6547496   1.6865506   2.2998266
 -4.629714   -3.109807    0.22449604  1.0595568 ]
[ 1.44026     8.961307   -0.8564993   0.36639646 -1.4758977  -0.9013031
 -1.7991832   0.8251486   0.5760438   1.7048771   2.3926702  -6.244107
  3.9249845  -3.6532807  -0.3432466   0.20265067]
[ 0.9311134  -3.218463    4.2719917  -6.0900455  -2.2818053  -4.540538
  3.690495    0.04944396 -3.5847447  -7.517588    0.47282574  3.9844267
 -0.42488346 -5.5444684   0.40213     0.49307296]
[-4.15492     0.7006273  -1.3449122   0.6462329  -4.613018   -1.7737886
 -0.22064312  5.9425397  -1.7486125  -3.9318295   3.3835173  -0.78721166
 -1.9408269   3.958321   -1.7156718   0.463473  ]
[-2.013968   -2.7693772  -1.8362616   1.2842218   0.23725559  1.9944689
 -0.6990529   2.0897386  -1.3170762  -0.69066286 -1.0531197  -2.2832327
  1.4895194   0.8065284   3.838336   -2.9464257 ]
layer 1 Activation
tanh
layer 2 Dense
16 32
[-0.69005114  2.1452615   2.1332235   2.8777306  -3.4483144  -1.3053976
  3.3692138   5.4753833   1.5266104  -2.1556528   2.4351354   0.69688183
  2.0757608  -2.5797431   1.5569674  -6.0658927  -1.0485084   2.919496
 -5.90813    -2.410212   -3.8147852  -0.196254   -1.454474   -1.360383
 -2.6485338   0.33178613 -2.0327582  -4.207108    6.1994023   3.595551
 -0.6123436  -0.55632854]
[-1.0799645   1.9226309  -0.10090403  3.463985    1.2700948   0.9849042
  1.0463939  -1.4284633  -1.1303185   1.7398214   1.9688747   0.6721252
 -3.3605058  -3.8415236  -2.4952362  -1.3479604  -0.7456874  -0.82655394
 -4.74544    -1.7224298   3.9029853  -4.7793965  -3.0087907  -1.2435938
 -1.8145097  -1.3199646  -5.0794077   1.3109564  -0.04849435  6.447722
  3.6357412   5.422655  ]
[ 0.1381741   1.5046868  -1.8309579  -0.8849007  -1.5480926   1.7829281
  2.0730586  -3.8709576   1.8916963   3.133977   -1.5151485  -0.8674787
  5.363023   -1.4654332  -1.9146537  -0.8358497  -0.41218358 -0.46385276
 -1.7100185   3.1292436  -2.4612668  -1.4029953   2.6620355  -2.1296833
 -2.7431965   0.26045114  0.25453827  0.7577951   2.3439896   0.71648103
 -1.8436035  -1.5534332 ]
[ 0.42981622  3.3117967  -1.020518    2.3433292  -2.2443166  -4.215381
 -3.592498   -0.8266109   2.7352955   0.39834437  4.648121   -0.20816576
 -2.3729773  -0.2850835  -3.9574342  -3.0081382   7.429597    5.2034283
  1.8955292   2.6198053   1.034881   -2.780564    1.7666557   1.305168
 -0.13562304 -1.8087686  -0.59730387  1.5529448  -1.6354598   2.2651296
  1.3207667  -4.4558945 ]
[-1.7390271   3.9205768  -0.49275562  1.943663   -1.6297686   1.0330697
 -1.2094398   1.6146411  -1.274916   -1.0951144  -2.675953    2.4334059
 -1.2304171   0.16469379  4.0990367  -3.8121934   3.144091    1.9226185
  1.3505843  -2.1019993  -2.7787616   0.6409764  -1.0990824  -2.4477398
 -1.6298319   0.7553152   0.00494744 -3.082229    1.8940079   0.7001639
 -1.1483772  -0.9771251 ]
[ 1.2311549  -0.86289155  3.4151702  -2.442849   -0.29834068  1.4937873
 -2.6467116  -1.811035    0.18145095  1.1503177  -0.14721602 -2.910111
  1.7944572   3.1882315  -3.9374962  -1.0901312   2.6755843  -0.8229977
  4.257494    3.100321    1.2622908  -2.06799     2.628931    0.7191324
  1.6040521   1.2813289   0.35656133  5.422613   -3.3877654  -0.63982993
 -3.4291332   4.418995  ]
[ 0.1561365  -1.6288795   2.6788223   1.4649639  -1.5036861  -0.07007695
  0.06003245  1.222227   -4.152311   -2.903652   -0.35841414 -3.1381073
  0.21114253  1.2341696  -3.47118    -3.682379   -0.34328765 -3.0498855
 -1.3543142   5.1691656   2.3453455   0.80527294 -3.1356115   0.42866722
 -1.4695771  -0.33949718 -5.878101    1.4459293  -2.0731316   0.54941046
  2.3397806   1.0956783 ]
[-1.1711247  -6.728904    6.049666   -3.564232    1.1381856   0.4013184
  0.392076   -3.4418933   0.08012373 -3.0080173  -1.2272239  -3.1151302
  2.685423   -6.0026703  -1.0284309   1.3014507  -0.7422684  -0.2468438
 -0.25162745 -1.0522618   2.9750187   0.04563656 -3.5781262   0.76981354
  5.0638356   2.353226   -2.5376894   1.9400729  -2.3632007   1.0221683
 -0.62806714  1.1270531 ]
[ 0.9754228   0.7215818  -1.7377896  -2.2089758   2.346707    7.349117
  0.03366801  1.0542947  -0.86292297 -0.6818353  -0.2959486   0.99573773
 -1.6956856  -3.1818936  -2.4924116   1.6220737  -1.2651796  -0.63058394
  1.1375188   1.4640532  -0.46775627  1.7591491  -4.4052377  -0.45669165
 -0.6045063   1.1691064  -1.84762     0.82873875 -1.2923867   3.4040825
 -0.96783847  4.005561  ]
[-4.662123    2.5390184   0.8146045   5.218108    2.6881373  -3.3935738
 -2.3530807  -3.0647159   0.31855047  3.5823507   1.1900158   0.8348535
 -2.0939672   1.6412959  -2.3182154  -0.4164125   1.0166825   3.5801558
  1.1088188  -2.7739065   3.5269256  -7.790075    3.6232386   1.8037993
  2.5229747   2.1616998  -0.63851964  0.7623976   0.05252114  5.2933326
  3.1659086   0.06051713]
[ 7.4921494   1.7399526  -1.4088713   0.28647915 -2.0112233   2.6608028
 -4.6405225   0.9425211   0.35393888  3.9782517   5.6875353  -1.0845494
 -0.01022733  2.0188522  -0.552822   -2.325979    4.168028    1.3314834
 -1.7395085  -0.952965   -4.6318493  -0.89251554  0.8392845  -4.6538267
  0.28172392 -0.74414265 -0.02253538 -1.6141838   3.683813    1.8546594
 -0.06767057 -0.40677544]
[-2.4207535  -0.5579536  -0.65000457 -3.0325594  -3.4319375   1.7021698
 -1.8612357   2.431227   -2.0548694  -5.1981874  -4.4652405   2.1647394
  0.82542795  0.01514175  0.7673311   1.8671608  -0.46803373 -2.2635033
 -2.4501367   1.3503118   4.4063816   1.9498507   1.0208131   6.4524975
 -1.6054573  -0.31709883 -1.5640998   0.42690906 -2.6868124  -0.2779205
  3.2025406   1.9744611 ]
[ 1.2464631   1.2291116  -1.7725413   0.37079564  3.0355752  -1.5775853
 -2.8567045   2.4296877  -2.1991515   0.9567697   2.1382964   0.04530691
  0.41016406  1.4346687   1.3393534  -0.44515294 -0.3463147   5.5797496
 -2.9471512  -3.9162576  -1.0275105  -1.5432346  -1.4863386  -2.2411664
 -0.90208334  0.05112161  5.3413267   1.1535864   0.686293    0.07298332
 -3.2393222  -3.4062345 ]
[ 1.9071636  -1.6183465   2.3792348  -0.18030532  0.83209884 -2.4671009
 -4.6377215  -3.02217     0.20096256 -1.1091182   3.2538085  -3.763361
  0.72941506 -0.54175967  0.687112    0.71727043 -3.6653368  -1.3637801
  1.0320035   1.6357014  -2.874642   -0.31261066 -1.3402691  -4.572885
  1.96994     0.3959787   0.3341026   0.6098959  -1.5099013   2.4638398
 -0.7347173  -1.8089653 ]
[-0.75140744 -1.5074593   1.9685029  -1.18874    -1.1171182   2.626143
 -0.8400618  -0.25640097  2.811525   -1.8739614  -0.87138975 -3.9433384
  2.564501   -1.7898706  -0.777956    1.69902    -0.23456648 -0.02618844
  1.2551636   0.49202996 -0.7280018   0.4834068  -1.2231112   0.77073056
  3.91139     3.6463294   0.49196276  3.6799471  -1.3085293   0.36057946
 -4.3188043   1.2084615 ]
[ 1.0251739   0.6056794  -4.2082195   2.7972066   4.474509   -3.485704
 -3.1030147   2.9968119  -4.3138576   0.50611895  0.2496603   3.9523938
 -4.911964    3.165613    2.4911706  -2.5095654   1.231941   -0.5618609
 -0.00501499 -2.5720656  -0.53305966 -1.4539461   3.273292    0.280023
 -2.6949706  -1.5815363  -0.2572431  -2.7371376  -0.86230826  1.6541151
  4.165198   -1.0335088 ]
[-1.1950241  -1.8185453   2.3420153  -1.2109054  -1.968424    2.0145395
 -1.0881956   0.01383674  3.587875   -1.5828588  -0.6921135  -2.7452676
  2.7937372  -3.2542207  -0.87092304  1.4577727  -0.6557947   0.03206246
  0.793155    0.1900805   0.98598236  0.01200274 -1.6999991   0.8462943
  3.503017    5.8352923   0.45319223  3.276189   -1.2961655  -0.9055783
 -2.379379    0.30698258]
layer 3 Activation
tanh
layer 4 Dense
32 16
[-1.9614519e+00  6.6360040e-04 -1.2854016e+00 -2.2108610e-01
 -2.8107729e+00  7.4491113e-01  2.2582756e-01 -1.8560436e-01
  3.5441163e-01 -1.9117188e+00  2.0161524e+00  4.2729959e-01
 -9.7871900e-01  1.2915219e+00  1.9045106e+00 -3.9669225e+00]
[ 1.2047526  -0.8682502  -3.9653358   0.76281893  0.70098394  3.2159235
 -2.3777137  -0.1748675  -0.5006461  -1.0028898  -1.8870078  -3.4874063
  1.8841506   0.40084377  0.5132431   0.6930989 ]
[ 3.1625712  -2.09952     4.174892   -2.5814722   1.3292434   0.63907677
  1.0582854   0.90612686  0.63086474  0.6361048  -0.23914252  4.367706
  3.607334    3.5412426   1.5217304  -0.6834057 ]
[ 1.0864294  -2.0485587  -1.4712911   1.8604643   1.123879    1.3149211
 -1.4301171  -2.2489      4.5614333   0.827766   -2.4180522   0.19839425
 -1.9198655  -2.027183   -0.45695618  3.2824726 ]
[ 1.1800945  -0.7792646  -0.68229645  0.15558329 -3.1696343  -0.7087997
 -1.6571865   4.224479    1.7266146  -2.3413978   0.21507552  1.7310513
 -0.963387   -0.7074057  -0.12857266 -0.98883206]
[ 0.913192    0.15239081  0.04215661 -6.429532   -2.3393326   0.0701753
  2.0289872  -1.8562008  -0.86909676  1.268563    5.152857   -2.9806254
 -0.7230035   2.6941962  -1.2528722   0.32616207]
[-3.9003944  -1.2053944   0.08622174 -4.255467    3.3129888   0.51690346
  3.6829119   3.6203768   1.448395    0.08219306  0.13377585 -0.20219208
  1.099165    2.9940245  -1.5005449   0.9967348 ]
[-1.2899058  -0.23798904 -0.2237484   0.0118381   1.2376082   1.5829148
 -0.48449898 -1.3642793  -0.15836659  1.0955284   0.8844702  -4.0864897
 -0.11214793  1.2421085  -1.8476473  -1.638393  ]
[-0.6743962   1.5612322   1.6532325   0.55275685  1.2573719   1.5282547
  0.24994148 -1.3388525   1.1673424   1.8811578  -1.6793303   0.30183
 -0.07532682 -0.20313099 -0.5109336   1.738917  ]
[ 0.7460955  -0.62355524 -1.7761378  -1.2820256  -1.1704575  -0.19272959
 -2.187116    3.4906063   0.6531027  -3.3568766  -1.8107383  -1.2018949
  2.3111696  -2.257113    3.0356004  -2.0488923 ]
[-1.7670525  -0.9772811   2.4079812   0.9764946  -3.7367218   1.2012777
 -4.050415   -0.1187732   1.869879    0.22142217  1.757564    1.5197018
  1.8630867   1.2628285   4.8105335  -0.1343822 ]
[-1.4336243   1.9157286  -3.9561074  -0.8909192  -1.6448882   1.5368565
 -1.5595338   4.192211    1.5390217  -3.2875192  -1.5115691  -2.1001585
  0.99646306 -2.6737144  -0.47599706 -0.85662866]
[ 0.3047267  -1.1611428  -0.08228727 -0.2016069   4.215017   -3.2934556
  1.4517534  -0.50507563 -0.64572847 -0.04938713  0.28942013 -0.7598879
  2.7842011  -0.03698845  2.3317342  -3.1649714 ]
[ 0.9528793   1.5513395  -0.35473922  2.1705396  -2.3542092  -0.02897705
 -3.0278356  -0.3305033  -1.8890053  -2.1385226   0.37266883 -1.5048242
  2.525029   -2.5179634   2.182323   -1.5163616 ]
[-0.9441868   1.4296447  -0.36959302  0.54014915 -0.08694556 -0.09099589
 -1.2349309   0.19515482 -2.2907495   1.8679683   1.1153872  -0.9901367
  0.6981017   0.3103364  -4.3515697   0.13852741]
[ 0.81937784  1.753996    0.80969054  2.6670635   0.10080429 -0.25716916
  0.5653433  -0.4711106  -1.73845    -0.49098614 -0.8502504   2.5505805
 -0.70853436 -0.961538   -0.49805465  1.9841415 ]
[ 0.47988644 -2.0560498  -0.6557011   1.6049328   0.20507136  2.3674119
 -1.4418195  -0.86505514  1.6730696  -3.098079   -1.7419499   3.3260052
  0.58066493 -1.859456    2.106605   -1.1768558 ]
[-4.5244446  -0.13037342  0.5649314   2.5484917   0.7351473  -0.6244823
 -4.350856    1.6213385  -1.026874    1.1612406  -3.127309   -2.7762687
 -1.5908438   1.2670599   3.7215893   0.288148  ]
[-0.01745984  0.12551026  1.5113634   1.135024   -1.9726118  -0.10015227
 -2.6080182   1.5672888   0.21240307 -0.8491795   0.02054746  1.8493309
  0.5957885  -4.3742895   0.5163394  -1.2735133 ]
[ 0.13957806 -1.4646717   2.5089338  -3.0716155  -0.24328896  3.06145
  1.8590181  -2.7984095  -0.62455887 -0.46447164  2.2972372   1.7087597
 -1.5720556  -0.42114335  0.35657358  0.18629497]
[-1.7573776  -2.5725217   2.2750804  -0.6181213  -1.6227006  -4.657061
  1.2824239   1.6728908   0.46733543  1.26731     1.0761476   3.3708189
 -1.6141834   1.5660356  -1.2561634   4.807537  ]
[-4.5078487  -0.48852295  2.0848532  -0.32587367  0.7802721  -0.9576049
 -1.0541375  -0.41712427 -3.5594254   2.368039    4.898064   -0.9970432
 -0.12249922  1.6772678  -2.9496903  -2.1450586 ]
[-0.17880698  2.083165   -2.6020439  -0.05347141 -0.5869008   5.206841
  0.37910414  5.576644   -0.8575722  -6.209867   -2.1403027   0.3669033
  2.8885453  -1.4969485   2.0041916  -1.9404067 ]
[-0.8364522  -1.179571   -2.5572016  -2.73779    -1.6015881   0.20151606
  2.939451    0.24542584 -5.9228616  -0.80428547 -3.3842866   0.08558584
 -1.2250437   4.0749197  -1.2273179   2.090368  ]
[ 0.3550731   1.0193266   1.0375761   1.3496225   0.01909385 -3.6135702
 -1.9924879  -1.3973283   0.3495964   0.2863108  -1.2877359  -0.65444946
 -3.4526503  -0.73434967  0.27306792 -0.7633318 ]
[ 1.7387849   4.786752    1.0350296  -0.6419404   2.3283668  -1.2688525
 -0.11615691 -1.8117667   2.4644933   1.3516699   0.26199093 -0.46538967
  1.3278339  -0.49879807 -1.905933    2.885615  ]
[-1.4063822   4.731648    2.8788192   1.137148    1.1002513  -0.8884478
 -2.0537558   0.02961342 -4.848445    0.03748381  0.19314621  0.02244795
 -4.4213195  -4.606574    1.2657554  -2.6078386 ]
[ 2.184121   -0.6669452   2.146167   -0.01683069  0.80519885  0.26425785
  2.091391   -0.05098261 -1.4483926  -0.37788025  1.9760319   1.9260305
  1.2215825  -0.6903972   3.023395    1.3844938 ]
[-2.2012413   0.11910924 -0.04300719 -2.272414    1.046046    2.301498
  1.1760477  -1.5059255  -1.2404587   1.8740433   1.0005394  -1.3561082
  3.7397234   2.1076963  -0.6268857  -2.587736  ]
[ 4.0931363  -0.25893506  3.1278727   1.5186777  -1.2195277   2.1789784
 -0.85124946 -0.69038486  1.6037467   1.7816032  -2.3059974   0.95370436
 -1.8457766  -0.80540353  2.367665    2.7269351 ]
[-1.0780998  -5.454127    1.3669578  -1.6337361  -4.963418    0.5856207
  2.6466672  -0.77237624 -1.6553937   2.4851727   1.1104077   1.2447466
 -1.0258782   0.38281685 -1.2331598   2.1446655 ]
[ 0.99563175 -1.6575383   0.86769146 -3.2499342  -2.6938381  -1.1347526
  0.6438802   0.7371616   0.79213965  1.8427156   0.9649039   0.1683863
 -1.4739286  -1.5413785  -1.5993179   2.0105948 ]
[ 0.4214066   3.3251529   2.1387699   1.5147059   1.5463146   0.46509972
 -0.64518136 -1.3122675   1.241326    1.7935661  -1.3388151   0.7734606
  0.29016697 -0.22196224 -0.34615445  0.71481365]
layer 5 Activation
tanh
layer 6 Dense
16 1
[-0.00953924]
[-0.00132142]
[-0.10204493]
[0.00488446]
[0.0144698]
[-0.01769849]
[-0.00745282]
[-0.01103502]
[-0.01175339]
[-0.01637921]
[0.00374579]
[-0.0212589]
[0.0054707]
[-0.00574765]
[0.01998074]
[0.00776739]
[0.08773288]
