layers 7
layer 0 Dense
20 16
[ 0.43157345  0.29184777 -0.52794504 -3.5750892   0.6770679  -0.7135958
 -0.6191283  -1.1248302  -1.0121862  -3.9551964   0.7730948  -2.8299475
 -1.0948381  -0.7612147   2.3346243   3.9582949 ]
[ 0.44121537  0.19707957 -1.5342588  -0.4108246   0.8221451   0.16211617
  0.3583965   0.9516573   0.31221145  0.19515468  0.6808588  -0.15192458
  0.9439199   0.07899428 -0.17440005  0.60880435]
[ 0.42929566  0.6507742  -1.2579199  -0.41258287  0.38024935 -0.25958386
  0.74828434  0.7382     -0.14862394 -0.3791561   0.67908186 -0.48063812
  1.0851357  -0.5991552  -0.04776667  1.166201  ]
[ 0.28653148 -0.15730017  1.6447088  -1.9576725   1.2038382  -1.592895
 -1.4987694  -1.5324534  -1.9645289  -2.7226975  -1.4349434  -1.3209828
 -1.53064    -2.0089066   2.7532144   2.156585  ]
[-4.3263326  -3.3715627  -0.8601863  -0.6863831  -3.6370776   0.74507415
 -1.2917254  -2.4724092   0.38323393 -0.67879647  0.5740388   1.1401633
  0.3972252   0.31275007  0.14255923  0.1779816 ]
[-0.95661086 -0.6921754   2.158924    0.64176416  0.00692303 -0.09307016
 -0.673891   -0.4089388  -0.40874654  0.02027113 -0.6485057   0.7790233
 -1.662141   -0.12722066  0.43529522 -1.0142738 ]
[-0.9163509  -0.90571666  2.3123062   0.7896899  -0.5997414   0.06862833
 -0.5338331  -0.9444836  -1.251801    0.17869967 -0.94606066  0.23221968
 -1.8011216  -0.4668241   0.13519098 -0.79594743]
[ 1.7483722e+00  1.2086149e+00 -2.0877445e+00  2.0637941e+00
  1.3681734e-01  3.1329703e+00  2.1487707e-03  3.1544578e+00
  2.5729342e+00  1.1107692e+00  9.3448079e-01  9.3688583e-01
  2.0541856e+00  1.6466256e+00 -3.2790322e+00 -1.4170901e+00]
[ 0.80308133 -0.6093871  -1.5995749  -0.21673678  0.14740705  3.425793
  0.6197335  -1.3126534   1.3658907   0.7240314   3.7816303   0.93168265
  0.8972908   1.9093252  -0.8680032  -2.8375113 ]
[-0.42227015 -0.03730725 -2.5227206   0.47962162  2.084647   -2.8548455
 -0.19309534 -0.7153452  -1.4128993   0.5445472   2.3371267   3.323317
  1.3866105  -2.2882829   0.6281171   0.2478479 ]
[ 1.7249811  -1.580967    2.478642   -0.09323795 -0.25248608  1.9846226
 -3.611869    1.2497841  -2.8456242  -0.33048943 -1.3922477  -0.09661031
  2.5600548   2.309918   -0.20447072  0.21503618]
[-2.0642889  -1.5447625  -0.1477401   6.8941183  -3.9060683  -0.28878835
 -4.2450075  -3.63641    -1.8564934   7.516089    0.9620617   6.3257656
 -1.0477806   0.01629086 -4.0986414  -2.8842452 ]
[ 0.17225847  0.20736438 -1.1837825   0.2971831   1.5308571   0.4915644
 -1.210298    1.4525274   2.2166224   0.33640033  0.9612567   0.80438393
  1.0809821   0.6005804  -1.2027391   1.1173618 ]
[-1.062005   -4.882443   -1.8923028   0.53443265  3.7898748  -0.98262805
  0.17246346  0.19234535 -2.615477    0.201595    4.3009367   0.55683666
  2.0808938  -1.9249394   0.23362043  0.0153721 ]
[ 2.4270124   0.36842647  2.7714412  -0.05995967  0.44624507  0.84595054
 -0.54705226 -0.30382425 -1.9610331  -0.23881038 -1.1220211  -0.8220673
  2.852749    2.5431585  -0.64986813 -0.1480087 ]
[ -2.9948323   -2.5209668    0.48200443   6.156771    -0.23159944
   3.139742    -3.7826574   -6.8893437    0.75963897   7.0994225
  -1.0376036    4.5507045   -0.26872015   0.657981    -2.8362768
 -10.122864  ]
[-3.0977938  -3.4709551   1.4988438  -1.9066339  -3.8283653   1.3616858
  1.0754737   0.07261423 -2.4161327  -1.7310983  -1.801287   -1.6912903
 -0.75884825 -0.12035502 -0.18496509  1.1800082 ]
[-0.89857507  6.362555    5.8270245   0.58926976 -9.372993    2.8729513
 -1.5968932  -0.6674446   6.4137077   0.20338707 -8.130976   -3.6992671
 -5.730564    6.2488275  -1.3824993   0.6201545 ]
[-5.8491793  -0.6764847  -6.5975075  -0.26854265 -0.8862323  -1.1328532
  6.16542     0.02153734  5.700112   -0.04359433  2.560099   -0.5640399
 -6.774791   -5.307923    1.3358904   0.32532606]
[ 5.615332    4.414234   -1.8725678  -5.727674    3.232452    0.7412143
  5.685624    9.000411    2.0638328  -5.2546153   1.0552564  -6.1196666
  2.6983807   2.485472    0.45904282  5.1146894 ]
[-0.29764637 -0.1111847   2.2741811  -1.123549    0.9600834  -2.9679773
 -0.29989862 -0.80993074 -2.6929367  -1.105105   -1.7783957  -0.59000605
 -2.0515158  -1.7589351   3.1262765   1.1486953 ]
layer 1 Activation
tanh
layer 2 Dense
16 32
[ 1.4442295  -2.810909    1.2152278   2.694907   -1.1361172   3.0767388
 -0.9422127   0.3061858  -5.1436367  -5.4395657  -3.7025812  -0.0763357
  2.3957236   2.035904    1.9186574  -0.62128466 -3.5178423   0.4633601
  0.5168191   3.9361706  -2.8335302   1.4716778   1.6331768   1.2801774
  0.16887245  0.49091727  2.2775743   1.5591239   1.613159   -0.35050365
 -3.0208027  -0.20301794]
[ 0.7975153   0.6479157  -1.5687007  -0.97020745  2.9674911   2.943958
  0.08382463 -5.949909    0.6715357  -0.5068844  -1.3545445  -1.9657692
 -0.5127884  -1.5678188  -2.7097793   3.305787   -1.0199524   0.01142117
  0.34986436  1.857819   -0.82893354  0.05259386  0.6248786   0.83653677
 -1.9061593  -0.7270016   0.28981137 -0.34825602  0.36037576 -0.04700287
 -0.40676555 -0.7212336 ]
[-1.1901048  -3.0972297  -0.27896672 -0.70639724 -0.51164824 -1.2454557
  0.29289395 -1.9595404  -3.7264996  -0.04311029 -0.7952867  -0.4674923
 -2.0686781  -0.21796279  1.3679212  -4.2185807  -0.6043477   2.9592464
  6.0654583  -0.17916834  0.08636653 -2.0717018  -0.04489056  5.993332
 -2.409975    2.3089268  -1.7109128  -1.2881058   5.06972     2.5520601
 -1.7092875  -1.4541384 ]
[ 0.35374862 -1.0995066  -2.2806048  -2.5761266   0.22623977 -3.6067336
  0.00729439  2.5085957  -0.13555296  0.49391663  0.64448905 -2.0178883
 -3.8832784  -1.9188085   2.1075993  -3.9551458   1.10621     2.7365115
  2.7098687  -5.156904    3.5561996  -3.9734554  -2.023772    4.325541
  1.0560213  -1.9621994   0.00810752  0.21857749  3.1761115   0.6322418
  3.2137196   5.1610155 ]
[ 0.79907846 -2.3574173   1.0792176   2.9828095  -4.9520974   0.23696166
 -0.5675594   3.766697   -2.3222427  -0.19845565  0.37859228  1.168183
  2.9164958   2.2988544   0.3230392  -1.0154201  -3.0205815   0.74238396
 -0.8783422   1.2156831  -2.4058926   0.3806639   2.8936584   3.2747407
  6.1163993   1.8835711   0.29903734  0.5762905  -0.3018625   1.9759923
 -0.40182972 -3.78973   ]
[ 2.377923    2.7477994  -0.4221412  -3.6950936   2.271322   -3.0531485
 -3.352211   -2.1891487   0.6597354  -0.6366382  -3.8280513  -3.073964
 -0.609027   -1.4885669  -0.9664469  -0.15298356 -2.6928935  -1.6907362
 -1.6969491   0.87985533  1.4804828  -3.4297402  -4.0159874  -1.6779306
 -1.2019393   0.70716673  3.0223775   2.8748124  -1.6282889  -1.2256205
 -1.7610158   1.0997462 ]
[ 5.5267417e-01  3.9595132e+00 -1.8938409e+00  1.3886663e+00
  1.8791410e+00  1.1638049e+00 -3.8765559e-01  7.1192110e-01
  3.4534714e-01  2.5627661e+00 -4.0421386e+00 -3.8821957e+00
  6.7299718e-01  3.1999304e+00 -3.0901639e+00  1.0068289e+00
  2.0115463e-01  1.1435829e-03 -2.5045056e+00  1.3468699e+00
 -1.7960013e+00  1.1702917e+00  1.3934470e+00 -6.0543758e-01
  4.2518454e+00  5.6313481e+00  1.9370475e+00  1.6372677e+00
 -5.1663680e+00 -1.4175122e+00  5.9747372e+00 -2.2471366e+00]
[ 2.2565138   2.0219104  -0.3493947  -3.252193    0.44424674 -2.5279226
 -3.54608    -1.3897866  -2.869506    3.5571463  -4.9763303  -6.196662
 -1.7628866  -0.6374209  -0.29683813 -4.8786983  -0.8610241   1.2771841
 -0.6193507  -0.62837076  1.8221046  -2.8658636  -2.685332    2.3153868
  1.4137267   2.9525445   1.1503632   3.3285253   0.16854446 -2.3450592
 -0.5851054   1.3120608 ]
[ 0.81421286  4.637433   -3.592827    1.1570368   6.4884295   1.7924511
 -0.65157884 -2.5956538   1.2442799   3.6449373   1.8538636   1.0731571
  0.57498145  0.224814   -4.715831    3.3527358   0.94676495 -2.2204072
 -2.653027    2.1599605  -0.4806524   0.54852545  0.29527685 -5.1685963
 -3.9349446   5.1536922   1.1199036   0.82166797 -0.07515752 -1.8577222
  2.2144723   0.6242701 ]
[ 0.7078296  -0.3608185  -5.013073   -5.4940233   1.3052008  -4.91546
 -2.8328948   1.6454434  -5.0134206   2.1459682  -1.7462991  -2.3143744
 -5.5230036  -7.631651    2.7682102  -0.76663643  1.629021    6.7360363
  2.7583287  -6.7793913   6.9598985  -7.262984   -3.6549804   2.2035716
  1.3151919  -0.85954744  0.74499047  3.0175939   1.000085   -1.6104051
  1.0295402   6.773965  ]
[ 0.907996    0.41034105  4.04916     1.0965916  -0.30966505 -1.2058678
 -1.0994077   3.2557619   2.4553928  -3.0310476   1.185503    0.03960804
  3.9116287   2.4140365   1.2679405   1.4363444   1.4595145  -1.275839
 -1.579671    0.11611632  1.1501724  -0.42291206  4.0460405  -1.677022
  0.5939231  -2.6469145   0.30869353 -0.19625059 -3.4687536  -1.1588082
 -0.7488112  -1.0887167 ]
[ 1.243197   -3.559491    1.5519958  -0.82202613 -1.6407045  -1.1344329
 -0.44843426  3.0245204  -2.5671241   0.34612352  1.4035622   1.8892474
 -1.030539   -1.9013685   5.2949305  -0.72015315  0.39327267  0.8463789
 -2.6205595  -1.9092455   1.5718322  -0.76966953 -1.1038225   1.371669
  1.8664045  -4.68673     0.73011744  0.08113983 -3.0476084  -0.84703004
  2.5057662   1.6676425 ]
[ 0.1883675  -1.0243701   6.4700675   2.4377134  -1.5843118   0.9686631
  0.08847488  1.6918546   0.42477092 -4.8069496   0.9225135  -0.30214128
  1.927636    3.4950416   3.4498408  -3.548906    1.4472352  -4.624239
 -0.01111719  2.0096805  -0.3134405   0.9008153   3.0420043   0.8317279
 -3.6305642  -0.9535424   1.4219793  -0.10969654 -5.274537   -2.5436053
 -2.3868198  -1.2538267 ]
[ 1.1193459  -1.7793173   4.713425    1.4144892   2.7489471   2.1844656
  0.77230114  0.11785987  4.1080728  -4.60553    -0.00517205 -1.0096222
 -2.0248137  -0.08537041 -3.5928788  -2.04158    -1.5209274  -2.2911994
 -0.49072817  1.1690422  -0.59556437  1.5089836   0.78455853  0.7045545
 -3.9531386  -1.6878458   0.40491635  0.2396127  -1.1027784  -2.3027158
 -4.0326557  -1.1124882 ]
[-2.6292906  -1.0804994   2.5659738   1.8642136   1.4628453   0.42521593
  1.9404098  -3.8628874   3.2880206   0.4685342   1.2662508   3.5224974
  3.1327536  -0.07757107 -0.4243172   2.174104   -0.44958705  0.89223486
 -0.61327016  0.61460096 -3.1914518   2.488019    1.6974579   0.51984894
 -0.5491529  -1.5683889  -1.3526942  -3.8766208  -0.2162909   1.5262572
  4.5680184  -3.7274818 ]
[-0.5614315   1.0426257  -0.6290201   1.6935195   0.59455     2.1237578
 -0.05477211 -0.59660554  1.6618319   0.8403378  -0.02449245  1.0069827
  2.2275279   3.3328807  -4.900908    2.7451513  -2.4655907  -1.758045
 -0.19030286  4.049587   -3.313378    0.1957992   2.2788155  -1.9697534
 -0.5248566  -0.24891666 -1.9171611  -1.4412293   1.7483613   0.66985536
 -0.02321466 -3.165071  ]
[-4.1728187  -3.108049    1.0771637   4.527513   -0.76051784  4.158084
  5.8031287  -0.53485394  0.98072803 -1.3773202   4.202512    3.9243367
  0.17622477  1.1425494  -0.15801156  1.2442181   2.0123475   1.4661176
  2.2814457  -0.42685267 -3.4525955   4.5912566   3.870333    0.7254388
 -0.8932478  -2.273209   -4.1849074  -4.055411    1.5366383   3.5835586
  3.0021303  -2.6362724 ]
layer 3 Activation
tanh
layer 4 Dense
32 16
[ 2.083877    2.2862449  -1.8230288  -2.0975027   2.4322772  -1.4096885
  1.8145384  -2.5974412   2.5518215   1.4848028   2.4619372  -0.25176686
 -2.4821494   0.7355076  -2.5300198  -1.163811  ]
[-0.03110552  0.66948366 -0.26735523 -0.0265958   2.6530354  -0.79531723
  0.814617   -0.8645507   1.3354154   1.4974723   0.58982015  0.41379765
 -0.38964975  2.8288171  -1.4650441  -0.44332817]
[ 2.9225936  -0.28785518 -2.3561082  -1.1693414  -1.350655   -1.5455195
  3.132067   -0.7388537   2.6198244   2.968442    0.28157648 -2.4411254
 -0.5760906   2.5873466  -0.27754012  2.2736511 ]
[-0.74519217 -1.177089    0.46642375  0.58008194 -3.135013   -0.50719005
 -0.61680484  0.24879244 -0.27045146 -1.0341281  -0.3428056  -3.532298
  0.73355496 -0.39306438  1.0088453   3.2607648 ]
[ 2.4763024   0.45878974 -0.6990474  -0.92077637 -2.5391164  -1.2530899
  1.3166556  -0.56710005  2.186753    0.8147394   0.49625447 -1.4714003
  0.17282477  2.9923887  -0.6939097  -0.18803099]
[-0.6317771  -0.73678315  0.4310944  -0.03147377 -1.0253221  -2.0920475
 -1.4633076   0.48765117 -1.635589   -0.83114994 -0.05813887 -2.5198
  1.0892752   0.7644243   0.7120426   4.424913  ]
[-1.152417   -1.9452062   0.01860403  1.779707   -3.0577655  -0.4579109
 -1.2740852   0.81798583 -1.2199037  -3.1888266  -1.9435241  -0.7953787
  1.7229266  -0.9805614   1.6722013   2.6571362 ]
[-0.8973784  -0.75680625  1.2246956   1.1184192   0.67230856 -0.2873513
 -1.3418456   0.7908891  -0.7616469  -1.8323805  -0.7226711   0.67210853
  0.47423768 -0.35849994  0.15356065 -0.75653875]
[ 0.29589075  0.5193731   0.571685    0.5800189  -2.344391   -1.5424923
  0.52839756 -0.26249215  0.78965825 -0.43481347 -0.53745544 -3.0378087
  0.83295405  1.3552034  -0.03724953  2.884873  ]
[ 0.424583   -0.1080916   0.3838492   0.12389872  2.8501742   1.2088357
  0.59753495 -0.1570916  -0.3298943   0.05568554 -0.5376731   2.1145413
  0.12694597 -0.00895204 -0.01639217 -1.6630915 ]
[-0.674495   -1.5399277   0.7810296   1.3651625  -2.4099197  -1.8284035
 -0.7950986   1.7513187  -0.5728283  -0.6396244  -1.5650728   0.17746983
  1.7253294   1.132078    1.3932911   1.5884974 ]
[-2.2017407   0.5374277   1.7968242   0.15551718 -1.1133252  -1.9074328
 -2.0407248  -0.25549275 -1.9736769  -1.1718806   0.06749286  1.2157302
 -0.52150136  0.74753135 -0.10170766  2.0237474 ]
[ 1.7943443   1.1466757  -1.1188601  -1.1364558   0.6444695  -0.7397279
  2.234045   -0.86499816  1.937022    1.0928273   1.2436872  -2.2490652
 -1.1626543   1.2584314  -0.5050699   1.6050632 ]
[ 0.1482506  -0.5558526   0.5978882   0.11533286 -0.6285256  -2.1411273
  0.11484431  0.07787309  0.70129824 -0.07719669  0.31022322 -2.8590446
  0.2575973   2.515664    0.58449745  0.7958615 ]
[-1.5737808   0.80080783 -0.62575656 -1.3866632   1.3372054   0.09672985
 -0.24491058 -0.18982242  0.03436122 -0.33459204  0.7707881   1.3794719
 -0.95868534  0.49654007 -1.6025859  -1.0401605 ]
[ 0.6707167   0.13443787 -0.6499218  -0.7533526  -2.9959989  -0.47797355
  0.13337843 -0.4944207   1.2665102   0.18765968  0.361047   -1.3094628
 -0.3137022  -0.34526926  0.1998464   1.5251479 ]
[-1.117704  -2.194663   1.4983213  1.9147924 -1.5768627  1.0980986
 -2.3778415  1.5340189 -1.6558348 -1.6496909 -1.8831612 -0.645448
  2.3789127 -0.8415933  1.3420006  0.8408975]
[ 0.39672974  0.31435364  0.10571415  0.09575726 -0.4299121   3.8549058
 -0.297467   -0.0622234  -0.24182612 -0.4688267  -0.07585137  1.8148657
 -0.02346816 -5.084877    0.03110937 -1.0781698 ]
[-2.6182158  -0.99942684  1.735546    0.52789    -0.8112947   1.0575913
 -2.6367214   1.0998846  -3.1317055  -1.7903421  -0.7589021   0.4778212
  1.1155852  -0.6899212   2.6248186   1.799402  ]
[-0.15808812 -0.27347046 -0.03125029  0.18374793 -1.8467573  -2.4133017
  0.16963191 -0.8442595   0.83028626  0.13737877 -0.06484712 -2.808983
 -0.06018666  3.2689242   0.08801135 -0.04452813]
[ 0.5877329  -0.09108077  0.08903985  0.12560605  0.7108508   1.5630243
 -0.02903904 -0.38016286  0.30117494 -0.3588758   0.09591243  2.9650898
 -0.37551087 -1.878469   -0.8745425  -2.7051697 ]
[-1.1623473  -1.7486737   0.5631269   0.23604392 -4.8961954  -1.2509233
 -1.0833907   0.41719556 -1.4666482  -0.37747592 -0.4339199  -4.6452026
  0.77354425 -0.6406323   1.2543547   4.5824404 ]
[-1.1024649  -0.1211552   0.21742672  0.88017774 -2.2706397  -0.90002483
 -1.824055    1.0017064  -1.1107544  -0.29760218 -0.49692684 -3.2475204
  0.346393   -0.72600484  0.87479794  3.0612662 ]
[ 0.08043995  0.26044068 -0.12692106 -0.05930906  0.6035539   1.1774508
 -0.23797005 -0.14704254  0.08007572 -0.32812506 -0.15090345  1.7118152
 -0.46265718 -0.6457811   0.4026352  -1.0475214 ]
[-2.1974137  -0.3707528   1.0738395   0.9038888   1.8143904   1.4651345
 -1.7525355   0.06719815 -2.2302763  -0.38180736  0.08879633  2.4051588
  0.19861446 -2.5465562  -0.31590757 -2.0498958 ]
[ 0.27170545 -0.11199298 -0.0589823   0.23683442  1.2276398   0.1962463
  0.7721464  -0.03042003  1.4317317   0.87219685 -0.11781923 -0.2176233
  0.02111039 -1.3371438  -0.10323632 -0.49597618]
[ 2.319394    0.77112204 -1.3609836  -1.9134121   0.67232466 -0.7397538
  1.8173065  -1.7721287   2.8017616   2.3767867   1.5754535   0.5782759
 -0.666884    1.2491982  -1.4996346  -1.8115302 ]
[ 1.5032449   0.9487251  -0.9358609  -0.9901518   3.2658567   0.5513768
  0.68830246 -1.4338875   0.7111283   0.67693585  1.0936004   1.8683593
 -1.4618843   0.11251955 -1.1630341  -2.2893043 ]
[-1.62987    -0.36175004  1.7058411   1.095537    0.6172017   1.713087
 -2.248079   -0.17294437 -1.5047724  -1.3499893  -0.50145006  1.928686
  1.0381318  -1.1568539   1.388622   -1.5630853 ]
[-3.4312925  -2.0534663   3.6382842   1.3003672  -1.2791969   0.10803854
 -3.5699124   1.7853869  -4.1471467  -3.5268033  -1.8621824  -0.20654243
  2.050232   -1.5768996   1.1945853   1.6453605 ]
[ 0.3864252  -0.97091544  0.5196033   1.1836106  -2.6091626   0.11905126
  0.55350155  0.217368    0.130286   -0.89791095 -1.5337266  -0.64346707
  1.342774   -2.072772    0.8687549   1.0500256 ]
[ 1.6823138e-01 -1.4870150e-02 -6.1760396e-01 -3.3314890e-01
  2.8475490e+00  1.9249276e-04  5.5256724e-01 -1.0851300e+00
  9.6114385e-01 -2.6498599e-02  2.5796783e-01  1.9022104e+00
 -5.0308323e-01  1.0707592e+00 -1.4525419e+00 -1.6959362e+00]
[-1.9260418  -2.2222197   2.62964     2.4361765  -2.2501092   1.3029634
 -1.7790726   1.4212698  -2.2015905  -1.4027636  -2.760962   -0.24091135
  2.9871557  -1.4909388   2.4545674   1.6052504 ]
layer 5 Activation
tanh
layer 6 Dense
16 1
[0.21603186]
[-0.1670404]
[-0.0342871]
[0.24713315]
[0.10293199]
[0.05895942]
[0.21163373]
[-0.09678528]
[0.28781047]
[0.18244433]
[-0.45555654]
[0.0652355]
[0.33183017]
[-0.03054827]
[0.0608969]
[-0.1093277]
[0.09567304]
