layers 7
layer 0 Dense
20 20
[-0.03790369  0.32411557 -0.08037733  0.23561177  0.15772922 -0.27640226
  0.2207744   0.236826   -0.2350833   0.34191105  0.0634258  -0.2925226
  0.3081259  -0.15745929 -0.13311628 -0.2681713  -0.02667666  0.03841408
  0.34159285  0.24755019]
[-0.15327717  0.36642012  0.06488758 -0.02066733 -0.24108803  0.10067672
  0.18338062  0.36844268  0.4208503  -0.19545864  0.00244352  0.33085692
 -0.19503596 -0.3704827   0.2150647   0.20189008  0.03370184 -0.0847431
 -0.25904715 -0.02600927]
[-0.1646081   0.05006876 -0.10412311 -0.0492947   0.17960964 -0.24002981
  0.21324208  0.07425833  0.2655352   0.321744   -0.36811516 -0.2713971
 -0.0156388   0.02758394  0.17017616 -0.10529436 -0.2390937  -0.45262492
 -0.41369185 -0.26371834]
[-0.3106002  -0.04185305  0.28392562 -0.13111477 -0.20698632  0.06150841
  0.23961598  0.14779395  0.20769145 -0.18223448  0.32081127 -0.3769552
  0.28988662 -0.23635212 -0.34462947 -0.2916967  -0.250026    0.05786615
 -0.23527108 -0.16129927]
[-0.1751706   0.08692045 -0.10338972  0.2855611   0.3548891   0.08349451
  0.04749935  0.3225537   0.27127004  0.19905542 -0.26436898 -0.26231855
 -0.29485318  0.2117466   0.09943845  0.0476858   0.21008967  0.12225899
  0.06926188  0.02430256]
[ 0.11978064 -0.32543752 -0.18926188 -0.09490163 -0.05131428 -0.19719552
  0.24720427 -0.36548415 -0.21606381 -0.21129611  0.38628808 -0.3539168
 -0.23630022  0.03894844 -0.41182673 -0.06266495 -0.2751138  -0.07701174
  0.1955802  -0.3777659 ]
[-0.33263576  0.04122223  0.08041147 -0.07030971  0.07638012  0.20192012
  0.09567008 -0.25963858 -0.2004354   0.41809943  0.0043315  -0.252269
 -0.295612   -0.2192738  -0.48119727  0.10906009 -0.36105564 -0.05953656
  0.47324505 -0.21272103]
[-0.23570551 -0.14230621 -0.3861524   0.30773062  0.00047713  0.04847689
  0.29483587 -0.03010328  0.25920892 -0.38423428  0.32105514 -0.3246309
 -0.08128569  0.37202236  0.14243591 -0.12327436  0.32099012  0.10153187
 -0.17464837  0.2644523 ]
[ 0.19778946  0.10170817  0.04667162 -0.12595634 -0.13235092  0.19633317
  0.24504991 -0.16901135  0.1861971  -0.28121936  0.19253783 -0.2769224
 -0.16371676 -0.02609376  0.09606515 -0.27237502  0.16443183  0.19044748
  0.04318411  0.10858184]
[ 0.18494415 -0.25323692 -0.07197488 -0.15349092 -0.08956805  0.2062246
  0.21024284 -0.30196923 -0.2050924  -0.24095303  0.25441894 -0.40928566
 -0.12611392  0.00605943  0.18422696  0.31090906  0.08012473 -0.20426038
  0.28668162 -0.30014667]
[ 0.4117928  -0.15899032  0.03244459 -0.33232918  0.30841786  0.0564171
 -0.06476625 -0.14075722  0.23652661  0.3007163   0.00274798  0.3440822
  0.05103404 -0.19145486  0.07791622 -0.00763279  0.36325428  0.19768186
  0.24380632 -0.0627121 ]
[ 0.08631169 -0.20454955  0.24400648  0.0531916  -0.11345206  0.2996815
 -0.20762032 -0.22571525 -0.45389888  0.07888514 -0.22329003 -0.40181196
  0.2641455   0.05710738  0.20092799  0.44956836  0.31303802 -0.00510886
 -0.13762811  0.40301704]
[-0.03874791  0.31458506 -0.22026312 -0.04805721 -0.09517545  0.17208302
 -0.15417148 -0.16052192 -0.37777022 -0.24000543  0.02902179  0.18043739
 -0.32434076  0.007702    0.10657384 -0.0078089   0.3907765  -0.42616633
  0.1251024  -0.18753919]
[ 0.07219885 -0.18146537  0.03800868 -0.07003051 -0.35412344  0.28402874
 -0.08464535  0.13160458 -0.22959952 -0.20229667  0.01690099 -0.16771445
  0.34340623 -0.17301534  0.19127302  0.44242588 -0.27018827 -0.21078263
 -0.19732548  0.0491161 ]
[ 0.29014912 -0.20180161  0.04212535 -0.06556911  0.20164266  0.34314844
  0.0322841   0.23782362  0.30216452  0.2426784  -0.19725381  0.20659542
  0.25511903 -0.16826779  0.2670487   0.19902006  0.18339035 -0.32904372
 -0.05129471  0.15959863]
[ 0.2367873   0.36619434 -0.28864563 -0.14343004  0.35170558  0.1422328
  0.36486992 -0.23546737  0.11966958 -0.02871422 -0.3837882  -0.3193566
  0.23123327  0.15107226 -0.2631962   0.29714748  0.39686206  0.1958456
  0.19005279  0.32064897]
[ 0.01337493 -0.15930112  0.13033533  0.02649306  0.26479322 -0.3534871
 -0.14124523  0.32388332  0.16654001 -0.29386798  0.11491609  0.00955795
  0.0286561   0.29343125 -0.07516188  0.02372983 -0.37565768  0.10844437
  0.0725882  -0.1238642 ]
[ 0.3142173   0.45924172  0.36156777  0.3582861  -0.35969776 -0.4355662
  0.37397873  0.29442936 -0.39746246 -0.2641951  -0.43333966  0.27212095
 -0.08448143 -0.22548978 -0.13263923 -0.5303982  -0.30407542  0.57078034
  0.03180945  0.3513587 ]
[-0.24073313  0.21534602 -0.4358529   0.2825175   0.00372302  0.05092476
  0.1127892  -0.07352592 -0.09351408 -0.27233005  0.32892177  0.09346447
  0.18766391  0.08206114  0.0631374  -0.03414433 -0.26075608  0.19771586
 -0.13081887 -0.22883789]
[ 0.29818577  0.33540466  0.3527567   0.18328674  0.03367331  0.27569798
  0.33289576  0.3537572   0.5677851   0.01950026  0.19331986  0.35137376
  0.10415136  0.18819769 -0.32488558 -0.3089162  -0.12857932 -0.0285412
  0.42878228 -0.15422   ]
[-0.01919338  0.00714792 -0.02623626  0.01139992  0.01944396  0.05409027
 -0.06063119 -0.01268045  0.05274956  0.02018544 -0.01050836 -0.04384394
 -0.0019666   0.00112901 -0.05851158 -0.05349047  0.06721322  0.02224276
  0.00896917  0.00475375]
layer 1 Activation
tanh
layer 2 Dense
20 40
[ 0.01941684  0.3035087   0.11191902  0.1452692   0.46195054  0.31295055
 -0.21941501 -0.26394865  0.2571076  -0.19581987  0.22649042  0.12398531
  0.0528901  -0.07743894 -0.25154838  0.11075813 -0.32515568  0.08565168
  0.16761826 -0.28779894 -0.23280743  0.14279403  0.3709606  -0.07698441
  0.22621067  0.33488894  0.2185952  -0.06683312 -0.19057614  0.30572784
  0.31534603  0.16028231 -0.2888485   0.29119492 -0.22209547 -0.00327837
 -0.23234569 -0.06828633 -0.03681299  0.0889011 ]
[ 0.0515048  -0.20500869  0.04588518 -0.05621536 -0.08856106 -0.30648065
  0.03348566  0.10428113 -0.23253144 -0.08349339  0.28087965  0.06991505
  0.09482218 -0.21121292 -0.17225963  0.08439875  0.02708711 -0.2580465
 -0.30313933 -0.10306685 -0.3143394  -0.05586535  0.07426655  0.1491495
 -0.21192746 -0.02166891 -0.17747115 -0.27396435  0.42263588  0.2351339
 -0.07901181  0.20021556 -0.15002319  0.02954375 -0.09533434 -0.12868278
 -0.2814726  -0.11227281  0.21375541  0.21937883]
[ 0.12853175 -0.0495781   0.15220645 -0.17365429 -0.09434255  0.23935589
  0.16983044  0.15240914 -0.19933225  0.07265973 -0.03844315  0.36368576
 -0.15314929  0.13949913  0.17864774 -0.06159727  0.26656988  0.30473104
  0.02802826 -0.21335427 -0.29406667  0.12323795  0.07761707  0.29829228
 -0.01161106  0.12602055  0.07374049 -0.2571509   0.11067636  0.24688762
 -0.38006464  0.24911945  0.16648223  0.18794468  0.07124566 -0.2452368
  0.2680189  -0.25222775 -0.21801226  0.01507704]
[ 0.14945394 -0.18566386  0.26795584  0.20193861  0.04675911 -0.04742927
 -0.13045086  0.09704564 -0.26668274  0.21673575  0.278744   -0.19302462
 -0.20950408  0.05891277  0.10845809  0.24521603  0.09166262  0.26802874
 -0.36184704 -0.1684804  -0.34306002  0.21348552 -0.03527969  0.09968369
 -0.20211913 -0.22347583 -0.30602497  0.2877634   0.30320415 -0.0180678
  0.02409789  0.18473783 -0.20766394  0.00288356  0.22921762 -0.3698634
 -0.17191575 -0.1838659  -0.11863063  0.21632718]
[ 0.16909342 -0.20362614 -0.12034729  0.13479944 -0.32387412  0.1800805
  0.00287058 -0.00716101  0.03954098  0.18381056 -0.12167176 -0.30722842
  0.11064339 -0.08547151 -0.23326302  0.26620433 -0.20169371 -0.04247383
 -0.17231052 -0.09605645  0.27224782 -0.2324398  -0.09428682 -0.15468985
  0.16568117  0.21699241 -0.04184265  0.17120302 -0.28136912  0.18066989
 -0.10028625  0.20526944 -0.007926    0.2569661  -0.22475106 -0.17203727
 -0.29595444 -0.24155864  0.08129537  0.00722084]
[-0.17511918 -0.01299351  0.24466975  0.04170848 -0.08280692  0.21765524
 -0.17695649 -0.09637223 -0.12654275  0.21060102  0.02301841  0.21513666
 -0.19299372  0.22363402  0.309592    0.17629795  0.17883228  0.16414024
  0.23335749 -0.29534227 -0.18649206 -0.16998172 -0.11709193  0.12206129
  0.30999476  0.25967792 -0.2970939   0.25742814 -0.27138427 -0.30854818
 -0.26073864 -0.28354645 -0.00161121  0.14915444  0.13548447  0.03108636
  0.19207114 -0.19259718 -0.04162624 -0.24676554]
[ 0.04266464 -0.04966449  0.14564648 -0.22106533 -0.05142727  0.15247922
 -0.12768905  0.18127562 -0.20744587  0.19869621 -0.28968737  0.31140134
 -0.27596456 -0.05414861 -0.27040616  0.30787084  0.15099408 -0.21986432
  0.28094968 -0.04332235 -0.15973355 -0.00383969  0.03506676 -0.24042222
  0.19798158 -0.1189886  -0.0823036  -0.12337455 -0.10227451  0.08871059
  0.01661901  0.26689988 -0.31244808  0.02156222  0.15026231 -0.38359165
  0.07964774  0.22185361  0.21186957  0.09656232]
[-0.17332898  0.13599555 -0.20719986  0.00245587  0.02705463 -0.19551316
  0.2366313   0.10213544  0.03446971  0.18808158 -0.00647609 -0.07074557
  0.02631576 -0.0582298   0.06283496 -0.10785051  0.03885153 -0.06247457
  0.28296903 -0.34013984 -0.23779754 -0.13528682 -0.17562371 -0.14776771
 -0.10482617 -0.22955845  0.20509087  0.02810647  0.08001228 -0.02631771
  0.18452784 -0.20931265 -0.23924096 -0.08528703  0.10369568  0.0597245
 -0.01108169 -0.01726014 -0.17824039  0.11861286]
[ 0.2716375  -0.03617686 -0.15746142 -0.05576958 -0.03061673  0.27649522
 -0.19443077  0.07881228  0.03625237  0.09595308  0.08978184 -0.23577777
  0.13077047  0.2638093  -0.30032465 -0.11730524  0.24841551  0.18408789
 -0.11137556 -0.02521772  0.18052636  0.11566058 -0.02084434  0.19622868
  0.27546218 -0.03013109 -0.21040297  0.02081062  0.06855287 -0.30875856
  0.03421603  0.31019822  0.01138763 -0.08186778 -0.14329673 -0.2086761
  0.03879132 -0.05155269 -0.23279782 -0.1901441 ]
[ 0.05322738  0.2823329   0.25372574  0.19810909 -0.07554373 -0.17677787
  0.22872812 -0.10059511 -0.12183034 -0.07794458 -0.12859392  0.23824733
 -0.02300159  0.10074447 -0.13656653 -0.19055678 -0.22827777  0.10257383
  0.3181807  -0.11265693  0.18045032 -0.03762861 -0.02469413  0.24860717
  0.19691458  0.14604303 -0.20087104  0.09685589 -0.25990626 -0.12897028
  0.19544244 -0.2074689  -0.26898313 -0.05975445 -0.30552232 -0.10288351
  0.2784793  -0.3392621  -0.03596082  0.14775042]
[-0.05114968 -0.18713638  0.02411738  0.34008387 -0.4144402  -0.2053184
 -0.31995893  0.30327907 -0.2507234  -0.01393938 -0.08895633 -0.16552468
 -0.1691282   0.1066264  -0.00607529  0.12545295 -0.23509106  0.12643121
  0.1834526  -0.04742602  0.20926215  0.2806469  -0.10322329 -0.21705642
 -0.03591906 -0.099066    0.28368306 -0.10953423 -0.21657668 -0.05349833
  0.03623903 -0.24295117  0.03631479  0.14587286  0.14177997 -0.09171487
  0.15406191 -0.26357836 -0.23868659 -0.06619507]
[ 0.25435492  0.06373078 -0.0187796   0.00673623 -0.18154363  0.06777926
  0.28963107  0.03675466 -0.05893928 -0.03985076  0.2506255   0.13109335
 -0.00456165 -0.32162586 -0.19781862 -0.03704459  0.01022476 -0.27595097
 -0.27086157  0.38066143 -0.11427348 -0.1871366  -0.04441829 -0.1718383
 -0.27075824 -0.02103378  0.01746844  0.11291569 -0.06126244 -0.24815688
  0.14720535 -0.00533092 -0.00511489  0.07032749 -0.01603407  0.20607373
 -0.11353081  0.16729712  0.11716992  0.13183138]
[ 0.01632523 -0.36209384  0.2591771  -0.00419582  0.1297989  -0.03464235
 -0.06965909  0.1742141   0.16994524 -0.3055496  -0.10017975 -0.17549208
 -0.18871705  0.22908083  0.23558944  0.27103946 -0.22226039  0.1196848
  0.13018191  0.02368186 -0.08809971 -0.2007391   0.02173981  0.12030925
  0.26101848 -0.27541685  0.084229    0.23327573  0.171487   -0.14366989
 -0.21676187 -0.25687972 -0.19070946  0.01851349  0.14031444  0.08981408
 -0.16321461  0.25716138  0.2733854   0.23673612]
[-0.11061658  0.04008608  0.12818827  0.11180093 -0.27165684 -0.16356507
 -0.11725674 -0.2807926   0.27750996  0.22047202  0.02378977  0.18007319
 -0.08852355 -0.02060226 -0.0531865   0.26954877 -0.2821318  -0.17325483
  0.11778153  0.16862495  0.1330279   0.20115343  0.1486908  -0.21634541
 -0.22757883  0.3043355   0.20540585 -0.16661693 -0.10356036 -0.02989356
 -0.17266077 -0.26674488  0.26448852 -0.21833076 -0.16776052  0.00894378
 -0.17593119  0.03548641 -0.08197435  0.13717365]
[-2.5468194e-01  1.2743513e-01 -2.7935184e-04  2.2511816e-01
 -2.3983404e-01  1.0688326e-01  2.0905405e-01  1.2182308e-01
 -2.2825885e-01  1.1734788e-03  2.6766703e-02 -2.8248024e-01
  2.1837524e-01  1.5775573e-01  4.9148537e-02 -2.5234270e-01
 -2.2234406e-01  2.0097026e-01 -3.0274960e-01 -2.6845601e-01
  1.0648084e-01 -1.8262300e-01  2.5160530e-01 -3.5180441e-01
 -1.2759295e-01 -9.7588457e-02 -2.6767445e-01 -2.8804758e-01
  9.0640903e-02  2.2148113e-03  4.0202558e-02 -1.0301196e-01
  4.5083657e-02 -3.0974737e-01  9.2446953e-02 -8.3665311e-02
 -2.6356843e-01 -1.1991575e-01 -1.8325631e-01 -2.0497542e-02]
[-0.25894415 -0.04024551 -0.1431281  -0.27615947  0.05717513 -0.06005479
 -0.17641631 -0.08758267 -0.19252858 -0.06259269 -0.11782658 -0.26535943
  0.1890988  -0.18746386 -0.09557613  0.12588781  0.10040463 -0.04755252
  0.05526097 -0.24270648 -0.14331879 -0.10678501 -0.06499553  0.05531271
  0.01872073 -0.03555174  0.07719932  0.21981284 -0.3045463   0.03911099
 -0.10506734 -0.04032525  0.13279153  0.23467724  0.23696752  0.03656006
 -0.18922454  0.05247189  0.22357318 -0.14101884]
[-0.33707154  0.40306476  0.32324648  0.03422125 -0.08252777 -0.01889237
  0.19900377 -0.03515925  0.2377044   0.28473914 -0.13341992 -0.09462879
 -0.05943055 -0.22525212  0.25807658  0.05167312  0.18804725 -0.02964101
  0.02939002  0.25929037  0.21285304 -0.2863884  -0.2011092  -0.362091
 -0.16824844  0.29282388  0.1827338   0.06834136  0.03268252  0.11175901
  0.3127162   0.21318057  0.28622562 -0.18858208  0.13620068 -0.03422134
  0.10109679  0.04460763 -0.23546536  0.14271614]
[-0.00200064 -0.1127357  -0.13413323  0.3227386   0.11462294 -0.11963323
 -0.2125763  -0.19818889  0.13711719  0.06853173  0.31881708  0.29942223
 -0.12805504 -0.2652657   0.1790392   0.27022102  0.09664495 -0.21160528
  0.02357446  0.13268039 -0.02891976  0.09650487 -0.18631065 -0.17858666
  0.04574694  0.033851    0.0197363  -0.06087341 -0.18620972 -0.22099796
 -0.10308867  0.2165181   0.20174257  0.23045908  0.27608845 -0.02301932
 -0.03353041  0.17208669  0.12617993  0.08928362]
[ 0.15000682 -0.01513691 -0.26679963 -0.00207839 -0.23202299  0.074127
 -0.08035611 -0.04163313 -0.23072717  0.16181302 -0.09622628  0.14500444
 -0.38473657  0.09151033 -0.12854314  0.00150457  0.16746603  0.21476988
 -0.06014647 -0.26956216  0.02846895  0.20191722  0.04084514 -0.11761176
  0.2439319   0.29208305  0.23509645 -0.25909197 -0.14653693 -0.26328388
  0.02904913 -0.25968528 -0.34638318  0.19952719 -0.12766467  0.13278219
  0.27789918  0.09652535 -0.02935068  0.05197258]
[ 0.10287667  0.11000228 -0.04179324 -0.26132187  0.12629934 -0.18887219
 -0.25490868  0.10736992  0.20611425  0.11658939 -0.16713244  0.22730651
 -0.1718742   0.10838176 -0.23625539 -0.17424545  0.00958092  0.03103809
  0.3063184   0.26836497  0.11436965 -0.00628777  0.23771779 -0.06476762
 -0.20527215  0.36533615 -0.11342518  0.04549927 -0.03997434  0.18838717
 -0.24490409 -0.21449172 -0.05655172  0.1914831   0.2586839  -0.24835165
  0.2341402   0.01933374  0.13192567  0.16511297]
[ 2.44362876e-02 -6.28621802e-02 -1.46891782e-02  1.56631470e-02
  1.89679358e-02  3.28382701e-02  1.50908483e-04  1.00422725e-02
  4.61072102e-03 -4.81197610e-02 -1.20387664e-02  2.08731573e-02
  3.33426818e-02 -5.33878282e-02  7.65219051e-03  8.02674703e-03
 -6.58301683e-03 -6.81475271e-04  3.13215423e-05  2.54991464e-02
  1.95795503e-02  4.90432326e-03 -3.53249125e-02  9.93990600e-02
 -1.04604044e-03 -1.20278085e-02 -1.58872269e-03  1.68568026e-02
 -3.73699423e-03  1.00237094e-02 -7.35329241e-02 -4.68142424e-03
  2.35754270e-02 -2.97724493e-02 -4.49159779e-02  2.15034969e-02
  8.79141688e-03 -1.11483475e-02 -5.30020334e-04 -3.17385234e-03]
layer 3 Activation
tanh
layer 4 Dense
40 20
[ 0.0663712   0.17548604  0.2484877  -0.03515509 -0.09606244 -0.33215258
 -0.15914223 -0.24390234 -0.24927418  0.19834714 -0.35710558  0.14198181
 -0.19816704  0.20835252  0.2397769   0.2560981  -0.20523009 -0.30281276
 -0.04199803  0.16174617]
[-0.260716    0.07437699 -0.06619173  0.19313166  0.23708726  0.3003661
 -0.17644979 -0.292614    0.19551976 -0.04537259  0.1450859  -0.03374542
  0.00439956 -0.2652906  -0.05038873  0.05845657  0.21517849 -0.0268399
  0.3220359   0.25187424]
[-0.2625065  -0.05604228  0.13581015  0.01951451  0.26352125 -0.04750196
 -0.07982685 -0.29480264 -0.00905285 -0.09991303 -0.01062977 -0.06978437
 -0.19884174 -0.1988071  -0.0291404  -0.25137854 -0.20294409 -0.18322378
  0.1438337   0.2170232 ]
[-0.03847218  0.09312849 -0.13489407 -0.22043991 -0.08090342 -0.16080016
  0.18549232 -0.08136918  0.05860331  0.32553393 -0.11071835 -0.24466942
 -0.3097295   0.09560542  0.24740969  0.05362873  0.09441185  0.2518557
  0.07173728  0.01916717]
[ 0.09793103 -0.09644921 -0.17601588  0.01247302 -0.25251305  0.28599563
 -0.24697725  0.27851197 -0.2927471  -0.05820867 -0.06132045 -0.05254124
 -0.08464197  0.30741274 -0.18842368  0.0430043  -0.1029042   0.14000085
  0.23283833 -0.181298  ]
[-0.2356729  -0.1883662   0.25826696  0.19666299  0.0787036   0.07129163
 -0.10823416 -0.02812637 -0.27737087 -0.05438109 -0.08529877  0.02011487
 -0.09579697 -0.34973526  0.10781909  0.05123131 -0.1855933  -0.19949621
 -0.01813612 -0.05966376]
[ 0.16362362  0.18787783  0.17081337 -0.21776527 -0.04202561 -0.03013653
 -0.27936321  0.11083968  0.17236777  0.21740744  0.17166187  0.09869394
  0.07678814  0.23858929 -0.25935242  0.20248717 -0.30868933 -0.24791776
  0.12564145  0.02548955]
[-0.06556523 -0.08126388 -0.09134348  0.24153225 -0.2924565   0.07365115
  0.03141394  0.02592039 -0.13513595 -0.04560856  0.23726591 -0.14604092
 -0.18213905  0.3104011   0.14459696 -0.2425349   0.1018625  -0.21527764
 -0.16888542 -0.2930933 ]
[ 0.04649319 -0.1877388  -0.02877385 -0.333877   -0.00173312  0.15500048
 -0.02357995 -0.26611274 -0.18033881  0.020058   -0.20276597 -0.14081663
  0.14695516  0.10770774 -0.10692155  0.27632543 -0.26007164 -0.04965249
  0.28759375  0.26318386]
[ 0.08060585 -0.17477825 -0.1405423   0.01556539  0.2682104  -0.17340913
  0.15236773  0.14406946  0.02087722 -0.1740176  -0.02072876 -0.18632273
  0.10127269 -0.26668647 -0.27260032  0.29227957  0.05077282 -0.27004853
 -0.07426813  0.01604401]
[ 0.11489915 -0.29213217  0.00081005  0.00936532 -0.2859749  -0.01971463
 -0.16072209 -0.24062823 -0.2778343   0.0737603  -0.04700473 -0.31684718
 -0.08958673 -0.29071397  0.10950191  0.22289465  0.2804252  -0.01445379
 -0.13907318  0.06131491]
[-0.09009362 -0.25261137 -0.12301948  0.14941736  0.10214859 -0.29994836
 -0.07613581  0.24871297 -0.11699799  0.23325211 -0.22738361 -0.22851737
 -0.04230768  0.36572653  0.03598636 -0.04583092  0.23885761 -0.23257993
  0.14486435 -0.27587354]
[-0.01569536  0.10884655  0.16394997 -0.02627633  0.16627501 -0.04959096
  0.08710164 -0.291637   -0.04564176 -0.18770203 -0.01303348  0.13142003
 -0.19084124 -0.05258613 -0.12108232  0.13577744 -0.18935712 -0.29682732
  0.1844671  -0.2843225 ]
[-0.2695094   0.1467816  -0.2508411   0.1318494   0.17061831  0.12495344
 -0.03658018 -0.06301638 -0.13274896 -0.06597048 -0.20785677 -0.09576487
 -0.07254315 -0.08080059  0.2585583  -0.1086549   0.01731081  0.03086503
  0.06675766  0.19205303]
[-0.2159419  -0.16766094 -0.06294695 -0.29493183  0.09863608 -0.23629028
  0.2267107   0.16476326 -0.06275469 -0.03016326  0.16218837 -0.00461446
 -0.26298326  0.04914751 -0.08025825 -0.22230256 -0.15284997  0.26324242
  0.15301725 -0.00406938]
[ 0.1687776   0.1428936  -0.30838707  0.20598222 -0.16685225 -0.25084102
  0.27927703  0.02886966 -0.17879137 -0.23919788 -0.3036028  -0.24670377
 -0.06864757  0.10495225 -0.11426368 -0.07216133  0.19832027  0.17447035
  0.0110754  -0.2978156 ]
[-0.10014318 -0.13162737 -0.15094633 -0.0329649  -0.13922036  0.1121645
 -0.00670659 -0.14758718 -0.12045316 -0.32650524  0.24974868 -0.05724125
  0.25366515 -0.12650673 -0.20418242 -0.17605256  0.2296018   0.24984908
 -0.08243585 -0.27934563]
[-0.24797459  0.22299528  0.17879277 -0.14269081 -0.0606907   0.2763862
  0.14022663  0.18090095 -0.15091056 -0.22170459  0.17486358 -0.03423241
 -0.27155134  0.02506379  0.18370816  0.16281661  0.29288462  0.19668557
 -0.15125781 -0.08326389]
[-0.2132132  -0.31081337  0.07715382 -0.01375321  0.02414457 -0.2160531
 -0.25676557  0.01613115  0.11287173 -0.2786232  -0.17509866  0.283189
 -0.05762821  0.0426977   0.10723193  0.0177712  -0.12795879  0.19487983
  0.12435214 -0.07435209]
[ 0.17802528 -0.26745307  0.05751244 -0.07443079 -0.24831712  0.00516621
 -0.28807685 -0.00689052  0.15431534  0.21162021 -0.07738768 -0.06514243
  0.0059315  -0.24246247  0.19233413  0.05177299 -0.23595065  0.14447847
  0.15036367  0.28847525]
[-0.10723489 -0.03084411 -0.1969904  -0.33765686  0.07023697 -0.0358149
  0.13516429 -0.06211041 -0.15291297 -0.15198357  0.15145427 -0.03101126
  0.17094603  0.12245628  0.05362994 -0.33130744 -0.11627861  0.1960695
  0.26818272  0.2787719 ]
[-0.04250083 -0.16321012 -0.00997622 -0.19942974 -0.0149326  -0.15461145
 -0.09588411 -0.07031118 -0.27489778  0.09147108 -0.06741238 -0.15238148
 -0.2582125  -0.19430774  0.32655933 -0.10853448 -0.24635069  0.11806957
 -0.28220582  0.33638617]
[ 0.09263291 -0.01678377 -0.27915972  0.06179743  0.18676037 -0.2279352
  0.20127787 -0.13478547  0.13995077  0.30677405  0.06757829 -0.12201911
  0.1062543  -0.03323732 -0.14445287 -0.04316592 -0.2540979  -0.23307729
  0.2760857  -0.17168008]
[ 0.03639628  0.09327172  0.3015465  -0.26598164  0.18678348  0.17430231
 -0.19347733 -0.28699085 -0.30982888  0.02684504 -0.26908815  0.11255193
 -0.11088365  0.30076393 -0.17977132 -0.11661769  0.17843102 -0.03640469
  0.20133853  0.21466342]
[-0.26973256  0.00126063  0.02749807 -0.09527787 -0.00197274 -0.18325634
 -0.2661312  -0.24596955  0.12719224  0.23844811  0.2889556  -0.22234674
  0.06303357  0.05315009 -0.10327029 -0.23200418 -0.03318793 -0.02890574
 -0.12782833  0.08910307]
[ 0.21757475  0.23973233 -0.12412824 -0.31501293 -0.16396102  0.28268784
  0.0715883   0.08786261  0.25130272 -0.12342829  0.05088113 -0.1415962
 -0.04655566 -0.0870184  -0.14407401  0.1969346  -0.27458313  0.18795732
  0.20062755  0.16383623]
[-0.10580517 -0.10847887  0.2873785  -0.214255   -0.15124334  0.3091079
 -0.04747056 -0.18954302  0.06813791  0.22595198 -0.02514843  0.14551774
  0.09210969 -0.11035006  0.31051618 -0.1638924  -0.27905935 -0.25837436
 -0.25536883  0.16450313]
[ 0.04948759 -0.16570228  0.21680163  0.08504263  0.11344067 -0.3218398
 -0.22571683 -0.0373922  -0.18478261  0.26192582  0.06870776  0.11279299
  0.0268332   0.01704274  0.05466738  0.24596964  0.2928834  -0.12479951
  0.10103308  0.2030666 ]
[ 0.11385114 -0.26157382  0.27919275  0.30198812 -0.194107   -0.25915715
 -0.25926566  0.03148426  0.03648278  0.23550977 -0.17243212 -0.06210299
  0.31486216  0.14579119 -0.26664197 -0.03025411 -0.19490439  0.04483647
 -0.24352951 -0.14514332]
[ 0.2944431  -0.02227442  0.04699143  0.20918624 -0.14613742 -0.25854117
 -0.06281017  0.16220091  0.00529361 -0.23470618  0.13882384  0.11649706
  0.16830298  0.09940039 -0.16109286  0.21655269 -0.15804334 -0.21303865
  0.1327138   0.17406742]
[ 0.14003682  0.1636507  -0.08361528  0.2554867  -0.070495    0.09161291
  0.07161401  0.17801718  0.1062111  -0.29342878 -0.05929389  0.05108863
 -0.04531161 -0.17464222 -0.11187     0.27580583  0.08033466 -0.17776398
 -0.17531517  0.04532356]
[ 0.02684232  0.1720324  -0.3065529  -0.00563365  0.00863746 -0.23916633
 -0.04371636 -0.222667   -0.18749072  0.2661016  -0.26446912 -0.21312682
  0.05305929  0.00916764  0.0470791   0.19712915  0.01938411 -0.07603784
  0.25361788 -0.1796224 ]
[ 0.08810969  0.23613772 -0.0827922   0.16980796  0.28878397 -0.2921333
 -0.17562076  0.24121864  0.24131043  0.2765814   0.24884295  0.00912499
 -0.01339042 -0.02470873 -0.06369116 -0.05012724 -0.09433232 -0.08112392
  0.20117366  0.05787764]
[ 0.02163178  0.05549871 -0.10369694 -0.14411582 -0.1440867  -0.1051149
 -0.15021075 -0.2609513  -0.16402395 -0.08950902  0.2264827   0.06355259
  0.27533853 -0.23809932  0.0313791  -0.12137487  0.12937824  0.10279474
  0.12830463  0.11825426]
[ 0.22876522 -0.05005728 -0.05753493 -0.13800514  0.17990959  0.03492781
  0.07459676 -0.18733394  0.15968497  0.12822184 -0.10559873 -0.11155153
 -0.1325055  -0.27222887 -0.21960069 -0.00407366 -0.0778258  -0.19012646
  0.31543937 -0.16211495]
[-0.0766771  -0.00124507 -0.15964693 -0.1528823   0.08075093 -0.08696535
 -0.15720028  0.01956118 -0.20972282 -0.09826956  0.24225688  0.1479399
  0.11954013  0.2233239   0.299811    0.22526239  0.027124   -0.25907385
  0.07374257  0.16133223]
[ 0.20874773  0.16992885 -0.0848508   0.12425432  0.16981752 -0.35174376
  0.1091565  -0.13114148 -0.10450105 -0.1511006   0.06650639  0.24109688
 -0.11881174  0.22705123  0.22280665  0.19655757 -0.11652514 -0.02997784
 -0.10925491 -0.06008921]
[ 2.3652890e-01  1.2702653e-01  8.4440224e-02 -2.3638269e-01
  1.0299557e-01 -4.4170287e-02 -2.5696281e-04 -9.1199130e-02
 -4.0141966e-02 -1.0107493e-01 -7.9598375e-02 -1.3268857e-01
  1.6683418e-01 -2.7532380e-02  2.7758640e-01 -2.4075991e-01
  8.1924938e-02 -7.9200357e-02 -2.5422639e-01  2.4451555e-01]
[ 0.22624235  0.2593854  -0.25605777  0.05205638 -0.19253953 -0.24601443
 -0.09638718  0.13705623 -0.24447517 -0.07415381  0.24371909 -0.17259759
  0.03089634 -0.23934954  0.28236583 -0.33020952 -0.2647699   0.30482164
  0.20338652  0.08756478]
[ 0.32893863  0.14454362  0.34234962  0.07357552 -0.2801913  -0.12174547
 -0.26751903  0.02566616  0.07953716 -0.36095157 -0.14714484 -0.18450117
 -0.1360117  -0.01096781  0.19469832  0.09299138  0.03754079 -0.12959139
 -0.22146289 -0.03228699]
[ 5.32706361e-03 -1.26965344e-02  1.11457454e-02  6.66416902e-03
  2.73848348e-03  6.30405638e-03 -9.74330772e-03  6.52085757e-04
 -1.46616893e-02 -5.26525220e-03 -7.39082461e-05  4.71827900e-03
  4.26992355e-03  3.14926952e-02  1.05520114e-02 -1.17457528e-02
 -2.99149426e-03  6.23274129e-03  1.27377175e-02  1.01554003e-02]
layer 5 Activation
tanh
layer 6 Dense
20 1
[-0.40223542]
[0.01371]
[-0.22471505]
[-0.35310125]
[-0.35598943]
[-0.16929723]
[-0.3570065]
[0.0788523]
[0.32176152]
[0.10835297]
[-0.20346285]
[0.30253088]
[-0.12295475]
[-0.22532575]
[-0.30066496]
[-0.31558615]
[0.13643247]
[-0.35167304]
[-0.21648085]
[-0.00868279]
[-0.00635286]
