layers 7
layer 0 Dense
20 20
[-0.10130262 -0.17866519 -0.34743437 -0.24932615  0.13743663  0.5511476
  0.4557254  -0.22332844  0.42966494 -0.34725156 -0.01057198 -0.7774305
 -0.17569162  0.24973492 -0.54521    -0.2384601   0.00199047  0.67451
 -0.19735366  0.42210692]
[-0.03891346  0.19076937  0.19486684 -0.01589414  0.18644655 -0.26943687
  0.03755212 -0.15008524 -0.1126276   0.26457876  0.09075615  0.04592395
  0.12672925  0.01403525  0.00364861  0.3441311  -0.18808186 -0.35272095
 -0.17313991 -0.13083991]
[-0.20280081 -0.31879482  0.22530383 -0.10353357  0.1105496   0.361319
  0.05137879 -0.02990228  0.3649211   0.10085869  0.35514754 -0.36797944
 -0.17343761  0.26204312  0.10163295  0.3672253   0.21174091  0.35009193
 -0.22405294  0.0500828 ]
[-0.06611837  0.05655614 -0.73848766 -0.8802126   0.46604708  0.06809314
  0.5792005  -0.42109582 -0.0347456  -0.2823574  -0.73182917 -0.22316025
 -0.23770316  0.66875243 -0.45518753 -0.22518864 -0.583094    0.77619845
 -0.23409109  0.10568334]
[ 0.46801051  0.18692476 -0.19582018  0.25386608 -0.46184817 -0.52271545
  0.3786472  -0.36104295  0.7025433   0.24811043 -0.32433373 -0.22241205
 -0.6263126   0.5474329  -0.6878055  -0.31070477 -0.51979554  0.53725356
  0.59037936 -0.43563977]
[ 0.24188232 -0.38216853 -0.01316637 -0.06374133 -0.02168363 -0.13277379
 -0.38447627 -0.20771907  0.11628699  0.2881806   0.20343888 -0.27047542
 -0.25378144 -0.03018039 -0.15326402  0.3743564   0.18080431  0.2717663
  0.34812802 -0.05146864]
[-0.3520045   0.09250239 -0.06968898  0.34103876  0.17503148  0.33723593
 -0.35033637  0.08936837 -0.2815164   0.0074428  -0.11481982  0.34602624
  0.12253278 -0.03897199 -0.13275725 -0.04926911 -0.01887521  0.01003367
  0.12621492  0.12337649]
[-0.00228279 -0.33097565  0.35971123  1.1830486  -0.19951709 -0.10774521
 -0.8076986   0.3466772   0.5699457  -0.5253541   1.0897661   0.43093824
  0.12578447 -0.29584354  0.97155136  0.2935387   0.20653577 -0.92508227
  0.4491242   0.09237677]
[ 0.1443797  -0.52398443 -0.16290583  0.45469484  1.5793861   0.18347095
  0.59744203  0.27567396  1.793929    0.7717803  -0.18019617 -0.72297496
 -0.28339723  0.2237481  -0.5274092   1.2055824   0.7549888   0.45311388
  0.9127299   0.00445044]
[-2.3949227  -0.60026777 -1.0884622   0.95963705  1.0928847  -0.6304055
 -0.24321695  1.2573415  -1.2009314  -0.12579788  0.88049287 -0.04640966
  0.58458054  1.2545881  -0.11036574 -1.923303   -0.00505524 -1.4122686
 -1.6850932   3.982811  ]
[-1.6249921  -2.46987     0.11021606 -1.4569393  -0.18786733  2.9012098
  0.0411075  -0.6514681  -1.4087776  -1.0609045   0.96189296  0.3204389
  2.4246802  -0.7383104  -0.15757325 -0.76791525  0.22720571  0.6597729
  2.4056318  -0.47058555]
[-1.7868112   1.2740837   1.3375956   0.7533754  -0.10749177  0.40288338
 -1.8915364   0.6683632  -0.24568003 -0.09088749  0.59235275 -0.7023383
  0.38374153 -0.9704515   1.8054459  -0.5484538  -0.39628005 -0.45550716
  0.89257944 -0.95156205]
[ 1.0262570e+00  2.1835931e-03 -2.2011428e-01  1.8815149e-01
 -5.9599918e-01 -9.7754937e-01  1.2133873e+00 -4.9658358e-01
  2.3731585e+00  1.5624849e-01  9.4728321e-01 -5.7605726e-01
 -1.2379692e+00  1.7362624e+00 -9.1974002e-01  4.4084648e-03
  3.1842867e-01  3.1065822e-01 -1.3201542e-01  1.1739701e+00]
[ 2.0360446   1.3707075   2.0874286  -0.9921585   0.35265967 -0.18341759
 -0.4363989   1.257985    1.2619978  -1.4759542  -0.888115    0.28920147
 -1.4642721   1.2052419  -0.05181318  0.8039252   0.2840419  -0.3969364
  1.7007431  -2.9530122 ]
[ 0.8577849   2.5585759  -0.16083294  0.56298983  2.21305    -2.8397045
 -0.04598715 -1.2764719  -0.49142683 -1.367408   -0.33259234  0.33316135
 -2.1355882  -0.29355794 -0.18172415  1.7448846   0.15284358 -0.55988306
 -2.5815299   0.7809853 ]
[-1.4282125   1.9244531   1.7986656   0.27086318 -0.9578115   0.29856145
 -2.4549954  -0.39174026 -0.47709662  0.72948325  0.06544359 -1.3265159
 -0.6093256   0.200877    2.3309324  -1.5575932   0.03923622 -0.9403467
 -0.03717463 -0.28449345]
[-0.5725464   0.913152    1.0316203   0.17751534 -0.8133066  -0.28712475
 -0.4285536   0.18174717 -0.15437822 -0.06980447  0.17174785  1.010518
 -0.29423884 -0.18393536  0.7709175  -0.80291814 -2.003982    0.04646454
  0.8691254  -0.40404713]
[ 0.21620682  0.10056439 -0.13777846  0.2167576  -1.351774   -0.14499642
 -0.32722375 -2.636719   -0.3057374   1.88476     0.13337764  0.04907539
  1.037429   -2.2600157  -0.16869129  1.2689985   0.26780468  2.2214525
 -0.22079235 -0.27488136]
[ 0.03475278  0.50678843 -0.6259153   0.38867652 -1.9984806  -0.02990341
  0.13628113  1.2397985   1.124892    1.9439511  -0.48720905  0.23436923
 -0.441374    0.8054559  -0.16066298 -0.7773283   0.11203487 -0.02847494
  0.02969575 -0.12242769]
[ 0.9163959  -0.7804855  -0.9859584   0.554053    0.46017808  0.15348159
  1.0267292  -0.05907109  0.6168002  -0.5477226   0.46405622  0.6448388
  0.7983501  -0.25754502 -1.2323526   0.98211557  0.49234363  0.5342554
  0.11431208  0.82058984]
[-0.09116082 -0.18501697 -1.0708051  -0.983021    0.44322562  0.34657076
  1.0113045  -0.90475893 -1.2131532   0.44532874 -1.1836662  -0.6606056
  0.09236949  0.42919672 -0.93063694 -0.25006175 -0.18004873  0.8174102
 -0.6003819  -0.27851343]
layer 1 Activation
tanh
layer 2 Dense
20 40
[-1.9027395   0.96338695 -0.09167099 -1.1237524   0.03028903 -1.5202882
  1.5017946   0.584106    0.9444656   0.61214423  0.8473416   0.9210944
  1.458308    0.3658091   0.06376676 -1.0157926   1.7046671  -0.03832914
 -1.2309595   0.31930834  0.09247319  0.85225785 -0.8886481   0.5970691
  0.5001067   0.82246697 -1.3308067  -0.13193426 -0.44986713  2.5142217
  0.06593775  1.6714761  -1.9496081   1.1603451   0.99858916  0.44427478
 -1.9990622  -1.1317943  -1.165132    0.27714926]
[-1.596511    0.31184098  0.15156707 -1.128321   -1.8780981   0.50802326
 -0.3572116   2.2544844   2.6649985   1.0790215  -0.73897237 -0.32609743
 -0.46677992  0.3419877  -2.6211467   1.5173529  -0.51376206 -1.0672987
  0.11702271  0.33972076  0.06284985  3.9120665   1.0059757  -1.6913365
 -0.21182796 -1.2259299  -0.39804423  0.1738539  -0.05765247  0.04699309
 -0.25857314  6.8270006  -2.9141939  -0.07252361 -0.27962658 -0.5898702
 -0.19301237 -0.40998608  0.02125641 -0.9539931 ]
[-1.3043807   1.0257682  -1.1287556   0.68836975  1.0593079   0.24286196
 -0.423533   -1.5301844   0.42016172 -2.0783944   0.25832924  0.84085417
  0.07695302  0.16670132  0.00679923 -1.1613901   1.5374811  -0.77490616
 -0.5640343  -0.06586523  0.17745577 -0.03102594  0.7844444   0.692452
 -0.1180692   0.7947421  -0.7564641  -0.3134322   0.05119042  0.42202383
  0.7688287   0.23665202  0.88884705  0.33959076  1.1982113  -0.30491653
  0.8772485   0.34100962  0.8380808  -1.5291191 ]
[-0.66094977  0.56983423  0.0215722   0.46525317  0.57535154  0.99243176
 -0.8771687  -0.5203671   0.34971455  0.0813459   1.6064821   1.4168674
 -1.3862603   0.34347254  0.50225663 -0.32908648 -0.07978325 -1.3043963
  0.5108238   1.8173281  -1.2828171   0.2008008   1.4790038   1.6459134
 -1.435127   -0.09377987 -0.09987328  1.1465521   1.0690544  -0.4752714
  1.8031785  -0.9765374  -0.08619674 -0.4710941  -0.18357599 -1.324784
 -0.12342073 -0.02364995  0.74264497 -0.846063  ]
[-3.7452318e-02  1.3724892e-01  5.4128718e-01 -2.3055646e-01
  5.6732118e-01 -7.5856698e-01  3.7220755e-01  3.8365193e-04
 -2.0116310e-01  4.1280395e-01  4.2706677e-01 -1.1142723e-01
 -4.7898236e-01 -1.8405816e-01 -2.0389084e-02  1.7387782e-01
  4.1742942e-01  1.0272619e-01 -3.3759391e-01 -9.2894435e-01
  4.5504548e-02 -1.2228850e-01 -8.1204873e-01  7.9520317e-03
  4.1279036e-01  2.4253565e-01 -5.6220597e-01 -3.9162499e-01
 -1.0804677e+00  8.0022311e-01 -3.3217388e-01 -2.8046822e-02
 -4.4220212e-01  3.0404535e-01  5.2653924e-02  4.0873602e-01
 -3.1193599e-01 -1.6273770e-01 -4.1626298e-01  3.1523111e-01]
[ 0.03148243  0.10905604 -0.49428418 -0.26176435  0.7110692   0.20445426
  0.3250626   0.9665969  -0.9176565  -0.393591    0.13388644 -0.46244487
  1.1735297  -0.08126624  0.22835138 -1.1541399   1.2420659   0.5451191
 -0.7641677   0.01797792  0.4419112  -1.206217    0.13166402 -0.74406666
  0.41484162  1.7240872  -0.23445505  0.13777088  0.6665778   0.6393003
 -0.06811032 -1.7090635   0.28667095  0.3161434   0.5884148  -0.07587516
 -0.01961635  0.538326   -0.45256448  0.8465433 ]
[ 0.73828065 -0.49014533  3.449168   -2.5755742   0.6359862  -1.9334319
  1.9804338   2.0306756  -0.90318286  0.7464156  -0.72406554 -1.3263668
  1.9843986   1.9425765   2.8484042  -2.1206126  -0.46268207  1.7333115
 -1.5775628  -1.3339152  -1.1265445  -0.56210136 -1.6801049  -1.084421
  1.2614249   1.117778   -1.1500489  -1.06354    -2.0950122   0.553235
 -1.2450033  -1.4456588  -1.2051853   0.8579883  -0.91314787  2.0424254
 -1.1508765  -2.9674926  -1.5163757   1.1982105 ]
[ 0.32082778 -1.4036402   0.44754472 -0.14355637  0.33455673 -1.4171076
  1.0970496   0.20819499  0.25593072  0.36060447  0.4180173   0.48425564
  0.49184752  0.2879749  -0.21641925 -0.7292387  -0.01894903  0.5035166
 -0.56678706  0.34230182 -0.02195809 -0.06161263 -0.11067992  0.30916405
  0.05078155  0.17738172 -0.4562519  -0.16715147  0.7804783   1.0505788
  1.1701522  -0.2744029  -0.638519    0.3587512  -0.0785229  -0.39024264
 -0.15067431 -0.77240133 -0.4233542   0.36465254]
[-6.6385454e-01  1.7814512e+00  2.8693753e-01 -3.3085248e-01
 -2.1439472e-01 -9.3174082e-01  1.0916207e-01 -5.0704235e-01
  8.2295859e-01  1.2970500e+00  3.7063357e-01  3.3421087e-01
  7.4488968e-01  1.5361740e-01 -1.3652766e-01 -2.8227907e-01
  4.5074207e-01  6.1512798e-01  6.4840275e-01  4.6065784e-01
  1.6522150e-03  7.8124452e-01 -3.6894149e-01 -5.1769156e-02
 -5.4396546e-01 -1.4833792e-01 -6.3276726e-01  7.1307665e-01
 -3.3464453e-01  8.5913748e-01  4.7520885e-01  8.0593729e-01
 -9.2325163e-01  1.7228146e+00 -6.5240607e-02  5.1452309e-01
 -1.3456594e+00 -7.6682764e-01  5.9737109e-02 -1.2319750e+00]
[-0.7624482   0.00876813 -0.41395226 -0.050379    0.37959763  0.85907435
 -0.1318524   0.3260047  -0.81439    -0.13857393 -0.61790895 -0.1810727
  0.04209904 -0.37922794 -0.04798073 -0.07486109 -0.03322063  0.02631227
 -0.08638743  0.00293288  0.08634145 -0.3017102   1.0878416  -0.09660006
 -0.08556966  0.0968651   0.11207057 -0.42191455  0.06130485 -1.1411973
 -0.25745213 -0.38625777  0.3542866  -0.03795996  0.17808439 -0.07500187
  0.8844105   0.40718105  0.8399546  -0.08953663]
[-1.3613957  -0.40870044 -0.11915223  0.78417087  0.19910833  0.9274883
 -1.0975738  -0.19586837 -0.30012256  0.6855431   0.47406158  0.5759156
 -0.2699658   0.4273981   0.26827392 -0.01236199 -1.647128   -0.17651345
  0.6009651   1.2931834  -0.42002502 -0.6796475   0.874654    0.5185023
 -0.8755578   0.02461569 -0.06723568  0.94901806  1.0749977  -0.5591912
  1.084363   -0.41045824  0.02097792 -0.85686916 -0.8414098  -0.9487766
  0.31212977  0.94818157  0.7251435   0.05264238]
[-0.5399058   1.385563   -0.5455276   1.395973    1.5373359   0.42302346
 -0.9142486  -1.1314789   0.27262318  0.18772833  0.33493686  0.5515104
 -0.9253748  -1.0105371  -0.76519805  0.35518345  0.3348512  -0.4819557
  0.8724145   0.0254428   0.5621635  -0.32307294  0.0800802   0.23512056
 -0.00512084 -0.3494054   0.15844736  0.8542342   0.69842595 -0.2220452
  0.429499    0.49969053  0.59379184 -0.11426067  0.12078942 -1.30455
 -0.20990132  0.7802567   1.1731153  -0.78268   ]
[ 0.6377163   0.95750266 -0.25679964 -0.5265954   1.5196934  -0.5430361
  0.10852224  0.25006932 -1.4046333  -0.6988689  -0.35006753 -0.6982317
  0.13519207  0.31319958  0.31453663 -0.18992883 -0.31206924  0.16379145
 -0.17019995 -0.22377269  0.01461333 -1.899461   -0.21562503  0.52492225
  0.53842765  0.23824935  0.9861551  -0.588245   -0.36824718 -0.6615576
 -0.7573642  -2.0844097   0.49497664  0.08398636 -0.2181422   0.4471887
  1.2216718  -0.13365914 -0.33755016  0.53333116]
[-0.35250446  1.3176745  -0.4460124   0.91235405  0.01853426 -0.4319885
  0.02811654 -0.02515521 -0.3749693   0.11008886 -0.8193042  -0.47962016
 -0.32712603 -0.38576773  0.18213671 -0.39658844  0.2716995  -0.63176465
  0.518336   -1.2489966   0.06580223  0.11875201  0.49307293 -0.0230025
  0.58836716 -0.5628959   0.08123491 -0.50785744 -1.0526667  -0.25627
 -0.4646572   0.29959947  1.3826035   1.1322354   0.3353457  -0.06341302
  0.7158673   0.52644205  0.5593134   0.5754211 ]
[-0.7583259   1.0379858  -2.1993854   2.1014187  -0.02492627  2.2466104
 -1.3209791  -1.6478726   1.2941062  -1.4052464   0.60109186  1.5430481
 -1.8537651  -2.9564385  -2.2449222   1.215289   -0.82973886 -2.6233776
  1.7012902   0.91198194  1.5247309   1.1825411   2.8292093   0.9942193
 -1.6412145  -0.331207    0.7049138   1.5642165   1.6188357  -1.2546209
  1.304201    1.2502944   1.7043878  -1.1574632  -0.49391353 -1.995052
  1.0260686   2.87827     2.4997916  -1.7464159 ]
[-1.5518752   0.44822994  0.06697071 -0.64940256  0.7695492   0.7150671
  0.8167506   0.35471812  1.5994338   0.35508353  0.17786738  0.01865952
  0.03475191 -0.01826434 -0.10428892 -0.07739772  0.31030902  0.30926612
 -0.03612821  1.3816692   0.13255025  1.1955633   0.3524176   0.08083673
 -1.1348763   0.88841516 -0.93052715  0.63867044  0.46355712  1.3060441
  0.50911015  0.99494773 -0.1742605   0.97965616 -0.22342934 -0.43092299
 -1.5818797  -0.03220509  0.07136272 -0.57078356]
[ 0.44470525  0.03459416  0.8561661   0.3857368   0.6053204   0.04644894
 -0.46323815 -0.5106548  -0.39776558  0.00238723  0.4658501   0.8730717
 -0.81330425  0.91139513  0.97653604 -0.1937867  -0.10185466  0.23746929
  0.14450711  0.6864516  -0.3504189  -0.9332859   0.3485797   0.8740663
 -0.32969484  0.53956676 -1.0323403   0.27459517  0.49199632 -0.8097267
  0.7876509  -1.7147868   0.46671942 -0.41553202 -0.35376045 -0.868097
  0.18965566 -0.36374933  0.6984333   0.35231918]
[ 0.55956334  0.7712159  -0.5685099   0.6331795   0.57591873 -0.22149554
  0.4697065   0.532228    0.04771746 -0.3618127  -0.4852997  -0.55708927
 -0.284465   -0.3911978  -0.00227369  0.5958816  -0.151865    0.07899728
  1.1421468  -0.4796184   0.06375088  0.01324286  0.10528475 -0.26183492
  0.05317251  0.6681177   0.30350614 -1.1111571  -1.557754   -0.6145663
 -0.6121408   0.40350112  0.2940687   1.0063902   0.29725766  0.05264105
 -0.91389656  0.38387164 -0.257208    1.6711607 ]
[ 0.35139188 -0.75945586 -0.7314004   0.5538359   2.9502273   0.36601555
  0.8888187  -0.89107525 -0.284694   -3.153869    0.23776785  0.31514227
 -0.08949932  0.01270304  0.36331633 -0.4069889   2.110084    0.6933067
 -1.0645841   0.15948974  0.08719289 -1.3006121   0.64430416  0.17693692
 -0.22954603  1.4689817  -1.349534   -0.15244998  0.06101438  0.19033761
 -0.38971618 -1.2585623   0.58918834  1.3721484   1.1688448   0.9023919
 -0.53664726 -0.09878685  0.38289738 -1.1977237 ]
[ 0.9823034  -1.3425107   0.226113    1.0554204  -1.0864332  -0.81957775
  0.671581    0.13088834  0.2797434   1.711832    0.2717206  -0.5651976
  0.62009853  0.11144044  0.01545507  2.1193519  -3.5809245   1.0337523
  1.5081003   0.407427   -0.2888127  -0.27505755 -0.835459    0.6879515
 -0.8951507  -1.5559922   1.181276    0.61554945 -0.06921945 -1.0008383
  0.30410662  0.3868763   0.15076628 -1.5481156  -4.228658    0.25026396
  0.4330983   0.8354215   0.10423779  0.98864394]
[ 0.60867923 -0.5078165  -0.02281891 -0.46192724 -0.70559424 -1.4289073
  1.2808716   0.45884037  0.09218616 -0.21364179 -1.3723732  -0.92819494
  1.3441844  -0.24767856 -0.83126193  0.28119716 -0.04648056  1.3886647
 -0.29889402 -1.4196477   0.9052565   0.27796787 -1.3649287  -1.2645347
  1.1159208   0.27308616  0.3756186  -1.3037806  -1.2636081   0.37981242
 -1.4767218   0.65807766  0.19614293  0.35135087  0.06212785  1.319344
  0.33433783 -0.45523188 -1.0936292   0.7608832 ]
layer 3 Activation
tanh
layer 4 Dense
40 20
[ 0.08676397  0.5378015   0.39915946 -0.71477497  0.38175368 -0.18744108
  1.0385373  -0.17991588  0.3561174   0.56738776  0.3042158   0.2693242
  0.6182284  -0.13713333  0.36804587 -0.24744773  0.20450261 -0.61678344
 -0.2955717  -0.3313155 ]
[ 0.18507786 -0.6600324   0.04051539  0.39262176 -0.08132112  0.31144905
 -0.9920909  -0.2677497  -0.24236988  0.13800411 -0.0708684   0.0092889
 -0.531839    0.15257022 -0.03116465 -1.1551483   0.08471214  1.6841954
  0.22310317 -0.06040641]
[ 0.34258312  1.1914195  -0.1644353  -0.37068546 -1.3477632   0.22064947
  0.74050856  0.13429071 -0.9649147   0.08429619  0.5940149  -0.3578366
  1.2194715   0.18769294 -0.65684736  0.20996782 -0.15312712 -0.67187726
  0.3921953   0.5190226 ]
[ 0.07587937 -0.44931692 -0.08089471 -0.56645006  0.01612427 -0.37035805
 -0.7133866   0.07331266 -0.30947176  0.11534498  0.3962822   0.52475685
 -0.569105   -0.05948323 -0.53324926 -0.58707625  0.60025007  0.47910953
 -0.05472723 -0.42718208]
[ 0.14546444 -0.2423625   0.04661526  0.19268335  0.26365393 -0.18635415
  0.45612183  0.02623165  1.6983387   0.1706626   0.19512911 -0.00675892
  1.0580403  -0.16295831  0.15140443  0.2800047  -0.02007798 -0.29689234
 -1.6399279   0.2623769 ]
[-0.14252727 -1.5763285   0.20771295  0.29304907  0.16815718  2.036267
 -1.5655651   0.4544121   0.952387    1.1415223  -0.31233713  0.14995888
 -1.6703392   0.5699542  -0.5554296  -2.2008507   0.3368797   2.2030594
  0.2326407  -0.67293787]
[-0.28665337  0.5233464  -0.02248442  0.05095471 -0.14255127 -0.9298195
  1.5598022  -0.5415883  -0.6239563  -0.35608423  0.43971723  0.39404342
  2.262243   -0.40057534  0.63203126  1.1784942  -0.5328983  -1.0257624
 -0.242829    0.7383797 ]
[-0.9889484   0.16915867 -0.28960034  0.5538458   0.46384785 -0.93674916
  0.16666971  0.04797086  0.3465842  -0.64332706 -0.23626584 -0.7855059
 -0.0535695  -0.13810167 -1.4449949  -0.7887876  -0.05775288 -0.45069206
  0.45040694  0.6896604 ]
[-0.35931978  0.20771965 -0.4536482   0.7627026  -0.29163563 -1.2353182
 -0.28338012  0.37639704  0.08658765 -0.42905146 -0.1830156  -0.20716138
 -0.5522907   0.08627584 -0.3829754  -0.50377816 -0.40522358 -0.7887216
  0.08086325  0.84067893]
[-0.1052737  -0.35053104 -0.18499121 -0.6806407   0.02663876 -0.4086159
 -0.73369163 -0.47281775 -1.9213952  -0.14074206 -0.30159935  0.06538732
 -0.4951686  -0.25962186 -0.14786206  0.48497924 -0.1324612   0.10713862
  1.8929304  -0.36380014]
[ 0.2806851  -0.5758911   0.5078216  -0.7006756  -0.57981366  1.1649426
 -0.9410134   1.0421296  -0.4389821  -0.2731969   0.43909538 -0.05993552
 -0.22296458  1.5456625   0.24927995 -0.18803754 -0.2722359   0.5666862
 -0.4342418   0.5322198 ]
[-0.3122736  -0.20162788  0.27321288 -0.20340164 -0.06638568 -0.09494871
 -0.6185762   0.51466566 -0.36340547 -0.35832277  0.2222365  -0.14822079
 -0.4602832   0.572051   -0.55146945  0.2837825  -0.31177464  0.87661916
 -0.5299235  -0.10609704]
[-0.5296499   1.6746129   0.02288196  0.3072765  -0.2104497  -0.18758292
  1.4460151  -0.7475301  -0.9611547  -0.1523847   0.27204186  0.05559589
  1.0058851  -0.6332851   0.04328676  1.5857149  -0.45859405 -1.2315975
  0.1251174   0.46179327]
[ 8.7854093e-01  1.2844285e-01 -5.1680639e-02  6.4067930e-01
 -1.2171645e+00  3.0485180e-01 -3.5634533e-01  2.7424213e-01
 -6.9940871e-01 -7.0129031e-01  5.3014261e-01 -8.3699709e-01
 -3.6595953e-01  2.8724155e-01 -1.4191402e-01  9.4132870e-01
 -1.9269027e-01  2.1231544e-01  4.7933729e-04  6.8359905e-01]
[ 0.4259487  -0.4943157   0.88626844 -0.22405867  0.32893467  0.09310822
  0.48448452  0.42379743  0.09000302 -0.1754323   0.47184533 -0.5290121
  0.41441533  0.16600154  0.12539342 -0.17279272  0.6770007  -0.19847117
 -0.13772008 -0.10842394]
[-0.22739476 -0.16641913 -0.2616991  -0.6178939  -0.60584176 -0.6975265
 -0.68079627 -0.5944954  -0.7172571  -0.07909551 -0.72487855  0.03552065
 -0.9184095  -0.52714086 -0.2617278  -0.50092006 -0.3046841   0.08436865
  0.8079375  -0.5454582 ]
[ 0.1409659  -0.1108138  -0.18516918  0.9196632   1.4656923  -0.06445737
 -0.04977759 -0.19413768  0.26098415 -0.24987918  1.2184372   0.09174205
  1.3046134  -0.25598097 -0.09780912  0.48452058 -0.06317793 -0.10710523
 -0.21668765  1.051786  ]
[ 0.4814887   1.5218688   0.88209623 -0.64073807 -0.43670467 -0.75402147
  2.269819   -0.2702756  -0.57303274 -0.12857328  0.49120784 -0.4573686
  2.2442186   0.07338216  0.6991054   1.3684189  -0.45768404 -2.277371
 -0.6630633   0.9694618 ]
[ 0.19765064 -1.3360201   0.13664539  0.06975225  0.7674917  -0.19338503
 -0.61333615 -0.30401862 -0.04019568  0.19844505 -0.00197388  0.02137415
 -0.7107143  -0.01332288  0.01322113 -0.01247887  0.14860304  0.69251657
  0.41318092  0.10030311]
[-0.17456426 -0.37744647  0.19373907 -0.6696373  -0.6556892   1.250581
 -0.9000471   0.39221972 -0.68302256 -0.34959993  0.3069698  -0.5402431
 -0.81628424  0.41234148 -0.23904079 -0.453334   -0.59080184  0.8185622
 -0.31611097  1.0221685 ]
[-1.3449351e+00  4.9245131e-04  1.0692139e+00  2.2373934e-01
  4.1274068e-01 -3.1337801e-01 -3.7340608e-01 -7.9156810e-01
  1.5700604e-01  1.6611837e+00  5.0703371e-01  9.0038264e-01
  7.7009715e-02 -6.2571257e-01 -1.7834170e-01 -1.1665014e+00
  5.9732635e-02 -1.9880588e-01 -1.6234547e-01  2.2740112e-01]
[-0.6339412   0.23255679 -0.5825427   0.8271114  -0.24471477 -1.630839
 -0.9285984  -0.31355888 -0.02917574 -0.4423253  -0.44935915 -1.1746473
 -0.25259355 -0.21933644 -1.7520846  -1.1025054  -0.7175913   0.75366074
 -0.03206067  0.72313786]
[ 0.1116291  -1.8000803  -0.48240358  0.562319    0.23000701  0.981225
 -1.9653573  -0.17922868  0.855334    0.19467874 -0.34333274 -0.12589948
 -1.5930923  -0.1642973  -0.2584226  -0.94891536  0.7178892   1.3550262
  0.47660092 -1.1412263 ]
[ 0.47330996 -0.23106368  0.42963073 -0.45462957 -0.7935621   1.0551325
 -0.8591724   1.2511991  -0.7338863  -0.33485356  0.57933855 -0.54838866
 -0.3524928   1.3244097   0.3932576  -0.2737598  -0.30492908  0.9459208
 -0.7028086   0.6069717 ]
[-0.20041831  0.57359535 -0.03855683  0.33476427  0.562904   -0.58687145
  0.7837509  -0.8557244   0.51008177  0.31428376 -0.06114497  0.5636773
  0.02257661 -0.35790098  0.09159896 -0.11735217  0.55558157 -0.6564228
  0.17221758 -0.4397286 ]
[ 0.08196694  1.0497578   0.07668104  0.37222984  0.3198067   0.23197176
  0.6310538   0.27085784  0.59853363 -0.2654137   0.34200788 -0.03285858
  0.8195175   0.07096159  0.17627138  1.1394653   0.3383736  -0.6070888
 -0.89415425  0.33718452]
[-0.31426662  0.00336821  0.12322168 -0.26680988 -0.35982397 -0.13519187
 -0.14268462 -0.09183324 -0.5945709   0.13413265 -0.46584132  0.33422804
 -1.092189   -0.05144943  0.35742307 -1.272913   -0.03151395 -0.0210532
  0.82228804 -0.05979836]
[ 0.21224758 -0.73105717 -0.18466489 -0.6278383  -0.23356834  2.0307262
 -0.77252185  0.8298076  -0.34574658 -0.15953536  0.09785631  0.07579821
 -0.55133456  0.41258818  0.2117058  -0.07775148 -0.27876848  0.97118187
  0.12819588 -0.05159958]
[ 0.2756312  -1.4534124   0.5249711  -0.5183825   0.12840629  1.9073926
 -0.9373232   0.7228532  -0.6522841  -0.16368203  0.50653774 -0.44343552
 -1.5733955   0.69618255  0.3682071  -0.10155318  0.20331681  1.0431898
 -0.33449033  0.01518473]
[-0.06812973  1.2998177  -0.4508794   0.53398854  0.161042   -0.02290021
 -0.42330664 -0.28096524  0.04858999 -0.56511754  0.19549707 -0.03479115
  0.93412244  0.00259094 -0.05582322  1.5252801  -0.16531137 -0.8275445
 -0.10230097  0.544205  ]
[ 0.23926257 -0.41097122  0.13788687 -0.6847888  -0.7893015   1.0396419
 -0.9241936   1.1473254  -0.6918049  -0.6631895   0.49526    -0.45453122
  0.04383386  0.81160617  0.4030544   0.12167542 -0.34357524  0.80935776
  0.00313571  0.43470058]
[-1.2931976  -0.1677543  -2.535747    0.28438282 -0.25493827 -1.1141969
 -1.1732044  -0.5256752  -0.45490736 -2.7718637  -0.13241223 -1.1443133
 -0.3462951  -0.25294417 -1.2120453  -1.3452152  -2.2847164   0.80205804
  0.4744174   0.3772027 ]
[ 0.08543179 -0.64563245  0.7917115  -0.8705398  -0.60467994 -0.08408581
 -0.3240271  -0.1339023  -0.22305791  0.30873948 -0.72427255  0.1432355
  0.8372104  -0.02846566  0.3260702  -0.03317356  0.9629342   0.7246267
  0.04236875 -0.79704905]
[-0.063969    0.75106347 -0.03217734  1.2807811  -0.16386116 -0.7649049
  0.40158635 -0.34014294 -0.07183842  0.02172949 -0.01619083  0.1059871
  0.99325514 -0.00729521  0.3541091   0.11715325 -0.2541699  -1.6085366
  0.08224867  1.2809219 ]
[ 0.06420428  0.6401864  -0.0830355   1.0219549   1.4730109   0.01666977
 -0.33908048  0.20461707  0.3551673   0.0553646   1.5576565  -0.04759806
  0.8735189   0.30621734  0.12416603 -0.37429744 -0.07772473  0.49796653
 -0.27311587  0.846534  ]
[ 0.6775523   0.5962928   0.01877446 -1.015411    0.10689706  0.5706534
  1.321804    0.06431086  0.09960087 -0.2254629  -0.09847423  0.2114181
  1.5772319   0.34135047  0.3626051   1.291623    0.26228997 -0.19039471
 -0.18162946  0.06172027]
[-0.04168915 -1.4362826   0.4874352  -1.9675341  -0.1789501  -0.73509294
 -0.10470779 -0.16497946 -0.06158168  0.20583552 -0.2196821   0.07036606
 -0.02289321 -0.602103    0.14766645 -1.880498    0.46795812  1.460802
  0.06881294 -1.8193215 ]
[-0.18690087 -1.4228044  -0.2805018   0.3197862   1.0347308   0.18012987
 -0.4182468  -0.13340062  0.69407463  0.5515824  -0.05975454 -0.20775904
 -0.9471643  -0.15574668 -0.8807181  -0.6310972   0.58467764  0.9994944
  0.06651231 -0.7862155 ]
[ 0.61870825 -0.8374271   0.06212261 -0.47056106 -0.32106537  1.5116391
  0.07288676  0.30327088  0.14660528  0.02281858 -0.05380059 -0.27414683
 -0.19989309  0.34781873  0.47778064 -0.08550488  0.4188201   0.7796328
  0.22318771  0.11112135]
[ 0.13635032  0.08050849  0.0218834   0.34408414  0.0472922  -0.61847913
  1.0630581  -0.30701193 -0.05641149  0.5026509  -0.02990549 -0.0476541
 -0.01489569 -0.7504248   0.43463114 -0.6725113   0.4014968  -0.7041676
  0.11809641 -0.1396564 ]
[-0.29596364  0.39508173 -0.42181653  0.580873    0.59225774 -0.92701703
  0.69395125 -0.8501924   0.55742353  0.52137405 -0.3114245   0.3991171
  0.21680772 -1.2416506  -0.2870522  -0.02706426  0.41349143 -0.76005113
  0.29060426 -0.73991936]
layer 5 Activation
tanh
layer 6 Dense
20 1
[-1.7270423]
[-3.9493256]
[-4.514675]
[1.52449]
[2.0862527]
[-2.8207629]
[-2.4812086]
[-2.91707]
[1.9746567]
[2.5454516]
[-2.0777977]
[2.4078064]
[-0.10836522]
[-2.7714965]
[-1.8408785]
[-1.6901582]
[3.1178117]
[3.2058873]
[1.9679552]
[-1.5494764]
[2.654901]
