layers 7
layer 0 Dense
20 20
[-0.18052745 -0.23866329  0.02876175 -0.10883623  0.18447869 -0.20742005
  0.2631703   0.04713842 -0.03465778  0.09470118 -0.15897715  0.18924327
  0.04294226 -0.23980522 -0.06483803 -0.13110451 -0.13298321  0.16045009
  0.08129665 -0.3524992 ]
[-0.22173372 -0.4590812   0.13385129  0.05347949  0.32990396  0.14817326
 -0.163189   -0.43792298 -0.19354765  0.09430463  0.11554071 -0.03166936
 -0.3847188   0.05117051  0.23856679 -0.18462047 -0.05613115 -0.24845535
 -0.17478864  0.29185456]
[-0.22763525 -0.17674287  0.01940239 -0.18311954 -0.33830225  0.42399213
  0.37879354 -0.14634144 -0.12373366 -0.33735195  0.20305552 -0.43756372
 -0.25324324  0.23111549 -0.20827238  0.10026484  0.10416865 -0.4986216
  0.10652921  0.3012953 ]
[ 0.26220265 -0.07147032 -0.09010305 -0.29001823  0.00920774 -0.35017934
 -0.16640472  0.21793044  0.19588418 -0.3747237  -0.07060661  0.29703566
  0.29255727  0.01756184 -0.38755888 -0.0934406  -0.00228778 -0.48399177
  0.15075889 -0.18417425]
[ 0.32496834 -0.24139136 -0.12938064  0.09549975  0.29738683 -0.04119268
  0.1971997   0.10479826 -0.2275284  -0.06391498  0.03980603  0.2732658
  0.2529387  -0.21245784 -0.3877195   0.19210453  0.06770325  0.26459002
 -0.01488302  0.01632833]
[ 0.26948446  0.16537979  0.21634997  0.06895289  0.30989265 -0.16754161
 -0.2728056   0.1783194   0.40661722  0.41905996 -0.03985197  0.45368308
 -0.21386364  0.26317084 -0.24104303 -0.06291764  0.06912489  0.37349877
  0.32751128 -0.41928202]
[ 0.03936635 -0.04721886  0.0677157  -0.15065843 -0.19496086 -0.31893396
 -0.02634519  0.2395949  -0.00408482 -0.1328063  -0.21206872  0.4419133
 -0.3083012   0.5374285   0.10941808  0.16021888  0.07365949  0.4985688
  0.08909695 -0.379456  ]
[-0.3123422  -0.11194983  0.22972374 -0.2793265   0.04207465 -0.00158628
 -0.201325    0.19553147 -0.07676797 -0.11824226  0.04499554  0.16842271
 -0.30644166  0.2721974   0.43945175  0.08117691  0.02883019 -0.06888808
 -0.23102368  0.1351198 ]
[-0.1285764   0.2628969  -0.06226653 -0.3426996  -0.24651293 -0.07351594
 -0.14059004  0.3133984  -0.36334118 -0.2329323   0.35084125 -0.28957906
  0.34363362  0.27955917 -0.16121534 -0.3129388   0.34642455 -0.17256434
  0.10996837  0.3455922 ]
[ 0.15113805  0.01762434 -0.11962309  0.16509809  0.30658302 -0.03076742
  0.05171707 -0.4238407  -0.2324431  -0.09357692 -0.26107022 -0.25013444
 -0.5579009  -0.2467056  -0.28180704 -0.3554913  -0.1764176  -0.13598745
 -0.1365132  -0.01767207]
[-0.01265057  0.14685206 -0.24127194 -0.18760313 -0.11469187  0.46260557
  0.04806414  0.26996887 -0.14696316 -0.121109   -0.2856094   0.524595
  0.07965918  0.41487786  0.03963062 -0.57837933 -0.65816855  0.17487109
 -0.19999118  0.33034474]
[ 0.09084667  0.56448865 -0.22153081  0.19011022  0.10631122 -0.07564704
  0.2893034  -0.43435284 -0.03368361  0.01776981  0.34572005 -0.42035243
 -0.263241    0.03297652 -0.17657132  0.4540167   0.28682446  0.2407772
  0.20789912 -0.23212834]
[-0.30498624 -0.05727797  0.42288804  0.20439911  0.15561199 -0.01156945
  0.14765097 -0.13916595 -0.16806605  0.23521076 -0.32941827 -0.15745972
 -0.25750503 -0.19157685  0.24701104  0.17929636 -0.02837898  0.16632874
 -0.00668946  0.0153995 ]
[-0.20903283  0.10211673 -0.11449154  0.21366033 -0.05898213 -0.24661756
  0.15834779  0.1277897   0.18658881  0.12333936  0.15122886  0.22824968
  0.17978048  0.0277432  -0.1564972  -0.07091276 -0.03096485 -0.01370392
 -0.3126637  -0.18900143]
[-0.08663109  0.02685925 -0.45836076 -0.2389133  -0.25509882 -0.37695622
 -0.37548158 -0.18379094  0.03029454  0.01911849 -0.28713366  0.2688575
 -0.02031053  0.07912288 -0.00724073  0.07034959 -0.01437085 -0.3938225
  0.15398002 -0.15651317]
[ 0.1459733  -0.00578394 -0.34997237  0.06996479 -0.04173416  0.06752042
  0.13826232 -0.3199299  -0.3256977  -0.09750303  0.42609835 -0.31403092
 -0.0083697   0.45092276 -0.17194006 -0.06700186  0.31877938 -0.4735546
  0.32183385 -0.07837703]
[ 0.48716983  0.19236584 -0.20571844  0.3148227   0.3687335   0.20845279
 -0.2799967  -0.34062022  0.08029003  0.09233954  0.19856519  0.16424668
  0.31800058  0.02505506 -0.1842912  -0.08275741  0.00943922 -0.2986401
 -0.24469474  0.14721602]
[-0.13956466 -0.1844387   0.24426408  0.3598402  -0.27053133 -0.22368875
 -0.28372103  0.5686888   0.01408979 -0.1331037   0.07331946 -0.1320272
  0.39010018 -0.23617382 -0.10575862  0.49289578 -0.08556517  0.00300017
  0.40867975 -0.1340587 ]
[ 0.15319197  0.29134008 -0.23609644 -0.3788402   0.39105392 -0.41149217
 -0.3670713  -0.0957389   0.4858436   0.09599174  0.31192455 -0.44965705
 -0.29272646 -0.48328975 -0.09923685  0.36681956  0.4351652   0.17886312
 -0.46883124 -0.48238146]
[ 0.03072585 -0.25385892  0.22693348  0.2974963  -0.25723052  0.00731836
  0.04686486  0.24330842  0.46830425  0.10864338 -0.2378602   0.3226094
  0.09475019  0.03069745  0.26345214 -0.281323   -0.22498165  0.38404977
 -0.33498105  0.23661946]
[-0.00307078 -0.05618304 -0.01887289  0.00129186  0.0278017  -0.02665923
  0.01124492 -0.04155205 -0.16092241 -0.06097034 -0.02066919  0.04665204
  0.00143953  0.00418155 -0.03243808  0.02178513 -0.02186898 -0.15354155
 -0.00675308 -0.06074751]
layer 1 Activation
tanh
layer 2 Dense
20 40
[-0.06018508  0.30052     0.1891941  -0.20663561 -0.21569483  0.1688085
  0.18719012 -0.18348636  0.18586272 -0.18802032  0.01110113  0.05273109
  0.3325342   0.2288345  -0.19253252  0.26476505 -0.16205856  0.30841297
  0.10643889  0.04586196  0.23672672  0.184733   -0.17886598  0.05961616
 -0.17851938 -0.07329589  0.05874036 -0.15457262 -0.32580322  0.25114408
 -0.23854911 -0.04564281  0.3182356   0.02431043  0.16909537  0.1485222
 -0.05739064  0.23682503  0.01274811  0.12151703]
[-0.14827773 -0.09477932 -0.21964523 -0.2872613  -0.00696938 -0.01236927
 -0.18909009 -0.22233726  0.12041017  0.02319255  0.14959654  0.07167624
 -0.1907967   0.3076479   0.13036224 -0.06858239  0.08828644 -0.07060502
 -0.05331628  0.12499814 -0.0529814   0.4079363  -0.08424489 -0.13854137
  0.00439424 -0.31129336  0.32306954  0.22518584  0.25664988 -0.20864122
  0.15394849  0.02339391  0.07522294  0.14335795 -0.24325839 -0.07657171
  0.32107553 -0.09910909  0.07650669  0.3217575 ]
[ 0.27317598  0.13750139  0.08772998  0.41255215  0.28559354 -0.2849385
  0.29385155 -0.0136939   0.05247591 -0.05153151  0.26841578 -0.13864486
  0.15790942 -0.32962915  0.12893267  0.21056831  0.07071238 -0.01714003
  0.04032845  0.18047892  0.28834695 -0.0547749   0.06368072  0.2763662
  0.2703981   0.22772583  0.19924042 -0.16951057  0.07508553 -0.1619854
  0.28886104  0.19081159  0.26315275 -0.24864742 -0.17261922 -0.2710321
 -0.0178149   0.03929383 -0.18051624  0.02041478]
[-0.03932729  0.22543542 -0.30252022  0.0564908  -0.11928878  0.20917094
 -0.21786055 -0.05053028  0.1848748  -0.17011245  0.33988312  0.18300992
  0.05895652 -0.1304176  -0.19847767  0.05724413  0.13501911  0.06484244
  0.23900273 -0.0736554   0.15491931 -0.25583285 -0.1271471   0.18425082
 -0.2130548  -0.03323275  0.10940937 -0.18126862 -0.18378745  0.08450896
 -0.21853496  0.00984778 -0.00078746 -0.19885471 -0.11935624  0.23992395
  0.07257735 -0.02236993  0.35555878 -0.02175973]
[-0.10515279  0.16740562  0.1070088  -0.216858   -0.31170347 -0.00400937
 -0.07257769 -0.33137214  0.30327007 -0.06096078 -0.20984522  0.27733225
 -0.03685696 -0.17637658 -0.1356892   0.18958749 -0.2981371   0.05798081
 -0.23398028 -0.25839347 -0.14083552  0.22815393 -0.1733157   0.20348635
  0.20633888 -0.12197215  0.06597038  0.20407784 -0.03927973  0.2673101
 -0.2664522   0.16611017  0.12977631 -0.06538926 -0.08029149  0.07487856
  0.12775807  0.14813969  0.11004     0.25510973]
[ 0.1805704  -0.03264915 -0.1595924   0.24824527 -0.12465595 -0.10071232
  0.03001172  0.1425425  -0.2891595   0.1849877  -0.04347153 -0.19929236
 -0.01831892 -0.0254823  -0.00426104  0.27543372  0.2975776  -0.22899993
  0.13403119  0.19881785  0.08231034  0.02131146  0.09998604 -0.15394743
  0.27932867  0.32306907  0.3361498  -0.18516853 -0.02314413  0.31825978
  0.20478427 -0.27234817 -0.00683145  0.18759714 -0.15770257 -0.10622089
  0.13724294 -0.05930486  0.24499579 -0.1048796 ]
[ 0.04729301  0.1742333  -0.16735749 -0.08519496 -0.03837169 -0.38871032
  0.23855992  0.264105    0.13447051 -0.16548714  0.18995292 -0.26182014
 -0.00699419  0.41729847 -0.13172533 -0.01220782  0.02790235  0.1830655
 -0.11717764  0.20636    -0.04545791 -0.1084502   0.05578157 -0.27117297
  0.09661976 -0.0176478  -0.07352715 -0.3009925   0.15027256  0.12709838
 -0.16352789  0.24904194 -0.04532558 -0.1205034  -0.07132047  0.31298682
  0.19980943 -0.070678    0.33308554  0.12769496]
[ 0.1458209  -0.0736834  -0.32828513 -0.10242385  0.23094445 -0.29992
  0.29122913 -0.18023258  0.00914169 -0.10162269  0.00373267 -0.01262891
  0.16782524 -0.20892736 -0.20215988 -0.06804574 -0.2394354   0.14509697
  0.04741861 -0.12381371 -0.00791525 -0.26705763  0.23004398  0.01075157
 -0.26110396  0.16968824  0.08982338 -0.01048575  0.09039706  0.05127802
 -0.03447258  0.24025889  0.11506686  0.09298003  0.20018184  0.06234325
  0.02654162  0.03026087  0.023051    0.32465556]
[-0.18632406  0.2761164   0.21203181  0.25955352 -0.04595639 -0.28004518
  0.22694802 -0.05826021  0.05474632  0.2377811   0.19642359 -0.07225528
 -0.05000591  0.06551927  0.13669118  0.07326176  0.00611121 -0.09514944
  0.00685276 -0.17886764 -0.15369245 -0.11936165  0.05915017 -0.11875018
  0.22817048 -0.26050553 -0.03760501 -0.02628254 -0.05333196 -0.08536545
 -0.21417032  0.07586509  0.12109916  0.2174159  -0.10622509 -0.25152823
  0.13435222  0.103112   -0.21821822 -0.13167971]
[ 0.259992   -0.2449849  -0.0143323  -0.17500354 -0.07662182  0.03316767
 -0.05694807  0.16123316 -0.21656096  0.0663386   0.15348908  0.12062892
 -0.07719442 -0.13692588 -0.02211834 -0.14558662  0.12567432 -0.16841291
  0.00337685 -0.1696452  -0.00532409  0.28839943 -0.10664179  0.1538508
 -0.16617917 -0.12395392 -0.19380978  0.12507287  0.00298028 -0.08741372
  0.02761948  0.1501982   0.01469861 -0.24711029  0.01177955  0.14950086
  0.1833773   0.23649214  0.12662278  0.01126904]
[-0.25090405  0.41459653 -0.2182343   0.0314774  -0.24336359 -0.14320165
  0.13053624 -0.4015445  -0.15892987 -0.07237336 -0.00706844  0.05332944
 -0.38363385 -0.41463047  0.08266878  0.24013734 -0.04932694 -0.25720924
 -0.33273625 -0.04087345 -0.00094821  0.23122972  0.31171757  0.01989286
 -0.33331242 -0.16004564  0.03213893  0.14595218  0.21445397 -0.03058833
  0.22698615  0.14030336  0.15245976  0.20693247 -0.3713304   0.0611683
 -0.13580722  0.01743324 -0.30822325  0.28064898]
[-0.18460909 -0.44298664 -0.0907205  -0.28592354  0.2604014   0.03685281
 -0.07451412  0.49660453 -0.28157482  0.2163034  -0.14049794  0.1638285
 -0.13402836 -0.2124078  -0.20021336 -0.12683189  0.16360967 -0.06705821
  0.16217078 -0.09678089  0.09905791  0.00100023 -0.17664817 -0.0445601
  0.34279272 -0.00632341  0.16839442  0.27057764 -0.11202704  0.05969361
  0.10631203 -0.08646999  0.23618262  0.11593889  0.22672744 -0.32403013
  0.20671177  0.17727058 -0.01869823  0.18323493]
[ 2.11770117e-01  9.83290821e-02 -3.33798885e-01 -2.99710035e-01
  2.08592907e-01 -2.34443322e-01 -2.61954278e-01  2.83085734e-01
  1.28159851e-01  2.14984268e-01  3.46579403e-01  6.66901916e-02
  2.17314124e-01 -3.11261803e-01 -2.69676566e-01  1.74054965e-01
 -1.43772721e-01 -6.39362037e-02  1.61697641e-01  2.49792665e-01
 -3.14230710e-01  2.25514561e-01  1.87168247e-04 -2.16979265e-01
 -7.14915320e-02 -1.81524698e-02 -2.54100978e-01 -1.79358348e-01
 -6.45339489e-02 -1.08316176e-01  5.17948233e-02  1.22573301e-01
 -2.02831268e-01  2.77255118e-01 -4.51784842e-02 -1.04048327e-01
  5.27434722e-02 -1.38536319e-01  1.19082406e-01 -2.85092652e-01]
[-0.22409084 -0.3167563  -0.14969681 -0.13774343 -0.17972828 -0.22781596
 -0.17581508  0.44597098  0.32664713 -0.009878   -0.2317539   0.03256844
  0.13859485 -0.12537847  0.00867149 -0.05074656 -0.21331072 -0.0940445
 -0.30382723  0.11005037  0.11082627  0.21257924  0.2069046  -0.17824593
  0.22082762 -0.10503299 -0.07617453 -0.16558988  0.20886561  0.18487802
 -0.22541448 -0.06027982 -0.18774943 -0.14405586 -0.00670826 -0.10544617
  0.32265186 -0.08138176  0.3357878  -0.05223399]
[ 0.20188624  0.01786744 -0.32650974  0.37601644  0.26243013 -0.15750326
  0.09019385  0.07329801 -0.03057412  0.12604319 -0.29438928  0.14467618
  0.12457537 -0.17789611  0.24365571 -0.25338346  0.21328826  0.2301696
  0.1960087   0.2673783  -0.13375922  0.05262257  0.09574559 -0.29777065
  0.23879717 -0.05035325  0.17911169  0.13302322 -0.09325463 -0.36952055
  0.02769469  0.16223964  0.06291087 -0.29360116 -0.05405084  0.10231698
 -0.18676922 -0.04852729  0.29330245  0.24367926]
[-0.10696996  0.29114872 -0.23231107  0.07612636  0.2526167  -0.21148157
  0.23902687 -0.33880323  0.15122475 -0.15476254 -0.01106118 -0.11069977
 -0.11290254 -0.32603624 -0.0084827  -0.14459302 -0.3216256  -0.10727604
 -0.12276918 -0.02211618  0.01152748  0.31730232 -0.10052475 -0.2115629
  0.02079948 -0.27654877 -0.20715024  0.17188564  0.1202     -0.21687624
 -0.1154592   0.18082036  0.263268   -0.2516884   0.15753676  0.3066963
 -0.21287337 -0.25565764 -0.15932235 -0.14790353]
[-0.14448127  0.33744663 -0.12834135  0.20214045 -0.276736   -0.06886912
  0.13295692 -0.11868633 -0.10654851  0.1972991   0.02990362  0.07503792
 -0.58561814  0.00511609  0.07709432 -0.26985753 -0.20656268 -0.11983985
 -0.00353821 -0.09796835  0.14730448  0.21257202  0.26558724 -0.39496532
 -0.1913768  -0.32338923 -0.08104057  0.00782732  0.10689799  0.28108162
 -0.26248205  0.07536744  0.27861238  0.06532846  0.05779198 -0.05357406
 -0.3277971  -0.12111317 -0.51438874  0.19248034]
[-0.08789625  0.11588999 -0.08726522  0.2802907  -0.0150401   0.22343545
  0.18300514 -0.23066585 -0.09774322  0.04112709  0.12136751  0.03050552
 -0.12171218 -0.01985943  0.00130973  0.23998046 -0.21428034  0.09747034
  0.2409826  -0.12294347 -0.11598571  0.02609602 -0.29809216  0.05050849
 -0.06043172 -0.0319302   0.2603423   0.2943019  -0.38542825 -0.0911316
  0.26997775  0.28044245 -0.10554431  0.22819452  0.15774322 -0.11837293
  0.29879     0.13795112  0.28423643  0.31860554]
[-0.16499013 -0.0590921  -0.2870277  -0.35174933 -0.14208221 -0.23776299
  0.07031253 -0.11936983 -0.00275847 -0.1436289   0.21078531 -0.22903144
  0.06403139 -0.24114996 -0.06404501 -0.20270994  0.07235336 -0.03097143
 -0.05256165 -0.11765796 -0.07995202  0.26555902 -0.20038213  0.14994597
  0.2045467   0.0101041  -0.03156612 -0.1039763  -0.28450692 -0.20150115
 -0.13563022  0.28995237  0.00964098 -0.12825279 -0.05094755  0.26315162
 -0.21440089  0.08558187  0.02520327  0.05430942]
[-0.13603199 -0.06566107 -0.31606168  0.17403063 -0.27065584  0.25426817
 -0.1969244   0.1877453   0.06805795 -0.02155291 -0.151582    0.30883047
  0.08159725 -0.21295321 -0.12188303  0.13738693 -0.07318187  0.00680158
 -0.21005124  0.05873175 -0.0789433  -0.25065276 -0.05398979  0.11225619
  0.15268016  0.08261979  0.06223712  0.12048622  0.27331433 -0.1927371
  0.08657302 -0.04982512 -0.26044816 -0.1465049   0.1066756  -0.02021502
  0.3234094   0.22217375 -0.08967283  0.15319921]
[ 1.8318007e-02  9.6293297e-03  5.7513170e-02 -9.9353166e-03
  5.9706572e-02 -5.3966522e-02 -2.8636411e-03 -1.7968131e-02
 -1.3594510e-02  9.6488118e-02 -2.9177202e-02 -7.6087691e-02
  5.7057749e-02  9.5166467e-02 -2.1148972e-02 -1.5708730e-02
  1.2023758e-02  2.0902991e-02  5.1856715e-02 -1.4460153e-02
 -2.4250697e-02 -4.1637316e-02 -9.6557595e-02  1.0279677e-02
 -7.7572982e-03 -6.6384166e-02 -6.5829800e-03  2.6363488e-03
 -1.4821817e-01  1.1186358e-01 -4.6208450e-03  1.4838889e-02
  7.9815945e-05  8.4518193e-05  1.2607704e-01  1.7217742e-02
  2.7378105e-02 -1.5520684e-02  3.7630580e-02  8.4964093e-04]
layer 3 Activation
tanh
layer 4 Dense
40 20
[ 0.28423375  0.19053987  0.01313749 -0.2105588   0.01686614  0.00244934
 -0.2400777   0.16411622  0.0365117  -0.25645757  0.2653528  -0.30218452
  0.09046496 -0.02900832 -0.06936814 -0.07192639 -0.21846466  0.11788292
 -0.03096682 -0.34009197]
[ 0.10813391 -0.28888     0.02067076  0.16717075 -0.18559432 -0.17140959
  0.19863918 -0.19788375 -0.11502154 -0.09229579 -0.2976064   0.01706924
  0.34775332 -0.22155868 -0.26336256 -0.16224347 -0.25969705  0.11230176
 -0.16108786 -0.08137809]
[ 0.00101841  0.04561188 -0.04685169 -0.1036642  -0.06244918 -0.09082191
 -0.18642339  0.26360288 -0.01388701 -0.21860869  0.12936564 -0.28532767
 -0.00613032 -0.13946982  0.00354991  0.05149721  0.13235816 -0.1959564
  0.17078741  0.1525338 ]
[-0.26370484  0.0352898  -0.202524    0.26592803  0.26608607 -0.1960652
 -0.20997357 -0.25080478 -0.22918567 -0.08552683 -0.16754854 -0.22787717
  0.05540144 -0.23977007  0.18036619  0.05549145 -0.00117056  0.08001616
  0.16589785  0.00245858]
[ 0.2560516   0.07929639 -0.10515193 -0.02525589 -0.25084886 -0.02406137
 -0.00652388  0.21609224 -0.21847704 -0.09183473 -0.19336629 -0.08734513
 -0.10323634 -0.29799277  0.24697937  0.21269162  0.07236371 -0.32815143
 -0.12493654  0.12857097]
[-0.32768002 -0.10064955  0.31564957 -0.22886615 -0.10068756  0.22316626
  0.07219227 -0.20357232 -0.03957351  0.27319193 -0.01555178 -0.16010505
 -0.18699189  0.27556178 -0.29895216  0.11918996 -0.14603417  0.24007824
  0.07376449 -0.01643151]
[ 0.1303986  -0.10203417  0.32540527  0.11452415  0.1801625  -0.13477369
 -0.25253978 -0.10978828  0.18507332 -0.19336094  0.09932812  0.14805357
  0.01518628 -0.11342455 -0.15503815 -0.04986661  0.15953583 -0.23669396
 -0.17687428  0.16890386]
[-0.21084175  0.02749559  0.1044751   0.01249032  0.20861568  0.3227654
 -0.30939865  0.28444618  0.26813117 -0.23691912  0.0676609  -0.29428637
 -0.11840644  0.33371493 -0.09444336  0.0682779   0.3365448  -0.0041138
  0.01542961 -0.08327755]
[ 0.28313452 -0.27494854  0.07302807  0.2768017   0.21042655 -0.03623108
  0.0151139   0.00754676 -0.27764082  0.0625994  -0.16731659 -0.04900493
 -0.20782213  0.0967892  -0.23980498 -0.26195458 -0.01399081  0.04636809
  0.19795613 -0.15224619]
[ 0.15007623  0.01430408 -0.11322017  0.04869941  0.16193284 -0.25241932
 -0.17100543  0.38219115  0.29039088 -0.16336325 -0.08064479 -0.00200897
  0.15495084 -0.07243746 -0.1289737  -0.27206782  0.20061646  0.39119825
  0.07479864  0.2036434 ]
[ 0.08639908  0.05676676 -0.1372893   0.20079803 -0.12759475  0.04499149
  0.05966691  0.23748949 -0.0421208  -0.21718925 -0.24557778  0.04782755
 -0.01646585 -0.12129638 -0.11229409 -0.23650944 -0.1264592  -0.01235907
 -0.03799862 -0.1575371 ]
[ 0.23042093 -0.1997622   0.2283001  -0.22507778 -0.14445636  0.23770314
 -0.28235883 -0.13453102 -0.09527636  0.03021971 -0.2126111   0.17642996
  0.23393653  0.29844704 -0.04084165  0.03369066 -0.26906547 -0.10928157
 -0.17493965 -0.01196565]
[-0.19412848  0.17332879  0.32283583  0.23951244  0.3362759  -0.25634438
 -0.09265326 -0.05684851 -0.21051033 -0.26187     0.14067131  0.07861163
 -0.29053646  0.17556182  0.20868891 -0.07254206  0.23702854  0.16115674
  0.0442508  -0.33849403]
[ 0.29319853  0.37305158  0.14571281  0.12747468  0.04950825  0.19012052
 -0.17059402 -0.12681773 -0.06701908  0.23353554 -0.05283495  0.02845946
 -0.08676687 -0.1226489   0.08355594  0.10764883 -0.04726572 -0.04915519
  0.04795446  0.04828405]
[-0.20996408 -0.16398312 -0.01289357  0.20462438 -0.02106623 -0.24635404
  0.2978249  -0.16023606  0.02142905  0.2995068   0.05732326  0.20452414
 -0.0329662  -0.29936603  0.11504724  0.11231245  0.31086543 -0.31872347
 -0.02127985 -0.01911967]
[ 0.18739128 -0.1651751   0.18698986  0.21521467 -0.21337132  0.0071427
 -0.16533753  0.07444419 -0.19893056  0.02877707  0.19521098 -0.09859539
  0.19184884  0.00301828  0.18015197  0.2754203  -0.06626773  0.15169075
 -0.15316363  0.10662788]
[-4.2608839e-01  3.7503392e-01 -3.7334763e-02  1.6040935e-01
  1.9803894e-01 -6.0359947e-03 -2.5652778e-01 -2.3343830e-01
  1.9199286e-01  7.9433080e-03  9.1522589e-02 -9.0878971e-02
 -9.5265031e-02 -1.1681594e-01 -4.6800099e-02 -2.6399803e-01
  9.8050125e-02  2.8545824e-01 -1.5337534e-01 -1.7108989e-04]
[ 0.02018521  0.19870979  0.0192249   0.27145875 -0.21754156  0.01454376
  0.17114767  0.05083748 -0.08073478  0.197699    0.3449772  -0.14608839
  0.13298197 -0.07999478 -0.26961377 -0.13306223  0.14419061 -0.13326728
 -0.10947341  0.1328639 ]
[-0.08504841  0.2741414  -0.05519656  0.05367741 -0.17689823 -0.26982906
 -0.3541839  -0.35783875 -0.02999954 -0.39464173  0.01163741  0.11188175
 -0.1795688  -0.05235014  0.06189286  0.01504155 -0.17925246 -0.05644675
  0.11335953  0.2325675 ]
[-0.06110728 -0.13830857  0.03705419 -0.09506495  0.00844462 -0.26846197
 -0.08462087  0.1585212  -0.19314606 -0.08813115 -0.23769617  0.22161272
 -0.22281978  0.1752001   0.14688611 -0.07411158  0.18167979 -0.0193858
  0.03880912  0.26332715]
[-0.3918406   0.23410974  0.12494994 -0.07785139  0.15310414 -0.1335528
  0.09009302  0.1380739  -0.03622481  0.25457448 -0.38421664  0.18179658
  0.17178443  0.03514084 -0.14810556 -0.18832985 -0.20964207  0.22660707
 -0.17798318  0.00776036]
[-0.16696875 -0.41376543 -0.02088064  0.11449578 -0.16516997  0.1963096
  0.24099706 -0.03388188 -0.2121626   0.38937292 -0.08670928  0.18420629
  0.22812904 -0.00898309 -0.04773349 -0.2532882  -0.34468397  0.24789324
  0.12591735 -0.18529013]
[-0.06677821 -0.30640838 -0.06482742  0.09325114  0.24371791 -0.11855366
  0.25293583  0.3479018   0.03358654  0.05196053  0.01584616 -0.1270532
  0.09503286  0.15847021  0.2400554   0.02578026 -0.03023493 -0.339633
  0.11226204 -0.01574074]
[-0.2044108   0.31076393  0.02131287  0.24893974 -0.03010718 -0.06414179
  0.07596924  0.13103598 -0.21753858 -0.00474794  0.04874497  0.09636618
  0.01697755  0.09494966 -0.20242082 -0.16482465 -0.19644597 -0.10092665
  0.03318172 -0.06715501]
[-0.05818853  0.42712545 -0.2782928   0.16873688  0.17642309  0.0939129
 -0.1168761   0.20996125 -0.09592726  0.09284884  0.10124122 -0.30915016
 -0.19049427  0.27706197 -0.0463924   0.14414386  0.2907585  -0.31585297
 -0.10557876 -0.08818535]
[ 0.21658067  0.13410388 -0.08980722  0.05342241 -0.14808385  0.20120417
 -0.21592402  0.05864559 -0.10108863  0.21217734  0.1645961  -0.19372228
  0.0284261   0.28900978  0.08838156 -0.10415846  0.24302103 -0.1807852
 -0.10232536  0.08348037]
[ 0.04360348 -0.00403961 -0.07261004 -0.12890464 -0.06886163 -0.21071048
 -0.23374052 -0.1244722  -0.3156805   0.07408433  0.3146422  -0.22074738
  0.22474438  0.24751388  0.2554205  -0.02629343 -0.19658896  0.24565391
  0.1112541  -0.3121418 ]
[ 0.129007    0.00590451  0.23315732 -0.02510685  0.08584952  0.25786492
  0.07198283 -0.15639451  0.09814199  0.05747285  0.04527076 -0.32018846
  0.0482395  -0.23315208  0.12868178  0.14080055 -0.27675086  0.2223438
 -0.2626904   0.27737388]
[-0.10679321 -0.1885103  -0.14941125 -0.06944022 -0.2226302   0.12522371
 -0.18572272  0.04210421  0.10236622  0.35331592 -0.04423442 -0.13821623
  0.04431823  0.14729889  0.13502859 -0.1753158  -0.18732823 -0.2707753
  0.14377122  0.2570888 ]
[-0.01864519  0.16023177  0.13559008  0.18499266  0.23318057  0.26613468
  0.17811102 -0.26898408  0.0183493   0.20044696 -0.15762323 -0.13116643
  0.23299983  0.1344636  -0.10783529 -0.24625057  0.10601242  0.24668309
 -0.22752139 -0.2871781 ]
[ 0.04754893  0.09082305 -0.07415099 -0.07752354  0.13209078  0.08465048
  0.35835418  0.04950924 -0.27532703  0.10737245 -0.04984452  0.09678308
  0.15551446  0.10214201 -0.03316101  0.0849001   0.15406638  0.17545933
 -0.26958585  0.20104368]
[ 0.18840022 -0.2926653   0.18162335  0.15194277 -0.01352429  0.05721929
  0.20732442 -0.22478658  0.14072211  0.12435634  0.20332244 -0.22185588
  0.09973262 -0.19444612  0.20887488  0.10123656  0.23954155 -0.15914112
  0.01278093 -0.1152447 ]
[-0.10506193 -0.1981361   0.03421871 -0.21112873 -0.11972442 -0.1562951
 -0.12206833 -0.2793008  -0.06873844 -0.3455782   0.06990009  0.06200964
 -0.03631859 -0.16180176  0.22164415 -0.2714416  -0.29141045  0.2131649
 -0.0235783   0.2295365 ]
[ 0.0027433   0.18595044  0.02512405  0.23923855  0.18929078 -0.12681504
 -0.06382359  0.25213352  0.15097257 -0.02923219  0.23542453  0.15171373
  0.02595349  0.25393566 -0.18381232 -0.12401529 -0.23444186  0.12395883
  0.22581553  0.1277436 ]
[-0.05665681  0.26511315 -0.08656321  0.12144964 -0.1061475   0.21675605
  0.07055836 -0.03401927  0.00987397 -0.13872144 -0.23422913 -0.03058987
 -0.26182756  0.00206777 -0.23537947  0.18451387  0.00597339  0.05185627
  0.07584689  0.00725243]
[-0.05540913 -0.01127189  0.13999467 -0.32297793 -0.03260866  0.14217503
  0.22798926 -0.15687178 -0.17533962  0.15306813  0.24154043 -0.0511727
  0.06364834 -0.12812237 -0.18214819  0.2001899   0.12538272 -0.18331555
 -0.31018484 -0.06593147]
[ 0.24024406  0.11191615 -0.18323424 -0.0435864  -0.13592611  0.13100338
  0.02209176 -0.0428058  -0.19646826  0.30897397 -0.16830362 -0.2572043
  0.10153394 -0.03669047 -0.27976716 -0.10015881  0.26012945 -0.20679295
  0.0382061   0.08559266]
[ 0.2894965   0.01859821 -0.43105567  0.12918857 -0.12438741  0.16169597
 -0.20082681  0.09141558 -0.14263351  0.14993334  0.38699856 -0.07630777
  0.21644655  0.16818209  0.2349044   0.06327651 -0.06070929 -0.11013046
 -0.08290139 -0.17615464]
[-0.3043537   0.09604751 -0.23390646 -0.12445736 -0.19555077 -0.26701197
 -0.2162902   0.1723048  -0.1758077  -0.19713497 -0.04607413  0.12525226
  0.09496555  0.24344036  0.0958525  -0.17077777  0.22896145  0.28722405
 -0.13725942 -0.05683446]
[ 0.1678403   0.21884042 -0.19535181  0.02862023  0.3302422  -0.13955472
  0.1874334   0.16108936 -0.20487982  0.24481606 -0.10873659 -0.22773206
  0.18701614 -0.17175727  0.29166993  0.23033182 -0.16947266  0.0803832
 -0.20150054 -0.34249252]
[ 0.02702068  0.07220557  0.03159123 -0.00127537 -0.02336199 -0.00094225
  0.01288761 -0.0529744  -0.0177612  -0.05303913 -0.02000427 -0.02077208
  0.01150654 -0.05616074  0.01156776  0.02499578  0.05013491 -0.00561922
  0.04144454  0.01797763]
layer 5 Activation
tanh
layer 6 Dense
20 1
[-0.09491424]
[0.18984546]
[0.00113465]
[-0.06807671]
[0.00239762]
[0.10740574]
[-0.00939517]
[-0.02776261]
[-0.2896844]
[-0.15932827]
[-0.06024275]
[-0.07830631]
[0.32095897]
[-0.38134533]
[0.10417573]
[0.00692048]
[0.20228504]
[-0.02236071]
[0.18961886]
[0.01996668]
[0.03115755]
