layers 7
layer 0 Dense
20 20
[ 0.7912626  -0.1911222  -0.10113885 -0.01942687  0.06476893 -0.05694423
  0.14479858 -0.4078213  -0.24585442  0.32470608  0.17924619  0.47536823
 -0.29035088  0.30661058 -0.01619815 -0.114673    0.04298068 -0.01967244
  0.48042566  0.32506907]
[ 0.2217012  -0.30335072  0.03062579 -0.00660375 -0.05443839  0.06495956
 -0.4554582  -1.1306994   0.5709128  -0.2193291  -0.14590983  0.28515565
 -0.77884495 -0.15269426 -0.43478006  0.18266791 -0.25218183  0.01812641
 -1.0616602   0.34103763]
[-0.06039469 -0.45131156  0.7640927  -0.33005345 -0.31614164 -0.04108991
 -0.30579942 -1.3010178   0.6929058   0.04379819 -0.5704793   0.3160173
 -0.75838727  0.5466626  -0.33372247  0.31941566 -0.13418184  0.10012975
 -0.74671793 -0.1487783 ]
[ 0.37982363 -0.56581163  0.39175522  0.40194193  0.13764766 -0.18322952
  0.13531335 -0.2708515  -0.0653807   0.3302021  -0.4982911   0.57921547
  0.2962621   0.47970116  0.27785695 -0.23946391  0.28729764 -0.2739329
  0.19716094 -0.1608782 ]
[ 0.3353236   0.3575175  -0.02813863  0.23775148 -0.6890037   0.46281812
 -0.4635134   0.45383933  0.1519842   0.21327746  0.1729374  -0.00639093
 -0.24095343  0.32099208 -0.2973657   0.49132186  0.11485735  0.36740398
 -0.18291485 -0.20435296]
[ 0.35539466 -0.0450672  -0.69368786  0.20063601 -0.158631   -0.0788926
  0.01150208  0.42626318  0.161884    0.26508078  0.05579053 -0.51838404
  0.2000731  -0.05231128  0.04632445  0.1356491   0.77368635 -0.03258238
  0.6499019  -0.4306305 ]
[-0.13898404  0.5121188  -0.03070652 -0.19708599  0.45974424  0.13304597
 -0.29759502  0.5820977  -0.41014785  0.28696147  0.45707196  0.13088174
  0.12026528 -0.34217945  0.3346579  -0.08150522  0.50934255 -0.44172484
  0.86706877 -0.32185307]
[-0.8995517   0.8571573  -0.53094286 -1.2445457   1.0443767  -0.13559866
  0.6552551   0.89306694 -1.1278089   0.5932492   0.927391   -0.80916464
  0.91923195 -0.45895356  0.40386036  0.0624854  -0.8076981   0.25781342
  0.10907175  0.9030675 ]
[ 0.1344964   0.13434859  0.03642655 -0.06413522  0.3110212  -0.03330573
 -0.2111289   1.3809181  -0.6277574   0.50311327  0.82334244 -0.30963877
  0.5226742  -0.29293692  0.34797537 -0.07610508 -0.23289898  0.18761435
  0.18220401  0.15007637]
[ 1.0404304   0.42612728 -0.48841906  0.6483757  -0.18361989 -0.13963975
 -0.12461571  0.9653517   0.4643611   0.0477248  -0.05937281 -0.04021036
 -0.5147351  -0.91731876  0.43063983  0.8272296   0.8198092   0.35692143
  0.44798025 -0.27650213]
[-0.21144111 -0.1523925   0.24830358  0.17404953  0.12821883  0.5995733
 -0.5613663   0.97772926  0.78142834 -0.15658966 -0.33160564 -0.03216774
 -0.19018547 -0.45717314 -0.07182086 -0.58490366  0.6963897  -0.38638723
 -1.0492868   0.11216242]
[ 1.1386002  -0.7402477   0.16823845 -0.39187744  0.5796612  -0.53412294
 -0.05191377 -0.16534114 -0.20468828  0.6648982  -0.17376925 -0.1816997
  0.173176    0.5428206  -0.23639055  1.0204455  -1.0363861  -0.50290126
 -1.1290611   0.25209627]
[-0.0064999   0.05848185 -0.2702135   0.09269916 -0.42397827  0.47782466
 -0.12906486  0.7116178   0.2920488  -0.6807008  -0.16586193 -0.27593017
 -0.30145863  0.5178155   0.5106721  -0.15937015  0.5578099   0.79266846
  0.44594136 -0.3338665 ]
[-0.95519376  0.22304276  0.02097148 -0.03092217 -0.0817463   0.10177289
 -0.26021728 -0.7053167   0.4434951  -0.11521815  0.28467384 -0.4402592
 -0.326732    0.6119919   0.15863696  0.23168136  0.48291802 -0.4277959
  0.02050582 -0.2557274 ]
[ 0.6462537  -0.07978915 -0.5615322   1.1369519  -0.9121395   0.83265483
 -0.71557033 -1.0798497   0.8772974  -0.7424552   0.45541084  0.11096885
 -0.6323899  -0.11977349  0.9468673   0.03408819  1.5203323   1.2143523
  0.16765876 -1.0393989 ]
[ 0.29967478  0.01413827  0.07063361  0.26513845 -0.9431735   0.28618133
  0.44465038 -1.2211367   0.4588539  -0.5833113  -0.7402884  -0.36678874
  0.08654461  1.1241158  -0.7971129   0.46660587 -0.19297883  0.03032908
 -0.8916126  -0.5010795 ]
[ 0.44969282 -0.02950361  0.5931673  -0.6860833   0.52741945 -0.84347445
  1.097508   -0.88163555 -0.38385087  0.5312511  -0.7807758  -0.3758025
  0.33159503  1.8926978  -1.2548752  -0.4594824   0.5387246  -0.15924633
 -0.299567   -0.15986311]
[ 0.21827167  0.27285722 -0.6414515  -1.126663    0.5864173  -0.11887812
  1.1497811   0.18995084 -0.7981718   0.05356905 -0.01598759 -0.4119486
  0.6582097  -0.03093473  0.45793605 -2.6899438  -1.5568116  -0.1018116
 -2.4054556   1.3865372 ]
[ 0.12304808 -0.26425523 -0.09369138 -1.4091531   1.314746   -1.5887251
  1.140433   -0.3336087  -1.419625    0.39640534 -0.4289503   0.2516493
  1.3535303   0.72307545 -0.06777629  0.8130804  -1.3075087  -0.5973577
  1.4310263   1.186733  ]
[-0.681548    0.135963   -0.9772168  -0.97445416  1.3678397  -0.6167954
  0.34356144  0.7716867  -1.6533203   0.2991229   0.657041   -0.16821682
  1.4037297  -0.61987484  1.0602138  -1.5793915   1.2129912   0.4196287
  2.751014    0.56442815]
[ 0.28239602 -0.5043898   0.20464832  0.3851528  -0.4036716  -0.02681905
 -0.07210667 -0.7789904   0.36524498 -0.10426673 -0.3575275   0.47586173
 -0.2638884   0.13589713 -0.10342165  0.0586262   0.08115546 -0.15022378
  0.13056925 -0.18594679]
layer 1 Activation
tanh
layer 2 Dense
20 40
[-0.03247446 -0.35025972  0.11416388 -0.49285814 -0.26362643  0.67647177
  0.261145    0.19597042  0.2059969  -0.16395292  0.718323    0.49390414
  0.07692877  0.13752533  0.72594196 -0.3085098   0.32382873  0.37594652
 -0.02254493 -0.1899317  -0.36755276  0.42684618 -0.11259659 -0.03173267
 -0.9159996  -0.07211749  0.0128266  -0.5253263   0.25800934  0.10966795
 -0.01431683 -0.02323839 -0.5821141  -0.17471194  0.02198539  0.7036099
  0.5858716   0.48717532  0.04916784  1.1830584 ]
[ 0.19111755 -0.18545529 -0.2689689   0.11060206 -0.067475   -0.02548728
  0.240431   -0.609106   -0.4682662  -0.46673203 -0.28640756  0.23870355
  0.10712675 -0.6443244  -0.2852324   0.0127524   0.10630894 -0.52928245
  0.24352361  0.35159737  0.50892955 -0.28235853  0.27616715  1.1137866
  0.51431924 -0.33761626  0.2335759   0.64424723 -0.2976974  -0.03356188
 -0.29503608 -0.23443714  0.298718    0.02062881 -0.47618622 -0.63733494
 -0.4461293  -0.47370085 -0.7438849   0.1652476 ]
[-0.08077325  0.31859934 -0.37449294  0.08596721 -0.3086612  -0.2536607
 -0.00670684 -0.34481466  0.2258051   0.42726165  0.46017766  0.17100854
  0.26072723  0.23702905  0.0010364   0.28220505 -0.08360036  0.067852
 -0.3750197  -0.1697813  -0.2372317   0.3785788  -0.07891627 -0.16570392
 -0.16157223  0.27758688  0.15161261 -0.00483381  0.05016793  0.2273494
  0.00220819  0.16608986  0.00386377  0.12858129 -0.12928392  0.08270681
  0.5093183   0.46334916  0.01060756 -0.21584737]
[-0.2741426  -0.24142346  0.44310954 -0.64616    -0.07771303 -0.33929944
  0.04777342 -0.3166164  -0.04346506  0.9105772   0.49607775 -0.25186414
 -0.22085287  0.49895653 -0.0501285   0.25173792  0.43701372  0.37167332
  0.15116987 -0.7424862  -0.3702428  -0.11050405 -0.15473473 -0.3107535
  0.04137075  0.19107194 -0.07112536 -0.06518085 -0.2017137   0.15756372
 -0.7695363   0.02481706 -0.48740456  0.12889889  0.0619363  -0.12454114
  0.82670784  0.0486711   0.03885327  0.34236518]
[ 0.354943    0.34845164 -0.00907819  0.86575615 -0.3124655   0.38216475
  0.70264596  0.5017697   0.23072365 -1.172078   -0.11796915 -0.41892278
  0.4635769  -0.23293142  0.8724768  -0.9055878  -0.79306275  0.2700748
 -0.09718496  0.7422326  -0.33859944  0.1730999  -0.4895506  -0.1162333
 -0.3661889  -0.6055669  -0.15823972 -0.16898468  0.43779263  0.20336202
  0.5589707  -0.1004904   0.5059535  -0.16419086 -0.08946334  0.00972725
  0.19301264  0.18782793  0.6781718   0.17748599]
[-0.06342883 -0.6022601  -0.03993067 -0.36972013  0.50005794 -0.28980273
  0.2284815  -0.45116735 -0.02908186  0.26008523 -0.03637882 -0.09888986
  0.18751185 -0.30466864 -0.6811676   0.25777182 -0.02717384 -0.13533679
 -0.20652981 -0.2432383  -0.11726147 -0.24863322  0.24512447 -0.17126182
  0.5242742  -0.03103973 -0.01932192  0.08103077 -0.34633023 -0.17593367
 -0.6283746  -0.19180104 -0.16891105  0.3570861  -0.21690615  0.03509701
  0.33785522  0.19651821 -0.5097215  -0.35201603]
[ 0.35125968  0.37167707 -0.25971755  0.2626079  -0.2228729   0.4858463
  0.42301086  0.32675928 -0.07744797 -0.99539536 -0.33962178  0.18728569
  0.0809714  -0.3045917   0.5576228  -0.23567197 -0.3455677  -0.26046783
  0.13346127  0.89774436  0.43605608  0.1205207  -0.25224718  0.07309172
 -0.16444527  0.07272818 -0.20454288  0.18548211  0.02943642  0.17673261
  0.6495701  -0.23523794  0.03557829 -0.44565564  0.15204795 -0.3147435
 -0.17636225 -0.01151378  0.06384037  0.41087165]
[ 0.04464282  0.04917359 -0.65056723  0.8784077   0.38555142 -0.79999274
  0.18779854  0.36439398 -0.92710656 -0.37483144 -0.89741933 -0.16863999
  0.728647   -0.22784162 -0.80443805 -0.04249554 -0.3535173  -0.45441777
 -0.04818857  0.18775706  0.11400317 -0.3612283   1.1939497   0.35098457
  0.892576   -0.0231887   0.26467526  0.07985605 -0.785345    0.09228125
  0.90096325 -0.50134575  0.9095633   0.33056548 -0.42568457 -0.4518772
 -0.70107657 -1.183656   -0.01860282 -1.2801726 ]
[-0.4426066  -0.7398691   0.2598918  -0.8022015  -0.17603898 -0.12727654
 -0.55818665 -0.21767452  0.4307185   0.6209046  -0.1065468   0.6159474
 -0.29134804 -0.2650554  -0.7152475   0.7316028   0.31903765  0.3334537
 -0.48621824 -0.6527469   0.5662055  -0.46521252 -0.58862126  0.01472985
 -0.04624973  0.3895106   0.64136136  0.17315693  0.17470922 -0.4532277
 -0.9720489   0.43499953 -0.61824816  0.4987206   0.18708938  0.11963502
 -0.00316986  0.3482812  -1.2327456  -0.00907462]
[ 0.33931372  0.02576195  0.07694048  0.03322149  0.06733254  0.19968812
 -0.0219464   0.29947644 -0.18361968 -0.26891288  0.07081734 -0.02184621
 -0.11987657  0.16616371  0.35970095 -0.2376667  -0.2257159   0.03405861
  0.25765634  0.12044194  0.35087436  0.04457827 -0.5684583   0.01208742
 -0.2657041  -0.34770256 -0.2770122   0.10909566  0.209957   -0.03326479
  0.43616733  0.09987691 -0.19824257 -0.04305931  0.02083857 -0.19800024
  0.07113803  0.12845561 -0.11842208  0.0238375 ]
[-0.09491127  0.1437046   0.06800012 -0.04082885 -0.10005791  0.11199229
 -0.21547474  0.24471729 -0.5331177  -0.58233476  0.20205107 -0.22773534
 -0.02510201 -0.03314641  0.20689265  0.2151652   0.31944978 -0.03777529
  0.48022446 -0.25474337  0.04269259 -0.6291731   0.31732646 -0.03749753
  0.05705433 -0.15178967 -0.02795808  0.02371561 -0.4303401  -0.24655524
 -0.10155141 -0.16868295  0.10915279  0.18409821 -0.24156483 -0.27989426
 -0.23652072 -0.74820536 -0.41997194  0.10539693]
[-0.04308252  0.20033026  0.4681227  -0.21965939 -0.48859704  0.05834216
  0.10033379 -0.12553184  0.64184225  0.3534234   0.35556138 -0.10410711
 -0.16536044  0.6496784  -0.1336945   0.20254457  0.10755861  0.40621328
 -0.31572837 -0.39403114 -0.48548993  0.19438758 -0.46506172 -0.5753189
 -0.23196267  0.24038927 -0.1344613  -0.5196424   0.4961765   0.37097606
 -0.11488556  0.30567792 -0.70771384  0.03587998  0.28586665  0.34469363
  1.0503309   0.61323255  0.5042601   0.61826736]
[ 0.54214096  0.41363314 -0.15006942  0.20479383  0.25951877 -0.01848089
  0.3563836   0.6473641  -0.3932357  -0.7707079  -0.17688465 -0.15617828
  0.01946922 -0.01553014  0.37529275 -0.22906496 -0.48525584 -0.18931933
  0.16852556  0.47641233 -0.17190778 -0.01330708  0.18202683 -0.29225823
 -0.06470113 -0.16641949 -0.14563647  0.00679496 -0.2797595   0.02440316
  0.77666277 -0.38587764  0.32598132 -0.18619616 -0.01444876 -0.07763983
 -0.33003837 -0.1948351   0.08582252  0.11252725]
[-0.23116648 -0.1916413   0.20670088 -0.66466856  0.04031834  0.8331813
 -0.43403488 -0.30758578  0.30064085 -0.02350504 -0.11249066  0.52693933
 -0.45105296 -0.1412787   0.9524179   0.58016497  0.29081273  0.3528755
 -0.37491047 -0.11119732 -0.0922416  -0.10762726 -0.353341    0.06039328
 -0.5880315   0.14362156  0.71842206  0.29778683  0.14018376  0.04284488
 -0.37371728  0.13133979 -0.01116882 -0.10389611 -0.04306231  0.12788169
  0.13482381  0.33282328 -0.20818755  0.4925216 ]
[-0.08340286 -0.06274007 -0.12625651 -0.09641008 -0.2781433  -0.0978258
  0.16992208  0.09920873 -0.28724357  0.43182236  0.18600424 -0.13312286
  0.23108684 -0.17728406 -0.58519375 -0.3575904  -0.02230443  0.23315337
 -0.00191396 -0.20146406 -0.12893058 -0.33871642  0.20217946  0.2662218
 -0.04517178  0.19132988 -0.24425244  0.14371035  0.02039602  0.33575723
 -0.20386432  0.06973021 -0.05737058 -0.3033428  -0.0802124  -0.26195326
 -0.2622126  -0.09946755  0.08978207  0.30756733]
[-0.4391929  -0.44355583  0.5897469  -1.1138483  -0.01435489  0.1371949
  0.29689613  0.03356185  0.01697191 -0.5451526   0.15613186  0.20138559
 -0.55817854 -0.16801845  0.9272931   0.18828811  0.9220879   0.58949035
  0.346538   -0.45883492  0.58151877  1.271266   -0.72430766  0.040889
 -0.72814536  0.07176058  0.87930566 -0.2487008   0.14989713 -0.2796841
 -0.5787435   0.11596645 -1.1716413  -0.55941206 -0.11558633  0.6207655
 -0.00571558  0.60229224 -0.37030503  1.4370093 ]
[-0.07415245  0.21581808  0.10344352  0.20792846  0.00712061 -0.7421467
 -0.06935288 -0.16145143 -0.19025569 -0.02530666  0.04266243 -0.3830106
  0.57348615 -0.15841697 -0.45168167  0.23495238  0.16280581 -0.06100738
 -0.1368681  -0.15580425 -0.00123167 -0.6271999   0.07382642 -0.1335179
  0.4173147   0.38366568 -0.33483964 -0.05101473 -0.2670369   0.2503728
 -0.02965066  0.13795547  0.23535521  0.63354623  0.09261987 -0.24697013
 -0.15327334 -0.15664132  0.6003453  -0.13778089]
[-0.09773964  0.02295128  0.22028422 -0.10224846  0.0097972   0.06483036
  0.3247487   0.18647905  0.03540755 -0.35389552  0.35485095 -0.17728905
  0.34995052  0.05441356 -0.25974435 -0.35207483  0.20166515 -0.14348312
  0.269009   -0.2936901   0.07944767 -0.2002315   0.1897936  -0.05845277
  0.08912429  0.14241824  0.02707218  0.11156273  0.05843164 -0.11465229
  0.04284355 -0.13243654  0.4869786   0.11488814 -0.16210292 -0.12244966
 -0.23131116 -0.06667137 -0.43453273  0.262813  ]
[ 0.39159974  0.9262467  -0.7479833   0.71831757  0.3147657  -0.78026074
 -0.23393762  0.28189927 -0.75838655 -0.41448367 -0.17012295 -0.682716
  0.34342644 -0.06177339 -0.7679371   0.25178012 -0.61192113 -0.38342643
  0.16097146  0.2988596  -0.3526505  -1.398498    0.68653005 -0.10494374
  1.0161558  -0.04324907 -0.7703825   0.6632497  -0.5664766   0.6637247
  0.7170343   0.0421526   1.1997354   0.39988396 -0.11174912 -0.46515244
 -0.18411699 -0.6332959   0.6953507   0.45077443]
[ 0.47003728  0.54019254 -0.2508153   0.5628279  -0.03831009  0.392703
  0.35697907  0.6098839  -0.34840274 -0.28484485  0.12650266 -0.07665961
 -0.17275487  0.02699487  0.15859316 -0.20660704 -0.40826377  0.11294885
  0.33786237  0.26140314  0.04007194  0.66272     0.3357067  -0.0161854
  0.2237277  -0.09428962 -0.7858561  -0.24868852 -0.22609994  0.11747836
  0.9952819  -0.16059048  0.11564603 -0.16556735  0.55649805  0.00621134
 -0.09935275 -0.29828578  0.49222606 -0.5790897 ]
[-0.08037464  0.0196881   0.1040246  -0.19794293 -0.4640621   0.01296469
  0.22651143  0.02866187  0.53196436  0.1778725   0.39058557 -0.0549695
  0.07483248  0.29366204  0.16015373 -0.08192128  0.13425976  0.33992055
 -0.33567804 -0.1929871  -0.43065393  0.07329166 -0.5994287  -0.4480665
 -0.26956773  0.08316214 -0.36205024 -0.29183802  0.43625295  0.10037903
  0.05141085  0.28869772 -0.4371697   0.00449682  0.16333213  0.25952175
  0.89935356  0.65026575  0.3905329   0.36055046]
layer 3 Activation
tanh
layer 4 Dense
40 20
[ 0.22538716  0.02345638 -0.32931903  0.46781084  0.2010559   0.0350332
 -0.23451112 -0.49092484 -0.06377535  0.12295435  0.01592788 -0.1468956
  0.00549936 -0.20709968  0.53152806 -0.6077162  -0.57266325 -0.2766569
 -0.15125224 -0.35801542]
[-0.12334623 -0.18003224  0.12731378  0.20310116  0.33306205  0.16423276
  0.39080113  0.21188791 -0.08464262  0.40270448 -0.15916696 -0.02365258
 -0.02746177 -0.3208695   0.26555514 -0.16795596  0.30237928 -0.928292
  0.00201972 -0.4658318 ]
[ 0.47425032  0.36689344  0.2705064  -0.25201416  0.00201739 -0.31361014
  0.175975   -0.29231003 -0.3258519  -0.24816386 -0.05372236 -0.38744447
  0.08281135  0.29720154  0.08553319  0.37025258  0.12588367  0.14928918
  0.01160387  0.24270315]
[ 0.23067814 -0.43051383 -0.1200555   0.29394612  0.25588942  0.31157586
 -0.16425937 -0.74006754 -0.12331078  0.46250802 -0.39158908  0.01578587
 -0.57382756 -0.18231544  0.1250671  -0.43698794  0.064753   -1.0028901
  0.02691215 -0.781563  ]
[-0.36393356 -0.20086671 -0.23116435  0.0862115  -0.04541866  0.3188345
 -0.4349746   0.3328926  -0.04380198  0.09818837 -0.2998668   0.05140536
  0.00766084 -0.16780582  0.12402432 -0.15291433 -0.34832144 -0.09041215
 -0.15317756  0.27895868]
[ 0.05297075  0.18154313 -0.3405999  -0.11356285  0.01787612 -0.31852734
  0.06911156  0.13839307  0.24909376 -0.13028947  0.19933777 -0.07157939
  0.3411538  -0.47231817  0.2136796   0.09097157 -0.02343819  0.47831175
 -0.11893225  0.16503476]
[ 0.1651214   0.10235064 -0.05812234  0.0614637   0.12346924  0.37716597
  0.10676739  0.06195734  0.18211454  0.10320788  0.17128205  0.24609706
  0.00333146 -0.3096326   0.46928838 -0.41111305  0.349879    0.07606871
  0.30365613 -0.22691625]
[ 0.21994188  0.27255186  0.00434346  0.23998016 -0.13142854  0.26310608
 -0.37000123  0.43519723  0.4187295   0.35775238 -0.09640531 -0.00724082
  0.19482945 -0.2550316   0.57677764 -0.4139937   0.21281591 -0.07485599
  0.01372282 -0.108436  ]
[ 0.28742146  0.23612791 -0.07735292 -0.45599633 -0.2196517  -0.02241124
  0.4747406  -0.47831488 -0.15578417 -0.34298664  0.4723266  -0.09511109
  0.29198003  0.21773225 -0.15530649  0.48358256  0.0293806   0.1837953
 -0.06264393 -0.323154  ]
[ 0.21525823 -0.1201149   0.32750335 -0.074458   -0.20717002 -0.32243472
  0.39388165 -0.6915915  -0.06510723 -0.21837094  0.18227418 -0.2982711
  0.17579268  0.5367355  -0.05601193  0.38580033  0.01067411 -0.1548761
 -0.07821442 -0.01805329]
[ 0.3103553   0.43587083  0.2679963  -0.18923187 -0.18040404 -0.48091057
  0.1837215  -0.34660617  0.35960594 -0.2159876  -0.02172642 -0.57210696
 -0.08746017 -0.18727288 -0.13653089  0.1917297  -0.14354615 -0.05359757
  0.05904528  0.08780478]
[ 0.03425794 -0.27487123 -0.31798765 -0.06859825  0.03452526 -0.0016261
  0.1329732   0.49082622  0.1950996  -0.20053035  0.02903294  0.18519193
  0.07789224  0.28122336  0.09606711 -0.0885851  -0.04428405  0.31613895
 -0.09560266  0.3777041 ]
[-0.12907365  0.00829749  0.23259395  0.19162683  0.04960762  0.152353
  0.19174916  0.12340625  0.16572087  0.2617387   0.13955557  0.0812342
  0.26053828  0.0907589   0.06795999 -0.41678864 -0.06964153 -0.02208802
  0.33562326 -0.06785827]
[ 0.25068772  0.2830564   0.4412139   0.01887785 -0.5130761  -0.45531088
  0.49852645 -0.44477877  0.39651233 -0.21804507  0.14830466 -0.20171973
  0.1556233   0.3388645  -0.03227627  0.1860645   0.2520421   0.19414249
  0.1966068  -0.24483426]
[ 0.06673557  0.08713504  0.10999156  0.2879896   0.16838816 -0.19519956
 -0.10935952  0.28318995  0.36055058 -0.11777059  0.05469834 -0.10112707
  0.2870573  -0.22995408  0.16301209 -0.07222476  0.3484864   0.3287189
  0.43017817  0.21905726]
[-0.04706966 -0.11169241  0.40522322 -0.02296567 -0.32327402 -0.19134177
  0.14873607  0.44258595 -0.4354211  -0.12894103 -0.08829983 -0.3778226
  0.20673406  0.31234485 -0.13226916  0.6180321  -0.07707775 -0.24558195
 -0.30982193  0.5654944 ]
[ 0.07530741  0.30956215  0.4409308  -0.23281057 -0.12079579 -0.16242775
  0.5073041  -0.0914984  -0.04780008  0.050816    0.00397481 -0.25095838
 -0.19905418  0.34530705 -0.20772567  0.2703832   0.34434736  0.34587798
 -0.08571552  0.35431138]
[ 0.01092042  0.32911012  0.21370795 -0.2384012  -0.38933566 -0.21794033
  0.09030501 -0.13581946 -0.08726232 -0.36478123  0.37105283 -0.42249236
  0.24806985  0.11903864  0.08088632  0.19110356  0.20679942  0.16495955
 -0.01770508 -0.15612055]
[-0.12465753  0.15084285  0.01876097  0.23596796 -0.10929593 -0.19033188
  0.00894719  0.11923196 -0.15754457 -0.11792292 -0.2801349   0.16140518
 -0.3143425  -0.29121828  0.24796486 -0.3134709  -0.2424763  -0.23917386
 -0.00322792  0.12948334]
[-0.12491849 -0.20355716 -0.45243043  0.30681807  0.36033952  0.42706937
 -0.43954456  0.14827536  0.29689246  0.2938754   0.08476473  0.13876352
  0.11840307 -0.2656177   0.08637583 -0.55423504 -0.1020628  -0.03397344
  0.15707985 -0.12743099]
[-0.3628177  -0.4087649   0.00958729 -0.2360353  -0.00336003  0.11126066
 -0.14497136  0.87962663 -0.09651203  0.26785216 -0.42789894  0.28062913
 -0.25229302  0.3150701   0.06766881  0.06129721 -0.0866138   0.08598077
 -0.17820816  0.05472902]
[ 0.40341774  0.93370146 -1.2218224  -0.1760144  -0.10752233 -0.14885153
  0.06379331  0.31222874  0.48424065 -0.42219833  0.6205869   0.15279408
  0.56079954 -0.53845197 -0.08814482 -0.20479205 -0.19888727  0.5090538
  0.22995228  0.5005957 ]
[-0.36163375 -0.11513151 -0.3893901   0.01064507  0.0682999   0.26316065
 -0.64807135  0.30666313 -0.16432734  0.07770148 -0.6018687   0.51524794
 -0.38725886 -0.15415668  0.14007601 -0.10987231 -0.28776053 -0.455179
 -0.04792895  0.2772001 ]
[-0.37798694 -0.3634973  -0.09644338 -0.17871189  0.40594304  0.19281591
 -0.18056524  0.71933085 -0.5535957   0.05692543 -0.48129994  0.40815467
 -0.28208715  0.01292976 -0.05870275 -0.08703483 -0.3381842   0.04297258
 -0.26667675  0.27083188]
[-0.46849737 -0.45046058  0.16004798  0.05772037  0.21168897  0.16553497
 -0.16231345 -0.46489224 -0.4670971   0.25208318 -0.23068064  0.26574776
 -0.50832963  0.08617465  0.10537445 -0.3764183  -0.03733439 -0.50664175
 -0.18291914 -0.07366715]
[ 0.31944403  0.21755292  0.3132518  -0.00450024 -0.21512774 -0.17457864
  0.07367451 -0.10088471 -0.12422066 -0.2930134   0.18201625 -0.29961896
 -0.03933955  0.61541533 -0.11098906  0.30973122  0.3210141  -0.09378094
  0.1037822   0.08944175]
[-0.13840154  0.0100544   0.2818884  -0.01538037  0.17445153  0.22072716
 -0.3015385   0.17684177 -0.03147593 -0.14902204 -0.10206458  0.13822557
 -0.1066717   0.14591475 -0.22278889  0.22577329  0.19616793  0.19562626
  0.10541377  0.3462755 ]
[ 0.06058747 -0.07813212  0.29931098 -0.03414733 -0.038287    0.36750525
 -0.1347012  -0.11898255 -0.2087588   0.13178222 -0.82392156 -0.44676575
 -0.07607915  0.1460095   0.05175094 -0.05475218 -0.3092546  -0.02654725
 -0.03707128 -0.352948  ]
[ 0.5904486   0.27843758  0.3372506  -0.2655717  -0.04799283 -0.17943762
  0.42234263 -0.31289262  0.04883749  0.12317467  0.15867637 -0.6194019
  0.10514466  0.11338062 -0.16418424  0.11617511  0.2715841   0.06223848
 -0.03475295 -0.28179598]
[-0.01418209  0.00138677  0.02833859  0.14579245 -0.00358141 -0.28298676
  0.18669817 -0.03734749  0.04615511 -0.3571892   0.16236575 -0.0075613
  0.11642284  0.12391635  0.12681842 -0.14383078  0.33144036 -0.00505987
 -0.01588427 -0.08122201]
[ 0.2676809  -0.2912757   0.21644425  0.1002508   0.07716096  0.02299901
  0.30375034  0.24704316 -0.25979143  0.5392402   0.01298473  0.11834951
  0.08214866 -0.48352274  0.5786243  -0.21710287 -0.04583587 -0.23574176
  0.08537174 -0.2512501 ]
[ 0.06273474  0.18396288  0.268755   -0.38381794 -0.3702103  -0.15336965
  0.38573763 -0.27371544 -0.05100206 -0.27195176  0.22257094 -0.4065661
  0.04208618  0.4495949  -0.1497033   0.37863863  0.34013608  0.06437918
 -0.04959027  0.15927462]
[-0.04852286 -0.35150552  0.12124279 -0.01851554  0.652885    0.06802963
 -0.17622586 -0.11836059 -0.22012495  0.87993807 -0.46154252  0.15227406
 -0.9078203   0.27702028  0.07327304 -0.08519316 -0.47046557 -1.0125712
 -0.148716   -0.56330603]
[ 0.03299823 -0.49005     0.7866766  -0.39227176  0.2479878  -0.11789396
  0.32371718 -0.11675169  0.10258903  0.3543998   0.13759625 -0.23815015
  0.01220606  0.31704065 -0.16210558  0.29577935 -0.18876775 -0.5886938
 -0.09377743 -0.12278265]
[ 0.11553116  0.36074564 -0.09283443 -0.03744346  0.10831013 -0.17327039
  0.22815701 -0.38277066  0.16620868  0.03673655 -0.02861594 -0.35573295
  0.3682334  -0.3833787   0.15163912  0.30845934  0.14419113  0.05969847
 -0.03680141 -0.23765758]
[-0.01456009  0.07257556 -0.10318308  0.02796938 -0.18719073 -0.33637488
  0.34345943 -0.17577665 -0.09335745 -0.10708643  0.0654131  -0.15708262
  0.29835594 -0.21160203  0.01718877  0.3061958   0.40557966  0.05580732
 -0.09884976  0.34842116]
[ 0.3503737   0.65483785  0.51864064 -0.1140189  -0.3065468   0.05841209
  0.39065948 -0.403989    0.1840306   0.01072108  0.47828847 -0.36077875
 -0.01988472 -0.04057042  0.16609757  0.19065394  0.34245625  0.21863757
  0.08702189 -0.49315774]
[ 0.32880136  0.2173226   0.14285658 -0.18495136  0.01473707 -0.12200475
  0.45111167 -0.17425592  0.29403418  0.01337255  0.845758   -0.8551226
  0.7769928  -0.02864451 -0.22619624 -0.29817337  0.2500575   0.660624
  0.04884795  0.02708841]
[ 0.0592786   0.08737972 -0.03166965  0.16478352 -0.128836   -0.6293328
  0.26655394 -0.6167828  -0.01862006 -0.11978793 -0.06739848 -0.40841496
  0.04189524  0.01704256  0.31978303 -0.12671913  0.43392104 -0.1146007
 -0.20779549 -0.5137049 ]
[-0.14261082  0.55269825  0.02961713  0.07182239 -0.17873919 -0.2624217
 -0.1725699   0.37367162  0.12441855 -0.2212769   0.44082287 -0.09084036
  0.3228428  -0.10700231 -0.24528024 -0.30729124  0.44624504  0.69145846
  0.18675876  0.30725655]
[ 0.26495928  0.35297373  0.3753059  -0.08859149 -0.08942206  0.0239018
  0.39769593 -0.33275938  0.22329444  0.18421365  0.25529602 -0.19633198
  0.07267062  0.14206381  0.00605629  0.00598315  0.2592813   0.13195443
  0.09620471 -0.32104015]
layer 5 Activation
tanh
layer 6 Dense
20 1
[0.21502113]
[-0.18221888]
[0.04536332]
[0.0385143]
[-0.00173902]
[0.02502763]
[0.07706711]
[-0.08632403]
[-0.0509903]
[0.05446947]
[-0.10255363]
[-0.09694126]
[-0.14560477]
[0.0825183]
[-0.02973493]
[0.0368025]
[-0.03480803]
[-0.23501205]
[-0.00459712]
[-0.1653452]
[0.3189635]
