layers 7
layer 0 Dense
24 20
[1.634018633788299 0.20647409783316528 -1.7901553494288787 0.4942028196327134 0.35492874167439836 -0.19641782828971893 0.4047066737375584 -0.6687553192450936 0.30748171205424296 -1.3360918720870631 0.5356112990829738 -0.17732927298759843 -0.8784011624394916 0.7918058236377334 -0.24327207365311523 0.41954030200786413 0.07572827410644656 -0.9329048890774886 0.405824156659534 -0.39576741603718857 ]
[-0.3027004698808686 0.38681452495477375 -1.0420353913267524 0.6045841337070506 0.6783224650292944 0.27967803918619794 -0.4504332048429188 -0.09189286954400427 0.5762217701403928 0.2743472093077914 0.3779432126180683 0.19780553974266665 -0.14854655854949847 -1.0459394346197586 0.771242810600109 -0.3116836143167484 1.0016989991847676 0.37193523489839553 -0.31769799845586333 1.0250980725682801 ]
[-0.7223972840246464 0.028033868293554358 -0.9585466994155921 0.6093262990161937 0.5549609982584712 0.11132304272592637 -0.25321730955934213 -0.3181936740420758 1.0878314419509465 0.357195285980777 0.28668718724763714 -0.2311128310617652 -0.2087799025743632 -1.1000626700232474 0.9141787306520133 0.07803837953401892 0.634336752346698 0.5297896513177008 -0.15482997332948523 1.0489198367279478 ]
[0.6562369807546667 0.5932719309370227 -1.3176802815431665 0.18680307785632644 0.6288721688164575 -0.8243173768055748 -0.01874681808448634 -0.46983439849428027 0.005163029044404311 -0.14681785910710032 0.7665118773469896 -0.3717068182955486 -0.9835559161988674 0.4789960401182519 -0.08523100217638319 0.028793202008751777 -0.3257826097158212 -0.45696373766088166 0.32263431086446936 -0.034438613476923625 ]
[0.7433880430536345 0.04924468734252379 -0.29257635386959807 -0.6767006780005117 0.5131886235836466 0.20056754733725024 -0.693305803389097 -0.8532034726274943 -0.7543021588732994 0.46336467180794705 1.4062917990140742 0.2052007810112296 -0.7739494628867578 0.5130438607879514 0.47671791384849865 -1.2655257817584256 0.49772346335039425 -1.2449807739703664 0.16144817686537788 -0.0475639273313343 ]
[0.8842190250824543 0.8210091083561407 -0.183080366051301 -0.2364253389688242 -0.2118172818475436 -0.3330000364638868 0.6678501908851578 0.5804730099501024 -0.6603839486817435 0.031505040206857474 0.09236438836434542 -0.08984351786697925 -0.2336952480732379 0.9801552543045665 -0.7023193868562753 0.26124392611772707 -0.33004249216404313 -1.0633301462927902 0.05497159711147208 -0.6433454607484584 ]
[0.5833013885468069 0.8116302650385603 -0.09606503513815057 -0.3250360459844066 -0.15849862075613144 -0.1177440473350084 0.12653100737726372 0.3402309159455232 -0.8730076914717425 0.355425292852756 0.23480082909898986 -0.3960984995450188 0.006181288461444159 0.7133903073188074 -0.8729165731740184 0.29055938796887015 -0.7953873815292398 -1.0198932011563782 0.6185675452547604 -1.048442321970636 ]
[-0.18502458073968978 -0.5558544795392923 0.6229676091495904 0.2872734129629624 0.006446560845894344 0.8142569828248517 0.06019523027757743 0.8481977763859293 -0.09671047230782305 -0.5880068821338013 -1.08565419907389 -0.1659042013433357 1.5479812680703502 -0.5013156515981265 -0.36932581509127965 0.29993458921700916 0.4640259835732101 0.8791522931122673 -0.5428993318326684 0.46823877087135674 ]
[0.2919568502285817 -0.9025382268569666 0.9470097568341542 -0.19280219185169675 0.5289974472854916 -0.05374856808194056 -1.4605946389007542 0.25597397011290485 -0.04184582990119146 0.7111534422799375 -0.4711980388416713 -0.26503874603829614 -0.17301816314816634 -0.8883827842634762 -1.3514194243103363 -0.14048503670406579 0.5207329786374599 0.7837898332260613 -0.48037815669084477 -0.08737389559945408 ]
[-0.519771901769509 -2.0206579735764922 -0.06827325862278574 -0.8143044429927542 -1.1989698077245026 -0.5052032876779264 0.7738005331141762 -0.5283798651145696 -0.6677201518796237 0.9409125681772028 -0.0313483536750803 1.2338754053838235 0.30925685864964636 0.32148759935954313 0.3727574673983252 -1.0881011650662948 0.6152539897684771 0.17239607071167934 1.0579333302096687 1.3202266263218299 ]
[-0.048152661235065855 -2.760064611435672 0.08279562784363555 0.6564749128226792 0.3627336971718226 0.9789217298642897 -0.17786931966632996 0.34726949263952234 0.7679508184728736 0.13745616017451667 -0.008256234866521307 0.33711601448013984 0.34489754075085843 0.4388132932517288 0.509051650552268 0.2873704308276677 0.8114738058534466 0.07828648943837821 0.49239434790908165 0.1931825426611517 ]
[0.4146637484071242 0.736795273095141 2.925339220853619 -1.1338498303009674 1.6446741350562522 -0.35001805584802975 -0.30461924746675434 -0.4246741416611535 -1.1156744357578507 -0.5907911758391414 -0.6254912224191316 -0.2973160031750643 -0.43020418033494184 1.0853653680188229 -0.9889180673047412 -0.16499191844114786 1.4258285076223491 -0.29868576858191465 -0.8155822103843996 -0.14957364822944696 ]
[-0.22420075106710055 -0.3928176612600901 0.6422342830522481 0.16058361996549703 -0.6013199220249621 1.645034204645351 0.21823516335496523 0.38226090056894535 -0.19963281521923132 -0.24828565888070978 -0.6168423238526883 0.6652839060355913 1.2418612134404696 0.5999739920677547 0.5867407675797565 -0.4474811735367255 1.1165563185651566 0.7718125878240909 -0.9015921154237765 0.42283300833530224 ]
[-0.3881751225578997 1.7818784379328778 -0.14014133055639705 -0.05452310359466573 0.8395494464582319 -1.1223095325518924 0.6169096118588976 -0.58364484855558 -0.6291069071881202 0.10269455312562391 -0.05009221677257424 -0.07105862275067867 -0.1835914062837603 -0.6878463177059093 -0.15801001919035115 0.6757643062050751 1.2544323277428016 0.12257837414471089 -0.05978200399336457 0.0865699621233053 ]
[0.33146985731544887 1.6375096080139993 -0.2531294000487272 0.21223563275292723 -1.117712338043655 0.09267100722334119 -0.4283543519099165 0.15331915859307457 0.6120735573740834 0.7453692880562963 -0.11799582264399182 -0.3474679804736529 -0.21821861601021286 0.8641130628262476 0.7610344799774889 1.1660536912114179 1.1499127400049238 0.30913226267256416 0.64235388927601 -0.8410339248041062 ]
[0.2327750965429939 -0.37198612646030454 3.0494591047744652 -0.26402696039244095 1.0085476603758106 1.7013829955486204 0.7164316418951013 0.4656355005977646 0.0061052077451986 -0.3505260596636753 -0.8003506386442676 0.8388810497766985 0.829726501186513 0.23099084322667346 0.06996648678929943 0.6712132212685145 0.19125711935934986 1.1540556879476611 0.7037907427930612 -0.6571208869692916 ]
[2.333063059674468 -0.12277691070070657 0.014649889893564852 1.455451499782023 0.5451583025219964 -0.5669820248571343 0.5696249177417835 1.5926266536370135 0.1964690471383643 0.9648261722058714 2.17946610850342 -0.8191816622732555 -1.913007423660546 1.8630242661386738 -1.2719857243641086 -0.7151132807291274 -0.08053395531170204 1.3163383199368013 0.5672059294774414 1.1593185725257873 ]
[2.098820697483348 -2.777661508879289 0.019219123599042577 0.587731919614598 -1.195533045363312 -0.19747499710919725 -2.698393269624112 -0.9356723700714547 3.2387961337162534 1.1132752317363666 -0.23271980238306297 0.7710050304616202 -0.04465766413373329 -1.0865862649916098 3.4830752670950327 -0.024464020697504994 -1.8374101896953035 0.3841587133522293 -4.331267462510562 1.2002758477293585 ]
[-2.149801054943594 -1.0187957692412761 0.17273971692235277 -2.5511063235921516 -3.697179210672795 -1.5307144068819951 3.5105116988459977 0.5879805338687805 -0.7265261472272712 -2.665847775498466 0.3613104526698341 -2.9675295085843323 0.059944791195441716 2.196974169546982 -1.350738707865077 -0.7673065964706748 -0.6983886198536186 0.19339297775435096 -2.893716132196792 -0.11724357219090727 ]
[-0.07196459202415524 -0.04562091489626742 -1.3957406753868962 -0.899930159503464 -0.21534139073756828 -0.5680282533978547 0.3506203740015053 -0.3187808352179277 0.13024022727877696 -0.4012590315670774 -0.8676873253700913 -0.4651583119865016 0.27997594622543887 -0.13633712527728423 -1.2542630778291495 -0.13739450233967912 0.12031730162256939 -0.2504602463487507 -0.5403242147538987 -0.3256436061641991 ]
[-1.7836685571678548 0.805466232732616 -0.679484548347318 -1.5343217758561887 0.17988619101716982 0.6884715820514714 0.07576801786342496 -2.423450529300539 -1.0303726117131757 -2.640620454414273 -1.9630942963027425 1.2888590680286833 1.6363080785126005 -0.30798171138734 0.2660092345580763 -0.8592208046090949 0.28473567326362903 -2.0346908250829783 -0.6923352907763445 -1.57314691532952 ]
[-0.26386492909833165 0.8361991549861768 -0.44942346414052364 0.5985695088242414 0.34025829279031045 3.579762981140374 -0.8598340086270992 3.7311806242573184 -1.4379714344080003 -1.5973135966242094 -0.0019441280087758896 -2.475698930042026 -0.07508498353288659 1.7889038632727614 -1.784020832565836 1.2208340654622105 -1.3717925726475928 -4.819313515764153 2.5160535484497926 -4.52212834888997 ]
[0.35437107906903265 0.7772484174802847 -0.32066264537345157 0.7812672357061612 2.5574571832802278 -0.7155228538879372 -1.1572269860027493 -1.025748876514992 -3.181046133369388 0.7167898055547186 0.06073234057552179 1.983406354157913 0.05598741657900232 -2.5701140246109966 -1.7671743561114361 -2.5763817633093704 -4.657517270128124 1.3813172563616682 1.5941506342540113 1.5050529018853263 ]
[0.16037591097326623 0.6571325360116967 -2.240554855617928 2.9183043079328965 -2.100356752437156 -0.26313201133403613 -0.22307928854140135 0.9610448801398935 1.341264289782381 -2.395933772318214 0.7874570022498636 0.671457714605537 0.4785680031307758 0.7044747320646564 0.6698364543212412 0.5795473538457706 -0.7214756610784635 0.031777887127242395 0.001198911579528969 0.7140295286209393 ]
[ 0.1871744426247824 0.2851435376818421 -0.5438822373892791 0.16663360821606202 0.0824751188688754 -0.4023371792139165 0.08104742783956932 -0.12977304279107305 0.2680107019277822 0.29839715309463294 0.22004530943897613 -0.22651388103878353 -0.4971219456431244 0.09988935752366966 0.3758534766297723 0.21355285334178672 -0.16316838301026648 -0.3815733779174875 0.21120881616287326 -0.009976574250526631 ]
layer 1 Activation
tanh
layer 2 Dense
20 40
[0.48045609030450415 1.397101629374456 -1.3260739737284302 -0.17547062693766627 0.8177862722432538 -0.620988219920766 -1.0457179224649604 -0.16566455351805778 -0.4569569155122607 -1.2117431796370233 1.3366923371249684 0.5355522221099626 -1.2382686410937709 1.6672303441384602 0.7531991353528721 -0.08744831470443788 1.592733666074057 -1.085268708507307 -0.28187134112077755 -1.2623284713739256 1.115084427521535 1.1690952189093358 0.8402525210538974 -1.7668777141084986 0.8875404982029415 -0.27971323326162806 -2.1854986641263485 0.12695971705394804 -0.056490563072543916 -1.3761811905485848 0.2187944688975085 -2.841505311230032 -0.5995279543199225 -0.6790485034190147 0.11893646235596717 0.43854489383011525 1.162681308070406 0.9806080152425312 -1.0175682286022651 -1.890308119716827 ]
[0.8866610346210946 0.05416956093220948 2.1527090857537483 -0.1313717487488479 -0.5686991864165232 -0.8775150224919668 -0.3764677191013096 1.1490868243794286 1.0934173404698875 0.669233303877639 0.5425086961147612 0.046161441178139175 1.2776401056318971 -1.5407107545025747 -1.130706842008385 0.5666794119075463 -1.0288274961877757 0.5381415368230015 -0.6123938558310309 -0.43698784550468417 1.4533495404466918 -0.09426236119822853 -0.46280739602112414 1.2045040516616918 0.6198745268566327 -0.22021384533409752 -1.366560038067912 -0.512502668202741 0.8761384594234699 -0.36831210122192465 -0.3837044492869398 -0.28920276364096953 0.06581229983165886 -0.21255951353909378 0.24460789464302599 0.2821950789680459 -0.06591000502020726 -0.31206142078892085 0.12930058587165064 -0.0030702218024278236 ]
[1.1212572676958503 -1.1421588689813544 0.8614944782748574 -1.5164913384592826 0.9176420470445773 -2.2870538359689867 -0.16969495749547145 1.2739248185917549 0.14888200920795144 -1.1050933539884955 0.5587207273542643 -1.461153779459126 0.8531973631029619 -1.464831916262915 -1.699553547731043 -1.5347009137325625 -0.2879222508948844 0.40450949112345114 -1.8027662374730513 0.12147630715265345 0.34713287442114377 1.5192155463424366 1.371942349581154 1.8424015452182805 1.4799422959620365 1.0360222542852124 -1.4298674342746254 1.3163946719448931 -0.9595953102901853 1.7354609311207636 0.8879373137636289 -1.2786660360524547 1.0823792112728214 1.0249121044755929 -1.338669724974052 -0.9559160900086935 -0.811254752092009 1.062882168391086 0.8203399277620146 -0.1053960899742514 ]
[-0.11247847104937413 0.8412634219401021 -0.09715782336761203 -0.6462031745523665 -0.26203156929135435 0.022329592233570568 -0.5961494908735391 0.92648041420683 0.011603566177913539 -0.6606923845543657 -0.015174313199028564 -0.15118570475085555 -0.6390345344811307 0.7285524273286053 -0.09534601798743546 0.6223775365268361 -1.2358708851105904 1.4180247906202932 0.1932395454613336 0.6345142243031311 -0.49161477624977884 -1.0485185260708205 -0.046247087655531295 -0.6705348308910992 -0.33367820895183636 -0.34357866319234653 -1.4855843819411667 -0.4185069356327955 -0.07972621395734569 -0.8370280066097705 -0.08642674395517333 -1.3572166215040613 0.3018367720163519 -1.4311896433973823 -0.1662780405134317 0.8260916042960713 -0.34621724950531796 -0.39398011975879704 -0.823460989121511 -0.9570610029240099 ]
[0.9113061451168416 0.23381526866136854 -0.8578431736513441 -0.3985038243375008 -0.19747914642892592 -0.25212131029760015 -1.0929036026632957 -0.5306575220269971 0.849675183124523 -1.5665871537468326 0.40508611541094375 0.19559303976962644 -0.7819730364546439 0.4074389261370397 1.2935276684219772 -0.04782244815981341 1.544525134619149 -0.17913056332765379 1.277734094354915 0.3205761339375432 1.0871807545929109 0.7986629415179298 -0.27411054476293717 -0.4598117664184743 0.7875178743709034 -0.8483382620989315 -0.20734647504296685 -0.7853304594280045 -0.42088035850708744 -0.3158974452082486 -0.38748811983226344 0.2843585003197188 -0.1309774048457116 -0.41025954137861603 0.024594653468965146 -0.5546159418807802 0.6235722629826537 0.8955447430649186 -0.38664236213608155 -0.6254540302027405 ]
[0.06707176815216903 0.42545562823146904 -0.15976271391020697 0.7080186673421034 0.2344163089298378 0.13599538032363706 0.09020045703022395 -0.3352291735661713 -1.2200543954415821 0.03661417058877153 1.135179957299928 0.4020358428714562 1.0743445823987714 -0.540057250876298 -0.5165181693819908 0.6796145185888521 -0.10681196479436927 0.9399194679277744 -0.7928409014845855 0.27963666579189134 -0.4488745890173179 -0.9209101222096201 -0.7192159100060156 0.7776890351774626 -0.8176114570519842 0.0871382757699266 -0.10636904090974526 1.786739486905647 -0.2806553740889812 1.598066576959498 0.8734287101955411 -1.3778649234446867 -0.10482734780921191 -1.4277513009171992 0.14703770422291584 0.8211643543344462 -0.39767158143470077 -0.5538273322237824 0.38202796845587234 -0.10767531762802339 ]
[0.2949191243057935 -0.4971448491568801 1.0888779433481173 -0.3620192020587463 -1.0205160619617553 -0.8400186491993883 0.10661445975376685 0.33130929629828937 -0.2965296622401891 -0.017998551490836456 -0.5941946069761304 0.5351649554091834 -0.520426707833826 1.1297366390264414 0.18631900697157713 -0.870636725611594 0.29991168005109886 0.10864285825644807 -0.78089281404509 -0.009274671606213696 -0.501848552270356 1.4512161648326796 -0.2447054506153782 0.18097453774165614 0.6733634422251896 -0.045540813523297446 0.692203060407068 1.148380748545631 -0.9883028493142637 0.13862246814625026 -0.6147963068331218 1.105199402925065 -0.7178035824484436 0.9153829168828974 0.7218714331933488 -0.6628802332163943 -0.4399922222847274 0.33974016579553845 0.060821802686695084 1.8897459502319216 ]
[-0.3800689679057476 0.589147177446612 0.8082041082711562 -0.9792103979850252 1.1919974870919139 -1.0842704414868292 0.5000714177728945 -0.8815766771326249 -1.4032997518370485 0.9339347790383147 3.0834189832473284 -0.5275215087195114 -2.043344547609505 1.1219505132182248 0.5469821085207575 -0.4931362838264409 0.4041930734918316 3.7401217996851184 -1.0664482494068575 -0.718106102543901 -1.9284441304615403 -0.3599817061320309 0.9279547479347185 -0.8304558683968182 -0.5622328625113555 4.3519476526795575 0.21793458161954782 2.189180904205537 0.35294917228426503 -0.6713946537048856 0.7205308339965961 -0.26264192261142993 0.793544368207591 0.06871786965488459 -0.7061155450976644 2.0384348413659517 1.159544814255743 -1.2687898931277068 0.25391763564176467 -1.3067455975424527 ]
[-0.3516857434004923 0.1655503446772776 -1.396967575750311 -0.39897506219968687 -0.04247433644565798 -0.02381676690563433 0.9487063666238897 -0.02002965216752761 -0.6453631525584991 0.7794930368780969 0.19265826557408108 0.38996615564057346 -0.42931874835380046 1.0907222185930654 0.1734790728217288 -0.2398196089264846 -0.7018357693110426 0.7340893571390511 -1.307235160302947 0.08209239531381668 -0.5889664520339077 0.3880652146474208 0.39921503888601667 0.07714005276519624 -0.8961716422453273 0.7799770719653057 -1.2735906416757494 0.9553065906833622 -0.13041543331182331 0.2769870473492759 0.0540177995877825 -1.422148546343788 -0.2791969335722901 0.3906887658489407 0.5028698660418056 -0.5921108062175516 0.362817001378176 0.9574468401316604 -0.5423265740457935 -0.8861531869451978 ]
[-0.5922922455379487 0.08094595159663884 -1.3537186786047217 0.025327345683539212 -0.07183219183181665 -0.17529557947822103 -1.017223374042792 -0.3544006149143585 0.6460853997968998 -1.6828408631209382 0.018365113877521207 0.030959324035808373 -0.8775081436388132 0.22314537348194582 0.5330487713637451 0.2406091159764037 1.5821173584861918 -0.40741327038053127 0.31678090957819494 -0.1036121610220561 0.8848327155679591 0.4460235237973203 0.9827949240229336 -0.9664772842805327 0.6119131815839943 0.0029098830731176225 -0.04662326966191555 -0.7942138763730255 -0.04558035512326564 -0.6431574748679807 -0.18278192272993032 -0.4218795234863493 0.12597957541843763 -0.08944080448542034 -0.28879411602745814 0.26247742574250543 1.1875589788847822 0.8587915794097253 -1.1760547680983156 -0.0912625890702192 ]
[-0.4631398815356976 2.679674925718244 0.9499350465065027 -0.032224522692532245 -0.24659790313390612 1.2983475018292434 0.09315045768082714 -0.33939810794379766 0.7484156183557018 1.0020659463652941 0.27140936768329543 1.1459659888837699 -1.169576462114504 1.9025039445478833 2.280035742102339 1.2934378475843618 0.47085708124328574 -0.15646801559946166 0.2662991020588275 -0.9686289801148116 -0.08500694664220511 -0.7346414301112987 0.18208692263601378 -0.7479645636869652 0.011292521758870237 -0.15156948042370194 0.5257031252898923 0.1171538168589367 2.315741842473994 -0.7810460908009567 -0.4018411615201984 1.439864638235056 -0.8667318224655123 1.268649792178954 0.7626844719309896 0.40033894818648164 1.514909713845117 -0.7672799359781163 1.0252522434058018 -1.2047610771967172 ]
[0.14177695005245192 -0.15710388804597186 -0.6174503700732556 -0.22459190960950762 -0.06856219884728046 -0.129542245961948 -1.184219004887334 0.951321577824022 0.42930852822133236 -0.1956903873323772 -0.48754116361866046 0.07030733038972363 0.677402567362931 -0.04748552061579992 -0.7043916131393733 0.4327734806051652 -1.1138647882309096 -0.780355954106053 1.3526946606192127 -0.428720291299165 1.1616158989015999 -0.5122330777649045 0.2772898009783913 0.42617420987671095 1.2675671738730998 -1.3697607920990722 -0.4451599056347851 -0.12193246394683999 -0.8247052589983304 0.7535839928225606 -0.15072361750139066 -0.352045947181019 -0.008820808053989916 0.24987071972537675 0.22162021714786725 0.7541417164320846 -1.5265555182864035 1.729483426408182 -0.5159309672090924 -0.5661037477571669 ]
[0.7806104280138059 -1.2468154096239692 -0.09206347827532724 -0.000993523167442447 1.7153096607533962 -1.6815164059233123 0.22551952516106546 0.3340246457877483 0.3813780650467559 -0.031102141688883506 -0.07773233848428848 -2.026376454065353 0.018516416840514995 -1.0015332383803117 -1.2772490168503625 0.7102518866951216 -2.4091176077285326 1.2304778481065335 0.5623331710477097 -0.765324824559627 0.19216230344229068 0.10029698226430055 0.09415555130006653 1.6692584776231523 -0.12481131866136723 0.35702507345952034 0.17841652848449358 -0.2022818600560416 -2.2044743886462648 2.2523124925029285 2.788592894396982 -0.357483908355642 1.8865162223779601 0.4510094348498657 -2.180612699213369 1.1391858757448894 -2.715187176110665 0.2570820022950546 0.18416840746511678 -0.669597555710242 ]
[-0.42850128486496314 0.4161211582854861 1.0521244997222825 0.7337059400335756 -0.19551237171469002 -0.9826669399051835 0.7439044188700261 -0.0432793677283642 0.17689575845086192 1.0791683569042285 0.8707015906168092 -0.2316415710842054 -1.5220996170552814 1.0245338107672015 0.9029014908979968 -0.3400216473603984 0.6316542480244549 0.7597685963782449 -0.7850843684472384 -0.8972491423818952 -0.7763436811775336 0.5718322174094801 0.35977286630828204 -0.9765716393070314 -0.5259086083102587 1.260824843756551 0.31120095421306004 0.5274147573309362 -0.39645003426670117 -1.3193892332799257 -0.13096156444826854 -0.19694375664069366 0.13179634201109783 0.8777162691760108 -0.15704660910208518 -0.0640624278748421 0.9558877487866274 -1.7573874593648355 -0.15453123515395378 0.04070282604129903 ]
[0.36967632257867616 -1.2406018430594574 -0.9452568277437511 0.08083947516570089 -1.0560871371588234 -0.7142450866105109 0.25667675958940356 1.1160217637402219 0.11033414788896521 -0.39152242781328644 -0.48864217510227687 1.0308789137961842 1.527422712001527 0.5535414798496736 -0.3172064371650586 -0.7515767609636438 -0.46099399084763965 0.5975636876862768 -1.6951469770270096 -0.6351526749298118 0.49950699644850777 0.9511046160434574 -0.14272355690404206 -0.16096442207934333 0.7022692114234801 0.28770078832029927 -0.43138016184258465 1.3446279964541838 -0.6292911978810286 0.43111121122086676 -0.680778956474468 -1.4034711671938729 -1.0461797051572403 -0.3535945077855242 0.9485970181548112 -0.7132719462336571 -0.5777393616189166 0.9364145493347532 0.09500083689062049 0.9948630077779809 ]
[1.345931106887708 -1.2161106689347774 0.3002968536337749 -0.20399444626706756 -0.21250394957553367 -0.6633532377427096 0.9672730629943705 -1.3098026933467373 -0.8584020766071757 -0.03794855055147074 -0.4283376068117959 0.5054316664420082 -0.15844398928783976 0.5425655332540243 -0.8718078834671125 -0.2485168042287592 0.4712308621715458 0.44613955004215794 -0.14507689924081632 -0.21065937867369094 -1.8702959131328718 -0.34313237052091017 0.46198816337287113 0.053750981018610935 -0.4644208216794149 1.3355951701414317 -0.7962656730088421 -0.23812396688797108 -0.3188264016098593 -0.2883580398269326 -0.32317122454082975 0.3248436286857682 0.07348624162808379 -1.603133822842742 0.205029263290299 -0.45431895647647225 0.9673608090979554 -0.7773481566466419 -0.7199940349647074 0.6632754673658401 ]
[0.45156577966154815 0.7166838404881927 -1.3541197682615118 0.3004350773700397 1.7757499946063917 0.8400397359423126 1.4484851530338294 -0.6710354961260894 0.23747156948031348 1.4406594953892702 -1.4223703914972217 -0.5416755485993348 -0.046960772064379264 0.4996793856421665 -0.9061662949486594 1.043092218479675 -0.1618646593373295 -0.8521911829656033 0.3506545884081016 -1.163221981831955 -1.051662467084611 -1.0006530469445247 0.5010464059235066 0.8914736151272941 -0.8910879851215752 1.0631295373253193 0.9250481103414946 -0.18357983024248217 0.36994069611721336 -0.17992056817338134 1.8722430824912568 0.7272509645085327 0.5220098699354645 -1.2459648003814234 -0.9195683079541979 -0.7624802827468907 0.2568175091134265 -1.1771576653957478 -1.0406490905183499 0.41973491873627433 ]
[2.967941177378493 0.98948803718021 -0.4509763504335232 -2.7206757319104953 1.3761499275226636 -0.9432708983130742 -1.628122158791923 1.1319134927011614 0.2932395389802608 0.7116907246593333 -2.56813526329903 -0.7564003391606489 2.2129601962445706 1.0746204376231303 0.15007140177788136 0.24597915684983582 -0.71256937830591 0.5049084053761059 1.0006822861614348 0.5898687544963978 -0.14526612741132233 1.413210005575029 4.131010969385111 -0.2601351775422574 3.166992107510168 -0.5826322068254319 -1.103306933765288 -0.5049745222943299 0.051964394775393954 -0.37198615800648854 0.8762875509555986 0.36831650327569937 0.7985711229951636 1.3640119863218874 -1.018309176943674 -0.9482967960413321 0.7188391776483705 0.7051349782221074 -0.15085409537178665 -0.49862995715682645 ]
[0.33729182825177595 -0.12196158910567069 0.6332408093190097 -0.5010027546362562 -0.21369537530736388 -0.9557606063938946 -0.6819148074773912 0.729351978852089 -0.7803886480884173 0.9960833595778783 0.8360310752759612 1.1080577677432886 0.5728120939093978 0.10061450124980259 -0.21403166879999636 0.8597340357511268 0.19667377368445357 1.024083888826106 -1.4193771805375766 0.7353751789389343 0.9374378165627902 -0.5428810770234603 -0.5262252341179395 -0.6295497354112228 0.3280714703283826 0.33296471192452093 -0.9995354175776872 0.40555146573232714 -0.4772611291832218 0.16705927785481253 -0.4986353264916369 -0.9694848836501425 -0.7995764771244718 0.5034389273916348 1.0531960406166312 0.2981033058476313 -0.1568747722449799 0.19521017116824624 -1.448715551034845 0.7139699110015967 ]
[1.7189242819262571 0.581353170536768 -0.5114180291174912 -0.7240745145399458 0.6705589783572015 -0.2302164944216445 -0.5560789985038419 1.33009256085747 1.381564469047277 0.6706012153657323 -0.958044782929426 0.28738089968388236 0.6021979224000469 1.0774607836267416 0.27551675474003073 -0.777555619291718 -0.06518363798152794 -0.6889520294495757 1.0159402780661264 -0.13088568387322091 0.18240595316727745 1.5932226050956335 1.4728635137293846 -0.8184145829132413 1.917410224719767 -1.0369217193850884 -0.012331226325609311 -0.7457975486696033 0.1816184854698692 -0.5050067999529857 0.10313162694014603 0.20325011793744163 0.18632068543307131 1.6227435805320132 -0.1007524373470779 -0.9888981722003363 0.17584423356829137 1.4460811316000792 -0.11097098131438274 -1.1979427323933005 ]
[ -0.8341743989658751 0.7231175850406373 -0.4728846574241165 -0.1223035390744069 -1.5891620893164589 0.7008489584631986 -0.6181511961343072 -0.020237549035608805 -1.1757076573898528 -0.13069326316367888 0.23618670937795344 1.6640298242144735 -0.08193305213185588 1.144718966872613 1.1770295912129627 -0.9023451949344802 1.2810193291089007 -0.5362046230005536 -0.24528529554400333 0.5772751638595814 0.3495215084996311 0.05262015965436425 -1.189727424987859 -1.2185390889823677 -0.32493595080294047 -0.6709416033659804 0.2622821072338154 -0.2671386175115321 0.6274425441637836 -1.1799320627108811 -1.8609985645727762 0.23787979730066977 -1.8390483501243606 -0.306039370139235 1.9364272601879182 -0.6801315752814068 1.0633585175550624 -0.024182084300819418 -0.1768956158543022 0.6533801285268835 ]
layer 3 Activation
tanh
layer 4 Dense
40 20
[0.2466308060635152 0.20345400586849438 -0.27916295969958344 -0.41100928938970666 0.45919485819062233 0.6316935498070521 0.13740817457865728 -0.3678689330187162 -0.28753950506968945 0.3555000249134731 0.5612598322301983 0.3635093229297383 0.18631703383670853 -0.309290744385709 -0.5171942923454533 -0.451129696838367 -0.5976557704880444 0.30926937602183263 -0.5084401180347238 -0.21931352951232957 ]
[-0.12595160097774258 0.2631326390466066 0.1259346497126517 0.1846109756492081 -0.7993353619203556 0.054709517225965267 1.1298293791129104 0.2017856732464 -0.2671746188197992 -0.13814651734182298 -0.06151134585286557 -0.034789496234826675 -0.15966196381084954 -1.2029024429390744 0.22252834172493044 -0.7715619592569726 0.3359389830013125 -0.42508245306069553 -0.08357490322459361 0.7249266936071471 ]
[0.21051127508049294 -0.2777754360390512 -1.105098313785912 -0.180078002004679 -0.03280873139881155 1.1154135020101361 -0.1489956026286203 -0.09854570327207098 -0.3821164741466193 0.35078944402664614 -0.05193968344389096 -0.43690304971375765 0.4431289641908314 -0.4538434560190845 -1.888121951429764 -0.37602755839055374 -1.2705516579822556 0.05688298076105527 -0.1425402364849742 -0.6053699279359541 ]
[-1.3681602310906342 -0.9390603005841566 0.4133864434472163 0.30685970293823916 -0.035850399780216695 -0.02761033551164285 0.723908682730042 0.9776408380768097 0.46128584906328196 0.35879154636814903 -0.708582568393729 -0.13339350117357193 0.24220594835014803 -0.24980118300519025 0.11602224129181521 -0.5942788802511026 0.09827009541936087 -0.352008289295669 0.9645494512987904 -0.13343224015924096 ]
[0.15066081027090578 -0.4159285495102736 -0.9938675197603787 -0.839115885415163 0.41480267351250105 0.7962429340253705 0.14798900152180916 -0.22882750118773693 -0.47426652949413184 0.06683907910960737 0.40737027805287607 0.18051518906181752 0.0727846863052098 0.4439625032565404 -1.1813790401878639 1.0964938831484854 -0.3758864093455328 0.860437742470975 -0.428422325838021 0.4468868865099168 ]
[-0.3355896173306918 -0.4790922459119915 1.301928473012192 0.6786638992121186 -0.860373162513316 -0.9092051822970736 0.31656168815217206 -0.27176209829095394 1.4089268674610185 0.7768231276944483 -0.4877102217821798 1.3957345848521217 -2.0193909637914853 -0.2114395714691233 1.0005968993428196 -0.39601263598202685 0.45827241772022703 -1.9249967000700152 -0.04938758014178769 1.5417020806958195 ]
[0.414337918501424 -0.030158658756480654 0.5320043705480871 -0.04107834109420533 1.368265940722727 -0.2905159562344213 0.40526675590167655 -0.15242096940164324 0.2046102719388325 0.24526676714809995 0.04138572671500392 -0.004347596281743545 0.43646777638427786 0.21247520473330003 -0.07163244666757633 1.282764785894246 -0.242459000376159 0.28550472151890566 -0.08890402288788131 0.20232770208758152 ]
[0.18363905505133823 -0.05849021899007477 -1.336020176608857 -0.3126402463963424 0.38700813602168016 0.4861129195459991 -0.3264114340699068 -0.22023545915024487 -0.7582529160761896 -0.4772220812027192 0.42575599928034075 0.005223311008358534 -0.34382765211582195 -0.3019329200911115 0.05518309951264171 0.3060704014339216 -0.16084429542562187 0.777415769581932 -0.5867829545372476 -0.43778523837820815 ]
[0.07252788215408652 0.5849948159608511 0.12357141616376323 0.2889052105861962 -0.24733023647886826 0.48792506662218954 0.4522217222883612 0.1222759019252016 0.013479347603538066 -0.8092925310270733 0.0388392922384208 0.6217883236130256 -0.9846735495932318 0.263245982229827 -0.03280141620377978 0.9355195972627102 0.2647195018071143 0.10962300864324144 -0.21425531691265212 0.37141838607824923 ]
[0.3723216012575461 -0.3772290013817679 -0.21643606909746785 0.2665268902909303 -0.05530807408505637 0.36460576712489917 0.04675698700214442 -0.24259451096343707 0.007056156625148621 0.3969606997324593 0.24200019841378234 -0.57493371344001 0.4417405789487917 -0.17458002499923186 -0.6209638186438345 -1.0546088534677611 -0.10052135180231823 0.2512763597482245 -0.38739631285994364 -0.2780280694748298 ]
[1.122719978165587 0.7749952091873669 -2.1037337537549226 0.36824444920717786 -0.18516664871949276 1.7228891048870065 -0.3736042579291504 1.135045200361219 0.0053236708548820375 0.7071417895914459 -0.7565090621609863 0.9684486309682653 0.9778854212960633 -0.2857873527558152 -1.1398096684738874 -0.31972662492693943 -0.09501337484970636 -0.10643082767101034 1.3662390344718545 -0.3606997185178781 ]
[0.38588953025162187 0.9437750295298746 0.47147391434110575 1.2972178671722183 -1.1207013775639256 -0.8345862042968252 -0.49842642729015935 0.4818159016935129 1.3878170932870157 -1.0527843001747244 0.3650937930940343 -0.4313235829620592 0.38367430464705166 0.7023292910893771 0.3750486205077583 -1.1769167354941368 1.2931017655968104 -1.348594918937451 0.3691735873215 -0.452565407021094 ]
[2.1266923465960574 -0.30379542644274554 0.07967858542616814 0.6879624590506671 0.7512167689319182 0.3748565586038501 0.12893977247782865 -1.812691617315488 0.09867321131053403 -0.9188860166478234 1.7549375210811713 -0.2800540480296956 -0.5210626237449416 -0.14485971634634287 -0.2151594449047313 -1.2503565914373367 -1.2112412382990432 -0.1836575512156042 -1.6157639652408704 -0.10073944062108434 ]
[-0.8182744041451135 -0.17127256651989262 1.5359216037360195 0.9255277472602144 -0.6798222828042306 -1.805192501673816 0.461595167846198 0.3307880103338852 -0.18567152610746435 0.31319843619690524 -0.7049211363792838 0.007474575627707248 0.49379112914469636 -0.371917523229214 1.1986538958779966 -1.0021003536587345 1.3994398481547692 -0.744067930184561 0.6315031889232693 -0.2643432280907413 ]
[-0.24059498555262898 -0.3054351319565264 0.5539800400488288 0.5335854840885508 -0.2884481886849432 -0.37873224296581964 0.039758212591442986 0.29727414939162816 0.4433126622268025 0.1414651093204909 -0.5593437855424653 0.8426830997852083 -0.32220378520107834 -0.4464585036614217 0.31811595768634504 -0.16480269332523664 0.8219397349007521 -0.4255184230989235 0.0048910660851891954 -0.3594943862981302 ]
[-0.5496708497363806 -0.25732175938547824 0.05757050945137183 -0.6813577026152333 -0.556587683322644 -0.0034796594931362935 0.5118698817245061 0.15838541829972472 0.2955684800061282 -0.18903129974417063 0.07545910591749783 -0.3086581495966705 -0.11581862261936775 0.021818761583678847 0.3177396959278848 -0.32790654865064195 0.27935794065208897 0.08795075284558897 0.16726948391457147 0.16018252283236786 ]
[-0.7455385359186932 0.025437825162090363 1.084066779809322 0.6190753705867427 -1.8308213378084748 -0.5003032068702775 0.23918762416453926 0.3968330676723173 0.45009335943396395 0.3603221271006413 -0.638987419989533 0.5376283908544915 -0.638252803096776 -0.6102024544696732 1.0167513336193532 -1.0756727399629906 1.9966977873757241 -1.0711418082001405 0.6731357738274377 -0.3607225294516538 ]
[1.675391869177151 -0.16872828065967962 -1.5131031307537317 0.5445709028813626 1.057210645025945 2.081934505911074 -0.12997679894609887 -0.14042766960396535 0.04513599478959271 1.0632309180085486 1.048951888228988 -0.32860272574039484 1.1471931255727301 -0.1463128482643041 -1.7732481370321915 0.6089593389042409 -0.8483437039353436 0.40938443875150776 0.9845406475093327 -0.23368362639268137 ]
[-0.19347531962703107 1.3565304005787941 0.8122216002588836 -1.463298181584537 -0.8793970765709659 -1.0695823222591008 0.38009899115565915 0.28549616540332284 -0.4247038686098977 -0.44548424743721043 -0.035992548363162374 1.6942870470868903 -0.6806607455963928 0.19439354782061413 1.3242849454747136 0.26016084268595036 1.13031866876461 0.05609108908601985 -0.0911774346615903 0.240159310852387 ]
[0.1972657060089457 0.5655952774175855 0.4168905522412702 -0.08719944572473164 0.24813724470766355 -0.09072812715853064 -0.20973415622815028 -0.228497619910684 0.5804687748608391 -0.18853912456493424 0.25425836200500507 0.6317044634928328 -0.24871659318564734 0.31889938621789543 0.04977112323003812 -0.7200593988959014 -0.35384348351087275 -0.6254023261441185 -0.14537013101479085 0.10148064958494836 ]
[0.8735181390587775 0.24225327044574674 -0.9191933762863383 -0.31372663938650575 -0.5988493630742221 0.544651772039213 -0.00038688534376456023 -0.2825671574748067 0.22910244609264582 -0.5565362380078565 0.0023352463786667486 0.3762025792732721 -0.6889938142214072 -0.4170768200094559 -0.39635560426596905 -0.5210159892538816 0.3617346871442871 -0.1351243052279777 -0.1875544469561193 -0.4981922208791117 ]
[1.3527094054372013 -0.014882657402412834 -0.5488285273456494 -0.640047925737106 -0.06401008331446138 0.24176365968405694 0.058308470799918855 -1.2147403614044097 -0.14125042955484854 0.06437674895582116 1.1072029506348187 -0.002392656476266095 0.10545905269317955 -0.2833796138967685 -0.5869893422792313 0.5680836279053336 0.08899486961413815 0.19375208403960284 -1.0108317336899206 -0.33472851720709756 ]
[1.418810285378973 -0.4124378065578705 -0.8329120394760295 -0.5390659683151785 -0.7065932826261727 0.8336766485173633 0.023577446897414846 -1.2335418037318027 -0.7482163536662566 -0.12420433706258661 1.4156582529973754 -0.19672717357312727 -0.3023646338425175 -0.17236819547391594 -0.844593725997385 0.08782514202050819 0.5702301665138642 0.2980478702928793 -1.3998877713156719 -0.149384625991005 ]
[0.16186407984141504 -0.48487927324041485 -1.3307442431910637 -0.6945110763740319 0.8840469295107399 1.3294456433378914 0.06460962919512205 0.11027336999411061 0.28833386766770563 0.2740068399375726 0.6267115590469892 -0.8141245142737757 0.4691416811922565 0.3401275531466331 -0.9732810406859308 0.9182338831763988 -1.5834859558275067 0.7078486579318407 -0.2948315232066436 -0.10827648463810202 ]
[-0.19913405297133527 -0.08439491214397142 -0.6858608681433781 0.047142005745301974 -0.28221488004543666 1.0367979337747808 -0.14043957550052139 -0.06952459173972624 -0.3776109550752092 -0.3134921653625764 0.1145599844738216 -0.031399290870314685 -0.031149191703002243 -0.38476567134127887 -0.5915785632088616 -0.5468352266330249 -0.3603331860948431 -0.41226990309400086 0.2042111966059387 -0.4030751541096978 ]
[-0.18816667920829375 -2.0987888616693056 -1.1637422639084818 -0.26448091464470996 0.9103431815162795 0.1828868372569193 -1.5493678433808287 0.1158823273514167 -0.5014353768028309 1.9110657141762895 -0.72347931734852 -2.4214558281590977 2.3422332333667355 0.2478679726211788 -0.4887594503674548 0.37256244072596817 0.7499452636507813 0.4475019437428938 0.34260490067191157 0.2767667927384636 ]
[-0.24882856854406746 -0.29747134323976615 0.9322726010581097 0.14433732071173208 -0.3019411151600122 -0.845155313436901 0.15384015205841736 0.27704481596190506 0.0330446109029175 -0.27569942196759084 -0.28999233487293774 -0.33950496453405765 -0.22649913931700952 -1.3500146322338191 1.0050525323689066 0.19193143744999386 1.1162252453152812 -0.04016507933354648 0.25481339731593744 -1.3630831555253318 ]
[-0.40248539010788664 -0.3409611996071757 -0.9810788681344229 0.5851032604685886 0.30812927948816937 0.7863887442956465 -0.1220616831099088 -0.08596951477238382 -0.21132285136579634 0.5332764926786213 0.2168012869205028 -0.3563649741452576 0.638019865467911 -0.09533855537506601 -0.7994103666640158 0.08936443103663162 0.3256988670916994 -0.09830066143899316 0.6874556742873948 -0.13318989823945954 ]
[-0.447118334606731 -0.9472139113717434 0.6277072756287209 1.1315582684053553 -1.6758956588560932 0.20883618080541513 0.7771789612838537 0.1372621150280723 0.9596555612504479 -0.07452028243886315 -0.10736789859568194 -0.11815423983154677 -0.8492477460326501 -0.07879744589078205 0.3057613199292278 -0.2867642008135755 -0.44048979676211275 -1.0289808619742158 0.4553546832746683 0.25356200342761764 ]
[0.022956135172576875 0.7327152050067367 -0.4957838177249132 -0.7032981696822698 1.1220875129005603 1.0360640200036442 -0.09657969568342424 0.09888554474782597 -0.2993069979424698 -0.03294539901885861 0.6736377176348999 -0.18069565262306642 0.5683659414017601 0.435354734502697 -0.9762711330645262 0.8737290394916418 -0.5459655841157334 0.7664477455252732 -0.9622169113185154 -0.35143488467722006 ]
[-0.015413612265938657 -0.6804219541393729 -0.8587424008525938 -0.8426460953055498 0.6028405535413471 0.7578687539151792 0.8969271192814142 -0.49930129637769155 -1.0985709095032488 0.9324203646100657 -0.24543019480101064 0.16210499460714317 -0.08425489245044593 -0.7426935575582935 -0.7364891606864069 1.1256728268917684 -0.7330611354351189 1.084468035536612 -0.5586444087822504 0.43885941614524804 ]
[0.2786759062956531 0.21263074113709923 1.4624265650890251 -0.9511777812303825 -1.1345602733395552 -1.2534975751494006 -0.07433478507353132 -0.35415573126637523 -0.15776516114655356 -0.07064566351329972 0.34516514698902206 0.1942340271335542 -0.16240171847660667 -1.480597817168411 1.6818771937303545 -0.17231361904532141 0.9344559466483502 0.17104568695672842 -0.1972592619031409 -1.4920279073208245 ]
[-0.294252805512951 -0.6040829703612031 -0.7785801725362719 -0.709291143235591 0.6003893317987197 0.6690871495077961 0.8975021687314804 -0.7833161716104294 -1.0212765463959796 1.094232989417819 -0.500034939167664 0.5193586087464687 0.2637644199196099 -0.3201380160854572 -0.6912104440736376 0.9372108770076846 -1.2208299778283653 1.2756404491543292 -0.4398892532904433 0.6751056539860536 ]
[0.3346764218950877 0.18355329186898706 -0.8401894447627173 0.5070824592366234 -0.436907600985453 1.1233294260677587 0.3036198816886785 -0.22197598438197486 -0.06822985032921222 -0.26280871275431505 0.12157589568557403 0.1889084154158124 -0.18476790696633255 -0.07277110466073916 -0.9994875600197335 0.6482699335607413 0.500333119238897 0.45260796975348633 -0.12263847096807586 -0.013344827529708088 ]
[0.34757627283406617 0.7875118651651123 0.644191743983321 1.2862136701024869 -0.8023899548231893 -0.8381926567966337 -0.5767084432420125 0.4235623074819027 1.2116897965717905 -1.0356765535771872 -0.075210704117826 -0.5490838699874705 0.5055851888228733 0.7736103018585323 0.3143075027213473 -1.327782694511865 1.2024866699414891 -0.9057413209531638 0.6861947690351015 -0.5346118380552987 ]
[-0.6681844173047282 -0.14506388871555248 0.07118962971114243 -0.48664326463021684 -0.3202983291236611 -0.5796054304255531 0.4013784023411486 0.4598005357568107 -0.8214656958654344 0.05125232433606151 -0.30619733154564693 -0.10903352403652379 0.19937625202525053 -0.20335267557472622 0.5818884601102524 0.7841562418270647 0.1601436069908517 1.3231110041588348 -0.14022068865409562 -0.03240485010846278 ]
[-0.32977863567706317 -0.17545839514587805 1.1132770936345746 0.30525573826120855 -0.571404221751392 -0.8166193967276432 0.4868562299636716 0.430149876598814 1.014502654472807 0.16726018595402833 -0.6866555946868873 0.8919227294120794 -0.3127589327927559 -0.26653693519974647 1.163371777216685 -0.6628995881930719 0.9732563505149168 -0.8379133273259808 0.5349265461195845 -0.29506209061177185 ]
[0.1131895530141751 0.18742736260051523 -0.8073219399815688 0.5222822089248648 0.13076253824920706 0.9871635871092751 -0.10617438689237718 -0.08034716253202275 0.18118426523084027 -0.2585242672204164 0.09261565650955221 0.3135679711680518 -0.3450654363676299 0.3162683728043162 -1.107601882594549 -0.19630678988004904 -0.12516522509342876 -0.013280639781212147 -0.1589186703478367 0.24874784198310712 ]
[-0.23725988098763956 -0.009356880325770039 0.22761246990440726 0.08370688569171515 -0.2338966572294944 0.196997897945207 0.2946239529032511 0.05347015459187057 0.2885880384151078 -0.12279933956185243 -0.06131465888386607 0.09187385551639907 -0.12510460165221932 -0.5400668930008887 0.04895082875771495 0.021852987204708362 -0.5366084406261845 -0.17507328574377398 0.16631231993346698 -0.29674329474044503 ]
[-0.2564439542375769 0.08054128996996958 0.7849062609890419 1.0522956421258616 1.5837052605064126 -0.7823679430440951 -0.39002103194947035 0.20909610044631965 0.5205888331405917 0.2543130175232782 -0.06307000476652125 0.32279503194902426 0.22577599519230818 -1.0331372118726008 0.36086923711086877 0.6402088855085477 -0.8154836972997876 -0.629166340826041 0.011836183974209866 -1.0187955788465657 ]
[ 0.3827446447079249 0.7041100501403099 0.38226001046699865 0.7255480604088816 -0.7395667363830911 -0.4832856691810474 -0.5479034827165589 0.5630503975938521 0.9644548455490756 -0.8319575596145371 0.19607597208292304 -0.6287534039438148 0.2887037492990108 0.5616139825220307 0.42609628766336444 -0.7633508679609399 0.929899902245879 -0.9081006180914244 0.44894114196669876 -0.4478833585031497 ]
layer 5 Activation
tanh
layer 6 Dense
20 1
[0.8402691607987436 ]
[1.3759005285701507 ]
[-2.4091311234658757 ]
[2.631524953519343 ]
[1.0212751543478062 ]
[3.6331010695017136 ]
[-0.5156740291089646 ]
[1.2056606340594975 ]
[2.331031686434503 ]
[-1.2265825777082549 ]
[1.045044119318633 ]
[-1.1163075819070474 ]
[1.0305331326416642 ]
[0.7842068667697697 ]
[-3.656145975656509 ]
[-2.4925941842274955 ]
[-1.546237216706974 ]
[-2.183616969971953 ]
[0.7334048854835037 ]
[-0.7492954171325995 ]
[ 2.5281171307554184 ]
