layers 7
layer 0 Dense
20 20
[-0.13459842  0.4107784   0.4574379   0.07810771 -0.40667343  0.04095853
  0.26548615  0.08687131  0.33493328  0.41042605  0.38296878  0.23567349
  0.03995296  0.08646864 -0.1041074   0.6164378   0.65305144  0.18904069
  0.10555945  0.10862509]
[-0.37432387 -0.22929004  0.02601784  0.32612962  0.09052372  0.23981762
 -0.05375272  0.09587848  0.12328511 -0.20464769 -0.06402621  0.1916033
  0.00161898 -0.10906175  0.14988726 -0.08265156 -0.25493407  0.20630676
  0.13228196  0.18756098]
[ 0.324705    0.08926874  0.03230825  0.03135014  0.3679331   0.17959887
  0.01041678  0.21395981 -0.15648878 -0.13313776 -0.28950566  0.0099211
 -0.21607308  0.01346332  0.2184385  -0.38702235 -0.16805074  0.13066375
  0.14748245  0.1636768 ]
[-0.44134173 -0.01270064  0.15726316  0.0244146   0.10086776  0.21891326
 -0.11292694 -0.3445297  -0.26640105 -0.08464935 -0.01913443 -0.04917187
  0.10949573  0.42275304  0.2717751   0.5309923   0.5461739  -0.13204007
 -0.29924652 -0.18053393]
[ 0.10100261 -0.13440625  0.05884814  0.30982256  0.00758311  0.6742766
  0.8467524  -0.02764535  0.23890418 -0.18168502 -0.17067128 -0.3215237
  0.19965282 -0.0401841   0.13633293 -0.08144494 -0.11640029  0.17207998
  0.09910476  0.38307056]
[ 0.06277943  0.10010317  0.30153507 -0.34342414 -0.00571626  0.07281393
  0.35084915 -0.17313668 -0.2945159  -0.20599952  0.1585123   0.2245568
 -0.35861245 -0.3426486   0.0239872   0.14482439  0.28175002  0.0753898
 -0.19581139 -0.07600635]
[ 0.3731072   0.1718319   0.25397605 -0.13422811 -0.1358833  -0.06064075
 -0.38504702 -0.08553049  0.19541407 -0.37307128 -0.15765741  0.19780463
  0.14903814  0.12824863 -0.09673226 -0.28972924  0.05477354 -0.31022936
 -0.07528225  0.01355669]
[ 0.11774503 -0.4139283  -0.45709875 -0.1047075   0.32076597 -1.0551835
 -1.0389943  -0.41316098 -0.39098892  0.14854942 -0.07247341  0.2429793
  0.2608604  -0.3682141  -0.3100691  -0.6337036   0.12084486  0.04887487
  0.0173663   0.53790677]
[ 0.18658239 -0.1465018  -0.6961977  -0.4147615  -0.7807691   2.3044188
 -0.62966114  0.55157423 -0.22797434  0.70249313  0.5128416   0.18361637
  0.3912025  -0.3087688   0.65041554  0.56246775 -0.83775127  0.97197795
  0.9195971   0.30665815]
[-0.11572802  0.37568405 -0.02194647 -0.3568157  -0.0483666   0.16452664
 -0.05170368 -0.00645313  0.08070832 -0.327752   -0.12098707 -0.2618692
 -0.4447475  -0.49038127  0.1092496  -0.01414254 -0.068493    0.45818186
  0.23343383  0.41652545]
[ 0.2731638   0.53572756 -0.16619287  0.12386961  0.16216996  0.06559731
 -0.0560256   0.04092653  0.12672009 -0.3605125   0.4755575  -0.29605582
  0.15328133  0.57254356  0.26765287  0.14444031  0.1263848   0.26459795
 -0.5944      0.61685   ]
[ 0.29490104 -0.28518564  0.2691581   0.92319345 -0.566055   -3.3016713
  0.6262225  -0.6491397   1.6080571  -1.576128   -1.2717402  -0.6705724
 -0.81915116 -0.19715865 -1.1483605   2.8913434  -0.27186677 -1.596276
 -1.1197342  -0.3566703 ]
[ 0.21878359 -0.4056175   0.84388363 -0.11054032  0.2931471  -0.1223016
  1.842677    0.1718345  -0.09933859 -0.17058685  0.3325539   0.25917506
 -0.9155224  -0.32414007 -0.02114104  0.29620454 -0.23694654 -0.24549018
 -0.24270834 -0.29618043]
[-0.16593072  0.40618494 -0.05416836 -0.4418458  -0.04525514  0.14793427
 -0.07515584  0.27986178  0.05481785 -0.02756072 -0.14222473 -0.44378325
 -0.5070118  -0.5710961   0.08616388 -0.05050992 -0.07734078  0.07506509
  0.29278088  0.26304042]
[ 0.3250689   0.549115   -0.18503182  0.04187594  0.19280112  0.03613966
 -0.0469389  -0.0460862   0.138882   -0.33032358  0.35480505 -0.37000024
  0.10849825  0.7088726   0.22077617  0.14257932  0.1194156   0.36195466
 -0.12014727  0.38929603]
[ 0.3656692   0.04082209  1.3167869  -0.25765276 -0.4114484  -0.2546974
 -2.7167368   0.65314806 -0.24974681 -0.5831459  -0.91828406 -0.5990019
  1.4304229  -0.10851437 -0.03704702 -2.155073   -1.1286496   0.7021467
  0.51533926  0.42729393]
[-0.06801491 -0.06157448 -0.34262812  0.19225204  0.5666115  -1.6897968
 -0.9958336   0.2235461   0.34880644 -0.10170697 -0.46979168 -0.8687621
  0.20926951  0.02480282  0.3271005  -0.76100945  1.0052593  -0.19683544
  0.03101161 -0.09200472]
[ 1.0371985  -0.7555814  -0.0211933   0.5020267  -0.06391132  0.13052264
 -0.07799613  0.45015988  0.0973898   0.62955534 -0.20770884  0.6788306
  0.5533007   0.9087186   0.06246368 -0.12308767 -0.15119664 -0.5724035
  0.324216   -0.5023962 ]
[-1.1613127  -1.0011712  -0.17247705  0.3187884  -0.32587516 -0.01697429
 -0.07074019 -0.10429199 -0.54950345 -0.27858818 -0.6201111  -0.05239028
  0.39009473 -0.8874057   0.29235217  0.15058279  0.10370591  0.59684384
  0.776647   -0.7255636 ]
[ 0.54604906 -0.33321175 -0.862444   -0.5828053   0.55332583  1.8028362
  1.2737978  -0.07393137 -1.2497039   0.8119842   1.5379094   0.9813024
 -0.8868352  -0.35251787  0.6862624  -0.77584916  0.69068754  0.09550361
  0.19981942  0.02391051]
[-0.17593935  0.19689728  0.13015255 -0.01140005 -0.02119704  0.19725133
  0.21434599  0.00217831  0.02876784  0.07402443  0.14411192  0.04932011
 -0.07163747  0.16371773 -0.03166346  0.20725696  0.13114232  0.13635182
 -0.03327392 -0.14964601]
layer 1 Activation
tanh
layer 2 Dense
20 40
[ 0.3771349  -0.20492469 -0.03190209  0.5015239  -1.2771585  -1.379233
 -0.43996567 -0.13787797 -0.6278361  -0.1266246  -0.14823191 -0.4161013
 -0.3958389   0.4858439   0.185013    1.9307704  -1.6858394  -0.08925299
 -0.41081843 -0.32976815  0.03815803  0.6548614   0.5345888   0.01591303
 -0.4112445  -0.6482256  -0.7703244   0.57344115 -0.39237484  0.08038541
  0.43478352  0.6705726   0.17413938 -0.02583685  0.25926626  0.58683455
  0.48958337  0.07346231  0.11500509  0.29423565]
[ 0.20444682  0.20129795 -0.1803122  -0.35147998  0.8845387   0.07652801
 -0.7538368  -0.04356658  0.15778524 -0.17239074 -0.38354602  0.5889731
 -0.1753801  -0.47224808  0.05409118  0.5030545   1.3509325   0.865932
  0.25798815 -0.7413905   0.56616706  0.15218535 -0.25134775  0.40699127
  0.07844591  0.81148285  0.07155575  1.6278359   0.00832691  0.9217282
 -0.37935328 -0.238776   -0.04454906 -0.5162079  -0.70600855 -0.7672854
  0.02492198 -0.1036732  -0.31514323 -0.31098405]
[-1.380528   -0.74823    -1.3769758   0.28090066 -0.24019086 -0.7236799
 -0.8056748  -0.23438913 -0.66680306 -0.01746161  0.11445061 -0.26101458
  0.04921761 -0.00601338  0.7014836   0.09564058 -0.08748955 -0.23834667
 -0.9765788   0.05058944 -1.3067229  -0.34508848  0.24342313 -0.0750642
 -0.24409577 -0.46291965 -0.33792913 -0.00592501  0.39729375  0.29611668
  0.33742505 -0.46166256  0.5345798  -0.2534483   0.19889086 -0.05807755
 -0.36628577 -0.28110647  0.05152001 -0.20472023]
[ 0.8557284   1.1603104  -0.17320873  0.02861233  0.0112512   0.57097316
  0.5502285   0.25077507 -0.27697748 -0.09616292  0.44970846  0.02641651
 -0.48505217  0.7602035  -0.12520444 -0.6366543  -0.4663621   0.37563705
  0.55706704  0.96548766  0.30613816 -0.309505    0.20575541 -0.02867898
 -0.6291362   0.0092498   1.110906   -0.27770647  0.15702212  0.49782005
 -0.201727    0.47845858  0.35796404 -0.6878691   0.36711738 -0.08243425
 -0.6889285  -0.47473696 -0.63628256  0.49670368]
[-1.5784103  -0.11847607  0.03220858 -0.19653241 -0.91513497 -0.73216337
  0.221307   -0.28961807  0.34348097  0.8627595   0.23245911  0.04339072
 -0.00208556  0.00355204  0.05439745  0.25246945  0.06597812 -0.23245305
 -0.82223016 -0.57663405 -0.8282812  -0.19485478  0.39311865  0.03996519
 -0.76231116 -0.76550275 -0.05709876  0.27233052 -0.9599963  -0.69386655
  0.8171213   0.14781912 -0.4154991  -0.1343036  -0.1672851  -0.48252362
  0.04484642 -0.3696285   0.46703982 -0.15561529]
[ 0.14930344 -0.4522155  -1.6390264   0.05324722 -0.37290332  0.66997343
  0.5314532   0.70993495  0.00817994  1.0657907  -0.7656173  -0.00796227
 -0.5024272  -0.40428984  0.10071135 -0.12111895  0.18246998  0.91655177
  0.08711061 -0.32315287  1.2659091   0.39939842 -0.4854717  -0.2748455
  0.21620488  0.42226318  0.35138246  0.31916913  0.6009731  -0.5972775
  0.00944221  0.46131328 -0.37683803 -0.3506717  -0.79766613 -1.0553365
  0.1599148   1.099198    1.0641624  -0.9981843 ]
[-0.35002863 -0.04261137  0.14058071  0.5908512  -0.42101783  0.11320868
 -0.7197288  -0.62138486  0.19884272 -0.37583834  0.45277718 -1.7617514
 -0.43962836 -0.35021853 -1.3387547  -0.00596062  0.20508447 -0.8776287
  3.2044642   0.08239857 -0.6306947  -1.1557304  -0.68783987 -0.3559344
 -0.0931523  -3.13043     0.08060502  0.10663503 -0.1050321  -0.5399776
 -0.04401793  0.5404581   0.6782789  -0.03980251 -0.49451038  0.7658512
  0.05629028  0.20183071 -0.63121116  0.35355607]
[-0.5160463  -0.44713673 -0.9649541   0.20215377  0.55829066 -0.19592196
 -0.1672325   0.99199086 -0.54371136 -0.33503127  1.010302    0.09684338
 -0.07654737  0.39824     0.4183949   0.09402169 -0.06854501  1.3281224
  0.00342095  0.21767211 -0.5396936  -0.98124963  0.3392882  -0.76108813
 -0.15827245  0.2016858   0.06668044  0.09962931  0.49700123 -0.08274001
 -0.7562396  -0.11067476 -0.5178796   0.33708465 -0.13306236  0.36320868
 -0.04838699  0.04965265  1.0842849  -0.12956396]
[ 0.44643563  0.4599581  -0.03346931  0.1414532   0.3941884  -0.07947284
  0.29356092 -0.40833175 -0.28935394  0.15968125  0.3176888   0.5434078
  0.03719672 -0.04967011 -0.1267529   0.13710068 -0.15834792 -0.11200973
  0.31756654 -0.16975981  0.46721953 -0.11793348  0.73305684  0.02293534
  0.28348526  0.12139305 -0.55617523  0.10907155  0.09594044  0.11999539
 -0.4082978   0.00773369  0.41750917  0.00229429 -0.28355646  0.40074363
  0.16026145 -0.23355314  0.4963662   0.35900027]
[ 0.40970764 -0.3569011  -0.18982339 -0.34730527 -0.06750462  0.27319938
  0.5499808   0.5611176  -0.62342316  0.18852082  0.12677899 -0.28886396
 -0.36543632  0.11956634 -0.2003922  -0.17139456 -0.2672481   0.6787603
  0.04255797 -0.18951915  0.5330924   0.58791345 -0.18397593 -0.8673268
  0.5535372   0.51711255  0.08793747 -0.23693493 -0.22806613 -0.3501899
  0.2476349   0.0357512  -0.49111366 -0.7075398  -0.46713316  0.6233612
 -0.4412714   0.1680564   0.49806485 -0.6392983 ]
[-0.14458334 -0.47530714  0.11764181 -0.02285671 -0.36669984 -0.11748458
 -0.02981212  0.44659534  0.41019997  0.87611246  0.2958519  -0.40103558
 -0.36606798 -0.29346225 -0.21888812  0.4302242  -0.14907971 -0.1874108
  0.48052695 -0.17729597  0.1992009   0.25953266  0.47667438  0.52837723
  0.898338    0.31120124 -0.4029869   0.31664947  0.99953973 -0.14532164
 -0.32728362  0.11098371 -0.24039282 -0.79667133 -0.3745204  -0.16922468
  0.39562958  0.40405616  0.62235    -0.4903111 ]
[ 0.2170789  -0.54816735  0.05837491 -0.42874667  0.0955838  -0.22687143
  0.08395665  0.35288274 -0.14454065 -0.90838116 -0.45896658 -0.3659334
 -0.43444443  0.64194393 -0.47096825 -0.8124003  -0.6137799  -0.0058133
 -0.25039995 -0.14165801  0.12374455  0.436475   -0.5082566   0.12091611
  0.5040851  -0.28234065  0.67716557 -0.6849652  -0.04380417  0.7041333
 -0.4278961  -0.12956019 -0.83088166 -0.5911179  -1.01164    -0.50996673
 -0.6930608   0.6946808   0.6742951  -0.3469262 ]
[ 0.07855134 -0.05323492 -0.16412413  0.25801882 -0.39280954 -0.41701075
 -0.16034074  0.6203498   0.41217068 -1.0045568   0.1960338   1.1202956
 -0.70806503  0.54283893  0.77003866 -0.7172     -0.22331561  0.09842045
 -0.20992298  0.24431212 -0.34687376 -0.7227517   0.16290209  0.07205323
 -0.65760356  1.188105    0.63052315 -0.11502685  0.69590336 -0.13682663
  0.24113677  0.17265794  0.02963891 -0.06209199 -0.0866328  -0.3444588
 -0.5720198   0.1657986   0.5237729  -0.61136734]
[ 0.18160674 -0.20726898 -0.25935102 -0.2510407   0.11545622  0.05028312
 -0.8992697  -0.15816453 -0.13354893  0.11736844 -0.00990088 -0.04787086
 -0.6845626  -0.8506159  -0.02446418  0.20977524 -0.38000175  1.0488636
  0.14913653 -1.2101947   0.41881037 -0.8416513   0.4339057  -0.3560098
 -0.24276768  0.15922317  0.92477596  1.8684278   0.01311757  0.69433594
 -0.0680126   0.04721421 -0.43681258 -0.4579489  -0.4898155   0.15307808
 -0.91213846  0.14258014 -0.5784391   0.14425647]
[-6.2519938e-01  1.9157687e+00 -6.2866354e-01  4.3543139e-01
  2.9621097e-01 -2.3413235e-01  5.0742894e-01 -9.8995049e-05
  7.1481466e-01 -5.1494229e-01 -8.6107844e-01 -4.6335834e-01
  4.6626110e-02  4.7837541e-02 -4.0947193e-01 -4.1642404e-01
  1.6806737e-01  5.1537615e-01 -2.8829664e-01 -5.7216320e-02
 -5.4154688e-01 -1.1373243e+00 -5.8979779e-02  4.7784752e-01
  6.0504168e-01  5.3231955e-01  3.5227290e-01 -1.5846649e-01
 -1.7229360e-01 -5.1157224e-01  1.1507034e+00  1.2217655e+00
  2.6528221e-01 -6.1309892e-01  6.3821137e-01 -1.0104445e+00
 -1.3596514e-01 -1.6094592e-01 -5.5694324e-01 -4.9873403e-01]
[ 0.27996108 -0.00203553 -0.7704875   0.0703235  -0.12233488  0.17137185
  0.5273201   0.19046438 -0.4389095  -0.7868652  -0.4208442  -0.13304722
  0.26754636  0.20630588 -0.0451806   0.13431934  0.02926274  0.05715073
  0.15642814  0.49125132  0.4157464  -0.19712143  0.03741225 -0.16501746
 -0.01101987 -0.00967587 -0.32714123 -0.0267432   1.1492404  -0.04552186
  0.10391672  0.16331403 -0.02590556  0.13491377  0.17544514 -0.00719454
  0.02496561 -0.06566531 -0.4297424  -0.34710497]
[ 0.33320332  0.7911792   1.1266454   0.43762633  0.05742397 -0.7314693
  0.2445803  -0.25926462  0.9318596   0.7766178  -0.783835   -1.2836674
  0.04367894 -0.0243789  -0.9011659  -0.0039892   0.27335185 -0.3038496
 -0.8206366  -0.28606817 -0.5785548  -1.0949289   0.0575379  -0.26902905
  1.0055408  -1.1215647   0.4068343   0.19595644 -0.953362   -0.3559849
  0.7892688   0.5473963  -0.5971614  -0.03620901  0.01291433 -0.7836391
  0.41043127  0.8244719   0.33940235 -0.8641742 ]
[-0.4624427  -0.66616327 -0.82080054  0.07839617 -0.30604127  0.14904849
  0.3158628  -0.6443521   0.3337442   0.46050942 -0.73439753  0.24361417
  0.6955295  -0.24069121  0.3426678   0.05525474  0.07898661 -0.18068956
  0.01182563  0.13883787 -0.27515218  0.37271214  0.13714395  0.61743563
  0.45192307  0.4484795  -0.5841203  -0.3342543   0.38675806  0.21105245
 -0.14729136 -0.68444955 -0.47851822 -0.6229119   0.5903872  -0.36972433
  0.154373   -0.00809179 -0.54059637 -0.28677192]
[ 0.6781599   0.4840207  -0.3440206   0.14188817 -0.16884282  0.3942255
 -0.13892454 -1.0011128   0.29523584 -1.0703566  -1.2612363   0.36964512
  0.46182618  0.24422123  0.1612261   0.15089382  0.04086639  0.6578855
 -0.22085112  0.27808115  0.04948872  0.10745272  0.1826059  -0.6414964
 -0.0814037   0.4962253   0.53889537  0.06678468  0.23181963  0.2846307
 -0.05354986 -0.02122413  0.01237905 -0.35805076  0.17456059 -0.06328065
  0.29838213  1.5167776   0.34054288 -0.49904898]
[ 0.68028206  0.6997356  -0.14434113  0.10390706  0.7166356   1.257001
  0.04126974  1.3033919   0.2414984  -0.11886411  0.38326216  0.77205986
  0.43319687 -0.1399494   0.47201905  0.7332601   0.21349038  0.5916817
 -0.46842974 -0.22310384  0.562508   -0.3686102   0.32346594 -0.90612644
 -0.14850695  0.5288538  -0.7414293   0.32104298  0.7733163   0.19340216
  0.2898095   0.7220891  -0.23753886 -0.24971093 -0.04716306 -0.7574337
  0.9399196  -0.5930838  -0.69744015 -0.22961883]
[ 0.41702074  0.09756947  0.16972242 -1.2730434   0.04977772 -0.5643334
  0.560161   -0.0302175  -0.5634833  -0.5034659   0.39130405 -0.38441473
 -0.0070431  -0.15482669  0.41069052 -0.25811866  0.20362334  0.3060348
  0.3281302   0.2922906  -1.0612338  -0.2436722  -0.01291958  0.5973626
 -0.77379847 -1.128923   -0.08044215  0.23830986  0.27610922 -0.19502424
  0.7343696  -0.18550484  0.8205537   0.23320538  0.2845477   0.16823582
 -0.13595505 -0.3902294   0.5020328  -0.09315695]
layer 3 Activation
tanh
layer 4 Dense
40 20
[-0.19777241 -0.03061376  0.17161901 -0.1324838  -0.8230015   0.4839511
  0.08962413 -0.2122811  -0.20213978  0.53965837  0.29029432  0.26796982
 -0.066267    0.09137037  0.08908221 -0.35885885  0.36085683 -0.24142528
  0.04308323 -0.12961136]
[ 0.06370508 -0.03805197 -0.06542268  0.20771854  0.7062992  -0.00841651
  0.51867235 -0.31331617  0.02640216 -0.09907242  0.8194576  -0.28557178
  0.0263401   0.22389649 -0.03383924 -0.05019461 -0.02638534 -0.06864252
 -0.25654322 -0.0159019 ]
[ 0.1110444   0.49414572 -0.38977453 -0.23420046 -0.75389427 -0.24389298
 -1.2377702  -0.4919462  -0.4092605  -0.2060538  -0.15403262 -0.24092992
  0.45062155  0.02976439  0.40274242 -0.35497     0.14417423  0.5157018
  0.40192968 -0.26454687]
[-0.17048049 -0.00429628  0.3555425   0.38602644  0.46110418  0.25772122
  0.3217615   0.7023989  -0.14075746  0.2897209   0.06543095  0.46145278
 -0.34251052  0.16909386 -0.45580855  0.39083338 -0.27452144 -0.5298536
 -0.2884808   0.6067181 ]
[-0.11130634 -0.12616156  0.1296851   0.25467235  0.384862   -0.34682098
 -0.13747227 -0.23981659  0.08456695 -0.33129516  0.16248806 -0.3813745
  0.11854379 -0.41098553  0.3552743   0.19414319 -0.24035665 -0.30427027
 -0.17998552 -0.0464469 ]
[ 0.28026068 -0.33097664  0.02217875  0.384617    0.92680246 -0.46317816
 -0.04716273  0.10166964  0.12055006 -0.4471202   0.01881691 -0.21710491
  0.11241689 -0.17111579  0.32850012  0.24969159 -0.5502424  -0.24738193
 -0.35482636 -0.0948787 ]
[ 0.48151085 -0.5457175   0.76701224  0.39930972 -0.16606402  0.078628
 -0.29014853 -0.54432213  0.07413527 -0.17969728  0.03248673 -0.10734389
 -0.07892908  0.11597451 -0.35605    -0.12871075 -0.164525   -0.607801
  0.13362674 -0.332788  ]
[-0.35834828  0.76128954 -0.07757397 -0.31826434 -0.27747318  0.1480101
  0.631836    0.5966637   0.26926082  0.2930878  -0.01279346  0.18682536
 -0.4080259   0.6500653  -0.29073936  0.08219876  0.207307    0.7966939
  0.25641763  0.37771234]
[ 0.38067374 -0.02510178 -0.03692271  0.43892205  0.73423886 -0.7049514
 -0.26025188  0.56834954  0.35832644 -0.30001518  0.3722005  -0.22490379
 -0.13535702 -0.6288382  -0.25021598  0.22724833 -0.36282653  0.5906099
 -0.28232354 -0.00572115]
[-0.25292107  0.4181865  -0.00621523 -0.7260341   0.5069458  -0.6110877
  0.14672995  0.07960863  0.39237273 -0.4009135   0.22539504 -0.4110812
 -0.05774618  0.12888058  0.04641065  0.3977194  -0.19762662  0.17506985
 -0.07571498  0.2771347 ]
[-0.24974652  0.33673805  0.08317441 -0.37071514  0.6583866   0.09849501
 -0.6851364   0.40882415 -0.12486048  0.17819941  0.10007434  0.37938327
  0.3787511   0.19751535  0.08468437 -0.08644594  0.3764477   0.24328688
  0.2522343   0.3706526 ]
[ 0.19295597  0.05474829 -0.5314293   0.03171095  0.6556287  -0.58520925
 -0.72913647  0.19233432  0.30853716 -0.7298624   0.6601624  -0.5632586
  0.36610147 -0.12311324  0.3427398  -0.1382699   0.16014287  0.09550797
  0.30628493 -0.23611338]
[-0.09004558 -0.57252955  0.63706154  0.9587228   0.21855265  0.20317209
  0.27590784  0.17790167 -0.26552087  0.11965028 -0.24488965  0.06497627
 -0.20312078  0.13437876  0.22076717  0.84191823  0.07240774 -0.21859837
 -1.0627404  -0.02917214]
[-0.50144917 -0.9527982   0.35367483  0.15890086  0.45449433 -0.16928495
  0.15877748  0.3917661  -0.4200508   0.8321682  -0.31473857  1.0022492
 -0.14511785  1.2227525  -0.1567365   0.24408285 -0.2759313  -0.6315614
  0.13970721  0.18731052]
[ 0.2437676   0.619226    0.03102628 -0.19911438  0.8555416  -0.5107452
 -0.24187024 -0.5467837   0.28703684 -0.3700423   0.5398888  -0.1995931
  0.32225582 -0.5973613   0.19490542 -0.10795173  0.20349994  0.79139537
  0.35024148 -0.41511682]
[-0.9831401  -0.33929974 -0.4407539   0.3014045   0.330392   -0.2512587
  0.33718455  0.6774822  -0.6402234   0.4482398  -0.5369668   1.1267585
 -0.26007962  0.48306242  0.50683624  1.6473839   0.06293055  0.40870064
 -0.05950241  0.5137965 ]
[ 0.98732287  0.16337341 -1.4086328   0.10942954 -1.2177296  -0.40572256
 -0.15472797 -0.9950789   0.40975437 -0.32072926  0.54911935 -0.91039443
  0.07765801  0.84611267  1.626015   -0.06016368  0.04916556  0.6288118
  1.1147436  -0.2820368 ]
[-0.2644918   0.00919457  0.03664099 -0.1812345  -0.05855019  0.39196065
  0.00458285 -0.4669543   0.09455828  0.1956388  -0.43359923  0.15181361
 -0.09581771  0.28104997  0.02268071 -0.29457042  0.2798255  -0.31263664
  0.31144962  0.3182527 ]
[-0.11610717  0.21523812 -0.08305771 -0.27791357 -0.42080137 -0.34623492
  0.8637904   0.5572903  -0.2940059  -0.11245173 -0.65606403 -0.09938975
 -0.80679315 -0.26410732 -0.11282037  0.09010187  0.16014236  0.3688025
  0.04098546 -0.00186985]
[ 0.10298709 -0.07348872  0.3969794   0.15153201 -0.3280092   0.7187976
  0.16771641 -0.17004727  0.02935665  0.25307813 -0.22033657 -0.26472467
 -0.01902512 -0.10620852 -0.6873793   0.0743828  -0.01446129 -0.27453247
 -0.47005135 -0.38460547]
[-0.3366379   0.36016873 -0.31519708 -0.36462495  0.35992694 -0.0211009
  0.04077516  0.5895164   0.2995917   0.2908926   0.31541222  0.40413332
  0.1437888  -0.01280305  0.10649826  0.18465179  0.11007925  0.13353297
  0.18843201  0.31029084]
[-0.7257373  -0.38083476 -0.12458036  0.612636    0.69650793  0.54188734
 -0.11042656  0.45212153  0.3541722   0.3529885   0.15131712  0.18799229
  0.01603201  0.19264278  0.25779215  0.18879482 -0.5356485  -0.4783309
 -0.16572121  0.6073224 ]
[-0.0047478   0.03358119  0.4793986  -0.06247672 -0.53604525  0.8438473
 -0.10455905  0.04003239 -0.52308947  1.0950364  -0.8149463   0.57517564
 -0.03356312  0.33751553  0.7522649   0.11929899 -0.5042088  -0.06869837
  0.08299375  0.20444964]
[ 0.41864017  0.4591993  -0.05177858 -0.3719812  -0.12169486 -0.07835227
 -0.08352293  0.09897601 -0.6545726  -0.3108963  -0.20912929 -0.28038415
 -0.00267494 -0.14718935  0.28352892 -0.06446316  0.39703596  0.18844949
  0.45674348 -0.09197927]
[-0.0435519   0.12117093 -0.22324869 -0.04632526  0.3750114  -0.5555182
  0.221923    0.17696792  0.31946644 -0.37839866  0.40765786  0.02886191
 -0.17909046 -0.33984482  0.21344735  0.6089758  -0.29373476  0.58948374
  0.19236536  0.52593327]
[-0.02688783 -0.04976471 -0.0402973  -0.14185292  0.48160163  0.21564412
 -1.0529066  -0.08397115  0.48292652  0.13706622  0.58290297  0.24509525
  0.54893094 -0.04576727 -0.5556892  -0.01173243  0.21599591 -0.34326243
 -0.07931911 -0.09898748]
[ 0.6999523  -0.47642237  0.17435534  0.08720579  0.06574105  0.30066285
 -0.33120397 -0.01066131  0.40748453  0.49610555  0.5592329  -0.01997988
  0.29947463  0.08898732  0.08839223 -0.04011395  0.63015884 -0.22536254
  0.8648987  -0.42710498]
[-0.2026248   0.11081317 -0.54770315 -0.40137604 -1.1735715  -0.38447672
 -0.2284993  -0.247064    0.48159894 -0.20593116  0.45480615  0.29187906
  0.13843228 -0.75318587  0.7898993   0.01573955  0.00883213  0.28032386
  0.710883    0.05024582]
[-0.4517965   0.35720006 -0.31270728  0.32957986  0.4959132  -0.31261802
 -0.27904278  0.6697648  -0.3943718   0.151384   -0.3634686   0.48962426
  0.28575885 -0.7870646   0.18204354  0.24164611 -0.22067945  0.6149863
 -0.03549555  0.25023013]
[-0.10567111  0.17974137 -0.1434108  -0.15946345  0.273108   -0.11612559
 -0.6632005   0.06318475  0.59806836 -0.02302461 -0.05891428  0.07162558
  0.14629938  0.61488014 -0.26823622 -0.00589135  0.00167322  0.19498125
  0.4765685   0.00467713]
[-0.3675903   0.00675337  0.29731998  0.02059129 -0.5707939   0.16899955
  0.6336444   0.3269566  -0.09542017  0.00467657 -0.3463642   0.19251443
 -0.19518259  0.3596193  -0.14205447  0.21537498 -0.34927508 -0.08217805
 -0.32624793  0.0530803 ]
[-0.36633465  0.3685855   0.06501967 -0.52663124  0.8213948   0.50484616
  0.23793074 -0.07674013  0.17835456  0.30465338  0.08533309  0.5244435
 -0.12559061  0.44869697 -0.45965436 -0.1206247   0.31636435  0.00356555
  0.5303634   0.03494214]
[-0.03938917 -0.20636193  0.14101902  0.20813346 -0.7253625  -0.18452622
  0.2909259  -0.23339623 -0.15028454 -0.42253247 -0.7954266  -0.2693232
  0.12249814 -0.37442687 -0.18789566  0.35903797 -0.4671396   0.14272653
 -0.33421665  0.25188416]
[ 0.31893674 -0.09491891  0.1880872   0.31458595  0.31274107 -0.3974332
 -0.03815872  0.18491055 -0.2969532  -0.5583179  -0.3005833  -0.32958552
  0.0054518  -0.43587625 -0.07119594  0.22438096 -0.4297686   0.14214705
 -0.3207678   0.1279017 ]
[-0.07959718 -0.3566077   0.41006026  0.12565488 -0.05682979  0.36788025
 -0.39336592  0.17567906  0.03855937 -0.03919602 -0.30161068 -0.0426534
  0.17620732 -0.34671056 -0.4846634   0.21159917 -0.2999205  -0.58143187
 -0.10719351  0.29748297]
[ 0.0948599  -0.0322764  -0.03148779 -0.36476508 -0.4748168   0.23117079
 -0.66442984  0.19923921 -0.42885038  0.14839745  0.17677811  0.17129004
  0.36318815  0.53298455 -0.24331848 -0.22553073  0.42500973 -0.17036802
  0.33789706 -0.22338288]
[ 0.03252867 -0.20536351 -0.15501933 -0.14874302 -0.06284168 -0.13869701
  0.2979897   0.80936164  0.0152088  -0.19621494 -0.19849585 -0.3238287
 -0.23715064  0.6696308  -0.23892178  0.25280157 -0.4824724   0.47806564
 -0.11403869  0.6903136 ]
[ 0.48947835 -0.1142173   0.375929    0.1368651   0.2972133   0.23320521
  0.4212974   0.15215057  0.3993967  -0.20746063  0.28318295 -0.5871296
 -0.32603434 -0.79560715 -0.28865004 -0.16942824 -0.20505317 -0.4912193
 -0.34888524 -0.23822686]
[ 0.11826465  0.19709042  0.03961246 -0.18396416  0.24807014 -0.06558084
  0.55992335  0.3188756   0.0985773  -0.17197858 -0.16649082 -0.23529048
 -0.35804003  0.05537187 -0.00785057 -0.04955055  0.07922659 -0.11182404
  0.2738237  -0.30453315]
[ 0.4211962   0.46526882 -0.49005094 -0.01418418  0.01948158 -0.7428049
 -0.6993677  -0.35539073  0.39411932 -0.7172342   0.57256013 -0.57810956
  0.07140415 -0.586306   -0.0540402   0.05202515 -0.10513283  0.61822975
  0.27808872 -0.08399586]
[ 0.4389136   0.37057513  0.38336498 -0.39882803 -0.58946675 -0.65240383
  0.58581096 -0.40426484 -0.2159199  -0.5116966  -0.1385131  -0.05404971
  0.21804528 -0.21963823 -0.1490465  -0.4382978   0.2636531   0.5225224
 -0.01681212 -0.24315725]
layer 5 Activation
tanh
layer 6 Dense
20 1
[0.380133]
[0.2740606]
[-0.20469321]
[-0.33296]
[-0.68165106]
[-0.2656533]
[-0.77071047]
[-0.18141529]
[0.24433613]
[-0.27711418]
[0.70114315]
[-0.30825052]
[0.50107116]
[-0.14698803]
[0.21509683]
[-0.3960678]
[0.38665098]
[0.19503072]
[0.22534244]
[-0.3770161]
[0.69597626]
