layers 7
layer 0 Dense
20 20
[-7.176663    0.4440127   1.8240027   2.2444835   0.9843226  -2.2667549
  0.21374959  0.1680425  -0.05485823 -1.3476783  -3.6637385   0.29244313
  0.34983203  0.45057675  0.22103599 -1.9092622  -0.7015961   2.2511635
  0.1147069  -3.8435476 ]
[-0.08604912  1.1485554   0.46746206  1.1590719  -0.23473261 -1.6336025
 -1.456801   -0.81746113 -0.91232526 -0.9215784  -0.5682516  -1.5121658
 -1.2699007   1.0229152   1.9274002  -2.1532652   1.0628991  -0.75921226
  0.19943537  0.14233525]
[-0.6705643   1.6777109   0.56619954  1.6368374   0.3013173  -1.829563
 -1.6876606  -0.34120017 -0.49938333 -0.6463459  -0.2036188  -1.2915871
 -1.6100707   1.277876    1.9085187  -2.5128431   1.007971   -1.2861884
 -0.22824143 -0.11758248]
[-2.9495325  -0.29968825  2.0209224   1.9718277   1.3118396  -2.6458437
 -1.2197742  -0.08992343 -0.8692069   0.18739605 -2.2849345  -0.7259658
 -1.6520886   1.5363543   1.1184529  -3.1349843   0.9549979   0.3830826
  0.5405412  -1.6761823 ]
[-1.5922931  -3.6091866   2.8424711   2.2305956   1.8461959  -3.7889762
  3.1820197   3.8804753   4.766818   -0.09493681 -1.3687379   1.9280208
 -1.0556986   2.2759964  -2.8694227   1.3293597  -3.7699456   3.4361134
 -0.36889413 -1.6634489 ]
[-0.42488334 -1.6038514  -0.37362084  1.5150521  -0.2741851   0.05342029
 -1.1790217   0.11178929 -0.8576493   2.0889385  -0.34441504 -0.12230095
 -2.9404135   1.0439694  -0.2894458  -1.9452287   0.07445397 -1.4168124
  0.52124554  0.8059658 ]
[-0.3244015  -1.4859632  -0.39176747  1.4720751   0.24689978  0.06188473
 -1.8423699   0.16576791 -1.4033924   2.8894448  -0.20614618  0.01331326
 -3.214588    0.83809686  0.42463762 -2.030159    0.28976092 -1.1888163
  0.12257139  0.91894084]
[ 0.8319302   1.023881   -1.9486058  -3.4814696  -1.0148331   2.451081
  0.63458955 -0.45447224 -0.32632387 -0.6517386   1.6180522   1.0958326
  3.6183355  -2.0496013  -0.26478776  2.1013596  -1.1644181   0.4616403
  1.3961366   1.0879272 ]
[-2.0138927e+00  6.4523542e-01 -9.1558158e-01  1.8771726e-03
  2.7570620e+00 -3.8511040e+00  2.1741340e-01  1.6448849e+00
  8.3606851e-01  3.5251826e-01 -5.1785976e-01  8.0476201e-01
 -5.8480114e-01 -4.2956157e+00 -1.7461379e+00  3.3587956e-01
 -2.9869680e+00 -1.8243631e+00 -8.3382154e-01  3.9900866e-01]
[ 0.45091224  2.323402   -2.7453494   0.21751776 -2.7772007  -0.6565647
  2.740224    1.9042343  -2.6240044  -2.110598   -4.394141   -2.4377863
  1.0199682   0.21519244 -0.02592493 -0.32666168  3.8654332  -2.7094824
 -0.16685696 -1.886991  ]
[-4.606761   -1.5440441  -5.489143   -0.0721776  -1.8580712   0.11273181
 -0.12723453  1.7543962  -3.138009    1.2926862   0.19617811 -0.72371715
 -4.2591214  -0.09652139 -3.7471745   0.4761343  -0.71738076  1.3808355
  0.03494629  2.3169334 ]
[-7.5389929e+00  6.2187290e+00 -9.0764886e-01 -5.1974216e+00
  4.9547472e+00  5.4850984e+00  2.3860562e+00  1.9730483e-03
  1.5988023e+00 -4.0219674e+00 -4.4751554e+00  5.3036647e+00
  1.2203683e+00  4.0064058e+00  6.4739347e-01  4.2661881e+00
 -2.9463978e+00  5.5962896e-01  1.5106025e+00  2.2850819e+00]
[-4.333281  -1.8365542  2.2147443  2.121492  -3.979663   1.4360753
  3.7796474  1.9417493  1.8811269 -1.5207499 -2.9921615  2.290349
  4.1044064  6.3058467 -1.9630814  2.5398037 -3.3522859  5.9145555
 -1.0747157 -5.7110868]
[-2.6983161e+00 -1.2088790e+01  9.9638456e-01  8.0127418e-03
  5.2714577e+00  1.3610430e+00 -7.5796475e+00 -2.9989831e+00
  2.9985981e+00  8.4954844e+00 -3.3197665e-01  6.6171355e+00
 -3.6240015e+00  1.3918737e-01 -6.0043769e+00 -4.1930733e+00
 -7.7928743e+00 -1.2127243e+00 -3.3215746e-01 -7.0425063e-01]
[ 3.3369598   0.93730193  1.7876195  -0.32717848  3.3326888   0.7206253
  4.876959   -7.967336    7.991545    0.41214308 -0.18401004  6.278009
  7.91527    -0.21979289  7.7536583  -5.620234    6.2839723   0.0485264
 -0.05742697 -1.2645459 ]
[ -0.34139556   0.927452    -1.8768456   -8.545954    -9.902817
   9.595262    -3.483546    -5.150466    -4.0442324    4.831068
   3.108294    -3.2827973   -3.8920758  -10.292034    -0.2310333
  -5.8329196    2.1110556   -3.1288729    2.4935102    3.0127497 ]
[-2.4536529  -2.1463614  -2.0446513  -3.4819088  -0.8524403   4.226861
  2.4970345   0.24731441  3.326795    1.0213474   3.0371623   2.1297517
 -0.6862948  -1.540769   -2.1961062   0.4161079  -1.635188    6.134619
  3.3343692  -3.4823964 ]
[ 1.8080417   5.924202    3.889599    0.21437211 -0.34816557 -1.2536795
  4.511779    0.1024904   0.5102854  -7.6759233   4.7234597  -4.775957
  0.6441425   0.21189891  7.5430036   4.8036337   2.0868146   3.4202268
 -0.09253815  1.4567468 ]
[ 3.2144172  -0.57088006  6.671586   -0.09686229 -1.6561986  -0.8800956
 -4.0341177   5.391176   -4.5985765  -2.1911228   0.6172784  -4.760661
 -1.5002536  -0.24282841 -1.7481287   4.6963453  -4.3704     -1.5689791
 -0.0430648  -2.0179527 ]
[-0.3269229  -1.2289151  -0.14822976  6.0714164   1.3475071  -3.53882
  2.0456915   1.9931346   1.6531332  -2.5527546  -0.6249437   1.4794232
  7.245677    2.836255   -0.6988577   4.135507   -1.8137931   3.6253805
 -5.640838   -2.8136275 ]
[-0.6171256   0.01199212  1.7266086   2.253575    1.4213562  -1.8571284
 -1.9890985  -0.11779431 -1.133207    0.3014536  -1.2223771  -1.0634378
 -2.652525    1.943339    1.4084047  -2.7328057   1.8450418  -1.6313782
  0.07322515  0.14689665]
layer 1 Activation
tanh
layer 2 Dense
20 40
[ 2.1521087  -0.31895667 -0.29038438  0.14574148 -0.06267847  2.8216395
 -1.3957049  -1.1019276   3.417617   -3.7337701  -0.4400414  -1.9843979
  0.07313626  0.8933362   2.25344    -0.3570653   0.28958097 -2.1919832
 -0.60038966  1.8036668   1.5655273  -0.7615134   2.3938158   1.6409366
 -1.78945    -0.0539547  -1.8429183   0.66672796 -1.2304082  -2.8882928
 -1.7558582  -0.12002375  1.4727507   0.22665071  0.8686357   0.04283183
  2.6556134  -3.50796    -4.3281     -0.65042466]
[ 4.8975081e+00 -4.3939266e+00 -7.5297588e-01 -5.2656752e-01
 -4.3896961e+00  1.4270686e-01 -3.8894615e-01 -8.5056591e-01
  2.6186280e+00 -1.5170469e+00  8.1950355e-01 -1.7780691e+00
 -3.8760078e-01 -5.3456750e+00 -9.8698926e-01 -1.1534151e-02
 -2.9639453e-01 -2.1541369e+00  3.7357926e-01  3.8220945e-01
  2.8321055e-01 -1.9636340e+00  1.0653490e+00  5.7221311e-01
 -1.1463884e-01 -8.8458523e-02  1.5863047e+00 -1.9520559e+00
 -1.5719928e+00  1.2266743e+00 -2.5320232e+00  1.7370006e+00
  8.4532428e-01 -6.4193867e-02 -3.4003313e+00  4.0238804e-01
  1.2774994e+01 -5.3991652e+00 -1.4227998e+00 -6.2843490e-01]
[-0.0744867  -6.3832603   0.16102165 -0.89968944 -3.5230017  -1.1037655
  0.12959564  3.4222755   1.0613619   2.017511    2.8808205   1.8043373
 -1.9216137   0.54162484  0.24406032 -0.22778706 -5.71117     1.7855846
  2.1133294  -2.2413557  -1.5259191  -0.6363223  -0.66353446 -1.2085761
 -0.2365985  -0.00943246 -2.4317515  -1.1891431   2.2183619  -1.1741114
 -1.5073339  -2.5721896   2.0299997   1.5164937  -0.5392157   1.5704803
  2.3748348  -1.8511108  -2.7098382   1.2841297 ]
[ 1.8996639  -2.7112155   3.1270933  -5.946547    0.76035976  1.7171655
  4.179426   -2.501256   -2.364652   -3.5355546  -5.1516786  -1.5788258
 -1.9667227   2.582503    0.38626823 -2.188092   -0.81980795  3.0645814
  0.8788139  -5.345014   -0.28544748  1.0369006   1.7636882  -1.8795696
 -2.7217038   5.6379733  -1.6914666  -5.9903603   0.9413146  -3.0706666
 -2.2555807  -4.3686633  -7.3108635   5.583377   -7.5568666   0.9893092
  4.44891     0.8505351  -1.5048537   1.5822532 ]
[-5.8420124  -0.8466739   0.12978294  0.59669906 -0.8045547  -0.2986867
 -0.07687649  0.5685597   1.5999813  -1.9937692   1.3113434   2.5573971
 -0.11171202  0.8422706   0.5583845  -0.42841756  3.0823264   0.16241935
  0.49802944 -1.6710844  -1.33597     2.0732653   0.60671973  0.5564408
 -0.9254058   0.0479459  -3.3312151  -1.8493937   1.4531595  -4.74138
  0.3467869  -0.32418907 -4.518135    1.7578727  -1.5920774  -0.3615599
  0.49662545  1.0014449  -2.7346487  -0.07331289]
[ 0.4060688   1.2187239  -1.7571843   2.7449994  -0.9914045   2.036284
 -2.2377884   1.658956    1.8149896  -0.28458932  4.274675   -2.0749009
  1.9932041  -1.7299448  -0.41093895  0.42418343  1.1149325  -2.538019
  1.0587825   1.2111342   2.420805   -1.5987347   0.36848986  1.984263
  0.7533984   0.13122061  3.3327441   0.4336809  -0.2640121   2.2012894
 -0.32089162 -0.08264454  3.310543   -2.3674767  -0.19094858 -2.362967
 -0.10220246  0.40547544 -0.03172708 -2.0285225 ]
[ 1.5793848e+00 -1.8904364e-01 -3.2394519e+00 -2.0380282e+00
 -3.9376452e+00  1.0387403e+00  1.4189179e+00 -4.7916886e-01
 -7.6303971e-01  2.9120071e+00  4.9769983e+00 -1.0078820e+00
 -3.7083695e+00  4.3160000e-01 -2.9652405e+00 -7.7666593e-01
  2.0586103e-01  5.5762184e-01  8.9308918e-02 -5.2557600e-01
 -9.4805443e-01 -2.4441757e+00 -1.9697376e-01  1.6390671e-01
  2.8382778e+00 -4.3393336e-03 -3.0564249e-01 -1.1127521e+00
  1.0247682e+00 -1.5287167e+00 -1.4025851e+00 -2.6689987e+00
 -1.8643830e+00  1.9370663e+00 -8.1148946e-01 -1.5641646e+00
  3.6696827e+00 -3.5022662e+00  6.2331085e+00 -1.5352494e-01]
[-0.19887766 -5.614387   -1.3476927  -1.689792   -0.95735383  1.141728
  0.23774584  0.47578004 -4.7260346   0.78232646 -2.333672    4.628137
 -1.3297223   0.0716849   2.0375435   0.48745838 -0.70240366 -1.2733874
  1.8037226  -0.4003399   0.40244454 -2.6542645   0.38121158  0.0290766
  2.4150193  -0.09952211 -2.3110526  -1.4032574   1.2385473   6.209232
  1.0652298  -0.06957494 -0.5893398   1.2589062  -1.3792301  -1.023244
  1.7539272   3.3868582   1.5232323  -0.6713199 ]
[-0.08610931  2.4890926  -0.01887553 -0.8440141  -0.87357664  0.7755222
  0.2924014  -0.24399039  0.67723113  3.3709865   1.8429712   0.6595363
 -3.1316235   1.2499961  -3.1520078  -0.2800795   1.1915632   0.5653934
  0.14583252 -2.814751   -0.1174031  -1.3478687   1.339305   -0.52213323
 -3.9495435  -0.04065011  1.4957262  -0.53640383  0.9940036  -3.885108
 -0.8865117  -5.602566   -2.6845028   1.3121537  -0.5695724  -0.6115556
  0.48544973  2.3081968   2.0548415  -0.12509525]
[-4.059746    2.3424013   2.2082071   1.1500852   2.029079   -0.46171805
 -1.4414473   0.76225615 -2.820784   -3.7603908  -1.1260686  -3.483366
  1.0339895   0.65290606 -1.3733796   2.63921    -1.5161451  -1.4804245
 -2.1367424   0.9777703   1.6431539   1.7717252   1.0007998   0.29491064
 -1.5197657   0.0596441   1.828275    1.8007174  -1.465463   -3.442781
  6.3309364   2.6727514  -1.620928   -0.15192372  1.6806346  -2.1746237
 -1.8570423   1.4397733   1.7120277   0.39476863]
[-3.9548683e+00 -5.6765628e-01  8.2601142e-01  1.7186974e+00
 -1.8598764e+00  4.4295168e+00 -1.5284233e-01 -6.2046280e+00
  4.9013319e+00  3.6741629e-01  3.1911347e+00 -2.6572237e+00
  2.9141543e+00  2.4164667e+00 -6.9348818e-01  2.0650249e+00
  4.7225931e-01 -5.9743989e-01 -2.4381044e+00  9.6724743e-01
  1.6568005e+00 -1.8708749e+00  6.0048032e-01  3.8773757e-01
 -1.0513860e+00 -5.9152567e-03  3.9635777e-01 -2.4391367e+00
 -1.2097472e+00  2.1526449e+00  2.6929536e+00 -1.9649349e+00
  2.5029771e+00  4.6783906e-01  3.7393114e-03 -1.5801809e+00
  1.2352093e+00  4.2102680e-01 -4.0606456e+00 -1.1717645e+00]
[-3.1778812e-01  5.6668180e-01 -8.4226918e-01 -1.6801233e+00
  6.2453830e-01  8.2910679e-02  5.6664407e-01  1.8819696e+00
 -1.5042056e+00 -2.9145651e+00 -4.3103051e+00 -1.0426165e+00
  2.6897949e-01 -7.3619872e-01  3.2852786e+00  7.1672523e-01
  1.8269051e+00 -1.4620951e+00  2.9100138e-01 -2.2962685e+00
  1.6736897e-02  6.6039953e+00  2.8823624e+00  5.9735996e-01
 -6.5177045e+00 -2.2400726e-02  3.2461851e+00  9.5891708e-01
 -4.6441400e-01 -3.4446805e+00  2.6016774e+00  1.2670493e+00
  3.1394026e-01  1.2789682e+00  4.8847407e-01 -5.8988486e-03
 -1.9009796e-01  1.4130744e+00  3.1020243e+00 -9.7239661e-01]
[ 4.99270111e-02 -1.94492948e+00 -1.99578190e+00 -2.92872727e-01
 -2.62617612e+00  3.86737680e+00 -4.23403680e-01  1.16057956e+00
 -1.67486978e+00 -5.46633625e+00  3.13076067e+00 -2.89848471e+00
  1.14105403e+00 -3.23345518e+00 -1.12265676e-01 -9.19764400e-01
  5.42513549e-01 -2.94578314e+00 -1.14806187e+00  4.29704428e+00
 -8.00243951e-03 -1.58744133e+00  2.00034952e+00  9.90330458e-01
 -4.80453491e+00  3.35024409e-02 -7.65043199e-02 -1.28821909e+00
 -1.78971875e+00 -4.01793909e+00  1.02873266e+00 -1.47533000e+00
 -4.26484871e+00 -3.90585035e-01 -3.14632940e+00 -1.94504070e+00
  1.01573324e+01 -1.44517779e+00 -4.17524755e-01 -1.51737404e+00]
[ 6.978741   -1.7547463  -1.459092   -3.5611258   1.6320497  -8.023372
  4.0500073  -1.5604429  -2.7412105   3.0448976   3.0003817   6.581829
 -6.734206    1.2784938   6.0081177  -7.435899    0.55186963  2.4927838
  5.4944024  -4.52605    -4.296899    4.1067476  -0.5240873  -2.4257948
 -5.266435    0.7521921  -6.8796277  -7.775474    4.0490904  -4.2377415
 -9.54732    -5.358688   -5.1807284   3.0030735  -8.884667    2.942231
  1.9993056   2.7052002   3.644991    0.633094  ]
[ 3.2564712   6.1019316  -0.57700634  1.516687   -6.2502317  -1.1150141
 -0.7566468  -1.9714267   7.293565    3.6861796  -0.06977525  3.1253858
 -2.6157422  -1.2713232  -2.5013263  -1.5487038   1.0080396   0.8525295
  0.08014365  0.3001435   1.6461909  -3.8467402  -0.27368772 -0.40778542
 -4.7593      0.01451643  0.07792111 -0.3672663   0.0751958  -1.2146488
 -3.0304585  -7.6153874  -1.2281431  -2.4482632  -1.0413893   0.21632966
 -0.8148879  -8.524155   -0.500228    0.6747094 ]
[-2.1254604  -3.495912   -1.7380263   0.1411452   2.9314756   5.372684
 -0.5605682  -4.706175   -0.99318206  1.1429276  -0.6458991  -2.306114
 -2.7331145  -0.35270494  4.1070065   0.13239256 -0.8560476  -2.415937
 -1.7611196  -2.574278   -0.5562396  -3.375427    0.3084137   1.1626264
  0.6621208   0.04735737 -0.03621001 -2.894414   -0.28778514  3.5145648
  2.8936434   1.1124206   4.2839055  -1.2693623  -1.553954   -1.6100574
 11.8453455  -0.26272282 -2.7801795  -1.0163196 ]
[ 6.0858464   5.34463    -5.1090765   2.422174   -3.387668   -1.3228532
 -1.4898446   0.1247908   2.8614578  -1.7761135   6.440962    1.5468858
  4.425915   -0.6871496  -0.8101136  -0.23871128  1.1249135  -0.1077933
 -0.6066729   1.2997174   1.0130097  -3.9179103  -0.72973686 -1.1098285
 -0.20199063 -0.01873463  1.1088043   1.1059552  -0.9913172   0.08965097
 -4.9315815  -2.2749681  -0.13536713 -0.41554418 -0.39834353 -0.10031717
 -0.6270697  -4.0476785  -0.56611603  0.42844668]
[ 0.55806494 -2.4718723  -6.673008   -0.6277657   1.9398065   0.7645184
  1.7945013  -2.6537282   1.3359137   0.7473415  -0.43200764 -3.3106806
 -2.4585888  -2.3866377   1.3375378  -4.763338   -3.4737194  -0.28153038
  0.3454321  -0.2892045   0.9293417  -0.08389632  1.1862377   0.9834427
 -1.8193005  -0.03420195  2.0155733  -0.9156666  -0.16827038  3.1931846
 -2.1708426   1.0481013   0.32355583  1.4100256  -1.0675408  -0.76193583
  2.1992593  -1.1221925   4.160826   -0.03193154]
[ 1.0754418   0.33625242  4.964999   -5.859384   -4.9724793  -3.748082
  2.4606135   4.2125974  -1.6374494   4.78295     2.5963633   3.8911545
 -3.1762009   3.7206109  -3.8017678   4.709635   -6.502734    5.135476
  6.4278226  -4.3818293  -7.0257363  -1.7834679  -9.088086   -4.5723724
  1.0853996  -4.7725897  -2.674892   -2.841634    6.4602103   0.27062643
  0.36190885  0.46089613 -1.0123531   5.704339    3.2862651   5.5051675
 -4.12294     1.241073   -3.2744172   3.3521152 ]
[ 1.1896733e+00  1.7642114e-01  3.6816400e-01  8.6866367e-01
 -3.3208022e+00  2.7630386e+00 -1.7107017e+00 -2.6808951e+00
  1.8983465e+00  2.2420659e+00  2.0561814e+00  9.3190378e-01
  6.6618538e-01  3.1731601e+00 -4.2970266e+00  1.8091934e+00
  1.4406769e-03 -1.0239695e+00 -9.0390068e-01  2.5387880e-01
  8.8554251e-01 -2.5473382e+00 -7.1354216e-01  6.9509828e-01
 -2.4088805e+00  9.1455458e-04 -5.2862763e-01  1.0337594e+00
  2.3322545e-01 -2.5285617e-01 -1.0402569e+00 -5.9527022e-01
  4.1587752e-01 -2.8661132e-01  8.3635777e-01 -2.7166238e-01
 -3.4534183e-01  1.5417066e+00 -2.4869888e+00 -1.6054018e-01]
[ 1.0929612   0.5200565   5.586804   -7.7746043  -4.205576   -3.807422
  3.804496    5.118093   -1.4893535   4.4855742   2.2639987   4.717656
 -3.7378926   5.1735344  -2.5125692   4.5634484  -5.8342094   7.751506
  6.498712   -5.164524   -7.558577   -1.5911387  -7.025054   -6.9033294
  1.0575902  -2.8164153  -4.813774   -3.9541183   6.845543   -0.42562047
 -0.07946494 -0.35462353 -1.2658489   7.6527467   1.7302277   7.0746226
 -3.3722374   0.79948807 -3.7126884   6.9148397 ]
layer 3 Activation
tanh
layer 4 Dense
40 20
[ 0.01220533  1.5981003  -0.21991685  0.13986681  2.017135    0.28473476
 -0.27233347 -0.56540024  0.5211714  -0.39964652 -0.56109536 -0.3412669
 -1.7395632   1.7057635   0.28545785  0.6004749   0.27126887 -0.5058125
  0.17991854  0.03231164]
[-0.11188409 -2.5217505   0.01716206  0.00924718 -1.9216429   0.3539727
 -0.04856891  0.4489372  -0.60706425 -0.11634295 -0.389785   -0.448583
 -1.9038241  -0.3512114   0.5532366  -0.62219214  0.23348124 -0.7560678
  2.56963     0.48370516]
[-0.13946545  2.0959613  -0.39310998 -1.1296937  -0.931309    0.8791146
  0.7204683  -0.9420207   0.5562182  -1.0734243  -0.7351862  -0.9416464
 -2.741901    0.7856973   0.92053086 -1.2401505  -1.0519463   1.3083754
  2.3577201  -1.426872  ]
[-0.2798969 -5.38498    1.2353246  0.8985391 -5.8417373 -2.414964
  2.6540604  2.1822197 -4.4985704  2.0532572  1.0607167  1.1492406
  4.823679  -1.9926758 -2.3313715  2.3778155 -0.8059197 -3.1208599
 -2.7420363  1.2729892]
[ 0.05261406 -0.03631861  0.20802163  0.7947156   0.6970145  -0.58229476
 -0.6519506   0.93822396 -0.9268936   0.6094217   1.1457459   0.91434205
 -0.15501809  0.08684032 -1.3609558   0.8124057   0.49377227 -0.5441393
 -1.1444708   0.45158324]
[-0.13215077 -0.92710155 -0.3517704   0.37920234 -2.8526871  -0.57150847
  0.14133334  0.7678091   0.20237634  0.71472967  0.32656935  0.35076627
 -0.35437006  0.47995582 -0.03531213  1.5250648  -0.30382353  0.3724107
 -1.1909504  -0.48290673]
[ 0.12499034  1.2005527  -0.0822686   0.6396113   3.3384576   1.0349077
 -0.66507167 -0.10493468  1.7617996  -0.10172676 -0.8314615  -0.46318373
 -1.0954038   1.1248496   1.255302   -1.4474144   0.2827926   0.2037549
  1.4072676  -1.042363  ]
[-0.2498556   0.7562016  -0.78576374  0.25579113  2.6953752   0.19834843
 -0.11972906 -0.8174816  -0.01710292 -1.367149   -0.5735729  -1.0983275
 -2.1023993   0.65313685  1.969171   -0.66842705  0.18266341  0.9021899
  2.2516274  -1.1214807 ]
[-0.07536565 -0.48063946  0.056426   -0.5003373   1.8368152  -0.03951533
  0.29925948  0.43319032  0.38429484  0.24671462 -0.45145082 -0.39954677
  0.88487554 -0.45629483 -0.4137432   0.5009881  -0.22236596 -0.09317596
 -1.6681792   0.3786102 ]
[-0.14754063  1.4380968  -0.65831256 -0.6923072   1.3269591   0.5434737
  0.38045898 -0.765769   -0.26224974 -0.45069605 -0.08338348 -0.3841609
  1.616219    0.76297706  0.08428793 -1.1122806  -0.5406706   1.3192881
  0.68113846 -0.26971126]
[-0.09275719 -1.1821965   1.2055614  -1.6444901   0.05492382 -0.7272034
  1.0318136   1.0684509  -0.38341746  0.99344814  0.73304147  0.58123606
 -0.81757313 -0.09749418 -0.7877418   0.13244331 -1.3899965  -0.540054
  0.45431712  0.79853123]
[ 4.2816907e-02 -1.2235893e-03  1.3067141e-01 -9.4755822e-01
  2.2556920e+00  5.9727794e-01  3.8276955e-01 -7.9987550e-01
 -5.7775427e-02 -8.4600061e-01 -1.2428643e+00 -4.4598055e-01
 -1.9587724e+00  2.5490808e-01  1.2917426e+00 -1.3871872e+00
 -3.0859709e-01  7.0196301e-01  3.6032124e+00 -4.9924582e-01]
[-0.03313959  2.1626163  -0.02821624 -1.4107536  -0.17002599 -0.6953679
  0.61243206  0.53486013 -0.31583747 -1.0644284   0.36846566  0.47558242
 -0.20340401  0.86921626 -0.02831182  0.24764444 -1.0326084  -0.51854074
 -0.08452165 -0.14263365]
[ 0.00348635  3.0308692  -1.4206045   0.6888259   1.945904    2.5298524
 -0.39201576 -1.2015681   3.4635234  -2.2767208  -1.6690711  -1.6247462
 -2.0643866   1.6829796   2.6515536  -2.1483877   0.5057159   3.0246909
  1.5865138  -1.3030154 ]
[ 0.2362841  -0.79991525 -0.18938503 -1.1058973  -0.6415986  -1.0063925
  0.65129024  0.75834846 -0.71981853  1.9933254   0.8571734   0.49385083
  0.86412895 -0.67041546 -1.0107455   0.5227512  -1.1365019  -0.83146006
 -2.2691693  -0.12164645]
[-0.14974812  0.83501875 -0.5176276   1.6198285   1.6632756   0.9901857
 -0.85875165 -2.4989588   0.5866334  -1.2985998  -1.221532   -1.1709493
 -2.059416    0.7203224   2.1658504  -1.849833    1.3786179   1.1717303
  2.2857776  -0.37228233]
[ 0.4511119  -4.1743155   0.4160614   1.1884842  -1.2636122  -0.43375483
 -0.67032105  2.681345   -0.4133144   0.46277687  0.5546428   0.49361634
  0.4994141  -1.2393396  -0.4040225   0.91026306  1.0406088  -1.9824036
 -0.09084698  0.8618897 ]
[ 2.6759145   2.0979116  -1.6491905   0.42119083  8.302611    1.9803889
  0.39472237 -2.392316    1.0675796  -3.1606388  -1.3863224  -1.9565393
 -1.7077065   2.3039958   2.0464609  -2.3129427   0.4425308   4.896653
  1.4834615  -1.3119118 ]
[-0.508248    0.80849123 -0.8416275   1.0748382   1.48631     0.29329935
  0.5170778  -2.0619256  -0.6872306  -1.5299664  -0.77430075 -0.85434943
 -1.2999557   1.5854359   2.5487916  -1.4837648   1.3287426   0.826573
  1.80839    -1.1289595 ]
[-0.29190403  1.2088189  -0.1221362  -2.2506227  -0.84867257 -0.68715644
  0.8428172  -0.07864036 -1.8758715   0.3865285  -0.4659553   0.34333873
  0.58080405 -0.90092987  0.33446732 -0.5445856  -1.0781128   0.22612196
 -1.4819921  -0.00972334]
[-2.4050813  -1.3477207   0.17479806 -0.26040635 -0.8997714  -0.86925393
 -0.6529329   0.76912564 -0.4221805   1.6336987   0.4838934   0.32339197
  0.47944522  0.67761755 -0.82718736  0.9124465  -0.19643429 -0.5889592
  0.81054765  0.90811974]
[ 0.11608271 -0.7997072   0.32665098  0.36730012  0.06816153 -0.33966398
 -0.01575883  1.4407325   0.31189382  0.9365099   0.8861672   0.80814314
  1.0251787   0.5551512  -1.74185     1.3182008   0.04514045 -0.07547504
 -0.7937433   0.12554349]
[-1.363007   -3.6824746   1.1624105  -0.73755723 -3.3216147  -0.8851266
  0.4765822   1.71566    -0.42521828  2.529592    0.45471582  0.8222778
  0.87405246 -2.5344212  -2.0921295   1.2437348  -0.97428954 -3.0482285
 -2.5116184  -0.10555152]
[ 0.14521056 -4.329107    1.5393171  -0.5044356  -1.3837535  -2.5639157
 -0.14236361  2.5209646  -2.048739    2.3747327   1.7178082   1.695325
  4.2474637  -2.5477395  -2.2224555   2.2904878   0.02441009 -1.9347831
 -4.6794224   1.9486468 ]
[-0.05150213 -1.0398881  -0.6271508  -0.26589572  1.0414983  -0.02986678
  0.2525156  -0.72970444 -1.0406812  -0.12387195  0.21009189  0.14923286
 -0.5728223  -0.66170526 -0.3195171  -0.2555878  -0.23421377 -0.01832732
  0.03860525  0.03886737]
[ 5.7225318e+00  1.6987094e-01  1.6378437e-01  6.1629677e-01
  5.0438756e-01  5.4915026e-02 -3.6668324e-01 -4.9058214e-04
  1.1121274e-01  2.0691429e-01  2.9235849e-01  1.3310251e-01
 -1.8249951e-01 -3.0643073e-01 -1.2857543e-01  2.8643256e-01
  5.2006686e-01 -1.1196660e+00 -1.7627059e-01 -3.6132765e-01]
[-0.06939168 -3.3397      2.36726    -1.2669874  -4.1940303  -1.9848665
  0.60890895  3.275652   -2.5186832   2.1650798   2.5834637   2.0413165
  2.5164652  -2.1760585  -3.4550211   2.7231307  -0.13782747 -3.3404706
 -2.201583    2.1223567 ]
[-0.11656061 -0.6222522   0.72485036  0.8856054   1.5580814  -0.29327387
 -0.23217365  0.98443633 -0.2758093   1.4959903   0.87406725  0.1952678
  1.2478817   0.05423497 -1.8217797   2.7247405   0.55201286 -1.769892
 -2.6335638   0.64044124]
[-0.5778751   3.052801   -1.577348    1.3089298   2.1057072   1.7434193
  0.37795636 -2.3947046   1.9228287  -1.9682142  -1.6418     -1.2300602
 -2.4681537   2.5078714   1.8108313  -2.0018806   0.225847    1.418216
  1.833302   -2.6881878 ]
[-0.01204809 -0.3195395   0.49259943 -0.6662458  -0.8688275  -0.6435988
  0.32401574  1.2056476  -2.5637403   1.0065324   0.07892183  0.22445898
 -0.76827127 -1.1400329  -0.9539799   0.83399475 -0.53134596 -1.74348
 -0.90111226 -0.31102887]
[-0.07842711 -0.7894103   0.8145241   0.33014935 -2.4738524  -0.23620035
  0.17926104  0.6274014  -1.178158   -0.08407073  0.9214016   0.17009097
 -1.1380436   0.27977166  0.29047096  1.6581423  -0.18726481  0.09238258
 -0.4620469   0.91867113]
[-0.13827999 -0.11531764 -0.3378309  -1.1069875  -2.320781   -0.30370644
  0.9213084   0.1437048  -1.9358717  -0.97774404  0.619018    0.16062838
  0.4072007  -2.0806425   0.8234156  -0.42202556 -0.9351672  -0.87439877
  0.41491914 -0.5584387 ]
[-0.06689397 -0.35534105  0.4943551  -0.7361294  -0.8247494  -0.50487584
  0.7841106   1.0325079  -0.37495202  0.01303363 -0.02799853  0.35114077
 -0.2852891  -0.05204875  1.1770296   0.77573556 -1.1268029   0.7005506
  0.9555086   0.4766232 ]
[ 0.22662725  2.3024166  -0.22754036 -1.4963236   5.63293     2.3705616
 -3.0480425  -1.1626695   1.4518622  -0.6343237  -1.463913   -0.7314848
 -3.133862    1.3610673   1.3720472  -1.0712264  -0.91257054  2.4931638
  2.18054    -0.35984728]
[-0.13345754 -0.556246   -0.12352297  2.4289587   2.1718562   0.9013834
 -1.5172464  -2.182969    0.47940063 -0.24667172 -0.94580364 -0.6757247
 -1.6520735  -0.40328926  2.3284001  -0.73326266  2.4217033   1.0263327
  0.9734896   0.2737206 ]
[ 0.4124813   3.085744   -0.6895965   0.5408833   1.9036226   0.37646863
  0.2318694  -2.231354   -0.06366457 -1.1409764  -0.2605772  -0.05282249
 -2.9417984   0.5685529   2.4346356   0.3476342   0.09834899  0.53050613
  1.8994489  -1.2823449 ]
[  0.05989678  -1.4236889    0.32611832 -13.586014    -2.6211302
  -0.29749477   7.330324    -0.27039665   0.14387515   0.05711067
   0.35286942   0.16763343   2.7484546   -0.11831687  -0.32512194
  -0.3390398  -10.973602     0.8557705    0.3975663    0.87415105]
[ 0.07564427 -0.2041264   0.45385298  0.9542275   0.44859028 -0.12156425
 -0.3739404   0.5358802  -0.37574238 -0.45694932 -0.5239346  -0.02922689
 -0.33228898  0.11065758 -0.10720308  0.41699237  0.6015153   0.25426665
  0.29155496 -0.48355252]
[ 0.06385784 -0.07844072  0.42492968  0.6365103   1.205499   -0.34870216
 -0.24881689  0.8459524   0.36017722  0.32637814  1.1988693  -0.6754428
  1.1015804  -0.46827835 -1.0936186  -0.7344165   0.3752718  -0.63321626
  0.01807659  0.70145494]
[ 0.7032705  3.452896  -2.6379457  1.09755    3.3700697  3.3512428
  1.0661169 -3.3845546  2.3517327 -3.2748256 -2.210726  -2.695762
 -3.5524259  2.788306   3.7831006 -3.3084705  0.821996   3.0044506
  2.7396126 -2.57919  ]
[ 0.2002178  3.5792289 -2.8912835  1.2633243  2.9658015  3.1906188
  0.7684947 -3.3729012  2.283994  -3.2352278 -2.8857021 -3.0021918
 -3.5327559  2.9922378  3.8967886 -3.531037   1.1049141  3.3389363
  3.00062   -2.8176641]
layer 5 Activation
tanh
layer 6 Dense
20 1
[-1.9479375]
[-0.2470893]
[-0.01178076]
[0.3505024]
[-0.73788]
[1.0355053]
[0.8283117]
[0.17540102]
[0.19957817]
[0.14417459]
[-0.7525943]
[-0.63585794]
[0.66641146]
[0.26879734]
[-0.43220052]
[0.34278297]
[0.4873905]
[0.06108418]
[-0.22110705]
[-0.92452204]
[0.82574147]
