layers 7
layer 0 Dense
20 20
[0.52535504 -0.11869135 -0.2475555 -0.9842281 0.8886303 0.097135484 0.26305103 -0.29751617 0.38659528 -1.2957367 0.40825927 -0.20882984 -0.67609185 -1.4089249 0.37186137 -0.7803512 1.2750782 -0.23884983 1.1443002 -0.31241977 ]
[0.01272276 0.013111502 0.28824562 -0.2628482 -0.3193083 -0.30655342 -0.25311047 0.30675298 -0.18152966 -0.18757954 0.3473302 -0.0584248 -0.33848706 -0.095023036 0.0023136437 0.22386575 -0.36306322 0.33760834 -0.24726431 0.2849576 ]
[0.14948708 -0.0507783 -0.06070578 0.38586634 -0.27647635 -0.12010071 0.16332364 0.014124364 -0.03659022 0.1533125 0.007955492 -0.313563 0.1564573 0.16076112 -0.07926622 0.15120393 0.37618637 0.2197898 0.30943877 0.16214031 ]
[0.28153577 0.5020431 -0.7211909 -0.55490345 0.824569 0.38935864 0.06842208 -0.45108813 0.31236508 -1.4465313 -0.19695005 -0.42822996 -1.1442665 -1.3527557 0.08587767 -1.0028478 1.2397403 -0.44442374 1.1798583 -0.65656453 ]
[1.1414822 0.1899659 -1.54751 -1.3670281 0.9433596 0.11673622 0.116550624 -1.2468847 0.040688116 1.2611438 -0.36725345 -0.8125216 0.43572098 -0.57364374 -0.18366511 -1.9728078 1.4437555 -0.16355468 0.38363507 -1.8034778 ]
[0.24494958 0.123713076 -0.16376565 -0.12566948 -0.1252836 -0.28910983 0.13938081 0.037212104 0.094994694 0.33042878 -0.028797984 0.30395424 0.28368592 0.2843439 -0.3351442 -0.17883031 0.27107763 -0.15481614 -0.10483611 -0.124851644 ]
[0.25831896 -0.10187709 -0.25081265 -0.16091228 0.33587164 0.2133224 0.08819234 -0.3054626 -0.057827383 0.2624817 -0.054676116 0.2584287 0.021089792 -0.019007742 -0.14592619 0.13724113 -0.38292906 -0.21261184 0.1852696 0.3829366 ]
[-0.52723837 -0.6961199 0.5026533 1.1346151 -1.0116888 -0.38900957 -0.18103954 0.32464132 -0.613548 0.9921767 0.27350816 0.12071775 1.2250371 1.0755115 0.41042936 1.718726 -1.0068862 0.21953832 -0.5745558 2.2650967 ]
[-0.44871593 -0.39922905 0.38083625 -2.889662 0.29663813 -0.14950079 0.40666956 0.05169655 -0.6586523 -0.16638908 -2.2567008 -1.607762 1.467421 0.11976561 -1.9775578 -1.9521285 2.5270686 0.6068862 -0.9745545 0.92616683 ]
[0.106288664 1.2339861 0.42088434 -0.3668806 0.1661535 -0.18033588 0.5487708 -0.2578106 0.19585772 0.019637743 -0.7024475 1.1937162 0.0559553 -0.1733405 0.33527508 -0.0028079154 -0.14596824 1.1141896 0.07689864 -0.013681279 ]
[-0.12850496 -0.20392257 -0.04811711 0.23311076 0.08823739 1.0405393 0.5367914 0.2063013 -0.9751053 0.12327927 -0.13579227 1.1212116 0.2731759 -0.07108669 0.093717344 0.035086416 0.3128628 0.099216744 0.18695025 -0.06392138 ]
[0.17485954 0.089029156 0.0035386146 5.5374074 -1.4764103 -0.29497215 -0.36181447 0.1828987 -0.07031747 3.9506161 5.0153794 3.5358522 -0.16614167 2.9629054 1.3143411 4.600175 -6.3614473 0.02281194 -1.2142318 -2.953678 ]
[2.0280454 -0.36770406 -2.0297213 1.1995653 -0.31563845 -0.76259714 0.5865146 -1.6208292 -0.5558973 0.54061544 1.8914754 0.57731396 1.1249032 -0.90193933 -1.8238864 -1.5228541 -1.8211718 0.6684781 1.4744987 0.94935346 ]
[-0.99766034 1.1589217 -1.5462985 0.045410678 0.16853066 -0.17163786 0.6241785 0.33840105 0.1559928 -0.015711669 -0.33028638 0.16586463 0.18101615 -0.12436763 0.2570425 -0.10625361 -0.053119477 1.068009 0.12208069 0.010812709 ]
[-1.0587182 -0.20370828 0.49356142 -0.049486596 0.0491897 0.8987312 0.519851 -1.7039926 -0.896027 -0.06119468 0.08943965 0.24043623 0.51263136 -0.15533696 -0.05639933 0.0020956504 -0.04036145 0.073241875 -0.06350377 -0.06595246 ]
[-4.511849 0.03942227 4.8600903 -0.0956251 -1.2173101 0.31778416 -1.8169652 3.970135 -0.1147064 2.624835 -2.3097308 -0.11817332 0.2939259 4.3861513 1.3015406 3.980514 -0.45452228 -0.035303548 -4.901077 -2.2606463 ]
[-1.2771901 0.011790224 1.5278618 1.065665 1.0004574 0.11657509 -0.5840781 0.98714143 -0.019464618 -0.6189475 1.7506396 0.70183843 0.09275009 0.01616502 3.242659 2.3300333 -0.83365387 -0.11155424 0.37825015 -0.5143586 ]
[1.3085755 -1.722888 1.5640664 0.39675078 -0.03775636 0.172469 -1.6146172 -0.5494131 -0.1944934 -0.12899822 0.05846844 -0.913338 0.6984434 -0.2028633 0.39744374 -0.08061957 0.084719114 -2.1483448 -0.19879764 0.045851693 ]
[0.7253981 -0.25151262 -0.5657978 -0.40275034 0.24037191 -2.3734207 -2.0294483 1.3464935 2.176722 0.0450698 0.4101337 -1.2438632 -1.4442563 0.0067225546 0.1685815 -0.05270865 -0.31120145 0.158622 0.6614784 0.040268727 ]
[1.1839086 0.045400113 -1.3549426 -1.8005162 0.33815828 -0.24788073 1.178938 -1.0418189 -0.22941211 -3.3049278 -0.4224245 -0.86606574 1.0667763 -2.1700878 -2.3354502 -1.5197256 1.9006724 0.51336336 1.8388281 2.1189246 ]
[ 0.27969596 0.43366674 -0.22823323 -0.50438064 0.3500976 0.60597616 -0.12682244 -0.36277804 0.36634734 -0.8128529 -0.049754005 -0.042625442 -0.92885184 -0.68209165 -0.15971129 -0.7983191 0.47208318 -0.4549952 0.5273264 -0.44970632 ]
layer 1 Activation
tanh
layer 2 Dense
20 40
[0.07687584 -0.26100177 -0.576704 -1.7414151 0.10284387 -2.0890934 1.6658491 -0.22114624 -0.30649328 -0.87576556 1.4810982 1.2452352 1.1736221 -2.3209877 0.86145467 -0.5197814 -3.4857073 -0.5159008 -0.6374471 -0.28351447 0.12884949 0.31685695 0.62052953 -1.06925 0.21893634 -0.15675256 0.79319 -0.10663395 1.2662454 0.14373118 -0.5260282 0.39428964 1.6501516 0.49026945 -1.21821 0.44869766 1.1853639 0.04833675 0.025273114 0.1448061 ]
[-0.9608866 -1.001296 -0.9222391 0.73299396 -0.012436044 0.8623105 -0.7969417 -0.78415316 0.65257406 -0.67842346 -0.8896827 0.27354327 0.33145458 0.39911672 0.29429328 -0.98812675 0.63560426 0.2855492 0.06304942 0.46011543 -0.48326892 2.5415888 -3.238584 -1.0253866 -1.5231131 -0.6794679 0.47220188 -0.24843597 0.078239575 -0.27086216 1.0644561 -0.28401726 -1.0039737 0.5254444 0.39078593 -1.0874065 -1.7383522 0.2011967 1.9571592 -2.095761 ]
[0.4400184 -0.07269866 1.5803288 -0.7505048 0.06614473 -0.53733486 -0.44967622 0.14700991 -0.42640144 0.33860096 -0.19289787 -0.92472506 1.68019 1.8929843 1.0906094 0.40027067 -0.024326876 1.2009652 0.106785655 0.094925255 -0.060021978 -0.9554453 1.3617245 1.2203766 -0.08983699 1.1246608 1.3622822 -0.0649378 -0.8379419 -0.49023974 -0.92631227 -1.1707665 -1.9019715 3.0107877 0.23908438 0.55693674 0.20292556 -0.10194054 -0.24416235 0.67262757 ]
[0.54788834 0.49062657 -0.1888282 2.047812 -2.1458423 -0.35253137 -0.11355781 -0.7899736 -0.15787594 2.017108 0.07012947 -0.4455511 -1.1802032 -0.17614606 -0.25927913 -0.60538065 -0.014267868 1.0710961 0.1349415 -0.43632618 0.14220878 -0.03918175 0.76523745 -0.86403596 -0.40478948 -0.5292787 -0.09424332 0.018344715 1.4286076 -1.0454831 -0.74647415 -0.6745022 -0.04113102 -0.6678071 -1.4977442 2.097503 -0.71702 0.0020802848 -0.45804545 -1.0928013 ]
[-1.0043782 0.99802315 0.43183532 -1.7198994 0.25944242 -0.018175827 0.41830757 -0.3621173 -0.6541758 -1.4544698 0.38118553 -0.10755606 2.035705 0.032332774 0.084607854 0.08842092 0.122135244 1.4235575 0.3397838 1.7923216 -0.35621694 1.493377 -0.036788132 1.0577118 -0.77153885 1.9857857 -0.2818974 -1.9642322 0.6137137 1.7939771 -1.0925885 -0.31593353 0.9453616 1.8749728 -1.2928058 0.6694929 -1.4366826 0.39126444 0.50595707 0.045956533 ]
[0.52616566 3.8158476 2.0991027 0.78973025 -0.029768208 2.1002147 0.9127577 -0.39472222 0.2881041 -1.226675 0.63735026 -0.9868185 -0.91961044 0.124815695 -0.63590145 -0.59234786 0.38483295 4.367689 -0.25897843 0.36095834 -0.3375533 1.7035387 -1.5956795 -1.3346313 -1.1699917 -0.996226 0.7905668 -0.591503 -0.007571301 -0.5647083 -1.1440697 0.27541506 -0.58246994 1.9840307 0.012031901 0.5398323 -1.5318042 -0.020889498 -1.5456942 -0.7525189 ]
[-0.37494093 0.42258734 4.4924464 3.2578468 0.21330336 6.037276 -0.574468 0.5996495 0.68385947 -0.34609863 -0.50588715 0.437876 1.537289 -0.37700522 -2.4011145 -0.1835424 2.1562157 0.8984431 0.5957227 -0.13700512 0.1720439 0.05751651 -1.602786 0.10742071 -0.55601287 0.8456472 -0.15106635 -0.27697486 0.37107867 -0.37407616 1.3769801 1.2714779 0.26907492 0.029487059 -1.5020893 -0.50592583 -1.1485704 0.10132734 -1.0633359 -0.55013657 ]
[-0.20596398 -0.025406523 -2.0555677 -0.34095415 -0.0696638 -0.60913205 -0.21280195 -0.35151517 -0.1299675 0.016616426 1.4383745 -0.6432331 -0.8471812 2.039055 -0.14307436 0.3793976 -0.1070127 -0.7202276 -0.8624468 0.09105393 -0.07119232 -1.090595 -0.067880064 0.17460108 0.078251086 -0.10420279 -0.53783965 -0.72464556 -0.9431181 -0.7393141 -0.020054286 0.15426731 -1.8060476 -0.51030326 -0.28719836 -0.1822138 0.7216985 0.08474934 0.27030733 0.8629663 ]
[-0.975511 1.9635379 -2.5339482 -2.126078 0.07998487 -3.0049462 0.80820394 0.08954715 -1.8115131 -0.57964396 -0.40741038 -0.6635842 -0.23229846 -0.3627313 -0.051949423 -0.62170947 -0.21034434 -4.124724 0.2735977 0.2809998 -0.3889297 -1.2355604 -3.1684344 -0.8718861 0.8228801 -0.42738888 -0.2156235 0.16025434 0.16410245 -0.31881687 -2.3784387 -0.62823564 -0.40085393 -0.1561419 1.6739805 -1.8911268 1.7713288 0.5732289 2.5512996 -0.74494135 ]
[-0.41742432 0.14945513 -1.7758102 -0.7177091 -0.13112232 -0.7391505 1.2357789 0.18190841 0.091780774 0.052748755 0.31828797 -0.1491016 -1.9449037 0.26464227 0.09676673 -0.2881921 -0.28174058 -0.12534563 0.25701526 -0.9975437 -0.29092324 0.42029417 -0.06918888 -0.56843233 0.023644425 -1.9535867 -0.46992162 0.6110801 0.4462849 -1.4205899 -0.6002797 -0.92140985 -0.84482795 -0.21937932 0.6143739 -0.0090969615 -0.7561565 -0.06577735 0.007917162 -0.8854957 ]
[-0.037460115 -0.012303803 1.7726551 -2.0163214 -0.41182417 -1.1437899 -1.131912 -0.10823607 -0.12499273 0.5757775 -0.21412656 -0.15901434 1.0254908 -0.35146472 -0.016042914 -0.3096867 0.005891159 0.48406047 0.06586013 0.7428528 0.0053642206 -0.47038507 1.3464661 -0.62440574 -0.03296371 0.7481791 -0.344301 -0.26854107 0.974758 0.9563369 0.34425807 0.26656345 -0.067190036 0.10062002 -0.6717499 0.03081939 0.20515497 -0.07617573 -0.29186514 -1.6167265 ]
[-0.10968447 -0.12718995 1.1735278 1.6357409 -0.8938316 2.4887266 -1.0187279 -0.38339368 0.4620085 0.10409652 1.2803597 -0.7347105 -1.145713 -0.80220574 -1.1153125 -0.09729629 1.2804779 0.0506593 -0.62212336 0.18325152 -0.00886823 -0.65183276 -0.7699481 -1.2405161 -0.25674844 -0.73013866 2.30472 0.3786476 -0.030775733 -0.073258385 0.6747246 -0.86638457 0.23643652 2.113256 0.7217364 -0.9168574 -1.135096 0.021562796 -0.27995998 -0.5819651 ]
[0.5821363 -1.9061682 -0.8862801 0.8952639 -0.104388885 0.25324073 -0.76611173 0.90293825 0.76861805 2.0584087 -1.420858 -0.9153173 -1.8941876 1.0057034 -3.1044793 -0.6762386 -3.0695014 0.07960978 -1.2578093 -1.8069268 0.13912305 -1.4685209 -0.96708244 -1.4339515 -0.5241871 -2.6276863 2.9168496 2.427553 -2.1132927 -2.1047065 -0.6135905 -1.291072 -2.223183 -1.9977868 2.356391 -0.96366847 1.0531919 -2.6447418 0.032129884 -0.82851046 ]
[-1.5801998 -0.35483855 -0.6816216 -2.3577058 0.65627974 -0.006019187 -1.7728134 -2.657109 -1.2261857 6.2468715 1.5681776 -1.2102946 -3.7031174 4.0216336 -0.38548124 -1.0415779 -0.99936295 1.4969068 0.5193613 -1.82715 -1.3195198 -2.3078737 0.63052446 -1.1196965 -0.42893234 -4.014387 0.80197984 3.415897 -1.0124248 -4.1733356 -0.40708005 -4.1969433 -3.361599 -0.2041845 1.9370044 0.51229763 -0.109677374 1.9970245 1.2418209 -2.0448096 ]
[-0.01217697 0.06845811 -1.0972515 -1.7033876 -0.6128151 -1.1136659 -0.3141315 -0.15797463 -0.09983063 -0.7014066 0.23384161 -0.8744848 1.2117203 1.2071632 0.04336138 -0.28103516 -0.07302759 0.30623773 -0.024833037 0.8180035 -0.50918573 -0.2669815 1.0766023 -1.3052998 0.1393306 1.2905174 0.35899022 -0.3602986 -0.30419067 0.47770607 -0.23389041 -0.7771733 -1.3597032 0.009113663 -0.12888111 0.043387707 -0.039032917 -0.06020042 0.19790079 -1.2715826 ]
[0.8631461 1.0705577 0.41000512 0.37366846 -1.8117964 1.585312 -4.521158 -0.19888079 1.2101191 2.9012878 1.0128263 -0.51040703 0.9331123 3.0686822 0.61191815 1.0906107 0.41037628 -1.010582 0.34032616 -0.79527265 -0.7144478 -1.8288535 -0.8482073 -1.4496573 0.29718646 -0.7717993 0.66840535 1.2682474 0.28087938 -1.7868183 1.9768751 -2.4792314 -1.8529522 0.06770466 0.26696897 -1.8842907 1.0494426 0.4532327 -0.078249104 -3.30223 ]
[1.5518433 0.20272742 2.9182007 0.5801162 2.6589656 2.1641474 2.0103354 -1.0440624 0.42637542 -1.8006068 1.0680552 0.88663054 3.4870522 -0.03752846 -1.0915599 0.835647 -0.09679661 0.30554304 -0.91999716 0.25187176 0.13493344 0.028324328 0.6707952 2.330948 -0.49430433 3.689012 0.6858309 0.03253296 -1.9705182 2.0992646 1.0922328 0.42946327 0.33948615 -0.35909635 -0.87430364 1.3563355 -0.21630746 -1.209063 -1.6008686 1.1192706 ]
[-0.41911572 0.5015884 1.1218959 1.3200506 0.16285236 3.528209 -1.1988084 0.22818479 1.7123393 0.80333984 0.79372346 2.6449397 2.3653173 0.5714553 0.31551456 0.8946222 0.22685695 -4.9424047 -0.3664267 -0.21464814 0.43878362 1.2868195 -2.168897 3.083861 1.3995751 2.2885222 -0.47482347 0.13133457 0.31464905 1.2819728 1.3147568 0.06596469 0.40959793 0.27258372 -2.103941 -0.9093219 -0.3112553 0.07618184 -0.18470691 -0.3809318 ]
[0.14930594 -0.7019437 -1.7145582 -0.3541765 -0.39548695 -1.6643974 0.41995686 -0.011464178 -0.16306582 -0.11450005 0.22498968 0.0013857328 -0.47102752 -1.2592182 0.10630366 -0.17002684 0.06733348 -0.68414533 -0.61589533 0.19853573 0.33440667 0.7836783 0.20299582 -0.34674436 0.5640843 0.82490236 -0.07669116 -0.4193369 -0.050880235 0.9441707 0.095703065 1.0348511 2.4456592 -0.3965977 -0.8835984 -1.0234655 0.9158413 -0.33145782 0.23490967 0.44155857 ]
[-0.5478689 -0.14531256 0.1444517 1.2409511 -1.2905498 -1.3754089 -0.13000193 -0.38969818 -0.3264817 1.321484 1.0380799 -1.5997095 -1.7478317 0.7104981 -0.4507975 -1.0038167 -0.006205134 0.8451293 0.015255705 -2.0424874 -1.0917484 -1.2276955 -1.804301 -3.1121383 -0.8094964 -2.283526 1.0450295 1.4021587 -0.885408 -1.6173369 -0.9568604 -0.52565944 -1.4384001 -0.07561023 1.4238242 1.5060785 -1.1436522 1.134268 -0.10830632 -2.5174966 ]
[ -0.44518217 2.0740113 1.088309 -1.1670508 0.38806012 0.1938099 0.68940187 -1.1266518 -0.51293933 -1.9076409 1.208614 0.8095932 2.102468 -0.7149497 3.1126223 0.6213455 2.9880848 0.35072643 1.3077545 2.180712 0.16623372 1.351085 0.8979407 1.768468 0.31253272 2.5681334 -2.572669 -2.1512866 2.2610703 2.3841681 0.53680944 1.5582006 2.1982152 2.3626156 -2.2321727 0.9612661 -1.2401872 2.3648193 0.12509742 0.9026883 ]
layer 3 Activation
tanh
layer 4 Dense
40 20
[0.12016294 0.037302162 -1.9834074 2.2167072 0.3497845 -0.94859976 0.28387347 0.67776144 0.9795035 -0.6372224 0.75891256 0.44303367 -0.82602227 0.36416385 -1.6646855 0.30350894 0.15039778 -1.6745582 -0.92719764 0.2999753 ]
[1.1523216 -0.4895971 0.16488786 -0.112014376 -0.21957006 0.5914761 0.23068877 0.020967487 0.71192914 0.9695344 -0.28678134 0.66876906 -1.0719435 -0.8895892 0.36826447 -1.1797018 -0.29861102 -0.33175185 -0.6689919 1.6473986 ]
[0.03695515 0.11547019 -1.3698932 0.93462735 -0.15056233 -1.1639463 0.029905293 0.67006963 -0.018582469 -0.32629946 0.8379667 0.48414606 -0.9297621 0.14087875 -1.7037541 -0.40994865 -0.017015165 -1.2422695 -0.83613473 1.7841884 ]
[0.008384649 0.65983874 -1.4041687 0.2151287 0.35499918 -0.20799771 0.04812139 -0.059326082 -0.33145818 0.45558763 -0.018090544 -0.76928097 1.5929466 0.13407432 1.2593645 0.21072702 -0.017788203 -0.037642077 0.37323302 -1.5913845 ]
[-0.5537177 -0.51072943 -4.370585 1.3952266 -0.11313522 0.19678073 0.5349844 1.9104205 1.1402584 0.14347664 1.5646015 0.17648433 -3.2595778 0.36799997 -1.2936321 -0.96272814 0.37078187 -1.4432265 -2.887902 0.8924376 ]
[0.092079215 0.11411081 -1.2755654 1.9837793 0.39459753 -0.07000571 0.65641725 1.0314845 1.1448599 -0.36454895 1.0093616 0.2486614 -1.0051818 -0.14814796 0.46964437 -0.25178337 -0.4672732 -1.823309 0.8621071 1.618088 ]
[-0.02346365 -0.95916486 -1.3925414 0.45339435 -0.35153982 1.462617 0.21488686 0.5116871 -0.064823255 1.1748071 0.7236042 0.74965507 -0.81249726 0.3869787 -0.3877683 -1.952085 0.1443363 1.0478325 -0.9994323 -0.3034219 ]
[-0.047005337 0.20381495 -1.310115 0.7162764 0.80170155 -0.9198652 0.07895821 -0.01856638 0.25561932 -0.182085 -0.027089331 -0.24598977 -0.60488236 0.4374232 -2.174657 0.0038366003 0.12061277 -0.77351546 0.013931508 0.20034763 ]
[-0.24247253 0.6460166 -1.7411835 0.40666762 0.2550678 -0.46063536 0.24787693 -0.4169444 0.6896597 -0.8313567 0.3535989 -1.0517274 -1.1046759 0.388806 -0.79510266 0.439574 0.061480567 -1.4566329 -0.775731 0.15793736 ]
[0.020364242 0.5593515 2.5409951 -1.5645834 0.3904881 -0.6158346 -0.3843798 -0.63627446 -2.1459296 -0.43995544 -0.27863404 -0.55019385 1.3939434 -0.5010657 -1.0070273 1.4000593 -0.004403109 0.15629807 0.8834921 -0.8430502 ]
[-0.059970915 -0.38107282 1.1557478 -0.820129 -0.05870825 0.581994 -0.16299255 0.6288184 -1.3547765 0.30106607 0.43323785 -0.34721842 1.5410423 0.30009627 -0.41620582 -0.73584396 -0.0977073 0.19666697 0.7343434 -1.2666115 ]
[-0.15734015 -0.26683232 -1.1887254 0.6527818 -0.003966112 -0.25402007 0.06940731 0.33433285 1.8865548 -0.01807259 0.44242436 -0.32423553 -1.02079 0.06326527 -3.1315193 1.6214517 0.13914469 -1.7484058 -0.8357477 1.7682493 ]
[0.5690372 -1.148117 -0.16844992 0.18404303 -1.1532986 0.59211415 -0.48074484 0.3628607 1.1878788 1.305569 -0.22153857 1.1968104 -0.90804374 -0.04665681 -0.70517737 -0.9593217 -0.5352795 -1.3066735 -1.2544396 2.4727473 ]
[0.3650251 0.88989025 2.105197 -0.3146617 0.22182818 -0.8601553 -0.17897728 -1.8481895 -3.4280279 -0.25791156 -0.99517655 0.31182852 2.3820367 -0.4680094 2.1336021 0.19935422 -0.37716243 1.5037557 1.8044716 -1.0870563 ]
[-0.06639215 -0.8945304 0.35054484 0.4444961 -0.79551995 0.9737709 -0.49920112 -0.047938995 0.66885006 0.79259217 -0.48753202 0.8418544 -0.5209468 -0.6333465 0.6466028 -1.0263642 -0.15319169 -0.52745974 -0.5829056 1.0417589 ]
[-0.35085124 -0.8864866 -2.4645138 2.0484042 -0.51857924 -0.53337425 0.45388457 1.3925804 2.3849053 0.57494485 0.05154832 -0.050580107 -2.646869 0.6590106 -3.460029 -1.4571215 0.29252294 -3.0695772 -1.311586 2.7574735 ]
[-0.025029171 -0.59804136 1.2390887 -0.53141266 -1.0107529 0.716962 -0.12523971 0.20142418 0.6873356 0.8115674 -0.12427406 1.0734259 -0.54426014 -0.50555927 1.4926392 -0.9969065 -0.1303981 0.28229284 -0.66587967 1.5501975 ]
[0.7371667 -0.5106471 1.7286011 -2.1019168 -0.16720045 0.3406694 0.6596696 -0.5879531 -4.6110134 0.65127015 -0.6971975 0.98700005 1.8910199 -0.11156429 2.59762 -0.44001576 0.51279277 2.7724864 2.1467936 -2.9951222 ]
[-0.0052421144 -0.2362597 0.89167523 -0.44736966 -0.58356583 1.0327497 -0.28011274 0.33424076 -1.0819563 0.91845006 0.27377984 -0.12705064 0.7453159 0.0044932296 1.4383756 -0.6885954 -0.18607818 1.7369015 -0.39216313 -0.51769376 ]
[0.5218513 -1.0576706 0.21143954 1.1565628 -0.9003568 0.78999573 -0.80621535 0.9889766 1.0127622 1.6983458 0.37699136 1.306153 -0.99378026 -0.3035002 -0.4062073 -0.9535509 -0.40631145 -0.4673328 -1.449744 1.1428282 ]
[-0.94774634 -0.15570104 -2.4337888 2.016669 -0.47813135 0.41007954 1.0843103 1.3649662 0.0717214 0.047391154 1.1994861 -0.19698957 -0.69542134 1.6143317 -3.5094469 0.4867141 1.0004627 -2.0471332 0.66302687 0.28333208 ]
[-0.21421012 -0.4348259 1.1463065 0.23627152 -0.27301463 0.2600404 0.09358766 0.7040144 0.29431933 0.30660197 0.512611 0.2535617 -0.40242165 0.68128717 -1.0734577 -1.1849444 0.22058913 -0.6453847 -0.03302834 1.375299 ]
[0.14844681 -0.13204458 -2.4241605 2.6110497 0.007559036 0.038831238 -0.056415435 -0.094323754 3.235206 -0.08115857 0.8940613 0.55897844 -2.5117002 -0.3059863 -1.1379222 -0.73024637 0.022307377 -1.81638 -3.056207 2.820561 ]
[-0.04518106 -0.9146294 -2.3561661 1.662943 -1.44026 0.64060825 0.45988384 1.8085319 3.9407043 0.5538243 0.5705071 1.0331857 -3.3873763 0.7702161 -3.184727 -0.9684675 0.477841 -5.660701 -2.4384453 3.0471337 ]
[-0.34117922 0.44020146 -2.5944195 2.285715 0.47250637 -0.19847181 0.27466297 0.9973164 2.0535445 -0.18183878 0.9453405 0.0107873 -2.6552427 0.48921162 -1.105507 0.21989965 0.163558 -2.6887999 -1.9367864 1.9410691 ]
[0.6459303 -0.9331379 0.16144072 1.2436465 -0.843549 0.7903694 -0.70210505 0.6837341 1.6604434 1.1210223 -0.25531992 1.6497737 -1.0100573 -0.13125798 -0.88933396 -0.7627953 -0.3907488 -2.5011475 -1.3253754 1.2632027 ]
[0.17794715 0.09883031 -0.15121624 -0.45115134 0.40427193 -0.9184356 0.6100192 -0.20127076 -0.49669188 -1.0707713 -0.5061713 -0.88365155 0.7038845 -0.33130798 0.071178 0.5242842 0.3669362 0.36993483 1.0962031 -1.0272896 ]
[-0.15081927 0.25614887 0.96958405 -0.8978669 1.1514885 -1.3019674 0.38284516 -1.2224141 -0.78153056 -1.463006 -0.66191274 -0.76459444 1.6153214 -0.18944068 0.62514967 0.99043274 0.31504792 0.43493447 1.3180314 -1.0630726 ]
[-0.22980738 -0.6719241 -0.10125642 2.391717 -0.956091 1.3434093 0.25928733 1.4344968 2.3240814 1.1010886 1.4769343 1.1933571 -1.353496 1.2383959 0.14601368 -0.32647958 0.20480277 -2.7962234 -3.469899 0.88531834 ]
[-0.008688781 -0.789318 -0.5382649 0.71807957 -0.6558154 1.5398501 0.52079314 1.6051883 0.9789199 0.98395205 0.74670273 1.2998637 -1.1244283 0.6616133 -0.6891428 -0.8674865 0.38642305 -0.9170229 -2.0075066 0.8123667 ]
[-0.27395165 -0.254189 -0.9309839 1.7787052 0.058339473 0.25148225 0.12317107 0.041889034 2.0345547 -0.21243484 0.3298451 -0.64885175 -1.3094462 0.12234453 -4.0438275 -0.3456952 0.0356112 -1.2823409 -0.40409178 2.369909 ]
[-0.53661585 -0.014250103 -2.3561609 2.3462589 -0.2737149 0.38956738 0.43570775 0.8215322 -0.5536796 0.21454418 1.0006973 0.46778202 -0.8652751 0.3062188 0.03212123 0.13074672 0.47547123 -1.1923223 -0.6474032 0.6502161 ]
[-0.25005183 -0.7464742 -2.2843642 2.8547297 -1.3345463 0.89394933 0.35178623 2.0808325 1.8746599 0.99323803 0.038800944 1.2648339 -1.8102459 0.8929185 -0.23689105 0.2527779 0.21769129 -1.712837 -3.438334 0.47978845 ]
[0.2495872 -0.37572867 1.4541099 -0.6498206 -0.36147788 1.0014406 0.168924 0.2252681 0.12989905 1.0689353 0.045108277 1.0108392 -0.11915168 -0.40654847 1.2046745 -2.8880513 -0.13096419 0.12022772 -0.37763172 0.45090568 ]
[-0.036833446 0.7295223 0.34326142 -0.17380765 0.78346574 -0.5219446 -0.081918746 -0.72386813 -1.2155967 -0.71401966 -1.0997707 -1.4067489 0.9233595 -0.36672235 2.1756601 -0.11944133 -0.0137059465 1.9782834 0.5526203 -2.687779 ]
[0.13800512 -0.6100854 0.40510532 -0.062952 -0.5118141 0.3775065 -0.37665758 -0.41761464 0.6705967 0.67016774 0.29921287 0.10588415 -0.13442971 -0.4557788 0.11660245 -0.021541703 -0.020246116 -0.06834012 -1.9607401 0.82380074 ]
[-0.2845988 0.477388 -1.5317556 0.9788701 0.60716546 -0.64059514 -0.15406637 0.38047853 -0.3281571 -0.8434787 0.55878866 -0.062066082 0.109899156 0.3473757 -1.0286318 0.8396881 0.07103405 -0.9031354 -0.8837291 -0.7168344 ]
[-0.32765734 -0.8412808 -0.10986059 0.803276 -0.94881564 0.4042652 -0.56986487 0.15361488 0.6328143 0.69855756 0.038684417 0.44417578 -0.7118412 -0.31349978 0.268646 -0.8105338 -0.67451054 -0.6390546 -0.8420121 1.2148042 ]
[-0.33229783 0.14056961 1.0096204 -2.1633492 0.3441737 -0.44446906 -0.33754185 -0.11851092 -0.8588837 -0.43021452 -0.5507497 -0.6990961 0.9681815 -0.3807782 3.2069762 -0.23282707 -0.10504399 1.4651679 -0.60696507 -0.40155727 ]
[0.0225866 -0.3286253 -0.65502745 0.9724712 -0.4433579 0.19744223 0.06543436 0.08991542 -0.11432829 0.98180336 1.141994 2.1608398 -0.96869415 -0.003575339 -0.4258706 -1.396427 0.08624876 -0.7616359 -1.8018692 -0.5121775 ]
[ 0.6867384 -0.878506 -0.0063588344 0.95641917 -0.9085023 0.9659434 -0.6339693 0.6605364 0.70550615 1.3539037 0.12260841 0.9616452 -0.78392196 -0.033702806 -0.17900054 -0.97846675 -0.39788407 -0.49525458 -1.152648 1.2807709 ]
layer 5 Activation
tanh
layer 6 Dense
20 1
[1.5064433 ]
[-2.3656814 ]
[0.9855611 ]
[-1.0716052 ]
[-1.826228 ]
[2.3720157 ]
[-1.4677199 ]
[-1.363429 ]
[-0.95474845 ]
[2.27834 ]
[-1.4880191 ]
[2.2100089 ]
[1.6747622 ]
[-2.0451798 ]
[0.46947697 ]
[-2.2676208 ]
[-2.0699816 ]
[0.7925589 ]
[1.3142463 ]
[-1.5196192 ]
[ 1.8193399 ]
